747154.6911946991,276.58906944695553,20.910097283383138,-0.20875966456810446,275.79696733019875
747154.6911946991,12.839421357095938,3.2750773681924437,-0.32512740135257684,12.399536329649376
747154.6911946991,186.61471224894638,14.748030768867018,-0.4429672126176266,186.02978201418756
747154.6911946991,20.807239094239822,6.5456516209288615,-0.3606023038954055,-19.740699317924854
747154.6911946991,198.46016724642135,8.689202567285388,-0.052002975053159615,198.26916713879845
747154.6911946991,72.24375743264403,7.7376433324046054,-0.07895312486326905,-71.82626768843886
747154.6911946991,19.17092932779777,8.760419709914235,0.47074547174302367,-17.037827810445684
747154.6911946991,126.06431839138568,24.826175065865662,0.14335259452634255,123.59442727371365
747154.6911946991,176.77981722113736,2.9214288660787453,0.3712239917569801,176.75452136470813
747154.6911946991,34.36649185869354,8.740621490154037,-0.3558399839363374,33.23041192259493
747154.6911946991,7.365585176039686,4.258030601671767,0.2552810819231269,-5.982094277920945
747154.6911946991,45.09973898488182,19.746992684457087,0.0660684098788318,40.54340848263357
747154.6911946991,6.07931241419621,3.5673493807489054,-0.37409248288688035,4.880749188323251
747154.6911946991,14.620031202098705,10.512485381951974,-0.4839657219566562,-10.135499031846273
747154.6911946991,65.02216280206461,12.511314339314417,-0.5962822147926524,63.802215607934656
747154.6911946991,30.80890291549029,18.51768673039583,-0.007414341306276291,24.617337834107314
747154.6911946991,303.2334622024641,23.948861884656687,-0.31371952821290694,302.2856526429604
747154.6911946991,32.9267461394928,13.171307834565912,-0.3339069171146771,-30.171267249361765
747154.6911946991,25.690014026048356,12.073214906692895,-0.6127491427817285,-22.6620484723555
747154.6911946991,25.178933252604057,20.464647506534888,0.1265406884365823,-14.659142868071648
747154.6911946991,12.14993795760574,5.519949334559844,-0.43748042987323554,-10.8022850634039
747154.6911946991,27.25431719000256,16.27597277297091,0.6341619394759315,-21.845318821690352
747154.6911946991,40.12680706728722,7.166282979074662,-0.1614733614533687,-39.47795030181604
747154.6911946991,12.444942543928708,7.262928726265078,-0.2170810914922034,10.090041478536985
747154.6911946991,3.862528873558329,3.3718191435898164,0.26341926750807887,-1.791696193973337
747154.6911946991,42.431269787418216,28.322935970766945,0.16078026644827248,-31.589993723874443
747154.6911946991,101.7888519388284,21.936475294884858,0.07268895993211187,99.3956022516929
747154.6911946991,9.83324903679245,8.548145630328255,-0.05324820870228088,-4.8320552077299
747154.6911946991,6.331841000904422,5.2349701688710075,-0.1340320972080348,3.5212118920455473
747154.6911946991,239.28241177354596,19.723039455739894,0.37747765724125637,-238.4673172772538
747154.6911946991,11.092405232334857,10.840892143527807,0.3716921008507644,2.2600788377603096
747154.6911946991,116.84236296802322,7.472597692072869,0.428707367030783,-116.60121730787019
747154.6911946991,29.15087069048179,6.198203681115775,-0.03338906365422578,28.47953683455932
747154.6911946991,20.132560956443044,18.98196403173148,0.4733138659922857,6.671628447928333
747154.6911946991,420.1987035478874,19.636228786587157,0.3702701412306911,419.7391588622495
747154.6911946991,277.1836467477816,36.02114997955416,0.5176987981996057,-274.8321530798458
747154.6911946991,27.452957307313504,6.913839064824471,-0.148085246266621,26.562593342193125
747154.6911946991,19.23771542625128,17.980657559724694,0.20655917925845582,6.817080155521552
747154.6911946991,38.42833469831116,38.232852933709964,-0.02926893054743546,3.8359624039393196
747154.6911946991,28.46506039996167,24.193026607846598,-0.4656809772750551,14.98231852394336
747154.6911946991,21.429287290487963,11.350625983488182,-0.2502246009531678,-18.16713051668616
747154.6911946991,60.892458502665185,25.79482915233789,0.18730995906290554,-55.1562580899007
747154.6911946991,35.350090439309966,5.472952644093753,0.26033827492008826,34.91901355143803
747154.6911946991,48.07143584316425,4.729667099193299,-0.6139852710557026,47.8314312480945
747154.6911946991,162.86477160591681,15.892196309979688,-0.04975941454518831,-162.08670226361318
747154.6911946991,174.3705253614903,24.44770552596112,0.08108488858837236,-172.64736555939356
747154.6911946991,11.834195329132559,8.555865510296332,0.00980089297627199,-8.159341174401362
747154.6911946991,14.596371098413453,3.909276689223095,0.48143678024121556,-14.045263387930019
747154.6911946991,476.09223368171746,8.04874655808262,-0.052463536597469274,-476.0239064358724
747154.6911946991,19.46845761014196,19.44217455229774,0.3626046368822474,0.787913874222351
747154.6911946991,5.928673679166761,1.1827076535383254,0.3987425224984888,5.772432641534949
747154.6911946991,18.473690191252288,16.626081505417087,0.10476501121253268,-8.035500441791061
747154.6911946991,34.01314622367261,18.521580428222002,0.4470489231930605,-28.519728640611394
747154.6911946991,78.74307462423735,8.374355945373456,0.0422662576580956,78.29476213222608
747154.6911946991,253.03249304717275,18.626641980334302,-0.23998181714177313,252.3453244166244
747154.6911946991,35.539229088965726,6.031067908046262,0.6778726972658963,-35.01332764438169
747154.6911946991,17.31317509510735,14.525058410381552,-0.27938546105305995,-9.403204443858582
747154.6911946991,37.21270306703013,21.783776554869213,-0.45743920564835683,-30.16243852767246
747154.6911946991,27.889766831593814,5.1446597250113175,-0.12984084995755826,27.405917455691924
747154.6911946991,642.5335396317691,9.591218340013985,0.6500446534195861,642.4614113893792
747154.6911946991,140.1021836916617,15.427279826663199,0.6554706186811615,139.24769610514204
747154.6911946991,11.74549301029094,9.866000646092608,0.2965867620328245,-6.345098391568122
747154.6911946991,31.068960787712374,30.580794706518443,-0.1408578075609538,-5.459402771753698
747154.6911946991,53.4925645506316,9.784212047385886,-0.10098036834170665,52.587480066841835
747154.6911946991,17.531805194996554,16.530836424876437,-0.6293960018251072,-5.781790480653312
747154.6911946991,215.2124326612781,9.617823328793506,-0.3995167561417806,-214.99641539514755
747154.6911946991,111.18249537821183,17.734598038039827,0.36516335861345534,-109.7571299127158
747154.6911946991,53.10731750623301,5.1744892143707855,0.68348145372898,-52.847651671390395
747154.6911946991,86.8389653413762,2.338945568196269,0.12628671649428783,-86.80581136568557
747154.6911946991,4.678699428398024,3.272583101771023,0.02165187216925087,-3.3029622128819933
747154.6911946991,111.28088232164475,15.990418132800407,-0.006627937442170822,110.12479672758721
747154.6911946991,4.8391437187201936,3.5173322830988605,-0.15330270118022807,-3.2789912812495405
747154.6911946991,92.86542269186363,14.124892556729439,-0.16396868053484778,91.78331469429044
747154.6911946991,14.601988650867682,14.160907336369757,-0.31161343248933165,3.5098821973835523
747154.6911946991,19.945970785974886,4.70741611901851,0.019538903498575018,-19.375531020042214
747154.6911946991,43.573852681250436,12.14551555564473,0.2290908407863278,41.843090310845554
747154.6911946991,38.181423990765836,5.19155592403472,-0.4453704336942643,37.82063101307328
747154.6911946991,46.999793201880415,19.502095064444923,0.6302618434606724,-42.754897019236935
747154.6911946991,38.393589941173346,19.418509840763292,-0.19323412956822292,-33.11618161422473
747154.6911946991,17.078951482036096,6.90906006729555,-0.19285409613007992,-15.60922419628378
747154.6911946991,28.531700783079888,28.45412705019575,0.5227822419859657,-1.9689850466634202
747154.6911946991,5.581717103317002,3.3143882149069768,0.226168575727149,4.45520418810416
747154.6911946991,1159.601890002128,29.527990211108857,-0.46313142581089034,-1159.2256709544877
747154.6911946991,85.86215838608263,6.628036023497115,-0.5279172655550688,85.60274694511094
747154.6911946991,47.55680666694754,36.070155015267815,-0.43722777212660985,30.98600021634379
747154.6911946991,12.567613849443346,12.199774694892318,-0.0035896626272631962,-2.9732141491839474
747154.6911946991,17.34236761588229,16.439714701014616,-0.2820212621287705,-5.490315025693326
747154.6911946991,46.458945394815274,4.544238709184437,-0.04096046302728888,-46.23322856985921
747154.6911946991,491.2260382042248,10.58680188754486,-0.07621588336352066,-491.1116614648357
747154.6911946991,2078.7853202772285,23.45226555153498,0.05002559361177776,-2078.652959524037
747154.6911946991,136.1124987865498,10.855204451774936,0.49348735241974406,-135.6770538170021
747154.6911946991,23.480947188282112,23.470411508226988,-0.38290215803638983,-0.27865826876465605
747154.6911946991,28.79430429478331,4.333365836833571,0.2816934320019432,-28.460220469193615
747154.6911946991,24.3035946720151,10.272317850157014,-0.6336811199139936,22.010730296953145
747154.6911946991,111.69762886482033,20.97808206910455,0.5268216125448332,109.70748573234924
747154.6911946991,1.8505997638530909,1.1700513146699956,-0.2226298216348292,1.3174731001166493
747154.6911946991,310.66603919066927,13.29762904149549,0.6974310182778157,-310.3800962662844
747154.6911946991,50.9604679253456,31.437946592598838,-0.00864598047585637,40.104293167416664
747154.6911946991,33.028133352310036,22.313417657685925,0.5494360098364306,24.33920099844569
747154.6911946991,24.866356425921502,22.987222120595952,0.0863506020653554,-9.468127832516544
747154.6911946991,18.353281320531387,18.324469549401293,-0.40940007807498846,0.7866018940373884
747154.6911946991,17.200114486055842,6.132541333117386,-0.08161939276123871,-16.061096270359634
747154.6911946991,24.62434327375927,10.56800191747432,-0.1747022359289244,22.234538364107173
747154.6911946991,22.14330135975448,18.197549132261194,-0.2218665900974,-12.603784189839308
747154.6911946991,18.194953974824976,7.528245462240207,-0.4373212455666309,16.550535354919333
747154.6911946991,183.0052672697945,18.67188701705226,-0.3237412217316477,182.0492056432346
747154.6911946991,57.62917281021475,10.544945436513515,0.4781318449699748,56.65180204079455
747154.6911946991,131.9472409881801,13.05585770655405,0.6011854142234413,-131.2973235067525
747154.6911946991,14.146214047970021,13.545014399940591,0.405235035056065,4.026579362529629
747154.6911946991,188.12537499552445,12.72509254519703,-0.44168326633925986,-187.6932690663549
747154.6911946991,20.727041792950985,14.073242301679928,0.20590446316422834,-15.206620793489675
747154.6911946991,545.1252290162258,46.71426510407669,-0.022578000707409476,543.1197122513714
747154.6911946991,47.55953823472392,34.19430085638081,-0.11971063289395144,-33.05109280202172
747154.6911946991,22.688652035673286,4.635353442089409,-0.026806331931538425,-22.203993133743758
747154.6911946991,312.6394362493627,16.58070907143176,0.06934234171270084,-312.19901021087094
747154.6911946991,12.26396453235009,10.730965047333386,0.17240303127635268,5.911944891358244
747154.6911946991,9.946599852182056,9.491799563802347,-0.0502217735950104,-2.9270578117773223
747154.6911946991,13.502705352017735,1.9346052722070244,-0.12864091564188812,13.352655383068182
747154.6911946991,6.636481165889739,6.609666941434923,-0.006346118883293484,0.29110979936561154
747154.6911946991,7.950920997292306,7.611804828627518,-0.13291328322935123,-2.233720218650414
747154.6911946991,35.878782884619355,9.18343803723539,0.5036261735979666,-34.67603621775678
747154.6911946991,54.19775116737752,20.2195183721093,-0.1282620331266856,50.282009280176595
747154.6911946991,55.236374231594844,26.267610299033656,0.2988262860098326,48.58713811577797
747154.6911946991,12.398259393002956,9.361421007096443,0.032990944128836776,-8.112283544211513
747154.6911946991,20.00625044967978,6.27901576689158,-0.03116395133450409,-18.988223899632544
747154.6911946991,327.92296223268573,15.094075513113687,-0.4273275404238256,327.57470145760186
747154.6911946991,37.00823322385034,14.57513112914117,0.18887693510069062,34.01277413594233
747154.6911946991,11.513186329585395,11.493049633012127,-0.14989551448414332,-0.41279647237997313
747154.6911946991,19.011117910497077,15.97810441966221,0.5088829117631557,-10.275865975347736
747154.6911946991,164.5582500181043,16.041708918904916,0.19211132251016416,163.7735446194587
747154.6911946991,80.89897940260242,12.829723152258751,0.4290263939431247,-79.87232692599099
747154.6911946991,17.413914481115366,13.101660700572051,0.7929922734837214,-11.432045647952977
747154.6911946991,12.220434418542828,10.569352227751132,0.5540119844791103,-6.086910676582319
747154.6911946991,15.67269389751172,10.851046772764269,0.04653842403197834,11.296705365524575
747154.6911946991,145.43041094204898,15.70404248893158,-0.4944274065818701,-144.57825776311833
747154.6911946991,554.377823372736,21.591300197602042,-0.12058387194577483,-553.9569494670135
747154.6911946991,130.98939094254823,4.37294134329454,-0.25233372422658823,-130.91510169265982
747154.6911946991,14.175399718266743,8.761110965952422,0.22848731315213214,-11.129343438075475
747154.6911946991,10.985113069441462,8.542566715522684,-0.5291051483461018,6.86636081204966
747154.6911946991,212.6185577938484,17.153319597750322,-0.4692535613116591,211.9243358989445
747154.6911946991,84.85143728833884,34.221757985028475,0.028562151361436902,77.64255582162754
747154.6911946991,8.512832728016349,8.309146845376786,-0.08850892911784221,-1.7743071680567783
747154.6911946991,116.75479678187446,29.825767197607206,-0.1464513216104756,-112.8796453514155
747154.6911946991,18.173424169842324,16.39781231061963,-0.31491780477957354,7.811243451521223
747154.6911946991,159.4812873050195,63.047213006384325,-0.406147983100248,-146.48854759471678
747154.6911946991,93.85668600382328,13.638952316004145,-0.6956869549971134,-92.85635200137196
747154.6911946991,69.31118904064556,5.738442282388371,0.03525271643043959,69.07126438429938
747154.6911946991,35.57020331603512,17.763841136750816,-0.4596356344175881,-30.80914875643157
747154.6911946991,317.7364189914535,12.50431763323507,-0.2485346931006918,317.489750739368
747154.6911946991,35.71673737790829,11.337896128617249,-0.27932119691575813,33.864273504212534
747154.6911946991,12.832145277575385,5.722510076473364,0.6248073402693999,-11.456703131224383
747154.6911946991,614.2855843168113,8.245144702729776,-0.5184547698654769,-614.2298083721832
747154.6911946991,0.9377754048934295,0.6606692530851782,0.4137986566769403,-0.03618728759202605
747154.6911946991,24.248887161729833,16.732051437333116,-0.5279506928530397,-17.53561665145142
747154.6911946991,122.06775371232543,21.39030666179592,-0.34144946457996717,120.17738676452575
747154.6911946991,20.40684934196816,20.347977988687774,-0.09642628783611175,-1.4558824845015892
747154.6911946991,41.176504728011864,10.320297000322888,-0.5930270866506873,-39.85440917032403
747154.6911946991,106.55107414800221,5.749129900174928,-0.20128719092292685,106.39439830625835
747154.6911946991,327.1537216662695,25.5174114490497,-0.6549673449737586,326.1559748506961
747154.6911946991,50.31166911304342,36.47833351107159,0.37479357274999775,34.64367709948273
747154.6911946991,16.556505393795987,16.461020773046094,0.2814020966485841,-1.6742397749851543
747154.6911946991,38.424507626397144,20.993660794372637,-0.08040491363791723,32.17813120477534
747154.6911946991,56.58433463703973,5.9770693644491,0.0801447685328316,-56.265306761317305
747154.6911946991,52.8708691169789,13.133251869319565,0.28154892244459845,-51.210319533527596
747154.6911946991,58.54226115871566,4.089706774862359,-0.03850930164382399,-58.396907085089794
747154.6911946991,17.159218342414633,6.9436601031656675,0.21839782001910393,15.681398562837913
747154.6911946991,35.03202570415665,12.798976980850098,-0.3636428940640172,-32.60408528123368
747154.6911946991,73.86100451296934,11.18549498501803,0.6210945290455295,-73.00463362822256
747154.6911946991,95.57848899421703,9.567156690885149,0.5427174890650672,95.09548953024417
747154.6911946991,163.0623177282745,30.590221855218957,0.13996781096605954,-160.16637536879307
747154.6911946991,242.44322790435524,10.35785283330716,0.6109555693594897,242.2205399520424
747154.6911946991,19.120931706287667,19.099328212810114,0.21588433053929845,-0.7132216287383396
747154.6911946991,6.155588823658281,5.825415737771359,0.08344510933030713,1.91792652669526
747154.6911946991,23.37579986284304,2.3002224291893905,-0.14774971243179585,23.25606944490886
747154.6911946991,128.85024059377702,16.46232321532378,-0.4001379087861787,-127.79258939814305
747154.6911946991,37.16087120142164,32.29025489527703,-0.17208831046979145,18.383954222638977
747154.6911946991,40.64787153251362,31.099856873140144,-0.5862808292586703,26.161694084733355
747154.6911946991,6.939653088717977,4.501647508408744,-0.28873659548882824,-5.2478744154386785
747154.6911946991,1167.138939549999,16.41794646555877,-0.13084572812603895,-1167.0233364106928
747154.6911946991,20.60122404800534,19.827316447263353,0.15509038502482025,5.56718077204849
747154.6911946991,47.687655027037465,32.14382160695025,0.4833894364931537,-35.219073087334046
747154.6911946991,11.588126015351268,8.24324299659768,0.2083920756904703,-8.125255823018339
747154.6911946991,35.96751059949894,22.815271567677904,-0.16056590581188926,-27.79980252822072
747154.6911946991,89.43216934175943,26.926601407675065,0.67508227538052,85.27804473442616
747154.6911946991,29.512317790655842,3.4189943142410595,-0.17775807455118597,29.30845238702959
747154.6911946991,11.153085389925014,6.161884527883878,0.27618902149257296,-9.277705125966815
747154.6911946991,34.00447982048617,32.14604126169085,-0.21896114917394358,-11.073316354131357
747154.6911946991,3.1648627645041434,2.431479321461821,0.25764490226146647,1.9410007037059651
747154.6911946991,10.22103780139278,5.170205007106821,-0.1185879549348681,8.800802850816062
747154.6911946991,12.027926111909846,11.875446181430325,-0.3998046182070006,-1.7929140561596704
747154.6911946991,64.70755758454388,37.47132898604085,-0.4612355673334047,-52.74925946710894
747154.6911946991,143.4060516941914,23.327502502612102,-0.26800700282438095,-141.49480931028586
747154.6911946991,499.95840706100034,19.95087902728199,0.09594679706980498,-499.5598979213843
747154.6911946991,1887.79824917528,23.093115573571765,-0.010192632738429637,-1887.656925158401
747154.6911946991,18.421619484115975,11.705427627637238,-0.681495109469226,14.198739130200176
747154.6911946991,17.207098071399287,9.910048402345671,0.18335389180286157,-14.05600035757967
747154.6911946991,68.25368618492925,7.483933680638144,-0.05651328631022059,67.84012692163161
747154.6911946991,127.27568103722295,21.670066363678956,0.28951984499897276,-125.41591998443425
747154.6911946991,6.29876439631931,3.9784356101285248,-0.2555101904472675,-4.848793412693368
747154.6911946991,115.83621325595574,22.062870490731747,0.45913059216871965,-113.71357371170687
747154.6911946991,26.700804084348135,17.544567827062966,0.44612359757630077,20.115955166186232
747154.6911946991,24.27494432488134,20.950228556306268,0.1769023265428599,12.249863304603927
747154.6911946991,11.903573378315038,11.336188332385404,-0.4311771271472753,3.5678536335792224
747154.6911946991,36.83175651491719,13.676558162583621,-0.5962011966249573,34.18924083586464
747154.6911946991,101.18874783045817,5.095846016379964,0.29828700542430764,101.05857541908945
747154.6911946991,359.719144271919,2.651116712321059,-0.3604095964101644,359.70881840847636
747154.6911946991,323.20506264735917,20.830182514745097,-0.594541276353607,-322.5321567502324
747154.6911946991,157.752908157897,18.780727346722756,0.7349979480744387,-156.6283936284168
747154.6911946991,226.8684767852922,14.132779540828686,-0.6534006848593994,-226.42630803171707
747154.6911946991,12.299289893911498,12.148228819215634,-0.13961318222697666,-1.8447700696294607
747154.6911946991,18.44748257148648,4.802428993623623,-0.4998905457455126,-17.796797420569096
747154.6911946991,33.10672120396393,1.4153063570757465,0.08704629923426367,-33.07225301872256
747154.6911946991,19.07359998279074,16.287613244498885,0.1799265361417112,-9.910252143246987
747154.6911946991,242.45946388382598,33.5059883880346,0.2851874086457927,-240.13243978503849
747154.6911946991,10.376343830627508,5.285516113234552,0.06886332890511368,8.913848133666608
747154.6911946991,337.2708158764507,8.325792664411267,-0.4235239623433223,-337.16736889255634
747154.6911946991,22.498773589253528,15.685082750614221,0.37283018100130433,-16.117183059797103
747154.6911946991,89.96994752550603,23.265420877013977,-0.538408709362837,-86.90656687051556
747154.6911946991,11.84119554088145,7.57916895774602,-0.1048133814632776,9.082330312337032
747154.6911946991,345.66054787914425,10.915280611458176,0.6520919222192375,345.4871566142631
747154.6911946991,401.7496895076538,23.813840720763068,0.002006837584436438,-401.04294483957074
747154.6911946991,10.725476443355896,10.033985104428044,-0.5152372709107877,-3.717407485837789
747154.6911946991,12.017087671589358,11.885915964587372,0.2596948029650424,-1.6725897281595863
747154.6911946991,15.374648178181381,14.37695680593009,-0.1640628208091927,-5.42084891821426
747154.6911946991,1.1685465291883301,0.01612862198319718,0.2843388373974592,-1.006971838721658
747154.6911946991,171.05354083838694,13.977493300962806,0.2955386643543907,-170.48045568706436
747154.6911946991,190.39965659111215,4.826760986950467,0.170459258307072,-190.33767927562207
747154.6911946991,89.88916190340069,17.510035438295773,-0.09979475417923189,-88.16563802101386
747154.6911946991,31.51130583639183,23.67630444785823,-0.11623376312758842,20.78728199932016
747154.6911946991,13.095590387363622,10.882452182385869,0.18502648997164103,7.263751598843692
747154.6911946991,10.018431013894494,3.2227277978335844,-0.5845245650719655,9.453619230435567
747154.6911946991,56.63476894916613,8.473136805802369,-0.5675112384337218,-55.992057808137766
747154.6911946991,3.6846131312022976,1.1851891306922937,-0.11167654082357793,-3.4480181265977885
747154.6911946991,9.885779487501853,9.787602419139398,-0.3808287786542528,1.2312775486127325
747154.6911946991,550.3285048204114,18.880491325971096,-0.07180550957689741,550.0042860825071
747154.6911946991,43.13085206377686,18.1572514285839,-0.48775815558205854,-39.11618989994112
747154.6911946991,114.78720224589088,1.1883495441785055,-0.2072876282588297,-114.77968573157477
747154.6911946991,72.02600753317189,8.573145465950397,-0.06471933692260526,-71.51204338708006
747154.6911946991,235.40775139131236,19.93901501614951,-0.06280009186396195,-234.56123028209103
747154.6911946991,14.671931390297136,7.888364364008094,-0.061546659746240295,-12.35981757110143
747154.6911946991,17.754606211735407,17.635620527722285,-0.2952807366363062,-1.9629925171903633
747154.6911946991,39.81982152428778,10.904551858474182,0.19335029244052132,38.29361762299813
747154.6911946991,100.33318164140576,1.093398745791515,-0.0863599010716339,-100.32583894210657
747154.6911946991,11.677630940804738,7.844242000793419,-0.4297481434471277,-8.624375244377548
747154.6911946991,160.50994754111116,11.742912433672771,-0.06851584786229355,-160.07895605857735
747154.6911946991,40.983543386405884,9.82699375434961,0.5423584067023107,-39.780855566667576
747154.6911946991,297.9971609113072,25.9897599960999,0.051006125014310344,-296.8611919482232
747154.6911946991,28.119393819302548,7.394904620680537,0.21349380719135655,27.12378503841893
747154.6911946991,28.02238618452258,8.170036617246112,-0.3148749842438874,26.79804251977516
747154.6911946991,7.412625054694905,5.838295277194516,0.7162267765554222,-4.480841177984761
747154.6911946991,207.48515231971555,3.9052109286868184,-0.0891161761961778,-207.44772695560005
747154.6911946991,1143.6894131618692,21.0027682797819,-0.6017365014907231,1143.4962724103257
747154.6911946991,11.177050210742813,6.4122406420193006,-0.3314225098387236,-9.1339684958004
747154.6911946991,12.533400448231594,10.655319632745153,0.6349252350140642,-6.548034839989012
747154.6911946991,134.60838695950477,16.787448252268582,0.25974956283269524,133.55621120405365
747154.6911946991,73.48803420402531,16.440536333923504,0.3136668299847735,-71.622839578899
747154.6911946991,25.96124796268633,6.434989107884426,0.2166669057281117,-25.144780102706342
747154.6911946991,811.7335379973822,14.718097934703238,0.08502460120633788,-811.5999240227598
747154.6911946991,87.04922017264818,14.214248569595455,-0.4038155166975351,-85.87833488893696
747154.6911946991,28.846206494813075,2.8212752142861763,-0.09838302967762529,28.703030433843082
747154.6911946991,122.68254401266358,8.576317931005448,0.35688488179641287,-122.38078120908773
747154.6911946991,27.32125828193149,18.405181664673215,-0.4593587162558883,20.179668767553817
747154.6911946991,6.865468725008352,4.567575824487141,0.1159785679342334,-5.097848651481165
747154.6911946991,7.512357678682017,3.732791477916753,0.297733541829538,-6.491744019361388
747154.6911946991,33.215599475488226,32.97013668047047,0.045878012266880604,-3.996702515216767
747154.6911946991,104.48937098631619,10.036973676015135,-0.3535673736379218,-104.00429028965726
747154.6911946991,28.89116006577533,28.882870120775205,-0.344578526804475,0.2996817838099587
747154.6911946991,375.07452777447025,23.791220248714,-0.16340957469715844,-374.31882416147596
747154.6911946991,39.250020360931536,26.31585601260439,0.2021229815156533,29.11577865965045
747154.6911946991,22.519337009089902,22.356567499452073,0.17341562683270428,2.646498817641831
747154.6911946991,5.8858547717310685,5.115773506294413,0.27084579482431076,2.851033213000427
747154.6911946991,83.91611605414622,7.197191317997282,-0.3701779455798643,83.60447080768884
747154.6911946991,17.636505322328503,7.642994701655342,-0.018699965106669193,15.885849120720454
747154.6911946991,132.0487945796814,17.55901304903599,-0.7232299456935747,-130.87311316361482
747154.6911946991,8.918843172546415,6.945420449290275,-0.2408210117711966,-5.565833590698505
747154.6911946991,9.663628113604119,9.049625064207266,-0.26480414765029936,-3.3390827001885977
747154.6911946991,41.903764750951034,32.26022844777158,-0.006816735510883744,-26.73822571399891
747154.6911946991,64.61056090431515,9.488235108994388,0.6586203999445134,-63.90456786533683
747154.6911946991,11.254112298766058,8.15059555839645,-0.5481896510349857,-7.723465788309269
747154.6911946991,54.76039271462794,30.759435081067497,-0.0008940861269709264,45.30217834668086
747154.6911946991,178.19361719778942,17.196568744351758,0.29267392831070205,177.36089528254183
747154.6911946991,1149.4545177670461,20.76834733586287,-0.4706837129923833,1149.2666671494705
747154.6911946991,7.832722189448397,5.2542545589316685,-0.26580741733221513,5.779558144349292
747154.6911946991,212.88594037732688,17.22103225891836,0.7108579508370003,-212.18643674667285
747154.6911946991,10.166392041191854,4.549816572518673,0.23638497409789605,-9.073500891919517
747154.6911946991,42.05069637329722,10.040942115466727,0.02133715611625866,40.830989354151676
747154.6911946991,64.55711006646284,22.80284510424106,-0.26398383904776657,-60.39296836402488
747154.6911946991,21.43328286610286,6.6173416236471105,0.1141149367366047,-20.37922918158435
747154.6911946991,276.70318872044896,13.973229387201657,-0.28260962262328704,-276.3495128281544
747154.6911946991,97.5216789832901,31.338068949176563,-0.48598829813006095,-92.34661185788366
747154.6911946991,29.406495693373557,15.910968832882865,0.32051255352731955,-24.722660282956173
747154.6911946991,14.60412054712288,6.865206415206753,0.28914712746695764,12.876151279407146
747154.6911946991,39.08044614797852,21.242150655646864,0.09525026997943682,32.79897611258496
747154.6911946991,557.2357687503321,20.611030363588966,0.04828057482339524,556.8542131214516
747154.6911946991,55.967718538707224,12.420057619175568,-0.02685775892782333,54.56974038627173
747154.6911946991,10.41374569709484,3.306769789415231,-0.052946829371933485,9.860941620191817
747154.6911946991,87.5303610435737,14.494240410284007,0.529535647665043,-86.31877137300498
747154.6911946991,176.75156172754305,24.613292790430727,0.5947600336781947,175.0276442498165
747154.6911946991,69.9551006447515,5.945332115245982,-0.26142051974504094,69.69957239157631
747154.6911946991,15.661351301802881,12.247580704006982,-0.021227260566262087,9.746991376867403
747154.6911946991,54.2334073321135,3.750685542916651,-0.33691507087927214,54.10000847545325
747154.6911946991,126.13561972013869,21.22374929811863,-0.22650287753191153,124.33593738079315
747154.6911946991,135.42515683766877,11.21838446688421,-0.4627256605679571,134.95790617604962
747154.6911946991,26.245315259090866,11.991689885441545,-0.3584648618376303,23.337031723920994
747154.6911946991,62.6237782152829,4.975799360995693,-0.08226564278825042,62.423568073605615
747154.6911946991,5.094548521458709,0.9879369441134906,-0.4095088573120858,4.953817490353856
747154.6911946991,13.56644989890085,9.886128110179166,-0.032114283310770375,9.275861281914448
747154.6911946991,225.84968859562858,9.881331134570598,0.2993841746463625,225.63262419886746
747154.6911946991,30.572981802921998,26.20001530643197,-0.2371903829664813,15.746102850761462
747154.6911946991,50.26012144534852,5.217775305423675,-0.06614149596373524,49.985796521269975
747154.6911946991,229.74685081347027,22.664106003275133,0.7583752557075272,-228.624382393372
747154.6911946991,26.72909581745762,11.082987027939282,-0.6482194029079629,24.308874374661073
747154.6911946991,83.88918278955256,17.33208285487575,-0.295383188097903,-82.07701408910337
747154.6911946991,15.234225516553483,14.247237550204064,-0.471516541018346,-5.348375587859422
747154.6911946991,10.90510740226566,10.781006744646989,0.2064023203761981,1.5421605328138506
747154.6911946991,5.855094196873271,3.5735807575731786,-0.6096782372301063,4.568319282888375
747154.6911946991,902.7717169131947,44.25691357673146,-0.39719227789947975,901.6860153608648
747154.6911946991,523.1726034758559,33.4747662959824,0.3720598206900006,522.1001859994157
747154.6911946991,40.421654694882335,13.13101423669564,0.22490843733978136,-38.22519652771993
747154.6911946991,76.98139904915604,17.04711840636439,-0.5989539336809361,75.06598702335248
747154.6911946991,157.5901669399347,25.38590992305958,0.48340589074502094,155.5304221439638
747154.6911946991,2.6661435637885824,1.467663057695141,0.3809660523841964,2.1304345844777863
747154.6911946991,28.20897188771665,6.506116797261946,0.06193071038845957,-27.443438264355372
747154.6911946991,11.409187473566517,11.247526358200595,-0.1870233971673277,-1.8323023433598324
747154.6911946991,69.76146041701284,13.518548939697386,0.22852963360251433,-68.43674136226844
747154.6911946991,11.188712040502656,10.197381476935437,0.02744832832591872,4.574880843083809
747154.6911946991,13.698646086547026,10.869046006062039,0.6860610832212026,-8.29310941159384
747154.6911946991,161.41058773159426,3.2564348639885146,-0.6191412798074049,161.37570984479333
747154.6911946991,127.45406914412801,9.904302121554025,0.5642100466416473,-127.06634411953624
747154.6911946991,19.653114266941074,17.863786798112365,0.18588049645508242,8.174660241384158
747154.6911946991,3.199940167562581,3.0862631112984813,0.3677524280250479,0.5558374182261764
747154.6911946991,23.438733524037282,20.07541189450986,0.39037302888683184,-12.080119013276283
747154.6911946991,12.921842467093455,3.44073741759836,0.012323973465526154,-12.444468123917403
747154.6911946991,142.55539488063098,15.983114746749804,-0.49714196550211076,-141.654732015669
747154.6911946991,186.91824836174078,36.770742879934616,0.03652980798574974,-183.26503295569586
747154.6911946991,17.226291150538792,7.5734637441831465,-0.21576396323126038,15.461914487890727
747154.6911946991,18.425262378995875,7.020930652094913,-0.0063453220600458845,17.027224854632152
747154.6911946991,167.12562234379968,4.249545362588282,0.4747008950477179,167.0701028522874
747154.6911946991,81.72451317841491,32.217440060926506,-0.26581638045309197,-75.1038717498732
747154.6911946991,179.43923050479785,43.412004395272014,-0.25099098237777684,174.10773079351077
747154.6911946991,9.747793281601565,6.541408928325742,0.1487281356575498,-7.2067276231949196
747154.6911946991,379.57394451948534,19.656408323421143,-0.15278589568721582,379.0642573843838
747154.6911946991,4.205279202463611,1.734314112440809,0.23753832221246038,3.7881002198387157
747154.6911946991,45.537747186064486,21.233609457801276,-0.4760262578434155,-40.278074025173304
747154.6911946991,27.18280475489782,6.633661217366059,0.25076261989138904,26.354622579437063
747154.6911946991,412.315255873242,37.75957858545747,-0.24971503064868686,-410.58221063907416
747154.6911946991,24.998686308285045,24.472861411001187,-0.07338079956368226,-5.073222521851614
747154.6911946991,9.526348222788652,9.50255794663154,-0.38321133372874694,-0.18828703205491398
747154.6911946991,12.614062155807197,8.874420211094023,0.22830784316176053,8.946323575427183
747154.6911946991,32.560650820286455,16.937333297028143,-0.3517097713226708,27.801593890688338
747154.6911946991,84.42578795505857,6.9347351266406285,-0.09472847917146546,-84.13883614045942
747154.6911946991,841.00794415719,19.99977262760809,0.6473017516190278,840.7696960706835
747154.6911946991,18.661967316584242,11.49459372720981,0.7654221761057168,-14.672663972979583
747154.6911946991,209.29152034240386,24.016536637955497,0.2516928436758707,207.90818335473242
747154.6911946991,998.6413399598853,33.042980171490306,-0.12293200947923076,-998.0943852291641
747154.6911946991,26.226676185752645,20.286799866956954,0.14094020247753505,16.61306807214386
747154.6911946991,15.099500466924704,9.88965712509786,-0.4353453016366698,-11.389893360651076
747154.6911946991,11.599872320353004,9.746044665357818,-0.14927051506957315,6.267293637821115
747154.6911946991,8.928125607399572,7.169569761916782,0.2440942141454573,5.28949093062208
747154.6911946991,6.291691767383692,5.704475940321348,-0.09874649961671843,-2.6008053888886105
747154.6911946991,19.97019060844609,6.010433766144859,0.13332918710685931,19.036675713167977
747154.6911946991,122.97150984510756,7.688466791454274,0.04635036603808261,122.72981367062225
747154.6911946991,12.58088852041148,12.091032358644876,-0.5539362204389525,-3.392410224148864
747154.6911946991,151.65955899350328,7.563966529921551,-0.27754917486371616,-151.46966960713178
747154.6911946991,154.0858017336646,22.88094421271629,0.6127491671650236,-152.37536161170837
747154.6911946991,1.958396355638506,1.85167718774204,0.1734620112704467,0.32575882001862055
747154.6911946991,8.71187257561529,7.987949417898109,0.026751915613633555,-3.437771401048948
747154.6911946991,111.35319118208406,9.661438901584418,0.5014694933470605,-110.93091504685225
747154.6911946991,22.96056460523281,7.8646949439166,-0.31832745055375,-21.562986065580674
747154.6911946991,153.61347074486827,10.59238032041275,-0.5929224833491797,-153.2458088052035
747154.6911946991,140.21022402127306,24.116135765960536,-0.5866414904201868,-138.1184432564133
747154.6911946991,37.76007066676675,9.647237662026606,0.5537227469302703,36.49899633375041
747154.6911946991,13.681003862102248,4.473712265086587,-0.040618198047908005,-12.918348013815768
747154.6911946991,93.71976419813649,13.060369108936424,-0.448736466986736,92.80274347063155
747154.6911946991,67.89680941970347,16.947342075363384,0.6209551590994727,-65.74274363491791
747154.6911946991,51.00827315449756,27.986216635453655,0.45266335154351567,-42.6396564775968
747154.6911946991,93.36861193858944,29.878804586331835,0.1426739714658952,88.45713072425856
747154.6911946991,96.01724471654317,31.927857743179416,0.050547943724055105,90.55192006685016
747154.6911946991,8.80694752154686,7.145043384855745,0.09599404149040638,-5.121627165248152
747154.6911946991,11.120610246581919,10.309691782114646,0.05123564915640322,4.13584362886655
747154.6911946991,54.42341307765632,18.15889306457783,0.6299628718815564,51.29810172385028
747154.6911946991,73.53934248749245,22.779700874059053,0.31349069285256786,-69.91960701524715
747154.6911946991,35.751098498356185,21.571109897946705,0.3809498114700851,-28.502854924568744
747154.6911946991,8.562519140528641,7.544353053143426,-0.01856281792116524,4.016058573182869
747154.6911946991,5.273644536956817,3.785627176204687,0.5785334870234071,3.5882102208966997
747154.6911946991,375.24142094342096,34.78163647968553,0.0312584966036993,373.6256018775199
747154.6911946991,264.3859022519139,15.702058539371324,-0.6349270584749687,263.91793636434636
747154.6911946991,21.07745566805969,17.704714955525933,0.640165475961917,11.407102784931165
747154.6911946991,81.23614499457071,10.482632948439843,-0.3245885634324179,80.55463923519045
747154.6911946991,287.49279502505044,26.774174872556284,-0.6237399513418264,286.2421899365685
747154.6911946991,875.8311279508157,19.09775056697675,-0.031206193605381495,-875.62273225234
747154.6911946991,33.525138693903585,25.12150592347485,0.4315204934815076,-22.189823222504398
747154.6911946991,100.72682758386945,22.510008757606954,-0.4830188967738816,-98.17682819071098
747154.6911946991,24.86892349124072,7.354594912409771,-0.2390047599070336,23.74964770290883
747154.6911946991,531.0239913503178,20.091776361835393,0.32662062910941636,-530.6434045865576
747154.6911946991,20.428408201106183,15.886906229819346,0.42402709724130055,-12.824814739276148
747154.6911946991,142.94553985813377,10.411359009892031,0.4514178752258335,142.56421988283873
747154.6911946991,83.36504003412406,30.93966309058276,0.08723748628978244,-77.40923160291234
747154.6911946991,58.01503425602762,19.33940437820528,0.25146190544399444,-54.69367426800308
747154.6911946991,3.4159163275414857,1.9480899892126526,-0.4636496371117258,-2.7180983728886856
747154.6911946991,14.014918786120607,6.1479723573363785,0.32368079322719573,-12.579555446003635
747154.6911946991,5.411456111688393,3.3261417758821836,0.2658545991714452,4.228422810878822
747154.6911946991,1039.977978042837,38.16636094009117,-0.03134383969217982,-1039.277274034327
747154.6911946991,168.90810745388274,14.989093430676885,-0.35877179889668753,-168.24053234751474
747154.6911946991,287.9650461042845,21.770608136836355,-0.3466608143529708,287.14024069341934
747154.6911946991,50.09621590963754,15.50216962926471,0.23586444168374937,47.63389080492665
747154.6911946991,269.8647829055139,18.170827933914268,0.40086534572329263,269.251538476219
747154.6911946991,353.88329107858453,10.237677349125285,-0.5284902364538042,-353.734397486554
747154.6911946991,216.57712127244412,13.910435745274182,-0.637592563919266,216.12836998357713
747154.6911946991,82.0947816068164,2.9721130999602856,0.0063027329344562235,-82.03931539857878
747154.6911946991,15.86326675054275,5.942688517858993,0.6910044423727529,-14.682635936343413
747154.6911946991,115.10240805935595,22.568123944803418,0.08113974825315756,-112.86703300351141
747154.6911946991,77.18826463158585,10.39258757772079,-0.16316258246869886,-76.48349690127154
747154.6911946991,47.42640114945345,11.423989439430203,0.36927061719889187,-46.02552803051737
747154.6911946991,139.0041710771879,13.94776375004757,-0.30016501081993063,138.3013339205203
747154.6911946991,330.8879369434299,10.800272244075316,0.29909648620717727,-330.7110839923951
747154.6911946991,736.3761401479172,9.471418785669062,-0.25708604796140294,736.3149974787253
747154.6911946991,56.9104387817499,14.549336426989012,-0.35071021341833203,55.01564735792716
747154.6911946991,27.785375153335636,2.7676008950637345,0.16328986219311892,-27.641823277746155
747154.6911946991,32.54349319689878,26.20135978191543,-0.54895708308078,-19.287196301073866
747154.6911946991,103.70660131551695,9.89963755037242,0.25634517513892796,-103.23139164003364
747154.6911946991,44.939651217838076,10.45241152425901,0.2322954133951558,-43.7034893772727
747154.6911946991,391.5498683741252,49.69449831657569,0.03913301016621314,388.38316689767356
747154.6911946991,68.76713837216231,20.47038895440378,0.13327383031818557,65.64750059246501
747154.6911946991,24.88549130013743,12.531964979854493,-0.7145316099239902,-21.481540344475675
747154.6911946991,15.497229647661316,4.598849100266063,-0.21993484852489253,14.788371863316772
747154.6911946991,24.78718041167135,12.71041942864491,-0.2968379017198935,-21.271836732373927
747154.6911946991,29.890164007075047,10.766742569346679,0.5528067461319511,-27.873341448715717
747154.6911946991,255.10298700219988,12.968048774216111,0.5262554995507286,-254.77208705739974
747154.6911946991,43.73676701157369,20.19743441830652,0.06794831755379227,-38.790377860611635
747154.6911946991,651.1853340185519,22.739751092603594,0.13514041691181328,-650.7879487960477
747154.6911946991,98.34347378141885,16.49328449112764,-0.10582461186422056,-96.94910418999689
747154.6911946991,61.314600191221324,-0.315984697248192,0.01880801858652424,61.31157799746196
747154.6911946991,77.71922640617704,5.7797838237685815,0.22985635249873557,77.50192912555354
747154.6911946991,51.99092111500216,16.952069414595062,0.3608853906450211,-49.145524543786756
747154.6911946991,51.42976582381441,16.705418048942242,-0.3645710882250636,-48.636884238447
747154.6911946991,1144.9657935721893,8.097203419840197,0.23884065976849758,-1144.9370184871786
747154.6911946991,583.7073946976582,20.47158618406409,-0.6630984061604637,583.3476893623047
747154.6911946991,5.626793226272371,2.6007739196117403,0.22152254613426728,-4.957550281323045
747154.6911946991,868.7994422267731,16.42932819522724,-0.12849377111966914,-868.6439207626775
747154.6911946991,92.2750278170195,15.831917003404415,0.15841827967311303,90.90509153110018
747154.6911946991,5.549065288983133,2.61585714384299,0.16478643022578124,-4.8633180460274765
747154.6911946991,341.1936257824475,31.791255090338794,0.47280428513088635,339.708569851368
747154.6911946991,132.01953080210245,13.025611289221846,-0.35039780961229006,131.37388167030917
747154.6911946991,4.198220655688516,2.722453887093799,-0.11476800092957785,3.1511473803140664
747154.6911946991,3.0354840684807143,2.9879931921407117,0.07284177163350115,-0.10175603189143101
747154.6911946991,132.8329790852759,13.961218596938068,-0.17847124678587084,132.0961106769307
747154.6911946991,825.5269208144343,17.34217226196621,-0.3188933898389093,825.3445183422516
747154.6911946991,7.552851367281969,6.241563676687206,-0.00046575686798825945,4.221142787111393
747154.6911946991,42.77989365813852,5.007430263725674,-0.4103091582260107,42.48065665629758
747154.6911946991,113.9563901562747,7.780863824173187,0.0966825118587442,113.68921350810145
747154.6911946991,52.44376435949275,13.855847577522308,0.7252687453958814,50.57239853269193
747154.6911946991,95.415626059637,9.055299258299424,0.43665614819952975,94.9825362006267
747154.6911946991,31.628965310419048,19.460784997822607,0.10605528880302079,-24.927648227458825
747154.6911946991,15.542069614198857,11.983440489788135,-0.5660708463060939,-9.867230904223945
747154.6911946991,28.583016310566663,13.573537627566738,-0.03728639788375818,-25.14907766514873
747154.6911946991,95.25444284065844,15.607104847528964,-0.04819148253935917,93.9657088343589
747154.6911946991,62.10954808370022,7.2651498656522415,-0.5214957640259648,-61.67877432925517
747154.6911946991,129.69397047046857,21.991037813810266,-0.6499454754145674,-127.81325206388158
747154.6911946991,88.57822011802638,14.385247063178717,-0.6327921680303086,-87.39848351247818
747154.6911946991,144.49670038742653,23.161577412337692,0.26120220491757,-142.62713321116055
747154.6911946991,76.69114194849905,11.59935183800345,-0.06625564969661762,-75.80706761570404
747154.6911946991,82.77509241665328,16.829423843615764,-0.6406263507194111,81.04199908415508
747154.6911946991,216.55396912098087,12.214384581422095,-0.2182066450985454,216.20849274995635
747154.6911946991,370.0738236525251,26.863803955179762,-0.46916430870035475,369.0968443033743
747154.6911946991,330.1734857815363,19.67706746284288,-0.06507870398283865,-329.58620889526816
747154.6911946991,1053.130176734524,29.354991387309553,-0.17494129773082537,1052.7208331865968
747154.6911946991,31.45423564808396,11.858876807217428,0.14693705612519203,29.128061909059
747154.6911946991,42.35135603438893,35.858377955887896,-0.1450816490484745,-22.5282631296639
747154.6911946991,19.953200315501075,18.100430762746132,0.2050062801316062,8.378077432123202
747154.6911946991,12.368657526866368,2.43361086418955,0.33715899225819435,12.11103426601321
747154.6911946991,101.5495127097094,3.3590526745179963,0.2222746638711494,101.49236666214384
747154.6911946991,16.879761975941918,3.9900452514298403,0.4776191891155487,16.386194895892864
747154.6911946991,143.1209821733005,7.244988889274304,0.351184451044076,142.93611140550115
747154.6911946991,583.9895980795847,12.100203044521914,-0.7185560255817736,-583.863553434083
747154.6911946991,8.997247812677085,8.567797975784444,-0.07819419707655552,2.695698743630314
747154.6911946991,559.1886010575761,6.903545987867243,0.49226155206464883,559.1455265707551
747154.6911946991,92.79535768298027,17.74216955697945,0.3335792424499727,-91.08134908867261
747154.6911946991,429.58570524760944,3.9045586848515725,0.16871360679437783,429.5676125015495
747154.6911946991,53.55842718209867,5.792421579987136,0.1986469515179852,-53.241366566313076
747154.6911946991,15.710877729827082,12.148663754240488,-0.5363354314356731,-9.933961562889547
747154.6911946991,95.41605725875489,15.51295148599937,-0.38553126310745656,94.14432157408213
747154.6911946991,18.935473718780365,8.166249334784522,-0.2767913643511567,-17.073884247510115
747154.6911946991,9.417275094263157,9.393259069942705,0.17878923055346693,-0.38650828840575147
747154.6911946991,35.15834153194864,22.378219088642965,-0.07208435847579048,-27.111781452776267
747154.6911946991,44.64002643977893,38.29124755208871,-0.4261311152698586,-22.93600518227664
747154.6911946991,1602.5310268578673,52.444979781473236,-0.22371593624840258,-1601.6725307281235
747154.6911946991,144.56296110035967,10.715836581831706,-0.5063411506980318,-144.16342735622888
747154.6911946991,4.885203176711561,4.377150045376883,-0.25132705130452426,2.0909811743036917
747154.6911946991,82.3635504214085,33.16481183053876,0.26202675093073735,75.38906178118052
747154.6911946991,264.16240540785645,43.69836611230884,0.5094922972665968,260.5219745963445
747154.6911946991,20.55731960993574,20.470553554398307,-0.014129588024278864,-1.8136226388920094
747154.6911946991,2.6157162564326217,1.485053998373528,0.21368357256939488,-2.078587377738706
747154.6911946991,2.3552083090305733,2.2304574435807223,-0.3157444124612967,-0.4494121018636137
747154.6911946991,20.205149814123857,13.034317206383973,0.5025781443142352,-15.421792022440506
747154.6911946991,47.45151802010252,21.600651374092557,-0.4199516186927417,-42.244664317106185
747154.6911946991,21.446043402789044,5.916606681199799,-0.24645258697909747,-20.605712900471673
747154.6911946991,99.46349225583035,9.719494148444468,0.2758532357044283,98.98571225291217
747154.6911946991,19.892412109070673,12.137741902927514,0.7355004981911323,-15.734418325193326
747154.6911946991,13.960997575907788,8.396137487385936,-0.3379882259530534,11.136861881451745
747154.6911946991,1.9158526957493092,1.7126712005316114,-0.033728471312342155,-0.682430436676472
747154.6911946991,125.25449534751814,17.25191910063286,0.13035407285352857,124.05955223166957
747154.6911946991,1361.7393366503818,16.483877176967383,0.08986338552224564,-1361.639461935063
747154.6911946991,58.139150607935974,5.856828490032969,0.17883439212634988,57.84078156206738
747154.6911946991,171.22501914950567,17.17491944902292,0.36599769988680103,170.3602799080579
747154.6911946991,304.85214371930385,28.81232918925899,0.6026464550935499,-303.4864834456306
747154.6911946991,40.67540386566861,19.013719121548146,-0.39902181434116757,35.95187542248392
747154.6911946991,68.00862936133633,13.835843422787756,-0.256767011826498,-66.58383268549022
747154.6911946991,29.948708156572692,11.118494910862161,-0.3267775434028149,-27.801564840883028
747154.6911946991,42.426449548466465,15.011866718462834,-0.6374971936443027,39.67329928609131
747154.6911946991,50.69025542807669,8.558629941588972,0.43904688634416694,49.95786911706891
747154.6911946991,17.720755533389326,17.60185198369569,-0.3111627412024816,1.9577438971183163
747154.6911946991,45.58962589295576,29.640514737748592,0.6162121336510471,-34.62952147730765
747154.6911946991,13.50243538295856,3.5845912744929924,-0.19424192967783796,13.006088448820993
747154.6911946991,66.49602261543669,7.725345017821977,-0.22750933814317234,66.04330327542178
747154.6911946991,12.730254757249975,4.39032238158226,0.30732146744698374,-11.933968706424103
747154.6911946991,56.42895181018921,3.601634702389596,0.15617934534440103,56.31127807002152
747154.6911946991,4.591799516671994,4.51398280327796,-0.09806043558482709,-0.6546496803580663
747154.6911946991,493.1939758173663,19.863165809558335,-0.2067303121541253,-492.79350572946976
747154.6911946991,26.23633085149759,25.405116724913263,-0.3331993703120603,-6.522551565330869
747154.6911946991,104.39602051441847,5.027050311885883,-0.37448947129520654,104.27294578194551
747154.6911946991,22.092017382066793,15.727032649739474,0.4597415495920027,-15.499545598215082
747154.6911946991,117.64405185063919,3.2264053909317205,0.23656234122061845,-117.59841360472507
747154.6911946991,26.836818192132434,7.344774688837752,0.4588066750686936,-25.80287177588361
747154.6911946991,16.869830046279215,9.710296327237234,0.11353483910828144,13.784702422174256
747154.6911946991,7.26101980383436,-0.03624707931475045,0.13476956295746712,-7.241031135536995
747154.6911946991,178.5115550761157,18.91841113536591,-0.04802262685028646,-177.50548247767915
747154.6911946991,24.882544586940963,20.315871310967186,0.2181360248825447,14.35577983503418
747154.6911946991,7.808653084765567,6.955507837961523,0.16765556342030108,3.5067742052103643
747154.6911946991,24.576313187867083,14.393907858136698,-0.5805113482288464,19.90485350496651
747154.6911946991,197.12922532825553,14.644111261233155,-0.016916884465225598,196.5838518233524
747154.6911946991,26.98022895338049,14.634724396943199,0.3319538908115476,22.65782431780954
747154.6911946991,31.89595993784138,27.752618066595282,-0.31958028329261406,-15.708975754281443
747154.6911946991,97.63507545644228,21.903010138549472,-0.2114583223309356,95.14489472185932
747154.6911946991,69.31012607567921,14.952643578405159,-0.012226202004207985,67.6760037026693
747154.6911946991,5.4896327237063804,2.8125247759758207,0.3628043430736956,4.67158911232109
747154.6911946991,16.907475243064077,16.83111046200305,0.4636274036470015,1.4460599369540912
747154.6911946991,41.98644507530683,12.676657291567345,-0.3587566495758646,40.02205421564834
747154.6911946991,89.04201025321096,16.40318638416284,-0.29532913346863454,-87.51604108437643
747154.6911946991,54.718342279952694,37.041086329782615,-0.0858128776362954,40.27129426186452
747154.6911946991,213.4883518589443,13.433129651616659,-0.11532980365973022,213.06464677709354
747154.6911946991,13.224113097015563,10.56059938614128,-0.2735465503037591,7.937611737349461
747154.6911946991,26.86821201295345,8.8369032705818,0.36483503245777094,-25.365457866131422
747154.6911946991,18.899091270560316,8.119959296889435,0.23534195347600223,-17.056263542603993
747154.6911946991,5.092210904823469,5.030180163965412,0.2943092919985823,0.520462734396283
747154.6911946991,37.74825415113877,6.670584539634577,-0.2767539163680158,-37.14952221265205
747154.6911946991,89.76705870840206,25.431150217005097,-0.5244481063815065,-86.08621249643602
747154.6911946991,66.04056838223528,13.005378822497562,-0.3898207319951686,-64.74406871466243
747154.6911946991,93.71661448406074,28.79254000158403,-0.08543497636205795,89.1824857888367
747154.6911946991,44.97651595992155,24.438247036069484,0.6658876478346837,-37.74844716458651
747154.6911946991,9.091371685370351,6.525386298993002,-0.049343079431648784,-6.308687504622525
747154.6911946991,74.06140000351408,8.89014797941423,-0.052689604274946046,73.52403051513318
747154.6911946991,15.230460788739371,12.33121560063269,-0.3357792772825952,-8.91767401988815
747154.6911946991,45.06119868946335,24.03759041436338,0.07382923440481252,-38.110759945804645
747154.6911946991,166.07020884784427,29.671071749386748,0.14493035617796574,163.39721650995529
747154.6911946991,21.60988085917891,16.370876375729495,-0.33127762310308295,14.092594245734894
747154.6911946991,61.16576462734183,7.56645121714609,-0.16902571079055512,-60.69349725246536
747154.6911946991,46.50822126627301,4.892904917600961,-0.08447228349448853,-46.24712522150158
747154.6911946991,24.302305420189278,3.1716243991974045,-0.23867928207616962,-24.087662393990918
747154.6911946991,5.710327775645914,2.678237746930794,0.03994888331637521,-5.016262549244213
747154.6911946991,64.59042149397216,17.844342976964107,-0.7515706484744257,-62.069853504336585
747154.6911946991,110.34003165629662,38.98049742632767,0.03875680949232486,-103.22389018157725
747154.6911946991,48.47844924849292,3.988952022243151,-0.08016506269909164,-48.31119411550152
747154.6911946991,42.36026549646767,7.021515436851294,0.2270132189026855,-41.77042588841694
747154.6911946991,14.524217837941901,6.573644626906767,0.40770050699406774,12.934584663595736
747154.6911946991,1.0803059626273113,0.8895330492507597,-0.10281353038949331,0.30793068237448584
747154.6911946991,49.28694543915881,24.684199206922127,0.36341791264137036,-42.65549000605168
747154.6911946991,69.63542226195344,8.328220572324039,0.19651180841232807,69.13337659053285
747154.6911946991,21.424930898550173,9.840798143172892,0.5001868053329183,19.017512168334363
747154.6911946991,192.18190747262838,11.609897892196258,0.19862625278118032,-191.83009664378108
747154.6911946991,350.3130719975219,3.8025553583965515,0.3595218591210893,350.29186306438805
747154.6911946991,196.53599645776234,11.643834750302496,-0.5662275768291765,196.18926576722907
747154.6911946991,66.57301243415988,16.79774705185892,-0.2347991071876483,64.41642762463495
747154.6911946991,129.9877118581454,25.889602465388663,-0.4965483094308808,-127.38138309061011
747154.6911946991,199.91908022244135,9.488939645101727,0.27339997400792865,-199.6928980055444
747154.6911946991,7.277963887376126,7.222959899534695,-0.5850935979940058,-0.4299699027271544
747154.6911946991,110.36505236665522,34.04274308832049,-0.16965645475456761,104.98208058332867
747154.6911946991,115.77215891510359,35.86711180611596,0.5718488488836059,110.0733648956259
747154.6911946991,70.85135527650819,16.763771820252302,0.4745902742754786,68.83599975992257
747154.6911946991,85.24583957635429,36.573450136327594,-0.22347493520819575,-76.99945174581715
747154.6911946991,19.941128739253394,5.99476955349868,-0.28481532545286087,-19.00946694745305
747154.6911946991,129.37820565925387,8.85747913107472,0.5232936536266146,-129.07254133549415
747154.6911946991,40.45503360093787,5.15760742963074,-0.13491460734834418,40.121318862963136
747154.6911946991,8.840631075399418,6.297194009616485,-0.050475726614183355,-6.182973202076081
747154.6911946991,16.651170632480746,4.689520339316468,0.1958344180321863,-15.967502350080931
747154.6911946991,10.233050961803889,6.108221487708069,-0.3235528714461173,8.187177522403912
747154.6911946991,16.37972085107995,13.896554932006568,-0.6039218552391735,8.633996442771547
747154.6911946991,123.96195363552692,15.309894122485442,0.40660929014755703,-123.01112697630234
747154.6911946991,33.16807901176977,33.14573043979766,0.03176520087372526,-1.1002771992943035
747154.6911946991,10.905552392896666,10.871821950095441,0.4570382658596827,-0.5052489516833756
747154.6911946991,98.65927792628418,8.979454915470347,-0.416821317719524,-98.24753620496503
747154.6911946991,36.36109260389793,22.0331651414966,-0.19787350858977817,-28.919874399301577
747154.6911946991,13.639425344695628,13.356983866314172,-0.082142340915853,2.7106748909408465
747154.6911946991,20.87153368490045,20.831299952110527,-0.24751184070746182,-1.160257968662004
747154.6911946991,316.2646637893914,7.570761903341079,-0.47802761286084844,-316.1732471535519
747154.6911946991,54.371799135425476,37.49188506868061,0.5047667270734522,-39.37163834248122
747154.6911946991,18.525246851397164,3.493050323989152,-0.09941326094668967,-18.185243670152666
747154.6911946991,430.2738583393884,12.23676418029115,0.7392066315043757,430.098869966216
747154.6911946991,64.8767381708834,4.5640147507748186,0.16902039802674612,64.71369219224877
747154.6911946991,82.13690953216583,9.767348613519204,-0.38817041347434006,-81.55151581845232
747154.6911946991,9.398084591868212,3.097905900477861,-0.05034703250998928,-8.857428419355841
747154.6911946991,92.83988370616703,21.44694523777687,-0.3006300635241818,90.32669465948219
747154.6911946991,116.20501349200775,16.08655976880494,0.7621399871169929,-115.08247693772677
747154.6911946991,134.62667216530718,15.034087917208941,0.595288329192349,-133.78225700969415
747154.6911946991,8.697647833495367,2.2288399832935353,0.13771947702891024,8.389993057805551
747154.6911946991,5.2578879177379925,5.200715794870398,0.33248170354115586,-0.4658288240235154
747154.6911946991,12.99459719125104,5.058058792546278,-0.03905406630827679,-11.958414284256904
747154.6911946991,15.334740977474542,5.748438931787263,-0.30571404319414075,14.203727314249008
747154.6911946991,19.65753985514867,6.557967188670259,0.5058294810267647,18.517172463559515
747154.6911946991,17.935140214147278,9.826105521208525,-0.06936982245852749,14.994722158644027
747154.6911946991,32.254770067886085,7.030116081474672,-0.15880020808140924,-31.47462537516698
747154.6911946991,1.8410772509575357,1.6479804097521105,0.2717609280776587,-0.573996525283033
747154.6911946991,11.529949768751342,6.923326754901859,0.13171327542937927,-9.204321807056992
747154.6911946991,16.89073483332342,11.612808987197974,-0.17807794848506375,-12.253059980297264
747154.6911946991,5.609696477597369,2.2291297054139054,0.2373461610153146,-5.115949777613229
747154.6911946991,56.502774783056864,31.740892332465904,-0.216411090464076,-46.7414385568478
747154.6911946991,10.001995386882573,6.877363551583918,0.18255424241581622,-7.24141258644619
747154.6911946991,51.5108987052476,14.907355769996132,-0.3075370931698736,49.302925372693316
747154.6911946991,448.4789742340712,15.921065919092307,-0.2116013964755267,448.1959335099926
747154.6911946991,66.16021116097673,7.056457716856295,-0.2703713671578692,65.78021316991205
747154.6911946991,335.8638079267914,20.651505796988303,-0.3967500276079832,335.2276614076129
747154.6911946991,14.990737102082107,2.899205953375742,0.04010046210676112,14.698462356879048
747154.6911946991,15.76016604198794,12.47829278935109,-0.04682557561562385,9.612619315240078
747154.6911946991,5.600941577367336,5.454564996137261,-0.31932869680109977,1.1161973120356115
747154.6911946991,24.477027793077173,24.303679669564993,-0.5228131977040381,-2.8128829450498616
747154.6911946991,149.18413127101522,21.966774231457652,-0.19572937848722757,-147.55696236695195
747154.6911946991,22.852055690585093,5.2390018479822436,-0.3209970834045197,22.235014499542984
747154.6911946991,59.351028253374466,20.745309365800214,-0.4544897817691558,55.60305506973842
747154.6911946991,33.65949189832972,6.394795067874302,-0.2360839729276934,-33.04151714512123
747154.6911946991,17.200066822633342,17.119780961856133,-0.4929940192377476,-1.4973160715482192
747154.6911946991,6.7451525753855215,6.43669318531364,-0.1307641728803751,-1.94385308973127
747154.6911946991,10.153698414412105,4.787781125386578,0.08213958969748128,-8.93854554578267
747154.6911946991,61.58841706780468,11.334903337446633,0.5691031985644004,60.531469541041034
747154.6911946991,10.70809734617598,10.235447915319796,0.1629148899569293,-3.0987115849312366
747154.6911946991,264.98038869823597,10.317669789794598,0.4933385387495763,264.7784702385433
747154.6911946991,33.98239329359979,11.993955704197493,0.3531628049622439,-31.78919559472739
747154.6911946991,253.69351462612627,18.30204357994321,0.631232059454355,-253.03115561179723
747154.6911946991,16.76320841437655,16.285776300863716,0.17471217836126987,3.934173645987527
747154.6911946991,571.9151904837557,8.954458793851135,0.14364327155802245,-571.844831873464
747154.6911946991,184.73184363743306,13.367378212548083,-0.07535684974482594,-184.24682134233123
747154.6911946991,136.46380241595767,12.420740885826284,-0.46536108280510097,135.8955761043431
747154.6911946991,274.83949980263293,3.9352779824834547,-0.1378643198554059,274.81079824561374
747154.6911946991,217.18482028765607,12.547750808127052,-0.39364193259845176,216.82106622528067
747154.6911946991,9.407367747287257,6.293846587075961,-0.17591263180148797,6.970273869585435
747154.6911946991,300.1998707348789,19.028977307875916,0.627542955404888,299.59505370031303
747154.6911946991,30.694003904091108,2.7949559401435273,-0.524187157715552,30.55756738977601
747154.6911946991,88.01647155052117,22.6147716341119,-0.2000825295247828,85.05974920679023
747154.6911946991,61.75321778525976,7.3358655601859475,0.31330972553774566,61.312938441510724
747154.6911946991,64.58422200213275,5.050148403197747,0.5086308313618655,64.38236270442268
747154.6911946991,46.44200181329455,7.019473647734927,-0.21572127659942303,-45.90500611551676
747154.6911946991,26.989583219250772,14.716611723603304,0.4297818676626681,-22.61423952450741
747154.6911946991,184.05587807048016,14.553600315568193,-0.5147571145067686,183.47812838391178
747154.6911946991,1.0565654306291865,0.6553082155300248,0.09109332361756287,0.6389081766981859
747154.6911946991,1.479775477182279,1.2815616242442682,-0.3466813415853742,0.39591326516170267
747154.6911946991,8.031679821118196,6.719802133293033,-0.20083029034259467,4.36364609390227
747154.6911946991,157.7182032793766,13.96932923131035,0.3933954387164564,157.09699018928023
747154.6911946991,10.785915213584968,9.80622488708149,-0.3234419593647602,4.449596134206966
747154.6911946991,65.08930161565007,20.56560836150669,-0.22910792268230631,61.7523282726567
747154.6911946991,19.071039135701092,17.720976841012927,0.22826600186275622,7.024884920631786
747154.6911946991,91.74928614136203,26.871244742681526,0.21502215930675303,87.72429013049604
747154.6911946991,10.038924527163516,9.534821793951977,0.4138760371164504,-3.0700953805320803
747154.6911946991,181.6038389040022,7.815418812982465,0.1337080054357961,-181.4347961544801
747154.6911946991,116.92716555427043,12.631711878320365,0.4078414493081709,-116.2409788539786
747154.6911946991,4.904850344957867,4.840535274316294,0.16589392737928643,-0.5734582542711063
747154.6911946991,290.87606979165463,5.527396533154187,-0.19403746776375755,290.82301802722895
747154.6911946991,5.862172366807436,5.824832135726492,0.20974355496287264,-0.34928940711133116
747154.6911946991,17.916706094991042,16.90567277347563,0.0810594478847235,-5.910128148895127
747154.6911946991,113.50033242661374,34.85854868278793,-0.2221436689060905,108.01336628802886
747154.6911946991,137.5567275711273,45.909102944366225,-0.2657113455909578,-129.66829436836804
747154.6911946991,166.56985358406212,3.630580955005709,-0.03340845107932543,-166.52946732881975
747154.6911946991,193.43686175564574,25.75268353680366,-0.10556065232950437,-191.71420717691927
747154.6911946991,27.37192347209827,6.199460188465018,-0.3300304984921613,26.653509483820443
747154.6911946991,9.491527071026217,9.393931833708107,-0.1014749900487938,-1.2499734677438092
747154.6911946991,100.84233422071352,19.005608279957304,-0.15182188688784443,99.03368000385309
747154.6911946991,128.21968411706115,22.421036629931727,-0.3093958708410053,126.24269636582271
747154.6911946991,102.67649792414194,23.26749655599511,0.12119940991010578,100.00400862308527
747154.6911946991,10.213443965832475,10.17238166962544,-0.37326712545136015,-0.6537281267663423
747154.6911946991,172.9445327470122,2.617351404554281,0.27582064448407984,-172.92372423030793
747154.6911946991,472.2461629093097,46.95051209885228,-0.1387963769368479,-469.90615885705046
747154.6911946991,24.695954336525247,4.335355467347602,0.2481554174758476,24.305614011011045
747154.6911946991,27.76419173444494,26.791291777932656,0.06178118740653277,7.266554246792721
747154.6911946991,16.8482789037632,15.37745553271229,0.036581434884133075,-6.86488347731192
747154.6911946991,67.90673450895018,6.560082591385974,-0.27421294593235596,67.5865690453623
747154.6911946991,61.68263465084902,7.355702308415369,0.07688339723842609,61.240221668143256
747154.6911946991,6.919057882377543,6.882291809015255,0.29535728901863073,-0.38702132638381603
747154.6911946991,28.34945787986695,27.095977610855407,0.5139898902364476,-8.304527306662767
747154.6911946991,263.0259696469528,23.15335994902772,0.12672706745060353,262.0043819710671
747154.6911946991,848.903741211973,11.669478148326714,0.0880312856474641,-848.8233661804574
747154.6911946991,81.30441345083699,24.15715437406756,-0.4473909033169391,77.62969135911685
747154.6911946991,9.275233762719319,5.04283171612284,0.20679358152624763,-7.764447568925528
747154.6911946991,7.323142056853529,7.026894472287543,0.21389268451305846,1.9836868653352384
747154.6911946991,29.85980197277226,7.889605567394562,0.3914375516814787,28.79128816998719
747154.6911946991,698.551229060048,15.349471630658975,0.4950707463974542,-698.3822004081427
747154.6911946991,25.571473361837455,8.4616272528253,-0.18091309279210738,-24.124634392716985
747154.6911946991,33.0171361509691,21.52077343923434,0.06590360043408026,25.034233499434855
747154.6911946991,114.40761186305143,10.139821175765764,0.03922643983923517,-113.9561921968988
747154.6911946991,73.5723205443033,24.15387549237675,-0.3559975500711342,69.4915787323674
747154.6911946991,440.2833931679657,11.262194188545212,0.7223990606595655,440.1384293846133
747154.6911946991,92.70269345548552,28.00545911135157,-0.19617091650457813,88.36953519644452
747154.6911946991,120.45855355492999,13.91087838463074,-0.4263301531343455,-119.65073518250723
747154.6911946991,76.92868468490742,14.802791543032997,0.13778640973022846,-75.48914163499752
747154.6911946991,2.3963758353152063,2.2641683316734684,0.13522533626508024,-0.5722525826605174
747154.6911946991,54.40122879913175,9.261504207609104,-0.30996532974585556,53.603654317241066
747154.6911946991,436.5582782015343,18.286788243711023,-0.556519504399888,436.17444162635104
747154.6911946991,234.95576334937815,10.707665079561808,-0.3228978719478507,-234.71084759038558
747154.6911946991,29.825624341610705,0.8347687565997004,0.25395816778542213,29.808323229240866
747154.6911946991,111.94715200251744,13.008222066114257,0.14383559247186872,111.18749889927258
747154.6911946991,16.220486991196736,5.261145418101047,0.10213886879040535,-15.334396459354345
747154.6911946991,29.451311641921244,10.208908987607117,0.39527267892662227,27.617590304398654
747154.6911946991,138.1792055945512,22.816854837065726,-0.1013314943306541,-136.28133887665535
747154.6911946991,23.73288971146424,23.0457989948789,-0.23329911737046174,-5.640600523525656
747154.6911946991,44.47139690524118,17.864429441757792,0.07427531451911287,-40.72212404334534
747154.6911946991,11.652312406956518,7.726284282676242,0.25266422917182557,-8.703256654832133
747154.6911946991,70.89820067667594,3.830314438229343,-0.044652339646463694,70.79273378435857
747154.6911946991,23.970665482614187,23.28768299994229,0.08367375281331706,5.656785560429213
747154.6911946991,132.67692581799156,2.0813752379454984,0.025059291878541334,-132.659577466776
747154.6911946991,36.27676444693362,18.98040297523209,0.5282813151425017,-30.906285129212453
747154.6911946991,24.902803199362342,11.326973218301632,-0.4186441148923906,22.16762553822837
747154.6911946991,14.588032447540856,8.772763982973721,0.4346329052852143,-11.635720735183842
747154.6911946991,29.848767371915653,5.458341118214822,-0.17423719918925742,-29.340324934437255
747154.6911946991,173.5885532645118,2.967912396947523,0.039325695129878456,-173.56239619790915
747154.6911946991,45.45719247618361,2.07480283337169,0.1376840917870803,45.406631499267874
747154.6911946991,12.440780657077577,11.291571615037142,-0.3130643777853286,-5.187005351391588
747154.6911946991,79.23008410493163,7.945262755999582,0.42443009827573225,-78.8278408057987
747154.6911946991,70.41495369163388,20.99313163552073,-0.01353742483472736,-67.21073979853794
747154.6911946991,225.3778181718786,29.85616857001056,-0.3157576228821447,-223.39068919576548
747154.6911946991,125.28484672595772,8.66471386843634,-0.39542725075658314,-124.98315402490925
747154.6911946991,910.5161798189814,22.073571910478456,-0.2609198880153448,-910.2483906363562
747154.6911946991,22.35427257659788,6.254821666482762,0.038709355107877555,21.455041597143584
747154.6911946991,15.535560767900101,10.708912913862273,0.6745976331130527,-11.222626725051
747154.6911946991,24.119217220861337,14.008304775096644,-0.4644746355130002,-19.621872998979057
747154.6911946991,136.47468194243422,9.791614907167274,-0.4109319335791156,136.121356971433
747154.6911946991,24.207773772098925,19.675733822204315,-0.011490509700010023,-14.092951341967826
747154.6911946991,73.18336638023666,15.823308408761829,0.09793233408774799,71.45031864871633
747154.6911946991,124.40767598216809,35.43901078432301,0.42495641214817587,119.2513956730089
747154.6911946991,7.704211005699641,6.98660136254199,-0.4343532521687696,3.175406410776472
747154.6911946991,11.222070251349045,9.578431349350259,-0.24270607821951434,-5.818866502300318
747154.6911946991,23.718749580854364,5.903285713898304,0.27709508407309985,-22.964823486666425
747154.6911946991,304.04415258731365,15.908832959531024,-0.2932961735397195,-303.6270727945023
747154.6911946991,31.342953689633898,14.439417956046878,0.5036438546213502,-27.809349110484924
747154.6911946991,135.63111928858075,28.535032535619845,-0.600933653229339,132.59306511431413
747154.6911946991,38.8089718758296,8.111579303961964,0.4026634305426582,-37.946093888780865
747154.6911946991,4.187739191481749,3.2395707364814914,0.030967173326091238,2.602111068609713
747154.6911946991,124.29359411669829,23.269552893656773,-0.3353692842067615,122.09440025660085
747154.6911946991,29.260724023468285,13.011915578191873,-0.028608626054061174,26.20322126972363
747154.6911946991,18.67842205674066,12.023878600642494,-0.4819583126363644,-14.27610276341651
747154.6911946991,35.29334725194873,16.885660863369132,-0.29004007690939665,30.986130674992438
747154.6911946991,18.93168500424085,11.07154623929764,-0.12023850339290963,-15.347465708487318
747154.6911946991,28.60569059874511,14.068500451820112,-0.1079032944199726,-24.90142137604448
747154.6911946991,467.0933761646565,7.088290655578758,0.6350881652959606,467.0388682492085
747154.6911946991,11.279233336085412,10.1008017217967,-0.3861034721094697,-4.977492675598259
747154.6911946991,36.06646338189319,14.005394410978436,0.4043340944616162,-33.22957752079361
747154.6911946991,100.53708547428693,12.60644675503546,-0.16037354977308171,-99.74210212443421
747154.6911946991,337.7428402956725,17.195390744462866,0.4771599341203634,-337.30408628792316
747154.6911946991,107.33658127280032,12.997991084108653,-0.10442657479548799,-106.54535467208495
747154.6911946991,201.75744654546588,43.78080998422109,-0.1837332235644831,-196.94924157197102
747154.6911946991,68.8545318036769,33.3577560531579,0.15112504069550597,-60.23216268924466
747154.6911946991,5.925415441035029,5.6897545844054385,0.09099258632702806,-1.5679799958313114
747154.6911946991,17.462293676339804,4.530858426759295,-0.27612950078463233,-16.853972079429756
747154.6911946991,29.13197324669672,25.782674487781524,0.587863927834332,-13.539186737234408
747154.6911946991,14.011661384753008,13.259840642637187,-0.10078189578334289,-4.4969683012367465
747154.6911946991,146.8222559521708,16.090768315453293,0.34078646527864376,-145.9365460824952
747154.6911946991,5.011950031546258,1.4438108005826344,0.5914335039095221,4.734433429808764
747154.6911946991,4.141604837941848,3.6062090457166684,-0.5229281441421404,-1.8984975923921148
747154.6911946991,38.00105219239039,37.99638677156216,0.0717055052134986,-0.2811020369135563
747154.6911946991,63.77471315825622,30.287072271866023,0.04999010055529853,56.12160361755951
747154.6911946991,10.097714363647786,8.0092605402879,0.3942857725079559,6.114713378172668
747154.6911946991,326.5815358458824,9.4933824260646,-0.7173355917556782,326.4423230453071
747154.6911946991,16.345305815186723,11.779194548810132,-0.06938614710789558,11.320087611668392
747154.6911946991,62.23602469429882,25.127894184843615,0.21843101073850588,56.93499443644674
747154.6911946991,12.821497647072638,12.604027278071618,0.002863114937143395,-2.2932270036105464
747154.6911946991,37.824203872069,8.779971601502359,0.386634639083714,-36.78535864836052
747154.6911946991,25.140760295714102,16.04739459699336,0.3225151915715431,19.343333188624662
747154.6911946991,176.72105486110405,18.073948759593513,-0.11679626059202795,-175.793570889525
747154.6911946991,34.420380822243786,25.356390131703375,-0.29158669708249424,23.26930752375815
747154.6911946991,82.68369958162617,16.646855256933414,0.3032568543419582,80.98835732276343
747154.6911946991,17.992282310198295,7.904319554565122,0.06820791914981116,16.15453195821405
747154.6911946991,28.132699359298485,9.48735662711159,0.3388667380665616,26.477416920925418
747154.6911946991,31.758278144077813,9.691670604743052,-0.4383502303826537,-30.235694148494314
747154.6911946991,82.05123232181053,61.136309603111904,0.09318881679723179,54.721817307949465
747154.6911946991,9.704587441578914,8.441194291459166,-0.4660275546458587,4.736842267101485
747154.6911946991,63.81022287288805,8.649423658760535,0.04136596345989604,-63.219141897972534
747154.6911946991,14.055788496966192,5.142627586825545,0.3890494890451858,-13.065099014922989
747154.6911946991,84.6649374912231,17.366724412147654,0.007046960796659912,-82.86300787399387
747154.6911946991,12.656655882548307,4.426753791078717,-0.03894455474385861,11.845795554713533
747154.6911946991,20.150680269213012,6.398220684566754,0.1900604310135522,19.099899591783085
747154.6911946991,100.02780923673916,26.109309089138378,0.20295657539114628,96.55855740543052
747154.6911946991,162.1047999092561,14.588501352168374,0.05287387894393399,-161.44617860535027
747154.6911946991,70.806409213422,14.719531693002924,-0.17406425937427084,-69.25736259828886
747154.6911946991,19.22149232348907,12.479014374998332,0.031123807310149944,14.610564625610905
747154.6911946991,356.4039072355927,37.39549476239831,0.14660516033316764,354.43621453118953
747154.6911946991,223.62636014942962,30.786321825087022,0.531657418061149,221.49582001147192
747154.6911946991,6.407127912376016,6.22413438228346,-0.24729383086925774,1.4070838773998808
747154.6911946991,221.1120281738772,37.70040287223453,0.3452794554613215,217.87340133328416
747154.6911946991,22.758739790335248,18.206112528051104,0.13388073516162752,13.645855759492783
747154.6911946991,37.14131678461855,8.780837729200723,0.047557673141299,-36.0846454816527
747154.6911946991,107.19335491573884,22.429079319441332,-0.6522986092492337,-104.81724975164217
747154.6911946991,134.36800228545783,32.45652149463027,0.5129869691533055,-130.38711859314506
747154.6911946991,119.10647730906612,12.335677435407145,-0.18516350812587545,118.46467538325476
747154.6911946991,221.93713179082278,19.003825057908127,0.46207640232847386,221.12091982918278
747154.6911946991,448.1056079013712,14.84781750811615,0.18186281786574102,-447.8592130054026
747154.6911946991,101.51646863543891,11.256722486909815,0.3456061445950076,-100.88850162161972
747154.6911946991,15.030226127210494,2.0577672128753965,0.20232670756246596,-14.87823764550436
747154.6911946991,336.5060452084569,7.933676204983682,0.299030539879694,-336.41197277214553
747154.6911946991,132.00416510331075,8.103388703115238,-0.04109847542418892,-131.7541749132211
747154.6911946991,10.456159183862734,9.931814105418091,0.22385756882948313,-3.2202206822783115
747154.6911946991,7.241282294056441,3.9421519721924243,0.5123782991744908,-6.030147226137166
747154.6911946991,16.631424139848132,16.138379640215923,-0.5027619285348621,-3.9539602869785178
747154.6911946991,16.93796053859467,16.733513178960823,0.4560538327299819,2.530940299214288
747154.6911946991,19.93910266189239,15.61352346488868,0.6379623957453653,-12.3736940302591
747154.6911946991,0.9695359106588433,0.5122734287155445,-0.5071531644011751,-0.38726151903715755
747154.6911946991,14.275564546444436,10.979270370807873,0.680497362159848,-9.083715571532121
747154.6911946991,17.39019267514822,4.940191648444724,0.2079397298731658,16.664323233307613
747154.6911946991,120.06466839536402,1.2407390984575444,-0.2453803866899001,120.05688048522713
747154.6911946991,77.63506273973002,12.80387193478428,0.28066691805903654,76.56967190840356
747154.6911946991,113.90962601436513,41.9477472700701,-0.11192297786394237,105.90328829146847
747154.6911946991,9.009872464687868,8.212284612130299,-0.25676724869633627,3.6605810821924814
747154.6911946991,190.21839815345047,10.46475733910726,-0.03542878126579849,189.92960852563158
747154.6911946991,49.765967414884685,18.574176873025475,-0.19529195953273118,-46.16646972944186
747154.6911946991,8.761628853862252,5.367827182778128,0.17100028449521953,6.903110198407841
747154.6911946991,342.36321161976787,17.752300080782398,-0.3658856362664273,341.90206235140647
747154.6911946991,203.92188622155896,25.397824606039247,0.2795122366391534,-202.3332341913925
747154.6911946991,45.10083233013626,16.04262894454675,-0.28039297329677265,42.147005981435726
747154.6911946991,6.592093546021477,6.044729695584871,-0.21203656270509505,-2.5693541450895143
747154.6911946991,39.97361851508856,14.059400445771907,-0.5217202963362192,37.4123087262421
747154.6911946991,20.2298784372243,19.654894857379087,0.06692522951485999,4.760064153338709
747154.6911946991,47.779294160350815,20.400586348289792,0.2956649759160488,-43.20091676491743
747154.6911946991,27.698712785572692,27.204528581334955,-0.012214030758557945,-5.182833728997093
747154.6911946991,149.16078881792072,41.34764949330109,-0.34687723925150604,-143.3140679708184
747154.6911946991,18.050380180451445,15.317955150063,-0.309000243034752,9.529459246426171
747154.6911946991,119.57242037919818,37.452220359085366,0.27265885616310465,-113.55417281043599
747154.6911946991,10.53523346683995,10.510739888137865,-0.08671043795934734,-0.4874140997971087
747154.6911946991,10.638166061513154,7.915578723879822,-0.6990596948525729,-7.053729946732014
747154.6911946991,77.3869117339674,11.30803271806552,-0.3583251128716556,76.55366553524073
747154.6911946991,19.858920222552104,7.929864584440971,0.3892925471025257,-18.195384343038437
747154.6911946991,191.75729458688653,9.05888044820902,0.3799040716150973,-191.54211543470893
747154.6911946991,15.72793875988944,15.712155910028049,-0.4525258154998567,-0.14503337584634873
747154.6911946991,483.5071811640621,21.50929321767959,0.4210203947996015,-483.0280497904031
747154.6911946991,4.759151705462361,1.9895078991680673,-0.37706755889494264,-4.275371718433634
747154.6911946991,78.81835858779374,13.232597803216649,-0.13064641863405344,-77.69777691392234
747154.6911946991,14.858549026908127,14.846125516705122,0.021032985884302694,0.3133591242876238
747154.6911946991,1.3701598412845126,0.6023480346919345,0.24753242313284074,-1.0875856450273458
747154.6911946991,71.54939095098018,26.270333122276973,0.34167311856121374,66.54921338814498
747154.6911946991,265.6255729209966,4.599191747640079,0.4083367789938349,265.58493045719115
747154.6911946991,79.08931324755684,65.34053845318246,-0.3694484461894841,-44.557004078640226
747154.6911946991,27.283390972219973,24.19569942898711,-0.7093153135419092,-12.576884505755066
747154.6911946991,25.084347508678313,11.411998268143304,0.1793293373951503,22.331328362925017
747154.6911946991,389.30657105111646,27.05495276547484,0.558371137042923,388.36458851974294
747154.6911946991,798.864654135367,57.4546621015412,-0.32550211447669525,796.7956582951433
747154.6911946991,152.32377589238072,11.300013304660185,0.511295831258589,-151.90230603252763
747154.6911946991,14.439837530061233,7.209444267868944,-0.4685691295609445,12.491711820798574
747154.6911946991,34.55792879315513,25.024065255889173,0.3106761262471351,-23.82602948219364
747154.6911946991,49.197082185798564,9.150869087993406,0.3424100467055451,-48.334530574844116
747154.6911946991,37.14774882320746,11.211829137355393,0.030393442478291694,-35.411563171731274
747154.6911946991,408.98233791351475,27.243348220249118,0.21166844046089023,-408.07356873415114
747154.6911946991,13.286787206969217,9.411116300528382,0.17969946378186102,9.363061057364
747154.6911946991,94.5776516069358,24.01731760767774,0.23056208547710713,-91.47555454622618
747154.6911946991,30.594936878031646,5.539037274636723,0.21585830625583768,30.08408605612852
747154.6911946991,3.9395319127668817,2.613996252285846,0.16881971663957357,2.896210487519505
747154.6911946991,9.51905211708683,9.411020367618596,-0.4845006570348696,-1.240930280642712
747154.6911946991,16.024103750126923,7.778532703586395,0.46148233725025817,-13.99224656824181
747154.6911946991,27.190139554500526,27.05832893595745,-0.4037679345245839,-2.591736028570669
747154.6911946991,78.16673960413262,4.924411478055479,-0.3533979074501989,-78.00893578208893
747154.6911946991,7.0354350616746,7.007480046136742,-0.026576420531480932,0.3485162892999816
747154.6911946991,4.164386295392498,3.900815144035555,0.3173187647280068,-1.3246370185327059
747154.6911946991,136.85358222425788,11.824138257187492,0.36715138179993106,-136.34033710516292
747154.6911946991,439.0190067331192,9.173899494471566,-0.5099847369318682,-438.92254140858154
747154.6911946991,104.59465029008268,19.47568717374159,0.013125243752024627,-102.76413725684282
747154.6911946991,636.3511415627536,14.63577230302954,-0.19538206178838766,636.1825688928952
747154.6911946991,37.98424189502918,24.03145309063389,-0.4497032241164344,29.407809535954428
747154.6911946991,7.1326056451903606,5.506944861837413,-0.13279383745517886,4.501065137855467
747154.6911946991,832.9352139936949,16.504453977186888,0.4593033212232005,832.7713926102988
747154.6911946991,26.986454822180285,5.536454239266982,-0.041332858191613364,26.40727759389282
747154.6911946991,19.948236887889134,15.216159160449935,-0.3238733147186076,-12.88508290292342
747154.6911946991,64.9120230551468,41.606256857249384,-0.7245942715565046,-49.816610589060794
747154.6911946991,352.0291615720884,21.205696850403662,-0.2442566014631069,-351.38941212983207
747154.6911946991,23.02619365916969,21.19527899399275,0.09881456725373575,8.982515153212628
747154.6911946991,20.120059290320096,2.9741803024020093,0.0164210177382446,-19.892218773303703
747154.6911946991,24.710095608336662,23.826174546184816,-0.4975161171518079,-6.510323277768006
747154.6911946991,53.99755777171115,11.046561988541132,-0.26974057491816156,-52.85230887638539
747154.6911946991,7.476458328574463,7.448068151572244,-0.24876799991526163,0.30236473118386076
747154.6911946991,158.143541781537,26.132939571993553,-0.5029734699086356,155.96770785718385
747154.6911946991,26.9934469592692,3.426133700336111,0.21915750220294017,26.76918670037488
747154.6911946991,174.08217515962002,16.39308542976838,0.24588243238717356,-173.3076443790821
747154.6911946991,8.278256488410273,5.60040944794402,-0.34134976451453025,-6.064488835965651
747154.6911946991,29.58684023597981,4.490946649933615,-0.15652138988140366,29.238974236305793
747154.6911946991,17.976459380539318,16.43036890991609,0.09835494687139755,-7.274338158806511
747154.6911946991,287.3092461734254,33.92001986671026,-0.2382502072921007,285.29933057373734
747154.6911946991,331.58753650716153,10.191296940110172,-0.4030397367797231,331.4302324661063
747154.6911946991,188.2699325822843,34.685812112005735,0.0697148063398358,-185.04644469028386
747154.6911946991,14.47078708757871,6.054828343323969,-0.23589352083958656,-13.130753478522909
747154.6911946991,685.6938569189809,17.83522490414356,-0.5965908185399518,-685.4614094523788
747154.6911946991,87.24351304592939,7.306550917671788,-0.3045620250752456,86.93492810289547
747154.6911946991,9.305741264992927,4.7747069592671,-0.15116323094749723,-7.969049103985238
747154.6911946991,83.62777705756984,6.466580551242195,0.18034961782413544,-83.37556899704046
747154.6911946991,204.26173582347747,24.374179369379256,-0.5245991519263523,-202.80091345311843
747154.6911946991,20.90735357998814,9.440649426253241,-0.5656725726698855,-18.63870131392627
747154.6911946991,26.553788043919088,25.272575728336037,-0.1737079828651324,8.130190715695996
747154.6911946991,53.370666777206495,17.406235319418734,-0.18488442127942573,50.44944461537115
747154.6911946991,25.866177367842898,15.597261977761908,-0.7140754285956757,-20.61563112553304
747154.6911946991,26.050288589440914,24.636505557527173,0.2312733437305837,8.446078507068702
747154.6911946991,5.958186782315645,5.842151709085654,-0.25435689745456935,-1.0169344667704605
747154.6911946991,2.0332737811281816,1.8984094434318375,0.01579336382231183,0.5095040959318109
747154.6911946991,254.02327365166872,18.17248909873207,-0.7419787637011026,-253.37080191723203
747154.6911946991,7.326143530596335,6.799652354682208,0.38082166731520906,2.649845607590474
747154.6911946991,13.020800924728517,4.7209231288824505,-0.3018329322849277,-12.11992732707511
747154.6911946991,70.71496573097954,20.0073778591473,0.1646667978843722,-67.82340078749067
747154.6911946991,431.3728865487497,16.73116056128026,-0.5585320896648756,-431.0476228418133
747154.6911946991,185.13355689332963,19.666331769718454,0.49521891208413543,-184.0846371670602
747154.6911946991,105.58585470865997,12.217392216938675,-0.11190090126152218,-104.87528364759753
747154.6911946991,92.01594734625601,9.167855031426942,-0.29577066541917674,-91.55614190137749
747154.6911946991,16.486905029167932,9.809018678872985,-0.11723954845620077,-13.240734303149562
747154.6911946991,12.584607729219574,4.036686001057468,-0.13482704781105775,-11.907516092551724
747154.6911946991,8.905700793138042,5.002558008230542,0.3410289357058256,-7.341608764855243
747154.6911946991,72.92680446412783,26.386722253325537,0.4682909611122486,67.98213001701792
747154.6911946991,34.688330508809045,17.068573401682727,0.14362956423764883,30.19359279827457
747154.6911946991,4.925924684559403,4.845210744801072,0.12488891819505508,-0.7089919566031492
747154.6911946991,56.82966674458432,10.249737048431193,-0.5885412640709412,55.89219204789714
747154.6911946991,664.8438992243175,23.342167076708677,-0.41729189736118877,-664.4336754254936
747154.6911946991,23.458021501623982,20.205926607169882,-0.5549577404581527,-11.89205300285121
747154.6911946991,169.35259451510768,21.275152700762852,0.036881720702991144,-168.01011096447846
747154.6911946991,37.7608742979567,14.80129265054195,0.17245887402209345,-34.73478402921012
747154.6911946991,60.48517266298001,7.278482745294815,0.11949462038366118,60.04327707606113
747154.6911946991,12.484427769856378,6.413649228439443,0.059647286833827126,10.698228008248492
747154.6911946991,15.608571319012945,9.030749041395055,-0.22188546952149854,12.718232471946369
747154.6911946991,77.95025189129001,25.404424901048518,0.2720259544972277,73.69201155649525
747154.6911946991,29.56262208261087,6.059938882351301,0.6775683784199629,-28.92224517968831
747154.6911946991,61.42796784176704,33.24729524093751,-0.0019287350722406616,51.650190596076996
747154.6911946991,555.4362546923311,6.970856908090505,0.19511914951337492,555.3922323089588
747154.6911946991,15.324558740914176,11.907467754960697,-0.08858402884704161,-9.632033281614715
747154.6911946991,17.42550354773846,9.539472338018438,-0.19264215613239458,-14.571860910813935
747154.6911946991,25.467911788571953,17.552649530676355,0.28119812957373275,-18.443685991028303
747154.6911946991,18.202032668392658,13.229104083772953,-0.13597342995913606,-12.490632875410299
747154.6911946991,158.85808191870154,18.698146558812127,0.6317824638236107,-157.75170349974823
747154.6911946991,20.500026859251594,12.22511867534807,0.6748005998972829,16.433861954941417
747154.6911946991,9.888299664485109,4.403925400744632,-0.32657216252107263,-8.832149338750948
747154.6911946991,36.52153272428587,30.365591707552845,-0.03867249896084242,20.285001780110974
747154.6911946991,76.8575956670902,14.848784868400589,0.2386171865369624,-75.40740190124687
747154.6911946991,59.87316365562563,10.912310066612632,0.27496222464994646,58.86740363663451
747154.6911946991,255.94205635238404,7.614272240222894,0.09677996383704542,-255.82822225426426
747154.6911946991,242.7226525373302,6.665084320214529,-0.2868632670962227,242.63039796206075
747154.6911946991,45.27452491613486,13.60923212707444,0.2439860648882581,-43.17686276344382
747154.6911946991,39.87242800273004,25.820661250181878,0.6581382174417141,-30.371045775919356
747154.6911946991,59.40511726289513,13.999434318309241,0.08967122329573692,57.729588209664016
747154.6911946991,155.35429670874828,7.86109193149132,-0.2167290661207245,155.15425668677727
747154.6911946991,7.5316777741208885,6.536053751853632,-0.3774309124865687,-3.6869116279572336
747154.6911946991,13.862797455343147,12.072268955588886,-0.33144044458042204,6.786547191576112
747154.6911946991,487.8856553261303,92.89511902278923,-0.034138372798860735,478.95995445268795
747154.6911946991,72.75691141486044,18.916312252267296,0.4877934502873595,70.2512131351084
747154.6911946991,656.8759022324563,10.33825109795794,0.23507412684532508,656.7942949189601
747154.6911946991,20.289034945242864,5.258645812802209,-0.49730208113720153,19.582488959907014
747154.6911946991,26.17255508155398,4.413528678965826,-0.26367602594270556,25.79115117729851
747154.6911946991,43.92209327797636,31.848877049426566,-0.5527719268894237,-30.236126600585088
747154.6911946991,81.3403473942433,37.669127139102144,-0.1723534256325759,-72.09014404959261
747154.6911946991,107.16654639696864,30.121313923345514,-0.4933004977633481,102.8438688926268
747154.6911946991,25.980175184427953,16.151005839010818,-0.5706064736083758,-20.335154812641107
747154.6911946991,30.071110321555864,14.433511675432907,-0.05704415175057079,26.375590280618873
747154.6911946991,26.14892152323885,26.107128565793666,0.023482994324920094,1.3831064408070033
747154.6911946991,135.22147998674527,38.71967218551288,0.26712312151436574,-129.5580714617585
747154.6911946991,26.17845043087903,10.2034138778319,-0.4432764626434692,-24.098438085845395
747154.6911946991,7.906172940271019,7.0588267083173575,0.39801905192131115,3.5002452625104494
747154.6911946991,8.632934160632074,7.08030143252465,0.022753054172894385,-4.911819026076125
747154.6911946991,5.582002378666333,3.3109222579344997,0.10484728564409473,-4.462639510877337
747154.6911946991,80.122870543657,23.56496070898782,0.0936571243533383,-76.57733241163821
747154.6911946991,241.43499247106092,23.24681721679205,0.3608477683885247,-240.3123810120451
747154.6911946991,18.350793944071473,18.01160522136614,0.3871822980459024,-3.451580159217824
747154.6911946991,12.122097190489221,6.792788403239931,0.3289149044799988,10.021211553005287
747154.6911946991,34.29222858061674,9.75196075387554,0.4765225153550661,32.86881088163213
747154.6911946991,241.91994041135382,8.004308141559346,0.23124194049602476,-241.7868167352656
747154.6911946991,35.21283582653163,33.761134655970636,-0.23052665854187782,9.990297850784545
747154.6911946991,20.3933994738141,9.579219243066822,-0.5567598925650761,17.987465613972702
747154.6911946991,159.11614506916794,16.223959464137522,0.0008066339724832193,-158.28600810029883
747154.6911946991,38.70592727568265,5.276021662138238,0.17131007861506245,-38.34074405313552
747154.6911946991,86.39133684134157,7.959898324413221,0.04673902131641666,-86.02226755534305
747154.6911946991,53.155308207348114,20.50945052879406,-0.01287666925069944,-49.03650338081324
747154.6911946991,122.23683600522801,31.272771532248754,-0.5185119423817813,118.1664867152544
747154.6911946991,34.6920973728505,22.58689427490339,-0.3088099034224292,26.325046316867606
747154.6911946991,69.62087934197216,20.60376245332752,0.4858401200908965,-66.49846142952488
747154.6911946991,13.550995684656936,10.565350579780851,-0.1025004430851242,-8.468880966874124
747154.6911946991,19.866583270927094,19.547419397396144,0.16789592376801632,-3.5044167448754435
747154.6911946991,328.8061852618857,7.177415123485085,-0.3299379458502339,-328.7272622092219
747154.6911946991,176.9491358045609,5.784478633743004,-0.40945273436812607,176.85332458671797
747154.6911946991,69.64354836847622,14.947324139831952,0.5039673064623972,68.01674019949134
747154.6911946991,27.679071387123628,17.010750742565648,-0.28133000565870614,21.826951355049665
747154.6911946991,90.97229469760892,20.61922648698063,0.5850738324529046,88.60131596222361
747154.6911946991,256.05289913506004,5.96695733206155,0.33821080814712307,255.98261227887306
747154.6911946991,47.08185200891573,5.341257129199524,0.42546651191015644,46.77307279959764
747154.6911946991,36.936148134233605,4.710282009697134,-0.43695745706340955,-36.6282807481308
747154.6911946991,82.24822107130034,14.065205025876274,0.2151519809206627,-81.03470359419269
747154.6911946991,1466.1255470742744,26.152082719105437,-0.46193199171049487,1465.8921190088063
747154.6911946991,35.66903712293693,9.07683596243895,-0.3602873821088473,34.48899898794862
747154.6911946991,6.931603963293844,3.9118403246090176,-0.22988105412240478,5.693978703829976
747154.6911946991,44.64915063611531,13.176985810669622,0.7024709362528277,-42.651492729512384
747154.6911946991,143.29428323625788,14.004071183598294,0.4140109310910849,-142.6067873329546
747154.6911946991,242.6594803409335,33.237735247447915,0.3844569917348835,-240.37150028190518
747154.6911946991,492.98153421019515,13.421375098439267,-0.11336688529811872,-492.79851512626755
747154.6911946991,13.782379777107248,6.49113680577486,-0.04462718459965153,12.146882056870586
747154.6911946991,11.305028818411541,6.745368330230133,-0.437416796323426,9.046654034555425
747154.6911946991,102.95751179544165,9.749042520571885,0.14628033107283,-102.49348080295317
747154.6911946991,5.656501902374188,2.864902061542964,-0.0522333049001923,4.849249594647494
747154.6911946991,63.17024465230587,8.160384583662667,0.2469826319881282,62.63829924621511
747154.6911946991,39.4221791433859,13.143222519479329,0.5510358201322705,37.15898101053893
747154.6911946991,331.2617809555282,15.921913733196433,0.15223643257077793,330.8784771014422
747154.6911946991,227.53543998538532,11.83000970173256,0.5112920419406438,227.22652904150004
747154.6911946991,70.23440592216497,17.599689352409438,-0.11837682689773141,-67.99145752861149
747154.6911946991,30.856466089290592,12.976270227316334,0.4887549806259382,27.986222129399984
747154.6911946991,22.608800633614667,20.678433275935138,0.1595042225427095,9.124934068048075
747154.6911946991,889.7790407911275,7.796868184366961,0.17424025973993737,-889.7447103062913
747154.6911946991,339.66890469368974,13.398683907840352,-0.2880004218401013,-339.40401697844675
747154.6911946991,47.25064362178848,15.817153833951478,0.038309412818137066,44.521557695741784
747154.6911946991,299.0677093330393,15.369554319024896,-0.10226748420695274,298.67204540617377
747154.6911946991,13.87792637288125,11.449043154926859,-0.5587955864885336,7.805997613390381
747154.6911946991,174.1000231909805,10.401241014785239,-0.11846177816551395,-173.78822695240152
747154.6911946991,321.8830051431728,15.240448362609591,0.16222460865896365,321.5215405177121
747154.6911946991,28.925775025608193,25.66029902343974,-0.07372937960223638,-13.340677600419696
747154.6911946991,16.271402049212444,6.4688428971585505,0.22519485039528098,-14.919500108862616
747154.6911946991,140.91389522062036,20.355459498157252,0.2408321080851175,-139.43476157243776
747154.6911946991,5.531704103723118,5.143241440415385,0.7805455095687734,1.8075304933065663
747154.6911946991,25.408658460915603,3.760155863910919,-0.17285119739163055,25.12291533891151
747154.6911946991,9.198388873124816,7.59273136959265,0.0832851083403654,-5.165602752937825
747154.6911946991,336.34624568735427,4.586100810847773,0.23027957329045942,336.31449751482455
747154.6911946991,313.0960584713373,8.939246696383137,0.050817070471745183,-312.96798353252314
747154.6911946991,24.181964920292963,3.9770221691934813,0.05576517102201268,-23.846953942122752
747154.6911946991,18.935043419182154,8.8718996425508,0.37821476096276974,-16.715616040499683
747154.6911946991,49.745393846870236,11.436001680484035,-0.18783386152354278,-48.40987908459042
747154.6911946991,25.975107330796046,25.74205917349903,-0.33861071943656956,3.4157770909606415
747154.6911946991,5.441283293229438,2.5268164679243648,-0.030172918950758586,4.790767371681282
747154.6911946991,85.45083112887303,6.980378709124257,0.043757072913255264,-85.16364564185207
747154.6911946991,140.2681662128428,26.65776949214415,-0.053270689743541544,-137.7107422848741
747154.6911946991,311.40354639058467,18.760126487596654,-0.5731829091249516,-310.8369788492918
747154.6911946991,7.735989698929632,7.5141832587634285,0.3756195252687186,-1.7236869054157544
747154.6911946991,124.66817827843926,18.360086779829505,-0.2457046560613903,-123.30746578339787
747154.6911946991,40.92838970642508,11.491393425705521,-0.005728277700130586,-39.27862686351814
747154.6911946991,22.09036402331171,3.2462423426868936,0.3155277622156014,-21.84207260234802
747154.6911946991,15.491426010020737,7.76104421210502,-0.48157833062657945,-13.388358931294345
747154.6911946991,16.97016104406168,16.817106168382434,-0.26212577693914324,-2.1982256617113234
747154.6911946991,26.140824733474943,5.799286789394854,0.03273299824929652,-25.484103261277042
747154.6911946991,23.518201226531882,23.425217123444657,-0.23215197539229326,2.010148529696822
747154.6911946991,220.28508380625487,4.685229018062939,-0.03050896066438318,220.23463725259097
747154.6911946991,48.518652222238494,21.8543512106375,0.23789279848693615,43.314200369406144
747154.6911946991,113.87725487649358,19.911689606514507,0.2311259317697455,-112.12149649386316
747154.6911946991,30.77704924355747,16.27943258361329,-0.15940745101923834,26.113426128344614
747154.6911946991,509.22538302081335,16.053099328296444,-0.10004428884118025,508.9720113186875
747154.6911946991,13.98602037320368,13.736033876296325,0.2829935748534007,2.5650835981503413
747154.6911946991,584.5646553947494,16.075982533668263,-0.7449896383121839,-584.3428563033847
747154.6911946991,8.512512128898145,5.094122667060196,-0.13915875655847287,-6.798750755694368
747154.6911946991,80.95499661931677,28.491888775886768,0.053177089882232575,-75.77367962434712
747154.6911946991,185.54249123550704,8.60293317038196,0.12176557206597394,-185.34217104558167
747154.6911946991,27.546817918000272,4.254677600567183,-0.19993574607994394,27.210559009695714
747154.6911946991,22.709487224930317,5.803666400982424,-0.35515344119257714,-21.946337561392568
747154.6911946991,958.2576317915103,12.825826667598173,-0.3252921647012026,-958.1715978059328
747154.6911946991,154.05240795355073,17.22364649053177,-0.052825962530656724,153.08565317257558
747154.6911946991,18.06291875356464,17.666304172721606,-0.3329657538737612,3.7134168337938442
747154.6911946991,82.04681579155499,20.788723387766836,-0.4723790623533864,79.36633681518711
747154.6911946991,9.67757831520762,6.872925513167365,0.3558525683970015,-6.7839063884310145
747154.6911946991,322.8047797134518,17.63472935948172,-0.5427920179442598,-322.3218532819226
747154.6911946991,33.027836582915086,16.759231993863857,-0.6857939661623856,28.446887684939625
747154.6911946991,167.63323231420964,16.551281042629537,-0.5001492109136358,-166.81257483392696
747154.6911946991,10.243374317383498,3.8670882495173977,-0.04565914829206415,-9.471001062118695
747154.6911946991,147.31746648912713,13.651129801570079,-0.47099220363939714,-146.68193601892457
747154.6911946991,8.206970392312748,3.9150792827587604,-0.025173382800927416,7.194128406611158
747154.6911946991,171.58886061177697,14.314614227905139,-0.33486336432108693,170.98960895937887
747154.6911946991,40.858636461388215,19.62007477486579,0.6480369674775586,-35.83002215183993
747154.6911946991,23.930772296464323,5.901918054940902,0.28475386988177936,23.18399752440407
747154.6911946991,132.82434404006517,9.640793350239054,0.3354456810481579,-132.47255772214356
