2.1083486938922987e9,3.992707916806611,3.141065444934974,0.04311032193388296,-1.796372952259191
2.1083486938922987e9,3.102231137617714,1.1486632305825712,-0.012230080715578538,2.336161626030656
2.1083486938922987e9,3.2060717642235117,0.9720799659473878,-0.1333571899701403,-2.5435334597638484
2.1083486938922987e9,2.2553692851803344,0.7019885732141273,-0.1139541206169958,-1.316930908554451
2.1083486938922987e9,7.033203819898881,1.1478834457300129,-0.03344051411733511,6.730571387569912
2.1083486938922987e9,14.016038330874403,2.501304344159029,-0.09859186835851007,-13.687091605517416
2.1083486938922987e9,8.807231946390965,8.05881944252953,-0.0043255623963666,3.126681138787194
2.1083486938922987e9,10.783137739737933,9.788153085763936,0.06425338712839147,4.197306289747382
2.1083486938922987e9,11.665354309987704,2.727247590634877,0.06751480865540269,11.215678464160659
2.1083486938922987e9,4.7608386299289975,1.275130930196943,-0.03753129303771957,4.265161998918941
2.1083486938922987e9,13.138179979362375,1.416465288177451,0.09054655650985972,-12.951856642293063
2.1083486938922987e9,2.0121700366463067,0.8480190788938885,0.11048495418357321,0.6862032330208117
2.1083486938922987e9,6.776902560260511,0.9973683324807441,-0.1318207537605737,-6.485960061040157
2.1083486938922987e9,3.113909344615266,1.3705841501414424,0.11577205929134704,2.2266380999279556
2.1083486938922987e9,2.295703568351795,1.0438926369664567,-0.09148147138024362,-1.1513314381725568
2.1083486938922987e9,2.5386008884404876,1.6597650517944054,0.09396412307376287,0.9133647087049765
2.1083486938922987e9,3.534460766405586,2.2505845512678317,-0.040871179638355466,2.1398601677282336
2.1083486938922987e9,8.330967691333358,2.407783685109686,0.12884130720903728,-7.793868758275094
2.1083486938922987e9,2.0230464889881365,0.9420983128956417,-0.0006061337776490015,0.5987966282038131
2.1083486938922987e9,2.7372079937402685,0.499627918324046,0.0035954320196973782,2.096677495704906
2.1083486938922987e9,2.830209734095752,0.9637933674921153,-0.07515667974234827,-2.0564364471431302
2.1083486938922987e9,5.430520302134739,2.3171009335589092,-0.022769439946597754,4.612425118319269
2.1083486938922987e9,12.819145533368285,6.011967281533573,-0.035585376307906785,-11.195484143007793
2.1083486938922987e9,7.845615240716781,2.744416431734321,-0.008815061673272956,-7.15368220940669
2.1083486938922987e9,17.67136615494542,2.1479226263980573,0.10504636762230855,17.458693116545327
2.1083486938922987e9,2.620792298239412,0.8619222132761295,-0.08330512671721788,-1.8088926249323996
2.1083486938922987e9,5.922986349025026,1.6483113848283717,-0.12202622775189341,-5.431697374948519
2.1083486938922987e9,31.433616506241815,5.132693351562865,0.04976186577766136,-30.965765278463806
2.1083486938922987e9,1.9861953768538574,1.0471238321147605,0.007064208435110869,0.0429389812655038
2.1083486938922987e9,3.7687828897026763,2.600449804750025,0.027582585351787384,2.143365201634225
2.1083486938922987e9,2.5584779597391987,1.76730416564732,-0.0934361165751716,-0.7530637772302103
2.1083486938922987e9,4.610845975053102,2.173186571146011,0.05192447731580211,3.699710054208235
2.1083486938922987e9,4.377028144844942,1.5845960723948547,-0.06496910150618536,-3.71437741591576
2.1083486938922987e9,1.7923652110090866,0.17078461943338905,-0.038294651872855384,0.5790760631718227
2.1083486938922987e9,4.396393045309679,1.4599384176915045,0.06630005234137844,-3.787591032880303
2.1083486938922987e9,2.939304090085038,2.078762400826654,0.13992594587309665,1.2050170324404366
2.1083486938922987e9,2.256705171889198,1.078717590706437,0.10423128368337609,1.0351871018002843
2.1083486938922987e9,6.151800793735572,0.6226961479364725,-0.04858328255165081,5.88285067647541
2.1083486938922987e9,4.823947971394888,1.489480114552439,0.04748415396954437,4.266504210486554
2.1083486938922987e9,4.819373806177108,4.454455858289979,0.04585221494203581,-0.7317611416965326
2.1083486938922987e9,9.03547826291104,5.010291611358752,0.02723994212806325,-7.327311464523592
2.1083486938922987e9,2.346986932337896,1.621347242945337,-0.11051956113551553,0.1440698055277913
2.1083486938922987e9,1.9829111746441728,0.9562232655393899,0.06191670607751371,0.408815384224259
2.1083486938922987e9,17.50133276768839,4.0906126401331955,-0.052429180499033036,-16.93263647394221
2.1083486938922987e9,1.8136496153038364,0.5454600272151999,0.05794330665851849,0.3766042523865382
2.1083486938922987e9,11.006215098603066,1.2611422133153607,-0.14041617090690814,-10.80185004142161
2.1083486938922987e9,16.13615631923598,2.3786328393929113,0.016976918102388605,-15.87043629716375
2.1083486938922987e9,2.2539080711426305,0.8995191520170781,0.04374708559070318,-1.1926621418988232
2.1083486938922987e9,10.644819285010575,1.1533995135650723,-0.032331581848670375,-10.446731151195385
2.1083486938922987e9,7.523537322237216,0.7556461391815538,0.12138324551583757,7.291863188722372
2.1083486938922987e9,2.171033142331944,0.47223289962664267,-0.08216080177086828,1.279461019400863
2.1083486938922987e9,9.917991651119776,1.7199518817849055,0.11232821110221104,-9.620244081774468
2.1083486938922987e9,13.98691511718367,2.709621291343507,0.10305276686714232,-13.617434302538054
2.1083486938922987e9,4.525704590539592,2.0974550330661486,0.0020971099479991516,-3.6381409993465725
2.1083486938922987e9,3.7252694888853135,0.7945584104924879,-0.13242852023388077,-3.2221362925959784
2.1083486938922987e9,2.360315910984196,1.4933376695537632,0.017910224723059465,-0.7029245564690866
2.1083486938922987e9,2.4717344253001503,1.7587784639927462,-0.03914189372324432,0.40991120973320616
2.1083486938922987e9,5.27863738137002,1.7745758813069399,0.002719502010241529,4.676352804664063
2.1083486938922987e9,27.78322156110948,6.625309983960304,0.09282000399229114,26.92874750672399
2.1083486938922987e9,5.684929450535463,0.9402984488814689,-0.12206712530409032,5.345348557897467
2.1083486938922987e9,4.368346953459007,1.02822495341276,-0.12229597723036247,-3.894052150244933
2.1083486938922987e9,3.032583720312065,2.4425743855958713,0.12267785868693346,0.6072350767377567
2.1083486938922987e9,5.5063192536728485,2.951484254823615,-0.11146311343050247,-4.330041373375201
2.1083486938922987e9,11.264069030014088,5.162840820200084,0.1322394222372924,-9.86712868150125
2.1083486938922987e9,2.2841656738651457,1.3140094174134431,0.06777524834595137,-0.7997427687852159
2.1083486938922987e9,28.851829566893056,4.2525625637074125,-0.030394515463830957,-28.486773195223922
2.1083486938922987e9,11.692238822434058,2.1745687981304758,0.0965286037490431,-11.363264115367109
2.1083486938922987e9,4.893101472124203,1.6882821061865514,0.06089819498907993,4.271045171873205
2.1083486938922987e9,11.206230302152047,3.1570601864414343,0.0005277908781578121,-10.619131706000914
2.1083486938922987e9,2.9455040987831858,2.2820521089936285,0.13465314703895848,-0.7768468328305032
2.1083486938922987e9,2.3456343598206018,1.406549100074881,0.13081275116049806,0.8123411272878946
2.1083486938922987e9,6.98211811689611,0.8213823113995259,0.03215540053570509,6.725151331451601
2.1083486938922987e9,25.524673036394102,4.6769979916951945,0.11278732273850292,25.035480668927306
2.1083486938922987e9,4.053720730484221,1.614532388158389,-0.06515814967552859,-3.3128660171784716
2.1083486938922987e9,9.241128665187262,1.1973140497798633,-0.11105024001561992,9.005884510742847
2.1083486938922987e9,6.113830954500013,1.9481915874282487,0.08692312983756821,5.543402633065326
2.1083486938922987e9,5.919159650570983,1.4158513575250418,0.08360049072986311,-5.493470375290271
2.1083486938922987e9,6.96021664971551,3.05847908259749,-0.04447794457325464,-6.020110723951608
2.1083486938922987e9,36.86992740270878,4.836594793967205,0.021141994183809767,36.512351888093534
2.1083486938922987e9,11.149901193589344,1.191508663431104,-0.08478642064098811,-10.956587283390231
2.1083486938922987e9,12.105167975772659,1.4374466027202846,0.06613299371140342,11.900330050760887
2.1083486938922987e9,6.638716922274721,3.9345375035195005,0.05098683125432241,5.073733068898473
2.1083486938922987e9,3.784424330744414,1.4009945687956469,-0.03053657963796126,-3.0840783314532425
2.1083486938922987e9,2.5364641406640382,0.821220304482886,0.13925818905655296,-1.7009540290849379
2.1083486938922987e9,2.077611596584759,1.125566967929265,-0.08383704935811612,0.4426400343675617
2.1083486938922987e9,10.453184737097748,2.597446536622063,-0.04136928283277029,9.98368775170885
2.1083486938922987e9,17.170147012919298,1.9984420431243044,-0.06279404083941369,-16.969667782778476
2.1083486938922987e9,10.703994403107231,1.8477249378698963,0.02158381166811752,-10.40741720018461
2.1083486938922987e9,6.4879897563159625,3.1574710121196867,0.12116564952813222,-5.409537565722154
2.1083486938922987e9,15.222882670031701,3.144522614527018,0.06978874931365489,-14.798535527093511
2.1083486938922987e9,12.521023207217889,7.458490775446544,0.1137013843191504,9.91400017184646
2.1083486938922987e9,1.8758750171224488,0.801676639899529,-0.10093259240133165,0.13937058726537035
2.1083486938922987e9,3.6052747953733446,1.6044361174826294,0.11870554020224945,-2.750107269489114
2.1083486938922987e9,47.0689834147404,5.182165148217508,-0.13181123749604093,-46.75222326023946
2.1083486938922987e9,13.672305827333998,2.4710416899981253,-0.07206652657806274,-13.340693232440712
2.1083486938922987e9,1.8681014789662136,0.7388444735129854,0.02642746485966862,0.3108109918844003
2.1083486938922987e9,1.7730554957617113,0.5249857881108236,0.1392998596800319,0.04583848083857012
2.1083486938922987e9,7.802898911457777,1.2393876964626018,0.020376128118733104,7.516789492701587
2.1083486938922987e9,5.457956103807218,1.3956510962720752,0.004401612067550618,4.999481310923388
2.1083486938922987e9,2.5501995963613244,0.7652288666073368,-0.05349860962949572,1.7517050452801755
2.1083486938922987e9,3.7428945698450367,1.1077944291821509,0.12176428963719291,-3.149700719960169
2.1083486938922987e9,10.797855751481375,1.3458590369229972,-0.008642936359860694,10.5799653820834
2.1083486938922987e9,4.05428806473253,0.9353381013716253,0.008339855870240555,-3.5659100800019106
2.1083486938922987e9,21.027244984945618,2.2474416307047047,0.019350669961427945,-20.838595279648004
2.1083486938922987e9,3.3220679752482614,2.1110060481928965,0.0658477031778162,1.9310212532619353
2.1083486938922987e9,2.0894006463123866,0.6873799636110683,0.10918237345917979,-1.017139596939616
2.1083486938922987e9,10.547989999157107,2.5494099788320197,-0.024489378567794113,-10.095216290718463
2.1083486938922987e9,3.153008336136242,1.3928646255832273,0.13646034680078983,2.266309374334081
2.1083486938922987e9,4.628712944309582,4.253065782437477,0.1353115780838915,0.6866554098053949
2.1083486938922987e9,2.822282132667322,0.4465295240635686,0.11181759053527955,-2.215124048639185
2.1083486938922987e9,4.425391266761371,1.544181572855177,-0.008966934354274522,-3.7885222227104087
2.1083486938922987e9,35.81426984561792,6.234653944553819,-0.09838769000583424,-35.226903419584765
2.1083486938922987e9,2.3539275333394962,1.0467148046418233,-0.11056082738950525,1.2595749907426486
2.1083486938922987e9,4.06336794309831,1.0350606347876161,-0.1019335430587436,-3.547197200609453
2.1083486938922987e9,6.696835847959118,4.098424632733516,-0.005287715125020111,-5.020347383227799
2.1083486938922987e9,7.678257348593164,1.345326328403769,-0.0013595396875535563,-7.368793730108098
2.1083486938922987e9,5.080897088129983,1.8138903365253174,0.11551163102379039,-4.434564695009651
2.1083486938922987e9,3.0980637721033175,1.801549507958977,-0.03391903310667298,-1.8720731581551269
2.1083486938922987e9,5.81063029716555,2.5021450079956673,-0.07990234586851726,4.964846455664593
2.1083486938922987e9,5.261994857003315,2.000334073024757,-0.006482724869455939,-4.565150747741392
2.1083486938922987e9,5.664899399704445,2.0624333311656606,0.12178418680003858,4.997600672224038
2.1083486938922987e9,4.980486499249301,3.9764512812960553,-0.06668883235448,-2.4783106101178505
2.1083486938922987e9,4.847452433491171,1.3892964298852541,-0.06482705849142742,4.3262960926472545
2.1083486938922987e9,4.052557593186816,1.4743211710522424,-0.0058736213665960164,3.376826251845852
2.1083486938922987e9,5.391937563466402,1.1047912468491037,-0.008777569638520895,5.000573951795619
2.1083486938922987e9,2.1339425153006966,1.1645912226045525,0.06580165805426001,-0.5886407975477125
2.1083486938922987e9,8.03090231026851,0.796767804374859,0.019299945167996716,7.811118383368942
2.1083486938922987e9,7.803582004037612,1.4975590416707067,0.014258977010261548,7.470367835382981
2.1083486938922987e9,2.7127628365317817,0.3235866910596151,-0.024530421978222448,2.099324182429817
2.1083486938922987e9,7.232851785439135,6.6666844124986335,0.07965042062218616,2.239756595854236
2.1083486938922987e9,46.428790248613275,6.211268832061733,0.006062350187597823,-45.980496480544836
2.1083486938922987e9,8.241998147015218,1.6743558164535177,-0.09105598078054099,-7.8912714290901596
2.1083486938922987e9,6.144938121516639,1.2209213532166876,-0.07014503145020949,5.780837754598446
2.1083486938922987e9,53.688260518707935,5.540155448500649,-0.002266180544614856,-53.37498833629313
2.1083486938922987e9,13.143495221621324,6.421541097681272,0.027177155757581842,11.343188611571167
2.1083486938922987e9,5.911884215323022,2.0320565044113117,0.045705073126172634,-5.288896131373326
2.1083486938922987e9,4.73235063993966,1.1100568351788642,-0.0016755355892350751,4.279755074591357
2.1083486938922987e9,2.3139963290812164,1.4678294531436868,-0.05242001895015948,-0.5921973936100305
2.1083486938922987e9,3.064985740833448,1.547194348747014,-0.031188746893675873,-2.0378283550595877
2.1083486938922987e9,2.4398087362680703,1.3932712530994333,0.12924797347772082,1.071516098856491
2.1083486938922987e9,4.2342768744250625,1.5176686324092148,0.022686249951438794,3.5747248578674076
2.1083486938922987e9,10.769016184034061,1.5214720026408497,-0.13520836530523192,-10.52577508400303
2.1083486938922987e9,3.74574785089,2.602965685375717,-0.12403189860794456,-2.0959968022951
2.1083486938922987e9,3.8022566495028944,2.0517658721510754,0.045438279940904214,-2.7200620767146337
2.1083486938922987e9,6.63296052872932,6.31290341881219,0.12836624030818833,1.1315157147294304
2.1083486938922987e9,15.88467145035547,3.2797596506486784,-0.10732759731566946,-15.450172633678548
2.1083486938922987e9,3.8342055400214337,2.8675927591442836,0.07117125399859951,1.9043026144335862
2.1083486938922987e9,16.591457566887744,2.056609522256313,0.13588197842907326,-16.376255599453724
2.1083486938922987e9,2.9849666735754967,2.3381631493723725,-0.0745833916314159,-0.768665304840922
2.1083486938922987e9,5.596918403993222,5.113860072168964,-0.04999640574711988,-1.5247363859193632
2.1083486938922987e9,12.303388361647702,3.091437858726692,-0.08693382728960103,11.788223341824338
2.1083486938922987e9,11.94037134198035,1.3072656046522804,0.049268920670017695,-11.74795671172799
2.1083486938922987e9,13.313199627774056,2.1079439828283895,-0.0149188119866239,13.036526524621879
2.1083486938922987e9,3.5602716605448705,2.0575997650620286,0.05778296542129932,-2.3647132038585013
2.1083486938922987e9,18.069968338402486,2.8772166613163273,-0.13570263486833808,17.758951397351755
2.1083486938922987e9,3.37648956137848,0.8683425146475046,0.08168959460747906,-2.7916625421756023
2.1083486938922987e9,35.0576764610688,4.699106286250746,0.05603320434960928,34.70027851679878
2.1083486938922987e9,27.093754451376522,3.42047067470743,-0.01669776392866285,-26.823963572215263
2.1083486938922987e9,2.266183305579291,0.951940023234002,-0.08071213530670797,1.1731463769563293
2.1083486938922987e9,7.207915931281639,2.382522411938324,0.1136672608186832,-6.58924189013829
2.1083486938922987e9,2.188455188500892,0.8794891211070204,-0.0915521244544933,1.0774242944814005
2.1083486938922987e9,3.632038705821704,1.9655147794092716,-0.06440799203353385,2.545132280839826
2.1083486938922987e9,8.652956759082256,1.0369652532482294,0.12990480764076284,8.422284629656904
2.1083486938922987e9,3.654280071716957,2.9442572152652797,-0.04206316416222554,1.3552611877518985
2.1083486938922987e9,7.215834298029096,2.5414031135053365,-0.028634001578762776,6.539274029212419
2.1083486938922987e9,14.095227029707617,1.2764653716477885,-0.050764150339438395,13.93545385263518
2.1083486938922987e9,2.4860723241046734,1.7394288699090947,0.06920516443945579,-0.5509476892781087
2.1083486938922987e9,3.4684231574315114,1.638874427711884,-0.04485815279203584,2.5486128500082756
2.1083486938922987e9,2.642552772735593,0.931576722309727,-0.08169945356691419,-1.8060911024447528
2.1083486938922987e9,2.670501121350549,1.5332577536110972,-0.056637444616980885,1.389560723355857
2.1083486938922987e9,7.672833221684509,2.276559941206964,-0.08392529975994287,7.129936250054233
2.1083486938922987e9,4.39601204232511,0.4987267160917272,0.08145146722996827,-4.027772225599389
2.1083486938922987e9,5.2417545604367985,4.462493680753996,0.10342645103071597,-2.169062906929584
2.1083486938922987e9,13.621054178294578,1.932724478414902,0.042137644944025957,-13.377193552511327
2.1083486938922987e9,13.663432308392832,3.5627879710961334,-0.09069264473909791,-13.082090393631136
2.1083486938922987e9,5.331554243307625,3.246458924746496,-0.10886877361177558,3.87653357953954
2.1083486938922987e9,3.1960076318096418,1.9676753476927558,-0.0922182042183738,-1.8675128420919644
2.1083486938922987e9,2.0429313633775616,0.6728841152016756,-0.035331405881630445,-0.9343110395576996
2.1083486938922987e9,22.849399640581506,4.067627940847269,-0.11089069277328256,22.420761807485516
2.1083486938922987e9,1.924633295305514,0.552822585930354,-0.06138547054091007,-0.7404203115733046
2.1083486938922987e9,2.057644880449854,0.9115001517031497,0.006485122933779352,0.7459341623542681
2.1083486938922987e9,9.651079584832189,2.2574341217378104,0.02143403811444809,9.230398627615635
2.1083486938922987e9,23.730550920188424,3.316143927022838,-0.10510818899352081,23.436821000371015
2.1083486938922987e9,2.2665719394031183,0.32150850090147814,-0.010537855969666457,-1.4789386389668975
2.1083486938922987e9,4.612495094180661,0.9015386610674312,0.14048865447872042,-4.194757666219131
2.1083486938922987e9,4.522760691463947,2.7655900035309804,-0.022156771090571244,3.1559111498924994
2.1083486938922987e9,1.9353470874804712,0.5210591221610835,0.11987018775081645,0.7829985837921084
2.1083486938922987e9,11.730956536994945,2.695957186279568,0.0896525894002811,-11.291258053898416
2.1083486938922987e9,5.442409417220591,3.830528724592574,-0.11713482696531145,-3.4765700468902345
2.1083486938922987e9,6.096182342132768,2.1343611674882137,0.08447737401081341,-5.454740601754581
2.1083486938922987e9,3.8119824554255493,2.864681894073609,0.13825612482493294,-1.8598610254767505
2.1083486938922987e9,5.797983244361941,3.546881003114134,-0.11519029257200852,-4.263374948564466
2.1083486938922987e9,13.743102174522853,3.609800579546107,-0.005342906958160644,13.152777596862517
2.1083486938922987e9,18.3827031521082,4.999762067858586,-0.12205453451562913,-17.60865261846673
2.1083486938922987e9,4.328052071547608,1.464272476285282,-0.06128502705877329,3.706423464551685
2.1083486938922987e9,5.684036380370263,2.1005832608186426,-0.03447732416080563,-5.004799771795063
2.1083486938922987e9,7.964927971103052,4.460774813663162,0.03702396458300428,6.379152355649982
2.1083486938922987e9,4.1508728593893105,3.731614346830871,0.03234426680469052,0.6761239632239538
2.1083486938922987e9,4.782484011179847,4.1876089863979615,-0.05841241120509101,1.5767251467351941
2.1083486938922987e9,4.731259196095037,2.9382448000352994,0.12546582256392516,3.2998756502280107
2.1083486938922987e9,3.3996504545162676,1.5454546392836337,0.05736446914071558,-2.513820278458578
2.1083486938922987e9,3.2292280035718184,2.2979333788034806,0.13866331605024118,1.5104893492888993
2.1083486938922987e9,7.40350339779097,1.3110146031514984,0.030123979315349683,7.088412073320524
2.1083486938922987e9,35.58252444337186,3.9552451735972305,0.10823768708593935,35.32157635053801
2.1083486938922987e9,3.365620123557388,1.3446825209843651,0.018956700005077452,2.5830714820303555
2.1083486938922987e9,7.810699768866758,1.6373278357183974,-0.13362885058828017,7.447262696585061
2.1083486938922987e9,17.307823298706715,2.790528264901109,0.0020524342119696668,16.99785530687495
2.1083486938922987e9,2.3272673017427814,1.5372107108240953,0.07798133229548837,0.447733335817455
2.1083486938922987e9,11.668050596087019,3.557712756923441,0.07909215754085651,10.983315482429992
2.1083486938922987e9,1.907345007760578,0.8777753779410318,-0.0374532687997194,-0.1395081397836441
2.1083486938922987e9,4.818875416393996,1.742287860678698,0.10654010181596982,4.162695328733908
2.1083486938922987e9,13.228335719196151,2.260400939080474,-0.08187124105051075,-12.923859349983413
2.1083486938922987e9,3.611526063622578,0.5824879220799081,0.08785603342360235,-3.1383912359913473
2.1083486938922987e9,5.495672014330119,2.6045204442887946,-0.005106599300930571,4.535664005514137
2.1083486938922987e9,10.371012697689627,2.295058276593184,-0.12942334424527743,-9.971321446255004
2.1083486938922987e9,19.780866221359346,1.9679085241314909,-0.07017460852466553,-19.61016241483441
2.1083486938922987e9,15.850152078592776,2.2746822851819926,-0.03857134970434862,-15.595032656935356
2.1083486938922987e9,5.377562963153921,1.4493136501297166,-0.12886286178992884,4.894329130022189
2.1083486938922987e9,5.464240436614837,2.7630199197884666,-0.07055522425798458,-4.401369824977075
2.1083486938922987e9,2.9590735600105953,1.6166156488311327,-0.12188076152727895,-1.8114097165957805
2.1083486938922987e9,7.9684879063372,1.9069472601370974,-0.03751943662326963,7.5506512206744985
2.1083486938922987e9,10.35354185802165,3.87609283499016,-0.05608910623125795,-9.451030486481699
2.1083486938922987e9,2.5444538004944297,1.8767178116374599,0.012095183946325895,-0.32468293573663015
2.1083486938922987e9,3.224928760013042,2.4721101977858218,-0.12710907381881884,-1.1941816714451456
2.1083486938922987e9,2.056381249233042,1.0891291992169827,0.047387597963087884,-0.4400519845080926
2.1083486938922987e9,23.241581460835302,6.743970221017201,0.05501027069335698,22.177473666599056
2.1083486938922987e9,7.79242501184274,3.098721573737346,0.04370127440280863,-6.947754477251097
2.1083486938922987e9,5.599133032974773,1.3183326439264402,0.06580609616742733,-5.17313727079752
2.1083486938922987e9,8.585476217811209,1.1436571058680758,-0.1342947266296208,8.338933093693628
2.1083486938922987e9,44.18655161773487,5.68037563325065,-0.03387375484644619,43.78740594057329
2.1083486938922987e9,4.376755681281875,3.2376662663854665,0.010404495396764898,-2.413874290744715
2.1083486938922987e9,15.471187602008559,8.671957710065533,-0.09698440827121971,-12.700345633872752
2.1083486938922987e9,11.48201665045463,4.094596805382904,-0.009127935190534028,10.593596648323206
2.1083486938922987e9,2.1478845047605684,0.8942557071920344,-0.10127045500009674,-0.9781864724014033
2.1083486938922987e9,3.204861952831221,2.633392842839072,-0.05242497099732572,0.6978709037529991
2.1083486938922987e9,9.942977813981326,2.46251616409174,-0.005731692473373601,-9.484312257750329
2.1083486938922987e9,4.6545161703676134,1.3258477985118597,-0.04236254118295709,4.130162674084324
2.1083486938922987e9,3.971414788479821,2.5997534995042755,0.09850291568347146,-2.4813512938464295
2.1083486938922987e9,3.9927932171567093,3.612444336167567,0.04315919272877538,0.21016845873366025
2.1083486938922987e9,2.6143237876278427,1.2261887327808931,0.11595188742560202,-1.5719717306174494
2.1083486938922987e9,2.710419354821578,0.6087129081665975,0.11145623463305543,2.028992135540255
2.1083486938922987e9,2.262049515142699,1.0388106651146525,-0.02947693916702436,1.0909910288167883
2.1083486938922987e9,10.304215587435268,5.912809857536646,0.11923566979821267,-8.267690803356713
2.1083486938922987e9,4.952433223809283,0.8166977638738253,0.027695722839711993,4.583909079553159
2.1083486938922987e9,3.301694907540603,1.125767785114865,-0.05839276293449749,2.604576039514684
2.1083486938922987e9,14.966837672286026,2.4282034758457787,-0.13285682919034839,14.671257504225334
2.1083486938922987e9,3.345843590320841,1.7115329396423582,-0.11245194625688587,-2.325095436986035
2.1083486938922987e9,2.94805995603087,1.5707580945783215,-0.07442872165152244,-1.8361990039107237
2.1083486938922987e9,2.0308341352074755,0.5351653514328026,0.11572212319804472,0.9888799853633577
2.1083486938922987e9,2.4840121097298855,1.8205613110527807,0.03393829309547026,-0.09005981425843029
2.1083486938922987e9,2.170942999304466,1.2415061278107493,-0.08970548733572284,-0.5630265271541722
2.1083486938922987e9,4.4074208019158,0.9699015100434452,-0.12977041946948084,3.952366218875254
2.1083486938922987e9,2.5530875144522933,1.274559794646654,0.024725907851028992,1.4305704175969147
2.1083486938922987e9,6.480915921442014,1.128295038202239,0.09740959317427264,-6.1541142955446
2.1083486938922987e9,13.189976309069502,2.0357892622868485,0.13214059782430937,-12.921569791618934
2.1083486938922987e9,6.488233874308084,1.7644430871233734,-0.07656544906404944,-6.010943938844468
2.1083486938922987e9,10.074299757527278,2.6063285563291045,0.12741206842008393,-9.583095696574178
2.1083486938922987e9,14.756149231102315,3.1339379699656904,0.0863684772825367,14.320206120059888
2.1083486938922987e9,3.2696829033105117,0.8128433588064311,0.07505238968633189,-2.6791545317408825
2.1083486938922987e9,2.4792886749515395,1.7755754394980652,-0.004392959075414019,0.384154654019414
2.1083486938922987e9,9.58985361425811,1.102219941914451,-0.06283474790465755,9.375491733285312
2.1083486938922987e9,4.627773699963354,2.3002101074366217,-0.06657264812686417,-3.6433886515358607
2.1083486938922987e9,3.132126105053446,2.5171691317720395,-0.05883223243368676,0.7899380813317802
2.1083486938922987e9,20.792274751170748,2.739256652814196,-0.07497071765899936,20.541736333951405
2.1083486938922987e9,23.339497708979174,2.827164309892251,-0.1327463939130364,-23.10573659442864
2.1083486938922987e9,13.10929601334165,1.8454920746151469,0.05295300898125102,-12.868503675668272
2.1083486938922987e9,4.082600025412885,0.8938769339621062,-0.02644771976275932,-3.608503487105306
2.1083486938922987e9,2.1991766369645425,0.8920903081792059,-0.0013324158238042917,1.0926760229782093
2.1083486938922987e9,3.8749117006076146,3.29743234305029,-0.10569590866594111,1.133180881105461
2.1083486938922987e9,5.654341624165794,2.281761925965449,0.13449319260510292,-4.8888079529708675
2.1083486938922987e9,7.11835857822223,2.256333141876111,-0.014007184109516423,6.537062283909707
2.1083486938922987e9,6.499863862577662,1.9903162107293462,0.08105730462215653,-5.952620534740845
2.1083486938922987e9,5.38128815509733,1.012544778259666,0.1012979827715689,-5.007608601198413
2.1083486938922987e9,5.085735931231413,1.222637541521544,0.0776074122521534,4.638667308370361
2.1083486938922987e9,4.578580859762619,2.351162984871268,0.02249274541902078,3.5480021544891076
2.1083486938922987e9,36.21417313666744,4.024167151177754,-0.11737873342478561,35.950132501129225
2.1083486938922987e9,11.373984230292168,2.0511758943685807,-0.0018549142204454443,11.059547060548608
2.1083486938922987e9,13.765052604623992,6.246471894691345,-0.09954693135868668,-12.149145747304784
2.1083486938922987e9,10.848709578232112,1.1188512908918358,0.055146331194366426,-10.65800263125088
2.1083486938922987e9,1.7393308231048228,0.270541959866714,-0.03661700342035637,-0.322688486182094
2.1083486938922987e9,4.917817722511487,2.209735138610888,0.1063315668873425,4.055130734121856
2.1083486938922987e9,2.364480096235605,0.4456348346979009,-0.09595529734265205,-1.5925948023304592
2.1083486938922987e9,2.1379735992414806,1.2756118532359864,0.06441560238287174,-0.3049361326689198
2.1083486938922987e9,100.02423037035538,10.971946232417734,0.045985273553394254,99.40630931844001
2.1083486938922987e9,15.1224707432834,5.186652883861763,0.026090610623722546,-14.104625568505112
2.1083486938922987e9,7.383499416477661,2.001054884099377,0.05632797867317371,-6.9037714364444716
2.1083486938922987e9,2.8643345451151405,2.304677324504344,0.022677138448642657,-0.21389358930841956
2.1083486938922987e9,3.1501810505333614,2.141694559963729,-0.12651073006181573,-1.572949459467935
2.1083486938922987e9,15.463272225976803,2.3560156425764633,-0.11882241057742014,15.188852799512054
2.1083486938922987e9,2.607572751772927,1.4408129749739782,0.020177350335637032,-1.3698453946955844
2.1083486938922987e9,5.980846388008343,0.749215618681326,0.09508654311581931,5.688017926034929
2.1083486938922987e9,16.740338114403116,2.5529336911879255,-0.13474099561611774,16.45772415982646
2.1083486938922987e9,10.281716885159808,1.7001124201087534,0.0766449100110597,9.998541660024308
2.1083486938922987e9,2.0942245341561976,1.2255625765270393,-0.09483698347420584,0.1678351004517893
2.1083486938922987e9,6.705336583374546,2.1942830197791365,0.1331748910059633,6.1059245882794455
2.1083486938922987e9,3.507634730215079,0.6831038076816454,-0.07472153956559023,-2.9974451094168177
2.1083486938922987e9,13.84208239691907,2.00607888060736,-0.1097635122778574,-13.591182232725389
2.1083486938922987e9,6.956995362346663,1.0698152522990274,-0.09904985899441653,6.663246868231323
2.1083486938922987e9,10.184773606046635,0.892866086319265,-0.06602250170714793,10.004070895964972
2.1083486938922987e9,3.009082964789587,0.6839867439703092,-0.0662343382919335,-2.3949416150275598
2.1083486938922987e9,21.637228512574584,2.2977005349430226,0.09353809562683933,21.448423496510408
2.1083486938922987e9,14.788035247142453,1.8159863183274407,-0.04692110604088206,-14.578730002166957
2.1083486938922987e9,2.7574202080416668,1.9391602999117437,0.009637044112648452,-0.9981585877221695
2.1083486938922987e9,2.723341500611748,1.2376861731263993,0.033860440922174995,-1.742689083068615
2.1083486938922987e9,3.2689110129573904,1.1787237077920603,-0.14071677130412297,-2.5357401928227574
2.1083486938922987e9,7.505397031496289,1.5979768565443004,0.11630866222297165,-7.135637095966554
2.1083486938922987e9,49.70454402034904,5.258942270027437,0.10512804706543971,-49.39663511281871
2.1083486938922987e9,27.160331469473846,9.284987523586581,0.011861537684151926,-25.46813423528226
2.1083486938922987e9,3.632821779680376,2.6919540758725833,0.13886340481866058,1.7563838404560803
2.1083486938922987e9,4.601965679366152,0.6153123476267729,-0.13373827129548546,4.234971405760953
2.1083486938922987e9,4.138682011430482,1.4211931255218004,-0.05901263176988195,3.5012578175420646
2.1083486938922987e9,2.3554533325534632,1.1047858829350798,-0.13841638666045636,-1.2090654914058352
2.1083486938922987e9,6.19665885201172,1.4652450097713285,0.03195635187143799,-5.779619942957366
2.1083486938922987e9,3.327889718140028,1.9051236088103407,-0.031213738232173993,2.144241035355203
2.1083486938922987e9,3.7940107515911574,1.0804124663885717,-0.08278427751322404,-3.220832680062421
2.1083486938922987e9,2.781380628743038,1.1412729532169112,0.13497465583757537,-1.8891124885469617
2.1083486938922987e9,7.2393305901051885,2.429562517506073,-0.024729164472805973,6.607413392446908
2.1083486938922987e9,4.617827419445787,1.4152141162849379,-0.12709713085742733,-4.056936689681141
2.1083486938922987e9,1.8360244480064496,0.7176473591664395,0.05764054261781312,0.07768856611848807
2.1083486938922987e9,6.465072350152948,3.8118050135443653,-0.11178471977409893,-4.940465272801261
2.1083486938922987e9,4.139867170098686,3.5739581385796284,0.09460600239228116,1.228724142333295
2.1083486938922987e9,4.752558720047589,2.286996529146339,-0.04708000898252212,-3.8088888983307436
2.1083486938922987e9,2.308893652202058,0.7241109696509411,0.02122557418393628,-1.3998544851914758
2.1083486938922987e9,12.998653113961014,3.077441605055913,0.11520465183310842,12.51536870158667
2.1083486938922987e9,14.282294717598816,1.4180759310328561,0.1320567056268904,-14.110597222817159
2.1083486938922987e9,12.839193072584154,3.4876476590169836,0.09278684658150742,12.24034203225742
2.1083486938922987e9,7.561488988784293,2.9111944729441652,0.010684934909277176,6.771583138695961
2.1083486938922987e9,7.339300789146936,0.899915736719151,-0.01618907053681353,-7.0858038046698155
2.1083486938922987e9,2.9333397995687305,2.393616371078609,-0.12896407600596888,-0.10881736459920156
2.1083486938922987e9,5.383169470358849,1.1051648815273794,0.07567134684531057,-4.990469705589721
2.1083486938922987e9,21.084245051530115,2.3273930156467086,-0.09474441939278358,-20.887150225499525
2.1083486938922987e9,2.610856029139818,1.9744621962582336,-0.0129533685458749,0.26700253666616447
2.1083486938922987e9,59.3238740330887,7.6764487193549185,-0.14130553650610228,58.80074479121963
2.1083486938922987e9,15.40977421456025,2.99483607530991,0.05683438889886908,15.02139334355794
2.1083486938922987e9,3.029093193312969,2.432432697093479,0.10934993309960955,0.6325418910369593
2.1083486938922987e9,5.4177599007983055,2.4977515676342694,0.0872998319516538,4.501014118209343
2.1083486938922987e9,3.7004822081993307,0.4952429927307983,0.14084612305876046,-3.2529763640195966
2.1083486938922987e9,3.4539994396773723,0.6476425849563688,0.12862748437876473,2.9406659255354093
2.1083486938922987e9,11.731567835798328,1.4232491131220988,0.0827747386374325,11.52174396931639
2.1083486938922987e9,1.9005598418486702,0.4477619039765669,-0.07204188583088283,-0.7482224671720644
2.1083486938922987e9,3.640241556697974,1.7450100946211886,0.011309950072395391,2.712850963416605
2.1083486938922987e9,3.6593617279155586,3.222945103622035,-0.13824398179174238,-0.3712568116146249
2.1083486938922987e9,2.867361292476921,2.1802578314933285,0.05338657109445434,-0.7866233836682629
2.1083486938922987e9,13.633245550177389,7.822917317414,-0.08404593167061981,11.036923260655813
2.1083486938922987e9,4.452028349561268,1.6292093087523747,-0.1186572967252817,-3.7822670190516288
2.1083486938922987e9,4.0938871731433295,1.1975058943547015,-0.13718669306495035,-3.529937893867134
2.1083486938922987e9,2.112043777734898,1.2587977471683873,-0.10218511085089284,-0.1382217704013558
2.1083486938922987e9,10.810538741626123,5.258624391926993,-0.026071786197043246,-9.293402366985637
2.1083486938922987e9,6.409825524569001,1.3027270930870265,0.0034192749219325805,6.045009808826806
2.1083486938922987e9,2.071468294245106,1.109745254088329,-0.0257766165103566,0.46062114045323294
2.1083486938922987e9,6.004681245492433,1.5362827582061798,0.00847180789271648,-5.5542191421637295
2.1083486938922987e9,1.7834027095859248,0.5295644315658404,-0.04412393433081907,0.2270015852322102
2.1083486938922987e9,7.059509896421508,1.7239535968059219,-0.07703917728365459,6.634163009965658
2.1083486938922987e9,9.258982611179544,4.74955531640127,0.0691889833737012,7.766536298701584
2.1083486938922987e9,8.469433039206386,1.8047105717314835,-0.12967205659847345,8.100054988672538
2.1083486938922987e9,2.9368711237629324,1.713588252413898,0.015182352549328353,-1.685819296025733
2.1083486938922987e9,7.085158138961539,1.7519682802106573,-0.012589532323358134,6.654570189486662
2.1083486938922987e9,21.68649531900182,2.5280022576533776,0.07274031796387435,-21.47233994133918
2.1083486938922987e9,10.837672657838624,1.6076966122923635,0.04032527766743348,-10.584055178293791
2.1083486938922987e9,2.4131611913276774,0.8807711585972713,0.02408799097396107,-1.4833741180511653
2.1083486938922987e9,9.193351953813028,2.85467370878526,-0.006791057746116626,8.574491352172602
2.1083486938922987e9,3.341165456785639,2.0231507918650755,-0.10790900484004018,-2.0523140679651677
2.1083486938922987e9,3.2473894321064942,1.0761783509652947,-0.12171747940604204,-2.5545944961534697
2.1083486938922987e9,16.45095085849646,1.9167953900966368,0.06876792126187793,16.251410414424797
2.1083486938922987e9,2.242944806662324,1.2097059700565695,-0.09335141735631436,0.8438532387332235
2.1083486938922987e9,6.85487723685046,6.6410650758197285,0.0032034792873840328,-0.19742399205406572
2.1083486938922987e9,2.5371362243325795,1.3847375907765822,0.09034151732956973,-1.2902675457661619
2.1083486938922987e9,2.4002843301771155,1.5283716753177017,-0.02166276855753596,-0.7605034622792903
2.1083486938922987e9,5.064407232746573,2.908812283448651,0.10430403604522284,-3.7854381900539242
2.1083486938922987e9,2.7084924271699835,1.0384919637117231,-0.11935844999532437,-1.8429891843573123
2.1083486938922987e9,2.712841220815229,1.4871090850087632,-0.02683203620530159,1.5168005816097707
2.1083486938922987e9,4.69841169524021,2.4866840436195035,-0.0758088203090464,-3.610971870818366
2.1083486938922987e9,10.073408958286185,6.496898561898452,-0.023239253606034876,7.511106906327056
2.1083486938922987e9,28.062094286161972,3.678936505025255,-0.13368391595917462,-27.768364741769563
2.1083486938922987e9,12.601897026509867,6.762103947992232,0.024977592925441154,10.499263063999193
2.1083486938922987e9,5.1148885319661135,1.7670204842013688,0.12194305773008202,-4.492019935109668
2.1083486938922987e9,3.284549219823318,2.740921470743705,0.126207300135045,0.6427088687350996
2.1083486938922987e9,14.454526605567814,1.406840806552653,-0.07201224871474747,14.286439111129866
2.1083486938922987e9,2.2141698780800465,0.9861993831271592,0.0855672938237935,1.0373172937169666
2.1083486938922987e9,37.446453247171334,4.2939386199156875,-0.06069219371631545,-37.1611175596551
2.1083486938922987e9,1.8687740481032822,0.7001532153881141,-0.11286617893894324,0.3778267425656036
2.1083486938922987e9,2.2976928018965763,1.4565869536967924,0.08617597210690778,0.5510991416606166
2.1083486938922987e9,17.53149606865251,3.495901917745719,-0.024250219016144117,-17.09633955025045
2.1083486938922987e9,5.953749880813178,1.5852037999991886,0.004784454841336731,5.48521955519038
2.1083486938922987e9,2.3051917300671296,1.5671078257740123,0.10349920202586257,0.02756435828641808
2.1083486938922987e9,5.8200406695552305,2.1045871325580685,-0.08150820676709465,5.156581494835268
2.1083486938922987e9,5.344368490386962,3.983775721190403,-0.11929010307209206,3.1354370252811585
2.1083486938922987e9,3.59980575080525,2.562994420365249,0.036844937680871104,1.8819387341713454
2.1083486938922987e9,2.680478954826893,1.7113632018326461,-0.07055360740770371,-1.18516476114705
2.1083486938922987e9,12.232777872436312,1.7449478348830003,0.14084550523771805,11.988726536937062
2.1083486938922987e9,2.8565396369568337,1.6040071170714294,-0.13557082417591024,-1.6498455447168208
2.1083486938922987e9,30.92814155680447,3.9180888278456956,0.07737556453682116,-30.632432535153963
2.1083486938922987e9,4.201665189008491,0.6662910372934255,0.13198799718252466,3.7876134552839416
2.1083486938922987e9,9.58558988400027,1.3343620599637693,-0.047145112220321805,-9.340994516617124
2.1083486938922987e9,4.4632207739639655,3.4604351359526664,-0.021603072449419034,2.2580193883508834
2.1083486938922987e9,12.282070777838403,2.7713185734502472,0.08264782904417108,11.845489234157276
2.1083486938922987e9,5.292524186449703,3.61148493031671,-0.06590619261698072,-3.480953194158913
2.1083486938922987e9,2.7214946994958,1.238820580197585,0.1340792197214983,1.7341481009998905
2.1083486938922987e9,1.8411450738601478,0.29339761202401743,-0.02381169511090226,0.6756892268891358
2.1083486938922987e9,10.06455941862407,2.7208253440954557,-0.013930936292092888,-9.541785030635324
2.1083486938922987e9,8.026512278561167,1.8762354933302205,-0.09438929386780069,-7.618997328819865
2.1083486938922987e9,5.147392280805609,0.6104375826030193,0.08568889473708474,4.823801464349636
2.1083486938922987e9,6.059564323398494,0.9966800006926798,-0.028802560153838534,-5.733891268767804
2.1083486938922987e9,5.3608442683155815,3.8613555539428495,-0.10714430008052774,-3.3121736907998915
2.1083486938922987e9,3.8850928903421846,3.1315293333707093,-0.11029386410182211,1.558427402309035
2.1083486938922987e9,4.201959794962402,2.809381809816038,-0.04719348722381237,-2.6296392611571067
2.1083486938922987e9,1.869934129246201,0.7984183862083749,0.1045812332675868,0.040427686458577486
2.1083486938922987e9,26.655174876914504,3.1174438818872305,-0.05240950679943571,-26.41837494074295
2.1083486938922987e9,5.273742899878351,1.2479007531070656,-0.12189588016311534,-4.836697135723032
2.1083486938922987e9,19.286989372540212,2.487712063493193,0.14144236980771885,-19.050790841997944
2.1083486938922987e9,4.1274127225635535,0.5294663617888349,0.121942163164645,3.7274282242393757
2.1083486938922987e9,2.416158030426145,1.3831381993889977,0.08325063030697122,1.0349915873267768
2.1083486938922987e9,3.105594015098841,0.647175397738048,0.06952585642960184,-2.52476419698317
2.1083486938922987e9,10.618424751271117,3.210682356493362,0.04469343651801669,-9.979672109079612
2.1083486938922987e9,10.244770864143263,2.3057385901262415,0.006913523986838423,9.838304819423284
2.1083486938922987e9,7.10495760147612,1.614211031255475,0.10583040870231379,-6.709466081130477
2.1083486938922987e9,2.9601111680660557,1.6080554031861276,0.14151849211592074,1.8192796288318427
2.1083486938922987e9,2.319085697010369,1.58281735032533,-0.07914382470037201,-0.14132892308004746
2.1083486938922987e9,2.7621715552978565,2.1135828704336475,0.022079060193770126,-0.5614815844771794
2.1083486938922987e9,6.666483371321451,2.237655608955149,0.030387550970812853,-6.048748995987764
2.1083486938922987e9,2.982153975012759,2.457445509252769,0.05842495850455881,0.06465545500217551
2.1083486938922987e9,1.7709083265803023,0.48857757856500444,-0.030314339161231524,-0.22333650757594614
2.1083486938922987e9,2.487910336327121,1.0215878767483109,-0.07692089964160133,1.5144402037659113
2.1083486938922987e9,11.269581634479398,2.378733182883733,-0.06407728400083808,-10.885512512804263
2.1083486938922987e9,6.278669200482024,6.0210871989740085,0.02347573445586499,0.566599210398905
2.1083486938922987e9,3.172391322242119,2.218671375174436,-0.01594021597256459,1.514826671218005
2.1083486938922987e9,30.108428102282325,5.971104209842199,0.03983033772454109,29.46209701894292
2.1083486938922987e9,2.9349112022969166,1.4181661870188842,0.03423466510131101,-1.9377116201771756
2.1083486938922987e9,20.64936803145942,3.010108508416785,0.13182178276855114,-20.35857705704657
2.1083486938922987e9,9.304800024122468,1.6521001470357102,-0.050877954584428765,9.000037218295898
2.1083486938922987e9,30.299187268571956,7.7823578397673465,-0.08928347441678888,-29.233902817702948
2.1083486938922987e9,3.0918301119750935,1.4092207073047822,0.10461597044479491,-2.171625161497081
2.1083486938922987e9,3.3982451737005834,1.4878139453409722,-0.016994325018636527,-2.547073030253628
2.1083486938922987e9,5.299040199410445,2.188912847392632,-0.12970268254262307,4.51940866701924
2.1083486938922987e9,18.148105468918295,2.2031214101963212,0.1308749406903079,17.934220078294903
2.1083486938922987e9,2.465288033685719,1.7425955606025376,-0.00047775851206204896,0.44090302431388323
2.1083486938922987e9,9.808570111638028,1.2736174725186291,0.07907807048977869,-9.577738915385078
2.1083486938922987e9,11.188889454182657,0.9851743660073655,-0.007843430341902729,11.016987204811594
2.1083486938922987e9,39.599200805514094,6.594801482971976,0.04153388513629646,-39.00970344255265
2.1083486938922987e9,5.744406632615902,1.5384677287178172,0.024376811015551603,5.271064435531036
2.1083486938922987e9,5.101289789263656,2.2222585855897554,-0.097466445776533,4.269498154193997
2.1083486938922987e9,3.7976286691876115,0.9752173855887615,-0.09664115222505452,3.2580646021031723
2.1083486938922987e9,2.3087644675132357,1.5734189449661764,0.06387874269516491,-0.06368359447210048
2.1083486938922987e9,4.166466692074064,2.3789005553811404,-0.08315842536649627,-2.974348907569598
2.1083486938922987e9,13.025483045034665,3.0552153222394884,0.10768461553831482,12.548731482453315
2.1083486938922987e9,16.56728845651582,4.252627769582034,0.007050887585915226,15.923050714095785
2.1083486938922987e9,6.01112531786012,4.306985789411346,0.11146208084686897,3.8372473343871056
2.1083486938922987e9,2.260349127340475,1.444526604170926,0.10734778281272825,-0.4054471910575463
2.1083486938922987e9,3.0817045496972963,2.16104503190538,-0.03734132853943663,-1.406692159210749
2.1083486938922987e9,24.60009364811201,3.1672973569043426,-0.12292159236515822,24.33662086516652
2.1083486938922987e9,9.336162560136827,1.6651890235779574,0.006268140672214246,9.030195317896982
2.1083486938922987e9,3.0111588691789772,1.9065365202229552,0.09818660232226038,1.6049752420257988
2.1083486938922987e9,4.126191361187409,1.7416300009607626,-0.07777235934722738,-3.3375921639578094
2.1083486938922987e9,2.751475115403339,2.1671576696179295,0.08764444343673401,0.14053932237870626
2.1083486938922987e9,3.0867542423809406,2.533879581938774,0.12271676790760722,-0.4958190353998377
2.1083486938922987e9,4.536107413568998,4.1592107269023675,0.04484111265063577,0.6546875401076105
2.1083486938922987e9,4.218906663685929,2.7418240049446343,-0.02921687493972689,2.7265565904491442
2.1083486938922987e9,8.996433494541357,1.9924502801944268,-0.11172592294683086,8.608534412122683
2.1083486938922987e9,5.7135793437339855,0.8998319899121617,0.03905406823156349,5.383972138740035
2.1083486938922987e9,13.159871052126302,1.281818146818846,-0.02748661019062253,12.988140079982122
2.1083486938922987e9,2.2059098993350017,1.1642948926681174,-0.08959268258614175,-0.8098264888345603
2.1083486938922987e9,2.342603379071162,1.4245646734420656,-0.1293692358034217,0.7714010549280889
2.1083486938922987e9,7.193319440966372,3.7367467100082132,-0.11549766017905647,-5.909367038813947
2.1083486938922987e9,2.6196167696817985,2.0015836083308844,0.04172556852013948,0.08777220340680479
2.1083486938922987e9,2.704049852817108,1.9072144669597952,-0.030305766078364008,0.9093349481802024
2.1083486938922987e9,34.49565997300718,6.771992826927635,-0.041036292076547916,33.78227902394986
2.1083486938922987e9,2.9864265218696753,0.9083232146696937,-0.004570557510501469,2.290646485628623
2.1083486938922987e9,2.5712931592974586,1.9033392412138421,-0.060122888967851895,0.37232161638505573
2.1083486938922987e9,4.571870392524126,1.6711246840414176,-0.08549678255862479,-3.9058189129167644
2.1083486938922987e9,13.230155137175808,1.4034229244773695,0.13684112179960103,13.046151672431048
2.1083486938922987e9,53.51293868102923,9.061752400393935,-0.006174244918353217,-52.713116029088525
2.1083486938922987e9,4.604705104287881,2.3772454558511336,-0.09127490324804123,-3.563295095277271
2.1083486938922987e9,3.07513893704321,2.114206267231498,-0.0687054230137119,-1.4612600078243458
2.1083486938922987e9,11.872017419431083,1.8422193901786024,-0.06509014788145791,-11.606040604024862
2.1083486938922987e9,8.708822746530425,1.6071970418247747,0.09353562735369392,-8.390777811952296
2.1083486938922987e9,3.183718109429049,1.2843274121804293,-0.06819791699332708,-2.373879324364693
2.1083486938922987e9,11.34653869240526,1.673085451815816,-0.0838869807751748,-11.094641871080308
2.1083486938922987e9,18.993450759694547,4.5029952880726665,0.007335247158319772,-18.37464397735602
2.1083486938922987e9,7.257276659077064,1.5950812956297924,0.08554577873624876,-6.8753074106077
2.1083486938922987e9,1.8791630421560703,0.6348560312950582,-0.11251209574498237,0.5185966551614243
2.1083486938922987e9,15.692157241990321,2.7097168995260836,-0.04871726110976725,-15.363991986594566
2.1083486938922987e9,5.274784415414186,0.4013276848632941,0.0700652428416272,-4.981040803296454
2.1083486938922987e9,3.184971925699857,2.116751949392138,-0.04677275095960679,-1.6776798162666526
2.1083486938922987e9,2.2280689979055457,0.18624790634911614,-0.009236074249678162,1.4432282479361493
2.1083486938922987e9,10.305699932818682,7.213411100395261,-0.021897632805894695,-7.1642907394640885
2.1083486938922987e9,10.70660889958519,3.000589290154791,0.09323256825135669,10.137683938287012
2.1083486938922987e9,22.68770229989797,2.8298031838031044,0.09333028830126802,-22.447020491613557
2.1083486938922987e9,3.7649664082270315,1.5065360764734144,-0.0038479765195075883,3.009766801986286
2.1083486938922987e9,4.027952855519875,3.2380278736089547,-0.11718373287288725,-1.696831627673223
2.1083486938922987e9,7.2957363247940625,1.9184364974554462,0.065528400277364,6.833481240100652
2.1083486938922987e9,2.7210002808459564,1.4226126115566298,-0.026238404141743513,1.5914513300292579
2.1083486938922987e9,2.1935445850634756,0.5297345731014204,-0.13892348043596406,1.2903911419433687
2.1083486938922987e9,16.15788671701888,9.06795506318562,-0.12647807957846144,-13.26600494992172
2.1083486938922987e9,7.223784429337906,0.9827571176683805,-0.11573009400100608,-6.953937473004733
2.1083486938922987e9,3.048240869810077,2.1245470738526206,-0.13665178702729336,-1.3830359085602262
2.1083486938922987e9,2.4847689488456433,1.788954357403842,-0.11613019020732501,-0.33707969249971514
2.1083486938922987e9,3.928332579091714,0.6539481341534212,-0.030129315706050694,3.486636031768401
2.1083486938922987e9,2.509209673252413,0.15286734114156733,-0.04874784199649856,1.8503454575177236
2.1083486938922987e9,10.10427271988982,2.6740240662148027,0.1077140456040637,9.596234161351697
2.1083486938922987e9,7.839260284274077,1.4054231264485317,0.11012580220816644,-7.524629549142503
2.1083486938922987e9,15.475261854342868,14.086403969753947,0.11622561292845357,6.180358741382182
2.1083486938922987e9,8.901431448466992,2.5104483055496507,-0.03683558832616759,8.371688251496991
2.1083486938922987e9,6.4345355537317515,3.539930213153808,-0.1365146755723988,5.099695630671715
2.1083486938922987e9,2.4934726651261365,1.7308180122688046,-0.08286232639616373,-0.6067937696625756
2.1083486938922987e9,3.646889366471761,2.447991574071591,-0.1308619127080503,-2.107938416619823
2.1083486938922987e9,3.7311704587885246,1.0831379452454093,0.015310546068790459,3.1466808982139893
2.1083486938922987e9,4.211425315085161,2.473568047201877,-0.026514584808071104,-2.9614609876029925
2.1083486938922987e9,3.0554373361669143,1.3797151981595979,0.003582080015316129,-2.1413688051834865
2.1083486938922987e9,13.50606290045818,3.2312446359772418,-0.019879617800695016,-13.004837095415587
2.1083486938922987e9,13.091760689472734,2.019020246373216,0.0786715682344211,12.824389103712122
2.1083486938922987e9,9.205370958455864,1.206343625745626,0.0025287951047507974,-8.968666180012548
2.1083486938922987e9,2.202786539963715,0.9546192072701152,0.09940134325985786,1.041383688471463
2.1083486938922987e9,2.5449043566795164,0.9499808808391181,0.04847896175506188,1.650791993212248
2.1083486938922987e9,33.84263071503999,4.437192027716832,-0.12023789919460127,-33.50781869019873
2.1083486938922987e9,12.430809083004137,2.93463495284452,0.0927422064606201,11.960673933298333
2.1083486938922987e9,13.711929875991427,2.6015831845676782,0.10759648110975958,-13.356294349820008
2.1083486938922987e9,5.179157639025992,0.7074985390485146,-0.007226569843592194,-4.845251009773776
2.1083486938922987e9,2.1224759935949136,0.8132818550628901,0.0974579095359869,-0.9936643434183664
2.1083486938922987e9,4.691082933365438,1.276667174135942,0.07508636721795037,-4.186183459376124
2.1083486938922987e9,2.575747701280559,1.7620279477896517,-0.019143092218092413,0.8262912185062866
2.1083486938922987e9,15.033116724633079,2.0497353967805814,-0.018060332784479934,-14.79683232951929
2.1083486938922987e9,2.4632300540280108,1.7890062465246188,0.044521696606202255,-0.13552369310948792
2.1083486938922987e9,35.063926869664535,3.757433652085335,-0.13752858332524273,34.8209008450963
2.1083486938922987e9,2.609691326392371,1.9353710030705549,-0.12484976276333697,-0.45014479910267335
2.1083486938922987e9,3.497434317719223,0.7233514594590127,0.1040802648632517,2.9751246486869483
2.1083486938922987e9,2.4997355780620225,1.83991608808265,0.0000351329136412342,-0.12952471466631083
2.1083486938922987e9,29.052396108036586,4.801560442629493,0.13719972630119043,28.602819844781692
2.1083486938922987e9,9.759175774878678,1.319176349002773,-0.06094189136662509,9.521079852358513
2.1083486938922987e9,3.6891268714969563,3.248410914277177,0.08295482406920485,0.45165474321596444
2.1083486938922987e9,2.976132058692928,1.5388718587524555,0.020228526032068598,1.9084591019338455
2.1083486938922987e9,1.6992302602985494,0.1478658134835857,0.08144145215703352,-0.11079879280780264
2.1083486938922987e9,7.138065832586622,3.4406500963471047,0.01736093724146998,-6.022208834522869
2.1083486938922987e9,9.650809906492968,2.315744804348553,0.015459304759522745,9.215671910728586
2.1083486938922987e9,1.8928671007733013,0.3854360669018029,0.07121325939281926,-0.7633501654600217
2.1083486938922987e9,2.227548125444664,1.3727281059980976,-0.11799947116769713,-0.4658907885750216
2.1083486938922987e9,2.7323860244839473,0.8498978553257984,0.08682433869936663,1.9721710018193694
2.1083486938922987e9,18.59802948968775,2.2525178003610873,-0.13040553317375933,-18.383396007244396
2.1083486938922987e9,8.184216400857732,2.2160711708854777,-0.02472965173130886,7.6956614406991815
2.1083486938922987e9,8.474148787569339,1.2708457433688076,-0.10073588873463861,8.206058186184467
2.1083486938922987e9,16.68540287557792,1.8675439010040003,0.038675042784000795,16.494448855391692
2.1083486938922987e9,3.1425141438059034,2.601363147537098,-0.08803276038492666,-0.5039296137905008
2.1083486938922987e9,5.107467476390952,1.894563217604709,0.09498415624848103,-4.431841846326694
2.1083486938922987e9,15.518217047190674,2.735826258419202,-0.11446078868748762,15.181258302236223
2.1083486938922987e9,7.1713845557021205,2.975542947405618,-0.0181727277478704,6.303011999811979
2.1083486938922987e9,1.7491176086769518,0.29342365411257876,-0.05611668448303058,0.35150503526070753
2.1083486938922987e9,6.941138071645221,2.6077524278997726,0.1033712756179985,6.206587571903153
2.1083486938922987e9,10.606538336980476,1.1031311416027214,-0.07614711147564136,10.412941404789365
2.1083486938922987e9,24.94393762054496,2.7167538124484167,-0.08161873851986466,-24.737946580619976
2.1083486938922987e9,3.811708166244563,2.2576654060149957,-0.07952613527121762,2.564981784888044
2.1083486938922987e9,12.84360885256656,1.4350602666470484,0.06886554423216237,12.650989598823271
2.1083486938922987e9,20.62576330831983,2.912510696253306,0.029928307065601685,20.34924784102299
2.1083486938922987e9,4.722712033081868,2.069135162036216,0.009916587468784415,-3.895636044837173
2.1083486938922987e9,2.288390783436543,1.484182686563658,0.025487614068327547,0.43205834797062054
2.1083486938922987e9,2.783548971769599,2.1768216329745878,0.057129928655729134,-0.39964800963502023
2.1083486938922987e9,4.8531077883865485,3.9572240264512444,-0.036912377795127516,2.2461212323560567
2.1083486938922987e9,2.5753841153474633,1.5855963835459805,0.07762253782896886,-1.1251009268465348
2.1083486938922987e9,4.353972543936979,3.995846566136872,0.111049350598988,0.3624156162208838
2.1083486938922987e9,40.61364588881452,9.085659458594838,0.02404594396589832,-39.54834808536185
2.1083486938922987e9,4.477668835284999,1.1447112609461927,0.09496683427672611,3.985414097911652
2.1083486938922987e9,16.007001888581886,2.558392848204941,0.08805729177299021,15.710645159018242
2.1083486938922987e9,2.5870753650210534,1.960902611563476,0.010691996043794673,0.03309799666076272
2.1083486938922987e9,2.7805549855214156,1.8692072800491097,0.0157564428614289,-1.1792759686043646
2.1083486938922987e9,3.187708917409621,1.4381753256130758,-0.051409806815831384,-2.2899534516216034
2.1083486938922987e9,18.12035736004818,3.2681783765247667,0.10192369093498846,-17.742867931092608
2.1083486938922987e9,2.4513101347904307,1.1453741054249402,-0.10562339760520285,1.356198045023894
2.1083486938922987e9,2.074360688442925,0.6823733972550255,0.012934961734437074,-0.9952695128159861
2.1083486938922987e9,4.3673977847633845,2.6814867729440786,-0.07050955836089481,3.005363605782473
2.1083486938922987e9,18.689697530259224,2.8939406401322874,-0.09297921775386413,-18.386806305417327
2.1083486938922987e9,2.1285213145647512,1.043449919593577,-0.051581367720701175,0.7697691330916538
2.1083486938922987e9,5.357094235992006,1.1911300311805786,-0.09350395617506375,-4.9420961965747034
2.1083486938922987e9,7.564292739240038,1.7271522693423071,0.10898948862746159,-7.167773774240786
2.1083486938922987e9,3.8245969990646076,2.713937974285146,0.04158691759557099,2.1008910750374326
2.1083486938922987e9,9.902419404563073,4.309923948986797,-0.13698507764990991,8.753118907579092
2.1083486938922987e9,13.780936780213555,2.3426742774462728,0.027944199956194113,13.475114277646151
2.1083486938922987e9,7.493158190843279,1.624892901436058,0.13485684077115362,7.116343602459178
2.1083486938922987e9,2.813648080731384,0.9884087349940657,-0.016103959949060272,2.0230655602735155
2.1083486938922987e9,5.761440273528939,1.3751647551338453,-0.09212947019551783,5.333668342360667
2.1083486938922987e9,2.1776344830028505,1.3735601802012927,-0.03527831917597531,0.087004120733444
2.1083486938922987e9,9.763501729902996,1.3489616586600988,0.05756217729880831,9.521362558632479
2.1083486938922987e9,2.9036479074552055,2.353412724391249,-0.02795047522178658,-0.21266968278819634
2.1083486938922987e9,1.7712439024243356,0.25817836521794074,0.02833993122894931,-0.47247819611778763
2.1083486938922987e9,14.24408198091386,4.6785551329690085,0.13206699583749987,-13.34694502720659
2.1083486938922987e9,8.790669040114462,1.321935841562896,0.011386090447069964,-8.525350905649729
2.1083486938922987e9,5.0174867713080324,2.308703900896979,-0.1129006509204333,-4.121371512634587
2.1083486938922987e9,4.12423849764661,0.8849993884135134,-0.11739502191042665,3.6559167907255117
2.1083486938922987e9,6.455519560161888,0.9977009388672461,-0.1385156460445418,6.149189291924344
2.1083486938922987e9,4.370435062474502,3.7177096333664106,0.08136340053005191,1.557596744422405
2.1083486938922987e9,20.63763467808977,3.9494790813628184,-0.025810382174965698,20.185794604628352
2.1083486938922987e9,1.9702514743562467,1.0106706157353187,-0.11731579092233667,0.00791756227773886
2.1083486938922987e9,43.7837408892639,5.231780857091119,0.045904656255810486,43.43726186107969
2.1083486938922987e9,18.309850832251772,3.368527230314478,-0.03090062751698594,-17.91803830928654
2.1083486938922987e9,1.8221046059616515,0.5139650086891223,0.0733565875473342,-0.45156824497883585
2.1083486938922987e9,1.7338301448800715,0.29498458704448144,-0.06171052488060078,0.26216937220050646
2.1083486938922987e9,11.041641252292306,1.1865867787416673,0.0835543408687685,10.8469471251989
2.1083486938922987e9,3.696735093169339,1.579365349196868,-0.0811687103344532,-2.8841388640612666
2.1083486938922987e9,3.880477669475803,1.2157455196991331,0.12917491606363202,-3.273648350020479
2.1083486938922987e9,8.10063006554798,2.377988133634632,-0.11051922673599109,7.556887937476275
2.1083486938922987e9,10.308236455920099,2.3460212275970234,0.08888365424952005,9.894514279676976
2.1083486938922987e9,15.795139385030568,1.8852833713109975,0.1250331840256174,-15.590698874944467
2.1083486938922987e9,2.514353257749573,1.2172993220263626,0.0480870102221279,1.4111102751726898
2.1083486938922987e9,5.069276788466613,1.9998596328650362,-0.0027436620924769077,4.34183267562692
2.1083486938922987e9,55.444617919985504,5.933210323876749,0.133510530260648,-55.100256227970746
2.1083486938922987e9,6.222886606376189,0.976157698527936,-0.11607846778773995,5.908582702868504
2.1083486938922987e9,3.2565073144411847,1.6569148536535772,-0.07755008646036538,-2.2375989240123157
2.1083486938922987e9,2.89660355328273,2.2609079100481546,0.025715066445211987,0.6567619100020521
2.1083486938922987e9,3.0735261819743243,1.6170833035244376,0.09784871175931273,-1.9938456094319845
2.1083486938922987e9,1.9684604727116382,0.8850113176605413,0.12053661758703936,0.4800546093535131
2.1083486938922987e9,2.075110270642285,1.0081439817483853,0.03983838841218841,0.6644781065605767
2.1083486938922987e9,26.093067928908617,3.864803514087736,0.05960699977032342,-25.749977177652273
2.1083486938922987e9,4.68109988268718,0.9288312716051452,0.1170564250686228,4.264933326305636
2.1083486938922987e9,12.299298605518102,4.441427296101728,0.05660038085539707,11.344454859618818
2.1083486938922987e9,2.711541780751744,1.4208996546059764,0.042829654173442415,-1.576406839913587
2.1083486938922987e9,2.2406245404105047,1.3965495890061015,0.04980470948794095,-0.47006060391134313
2.1083486938922987e9,3.4031306001207127,2.745511907362882,0.11516573367769813,-1.087928768666896
2.1083486938922987e9,5.361591882806115,4.240639688651511,0.03044531757861915,-2.8135574519358193
2.1083486938922987e9,15.652332056977531,1.607425902053373,0.011225549220757263,15.477885665756778
2.1083486938922987e9,3.1331495784454293,1.2642502809068903,-0.06803569585366542,-2.3166912949569536
2.1083486938922987e9,5.39910044921633,1.5493473085630902,-0.04711827965518215,-4.888862684694531
2.1083486938922987e9,9.961386510546163,2.0994062799278645,-0.12209645839523155,9.589587939168075
2.1083486938922987e9,3.1487106356515895,1.1834978577868784,-0.10066711127406305,2.3784380429784253
2.1083486938922987e9,23.944135001314027,2.563688501043707,-0.006101177738636622,-23.746630390653284
2.1083486938922987e9,13.019660061076763,2.387469893737571,-0.07924520498102332,12.686947848630956
2.1083486938922987e9,4.4558205402076085,0.5925259114230685,0.005031825748187643,-4.08125156238352
2.1083486938922987e9,2.5866798750253674,1.3437459892308248,0.04902477316348839,-1.4269709064320795
2.1083486938922987e9,4.364223958898301,1.8928677611199307,-0.013212353599743633,-3.5520019341136537
2.1083486938922987e9,4.678491857615981,1.204827256867121,-0.031799805648425244,4.193930855313402
2.1083486938922987e9,8.638202342320959,1.8524753570617665,-0.10399028700713536,-8.266162996364535
2.1083486938922987e9,4.249310033234769,1.6191079028968491,0.08524997374145805,3.547005455761765
2.1083486938922987e9,3.204587277501013,1.5800172202837486,-0.11996137838331643,-2.216286167065198
2.1083486938922987e9,5.330595184933931,3.53026758808252,-0.13399716010614826,3.617718956353343
2.1083486938922987e9,11.479389389679316,1.3186385588300709,-0.01100695903330263,11.277891729476812
2.1083486938922987e9,10.061618421088783,2.2660965583307955,-0.09327699458058399,-9.6563792876055
2.1083486938922987e9,12.936505513341588,1.8043707258963975,-0.07042140121913681,-12.698261767281211
2.1083486938922987e9,3.5746958443229206,2.861149009836111,-0.008369733109127864,-1.321210268807005
2.1083486938922987e9,9.786011034813969,4.60723753479879,-0.1046965344740954,8.466510663255026
2.1083486938922987e9,7.92864649704265,1.2832823767189019,-0.033561860871724955,-7.639953214651529
2.1083486938922987e9,3.1315716541111343,1.5350522053720785,-0.0788645600382912,2.1441842357140457
2.1083486938922987e9,3.8704597807846945,1.3009925429114502,-0.017431031030045417,3.2312479603116087
2.1083486938922987e9,8.869031890517215,2.9963507652528922,0.07749198469788932,-8.174900223414802
2.1083486938922987e9,3.340262607908555,2.61561591171574,-0.0823887741148035,-1.2093426668944391
2.1083486938922987e9,3.0747951278730787,1.4082790203535207,-0.10242660777983127,2.1480255988099555
2.1083486938922987e9,2.6306896062599177,0.9357710322721265,0.08965793297161871,-1.7861163843936867
2.1083486938922987e9,2.3852777763518644,1.6643701952805232,0.037199129118395055,-0.26726027035981265
2.1083486938922987e9,3.65405907466286,0.32681459708166277,-0.015463621046013941,3.224669086989313
2.1083486938922987e9,4.156040974259513,2.8775842225561923,-0.04824658307581249,-2.4785576033130923
2.1083486938922987e9,3.566935969305719,2.18362775992402,0.13163736387345412,2.2562942014614555
2.1083486938922987e9,3.9814742463931228,3.572157881218516,0.027669988624378552,0.49441836734656874
2.1083486938922987e9,2.3973705998301083,1.6877972750423502,0.04616312968538385,0.2235733003894695
2.1083486938922987e9,4.310885991441161,1.6683010163650391,-0.08302446466422243,3.5981949074732236
2.1083486938922987e9,11.983887628420744,3.4911566920579222,-0.01494214175426413,-11.33924840006668
2.1083486938922987e9,3.5848162940026818,2.7839345226487926,-0.1070995402169475,-1.497509942450026
2.1083486938922987e9,2.4135014747313335,1.1238275623733935,0.08819419838517625,1.306756544216019
2.1083486938922987e9,4.926853865508799,3.392899354666437,-0.04667515081292406,3.1485447932941453
2.1083486938922987e9,6.9635466852884065,2.029925925074785,0.11238185286961935,-6.442914200883481
2.1083486938922987e9,4.789217922214775,1.1269249030099366,-0.13533693449199544,-4.336095292714582
2.1083486938922987e9,6.030381081056639,1.5646683292197103,0.0013308445855384056,5.574109537410915
2.1083486938922987e9,3.082583848873911,1.1588473880319465,-0.007784636663465028,2.304934970866173
2.1083486938922987e9,2.744512450556035,2.068854865526478,0.05516981070209136,0.6344559342709394
2.1083486938922987e9,2.1897803264363316,1.347811726206671,-0.04065388840588754,0.3609412611559978
2.1083486938922987e9,8.411894063139142,1.3213131410167396,0.059301748857563306,8.134123586431082
2.1083486938922987e9,10.730291424511275,1.6998904491284632,0.016080954913759472,-10.4595725449318
2.1083486938922987e9,7.053700714728668,1.4522110141872535,0.027181199959903122,-6.693162782235742
2.1083486938922987e9,4.8748023651458725,1.352600225720523,0.1369545776572102,4.366784180168666
2.1083486938922987e9,2.9741402513088726,1.822956270562999,0.0796272473614517,1.633826819295205
2.1083486938922987e9,68.20158662816053,8.521499965721146,0.054470881929920015,67.64607068972758
2.1083486938922987e9,3.5589422481386688,1.09258785994513,-0.11219847675019305,-2.934812276722615
2.1083486938922987e9,8.228412896559963,0.9363747166382286,0.07942298159507381,7.998566314047134
2.1083486938922987e9,4.104912487863177,1.6372085478105214,-0.12070360270994318,-3.3628373805737413
2.1083486938922987e9,8.603823899038973,2.1037365865700055,0.1318846351347406,-8.169215042274036
2.1083486938922987e9,26.88989176581192,3.13804441796002,0.015150118026807586,-26.652806921332196
2.1083486938922987e9,10.819688252228085,2.482630954020886,-0.13451930773006904,-10.39410851787144
2.1083486938922987e9,4.449992717366032,3.081640076639434,0.033700773764114,-2.7309675546238426
2.1083486938922987e9,3.60029087924807,0.969800503706044,-0.014149074388920074,3.028988462474277
2.1083486938922987e9,4.315547956575637,2.1889280981241472,-0.004625487194372087,-3.314500936116173
2.1083486938922987e9,3.1077964898726664,1.5972934309642481,0.051484476190463285,-2.0634417778252736
2.1083486938922987e9,3.6375536855951056,1.0698883860883355,-0.04087184760786879,-3.039548494903964
2.1083486938922987e9,2.3184612386667958,1.0959512823401045,-0.08673493785049624,1.1489213447375435
2.1083486938922987e9,3.027641199998061,1.9736706256861705,-0.11331904339268715,-1.5529920139955071
2.1083486938922987e9,3.522201336463403,2.4488787992376437,0.04632201784233835,1.886833075762663
2.1083486938922987e9,12.347202675535211,7.396404667870374,0.0969160014813476,9.741181093296959
2.1083486938922987e9,3.672127264669138,2.1893100703611963,0.10938247960966815,-2.4151325927981553
2.1083486938922987e9,2.9237630080725525,1.005716816941834,0.07766127917492982,2.1643203185089686
2.1083486938922987e9,4.049702745574764,3.375181878946328,0.10780258282181579,-1.4662905982734318
2.1083486938922987e9,7.512433655806382,2.928543773486689,0.050197614525965106,-6.709035765522545
2.1083486938922987e9,17.16360147616169,1.612090198736488,0.06506427581501334,17.004103544954972
2.1083486938922987e9,2.6460651304325977,1.994483883990941,-0.06874210489287054,-0.4151615804799243
2.1083486938922987e9,3.259479744391315,1.755446121127049,0.00839287475266974,-2.167010979084014
2.1083486938922987e9,3.321179101047803,1.7568210152372963,0.1273881528772974,-2.254101307409185
2.1083486938922987e9,2.0203082357185647,1.0204876026370717,-0.13093259435851512,0.4201154362920362
2.1083486938922987e9,2.7864409469002545,1.9776670816365884,-0.11364528493408516,-0.9967751591435525
2.1083486938922987e9,6.765534421250996,2.7768255794341234,-0.1340589739979067,-5.932715550397053
2.1083486938922987e9,7.2973291722567,6.624184401345997,0.13246101848006617,-2.5508896580832867
2.1083486938922987e9,2.1660093805303875,1.3513680582919037,0.1359224147658051,-0.01777663180232765
2.1083486938922987e9,10.022536219622399,1.1033537497785115,0.007107933889127596,9.817697395910528
2.1083486938922987e9,35.080352583512294,5.881229024767107,0.05150505343323099,-34.54262612592078
2.1083486938922987e9,2.5166956140314807,1.4575962651830836,-0.11761474196276663,1.1613468981241777
2.1083486938922987e9,21.763846162477336,3.633302867075852,-0.04760326596027666,-21.39194320049134
2.1083486938922987e9,15.317440301787915,1.6571880652546833,0.023767511795316797,-15.13375466050964
2.1083486938922987e9,4.56359447659565,1.5891075296446426,0.0027302452498768276,-3.9312229974528154
2.1083486938922987e9,6.231884086222859,2.3084161537512737,-0.12431803204116447,-5.53584041099699
2.1083486938922987e9,4.0572924040601555,3.6870173116828227,-0.13522993890681395,0.051261710063784716
2.1083486938922987e9,46.543254337500855,7.753881550030937,0.10904979642873869,45.861676193518925
2.1083486938922987e9,12.761130351438542,3.4434712114855413,0.03099245422417893,-12.171334488615345
2.1083486938922987e9,2.626414273991186,0.6848791839136733,0.05271580683944658,-1.891983982404623
2.1083486938922987e9,13.69825663019755,1.8763959594503574,0.13252686869227562,13.463179395784792
2.1083486938922987e9,2.509595638604891,1.4157458074570788,0.010562575161449197,1.2029182906076186
2.1083486938922987e9,15.723628462502091,1.6618958834836846,-0.11039713887377266,-15.543866844350356
2.1083486938922987e9,3.777493987854905,1.8031730763813572,-0.08375040250776948,2.8573420269322214
2.1083486938922987e9,14.538297403187695,5.855338274441647,0.005421716642339863,13.19963884294875
2.1083486938922987e9,8.938353699366296,1.0542645269769322,-0.013354798761476555,8.714120994993316
2.1083486938922987e9,7.181878588404063,4.71746999993296,-0.0397137470472586,-5.145548520858076
2.1083486938922987e9,2.856853680116997,2.2571866871536734,-0.018001574886161924,0.4688145221042854
2.1083486938922987e9,7.097040773354427,5.206469292487697,0.045012916487934075,4.517967351175428
2.1083486938922987e9,6.282937901611906,1.1182517191873573,0.0906244081977796,-5.947268187040562
2.1083486938922987e9,9.778110273392077,1.488256623360603,-0.012267893734352846,9.515764401472028
2.1083486938922987e9,3.9880486686850887,2.475103252764427,0.04760334025080046,2.6323981267758163
2.1083486938922987e9,6.415253192603336,1.704093893234138,0.12344019332479765,5.948923427883516
2.1083486938922987e9,5.688110583376096,2.558442902481929,-0.052015606892398904,-4.79162354573005
2.1083486938922987e9,4.489055015630544,1.2723755655293774,0.1253844486942957,-3.958578532444085
2.1083486938922987e9,1.8014046728232174,0.5991627710442624,-0.07038838592738761,0.18573677097015667
2.1083486938922987e9,5.723568237158799,1.692406704840764,0.03544255850940208,5.200685208678699
2.1083486938922987e9,4.032860407940612,0.7173494177042767,0.02886366690446414,-3.591925622209775
2.1083486938922987e9,2.1060860502484418,1.1459587926821897,-0.059242937013436185,-0.5217825934615696
2.1083486938922987e9,2.0775772619051818,0.9953497490374339,0.11501169599399196,-0.6824722484915675
2.1083486938922987e9,3.963675640293789,1.4139260186941853,0.13357134397722997,-3.2934915204211626
2.1083486938922987e9,12.502518872004638,1.4356244383835002,0.07793332669904224,12.304441349254253
2.1083486938922987e9,4.5703899414665194,2.448765317710234,-0.06723198369127868,-3.4699974639914046
2.1083486938922987e9,3.4879501916140954,1.4078962414313207,-0.07678052529613696,-2.707603990132164
2.1083486938922987e9,8.683683605400452,1.9302957637777682,-0.09771666654328749,8.296032821778244
2.1083486938922987e9,2.1811764730954075,1.3812210306662434,-0.04134064350652271,-0.037948996359175605
2.1083486938922987e9,10.166094598200052,2.828619249389291,-0.019005839774151934,9.61776591540318
2.1083486938922987e9,4.072983933655148,2.9911999701395353,0.12749958855099722,2.1861048971331485
2.1083486938922987e9,5.990883892565541,2.025461149589563,-0.00335728141581205,5.379737500869914
2.1083486938922987e9,2.4939411094391057,1.823554005775592,-0.04923533291579618,0.2129761283872481
2.1083486938922987e9,11.675276893091517,2.591000113789272,-0.002852857217111786,11.258427541437852
2.1083486938922987e9,3.5342476299032177,0.8458809029198326,-0.14036606339945917,2.9848080473788903
2.1083486938922987e9,1.8939689476013146,0.8439646215385875,0.11836308678031847,-0.11925676356959616
2.1083486938922987e9,10.344068782639393,2.28706220436541,-0.0737716536192793,-9.945705259073403
2.1083486938922987e9,17.629658852383493,1.7516787264532974,-0.09635840862867048,-17.460830388377904
2.1083486938922987e9,4.211686503518385,1.7250462281545347,-0.037958400419082786,3.451734024861467
2.1083486938922987e9,3.912066442658193,1.1470198325970302,0.06597110396943533,-3.337311353880915
2.1083486938922987e9,3.227145034665023,2.5296405206849504,-0.012170762390866266,1.0810299197130073
2.1083486938922987e9,4.6712200102221475,0.8987180813227446,0.02494551748720497,4.2620851492269205
2.1083486938922987e9,34.9985189000672,3.549015978493589,0.12743435132516165,-34.77697458337571
2.1083486938922987e9,3.2247535619092504,1.5747400432529857,0.05972422115875622,2.2514555852889853
2.1083486938922987e9,49.429958861535084,12.675965264470221,0.13481772493947203,-47.746999400506176
2.1083486938922987e9,7.54882097669661,1.3930874464341203,0.0683973899593926,7.224452727075535
2.1083486938922987e9,13.790256451592647,3.238646450808202,0.08972453449832708,13.29765699584589
2.1083486938922987e9,12.168834429909554,2.7190901526256996,0.01864665504967443,-11.740533306907379
2.1083486938922987e9,6.665833096109835,2.508321136157098,0.1357770988334744,5.939411622916294
2.1083486938922987e9,8.42793619089656,3.7907448452670147,0.069351022679092,-7.3354578790596925
2.1083486938922987e9,4.659814462243063,2.2710410116681836,0.12021034027408158,3.7007003288353344
2.1083486938922987e9,6.3458201038695226,5.69499250687284,-0.09900416276086219,2.2316095574703065
2.1083486938922987e9,3.6891854900986254,3.250737461635292,0.07122007996010121,0.4371648887841366
2.1083486938922987e9,10.218606660959807,1.2632281835684243,-0.03305803682239506,-9.998823616693716
2.1083486938922987e9,13.768328587082584,2.158851198941805,0.05957967916265522,-13.492815634567673
2.1083486938922987e9,6.043031221517781,1.0317245178334837,0.13865559688319504,-5.708584359794722
2.1083486938922987e9,16.588505048361842,2.0929476688671893,-0.07748031246578739,16.36903957170334
2.1083486938922987e9,3.6699511492021237,1.3130334835534305,-0.060054949260477976,-2.982325907000584
2.1083486938922987e9,21.548348293937643,3.494997597532421,0.13022591942234577,-21.19558296211497
2.1083486938922987e9,2.178735163341119,0.2816499887738058,0.08900553384721714,1.3464873243545
2.1083486938922987e9,3.794486409261344,2.1669460231311963,-0.03083043802037288,-2.6181885781769823
2.1083486938922987e9,6.4429738824918505,1.8722870945704437,0.0789355571005603,-5.929048200824674
2.1083486938922987e9,7.4358185911263375,3.5419599472484125,-0.049855110772347735,-6.3163931340645645
2.1083486938922987e9,12.243527688758942,3.7604663798177067,0.12775602873004896,11.528223244398538
2.1083486938922987e9,1.9695274081959424,0.980394823654235,0.12622654361402044,0.2352040921715968
2.1083486938922987e9,33.208979853856384,10.308651337915816,0.06902975716813908,31.52327196411646
2.1083486938922987e9,4.218134072807618,3.4538546219136004,-0.028489689071348738,1.7366984621353394
2.1083486938922987e9,4.017110886890498,3.6088676123683174,0.0921995777457979,-0.5080783165385594
2.1083486938922987e9,24.16470444793028,2.6775696881285365,-0.06036951915646854,23.95648778611116
2.1083486938922987e9,2.8607388004373724,0.8196823195124332,-0.10587324810998659,-2.157342842165152
2.1083486938922987e9,2.6234723469531245,1.6464255616727408,-0.029934404162838043,-1.1508187782816854
2.1083486938922987e9,2.3971725914756687,0.8459965410794288,-0.05061045589109457,1.4770087242322947
2.1083486938922987e9,13.884716069147983,1.8704956704642415,-0.11933254197421142,13.653781011718209
2.1083486938922987e9,12.74294047180138,1.3629020549139377,0.0037709505816136166,12.55700623319176
2.1083486938922987e9,13.545017009800134,1.4588507228378382,0.03283868121975006,13.360073049544534
2.1083486938922987e9,16.528415910724366,1.8453423539930536,-0.13956756784295957,16.33759942318186
2.1083486938922987e9,7.783786413098203,2.054570107229613,0.13125336603610804,7.314522202920358
2.1083486938922987e9,7.624721936685956,2.7812473535200692,-0.10266542367546146,6.895208298884031
2.1083486938922987e9,1.8250065482919082,0.6841777613733242,0.09683801802456468,0.08100613751812565
2.1083486938922987e9,2.714758348298722,0.5716408266358916,-0.1349940178724985,-2.044090549368906
2.1083486938922987e9,2.717839242420802,1.9976610446934884,-0.040269487704676796,0.7401140252802958
2.1083486938922987e9,3.4845009293640565,1.471390898348312,-0.0481881378246952,-2.669798374085524
2.1083486938922987e9,8.12928099771361,1.8382661199939223,-0.12705089086069016,7.735840948914444
2.1083486938922987e9,6.459782341328345,6.0607152993499325,-0.1308739008686009,1.4604040138039185
2.1083486938922987e9,18.230550210912746,2.2506471299536095,-0.10561185882775231,-18.011934502662875
2.1083486938922987e9,4.240735420834949,3.3779276626852948,0.1093543430495234,1.9274006191619435
2.1083486938922987e9,4.906013514038911,2.1642415908584214,0.09836543879741799,-4.0655554455303164
2.1083486938922987e9,1.773219934522395,0.2432781956088515,-0.010741241083499744,-0.48826139041387795
2.1083486938922987e9,3.076173858604544,1.2965641958542922,-0.05089692451592582,-2.220938157933603
2.1083486938922987e9,22.00340814616813,5.020017163999283,-0.10822284179002954,-21.356288896726074
2.1083486938922987e9,9.889055058165882,2.268656166087627,-0.13157456282864574,9.47537266717385
2.1083486938922987e9,6.7578426861215695,0.874562209985503,0.04916973556396142,-6.484948030033598
2.1083486938922987e9,1.9627509424208873,0.7142288066129084,-0.06363713602145969,0.7011481245766605
2.1083486938922987e9,12.798268729244096,1.7663756073991497,0.014554290302671002,12.562992388601785
2.1083486938922987e9,3.1996325819116533,1.9749063601840229,-0.025479445185090554,-1.8681900945857697
2.1083486938922987e9,12.688736222796843,1.5440533343168765,0.13175702637141595,12.480222603078976
2.1083486938922987e9,25.666927560654784,3.1874254891565736,-0.017507468770363407,-25.412291761024086
2.1083486938922987e9,6.207731756141708,0.7308832893523206,-0.020788134557665153,5.9291399824019475
2.1083486938922987e9,22.920437143136176,3.143749684417984,-0.07200033968301284,22.640924950389373
2.1083486938922987e9,20.54903623656005,4.014269198068375,-0.08580572827133048,20.082195107552195
2.1083486938922987e9,6.341963698846304,3.5344360505115273,-0.12346254576914253,-4.98662333308031
2.1083486938922987e9,2.2686245177968005,0.8880821376518991,0.08340485616417535,-1.2265401964063931
2.1083486938922987e9,2.7045515066029,2.069441178872033,0.06878512056132464,-0.4250536085555657
2.1083486938922987e9,5.4852584629993855,0.7330802698964485,-0.005883785913115817,-5.167592186769217
2.1083486938922987e9,6.9366198637581675,2.168638020625221,0.09671550615985447,-6.368495920117351
2.1083486938922987e9,2.3448648992379018,0.9068770977820777,-0.08044534416922208,-1.3501421316653386
2.1083486938922987e9,11.781519713019454,2.973892763884492,0.13932541926809888,-11.273603989347292
2.1083486938922987e9,3.8383139388550442,1.6608223008657501,-0.10882202350062833,3.0192500474881427
2.1083486938922987e9,4.52684555283759,1.8425882224126107,-0.04232144777919945,3.774758018844343
2.1083486938922987e9,5.025483016910892,0.9537527400705025,0.13106689186783196,4.634872882596017
2.1083486938922987e9,5.288518503614565,1.5752308732122182,-0.0002518726333606855,4.758199817117068
2.1083486938922987e9,2.3854705363277757,0.2940718771922957,0.1305660593578318,1.6553953663026526
2.1083486938922987e9,16.886186919519282,4.839750763183922,-0.12989980738009949,16.089022256655227
2.1083486938922987e9,13.80163793785022,2.543455072513287,-0.014435425389692941,-13.459911871331355
2.1083486938922987e9,4.89357629713758,2.415820465924488,-0.06091370131569291,-3.9064792175588443
2.1083486938922987e9,46.07229569438944,4.7740236562471745,-0.03762389785496762,-45.79319930979991
2.1083486938922987e9,7.414180995625914,1.216876621731118,-0.07278947425446482,-7.11599485101855
2.1083486938922987e9,19.098812897128447,5.324289203722739,-0.03392830104248636,-18.26386698727654
2.1083486938922987e9,12.985912083879882,4.333104520965138,-0.12524262221662993,-12.124183356009151
2.1083486938922987e9,2.7567005417954893,2.0545565240171606,-0.06044202066801842,-0.7265893150822081
2.1083486938922987e9,11.454989815037075,1.775960383513605,-0.053475226231869524,11.189874292541125
2.1083486938922987e9,4.825986952608822,0.8250032892523285,0.12564563785544966,4.443773477244461
2.1083486938922987e9,9.787817854423224,1.7770063444500626,-0.007172441186188954,9.47612606834342
2.1083486938922987e9,5.809867305993695,2.215420166319427,-0.03186946854032847,-5.098906337715431
2.1083486938922987e9,23.36401327123158,8.332021873199894,0.10799490132907917,21.76226676263277
2.1083486938922987e9,8.903724311215473,2.462623587357684,0.06733961632733405,8.388125354159412
2.1083486938922987e9,2.0663919097298993,0.640806985649046,0.07005868419599617,1.0039041868670975
2.1083486938922987e9,10.275902198344006,1.6196181648100911,-0.13369564688167102,-10.005324500887177
2.1083486938922987e9,3.6537115712818418,1.942526069346745,-0.07044241419508336,-2.593188864353978
2.1083486938922987e9,2.4332692140956116,1.4009554747480886,-0.0576925337175086,-1.0527033302370061
2.1083486938922987e9,19.312658982587564,4.4249585095172215,-0.11157974865484396,18.722699565777404
2.1083486938922987e9,2.204173529645181,1.1322402189149403,-0.0008411896467175192,0.8542846315835966
2.1083486938922987e9,7.802398826423916,3.145650065425025,-0.12031488124566037,-6.936946543380861
2.1083486938922987e9,7.745288264645057,0.9074166536739372,0.0026930385620714185,-7.504629769051033
2.1083486938922987e9,7.674375560838876,1.38426144083887,0.06429263102506723,-7.3572492735874855
2.1083486938922987e9,2.1662274092323672,1.2319929804793928,-0.07447002347665091,-0.5679600373815599
2.1083486938922987e9,13.688757065213421,2.566574917379364,0.10240844953498539,13.339327779062685
2.1083486938922987e9,4.979655050168605,0.6995388989044107,-0.01788037412179878,-4.632567316694982
2.1083486938922987e9,5.237142950371377,1.3213382959556625,0.07284246169309193,4.778055595107709
2.1083486938922987e9,3.3750765631741393,0.5346371685035699,-0.06016528598814424,-2.873164622433565
2.1083486938922987e9,5.288888738786941,4.6173957122623515,-0.10820195022097354,-1.9477379622312998
2.1083486938922987e9,3.45281118076555,0.7454798587312829,0.08187731464395608,-2.917679015843291
2.1083486938922987e9,2.2968335389473302,1.2711869027222806,0.03023177282764406,-0.901112705377274
2.1083486938922987e9,3.775865441488869,1.1731690759732818,0.10964977616090314,3.1657859974890585
2.1083486938922987e9,6.908808852186939,1.969517322700493,-0.03464572103260349,6.403501452295724
2.1083486938922987e9,5.51972170284632,5.176017226970859,-0.14001958371359605,0.8999765347220239
2.1083486938922987e9,1.7533584918314953,0.41655455078978904,0.1314315441573563,0.1919998963394151
2.1083486938922987e9,2.2561652783219017,1.3692071642971353,0.10502173500306539,-0.5982590103121614
2.1083486938922987e9,4.317867960411776,2.3016565143646903,0.04775380450123958,3.2399800140569983
2.1083486938922987e9,9.39237638812233,0.9944180313872303,0.07540176164795045,-9.185617642447903
2.1083486938922987e9,15.429847935259778,2.84294209393477,-0.13749570637003974,-15.070911465150473
2.1083486938922987e9,15.552311298572157,3.6534243453734154,0.12408649014532885,-15.022145976097802
2.1083486938922987e9,6.57922957890035,1.1981784979531633,-0.017043614628663918,6.245296594880052
2.1083486938922987e9,2.0571842785484615,1.0806884274685753,-0.04188983337233826,0.4644941597076213
2.1083486938922987e9,1.8573951052023288,0.6000236071810832,0.043669183697617485,-0.49129538360354535
2.1083486938922987e9,3.527368879178487,2.8056017500387083,0.08874412576662974,-1.310131449137282
2.1083486938922987e9,8.612414894646632,1.4050688359532135,-0.024143184015107143,8.32780156429834
2.1083486938922987e9,8.583160585619295,3.1732411462270065,0.04669071581242016,-7.7943823454701935
2.1083486938922987e9,2.9512854725168327,0.7091887533340271,-0.009295744222579231,-2.3152625651257743
2.1083486938922987e9,3.020497478190491,1.6967603735340762,0.09707038121686797,-1.8407543278639948
2.1083486938922987e9,7.490024857228041,3.617584580250381,-0.06983426311239109,-6.337354909283854
2.1083486938922987e9,20.40551413713421,8.806601693708801,0.14034715896560504,18.329278938027535
2.1083486938922987e9,3.0170906017135914,1.8820840642636918,-0.0016610562273199363,1.6474168928311237
2.1083486938922987e9,2.5941464941717904,1.34684376449085,0.0532460475210333,-1.4374152738854895
2.1083486938922987e9,12.64434081748539,3.8190080684689263,0.11152222965865487,-11.934633835098936
2.1083486938922987e9,3.3356441085288058,2.2934512902754647,-0.10785911895951027,-1.7344621968362453
2.1083486938922987e9,2.3095914659233623,1.252459067783832,-0.11524029296349161,0.9516662239303078
2.1083486938922987e9,17.54498183959051,6.143642153830689,0.07546087071244297,-16.347163191151143
2.1083486938922987e9,3.644445642483795,2.1666084988240457,0.034867784523591766,-2.3958225717579658
2.1083486938922987e9,2.80701459560365,1.2946704888972502,-0.06577757771533191,-1.8309075561809178
2.1083486938922987e9,6.3956565393918945,1.182668082068164,-0.06210704204080775,-6.054358049930022
2.1083486938922987e9,12.357008811142371,2.3320936002713735,-0.017443210220510093,12.017075011688192
2.1083486938922987e9,10.813489269266803,2.58578413200081,-0.04145490543984328,-10.363249586589916
2.1083486938922987e9,2.841610287897281,0.911011388741985,-0.10607321892710622,-2.094503677244924
2.1083486938922987e9,3.362273058578879,1.583593126728329,0.05104316498954375,2.4388311603372657
2.1083486938922987e9,28.173447423566678,3.2801260137668162,0.06593650438314755,-27.93086026859137
2.1083486938922987e9,2.2504243965285333,1.0665361924862464,-0.06476263249192536,1.0373553971231209
2.1083486938922987e9,6.206013850904427,1.797016022156575,-0.0024137638069426197,5.695500453109845
2.1083486938922987e9,4.231728450552358,3.8630890584762874,-0.12178299630958553,0.35018196870327056
2.1083486938922987e9,10.44356736589068,1.5831504579397335,-0.12252923689738379,-10.183325117240798
2.1083486938922987e9,6.936464818829532,1.023585998050173,0.02789578940746398,-6.64976898969346
2.1083486938922987e9,10.541095964837432,1.9748659978703833,0.019068374202732667,10.216047901775553
2.1083486938922987e9,2.9817905827155897,1.600111913920053,-0.018068375679684577,-1.8664887837334507
2.1083486938922987e9,8.033180708981105,1.3378791542075392,-0.04031947073170958,7.739110796213153
2.1083486938922987e9,2.2379768896874848,1.4392466278660416,0.08901100784452935,-0.2873615272335487
2.1083486938922987e9,2.0357401436121476,0.609663717360471,0.03921052245532836,-0.9614574992567272
2.1083486938922987e9,3.7035598917064463,3.2883779605220282,0.06033361733945946,-0.22951256769158557
2.1083486938922987e9,6.624829986868152,2.9788981183838708,-0.0052773613780725285,5.671675273546027
2.1083486938922987e9,14.768953193015765,4.8683498786370905,-0.035657933622627196,13.840999468692083
2.1083486938922987e9,2.965673474793049,2.358639266279642,0.1328272565061921,-0.6064542806213394
2.1083486938922987e9,7.771465546272369,3.206981735610604,0.09004283485483378,-6.874316480650989
2.1083486938922987e9,4.701810048587529,1.456504682484189,-0.052593381973693974,4.139593661577529
2.1083486938922987e9,5.515085474261797,0.9831333231356233,0.13758795039216823,-5.155974797956312
2.1083486938922987e9,10.283700313616944,1.9240024693429447,0.053605551290208525,9.960081474918685
2.1083486938922987e9,17.381248776656737,4.520724299474143,0.044102836034320345,-16.69797310118593
2.1083486938922987e9,4.101869677791732,2.6333661196304803,0.050494154810493144,-2.653593408531067
2.1083486938922987e9,4.94298405836074,2.72967662145168,-0.01760375066307463,-3.7596591541483044
2.1083486938922987e9,4.699602873780644,2.907796416317207,0.13512170179321292,-3.281176496640284
2.1083486938922987e9,11.064412018331897,2.283218122265492,0.10592996523567708,-10.69346983274984
2.1083486938922987e9,20.569950593054063,6.261803485780275,-0.11663158681784558,19.52056534742299
2.1083486938922987e9,3.6494506053007774,2.38260855999001,-0.012202921562516178,-2.189727645849566
2.1083486938922987e9,67.54529998109571,8.041631716003154,0.04002918402770785,-67.04365366273458
2.1083486938922987e9,2.156380978275189,1.3114539751880345,-0.01698202084084638,0.2883902031947752
2.1083486938922987e9,5.083044970763023,1.7924293958186799,0.10943634704340442,-4.4458921068386426
2.1083486938922987e9,4.066587118657196,1.9708756883896188,0.04973960387260987,3.131085385333653
2.1083486938922987e9,1.8165086449313879,0.6459544916041294,0.055005865338001184,0.181137269951091
2.1083486938922987e9,63.04788582660129,7.688128349467328,0.08830395669630074,-62.554569633252214
2.1083486938922987e9,5.9563670139743765,1.233904362723183,-0.12100761563975301,-5.57624740212196
2.1083486938922987e9,3.41398376673407,2.266693440804988,-0.06218608790921717,1.914917439292342
2.1083486938922987e9,8.066275089962996,1.8394972147119857,0.07241208123469846,7.670018919038965
2.1083486938922987e9,7.481105292386525,0.974855323395609,0.13921309892339448,-7.221537447885253
2.1083486938922987e9,17.71742586336878,4.0490109064588005,0.0038177364361695687,-17.16584006776642
2.1083486938922987e9,48.91700901392419,6.604946243237318,-0.10397394836139114,-48.439560643282555
2.1083486938922987e9,8.99274402104359,2.4766202154248216,-0.14065347285655244,-8.477582429032333
2.1083486938922987e9,3.375346426656951,2.3115593464236146,-0.04024538870170665,-1.7892532242518744
2.1083486938922987e9,7.252690642363371,4.795404357700448,0.12886873575590369,5.171305575269889
2.1083486938922987e9,5.286977558494554,2.524772059127874,-0.06893459344410878,4.327389014082154
2.1083486938922987e9,10.360988436719357,3.321974845986936,-0.06331291233803994,9.667675309374719
2.1083486938922987e9,2.722621572139444,2.1269153045839033,-0.12832200455592851,-0.16069498826214693
2.1083486938922987e9,11.071448122316,1.0278249383565423,0.0791971423980499,10.893468554035614
2.1083486938922987e9,20.895319421212037,2.209409233321104,-0.02687520036089683,-20.70955219655176
2.1083486938922987e9,5.120280017830441,1.4218794855776025,0.016358240548625627,-4.620459771641069
2.1083486938922987e9,4.816304379508615,1.2159817353752382,0.060320283853975164,-4.343722788411281
2.1083486938922987e9,2.019649404078195,1.0270015617230148,0.11652617033066304,0.40504698880496093
2.1083486938922987e9,11.228784023366181,2.1558294371345195,-0.08666883133571812,-10.889622054918288
2.1083486938922987e9,4.883088454901056,1.020568241344665,-0.09525865198304316,-4.466241038756083
2.1083486938922987e9,18.553749254207304,2.001748720126116,0.04834668909967617,-18.368061028617706
2.1083486938922987e9,8.19439239158671,2.1934848044277993,-0.09527771330495627,7.712392828512166
2.1083486938922987e9,3.0394226322123052,0.8153248904756739,0.09044801489607587,2.391347804205103
2.1083486938922987e9,20.180720500452402,2.0859840507251826,-0.13518288524096167,-20.001131616709543
2.1083486938922987e9,4.453909927143645,0.7378642355284014,0.08856418184164676,4.054431686270163
2.1083486938922987e9,20.6916623303912,2.125502934133262,0.1051383941714518,-20.51266591874133
2.1083486938922987e9,9.042405549403592,0.9202778251465931,0.008529347239709191,-8.835808055778713
2.1083486938922987e9,7.64764010464094,2.8310659895821435,-0.09801531521686434,-6.9003802384090935
2.1083486938922987e9,4.135105185789185,0.509021784143434,0.12101013403574173,3.7388150759523655
2.1083486938922987e9,10.67591898901871,4.209897878077796,-0.08328053364687234,-9.664287887519794
2.1083486938922987e9,9.717821619305886,2.235149466579081,0.0634383562221946,-9.305349502601176
2.1083486938922987e9,3.203066346261625,0.7053155150293543,0.08394940803386765,-2.628403782451136
2.1083486938922987e9,9.210027710675618,1.1208528618489564,-0.09243159691854212,-8.984049509953119
2.1083486938922987e9,2.152125553660308,0.3762453181360648,-0.11646595552188145,-1.276679068678873
2.1083486938922987e9,13.807994678310836,2.7052829413066752,-0.05453622046661241,13.434752582325164
2.1083486938922987e9,6.441792678908067,1.9065354293279728,0.10869371962433319,-5.916366380977855
2.1083486938922987e9,3.5541407633447424,1.2656902420470317,-0.1335444205319459,2.8575340012851047
2.1083486938922987e9,2.4046562741969137,1.6644936597654025,0.07985475826734081,0.3985546074472369
2.1083486938922987e9,4.573233250001508,4.174756026526862,-0.1022650432446349,0.7929730403533157
2.1083486938922987e9,18.33552742836814,4.396021411648905,0.04498603436443324,17.720551006821903
2.1083486938922987e9,3.3231438588589435,2.229875505021191,0.04646497167318514,1.7950407374446435
2.1083486938922987e9,7.275606849260075,3.0262853595355077,0.03415264408416772,6.39752103931384
2.1083486938922987e9,5.82841143989559,1.7686999244164932,0.05576021591754142,5.2907807734110195
2.1083486938922987e9,6.695169917762075,1.77875347796812,-0.051488041977551184,-6.2299338020364114
2.1083486938922987e9,4.3539312495958695,0.40494609468798426,0.12148827948416636,-3.9914115909603187
2.1083486938922987e9,6.113363825530489,5.046733834090054,-0.016669406722099718,-3.0094529246916326
2.1083486938922987e9,10.976604634508341,2.243265663182005,-0.13631924752175875,10.610768842706625
2.1083486938922987e9,1.7727445579817764,-0.010716530347460222,0.002539300879843482,0.54395944672591
2.1083486938922987e9,8.169897314342704,1.851696366301346,0.05416610613520444,7.776175064308718
2.1083486938922987e9,4.924245647420601,1.523973466268485,0.08453333195604125,-4.367143699254555
2.1083486938922987e9,2.6478301603198013,1.3194863573477273,0.012388310039193053,1.5566620520674301
2.1083486938922987e9,2.6918197432275095,1.8458327090932107,0.11565314064466461,-0.9893479645857987
2.1083486938922987e9,3.2538913015811297,1.0550131045180422,0.08836407980068126,2.573001679964769
2.1083486938922987e9,3.8361684448210283,0.8004473802085671,-0.03296322199457275,-3.350787319191352
2.1083486938922987e9,3.2045533753545463,0.7277156278815173,0.005159850286526838,2.6254438825231525
2.1083486938922987e9,5.606784905693802,3.231422616027493,0.13569299572228508,-4.257807202088158
2.1083486938922987e9,3.4505790270900385,3.0005908406551196,-0.04678454937004802,0.23270440264524617
2.1083486938922987e9,3.366471074144308,2.713239411973148,-0.11727631921646353,1.0540851745551556
2.1083486938922987e9,6.2893014914242045,2.20057438732918,0.10315004624383883,5.6440708347540625
2.1083486938922987e9,2.1093217631827224,1.187601335169701,0.07503985366822195,-0.43197256116663696
2.1083486938922987e9,2.0681030614115117,1.1512735801830563,-0.09309838085113377,0.31039009580695825
2.1083486938922987e9,8.150076911332949,4.066514459109298,-0.13027636677596996,6.857377908986576
2.1083486938922987e9,3.9561460437721325,1.2658248198407827,-0.02501899292529982,3.346870627768863
2.1083486938922987e9,2.4543937044306956,1.6754702780276955,-0.06660759527792243,0.604814960087894
2.1083486938922987e9,8.080029412549612,1.004970816628374,0.0813687644774273,7.8373259466133955
2.1083486938922987e9,5.252882679144164,1.028117967798095,0.028099983070620463,-4.867067924325171
2.1083486938922987e9,10.16476086038456,1.984999162724819,-0.10324931194168548,-9.824707179161685
2.1083486938922987e9,12.908116728614775,4.305532576235711,0.13262934408986968,-12.050629281307431
2.1083486938922987e9,3.5942249528473194,1.7872721274898618,0.10683023201465133,-2.6203222243449127
2.1083486938922987e9,15.628783774600457,2.0524524216786646,0.09914142446850036,-15.400970171122799
2.1083486938922987e9,10.200864369258635,1.6563065454221522,-0.13449331605598477,9.922176372119093
2.1083486938922987e9,2.1900395479149415,1.2027652711644898,0.0853613929467885,0.7040825664695004
2.1083486938922987e9,7.15016763630096,1.172668802948167,0.0940538728868159,-6.8479404844590155
2.1083486938922987e9,2.6581142857369846,1.6286820112388336,-0.09051484644719347,-1.2482641662639786
2.1083486938922987e9,2.1412494831120625,1.2248699997371613,0.12672549864485366,-0.4711405146713386
2.1083486938922987e9,2.1088934468986538,0.6484853799185479,-0.03239572136691811,1.0859275774843822
2.1083486938922987e9,2.6735959921110117,2.0718728564127225,-0.08075034428390351,0.04824605362391177
2.1083486938922987e9,79.20725369032483,13.543998481441456,0.04169070330568938,-78.02243776047598
2.1083486938922987e9,4.625041559225252,3.8611851430381305,0.05897878972128984,1.905825312562874
2.1083486938922987e9,14.444447804765478,6.380913138645111,-0.12396824138840594,-12.8477251558666
2.1083486938922987e9,5.103326812131722,4.805663656301336,-0.06264465751328332,0.314653658348413
2.1083486938922987e9,22.438048261785212,4.709058571082297,-0.08922136076789898,-21.87318464753135
2.1083486938922987e9,18.215573396282643,4.312599547284556,-0.047556790085193375,-17.617029475928614
2.1083486938922987e9,14.857237130316605,5.217481874875021,-0.05760289118492499,-13.808166056455006
2.1083486938922987e9,3.720042632606766,1.419929557915909,-0.03634208217714613,-2.995761405040735
2.1083486938922987e9,2.1156367178092825,0.6270324674756991,0.025576901288344632,1.1115236086087685
2.1083486938922987e9,19.007260851500913,1.978784859491925,-0.12532212509526022,-18.828118860515687
2.1083486938922987e9,8.030145740910939,1.054157395392832,0.028543921178571456,-7.779753720682454
2.1083486938922987e9,3.9219316863917095,1.686351885769561,-0.018329091021306934,-3.113008098031082
2.1083486938922987e9,35.64086058854243,9.347652217498442,-0.09393159931750437,-34.35166529109125
2.1083486938922987e9,3.198731841860659,1.2037497060523181,0.13144525703086243,2.432896234864186
2.1083486938922987e9,44.46769735850841,5.659273886189614,0.008276751119451576,-44.073824985452305
2.1083486938922987e9,16.16126756278155,5.731152976841609,-0.07078088545589496,15.016285651318993
2.1083486938922987e9,4.149417372069206,2.2345017425837344,0.12173028804166561,-3.059940870489699
2.1083486938922987e9,4.467805019922573,2.1089339646069645,0.14068943273412046,3.5563008332239625
2.1083486938922987e9,4.641888630942879,4.216310442247865,0.12653087697278229,0.9524894528239438
2.1083486938922987e9,6.602994044920504,1.0361298237151844,-0.1393628045712879,-6.297613298565227
2.1083486938922987e9,1.9456112991760905,0.8056290560981608,0.11188439228921433,0.5265329411481625
2.1083486938922987e9,1.9543178111881991,0.9839771458947881,-0.06666264163559664,-0.009647776652870949
2.1083486938922987e9,1.9665670004838323,0.5729842791714426,-0.03285401300594766,-0.8314958213627798
2.1083486938922987e9,9.096736399256525,1.3245897155446744,-0.03616878796629995,8.840144621311854
2.1083486938922987e9,9.216871962933263,7.2053175676934105,-0.05489499426779741,5.494042589323309
2.1083486938922987e9,4.6880502103998865,3.112863870590207,-0.0926228523597006,-3.071270780886198
2.1083486938922987e9,1.840758950530748,0.6465956560235184,0.040327145222342514,-0.3493868870303997
2.1083486938922987e9,1.9908095546284814,0.010157969268314266,-0.057839008593255796,-1.0551132884412673
2.1083486938922987e9,2.139649441881386,1.2957438801162406,-0.09240027306794013,0.2097608750973488
2.1083486938922987e9,20.873807450346714,2.7668452442937075,-0.021526838754063752,-20.620701524618234
2.1083486938922987e9,6.56521155464274,2.794223612589048,-0.08029662898664387,5.695722914199542
2.1083486938922987e9,2.7885342971534914,2.107545686410374,0.07274701174413203,0.6944584093209902
2.1083486938922987e9,14.921684594506923,2.696251148733192,0.019284190451754554,-14.578748879955329
2.1083486938922987e9,4.149596043470899,1.9594449768003965,-0.13302440382236386,3.2427483896794613
2.1083486938922987e9,15.349661236387258,2.760458606601769,0.036830743407589926,15.004799290671228
2.1083486938922987e9,4.458148618887523,1.6732308745412807,-0.14034428932665657,3.7694934584004716
2.1083486938922987e9,7.696042624243202,4.086773483665024,-0.017774551706297752,-6.299240314243637
2.1083486938922987e9,2.061671061807481,0.6679674282512053,-0.06250889737694773,-0.9766215354673352
2.1083486938922987e9,8.315325273044673,2.5092261367591853,-0.04676051261801043,7.745942289321533
