672548.504201074,557.9426176984673,43.427801443168924,0.07277690834066795,556.2496464557547
672548.504201074,7.31061065143666,2.159173860067368,-0.27058203191423214,6.956547585018383
672548.504201074,355.87600102824695,27.459278644704327,-0.08402152318737793,354.8145893803588
672548.504201074,9.2810980972293,3.244326974951681,0.1823241891078318,-8.67546280378053
672548.504201074,120.02416153039997,4.898522934123463,0.2574520108719679,119.92256382850235
672548.504201074,229.04299172531753,25.44366182473175,-0.030439942776192726,-227.6246800710375
672548.504201074,27.83990242099141,12.575174488958842,-0.17274630479353217,-24.831010545212642
672548.504201074,176.85962812144072,34.09505739545034,-0.08141901480222265,173.54115438131385
672548.504201074,485.6050399042515,7.301886563563771,-0.4694361738515248,485.54958617560465
672548.504201074,15.374835074500261,4.034612258482166,-0.1841028588764083,14.824214523166518
672548.504201074,11.551204716466353,6.8440753381394455,-0.5234279431214385,-9.273551582628127
672548.504201074,31.827200738352673,14.356476445375684,0.715908560941779,28.39072979767972
672548.504201074,5.131858274066084,3.0875095934033445,0.31804955294607673,4.047946508704461
672548.504201074,15.3435162009456,11.857407746086558,0.35740968115632743,-9.715009102994255
672548.504201074,40.032779497751044,8.237530316405511,-0.42031215667962674,39.169805193446166
672548.504201074,59.34620241546955,35.41091471473762,0.30268156831414383,47.61964948076985
672548.504201074,302.6174750413231,23.794471542635158,-0.2637381386360743,301.6799190187945
672548.504201074,48.35997208051685,19.253556486830213,0.6460861178465942,-44.353734990019184
672548.504201074,16.584674060487977,8.306542005853714,0.22947136717146865,-14.34168362114358
672548.504201074,20.965978862844377,16.866773480734565,0.3136718945070179,-12.436623519635141
672548.504201074,56.11775766847327,25.63646368559137,-0.3171196124813192,-49.91550523821174
672548.504201074,53.92811581955483,32.84218164612072,0.1383459558157665,-42.77028657335324
672548.504201074,62.97184288422717,10.709622041391652,0.10413480439263148,-62.05183253142943
672548.504201074,16.217000501214798,9.041087259327156,-0.38795731121956417,13.445560908717177
672548.504201074,15.314255320477614,12.820528153850677,0.2909044465207216,-8.352222523365413
672548.504201074,27.474766098043624,17.89686143686538,-0.3782573751082982,-20.835206185918665
672548.504201074,78.59433887544904,16.43497373075475,0.38266237341752574,76.8537512672349
672548.504201074,10.28408291159202,9.028554905627331,0.37651017136366405,-4.877455313906052
672548.504201074,24.952031623778417,21.63692308976614,0.5244406835918677,12.403877455485281
672548.504201074,304.28818958935676,25.382965107840928,0.016821328366138505,-303.22712757196564
672548.504201074,11.990480899549425,11.763285588288463,-0.016583122578557,2.253939211822073
672548.504201074,274.0565307329236,16.91231973926115,0.3429228241759616,-273.53340135153377
672548.504201074,117.44139009078458,24.788204032116283,0.2307735772447205,114.79397006582609
672548.504201074,15.111473137775457,14.353709890190851,-0.19164296983639817,4.687715686107446
672548.504201074,377.69060870609695,17.355055958593162,0.2631731786969594,377.2911507707726
672548.504201074,175.08121968815837,22.290114556333688,0.4937761637922516,-173.65489983947612
672548.504201074,147.91938179549533,37.44101855034009,-0.12403071077169578,143.1012998880762
672548.504201074,7.161253540769057,6.549506459684988,0.27132970258197964,2.8280152407541546
672548.504201074,32.8080278539459,32.611753932653585,0.1736418770895772,3.5346595592196834
672548.504201074,7.7547490738994025,6.488630440136866,0.1271322836238444,4.207305336275518
672548.504201074,18.65621268404974,10.373980595930384,0.4439183903714089,-15.489399838927497
672548.504201074,48.65896689109048,19.813073683558073,0.13478424749936382,-44.43875308696772
672548.504201074,44.26298519383036,7.184392612794785,-0.3014898244599458,43.671377783852115
672548.504201074,91.79291807128632,8.706239115429064,-0.18476187708848435,91.37718995545524
672548.504201074,70.22083358055846,7.420226598317104,-0.003539840256734023,-69.82542134529061
672548.504201074,87.13625096662439,12.500920270327203,0.56621897754438,-86.23117993848084
672548.504201074,13.480854665873062,9.60850503522619,0.48954006786045,-9.426250401517173
672548.504201074,13.633235783549733,3.658175127996904,0.5073243123914066,-13.111417440709502
672548.504201074,2049.9419323248208,35.74335486603521,-0.1159628866936165,-2049.630212699781
672548.504201074,16.232458746322113,16.209686903405483,0.5307620591542688,-0.37527547334627587
672548.504201074,11.369721393995837,2.1779577068741793,0.06475454228394392,11.144803464087044
672548.504201074,16.946044156242724,15.559687280748655,-0.3888188241881749,-6.678108773620915
672548.504201074,38.30388103875487,20.697747115716485,0.4110871043866621,-32.22274580102169
672548.504201074,184.48469994318955,21.16754802859207,0.24444891116384004,183.26528160269604
672548.504201074,128.18556700268613,9.12902579623006,0.37246190190759015,127.85830250923584
672548.504201074,10.135833752565105,1.927180254372769,-0.24566935457974853,-9.931994829576439
672548.504201074,23.1817075237415,19.025597512891466,-0.3660683380407287,-13.227545863286764
672548.504201074,32.92514668417594,19.855741521490582,0.6817121859317442,-26.249454354358072
672548.504201074,16.091079733153883,3.0501305127441043,-0.1525511721319113,15.788605118044568
672548.504201074,1157.1855951043206,17.337024085440365,-0.3689100411625958,1157.0555201850873
672548.504201074,114.71300601699294,12.255792183665468,-0.3350903507511052,114.05455183578609
672548.504201074,14.11454105062495,12.077122951998668,0.02060520130975617,-7.2833178083536705
672548.504201074,9.224295030522399,8.96435331347478,0.09919472340782141,-2.0980756630496065
672548.504201074,129.8086700440018,22.46492895760369,-0.6196425657937095,127.84724322883432
672548.504201074,5.285557257443299,4.9530224146787685,-0.170945592148716,-1.7490668042259425
672548.504201074,396.5589603190482,17.82996019008575,0.14432646793927303,-396.1574995773964
672548.504201074,67.5751628459512,10.864661835659147,0.49065021743619097,-66.69186450997937
672548.504201074,63.55444277237389,5.469910361081799,-0.13269031735889747,-63.31598094184497
672548.504201074,193.77823791476976,5.769333119083942,0.2557809539061502,-193.6913488863596
672548.504201074,12.762379048184846,9.408835680548462,-0.04208834196388021,-8.604308878531468
672548.504201074,50.81036759971195,7.48026333523493,0.0629154825738129,50.25354644495422
672548.504201074,15.017183007560213,10.878041158825912,-0.6190102797216607,-10.319137798419138
672548.504201074,22.092069020068507,3.530495949381872,-0.37181079083626895,21.797721011023278
672548.504201074,34.530273458133024,33.51377793073041,0.040136846902541545,8.297507790678615
672548.504201074,28.124314021947942,6.654304648933427,-0.2747906048903189,-27.318593147662334
672548.504201074,65.48931741312029,18.31028446343451,0.14031028889538175,62.874861938035934
672548.504201074,102.49309486980879,14.585784505248096,0.2711619138440501,101.4480144220393
672548.504201074,29.070754267455477,12.169300851725582,-0.21640533793295938,-26.39420034379532
672548.504201074,22.181077881637293,11.376367211094262,0.16502083587283428,-19.03247292899808
672548.504201074,68.23629552076063,26.954088469058895,-0.06088528333193327,-62.684521269454685
672548.504201074,11.539800265729554,11.496895376869576,0.5814337190299336,-0.5780089068006087
672548.504201074,6.255910997109077,3.5638538342223534,-0.70852070410526,5.061337695078456
672548.504201074,970.7817491049896,25.032817686846997,0.5525246079055877,-970.4586240140059
672548.504201074,235.36162490315846,18.9842100095646,0.42388239188919724,234.59368777459758
672548.504201074,23.53927775645074,17.825211373388576,0.15879223881073948,15.36287715286325
672548.504201074,21.961369737692998,21.316482000781765,-0.11257767706009442,-5.251709696122959
672548.504201074,4.519207783465545,4.215588746978807,-0.23184394905701655,-1.5106526700356604
672548.504201074,73.56917907986097,7.255509553811234,-0.0007124863254048431,-73.20837017507824
672548.504201074,697.8126112432778,15.027361092141938,-0.28188750188390665,-697.6505021433043
672548.504201074,2464.1127720808063,28.793532315293056,-0.04487721509940025,-2463.944473357141
672548.504201074,251.51789871010362,20.875088190607347,-0.10813150994716228,-250.64946867040553
672548.504201074,13.888431355356337,13.867093976005444,-0.36206334781174243,-0.38067427673654247
672548.504201074,19.742696914148326,3.088266086195638,-0.4498180744639183,-19.486357543788948
672548.504201074,5.408670987318011,2.2382078122654443,0.2408454572966217,4.8856845685725645
672548.504201074,72.48817925228666,13.490187022574851,0.19719797947854448,71.21935039695464
672548.504201074,2.2899605249485115,1.3690620652853662,0.06925594837246773,1.7460138832646943
672548.504201074,428.08518360819335,18.488801100221444,0.449101974927229,-427.68513036900504
672548.504201074,16.158371466931513,9.75537119149436,-0.5111047906386348,12.858780885924356
672548.504201074,16.328700107535397,11.149713508857852,0.3431563152560126,11.91118601211643
672548.504201074,41.780839239665525,38.990865910699554,0.0917964572561061,-15.00087494497488
672548.504201074,14.609866691239155,14.566975971400012,-0.6563405775697888,0.7102150592520972
672548.504201074,41.97528538947838,16.418552035523238,-0.1932012522060274,-38.626444030752275
672548.504201074,30.592971082641093,12.360736069026512,0.3543992461838508,27.97678068093619
672548.504201074,8.270375468006888,6.874089770577099,-0.07698657220864824,-4.563315228567497
672548.504201074,15.311615976649929,5.916582636293809,0.20394638958001896,14.109635438033264
672548.504201074,157.69143429010495,16.375097664199142,0.5687407213848394,156.83687363483753
672548.504201074,106.7036706560788,19.349046768239194,-0.1362152248429888,104.93308791155278
672548.504201074,228.03640513423287,21.766739306954467,-0.21204210836190163,-226.99438305216074
672548.504201074,27.6493121402063,26.59799400836129,0.607520355441334,7.506388490824325
672548.504201074,117.03391858670128,8.598853295187013,0.14521139607504346,-116.71615358645369
672548.504201074,12.137446570725432,7.778172064990967,-0.45610274397871786,-9.28942363504124
672548.504201074,333.02389725026205,28.10910100994273,-0.4739342971451433,331.834678324987
672548.504201074,36.71105009467193,26.289650139801214,0.19163856701510085,-25.616450609710032
672548.504201074,52.7745007555314,11.57817319207599,-0.08071239970237859,-51.48563968368394
672548.504201074,411.1759183341352,21.746899047792773,0.2926628876890849,-410.59993463316385
672548.504201074,11.776131664612183,10.461384755001362,0.0564267704320554,5.377480321619446
672548.504201074,8.06045862854249,7.7403327723744955,-0.06950000112345726,-2.176507345476535
672548.504201074,22.9073984583369,3.091096213335164,0.3236915708401762,22.688610021233274
672548.504201074,5.642534842378996,5.565374210238561,0.12549083159656468,0.729954792008865
672548.504201074,12.92648071366536,12.52880865841067,0.1198139762433408,-3.12926100741246
672548.504201074,44.17802746266414,11.211252080481165,0.3773334654156274,-42.72642425169008
672548.504201074,51.922560852396984,18.619108809544688,-0.6266076062769061,48.46207020048439
672548.504201074,72.23664841941556,34.07617224782747,-0.6773420635759255,63.68809025347891
672548.504201074,25.1383320576126,18.22469603279061,0.11497318617345392,-17.305107538451168
672548.504201074,25.625527673481713,8.364088556796169,0.61805207547054,-24.207673894659393
672548.504201074,481.07825128080333,22.460695465959823,-0.31300680751953264,480.55320913913306
672548.504201074,40.685020016155775,15.831150887144378,0.19783581966993904,37.473859540907156
672548.504201074,8.009069038437502,7.9864545468304575,-0.14067272130342645,0.16035716095458408
672548.504201074,13.093001449877622,10.91302278085335,-0.29058068059393455,-7.20638301916141
672548.504201074,144.29870649594906,13.652449415838063,-0.26693439469139446,143.65006035494966
672548.504201074,123.96953045695753,20.736545195925423,-0.3700490627817184,-122.22105797016611
672548.504201074,29.998848904856263,22.891539838182403,-0.3641846510418298,-19.376776862857465
672548.504201074,10.96437671140345,9.706756721036477,-0.15018420027684676,-5.065337889409327
672548.504201074,21.82449739321448,14.779963571747684,0.3483016621184241,16.044432736501516
672548.504201074,256.98106060412346,26.426081997707037,0.07206238523800451,-255.61808676046965
672548.504201074,217.99679802730327,7.8214330501632015,0.12615288998791785,-217.85567927700842
672548.504201074,193.11789028520562,6.002300042071827,0.3754907326183978,-193.02340459572017
672548.504201074,11.073037069823107,6.805927963335977,0.15705403949238,-8.714964207382387
672548.504201074,7.936856059318458,6.275761761556957,0.44655861888487647,4.805502722727172
672548.504201074,278.9024070685301,22.556391598131707,0.32380962294236154,277.98802273950514
672548.504201074,18.792056705986845,7.578432548170539,0.2162756626973817,17.185626342711465
672548.504201074,8.5846565027211,8.323392103723528,-0.12398154392290008,-2.021354084239067
672548.504201074,68.06539208032915,17.544249659544068,-0.2792082239127227,-65.7624719600772
672548.504201074,10.949151161165135,9.925032370228616,0.2588156797560427,4.5819679880581194
672548.504201074,68.83152520548984,27.157184609913212,-0.201148788596228,-63.244837717727165
672548.504201074,65.03183020412247,9.204294147621198,-0.11908209851420755,-64.37460291912808
672548.504201074,270.1938294317355,22.89661452937158,-0.08474405090191284,269.22133477331374
672548.504201074,13.974506956391492,7.259498684757346,0.5037504335736672,-11.91706891901838
672548.504201074,195.6923941402713,7.4024047856227755,-0.5038746503506795,195.55088189695678
672548.504201074,56.742231248726455,16.24861109248077,-0.20564650696696105,54.36271632988138
672548.504201074,15.088021217597031,6.6842770941206435,-0.7025688493638942,-13.496628971832
672548.504201074,320.7484369267261,3.994085803580319,0.3963863115845656,-320.7228300573928
672548.504201074,1.212184916685714,0.5181345348897132,0.48536920761177055,-0.805678725061233
672548.504201074,33.46061942101478,23.135901242174697,-0.12676845313439059,-24.166315981326978
672548.504201074,88.07285940511606,15.102636923852781,-0.1468065204334369,86.76635950750092
672548.504201074,41.017763688998166,40.86147329639235,0.09050191500096036,-3.531645522672374
672548.504201074,33.454001167613995,8.525915476609404,0.4383474810014862,-32.341468480791804
672548.504201074,133.84564975220567,6.771662495174037,0.07505055116876552,133.67303649074506
672548.504201074,316.6689096648821,24.22465159822777,-0.09686732197364056,315.74046144359045
672548.504201074,13.587646559149228,9.75698197957266,0.3189928710849186,9.43437638715831
672548.504201074,17.36428314245474,17.2577373954725,-0.1746698330585643,-1.8281389688385858
672548.504201074,47.91200146267631,25.750938949314254,0.47958095523932676,40.396816732203995
672548.504201074,197.6619888641767,19.796633457186694,0.16804331848984946,-196.66725878891623
672548.504201074,47.27052269872269,11.624932124450254,-0.025211371323185742,-45.81535120785233
672548.504201074,211.9877424165713,15.963807318482818,-0.32535337769670214,-211.38480955014788
672548.504201074,49.42060622121357,18.809932208116862,0.06996995256336701,45.69750153349479
672548.504201074,41.30284729021105,15.895392265387638,0.37394121249156725,-38.11568757844029
672548.504201074,58.67562329115904,8.716393006868945,0.5188854564887009,-58.01954663765114
672548.504201074,172.3293219367576,16.834084836309938,0.281799892892274,171.50397414732595
672548.504201074,115.12054627773871,21.93470606501743,-0.7647562313367323,-113.00755623246002
672548.504201074,421.842848566411,17.925460030029996,-0.10536282974239224,421.46143292193364
672548.504201074,18.954751114714238,18.936137977475003,0.4651558462798451,-0.415536950439142
672548.504201074,7.988815790310111,7.521983426048154,-0.21748328851665075,2.622482924386733
672548.504201074,41.1955887545171,4.4693139738693874,0.0376487370693641,40.94855456065069
672548.504201074,95.14599179201618,11.212139409628378,-0.46954925811822207,-94.48021475440976
672548.504201074,10.696270592489514,9.373230371801025,0.45518017192729776,5.101895784481091
672548.504201074,40.822079594802055,31.280654384222803,-0.7369301874333282,26.21266011372607
672548.504201074,20.833664735551867,12.50555096782054,-0.1856484007900974,-16.652389875799308
672548.504201074,394.28082675119686,6.027807127251412,0.06935084123983196,-394.2343400160677
672548.504201074,8.168390576284187,7.916362604200314,0.4112978396710026,1.8890247251817607
672548.504201074,19.37205389003543,12.843430177704668,0.02341033173126953,-14.491583686573017
672548.504201074,8.950271884227405,6.316489849031167,0.2458089666447109,-6.311313123298022
672548.504201074,15.003047539027694,9.821820495404726,0.15590268311499725,-11.326197268610912
672548.504201074,62.31285824578539,19.24275640071609,0.2933426531536843,59.263870541415045
672548.504201074,94.70347335720894,12.106242895610507,-0.6290642449378768,93.92270651789973
672548.504201074,54.209746117087576,29.322910857296204,-0.44044298146776406,-45.588959798551514
672548.504201074,10.579519194333844,10.0910534044688,0.13555625627100326,-3.124462301347497
672548.504201074,2.036421402719786,1.4108362879927103,0.09636255013150039,1.3531592502692815
672548.504201074,13.178034016183425,6.889711783661659,-0.27950897096658334,11.21597518741145
672548.504201074,5.811876426242663,5.763760604413736,0.1401780366103348,-0.47020634480457346
672548.504201074,31.480631409245696,18.153961894552463,-0.15552375402023,-25.712320129027216
672548.504201074,116.8170103374164,18.943946845247766,0.6444320341434151,-115.26755511439275
672548.504201074,229.42378820394111,9.170479120291013,0.08262780109493999,-229.23973009013372
672548.504201074,671.1956213590805,7.657448463174015,-0.1419980819808206,-671.1516886842949
672548.504201074,10.77156856359898,7.304881016349882,0.11521328155748042,7.895308806928112
672548.504201074,31.458190073434572,18.67581156168263,-0.21060850785598959,-25.307532512376564
672548.504201074,219.50423881720513,24.722969762117362,-0.36639086633835827,218.10647664660223
672548.504201074,117.83436564262564,19.31985105712966,-0.014423421364388726,-116.23839574811309
672548.504201074,17.10602470253097,11.023134243746792,0.40710797102093116,-13.062336248450613
672548.504201074,28.576993520988225,5.667114265195949,0.173960483174367,-28.003247757248236
672548.504201074,36.10560439158456,23.062118762370744,-0.6463396797244846,27.76723544557597
672548.504201074,11.431787951177274,9.945347454935142,-0.1064327778828333,5.607876998009862
672548.504201074,15.142552986743555,14.33854710563345,0.23470455528674722,4.830286143419803
672548.504201074,53.99823604046888,19.94915186047302,0.14205151671985636,50.17473895792876
672548.504201074,228.35755372736708,11.345980111777596,0.18643599123124588,228.07474672543512
672548.504201074,604.0672121450382,3.8645835762073375,-0.4555542988561933,604.0544164438679
672548.504201074,264.9537661938524,17.64085773931479,0.49308916001572556,-264.36478395241653
672548.504201074,140.41861379437606,16.52966407713353,0.36159894055830605,-139.44070540640982
672548.504201074,134.74649624983635,8.035677153801387,0.2629303745946509,-134.50524444981642
672548.504201074,15.072663308776209,14.798820785931781,0.40780059332762364,-2.774446582906695
672548.504201074,11.776530268480634,2.379718019670989,0.47238901554743173,-11.51017934391132
672548.504201074,182.9652115918965,6.086839027313317,0.5015455305958018,-182.86238341497
672548.504201074,19.40252898469417,17.172243519993042,0.4068108973932695,-9.005024207931685
672548.504201074,107.99660383883709,15.44505331557974,0.24723235600381158,-106.88470151318889
672548.504201074,45.47236289874708,23.90357786428808,-0.1184852474564648,38.678475754961184
672548.504201074,336.73804031340705,8.081931244201423,0.3255286201847956,-336.6404134758555
672548.504201074,17.51740135337581,12.347140322004337,0.3487876270259078,-12.408448566800761
672548.504201074,85.00064168837108,21.506779379774756,0.2909378055781762,-82.23239420044601
672548.504201074,52.24895001760035,31.950250628365765,0.3067290148699149,41.33671434254867
672548.504201074,262.79176442999113,8.3186406624899,-0.5200682298645319,262.6589518204023
672548.504201074,367.8168243660845,21.985524232893727,0.6236843667287376,-367.1582054120081
672548.504201074,13.035209081339726,12.43679774845322,-0.29178687546765614,-3.852449944818816
672548.504201074,16.247393013824833,16.19863788159592,0.06479329447681692,-1.1231584729322315
672548.504201074,15.492695322494384,14.798398015060545,-0.01822483286915984,-4.551314645097333
672548.504201074,5.680900082576481,-0.17559368632284184,-0.2607594824891738,-5.6442510306994675
672548.504201074,60.767983214479344,4.841098327975336,-0.3168572032569372,-60.571403525480406
672548.504201074,912.8021835835708,22.603834525574484,0.18932923233482069,-912.5220769640135
672548.504201074,54.66603923885451,10.668244888759554,-0.5571240616810044,-53.60912032888669
672548.504201074,38.167672662603536,29.091594659154087,0.03368549589616599,24.700870319772452
672548.504201074,20.275282972240422,17.022701211085053,0.10893349357116743,10.999393127634058
672548.504201074,4.295834132502288,1.2600218312784564,0.3759490585826794,4.0507987834183
672548.504201074,42.93234147054163,5.668840070725828,0.4263557105073734,-42.55058389497796
672548.504201074,11.890510503363794,3.3734397468399355,-0.1588365727283173,-11.386952526814545
672548.504201074,32.901954234049136,32.573716591919684,-0.3716210212978402,4.58663822695976
672548.504201074,665.5808601338545,22.362162317158898,-0.04930149373044276,665.2048529701096
672548.504201074,16.776934672237203,7.506897734225454,0.1588006820092586,-14.992350661170786
672548.504201074,170.94737330838637,1.9069781003601327,-0.09846893281862144,-170.93578312345994
672548.504201074,161.83568402793108,18.911914888985812,-0.11112613473275103,-160.7258520699206
672548.504201074,386.60700908485944,32.262809451362614,-0.5485192809711277,-385.25767156416725
672548.504201074,52.550614326197696,27.14018319318511,0.14712834845461897,-44.99599591241344
672548.504201074,37.87315501093374,37.68916776411426,0.31698213092700606,-3.6723015479476007
672548.504201074,44.197672406483655,12.48848966886277,-0.2887210173213248,42.39188937421203
672548.504201074,162.59049701550325,1.34043174204364,-0.46045982749422737,-162.58334696960904
672548.504201074,12.141239788344084,8.692163527500737,-0.48814037370888014,-8.444020865945902
672548.504201074,147.85243154070886,10.971229385338592,0.4615419762457987,-147.44302082458213
672548.504201074,58.53016936482872,14.06794878368905,0.17996764845314314,-56.811309852354796
672548.504201074,112.89182846177158,10.22083011436884,0.12317248210769421,-112.42672354184589
672548.504201074,27.085948606390797,7.713495013940531,-0.25400129017192347,25.957077310865877
672548.504201074,88.29626791303404,24.910703900362755,-0.2665277372348637,84.7071454726444
672548.504201074,4.031710231324416,2.928333239766788,0.16849981084216178,-2.7083080031097033
672548.504201074,955.5895596260268,16.62888539847934,-0.4362781457233728,-955.4445981168387
672548.504201074,444.62450051491265,8.157045362446457,-0.5849743409036542,444.54892941802336
672548.504201074,26.061346939898364,13.908792393429547,-0.2924575361761985,-22.030377656033934
672548.504201074,7.965324578198764,6.806789693676241,0.4277874593470959,-4.0761231815862216
672548.504201074,140.97661480137458,18.43562022407437,0.6919155931041855,139.76315270206447
672548.504201074,63.41749468699851,14.335875602006155,0.12933411770329648,-61.77320089152743
672548.504201074,24.323025835686938,5.3056524325929315,0.32881639475878205,-23.728364681247456
672548.504201074,178.33485601075893,3.0975231702315567,0.15574810610367487,-178.30699855506288
672548.504201074,51.41213578145653,8.36067108912075,0.5257398389757357,-50.7219307082439
672548.504201074,143.0265636707008,13.182980326689012,0.585026187479683,142.41540809236494
672548.504201074,181.72962629686887,12.588996089270799,0.5874796409690766,-181.29123776877657
672548.504201074,56.884162073346886,38.3349086753024,0.40148421552121416,42.02100968167504
672548.504201074,5.23557239572852,3.4638273500515178,-0.35419400676021645,-3.869294199882418
672548.504201074,37.36682500540644,19.517717157702457,-0.36149317348142,-31.857360581533435
672548.504201074,63.43256692149942,62.95116530152363,-0.3463286915626542,-7.772075814598605
672548.504201074,324.89943900495007,32.15854100867,0.03275801512756251,-323.3035050930273
672548.504201074,11.65978146932251,11.628543431569645,0.17574335812874278,0.6167401756394344
672548.504201074,252.281604723308,16.747869144646202,-0.25127722593913443,-251.72432856844938
672548.504201074,25.29493880485068,16.886850786223654,0.6290419573473075,18.81372580007942
672548.504201074,22.387137774299227,22.04186702974614,0.19940556247706018,3.870923092728364
672548.504201074,1.4862675743973872,0.9187416752024704,0.21006893698213425,1.002271758748817
672548.504201074,246.99251932437247,21.03129313940108,0.05365620952708455,246.09483985792141
672548.504201074,26.307806272678224,11.424530013026951,0.2781523929436126,23.689389791808317
672548.504201074,177.72334160033276,23.025643010884277,-0.14786867031952883,-176.22448133270228
672548.504201074,40.94307034688542,30.72088178495475,0.5579332291613569,-27.054295682873732
672548.504201074,22.94553124984042,21.399210591134807,0.2406348272147357,-8.258150997246148
672548.504201074,30.240247330271576,23.291388061004017,-0.3482747480279411,-19.27553574060451
672548.504201074,62.61955084636913,9.98498044139938,-0.046551074425949385,-61.815774033680654
672548.504201074,11.348351856882923,8.405902727267536,0.276389074966351,-7.598241302189117
672548.504201074,24.56343528363201,13.45187095059164,0.5867761073546446,20.536528120920625
672548.504201074,123.2205914085786,11.726214188292595,-0.32319206323028565,122.65964848873541
672548.504201074,526.2809385062935,9.835887782065033,0.41993912586868626,526.1885488779989
672548.504201074,35.07971190092351,23.874670604714403,0.5399285783714916,25.69004749505453
672548.504201074,180.0132431851726,14.61181523040056,-0.7168190007330655,-179.41692373027865
672548.504201074,7.07816064208072,2.942410779048427,0.59405360951786,-6.385409132638095
672548.504201074,25.641160202370358,5.084443917392775,0.12298491122542256,25.12540892972369
672548.504201074,22.20488063332415,8.062952256076144,-0.1492807046735274,-20.68107861614917
672548.504201074,10.749546531551932,3.305138710857376,0.03959197981829228,-10.213276350458997
672548.504201074,162.04646070983816,7.635344875700268,-0.0022401462105548506,-161.86550189832207
672548.504201074,51.375656400639215,16.242155959224895,-0.4347297791465981,-48.73546165793035
672548.504201074,30.97069254213979,16.92946192188557,-0.2690371238145907,-25.926598450257767
672548.504201074,12.842193776539196,6.388540373424056,0.14124110715877583,11.1253007348422
672548.504201074,22.69661146223466,12.30089818153798,0.4637993929990872,19.060239728761285
672548.504201074,482.18129558008957,18.98666417160439,0.5880685525019395,481.8066482925549
672548.504201074,81.89002373234143,16.89119964492292,0.152014281364565,80.1269244742164
672548.504201074,26.156058608264008,8.418495710827099,-0.534678139828954,24.752095341046083
672548.504201074,153.01042928005953,26.29758445797367,-0.19013153069876687,-150.73246545699632
672548.504201074,139.9427658807727,19.459321414920666,0.19786293197174193,138.58195104446838
672548.504201074,385.046880132291,32.92918504881313,0.3205370218267806,383.6356991994478
672548.504201074,6.092542443003843,4.332384504751285,-0.16593640164775642,4.243318940772824
672548.504201074,43.57715822258102,2.8398459329849377,0.13022892570620584,43.480694645548084
672548.504201074,40.63196491628031,6.952302613461423,0.41239528572446715,40.02668814749384
672548.504201074,196.46975281406262,15.578650533211299,-0.2292996662689853,195.85019941946885
672548.504201074,13.75685607884638,6.093284709824397,0.3867077761370239,12.314917795694251
672548.504201074,59.8218258981462,4.508261658971284,-0.10542675630040503,59.64896552666394
672548.504201074,10.949432349727804,2.398470634592097,0.6792516166163401,10.647055801361624
672548.504201074,26.773729024961177,18.552352449588547,-0.030938288113882512,19.295740460276253
672548.504201074,244.93189136077407,10.335450606716183,0.49220626274160273,244.71258932044503
672548.504201074,29.30774730401308,25.081845629996366,0.11612514419910468,15.149764334124882
672548.504201074,42.985084765570235,4.272722882288893,-0.02670713754764879,42.76849787873016
672548.504201074,130.2386290437401,13.3291728303913,0.4550542243213614,-129.55273190906914
672548.504201074,12.226617313588093,4.7041413867874295,-0.43690236504781865,11.262953150447732
672548.504201074,61.22628809400454,12.575787715361823,-0.5253153980877764,-59.91590551298084
672548.504201074,6.517589617290771,5.99352904322215,0.38136772237771177,-2.4687882224922615
672548.504201074,6.773138749337181,6.746707089899676,0.09287794240941552,0.18027270565189102
672548.504201074,3.10867268480437,1.9663486238626406,0.3201945424018305,2.319173776459494
672548.504201074,826.6952937410019,40.32158187936263,-0.18677844068728086,825.7111647632489
672548.504201074,363.56306985373215,22.833813114370905,0.06234124103802649,362.84487405266884
672548.504201074,13.734339240110238,4.381603934711807,-0.07599612957518231,-13.00429231099325
672548.504201074,35.81842084741771,8.508844028168188,-0.14884845806218333,34.78822303658649
672548.504201074,41.19827215640251,6.667180185120489,-0.236059132870824,40.65063819594539
672548.504201074,1.8200757208880183,0.7739117899209089,0.4556304661113109,1.4798343316931268
672548.504201074,36.12630559267958,8.341601875384749,0.33053170462696,-35.144020192917665
672548.504201074,13.437608978742562,13.029865302003524,-0.43898265400358477,-3.20671359906529
672548.504201074,85.3909142202888,16.49928584877787,-0.2447383888409312,-83.7795062863096
672548.504201074,10.024085816072537,9.263289573850253,-0.04950238266972208,3.7888104772887212
672548.504201074,11.294402696400503,9.00576666108352,-0.39797664879389727,-6.781230441542988
672548.504201074,102.66730997623606,2.2936381600379168,-0.33378816246009974,102.63960307702712
672548.504201074,296.4601672139826,22.897739553171686,-0.13365495315013515,-295.5740011855759
672548.504201074,9.766761913820737,8.677794020452376,-0.36744037307087785,4.43105962404218
672548.504201074,1.8293513827780152,1.5646700971672147,0.7359026740584015,0.2013797972371324
672548.504201074,16.6464059199485,14.420726310840752,-0.28935068086351884,-8.291292510985517
672548.504201074,61.28591613457803,16.246519647897713,-0.1937385156803323,-59.09027292010308
672548.504201074,155.83064079237133,17.988554957593006,0.14862205199759965,-154.78779727221422
672548.504201074,99.85546960060314,19.0338496093215,-0.26653136574032804,-98.02265101412787
672548.504201074,13.861470960146772,5.5212267902704975,0.5368130012732367,12.690627892692097
672548.504201074,45.46870564474817,18.112012728736083,0.4783680720195439,41.69907822134979
672548.504201074,102.90098601778948,2.732207474752985,-0.08085157887821931,102.86313820494743
672548.504201074,45.94332296957781,18.37803818756716,-0.5021366573562769,-42.10069202804531
672548.504201074,57.331880320094655,13.798519797034388,-0.16544193792499493,55.64352391800324
672548.504201074,14.38095045627009,10.51597633069913,-0.20825583855659974,-9.791137826795037
672548.504201074,712.831595489749,37.357966573208174,0.40834260309419484,711.851657925227
672548.504201074,5.386404369096665,3.373547100714661,0.4023689391440933,4.141787515459287
672548.504201074,32.89471661953483,15.76076437245188,0.12180760430495081,-28.867449201181685
672548.504201074,22.099151533276945,6.32654424817113,-0.32028593014949186,21.16432200400799
672548.504201074,264.96634403393307,24.091911794365355,-0.6345992323313818,-263.8674370080839
672548.504201074,24.67055726537121,23.99128468336573,0.4085732678599313,-5.707144251740147
672548.504201074,25.73449673069983,25.70037627201787,-0.5636057024438008,-1.0588213593391125
672548.504201074,11.979262954744296,8.650068802515673,-0.21313452469208172,8.265433861858526
672548.504201074,25.53032576584763,13.094269606631125,-0.08211834360017387,21.909237009912584
672548.504201074,96.69731822867493,8.39163101116812,-0.374239613453735,-96.33013858030864
672548.504201074,602.6842365015186,14.773969628115735,-0.5142741243294797,602.5026456735029
672548.504201074,15.09306619804191,9.067223195431021,-0.24560877197447226,-12.050292930612148
672548.504201074,145.3161255581721,16.49196337469624,-0.2390726453793587,144.3759609774289
672548.504201074,686.6347516792811,23.438909322710572,0.48113930070889493,-686.2341816180558
672548.504201074,14.480178919585102,11.367658582538164,-0.3496341863614083,8.945023668470057
672548.504201074,10.090389452879819,6.368188463600598,0.4899657229084351,-7.791395330295234
672548.504201074,20.092292928115917,16.649484101616956,-0.3781134191726309,11.226563013726937
672548.504201074,3.263607457905115,2.7715184346371196,0.13389233368913503,1.6234730205515522
672548.504201074,8.56910225908568,7.619590690646905,0.5611214836194008,-3.8393054728705938
672548.504201074,68.90062679116167,22.0377422037178,0.06482215163139729,65.27873973558158
672548.504201074,346.15692444581464,20.39599097761577,-0.6679995167366315,345.55442037842863
672548.504201074,29.908194812906135,28.786734325709897,0.5597345262148489,-8.07431196372937
672548.504201074,451.7838567992841,22.39502817706195,-0.04199798534135441,-451.2280997302291
672548.504201074,43.621147423762956,6.33261443539957,-0.18182321088290263,-43.15499055610988
672548.504201074,8.74547199946831,8.562299851012995,0.4893226222515598,1.6169841452218687
672548.504201074,5.995682281768925,5.6927429589205225,0.006909971959919418,-1.7957194880006067
672548.504201074,230.7281951876716,20.51574542599515,0.4381020786858607,-229.8131764789487
672548.504201074,56.67186671319931,18.34431590819615,-0.2367866320631796,-53.61729436767136
672548.504201074,221.32234703280776,15.94136289231982,0.6736126612938604,-220.74574574344174
672548.504201074,116.31496192409804,19.33952132839397,-0.22368621725638038,-114.69431990848065
672548.504201074,72.52782733303793,17.82135906057514,0.13003649576010387,70.3018617249537
672548.504201074,26.426498252158652,8.994567706576317,-0.322999791370894,-24.840229575783958
672548.504201074,244.94125726060616,33.512417279909144,0.09298579632520002,242.63720350083392
672548.504201074,77.83351404780394,19.595250070068122,-0.6278240850904322,-75.32178763969353
672548.504201074,17.02601055116635,9.493459830877946,0.29937161748636204,-14.11925653008322
672548.504201074,65.11376112507907,20.734460679833518,0.4936190636256094,61.71972246365048
672548.504201074,59.04949364755976,19.867667459866155,-0.13630437970932147,55.60380997245751
672548.504201074,9.593575353936348,8.079881065801477,0.03929683958827632,-5.141443220757678
672548.504201074,6.397416506955926,5.957838781107229,0.10024552984314417,2.2593845301923174
672548.504201074,39.84501397218776,13.580789578989263,-0.05424879737263252,37.454881157504126
672548.504201074,28.294141537194527,8.951046767039784,-0.17188062065707665,-26.834519499201477
672548.504201074,7.6296884600974515,4.752481885835044,-0.2178351524045164,-5.938213735547915
672548.504201074,14.784792295368659,13.194187638485214,-0.47507373731138686,6.630352428149836
672548.504201074,3.6855497579290337,2.5608032370280043,-0.5026034650611433,2.541008885467579
672548.504201074,221.99857446880065,20.56136687247996,-0.41433614971660726,221.0432296105666
672548.504201074,271.53569505756707,16.063688123813005,0.05490402900566898,271.059536582656
672548.504201074,15.908285377506704,13.337174330492541,-0.1529177935472221,8.651804047618056
672548.504201074,304.24090371090904,39.325392518279855,0.20924828731520084,301.6880524347423
672548.504201074,279.03123977935854,26.31362063092452,0.14714531133955014,277.7871276048528
672548.504201074,709.5803984298685,15.386324774071397,0.5440785712410264,-709.4131311139835
672548.504201074,28.915613207551228,21.44163355354794,0.07269984243003923,-19.39194484977481
672548.504201074,91.38652270533264,20.320482748082902,0.2352846576223102,-89.09659323894911
672548.504201074,24.42207445195821,8.19328138680749,0.06814045148667926,22.99971717504748
672548.504201074,334.53591141558354,12.170779204747584,-0.030804806585194373,-334.3139706680953
672548.504201074,21.014789572387922,16.505437053299374,0.1282414421128662,-12.99458561030555
672548.504201074,199.17950855836858,15.104629150423166,-0.2051226914887587,198.6050565948978
672548.504201074,52.20183319674868,19.6175365837548,0.11188494008817583,-48.37204669895739
672548.504201074,55.08329057262867,18.3759766396996,0.21523384417639777,-51.92427014256336
672548.504201074,1.4993791716288978,0.3376561401043098,0.12904739101826468,-1.342104914660101
672548.504201074,39.07273157310719,17.666665183145497,0.5421747636494666,-34.84188733430068
672548.504201074,1.74661995450966,0.959475516926748,0.30489181125669973,1.311831384384855
672548.504201074,507.9903510468097,19.275674741058047,-0.3742393415603265,-507.62406250832197
672548.504201074,85.2843345760228,7.658286008638294,0.2555322634045263,-84.93754679378834
672548.504201074,177.0064289881826,13.665428081177895,-0.07934399844058733,176.4772207839763
672548.504201074,83.86749052374213,25.491839404560686,-0.10091024244218502,79.89740721853717
672548.504201074,262.8692677487682,17.69775482829194,0.20030365923226637,262.2721583619868
672548.504201074,426.6298578724236,12.252821773443868,0.08081220422988697,-426.4534924570555
672548.504201074,50.211601664952894,2.867093655185972,0.03487217481288375,50.12651266808248
672548.504201074,117.97920273139714,4.213770665551668,-0.5477770041866642,-117.90131520414712
672548.504201074,26.687899357678972,10.17645748894648,-0.4899094184062186,-24.660240194749576
672548.504201074,84.65507811697225,17.149040835530474,-0.5898842538982827,-82.89588927431025
672548.504201074,77.23914222023723,10.646719970440824,0.5903824954760678,-76.4975010434838
672548.504201074,75.69935650356071,18.91086811501652,0.013253916459559175,-73.29703431328616
672548.504201074,46.12041073591305,4.494545208887982,0.06856249526008706,45.89739013929386
672548.504201074,256.694185694889,8.906634839444145,-0.2830660758244555,-256.53884787999533
672548.504201074,197.76671903666028,2.607180493204095,-0.10599689983029,197.7487049405333
672548.504201074,60.460720541895064,16.015504885410795,-0.3296493250126452,58.29731928341775
672548.504201074,61.11748831183103,4.971606987452012,-0.15098642236290258,-60.91216198107815
672548.504201074,15.73434939966245,13.038622307106923,-0.29699986865338823,-8.784056183848708
672548.504201074,293.60700925921276,29.55650825296256,-0.5184642779001355,-292.1145386204257
672548.504201074,104.9841772249619,25.575908325951172,0.15456724414630757,-101.8194984395008
672548.504201074,460.01742928542586,58.041021412019504,-0.3953259160605712,456.3406650407578
672548.504201074,44.812564609777894,13.961555114888313,0.18495939151202162,42.578051720371896
672548.504201074,14.740274386835098,7.878397774432558,0.2350873592375268,-12.443273043707139
672548.504201074,24.13436155823896,7.1318027263064145,-0.03772307425924474,23.049666966492985
672548.504201074,47.9342935625797,24.001019000429554,0.6150906105339645,-41.48437082113143
672548.504201074,22.12264717824572,8.565546283945622,-0.19968680815458156,-20.388399466586307
672548.504201074,372.327548815229,19.073046553753265,-0.4682176120330405,-371.8379849434194
672548.504201074,62.93335945159199,29.2079677012209,-0.14834108340972274,-55.74194221724258
672548.504201074,946.7076152143056,32.692969760130026,-0.5046939564158056,-946.1426464807677
672548.504201074,59.605156971954735,10.500857175822148,-0.2863481417241949,-58.669485369873485
672548.504201074,124.44847509215438,0.269466932904569,-0.19122804770522636,124.44676590722688
672548.504201074,242.85160580935442,17.845262379115795,0.10702242311878511,242.19438757659776
672548.504201074,35.76840734080814,12.097858996951592,-0.464705320851488,-33.652467858276694
672548.504201074,41.60501364570108,12.781136592688446,0.15112229148541723,-39.58889544443933
672548.504201074,1484.9778650898181,10.033116873711862,-0.4533114198892425,-1484.9437951161212
672548.504201074,313.00881215521326,11.276658380672572,-0.20385377290130283,312.80504420297024
672548.504201074,2.943151832202568,0.9651628298975862,0.12715341487593423,-2.719964710797881
672548.504201074,1594.0628349898325,29.346069627965086,0.12454460966310472,-1593.7925832285873
672548.504201074,83.08606171622667,14.455826145129882,0.25965537501978814,81.81649646410158
672548.504201074,8.682148979254078,4.002473113517881,0.06772820991452065,-7.6836908685103875
672548.504201074,309.8498509539669,29.213988995656898,-0.043976290104485505,308.4690500225959
672548.504201074,317.754293218929,30.763877269647775,0.6128709995986732,316.260466824636
672548.504201074,6.769015601044047,4.720840030097666,0.1926907455678936,4.814549251352265
672548.504201074,4.224319471238633,4.164470174656083,-0.297383964333305,0.3120873867399773
672548.504201074,71.0765230018641,7.023016959779378,-0.22095469480180935,70.72612181110831
672548.504201074,717.8139241718823,14.761727856064173,0.4468662196960013,717.6617623985004
672548.504201074,12.790750095438625,10.59523831068881,-0.09952070297852217,7.142694265686654
672548.504201074,37.82708510419192,4.366439011537521,0.06752885065327242,37.56995861446151
672548.504201074,166.68085260244192,11.207349866547817,0.3443678008142729,166.3023364738549
672548.504201074,16.436647321455006,4.3891655743873645,0.10204906273492742,15.829464909434598
672548.504201074,135.21944716078238,12.697516505076472,0.4851848086575269,134.61991061270282
672548.504201074,27.9028445626057,17.980070942446883,0.15889400042890492,-21.329423547903456
672548.504201074,6.359776901332269,5.053117160532422,0.2999873737619364,-3.8087464305141996
672548.504201074,24.522161029386147,11.033080692943146,-0.26599020795750317,-21.891106271340874
672548.504201074,137.6678476905917,22.882110125434888,0.4357448391996343,135.75101923375104
672548.504201074,96.85077611945636,10.839917423932047,0.22874860440889114,-96.24032664044265
672548.504201074,79.28109687877655,13.853843465286571,-0.22830715344102614,-78.05892000267937
672548.504201074,73.76265272570576,11.906180213521287,0.26383327451998945,-72.79276045362751
672548.504201074,83.26547525395083,13.800492878173692,-0.4560326929965333,-82.11066661748895
672548.504201074,111.49270901946616,16.67662901171213,-0.6915290113370024,-110.23483918222624
672548.504201074,24.13938263134731,4.585254041175077,-0.3692856463696277,23.690349088005952
672548.504201074,564.1401866537935,30.107465440634485,-0.11834968672104354,563.3359215321435
672548.504201074,230.4966103090378,16.46236764260796,0.278844526811965,229.90712001563944
672548.504201074,285.75769474069676,17.400340523963713,0.37852833493337956,-285.2266269864486
672548.504201074,431.83278014178364,11.853748689819193,0.4938060056154283,431.66940889436324
672548.504201074,9.908987443192979,3.4470573668074036,-0.31877459101678757,9.267576976704103
672548.504201074,31.42660236337363,26.524927525665788,-0.05121325630870145,-16.84460464557942
672548.504201074,11.16995754415617,10.167636755493605,0.20325066350880794,4.585801578141927
672548.504201074,12.10337317814107,2.536458690898183,-0.1406898555674693,11.820406023608967
672548.504201074,214.41837070145633,5.696168513973397,0.6795127456771951,214.3408812932235
672548.504201074,27.482569040396108,5.8729292949753,-0.5630593555106564,26.83592814340973
672548.504201074,226.25860818312051,11.014899996018103,-0.4120411105542975,225.98925582815548
672548.504201074,549.4268189048289,11.543458514514747,0.055298601082985434,-549.3052508506247
672548.504201074,9.756716658728731,9.147061331737563,0.4224156486808425,3.321163436450344
672548.504201074,897.9047599051235,12.173804940324086,-0.5778419279918136,897.8218677470817
672548.504201074,88.42936632069149,16.268005114621598,-0.3859907664752868,-86.91742990446511
672548.504201074,154.43300713364135,1.064796870532454,0.3351235561455548,154.42794878118949
672548.504201074,62.488283434290956,7.410737585204526,0.027016651005837958,-62.04473851752303
672548.504201074,14.724336844238575,11.580477242427282,0.3037364680488475,-9.071392346157328
672548.504201074,72.86079321850403,12.24108790280285,-0.12197266582112107,71.82283655393991
672548.504201074,19.875600296589184,8.652845387391187,0.445259189983105,-17.87884981493871
672548.504201074,9.258752495340927,9.236191364138369,0.16780103908077235,0.26996715726187237
672548.504201074,11.192510523785218,6.914595985693452,0.26728697463870205,-8.779122077553222
672548.504201074,34.24614676647461,29.628233483747042,-0.4554948813877471,-17.159331164012162
672548.504201074,1064.6387938303867,34.82029052018828,0.03224855638604046,-1064.0690726777755
672548.504201074,311.5611143079219,23.560259820391913,0.24876209939512356,-310.6684148670528
672548.504201074,11.26923677657977,9.835108487802216,-0.5195831172293608,5.447948654657826
672548.504201074,35.93015251550426,14.130910779507909,0.054307300991625264,33.02989621003617
672548.504201074,351.48848091373384,58.604648474017345,0.17973584520034278,346.56788492286296
672548.504201074,12.995903767617301,12.884415914176863,-0.4741702035644373,-1.531103035542121
672548.504201074,17.380993367856423,10.061233960841932,0.21730413053567668,-14.160051311815261
672548.504201074,7.396448402478002,7.034279043299549,0.3837272192970223,-2.1824054005628204
672548.504201074,28.94781483933195,19.177142821367116,-0.4682595075201666,-21.672048422206668
672548.504201074,43.19876150720741,19.35023164630042,0.05301984927213662,-38.61842167264737
672548.504201074,129.04000929601457,35.29839168679155,-0.23588455475575992,-124.1167824047897
672548.504201074,73.34365014297263,6.380820140987932,0.25040759759547265,73.06296749556452
672548.504201074,35.844205136043264,21.61877654009596,-0.3292388369499523,-28.58340282632755
672548.504201074,46.668250392303484,27.829553545857134,0.03312596628662594,37.4582997396716
672548.504201074,3.116156359062431,3.019353855653126,0.04700779398980638,-0.5248767622033246
672548.504201074,66.91542053141043,9.233745912316,-0.5746653657713444,66.27039288882624
672548.504201074,1704.998071579023,20.43222065459185,-0.1991781717044452,-1704.8755357937323
672548.504201074,134.14979949735033,13.119315157686858,-0.1601366472401193,133.5054695652074
672548.504201074,212.34879078851918,21.730149851547058,0.2777515558014156,211.23308491675388
672548.504201074,230.66427577474076,22.29301260761807,0.21468712873633392,-229.58368275990063
672548.504201074,48.28083363607353,22.41387655915686,0.5371402727996817,42.755728120476945
672548.504201074,153.74139026774097,31.314663879234896,0.3898831981602046,-150.51690493522608
672548.504201074,25.027974477989478,8.616717783350037,0.1495251665470514,-23.49070232958734
672548.504201074,42.10816312337322,14.412770807727794,0.14342663043905074,39.56049343309455
672548.504201074,56.288616196487936,9.544281113436265,-0.3669865571130127,55.4694880525307
672548.504201074,25.783003377352465,25.551717747580142,-0.6733037423164311,3.3321791630806397
672548.504201074,31.113594312298712,19.619309624038262,0.23082837730295647,-24.14060752687009
672548.504201074,60.44110391229802,14.641892905372822,0.42684489458750846,58.63653801445378
672548.504201074,78.01598203923001,9.269161856092468,0.39205893534074354,77.46035214496484
672548.504201074,20.390739423132175,6.247190413698999,0.381211588304839,-19.398281276487488
672548.504201074,100.79161115428444,6.08296157856095,0.3720841043639667,100.60562500938615
672548.504201074,1.40538749448436,1.200003926953372,-0.07314489596375992,-0.46208982769907886
672548.504201074,118.64377727913546,4.509378970095094,0.06575637998508428,-118.55669882829636
672548.504201074,6.240865025763276,6.082541079168651,0.014322486164630681,-1.2785373503070594
672548.504201074,711.4159776165529,34.677940928283206,-0.15362410498777412,710.5700484775055
672548.504201074,19.888300285041257,13.50357236379109,0.1544617633833511,-14.589651668466974
672548.504201074,371.19044129168225,10.672008825108133,0.5873681840855612,-371.0361043148856
672548.504201074,36.37617926526432,9.949329174624019,0.27041543218113706,-34.98353777146299
672548.504201074,12.311104134982912,6.609207210333878,0.19180126504945566,10.369602207785434
672548.504201074,5.093237099601992,0.16165992672740467,0.14684644299893262,-5.057384595099542
672548.504201074,75.66349792891722,8.245176100630001,0.25843454949141653,-75.21036480494035
672548.504201074,18.79032923124994,15.869037970069336,0.03466673338382201,10.046525635291996
672548.504201074,24.267633464496654,21.59606963266231,-0.03700150567940512,11.054872856648114
672548.504201074,15.402697814710393,8.52511227621741,0.0018112700994188165,12.815979477519111
672548.504201074,224.32317944372238,16.637951279853546,0.3636346555674095,223.70431143674165
672548.504201074,11.938125628625766,6.601011469979607,0.37745034349379614,9.924051336826327
672548.504201074,22.362846316761235,19.413022868914872,-0.039077574303121254,-11.086644398598498
672548.504201074,93.6742996007527,20.837288675859764,0.11812776395320954,91.32552559258318
672548.504201074,26.912086893710008,5.40985755106228,-0.501347681495441,26.35196928796387
672548.504201074,2.1340292336909488,1.2584793415785958,0.05648111519926393,1.628156319403125
672548.504201074,26.121233320944356,25.98641862579041,-0.39498916878186513,2.5598111978524805
672548.504201074,52.47524428998871,15.885693332856214,-0.08723851598318466,50.0097207817589
672548.504201074,66.77429244740009,12.642746980968502,0.25882992287016837,-65.56358638983127
672548.504201074,53.05880081036008,36.10343349387933,0.6929100123621074,38.87135296977694
672548.504201074,62.00252561809516,4.096530022312205,-0.30603321238984105,61.86373526607872
672548.504201074,16.63854456471604,12.569776938190094,-0.4929904891684106,10.875780704551502
672548.504201074,77.4986539154845,26.12223877377621,-0.26744907070265256,-72.96082677541534
672548.504201074,23.748146990800755,10.793590407137343,0.2968243127137065,-21.143995827343822
672548.504201074,9.327389510734005,9.204615536848499,-0.5573221365357652,1.2839051910496135
672548.504201074,106.45282428749661,18.629641920667986,0.033910427752446154,-104.8085056823869
672548.504201074,25.04860187717665,7.515367933182549,0.17857465580203208,-23.887310114833213
672548.504201074,102.3295336862009,21.248525858219594,0.5428875203928486,-100.09606715065195
672548.504201074,66.11115326186908,20.61012186001698,0.29334407408218627,62.813256438299014
672548.504201074,17.858088452753424,9.641782901548,-0.06018901555940515,-15.020901955205845
672548.504201074,25.728726574773233,18.726673904092422,-0.16222086338174713,-17.63339197773443
672548.504201074,48.27108086693827,5.893240768446572,0.13640794469289147,47.90649357634053
672548.504201074,8.144891220330738,6.519941189606417,0.23892787787280267,-4.843171062845968
672548.504201074,34.3447774831199,18.542576598480885,0.14843535323579404,-28.90325817274097
672548.504201074,115.10081282609396,20.708319920557162,0.07579367431650763,113.2212021982368
672548.504201074,13.763239979878012,10.117770930051774,0.09433079653359493,9.313021016365003
672548.504201074,29.841676554965485,4.383805484519478,-0.5065601093218827,-29.50822052480353
672548.504201074,31.726037532287073,3.9258909642339184,-0.6114619153630082,-31.471236463838125
672548.504201074,44.96739670549757,5.388915813990448,-0.37457387922110835,-44.638210311660586
672548.504201074,12.120781419249568,5.4129744506207,-0.12841838733047972,-10.829604384633237
672548.504201074,75.09443775174057,20.552368872510073,0.3627600634642506,-72.22414341973462
672548.504201074,24.773376470364393,8.59512234487369,0.14029373763247885,-23.227314607719016
672548.504201074,154.80824725216985,12.389296038692063,-0.47357604896171285,-154.309942191941
672548.504201074,118.32919342837377,19.485051109268895,-0.41609765134620363,-116.71178790517662
672548.504201074,50.55555905610622,23.443155259383037,0.16531534033786968,44.78771557467375
672548.504201074,4.1890121318385045,4.055263733859955,0.14014809110944115,0.8756653480684143
672548.504201074,45.36314252272556,22.55159097287226,0.2753273815285145,-39.35541146477925
672548.504201074,42.84990113249239,4.47322260497518,0.23793255882906528,42.611400672682414
672548.504201074,9.606927797355647,4.4738683392524115,0.3999573142213983,8.473568937181032
672548.504201074,65.45370833935172,4.110388840284477,-0.17898582627203286,-65.32185220604433
672548.504201074,1466.7064801681681,15.728472665759693,-0.18359111797259425,1466.6220249886474
672548.504201074,436.6658040602068,25.590812440861008,0.19024725066145248,435.91487968724704
672548.504201074,89.73743490931211,22.085341649783704,-0.11534294554012035,86.97537224364143
672548.504201074,106.9262442979047,20.93104561977013,-0.33667208104158947,-104.85553620781245
672548.504201074,119.5595023894581,5.561083547350559,0.09040843444831312,-119.42874260540854
672548.504201074,7.678503065270597,7.587459549266409,-0.2892474927709728,-0.9949750746931645
672548.504201074,73.07740571664505,23.01514399433379,-0.3722416101748536,69.35528517696831
672548.504201074,68.83620847239673,21.53074495166034,-0.15797057203885895,65.37973261324876
672548.504201074,34.998475537519035,7.997487106368293,-0.3187051488276655,34.06634247408461
672548.504201074,36.57940164726831,15.4177578722182,0.5544953877799843,-33.16205172377728
672548.504201074,121.27555161074483,36.73604287640101,0.2620115086671532,-115.57611212894602
672548.504201074,114.40755722417877,7.466273432877557,-0.209039744449794,-114.16209522435284
672548.504201074,133.06645416851305,16.422353078705765,0.1287716947818412,132.04792590112748
672548.504201074,27.877801872970622,19.08620434917463,0.11776500937870958,-20.311537234105078
672548.504201074,52.41874008898913,15.849633255622962,-0.1833618539135144,-49.96162116274346
672548.504201074,38.77969489928872,23.908443103770622,0.1473646800940637,30.527252432645525
672548.504201074,31.042167759601504,26.382968558229987,-0.31177098713603574,16.344470646735257
672548.504201074,55.98032554568505,6.516942359774191,0.01945951740922749,-55.596849770532486
672548.504201074,25.444776876939432,25.408771292460596,-0.10501527149945494,-1.2262773410337418
672548.504201074,3.654187803594737,3.584640156700221,0.26759770251683496,-0.3400110589958161
672548.504201074,170.19968629738696,15.280602270575908,-0.12001824339442911,-169.51137359539734
672548.504201074,38.28612837117856,22.929511974521112,-0.08699466931309813,-30.655200387403884
672548.504201074,41.62829873331244,40.48295480452687,-0.35876182920069655,9.67474486868592
672548.504201074,30.353778770474577,30.340716129748174,0.168257826400921,-0.669546327393445
672548.504201074,408.84343882745736,10.025792674530667,0.32439194819744244,-408.7199768741086
672548.504201074,23.10994108846939,16.313291866956412,0.013388621869308044,-16.35938504102593
672548.504201074,35.143748910874194,7.043228711872331,-0.1104132857821035,-34.42597272886955
672548.504201074,149.17554867091067,4.74199654384952,-0.22259071236357303,149.09893365151828
672548.504201074,38.84491466182283,2.839062669023214,-0.21901849425931794,38.736325609749684
672548.504201074,139.85479210786715,16.626264013649553,-0.5021416255231395,-138.86094428193547
672548.504201074,15.24771151042968,4.804059162027464,0.17524660706046416,-14.459141852110816
672548.504201074,23.523087239781653,5.546492896225171,-0.21627246337398903,22.851893765371106
672548.504201074,68.3738945283728,9.553381634314075,0.33188670097479916,-67.70004413694008
672548.504201074,118.43888972261304,13.430249964421169,0.1999459200803427,-117.67345825991185
672548.504201074,68.97881018791927,17.29497037252691,0.22812947813396683,66.77268891017746
672548.504201074,16.25810392050454,16.15194212620016,0.5518186711096352,-1.6792788320405505
672548.504201074,5.152169783660266,2.216017640267311,0.0664730369202622,-4.61665173396993
672548.504201074,16.630476781197537,6.276831605089531,0.1554409473628529,15.389403941767904
672548.504201074,20.095515273295057,6.530761516658361,-0.350647450691239,18.993148951051054
672548.504201074,8.967762609017731,5.033860720499273,0.5909714554334993,7.376688809817916
672548.504201074,58.862829474918286,12.73715428048731,-0.5856812049726946,-57.46249511424155
672548.504201074,5.898966994594642,5.584899674684343,-0.4903839561789468,-1.7464258937237944
672548.504201074,39.26254183667914,24.590292707146226,0.04593900635636273,-30.60304491813298
672548.504201074,32.77391186107304,22.173033032413763,-0.538048149365567,-24.12219271976648
672548.504201074,16.8536962494243,5.774657807026258,-0.655450179966803,-15.809951364280334
672548.504201074,28.61259174557699,16.62667430497641,-0.3903257110814785,-23.275857157026156
672548.504201074,4.782224504585514,3.0768313510888152,-0.1202680439227213,-3.6155342961373176
672548.504201074,87.88042862217691,25.558410413035134,-0.53542983816639,84.0781450762593
672548.504201074,243.77024721425406,8.36582659949081,-0.28779737096297703,243.62583466758767
672548.504201074,127.53315521104136,13.370660838656368,-0.23277873296924464,126.82886380269431
672548.504201074,209.60149399520674,12.44888988086515,0.1684576255484312,209.2306545905377
672548.504201074,29.538301362958908,6.275513599074022,-0.5112004950056248,28.85397066489189
672548.504201074,23.225664359146716,18.12621665656226,-0.18308041576507686,14.50937658220315
672548.504201074,8.94957573190418,8.78297447382032,0.5092987676047126,1.5422880853926915
672548.504201074,23.124961909387928,22.98404180689895,0.5481340851797154,-2.425078793306949
672548.504201074,75.14811799317283,11.234495868286322,-0.5657020562795074,-74.29932364621177
672548.504201074,30.237995580447738,6.433523734028095,-0.18546399755256285,29.539727906536392
672548.504201074,39.20404099756462,13.071362407662996,0.09783911622362435,36.9563325487435
672548.504201074,104.2656165121897,18.55292967841669,0.14984793469470545,-102.60004339770485
672548.504201074,8.295414348147903,8.2235656154892,-0.08425297867641961,-0.9292695036990017
672548.504201074,10.909749054177864,10.465146218711373,0.16131330095994253,-3.0267292024193813
672548.504201074,9.197901226003777,4.700893982770097,-0.06538332735010155,-7.885586873930265
672548.504201074,30.16926360168518,5.826854415770814,0.4791905901074703,29.591998629079608
672548.504201074,4.751829683301785,4.286133785635958,0.24624817953078593,-1.9575691416996457
672548.504201074,218.43645111842386,9.282900694146827,-0.4807687942458471,218.23786006529753
672548.504201074,23.500492622386087,8.553346784182917,-0.33669965642118704,-21.878844078822244
672548.504201074,177.42666054221073,12.972187877821636,0.022741335142940012,-176.95091259514535
672548.504201074,3.971018768509855,3.8546565951048746,-0.03965326823017281,0.7699433821455177
672548.504201074,1049.3988096022765,17.507836089344146,0.7418552368209997,-1049.2523389030644
672548.504201074,487.2794543196916,34.50189388435399,-0.10394846591296347,-486.05612730198686
672548.504201074,107.55484133866071,9.53540350561382,-0.094170732547504,107.12980388221786
672548.504201074,795.8559351571548,12.214851727415326,-0.21543555440237716,795.7619645863128
672548.504201074,195.7759990319582,11.191057275582743,-0.21093786542503495,195.45495980361454
672548.504201074,16.23068681564644,11.274151784278576,0.20163882968553667,11.660695109414768
672548.504201074,281.6939932437712,18.020999595857315,0.4400127563688019,281.11606066634096
672548.504201074,53.351722303338605,4.944233691883387,0.3240004925452211,53.11816659310778
672548.504201074,77.31871159670938,20.443101688530458,-0.18464428933835614,74.56482036063427
672548.504201074,85.17511212869908,9.804683772896965,0.3582678405266864,84.60628415788108
672548.504201074,30.055327081836225,3.2150422274076016,0.017952599237635956,29.87757754196353
672548.504201074,37.232424856838065,6.191459059525691,0.08933696825174194,-36.70960483225245
672548.504201074,16.339215697176027,9.323246704897631,-0.4186415759804855,-13.399834040354328
672548.504201074,214.61754085647402,16.529921884068767,0.34467160528971297,213.97900714759638
672548.504201074,2.7453152451823755,2.180961856589151,-0.5269973224289142,1.4785829694020318
672548.504201074,1.740284808863815,1.5279474854466581,0.614503499821152,0.011213657117837061
672548.504201074,21.349642535826924,17.588788613076467,0.402601910562194,12.081532842873568
672548.504201074,187.98975967697226,17.147413782393567,0.07070822111864956,187.20522085916392
672548.504201074,17.811177845233384,16.711741599230514,-0.18111565978190272,6.13243170957343
672548.504201074,35.294603884423346,11.101760788675723,-0.11074532605019441,33.498230980483896
672548.504201074,6.772501340010507,6.219554857598539,-0.3008157356104111,2.6033044898157236
672548.504201074,83.37252284692754,24.875959129280176,-0.15195733857545793,79.57276484342371
672548.504201074,2.5635371793887822,2.260034523443071,-0.2672624145843978,-1.0374537215816244
672548.504201074,533.8480663522859,21.89347312573997,0.018714039216205354,-533.3986475469839
672548.504201074,160.9918836600653,16.991311601214584,0.0189015360936888,-160.09174041723108
672548.504201074,17.09225186364763,16.952256388849168,-0.2104729874418351,-2.0989404037191663
672548.504201074,53.09990347927638,1.0233906416385623,-0.013366108692327504,53.08706071209755
672548.504201074,3.6842427512183815,3.627880821755422,-0.2379586663275166,0.1981758458617412
672548.504201074,8.5400157929436,7.931096962949315,0.40808104332361367,-3.0897917680356994
672548.504201074,37.159360588025066,12.025851048570694,-0.12645748159550044,35.154868325361846
672548.504201074,93.79884906498704,31.355948760761745,-0.7413357598225666,-88.39775312257451
672548.504201074,104.36895637229824,2.0772268541387024,-0.2698090425262245,-104.3464190018969
672548.504201074,94.48922727762007,13.075726693103642,0.4087256978783044,-93.5775408892145
672548.504201074,38.3975737235624,9.562432200621812,-0.029512973502233704,37.18355093114475
672548.504201074,16.645144323362086,16.406109474037844,0.33140802716971957,-2.733924430317174
672548.504201074,112.27466390873808,21.644298735437303,-0.7624204373254618,110.16454500313479
672548.504201074,57.81954288401002,10.267725707739311,0.0004986066111079449,56.897777816515955
672548.504201074,52.89946689889188,12.172867511847238,0.162348722804049,51.47652193202153
672548.504201074,4.08207962856101,4.024689650717239,-0.0019274325667806586,-0.38602615720315087
672548.504201074,130.72460814591096,1.4786297746891428,0.030868213076163324,-130.71503222141115
672548.504201074,196.70037315653258,19.000637905972827,-0.0019407197115658239,-195.77971378035727
672548.504201074,129.4526011571209,22.21763924720876,0.3229462332797395,127.53012166133786
672548.504201074,26.691886058226057,25.63203381443665,0.4397121328525711,7.412560267602547
672548.504201074,11.221581388932966,10.236813245319361,0.23239564534499618,-4.55645786907379
672548.504201074,196.10289871629877,20.241561116419717,-0.3252680935763395,195.05436181170677
672548.504201074,96.49308874460878,11.552992952500393,0.019922163185418503,95.79732723318307
672548.504201074,4.953572890235707,4.904937534410514,0.4017864254672207,-0.04257264894647689
672548.504201074,7.271129935165593,6.897099333368293,0.3710520906093084,-2.2012369853074243
672548.504201074,162.26199375809767,14.933429881856616,0.20715807857050522,161.57223817366273
672548.504201074,822.9257146269387,10.983777118880644,0.3762868881578623,-822.8521316829883
672548.504201074,92.41740894396852,28.40958128023912,0.2470777621958673,87.94029731913207
672548.504201074,12.89136664473292,6.5852024932645605,0.029087405752321976,-11.068214337199127
672548.504201074,14.507266812544676,14.056293901144482,-0.10741620521333721,3.5431097207940327
672548.504201074,31.533123336619603,8.855804581141413,0.14277501920375033,30.258486090297186
672548.504201074,509.3406414919029,11.670064813051487,-0.2387108429427507,-509.2065646202683
672548.504201074,25.77021938092672,8.854069551490994,0.04712766873193233,-24.19485918332673
672548.504201074,21.61720285153894,14.147806602840177,-0.4803081418159761,16.32777094835175
672548.504201074,93.6894570525624,9.373267447035852,0.06483555868669015,-93.21767959523731
672548.504201074,60.17645940771158,19.971928761983882,0.2758084675503269,56.76210030172551
672548.504201074,519.8692564264317,13.483901177405063,0.49068053416814944,519.693824469391
672548.504201074,111.36196045091509,34.176001356555005,-0.33176912150208854,105.98613526588116
672548.504201074,126.84479662449998,15.036749311318612,0.4259393902271673,-125.9484059013646
672548.504201074,96.19598992866113,18.92582943549267,-0.10447400982697398,-94.31412575173832
672548.504201074,5.583193774415015,5.50361596077809,0.4952250235194695,-0.566382251429545
672548.504201074,191.87951688412534,33.663052347357265,0.04363127919369223,188.90269922702436
672548.504201074,544.7121461738733,23.06541058133778,0.5457566163988181,544.2230194932744
672548.504201074,142.8010527581767,6.490556269057802,0.2098674293821645,-142.65221020518248
672548.504201074,55.04478315092476,2.916582566206897,-0.6188671897240272,54.96109964573153
672548.504201074,189.85722158043214,22.953582937047646,0.3688608473791841,188.46337928326653
672548.504201074,78.5425392164035,27.11028544039075,-0.517835389218158,-73.71145439489179
672548.504201074,39.248595658196486,13.56345539380752,-0.07575520417177314,36.82611807765725
672548.504201074,174.7537134177079,28.105205556730315,-0.26151940588203254,-172.4777468373598
672548.504201074,18.189328083417873,17.527666964034367,0.00986851879057386,-4.828687413383499
672548.504201074,18.079894175410576,7.402211023871736,-0.18098677227527907,-16.484564347901262
672548.504201074,8.7544848431304,5.561957208877102,0.1119630322585681,-6.736235874310402
672548.504201074,205.61815797613667,11.594531302551962,0.4991477211810252,205.28962067655976
672548.504201074,26.86971247309647,26.18073679846221,0.3987571224814035,6.006266263954028
672548.504201074,720.5576786947298,10.010929302077416,-0.21315501730059558,-720.487881895306
672548.504201074,17.741796167140997,9.227844208672952,-0.24647839278108902,-15.140714761808672
672548.504201074,60.74688001316516,27.768471612399203,0.022519421294851585,54.02572240258013
672548.504201074,50.22691838875753,29.897518468919102,0.2501150169682338,-40.35471391683451
672548.504201074,39.68111364952519,6.283869443655961,0.16959149667775109,-39.175997455145854
672548.504201074,235.08725456407782,4.109368366826255,0.04931102334971057,-235.050657712596
672548.504201074,123.97622619359271,4.499001453945536,0.28396336858252025,123.89296503243145
672548.504201074,10.52030251914314,9.654656363469105,-0.7014674295312658,-4.0811875284824675
672548.504201074,109.47300854962455,11.13033235692282,-0.33639555374277197,-108.90374609333577
672548.504201074,66.07803331237376,20.036610335585152,-0.1482642321057006,-62.964295620679316
672548.504201074,183.4369884467465,24.308668965551522,0.3728278421101437,-181.81793672664674
672548.504201074,435.6056985837132,29.47166897646429,0.24537910778455363,-434.6071432087141
672548.504201074,881.6426774390673,20.928270753725286,0.6732057183741816,-881.3938102413962
672548.504201074,114.2563830360003,32.56955640468403,0.10381399289938832,109.51446505063122
672548.504201074,26.467431561681785,18.013458026789444,0.37298408226104746,-19.38001338656666
672548.504201074,18.268385587679436,10.01811749398982,0.3252443839719993,-15.262674161075525
672548.504201074,193.71650403927094,15.034320235892285,0.12849989594540848,193.13135533262843
672548.504201074,14.584109336964866,11.753812892439623,0.21917528413873077,-8.612773214047124
672548.504201074,63.27099339686789,13.044944081390753,0.08282527498586617,61.90900541854498
672548.504201074,231.7942939566768,65.81508435758919,-0.1410364518453162,222.2535337473775
672548.504201074,21.99387267282401,19.751642839052487,0.12110065674641735,9.657750645857252
672548.504201074,8.782758211089012,7.178051565775276,-0.021489449113573734,-5.0294858899114505
672548.504201074,90.80910609450558,21.494299580386553,-0.35078205189213885,-88.22612742143656
672548.504201074,203.4445051764373,10.701440857817667,0.47619951414602857,-203.1615191336058
672548.504201074,11.136665754647488,5.38754489108466,0.2219383260654564,-9.728011110007431
672548.504201074,106.46145349907307,22.25387305526935,-0.6290588992035461,104.10616827391306
672548.504201074,50.7684846424425,10.098503190881468,0.20977219733461222,-49.750367178731665
672548.504201074,8.899421898303249,7.497126797165426,0.027220196026482887,4.761914695988453
672548.504201074,85.18569251022001,15.496989707231876,0.25771828213531794,83.76194167010738
672548.504201074,33.79974764998545,14.949594380232712,0.270998656594021,30.307472698941005
672548.504201074,12.205194122675419,8.041962286727994,0.22876827485160914,-9.161061282797732
672548.504201074,12.430531871637283,6.181704081338133,-0.32029479162267643,10.765028616252547
672548.504201074,15.371688228454966,9.574871214643746,-0.2863009677147195,-12.00884859474097
672548.504201074,7.211742253040108,3.496833958844211,0.041332763573426815,-6.281993536365054
672548.504201074,627.5290787799274,9.028269126892237,0.2191853659671801,627.4638402341061
672548.504201074,16.62046992211919,14.78407773874589,0.22944478733720106,-7.569821235410374
672548.504201074,27.842048500017093,10.985385651702126,0.291038887064893,-25.575379483530952
672548.504201074,168.3766733052263,22.08143185741278,0.37693868667137664,-166.92110762359428
672548.504201074,165.7341579824237,8.845963767998592,-0.06018868136186285,-165.49694920777426
672548.504201074,114.80198601960194,14.977668307640888,0.371975994402275,-113.8187631832752
672548.504201074,216.1275268348611,46.945111561597194,0.11510496015828521,-210.9666676981714
672548.504201074,57.9962429398585,28.542827231774524,0.33846218156233904,-50.482080233559394
672548.504201074,1.6388457171550264,1.4783954056518522,0.00599036139167399,-0.42883449543415186
672548.504201074,32.47827224317566,8.696456818654351,0.19000986922056265,-31.28669806087616
672548.504201074,19.9718549196886,17.740730823197268,0.16159753576292898,-9.154185798207418
672548.504201074,21.276858466383725,19.897397174951948,0.4483616911880472,-7.50206879829377
672548.504201074,52.08802909825758,6.164083080824288,-0.3922227973170549,-51.717470829407425
672548.504201074,2.954939385406993,0.9987676510194836,0.30392584814969015,2.706571933138296
672548.504201074,2.4487460087337554,1.9986807090241308,0.05550632134931415,-1.2970443657306263
672548.504201074,28.112090352357406,28.103276394623858,0.29959475165046195,0.299157903098876
672548.504201074,10.034173919584138,4.767748608716872,-0.08038445479786778,8.810818939899214
672548.504201074,8.89762540916216,6.987489946577075,0.6290464801951009,5.443417611549344
672548.504201074,292.4396439606211,8.858702279161266,-0.05817092467027785,292.3048907262538
672548.504201074,10.403279676628427,7.472625861989193,0.359324281522256,7.207131844035315
672548.504201074,21.847459266996058,9.023713354739847,0.15665049694434943,19.88827058685768
672548.504201074,14.8143231809425,14.506335657458607,-0.21473521156648906,-2.944156668927072
672548.504201074,10.752003753286616,2.6062721979074013,-0.020605241248933235,-10.416154663063352
672548.504201074,17.803249385286364,11.208363609744767,-0.18045291968247804,13.819532669737626
672548.504201074,131.54983725000332,13.48943073033637,0.711149448004167,-130.85324978056966
672548.504201074,22.78589417864142,17.271358456274648,-0.5139325043340404,14.843072342875072
672548.504201074,60.53455187080532,12.378948183837748,0.26990973485519193,59.25204244071111
672548.504201074,16.13501245848025,7.232379856765199,-0.5979894912493419,14.399912840390535
672548.504201074,49.413373636078376,17.02660661412904,0.30784895004635154,46.38281107188371
672548.504201074,58.170926522815364,16.862598670427435,-0.10056239609452915,-55.67030733171044
672548.504201074,82.62022032864353,61.741245158481284,-0.006503506850617465,54.89811639517366
672548.504201074,4.18328655562312,3.5795051908445337,-0.0027642575400879236,2.090644387210192
672548.504201074,57.35665187153793,8.46669654453871,0.630331817903439,-56.72201528449557
672548.504201074,6.649634162412319,2.944901724394101,-0.26552292651894926,-5.929456847198852
672548.504201074,31.38369575044821,6.5077546631365815,0.12728596053371224,-30.69614078487872
672548.504201074,84.81977130271119,29.10673442949298,-0.08666169257677865,79.66723214123834
672548.504201074,38.033214374447084,12.112925194947916,0.12834354386211735,36.0481586132872
672548.504201074,39.90860220085447,10.58955319686909,0.1268127330309293,38.47369989807565
672548.504201074,192.40775323967097,16.99224334003382,0.7456213209688201,-191.65368505316204
672548.504201074,103.10204248240612,21.413571403101674,-0.3424877179074861,-100.85165639973863
672548.504201074,12.169117585146886,7.908564844465906,0.0737066429827022,9.23148768251945
672548.504201074,157.79244225019667,16.166850330048952,-0.016357250861102554,156.96105022179074
672548.504201074,98.6530737293972,13.695676278175085,0.3081881520306013,97.6956815842132
672548.504201074,8.402201489742462,8.187601767783399,-0.2889873234820091,1.7777587274448434
672548.504201074,183.55683107043126,30.8899234755769,-0.23572906016503284,180.93797573948302
672548.504201074,59.30053643674398,47.077880513376385,-0.392729561978088,36.052133420155926
672548.504201074,38.3933080389233,9.10318093737876,0.11651327012638336,-37.294079908889024
672548.504201074,63.243996413755035,13.23159665551136,-0.06287354792341833,-61.84179615636668
672548.504201074,40.74842662387891,9.49337973748528,0.33843137599526807,-39.621701759074014
672548.504201074,113.87820140808896,12.267652332936676,0.3014120801184199,113.2137022870339
672548.504201074,76.84967797539434,6.641029952047935,0.13321812825092572,76.56001405190463
672548.504201074,742.2074942975855,24.342060599433374,-0.28074780400385674,-741.8079492904781
672548.504201074,121.70704592813352,12.643154544383968,-0.4641098295345124,-121.04637147137237
672548.504201074,11.761334434338789,2.1875014860239013,-0.2545811793267931,-11.539618102340217
672548.504201074,636.3082515906517,15.396916790072245,0.33097188671240296,-636.1216080482739
672548.504201074,317.40198730024923,19.4164175435895,-0.24968652477146236,-316.80695336617794
672548.504201074,12.94428683593321,11.98647950303814,-0.10148971747777874,-4.853075648609426
672548.504201074,4.957409005814185,2.462196440272938,-0.16766346579599903,-4.262529096955367
672548.504201074,25.37549372607751,24.47442546917288,-0.2949603558055055,-6.671952546618057
672548.504201074,34.26920301491497,33.964141270131186,0.6202749160336403,4.484909663336269
672548.504201074,20.023863386147625,15.723019268779971,-0.3066670030850094,-12.38270963600516
672548.504201074,1.389112805458808,1.1614849398614016,-0.5136830243926186,-0.02212399002550594
672548.504201074,28.84882088505104,22.002197821970146,-0.23803414383348492,-18.64899112034584
672548.504201074,47.99015361909283,13.59960463163089,0.28188618110402996,46.01858223618014
672548.504201074,108.03399706568389,0.6851453906720849,-0.03416313722176971,108.03035547132859
672548.504201074,161.60876746898893,27.391514749796507,0.03475966311719435,159.26952378569777
672548.504201074,54.34553670872269,20.01127614047815,0.1317175616268667,50.5237826223684
672548.504201074,9.621654673665073,9.093378480617874,0.2641243906644598,3.082323372631731
672548.504201074,558.8209416197466,31.709098545177334,0.47354215612196554,557.9200994700393
672548.504201074,41.903626888591724,15.950131798221124,0.1992084293174095,-38.74469422564967
672548.504201074,16.184424829362648,8.62574182988014,-0.1705359072648068,13.681625453344296
672548.504201074,375.28717189390807,18.958102790640034,0.24232883662551719,374.8075196364688
672548.504201074,177.2322502277675,22.213352482661893,-0.25311506091372454,-175.83360656497004
672548.504201074,91.50829879042223,31.402717713320115,-0.43201463431558407,85.94844503357915
672548.504201074,8.520386477152327,7.6076694739851085,-0.4944246687413001,-3.7629333958089712
672548.504201074,52.14878879101734,18.820735541648748,0.7379518553380277,48.62525357980539
672548.504201074,11.491625439842451,11.01895387345775,0.4633032103424106,3.1795020866874695
672548.504201074,16.433297913385974,6.929506170441908,-0.4038249886815912,-14.884754701443308
672548.504201074,22.913477688963994,22.577775206591088,0.23316933533086223,-3.86017242931866
672548.504201074,196.34098240821288,53.218037010748645,0.1587956046647941,-188.9901597075901
672548.504201074,20.948331368441345,17.824070543659627,0.07794344472191876,10.99148733319621
672548.504201074,151.2226707717591,48.20216732417619,0.45075177265797317,-143.3329264894676
672548.504201074,13.436518761899839,13.37357677214894,0.49223477054018094,-1.0625244885248244
672548.504201074,12.04438302112487,8.709527527731582,0.19259494411666103,-8.298070401633534
672548.504201074,48.81321098202009,6.8789216783801175,-0.4623650381962661,48.32059596165067
672548.504201074,14.470428476434101,5.79109965339101,0.5943806865219771,-13.235820688393229
672548.504201074,753.4135400909532,35.100543628612705,0.024210504645168766,-752.5952414251697
672548.504201074,14.991959870188671,14.980470379618001,0.09023968150735046,-0.14141200209167215
672548.504201074,619.3853878893756,28.693522546381306,0.484380210217169,-618.7199605986251
672548.504201074,9.783155940627138,4.519511136769413,-0.09780889895462941,-8.657849921444097
672548.504201074,49.68157941401377,8.775104599344036,0.06951102512807451,-48.897196373193346
672548.504201074,12.835880229935949,12.764102984300424,0.17103247875847538,1.2214813851886246
672548.504201074,4.009946013113581,0.3710674194828675,-0.5782740341832191,-3.910415289888312
672548.504201074,108.74233658398077,39.31450726694035,-0.4325172854833745,101.38422947134794
672548.504201074,464.43594346990585,8.343859624323867,0.619571398119279,464.3602324674599
672548.504201074,42.18106973140126,34.963852557201506,-0.6924101018179643,-23.579143302805324
672548.504201074,31.18015962385981,27.4789501220236,-0.3809982518036757,-14.718976434948132
672548.504201074,48.26183768362631,22.481514674748645,-0.23892139363356166,42.70144217350436
672548.504201074,276.1645067086001,18.548949718333184,0.05396840794171234,275.54029122791064
672548.504201074,267.73161860509765,19.820088673928442,0.037448301630218374,266.99637835762394
672548.504201074,303.1091643093005,21.904617788201072,0.38238703058624873,-302.3158791075883
672548.504201074,27.497273373069408,14.391944651563847,0.19460572339838608,23.42259322346213
672548.504201074,9.51064045411704,6.921520795744642,0.43806594711394437,-6.483571743048745
672548.504201074,15.958883886453062,2.903954933038895,-0.2850702509901663,-15.679780872189816
672548.504201074,41.698400699841415,12.547097859945003,0.6389889131649669,-39.75679089144482
672548.504201074,617.7000004497588,39.8123617788453,0.21237725569099658,-616.4153673244393
672548.504201074,17.96200664649526,12.97579765575251,-0.26829217411197775,12.404601963575322
672548.504201074,44.46943458581442,11.327893922762865,0.18851407451536786,-42.998344929777105
672548.504201074,77.7678172956093,14.13033333410677,-0.1647243778441434,76.47106462753977
672548.504201074,5.655569499308468,3.125748687283757,0.0032749878741226745,4.679628551458496
672548.504201074,9.745919397383743,9.667387389614195,-0.039492400629069016,-1.0985348922272244
672548.504201074,54.72938175310158,27.341869839571842,0.47762827220424503,-47.40446207463965
672548.504201074,9.948824870228798,9.901899939629521,-0.25669712190591076,-0.7411970529974925
672548.504201074,174.32655121350294,11.365165059373867,0.32595722066205957,-173.95446819687407
672548.504201074,6.53927725507125,6.501030291322442,0.40433558548058635,0.13797646188148383
672548.504201074,5.330147879092008,5.184484998750758,0.006467051754720821,-1.102416657928382
672548.504201074,406.5903239349573,33.82757528368193,-0.1672187650439655,-405.1802592408034
672548.504201074,605.1651696593805,12.257819193101344,-0.6305620954711194,-605.0404239400367
672548.504201074,54.540658010643206,10.416232730938983,-0.42121715903077606,-53.53215688381622
672548.504201074,603.6274441101331,13.39189089659871,-0.41051030354414947,603.4784700343797
672548.504201074,38.83831731190829,24.55352840265118,-0.18374693492156124,30.08636143278716
672548.504201074,16.57525335126008,13.010623455507574,0.26226835332184745,10.250740893614447
672548.504201074,805.8593553282943,14.832327918959034,-0.04975689222404782,805.722647016633
672548.504201074,84.85091613959034,16.538956150988913,-0.5114661273461638,83.21996800145837
672548.504201074,23.627609657785055,17.39852570222739,0.5203821318321594,-15.967724213743775
672548.504201074,55.81006097533846,35.59219022300984,0.5085358213259443,-42.98120595234884
672548.504201074,240.44305066368634,13.476847881720122,-0.09557827327875827,-240.0643868236736
672548.504201074,16.440322353796603,14.995890777252836,0.4182175116762791,6.701964309521049
672548.504201074,42.621035671121504,7.61427672800279,-0.16160602467238797,-41.93129055587146
672548.504201074,13.77979281138364,13.23245824063745,0.0759719900051059,-3.8029908875646807
672548.504201074,63.139574781757155,12.973636118476932,0.24595489415593144,-61.789270494772914
672548.504201074,10.146442518163697,10.124482459450327,0.10902380180349619,0.3421068737135341
672548.504201074,95.24464189820378,16.069653330020817,0.34537172356307216,93.87690100947255
672548.504201074,27.964283490727226,3.8758664814471873,0.0500071569438411,27.68862730529858
672548.504201074,179.0385973144719,16.064965899443944,0.41766989582467,-178.31501766099558
672548.504201074,3.945218428835254,2.851470181371346,0.31042928282432103,-2.6497683891343313
672548.504201074,18.343165620202374,2.8979372480994567,0.05484972232106776,18.103989858148196
672548.504201074,19.632325282588994,18.048188128524906,0.06816301592300432,-7.7052078285880725
672548.504201074,177.28581399540982,20.93854463587795,0.6641170890199743,176.04283545102933
672548.504201074,394.739655832185,12.87665668556286,-0.22209607727042946,394.5291143186346
672548.504201074,78.3473727816509,14.474954916852585,-0.6495770695750177,-76.99382003883467
672548.504201074,82.24704600798944,35.00210228347086,0.07255469832829285,-74.42518338031317
672548.504201074,651.955847525631,16.51030903230241,0.6570357733279896,-651.7461844116266
672548.504201074,227.28577977788729,18.338640597437415,-0.04936544971925905,226.54403829262955
672548.504201074,11.262482439760852,5.886741483666177,0.2838263285486833,-9.580866381770848
672548.504201074,59.22463154288337,4.353366006961949,-0.14747084385889014,-59.06155442205746
672548.504201074,226.770492774669,26.802130963724995,-0.07240535610993667,-225.18032928995743
672548.504201074,31.46327114997313,14.148673333388288,0.04503773924451518,-28.096872042338838
672548.504201074,13.723322448664488,12.969347459835125,-0.02442919007842005,4.450705709264311
672548.504201074,114.970582927831,38.11057923207249,-0.04222749249486098,108.46889267803827
672548.504201074,29.29458984932021,17.99997257820015,0.7129196541094227,-23.09436077899626
672548.504201074,28.43430557582977,26.980370271441828,0.35627777956069584,8.95132349650442
672548.504201074,3.6261661174018425,3.5211637925156345,-0.10378957482699555,-0.6507584660581056
672548.504201074,3.8621745188175414,3.720437326539968,-0.13827930631102472,0.8598776344671349
672548.504201074,216.14485330747522,15.766044917626164,-0.04984541789474232,-215.56834351777948
672548.504201074,14.542593626093256,13.511769734609123,0.4290905293793996,5.330925053863073
672548.504201074,15.748172852164448,5.618361128157759,0.22224113189489889,-14.69943359093364
672548.504201074,70.05638623255403,19.6597882292153,-0.34556766052071647,-67.23804231488984
672548.504201074,693.3452555891328,27.35521485221912,0.34535084626580725,-692.8050953722421
672548.504201074,229.02579085646363,25.590807181705962,-0.08532196650386366,-227.5908608841293
672548.504201074,161.0682968415442,19.085893790226557,0.6658856583073671,-159.93112665942726
672548.504201074,54.726337044139726,5.59422723979506,-0.17813269701291998,-54.43646415042298
672548.504201074,51.357851319649754,30.633609078974416,0.1258034784975156,-41.21745786741757
672548.504201074,14.225926867679114,5.875229948607117,0.011601447828263882,-12.943813437378939
672548.504201074,21.605484053742643,11.858040539708758,0.623633966056239,-18.0410273829195
672548.504201074,27.390203515483616,9.542337122644842,-0.2529013172472234,25.666843677804614
672548.504201074,12.754628316827127,6.2094825059862835,0.0214174756819381,11.1268227450478
672548.504201074,12.786016995303592,12.533783759370444,-0.3007140659186868,-2.445370918247704
672548.504201074,163.5114547731289,30.06886704213062,-0.02793492784362214,160.72194022306712
672548.504201074,270.6453288778948,9.763843526260565,-0.17421402471348438,-270.4685098585267
672548.504201074,13.430584860020023,11.578630005068222,0.10652012554762734,-6.7814720341903
672548.504201074,380.34605188052427,47.2719657212828,-0.007917792053001213,-377.3965608585438
672548.504201074,30.040086436904406,11.647040593047885,-0.3013318135950195,-27.68295884291304
672548.504201074,44.402372549758375,5.371124368220432,0.545494615592084,44.06935351571116
672548.504201074,33.47825466389418,15.776237669278355,0.025661870079313257,29.522651886494497
672548.504201074,36.986629252554934,21.402689409842267,0.28551489564343285,30.158545776211806
672548.504201074,48.592233037873065,15.385578249454143,0.5052456912067316,46.085980437960984
672548.504201074,17.6485759489814,3.7630996471595686,0.3654016654245086,-17.229671160388875
672548.504201074,32.67865663569387,16.956865804772576,0.37990286760286246,27.926667327187822
672548.504201074,1180.5575572148118,15.261458087937605,-0.4751402043076145,1180.458678568809
672548.504201074,15.696515379917503,12.266805729365768,0.31833406532113007,-9.77182215825488
672548.504201074,36.89654637188379,19.807681201404733,0.0909326059855674,-31.12372733875195
672548.504201074,14.460550016641289,9.521265752383865,0.23569542020643672,-10.866518555861358
672548.504201074,5.353707033881363,3.88522965844824,-0.306619490081956,-3.6272477987815823
672548.504201074,181.1318579782637,20.746146351130374,-0.6582804169986828,-179.93776097786613
672548.504201074,13.610928356974338,8.554580589116433,0.24930343880618758,10.56873417577142
672548.504201074,35.29372115913479,15.823483905355133,0.5248955530922378,-31.538426841137607
672548.504201074,17.64744776885536,14.916188406408445,-0.031480356624976204,9.413953354774481
672548.504201074,104.83265216836159,20.599033608667824,0.5209819246786915,-102.78607456983431
672548.504201074,47.79594620411074,8.380500728727789,-0.11382471406397802,47.05199780685437
672548.504201074,738.1461476565837,21.556077527573937,-0.3059636167165151,-737.8310517867521
672548.504201074,507.79574577418936,13.494315951391211,0.3264993632262686,507.61599662947447
672548.504201074,41.728944408427125,12.9423052709503,0.2008101529599264,-39.66667346271075
672548.504201074,7.4642493301822395,4.900572561406143,-0.06962502108275802,-5.601636509956489
672548.504201074,70.22107024485038,17.5916663347561,0.03187100221339517,67.9795170528429
672548.504201074,296.51676217286524,14.989557188264957,0.17099635907844066,296.13705941273906
672548.504201074,5.39538883563522,4.744655403852699,-0.2204399633585251,-2.4967267789371874
672548.504201074,20.801025090780172,17.88573480422427,-0.5268360916484844,10.591947491962113
672548.504201074,546.8018454413963,104.44844708910753,-0.13991308255753346,536.7331220222203
672548.504201074,115.51865853366255,29.625475416291057,-0.3582980235801148,111.65324478447405
672548.504201074,926.7864961109965,14.553306105050043,-0.031996834612555626,926.6720527802233
672548.504201074,22.327901014158552,5.484092788819489,0.04463545394122524,21.636581760011236
672548.504201074,7.357690053879278,1.575612714958495,0.32260173191582403,7.157705513898922
672548.504201074,28.416227114738135,20.6384441206554,0.5285239691671825,-19.517710488904633
672548.504201074,47.88971633792417,22.205620133351797,0.3744709844932681,-42.42497978198239
672548.504201074,159.57621685611142,45.51559555027895,0.0605357460219318,152.94632933102807
672548.504201074,25.31843961840585,16.103626740534626,-0.6208930979487443,-19.519089499078586
672548.504201074,34.55267075650165,16.41016572333312,-0.518641312458681,30.397504850376745
672548.504201074,15.382764025953326,15.352224613554139,-0.6784136595583063,0.4026859811192916
672548.504201074,150.57629434383472,42.92400651788645,0.5671399824827834,-144.326408559257
672548.504201074,43.66371681553667,17.093279249429035,-0.09059628102229035,-40.1748122031952
672548.504201074,29.150905366152635,26.203045483374815,-0.6735634881474907,12.743852474418052
672548.504201074,6.12041993631725,5.034868674200585,0.10644550968140402,-3.432503398921982
672548.504201074,22.628149529997025,13.785511242629477,0.27806142023512875,-17.933189492601045
672548.504201074,36.68148068869567,10.843834163976526,-0.19947854820356845,-35.03692719186223
672548.504201074,90.60196299136545,9.315621057367915,-0.2218410398992622,-90.11975067296298
672548.504201074,11.249668414176409,10.99644122746723,0.48357824113816594,-2.254605163702514
672548.504201074,12.049006925441804,7.304532057419378,0.336402728877124,9.559967840699056
672548.504201074,103.38789889626132,29.996178709931783,0.3610063136062416,98.93856855658788
672548.504201074,187.21903815897775,6.370333865053942,-0.24959339022773114,-187.10961645880144
672548.504201074,18.080425063787988,17.420290641675,0.6733953083030983,4.760835620487002
672548.504201074,8.5787251720686,3.887566304164899,0.09593125930165355,7.626003121020405
672548.504201074,193.21841161164593,20.745681505739938,-0.0464082532927243,-192.1006322307753
672548.504201074,63.12498754782264,7.165104654847935,0.5633103897203459,-62.71197479112257
672548.504201074,135.93532251128366,12.286854507154072,0.17500068288976492,-135.37761358484437
672548.504201074,10.284516045866749,3.918225124360724,0.20379733387068588,-9.490048546711716
672548.504201074,105.11172209242498,27.783575576674824,-0.02461904649471747,101.37174268953184
672548.504201074,13.596723897645157,8.937524825553364,0.5068615432040937,10.21853290434356
672548.504201074,74.92384923292289,22.61928735713614,-0.264429605918512,-71.42523974699905
672548.504201074,49.27139742866298,37.0810634884812,0.14237663398426523,-32.43961831819694
672548.504201074,12.906395971146097,12.558841760760707,0.014399096444656248,-2.9213209097820148
672548.504201074,1057.7303960401757,22.3739304701702,0.36049914709386266,-1057.4935232688601
672548.504201074,126.33168153194208,4.416200453406697,0.24925904343927352,126.25297055821041
672548.504201074,93.15281861809892,20.87757311433383,0.5790212363392077,90.77952998534236
672548.504201074,26.713775526525353,16.410830627134338,-0.07580320237006709,21.071033849418107
672548.504201074,87.08401515461924,19.20807968113297,-0.1944066028939096,84.93716117863649
672548.504201074,368.123762131947,8.050595184168042,0.007831948614282231,368.03529161565365
672548.504201074,45.12129575163068,6.076645914765841,0.29158934436115413,44.70575413732173
672548.504201074,11.656732518834609,1.837484953465589,0.07228557635340799,-11.497026113591915
672548.504201074,235.74024194792116,39.222794357874086,0.09490320121945087,-232.45367031390674
672548.504201074,341.864889660936,6.366759302121549,0.41573518824679195,341.80488307764966
672548.504201074,19.7361884885938,5.199320298344321,0.16669148491020405,19.02998137258953
672548.504201074,7.208322265359145,4.553295963513852,-0.3659342850177468,5.547726601833259
672548.504201074,72.69591146778932,21.99338051957573,0.16186489739899132,-69.2866821965702
672548.504201074,208.756079367005,19.975839861917756,0.5704676024930444,-207.79659485614422
672548.504201074,144.61264549937667,20.00852638356539,0.36271165000043926,-143.22020919948838
672548.504201074,672.3738985243814,17.942970900171616,0.2704741195508779,-672.1341531483882
672548.504201074,11.045242505454796,4.76688479974235,-0.3444625275687298,9.941796089093291
672548.504201074,7.754445558999026,4.8817535348158,0.0477640519650249,5.998449762051197
672548.504201074,138.17642039854087,13.251769887165809,0.6449665661868861,-137.5368370282672
672548.504201074,3.3650336205763054,1.2178352454367327,0.02413601942096415,3.0860198694866563
672548.504201074,138.43032294903264,17.213059843988788,0.41339427090152003,137.35420547022665
672548.504201074,40.90760973660985,13.746728731612615,-0.21160026163125953,38.52400526257921
672548.504201074,207.08668003745913,9.544874234787644,-0.05107261005599757,206.86582508710154
672548.504201074,695.1327947862454,36.42892739488432,-0.11209209276560518,694.1773597893821
672548.504201074,108.46676212736055,27.761323472651476,0.15098111982375612,-104.85231701179237
672548.504201074,20.076943324126997,7.91673417338416,0.1465157549834254,18.44102163659703
672548.504201074,10.471103570504548,9.420185959732047,0.5043389482539622,4.509270594374806
672548.504201074,1991.604805435684,19.20055867562255,-0.17971161177298764,-1991.5121619155102
672548.504201074,666.8872745544205,27.155691133927547,0.2819486912366568,-666.3338575212857
672548.504201074,90.88497498363064,29.63858030580056,0.4005391258279583,85.91365768165255
672548.504201074,110.12198069001244,5.331797794111724,0.42228044531343045,109.99058148404981
672548.504201074,38.012149330896314,30.562643987115678,0.11128443103183142,22.594682508198943
672548.504201074,214.30919244941822,13.41465214659234,-0.18239443147418555,-213.88811930768574
672548.504201074,237.01783848703076,12.096084467866557,0.08232344562161946,236.70829621511047
672548.504201074,15.787251840097708,14.105047414721902,-0.24081951313785754,-7.064753120451317
672548.504201074,8.011798183184139,2.9007469171449074,0.14035991783629792,-7.445713474471798
672548.504201074,88.69041035398298,13.67253941036212,-0.24418864701711418,-87.62804744677568
672548.504201074,7.731229209048061,7.319350500262553,0.07760643731481111,2.424203617221649
672548.504201074,62.30922181211773,9.55924688790185,-0.4334961863669981,61.56748959819582
672548.504201074,26.283041112437175,21.198809309557568,-0.06565009744680074,-15.52701505890628
672548.504201074,350.7167380284979,5.194163589595426,-0.07901045240788776,350.67781299634953
672548.504201074,236.65395860202676,7.044216859815783,-0.07633243184263598,-236.54841592536883
672548.504201074,92.9793637848723,16.372119890544138,0.3536019136494415,-91.5241745027818
672548.504201074,19.097070729040098,9.208466490944984,-0.3081382559745275,-16.717986682912134
672548.504201074,89.44724647278912,20.889879870940675,0.49220313888807815,-86.97047964229783
672548.504201074,19.57352220762201,19.367466407024754,-0.001325743738038175,2.7762902274729906
672548.504201074,6.1671471588023135,2.9264937511076523,0.17483573095498753,5.39653068831742
672548.504201074,66.50160363056386,5.920172796045268,-0.4452313275990103,-66.23368011190554
672548.504201074,44.57013149192714,8.709249058932642,0.14389392740325102,-43.70707802146619
672548.504201074,134.51889060290918,7.54588420901326,-0.2628912826795213,-134.3056447857454
672548.504201074,7.8059852886177445,7.412929651271478,-0.2832829373383774,-2.3633458673137007
672548.504201074,182.2624507428577,27.565185140067133,-0.3807467190408326,-180.16464781838343
672548.504201074,63.962094317434676,17.705023716518724,-0.2590465776166705,-61.459729190261335
672548.504201074,12.682309295108361,1.8152557655504462,-0.09919677427526134,-12.538729926197469
672548.504201074,15.261352845684996,7.944996829832907,-0.6017118493874521,-13.004139014347253
672548.504201074,16.876086501351995,16.766460328932844,-0.33093985370095513,-1.8061990622264101
672548.504201074,133.699135425753,28.223381209358735,0.41160086387760847,-130.6844058181145
672548.504201074,13.314488589006809,13.244896974303924,-0.1979608909941796,1.2218406656446708
672548.504201074,557.6905735261251,11.9970434148383,0.05286248590670387,557.5612322672356
672548.504201074,17.857511950004167,8.13923460727974,0.3867978414020972,15.880105575272704
672548.504201074,48.458410259207504,8.66073939524873,-0.15310760351310357,-47.6746205924989
672548.504201074,25.980233089177613,13.520425232996107,-0.4188935845101395,22.17383398628971
672548.504201074,801.3565520696332,26.25602776677117,0.1549279778366803,800.9260916718612
672548.504201074,22.343386552104285,22.078988973087323,-0.018105802710779103,3.380623215129133
672548.504201074,340.0739658243155,9.650429095795985,0.3135145329028144,-339.9364013032175
672548.504201074,58.95498061139554,34.490317330162895,0.1578248684044782,-47.80969162487164
672548.504201074,47.110022050394505,16.58936047186116,-0.016809999485167124,-44.08889641108001
672548.504201074,413.00721877805114,20.530027957488873,0.2874466718409654,-412.49615981467775
672548.504201074,181.33962990598204,29.466020595408928,-0.41447871130138875,178.9282732960531
672548.504201074,22.00675427810884,5.8912426198063494,0.15584935802959637,-21.195517871214186
672548.504201074,493.59088501534063,6.715032110641647,-0.20191449433071756,-493.54484407915453
672548.504201074,156.995036187908,17.706350785165487,-0.2880191746959618,155.99207462903348
672548.504201074,21.50179650830945,21.14141879861687,0.4146437253507718,3.857396459658228
672548.504201074,69.55641951748912,17.800780126016136,-0.3865067205907619,67.23661285455142
672548.504201074,12.470474006784734,9.329728905496061,0.7632583304133682,-8.22010278674291
672548.504201074,332.20556947971056,17.172925106919035,0.4404896830523031,-331.7606377767708
672548.504201074,43.88527011712103,22.666860772121602,0.1969319112045049,37.573599061202536
672548.504201074,206.63167822622873,20.943723279914963,0.5383753878375993,-205.5660595193272
672548.504201074,49.520106304224896,18.937416608474226,0.09426681275039342,-45.75248700285647
672548.504201074,24.604182504126115,2.242756739997377,-0.2405753971427935,-24.494116333918846
672548.504201074,13.449639520241979,6.081871870696675,0.6822298400702772,11.963359595779112
672548.504201074,78.70713089329422,6.5343050730196905,-0.3529490303192992,78.43261126756249
672548.504201074,43.78300759731266,20.69011303460443,-0.5628750001470224,-38.57768683080362
672548.504201074,46.53661403440461,12.835398165679688,0.5693752467544823,44.72436231120251
672548.504201074,198.54243005090808,13.602773503715857,-0.03511276817453958,-198.0750959187438
672548.504201074,18.595678478145015,16.86512944411481,-0.46726709789230275,7.799493634508821
672548.504201074,80.68879104797395,42.13654374536455,-0.06564384298690455,68.8104072467543
672548.504201074,15.499751030998834,11.876435927112908,-0.08154130631205808,-9.943323152106395
672548.504201074,72.00573741382657,14.93066764811112,-0.2133545048373732,-70.4381972834738
672548.504201074,72.40262697561907,34.84074640257833,0.34965033319882105,-63.46514240373277
672548.504201074,33.814657535429546,20.94358800209492,0.37915259656874245,-26.539351946592866
672548.504201074,27.902124917133992,6.168786654235869,0.057051725409501555,27.205792835464614
672548.504201074,91.51557804996463,3.1998659457910934,0.29759415166702974,-91.45740590060899
672548.504201074,292.77863644513013,12.650570033566751,-0.2609097215689068,-292.5045448112087
672548.504201074,390.9623628595241,10.14143240437086,-0.09848663140829726,-390.8303910834889
672548.504201074,3.5685162645359636,3.498930121391867,-0.29270503856544816,0.2998211066482906
672548.504201074,9.841238667614402,6.4532563356685495,0.7373858424396761,-7.3719397649595
672548.504201074,23.360187839189905,23.23732652918785,0.044699932589255385,2.325254002014429
