8.771606660666069e6,644.095458984375,11.719703674316406,39.867069244384766,-642.7486572265625
8.771606660666069e6,341.9206237792969,-5.879549026489258,-32.536773681640625,-340.30889892578125
8.771606660666069e6,176.0303192138672,13.67868423461914,24.052467346191406,173.82369995117188
8.771606660666069e6,67.85238647460938,20.86632537841797,5.840768814086914,64.25000762939453
8.771606660666069e6,42.69844436645508,18.07620620727539,36.92506408691406,11.250885009765625
8.771606660666069e6,751.4932250976562,-15.32336711883545,-26.391475677490234,-750.8690795898438
8.771606660666069e6,53.291221618652344,5.303222179412842,27.9853458404541,44.969825744628906
8.771606660666069e6,833.6018676757812,-35.2714729309082,-6.278536319732666,832.827880859375
8.771606660666069e6,56.4736213684082,-31.419570922851562,-13.025184631347656,-45.011775970458984
8.771606660666069e6,721.6318359375,-26.167186737060547,19.919918060302734,-720.877685546875
8.771606660666069e6,215.29331970214844,-38.642311096191406,3.6109251976013184,-211.75123596191406
8.771606660666069e6,14.525824546813965,8.153032302856445,-11.734135627746582,-0.6873622536659241
8.771606660666069e6,299.546630859375,-34.27238845825195,33.58060073852539,295.6679992675781
8.771606660666069e6,419.79925537109375,14.834609031677246,-6.857334613800049,-419.47344970703125
8.771606660666069e6,59.57888412475586,-14.753540992736816,-57.42778778076172,-5.259311676025391
8.771606660666069e6,1256.4500732421875,-6.803533554077148,-1.6694284677505493,1256.427978515625
8.771606660666069e6,131.1421661376953,-10.177518844604492,23.88460350036621,128.5217742919922
8.771606660666069e6,45.15657424926758,-12.960116386413574,-40.56021499633789,-14.820772171020508
8.771606660666069e6,51.474098205566406,24.381502151489258,-2.7199625968933105,45.181427001953125
8.771606660666069e6,43.10416030883789,40.872779846191406,-12.973892211914062,3.5633320808410645
8.771606660666069e6,37.699825286865234,-31.85822868347168,13.928572654724121,14.351292610168457
8.771606660666069e6,56.04377365112305,-1.7385175228118896,-16.038589477539062,-53.6123161315918
8.771606660666069e6,928.3087158203125,-11.110153198242188,21.304794311523438,-927.9942626953125
8.771606660666069e6,17.93941879272461,-5.5723795890808105,-13.156410217285156,10.550592422485352
8.771606660666069e6,677.7658081054688,-18.790157318115234,25.029399871826172,-677.0381469726562
8.771606660666069e6,56.097015380859375,17.45180320739746,21.513795852661133,-48.71448516845703
8.771606660666069e6,38.40721893310547,-30.69817352294922,17.995410919189453,14.231535911560059
8.771606660666069e6,697.030029296875,35.938472747802734,-20.079212188720703,695.8087158203125
8.771606660666069e6,231.0856475830078,-36.413551330566406,34.20625686645508,-225.6062774658203
8.771606660666069e6,156.6600341796875,-27.402124404907227,-29.62552261352539,151.35208129882812
8.771606660666069e6,124.21934509277344,-1.2949347496032715,-2.06805419921875,124.16974639892578
8.771606660666069e6,1519.020751953125,-19.987648010253906,35.75347137451172,1518.46630859375
8.771606660666069e6,1148.6585693359375,-35.758785247802734,22.227394104003906,-1147.8839111328125
8.771606660666069e6,34.125614166259766,25.980012893676758,5.416038513183594,21.30487823486328
8.771606660666069e6,27.968093872070312,8.696443557739258,-4.759133815765381,26.03020477294922
8.771606660666069e6,23.67226219177246,0.15536096692085266,-21.150182723999023,-10.327461242675781
8.771606660666069e6,105.07305145263672,-8.836004257202148,-12.651148796081543,103.9030990600586
8.771606660666069e6,19.27476692199707,-10.744311332702637,-15.802251815795898,-0.0025033249985426664
8.771606660666069e6,37.788631439208984,-22.918710708618164,-28.635684967041016,8.737591743469238
8.771606660666069e6,236.32504272460938,-9.374653816223145,-45.54478454589844,231.6914825439453
8.771606660666069e6,55.817317962646484,33.888214111328125,-33.96037673950195,-28.416358947753906
8.771606660666069e6,654.22119140625,82.14126586914062,40.931640625,647.7471923828125
8.771606660666069e6,335.6778869628906,33.531307220458984,-11.392800331115723,333.7950439453125
8.771606660666069e6,51.70738220214844,32.37480163574219,-11.24132251739502,38.63667678833008
8.771606660666069e6,441.15118408203125,39.71628952026367,-6.261416912078857,439.3078918457031
8.771606660666069e6,1387.41259765625,17.362146377563477,-31.62674331665039,1386.941162109375
8.771606660666069e6,18.01494026184082,-1.1829601526260376,-17.063844680786133,5.059513568878174
8.771606660666069e6,224.50711059570312,-25.056549072265625,19.035572052001953,222.276611328125
8.771606660666069e6,84.04143524169922,7.9465203285217285,-11.615336418151855,-82.81626892089844
8.771606660666069e6,537.04052734375,5.120797157287598,24.73482322692871,-536.4402465820312
8.771606660666069e6,128.12716674804688,33.96504592895508,-19.258211135864258,122.00698852539062
8.771606660666069e6,244.83615112304688,-34.80775451660156,-8.36174488067627,242.1918182373047
8.771606660666069e6,784.8822021484375,58.09968566894531,-26.144481658935547,782.2880859375
8.771606660666069e6,24.34111785888672,-19.49024772644043,-14.349020004272461,-0.6005821228027344
8.771606660666069e6,83.30503845214844,-15.281973838806152,-22.134418487548828,78.8028793334961
8.771606660666069e6,22.865083694458008,5.068144798278809,21.847867965698242,3.66489315032959
8.771606660666069e6,19.66680335998535,-13.934585571289062,-4.683367729187012,12.81839656829834
8.771606660666069e6,36.144344329833984,-13.946803092956543,-30.407835006713867,-13.449854850769043
8.771606660666069e6,126.50868225097656,18.47136116027832,-44.93983840942383,-116.77886199951172
8.771606660666069e6,508.4712829589844,31.852249145507812,-4.684555530548096,507.4447326660156
8.771606660666069e6,42.93369674682617,-0.5737631916999817,-15.474447250366211,39.964351654052734
8.771606660666069e6,34.7292366027832,-10.731700897216797,-26.921607971191406,18.968717575073242
8.771606660666069e6,77.49996185302734,29.231849670410156,33.807716369628906,-63.2646484375
8.771606660666069e6,401.2918395996094,-15.982030868530273,23.486095428466797,-400.2770690917969
8.771606660666069e6,29.14418601989746,25.94491195678711,11.264058113098145,-6.557500839233398
8.771606660666069e6,55.04029846191406,-12.344066619873047,-53.42567443847656,4.048527717590332
8.771606660666069e6,52.385963439941406,31.491352081298828,-9.649617195129395,-40.65837860107422
8.771606660666069e6,25.467153549194336,20.142744064331055,-13.529922485351562,-7.309016704559326
8.771606660666069e6,68.69129943847656,-1.0651814937591553,18.090089797973633,-66.2098388671875
8.771606660666069e6,271.47015380859375,-56.812843322753906,-18.505718231201172,264.8009033203125
8.771606660666069e6,51.5708122253418,-31.672752380371094,2.021737575531006,-40.57009506225586
8.771606660666069e6,47.50455856323242,30.382530212402344,-10.370426177978516,34.923831939697266
8.771606660666069e6,77.46926879882812,-23.793066024780273,47.57707214355469,56.2621955871582
8.771606660666069e6,47.54482650756836,-9.14437198638916,-28.718168258666992,-36.68504333496094
8.771606660666069e6,38.00901794433594,-29.505897521972656,-9.0052490234375,22.059642791748047
8.771606660666069e6,155.29896545410156,7.098677158355713,-18.031105041503906,-154.0645751953125
8.771606660666069e6,191.3079071044922,-41.3038215637207,34.06669616699219,183.6458740234375
8.771606660666069e6,97.66761016845703,22.52483558654785,-28.020641326904297,-90.77484893798828
8.771606660666069e6,48.10972213745117,27.543615341186523,-14.318625450134277,36.66751480102539
8.771606660666069e6,402.98822021484375,-25.155677795410156,-36.317989349365234,400.5513000488281
8.771606660666069e6,37.02213668823242,-5.823879241943359,4.71958065032959,36.16740798950195
8.771606660666069e6,45.78498077392578,-13.17439079284668,-11.979814529418945,-42.10485076904297
8.771606660666069e6,62.14765930175781,54.9811897277832,-7.928840160369873,-27.751914978027344
8.771606660666069e6,913.8016967773438,14.87224006652832,-14.732041358947754,-913.5584106445312
8.771606660666069e6,598.3538818359375,-28.389345169067383,-23.503162384033203,597.21240234375
8.771606660666069e6,1408.67138671875,3.7456204891204834,-35.47062683105469,-1408.217529296875
8.771606660666069e6,42.5715217590332,37.785221099853516,1.076007604598999,-19.41876983642578
8.771606660666069e6,53.16805648803711,49.62113952636719,4.557961940765381,18.36966896057129
8.771606660666069e6,666.892578125,-55.07343292236328,-13.031915664672852,-664.4821166992188
8.771606660666069e6,1847.27294921875,4.872581481933594,-6.185427188873291,-1847.25439453125
8.771606660666069e6,903.6471557617188,23.75536346435547,-11.637857437133789,-903.25634765625
8.771606660666069e6,16.17831802368164,5.856656074523926,4.9929609298706055,-14.005095481872559
8.771606660666069e6,619.960205078125,37.22142791748047,31.431196212768555,618.0379638671875
8.771606660666069e6,309.78277587890625,3.879727363586426,44.00422286987305,-306.6065673828125
8.771606660666069e6,23.0495548248291,16.652713775634766,-14.812678337097168,5.309278964996338
8.771606660666069e6,25.718477249145508,-14.191557884216309,21.22289276123047,1.8064788579940796
8.771606660666069e6,178.01739501953125,-22.734859466552734,25.577016830444336,-174.67904663085938
8.771606660666069e6,76.57654571533203,23.151636123657227,3.1120400428771973,72.88291931152344
8.771606660666069e6,144.38233947753906,7.748907089233398,39.92570495605469,-138.51275634765625
8.771606660666069e6,842.0324096679688,-19.194114685058594,29.81839370727539,-841.2816162109375
8.771606660666069e6,72.44284057617188,-19.058958053588867,-11.854461669921875,68.83187866210938
8.771606660666069e6,23.07387924194336,18.707883834838867,2.9799745082855225,12.929559707641602
8.771606660666069e6,38.409828186035156,35.04715347290039,14.757623672485352,-4.78115701675415
8.771606660666069e6,47.88557434082031,-27.486915588378906,6.906388282775879,38.515377044677734
8.771606660666069e6,678.8402099609375,-57.49151611328125,-12.648429870605469,-676.2783813476562
8.771606660666069e6,2072.468505859375,-25.447771072387695,-18.200611114501953,-2072.23095703125
8.771606660666069e6,566.0425415039062,8.381726264953613,-23.894498825073242,565.4702758789062
8.771606660666069e6,495.8529968261719,41.2768669128418,11.392910957336426,-493.9941711425781
8.771606660666069e6,586.861328125,-0.8958236575126648,-36.17363739013672,-585.7393188476562
8.771606660666069e6,821.5640258789062,19.862154006958008,-0.8388298749923706,821.319580078125
8.771606660666069e6,839.4273681640625,-59.643287658691406,1.152382254600525,-837.3012084960938
8.771606660666069e6,90.40913391113281,7.043869495391846,-33.74667739868164,83.54035949707031
8.771606660666069e6,184.59231567382812,18.612268447875977,-13.446112632751465,-183.14132690429688
8.771606660666069e6,52.932830810546875,0.6604836583137512,6.286362171173096,52.493473052978516
8.771606660666069e6,209.0468292236328,64.75298309326172,4.954795837402344,-198.68746948242188
8.771606660666069e6,747.6661376953125,14.924983024597168,-42.972721099853516,746.2767333984375
8.771606660666069e6,47.865516662597656,-28.18346405029297,15.16187572479248,-35.50425720214844
8.771606660666069e6,16.623262405395508,-15.729595184326172,-2.0251190662384033,-4.294920444488525
8.771606660666069e6,217.0537872314453,-5.17535400390625,23.79509162902832,-215.668701171875
8.771606660666069e6,88.23158264160156,-0.7311781644821167,-38.89136505126953,-79.15411376953125
8.771606660666069e6,51.238807678222656,-4.798518657684326,0.39607539772987366,50.94965744018555
8.771606660666069e6,158.15354919433594,6.095208168029785,32.485530853271484,-154.640625
8.771606660666069e6,164.06455993652344,1.5310335159301758,36.155174255371094,-160.0039825439453
8.771606660666069e6,3176.243896484375,34.09966278076172,-47.69696807861328,-3175.70166015625
8.771606660666069e6,78.74976348876953,-20.105192184448242,-24.851375579833984,71.92601013183594
8.771606660666069e6,65.89570617675781,-34.777252197265625,11.94632625579834,54.623321533203125
8.771606660666069e6,70.8019027709961,16.015226364135742,-61.36964416503906,31.36595344543457
8.771606660666069e6,645.2615356445312,-29.337539672851562,-32.92863464355469,643.7476806640625
8.771606660666069e6,476.6195373535156,-19.518178939819336,21.939725875854492,-475.7073669433594
8.771606660666069e6,349.0382995605469,-10.249259948730469,29.470869064331055,347.6316833496094
8.771606660666069e6,15.539556503295898,1.9326597452163696,3.1086480617523193,14.890054702758789
8.771606660666069e6,58.95745849609375,-7.586561679840088,39.80828094482422,-42.747650146484375
8.771606660666069e6,14.773920059204102,4.103694915771484,-13.209795951843262,4.5348052978515625
8.771606660666069e6,295.4710998535156,-33.84647750854492,-3.8052282333374023,-293.4906005859375
8.771606660666069e6,873.1079711914062,34.87859344482422,42.666893005371094,871.3634033203125
8.771606660666069e6,2626.007080078125,-33.02792739868164,11.826750755310059,2625.771484375
8.771606660666069e6,69.71549224853516,42.243370056152344,-6.676124572753906,54.99828338623047
8.771606660666069e6,57.23003005981445,48.0155029296875,9.717961311340332,29.478527069091797
8.771606660666069e6,150.64991760253906,-19.150354385375977,-27.203432083129883,-146.9090576171875
8.771606660666069e6,674.1165161132812,37.915897369384766,-8.33100414276123,-672.9931030273438
8.771606660666069e6,406.16790771484375,-5.450793743133545,-40.37224197387695,404.11181640625
8.771606660666069e6,46.350955963134766,-2.8968751430511475,-5.808717250823975,-45.824806213378906
8.771606660666069e6,198.95584106445312,-11.40624713897705,15.37894058227539,-198.0162811279297
8.771606660666069e6,281.59033203125,-13.23822021484375,-40.8341064453125,-278.2877502441406
8.771606660666069e6,93.99710083007812,-37.53711700439453,-24.108985900878906,-82.69710540771484
8.771606660666069e6,22.893978118896484,-14.243720054626465,7.435790061950684,16.111934661865234
8.771606660666069e6,125.04533386230469,-33.558502197265625,39.565338134765625,113.74700164794922
8.771606660666069e6,349.96624755859375,-25.52174186706543,24.248178482055664,348.18194580078125
8.771606660666069e6,93.40843200683594,13.910429954528809,26.375286102294922,88.485107421875
8.771606660666069e6,47.35807418823242,-32.14412307739258,34.685585021972656,-0.29533323645591736
8.771606660666069e6,317.23651123046875,-11.750629425048828,37.69389343261719,314.7597961425781
8.771606660666069e6,174.27325439453125,-21.254919052124023,-40.14961242675781,-168.2291259765625
8.771606660666069e6,80.3734359741211,17.385324478149414,-8.385075569152832,77.98054504394531
8.771606660666069e6,17.393953323364258,14.21474838256836,-4.458625793457031,8.616609573364258
8.771606660666069e6,91.50453186035156,8.070108413696289,43.0257453918457,-80.31421661376953
8.771606660666069e6,22.224294662475586,-6.466366767883301,11.639328956604004,17.6143741607666
8.771606660666069e6,100.134521484375,-3.935343027114868,-40.06745147705078,91.64970397949219
8.771606660666069e6,310.5832824707031,11.271635055541992,-6.16089391708374,310.3072814941406
8.771606660666069e6,38.52998352050781,-30.334312438964844,23.6123104095459,0.6948767304420471
8.771606660666069e6,65.64956665039062,-12.767932891845703,20.876224517822266,60.86595153808594
8.771606660666069e6,183.72694396972656,27.203994750976562,-32.87449645996094,178.685302734375
8.771606660666069e6,1547.3665771484375,-22.32343101501465,-18.345483779907227,1547.0947265625
8.771606660666069e6,314.9808044433594,-42.15149688720703,-10.948820114135742,311.94537353515625
8.771606660666069e6,294.00213623046875,-14.938008308410645,-90.67311096191406,-279.2599792480469
8.771606660666069e6,40.177371978759766,2.3028407096862793,-34.23591995239258,-20.74739646911621
8.771606660666069e6,494.0218200683594,31.463830947875977,18.118417739868164,-492.6793518066406
8.771606660666069e6,61.21553039550781,10.81510066986084,-40.97270965576172,-44.104949951171875
8.771606660666069e6,650.528076171875,11.98477840423584,-37.61271667480469,649.3243408203125
8.771606660666069e6,300.05108642578125,-31.478588104248047,42.59808349609375,-295.3282775878906
8.771606660666069e6,46.436100006103516,-44.2166862487793,-13.538990020751953,3.3950774669647217
8.771606660666069e6,1946.991455078125,-37.050392150878906,-2.0082366466522217,1946.63623046875
8.771606660666069e6,423.5487976074219,-13.397974014282227,-26.231691360473633,422.5158386230469
8.771606660666069e6,35.524879455566406,-15.098998069763184,-30.427030563354492,-10.092960357666016
8.771606660666069e6,345.38128662109375,-41.68240737915039,39.82313537597656,340.5268859863281
8.771606660666069e6,239.24183654785156,-24.68755531311035,7.035297393798828,237.84725952148438
8.771606660666069e6,27.152164459228516,-4.39504861831665,-25.61540412902832,-7.443748474121094
8.771606660666069e6,3697.07421875,-1.9361742734909058,-35.3046760559082,3696.904296875
8.771606660666069e6,444.10430908203125,14.268803596496582,-3.9001383781433105,443.8507385253906
8.771606660666069e6,449.4472961425781,-8.815515518188477,-30.163862228393555,-448.3402099609375
8.771606660666069e6,1390.2413330078125,43.79190444946289,-20.05361557006836,-1389.4044189453125
8.771606660666069e6,59.07721710205078,-16.151031494140625,37.764835357666016,-42.38766098022461
8.771606660666069e6,750.38134765625,-4.953731536865234,22.888343811035156,-750.0115966796875
8.771606660666069e6,198.91261291503906,27.30930519104004,-25.492525100708008,-195.35658264160156
8.771606660666069e6,221.8124237060547,55.433982849121094,-52.457759857177734,-208.2537841796875
8.771606660666069e6,81.8423843383789,4.8443827629089355,46.01105880737305,67.46350860595703
8.771606660666069e6,114.46292114257812,-32.60908126831055,-21.25177764892578,-107.61228942871094
8.771606660666069e6,542.7924194335938,-24.55716323852539,-102.39421844482422,532.4749755859375
8.771606660666069e6,72.15834045410156,-40.65974044799805,-1.6829652786254883,59.53498458862305
8.771606660666069e6,190.8761749267578,33.51078414916992,-5.747870922088623,187.80665588378906
8.771606660666069e6,54.497947692871094,12.731303215026855,35.66325378417969,39.111473083496094
8.771606660666069e6,32.16930389404297,-9.675379753112793,-21.81761932373047,-21.421424865722656
8.771606660666069e6,30.587831497192383,15.679215431213379,16.004558563232422,20.670427322387695
8.771606660666069e6,57.027992248535156,32.69659423828125,-2.6712849140167236,46.57921600341797
8.771606660666069e6,72.6489486694336,-4.7461748123168945,12.913656234741211,71.28965759277344
8.771606660666069e6,906.7875366210938,25.745872497558594,27.170494079589844,-906.0111694335938
8.771606660666069e6,50.27858352661133,-26.07508659362793,-24.813770294189453,35.013389587402344
8.771606660666069e6,85.79353332519531,-9.138192176818848,33.688655853271484,78.33091735839844
8.771606660666069e6,117.54227447509766,-31.308996200561523,-21.12053680419922,-111.28113555908203
8.771606660666069e6,25.891265869140625,-5.395868301391602,22.34182357788086,-11.649889945983887
8.771606660666069e6,176.73513793945312,-25.35898208618164,-45.06741714477539,-168.98162841796875
8.771606660666069e6,92.03540802001953,-27.20357322692871,14.195895195007324,-86.73287963867188
8.771606660666069e6,893.1814575195312,-7.36149263381958,37.064552307128906,-892.3781127929688
8.771606660666069e6,285.208984375,-21.03942108154297,-3.342461347579956,-284.40106201171875
8.771606660666069e6,50.5915412902832,34.62100601196289,-30.893054962158203,20.00359344482422
8.771606660666069e6,40.92789077758789,-38.20644760131836,-4.260158538818359,13.814682960510254
8.771606660666069e6,673.224609375,26.414705276489258,-24.611644744873047,672.2510986328125
8.771606660666069e6,151.98736572265625,28.017194747924805,18.484882354736328,-148.21316528320312
8.771606660666069e6,536.0895385742188,-13.841824531555176,-45.74835968017578,533.9486083984375
8.771606660666069e6,51.02056884765625,-27.273082733154297,-25.858739852905273,-34.41275405883789
8.771606660666069e6,17.21051025390625,16.795652389526367,2.7232437133789062,-0.5713383555412292
8.771606660666069e6,2480.354736328125,6.3294677734375,-36.9884147644043,2480.069580078125
8.771606660666069e6,196.73074340820312,-11.298681259155273,6.476287364959717,-196.2830047607422
8.771606660666069e6,240.3736572265625,-7.7788004875183105,-33.048954010009766,-237.9503936767578
8.771606660666069e6,196.4103240966797,-7.589712619781494,-20.848249435424805,195.13687133789062
8.771606660666069e6,289.40631103515625,7.737843036651611,-34.455230712890625,287.232666015625
8.771606660666069e6,137.59852600097656,5.067189693450928,31.38958168029785,-133.85069274902344
8.771606660666069e6,120.6197509765625,-17.864124298095703,-26.532243728637695,-116.27412414550781
8.771606660666069e6,104.6031494140625,31.225500106811523,-1.6559747457504272,99.78816986083984
8.771606660666069e6,1190.42724609375,29.852764129638672,-40.71029281616211,-1189.3536376953125
8.771606660666069e6,803.3363037109375,27.65911865234375,-25.112516403198242,-802.4631958007812
8.771606660666069e6,181.50999450683594,13.732610702514648,-3.9544804096221924,-180.928955078125
8.771606660666069e6,90.75054931640625,4.832324028015137,-35.7946891784668,-83.2146987915039
8.771606660666069e6,38.022911071777344,30.526124954223633,15.896306991577148,15.963702201843262
8.771606660666069e6,580.1748657226562,5.019669532775879,-41.71742630004883,578.6458129882812
8.771606660666069e6,39.8061637878418,30.109376907348633,-24.751224517822266,-7.679042339324951
8.771606660666069e6,1416.8994140625,24.099088668823242,0.5072111487388611,-1416.692138671875
8.771606660666069e6,75.36441040039062,5.618717670440674,-3.3717873096466064,-75.03659057617188
8.771606660666069e6,1951.75830078125,-23.422279357910156,35.88505935668945,-1951.2862548828125
8.771606660666069e6,29.90361213684082,-4.4213409423828125,4.206226825714111,29.165393829345703
8.771606660666069e6,169.65426635742188,41.650299072265625,-15.951626777648926,163.6673583984375
8.771606660666069e6,467.3363952636719,32.11061096191406,2.214078664779663,-466.2198486328125
8.771606660666069e6,50.691734313964844,-19.139530181884766,-20.836406707763672,-41.98582077026367
8.771606660666069e6,300.4474182128906,15.068197250366211,30.43512725830078,298.5111999511719
8.771606660666069e6,1072.2362060546875,65.32930755615234,-5.959674835205078,-1070.224609375
8.771606660666069e6,49.30645751953125,-9.733502388000488,26.82178497314453,-40.1324348449707
8.771606660666069e6,31.990142822265625,16.642559051513672,12.262495994567871,24.28292465209961
8.771606660666069e6,55.9571418762207,23.234102249145508,-20.100919723510742,46.70081329345703
8.771606660666069e6,475.6835021972656,-26.166959762573242,35.04424285888672,-473.66192626953125
8.771606660666069e6,35.83656311035156,26.41653823852539,-13.879961013793945,-19.682661056518555
8.771606660666069e6,65.78441619873047,7.047295093536377,-18.417835235595703,-62.708396911621094
8.771606660666069e6,53.236427307128906,-23.649694442749023,34.47678756713867,-32.86023712158203
8.771606660666069e6,26.91867446899414,17.052753448486328,17.75916862487793,10.586091995239258
8.771606660666069e6,1042.40673828125,6.795576095581055,-30.838748931884766,-1041.92529296875
8.771606660666069e6,222.14637756347656,25.276208877563477,-15.398271560668945,220.15142822265625
8.771606660666069e6,406.868896484375,-40.56787872314453,-0.13192546367645264,404.83349609375
8.771606660666069e6,53.01164245605469,30.2666072845459,-3.479931592941284,43.30925750732422
8.771606660666069e6,27.43326759338379,17.800148010253906,-15.677642822265625,-13.549360275268555
8.771606660666069e6,230.40541076660156,30.792634963989258,9.734536170959473,228.116943359375
8.771606660666069e6,116.82588195800781,-10.6654691696167,-14.80622673034668,115.3644027709961
8.771606660666069e6,1323.6639404296875,-3.800518035888672,36.02138137817383,-1323.1658935546875
8.771606660666069e6,57.52479553222656,-45.46349334716797,34.559165954589844,6.439846992492676
8.771606660666069e6,2100.8779296875,-24.620014190673828,-19.8205623626709,-2100.638671875
8.771606660666069e6,256.2576904296875,37.985660552978516,6.543712615966797,253.3296356201172
8.771606660666069e6,493.8201904296875,24.927391052246094,-11.165495872497559,-493.0577697753906
8.771606660666069e6,938.0603637695312,27.212879180908203,-2.041250467300415,-937.659912109375
8.771606660666069e6,99.11770629882812,-19.411178588867188,-30.140422821044922,-92.37269592285156
8.771606660666069e6,69.72718048095703,-12.609414100646973,-21.02219581604004,65.2271728515625
8.771606660666069e6,170.7521514892578,7.429429531097412,24.68337631225586,-168.7763671875
8.771606660666069e6,55.599945068359375,14.749092102050781,-53.54655075073242,0.4692964553833008
8.771606660666069e6,100.8504867553711,24.903913497924805,-32.91529083251953,91.98279571533203
8.771606660666069e6,28.13344383239746,-1.4377923011779785,25.913217544555664,10.56235408782959
8.771606660666069e6,53.926597595214844,-27.26481819152832,-24.619144439697266,39.39847946166992
8.771606660666069e6,29.501483917236328,26.971263885498047,-10.566577911376953,4.987052917480469
8.771606660666069e6,171.45668029785156,-18.72727394104004,13.14233684539795,169.9046630859375
8.771606660666069e6,66.27365112304688,-27.202192306518555,-41.69498825073242,-43.673789978027344
8.771606660666069e6,137.6472625732422,-36.90300369262695,2.062396287918091,-132.5681610107422
8.771606660666069e6,617.6717529296875,-10.967188835144043,-41.336421966552734,-616.1842651367188
8.771606660666069e6,1163.822998046875,-6.914760112762451,31.51917839050293,-1163.372802734375
8.771606660666069e6,271.268310546875,-5.0982794761657715,19.748149871826172,270.4887390136719
8.771606660666069e6,46.957359313964844,30.399486541748047,-33.285865783691406,12.90545654296875
8.771606660666069e6,92.2999496459961,-39.267303466796875,-17.489887237548828,-81.64005279541016
8.771606660666069e6,59.44037628173828,26.154516220092773,-38.3265266418457,37.06496810913086
8.771606660666069e6,50.82666015625,-11.693204879760742,10.890968322753906,-48.18339920043945
8.771606660666069e6,57.306297302246094,38.94048309326172,34.918968200683594,23.27984046936035
8.771606660666069e6,7.02242374420166,-4.869847297668457,0.23573943972587585,4.3792948722839355
8.771606660666069e6,10.489178657531738,3.83909010887146,-0.21767595410346985,9.427176475524902
8.771606660666069e6,32.196266174316406,4.375351428985596,-30.685117721557617,-8.33751392364502
8.771606660666069e6,465.4801940917969,-31.88702964782715,-5.250216484069824,-464.3501892089844
8.771606660666069e6,204.21934509277344,21.21527671813965,17.482057571411133,-202.3449249267578
8.771606660666069e6,140.33895874023438,20.055360794067383,25.896617889404297,136.4397430419922
8.771606660666069e6,605.1380004882812,22.676679611206055,4.081732749938965,604.6939697265625
8.771606660666069e6,2245.69482421875,19.401948928833008,3.2603676319122314,2245.607177734375
8.771606660666069e6,574.3355102539062,9.810240745544434,24.390445709228516,-573.7279663085938
8.771606660666069e6,1385.2884521484375,-1.4653077125549316,1.8350732326507568,-1385.2841796875
8.771606660666069e6,252.6520538330078,36.98155975341797,-8.480880737304688,249.774169921875
8.771606660666069e6,32.61660385131836,-3.793929100036621,22.735685348510742,-22.938447952270508
8.771606660666069e6,7.406890392303467,-6.009315490722656,2.4482648372650146,2.528028726577759
8.771606660666069e6,38.973785400390625,11.296757698059082,34.762149810791016,13.28784465789795
8.771606660666069e6,17.16489028930664,11.821998596191406,4.463232040405273,11.339672088623047
8.771606660666069e6,212.32151794433594,28.304841995239258,-4.082223892211914,210.3716583251953
8.771606660666069e6,151.61712646484375,33.45286178588867,7.997844219207764,147.64256286621094
8.771606660666069e6,16.14933967590332,11.343663215637207,-10.16493034362793,-4.736186981201172
8.771606660666069e6,229.85450744628906,-35.547325134277344,-11.660079002380371,226.77557373046875
8.771606660666069e6,195.33441162109375,-35.638755798339844,4.676903247833252,191.9822235107422
8.771606660666069e6,1222.3359375,-31.621217727661133,-4.855193138122559,-1221.9146728515625
8.771606660666069e6,114.89230346679688,32.55731964111328,-8.916919708251953,109.79246520996094
8.771606660666069e6,70.57899475097656,-23.110332489013672,-18.3536434173584,-64.06314086914062
8.771606660666069e6,132.01495361328125,18.412269592285156,1.807069182395935,-130.6878204345703
8.771606660666069e6,11.097740173339844,-0.9616965651512146,-10.760337829589844,0.2913392186164856
8.771606660666069e6,671.6487426757812,-55.2952766418457,-15.114815711975098,-669.1932983398438
8.771606660666069e6,70.10391998291016,-55.51560974121094,3.3997645378112793,42.598751068115234
8.771606660666069e6,751.7705688476562,-21.846113204956055,-13.892171859741211,751.3204345703125
8.771606660666069e6,727.1315307617188,-3.9503533840179443,4.909878253936768,-727.099853515625
8.771606660666069e6,67.71717071533203,-24.299110412597656,-0.8875830173492432,-63.15073776245117
8.771606660666069e6,41.142845153808594,-5.093945026397705,-24.368621826171875,32.658695220947266
8.771606660666069e6,75.21281433105469,-16.066486358642578,10.605899810791016,-72.66350555419922
8.771606660666069e6,93.0999984741211,3.738537073135376,-33.97004318237305,-86.56387329101562
8.771606660666069e6,68.09242248535156,-19.955944061279297,-47.79953384399414,44.1268424987793
8.771606660666069e6,769.1006469726562,19.9119815826416,18.248937606811523,768.6221313476562
8.771606660666069e6,117.05438232421875,-57.37706756591797,-48.061195373535156,89.96308135986328
8.771606660666069e6,5.397570610046387,2.935297966003418,3.3875715732574463,-1.6361324787139893
8.771606660666069e6,32.09810256958008,11.296573638916016,-13.714168548583984,-26.61263084411621
8.771606660666069e6,42.39391326904297,19.19890785217285,7.162597179412842,37.02671813964844
8.771606660666069e6,657.925537109375,-14.785441398620605,46.62571334838867,656.0999145507812
8.771606660666069e6,258.33380126953125,-26.0786190032959,-44.62681579589844,-253.0974884033203
8.771606660666069e6,47.07182693481445,-38.10017395019531,24.48700523376465,-12.57597541809082
8.771606660666069e6,212.347412109375,-39.96347427368164,-14.706315994262695,208.0185089111328
8.771606660666069e6,44.95545959472656,-3.9861462116241455,-44.08357620239258,7.4415602684021
8.771606660666069e6,70.85690307617188,31.192447662353516,-13.84774398803711,62.045196533203125
8.771606660666069e6,196.3524932861328,16.059600830078125,-7.064537525177002,195.55079650878906
8.771606660666069e6,355.2401428222656,-14.468771934509277,-2.264000177383423,354.9291687011719
8.771606660666069e6,32.90780258178711,-2.133828639984131,32.74109649658203,-0.15972508490085602
8.771606660666069e6,26.276416778564453,-8.30575942993164,23.010618209838867,-9.252598762512207
8.771606660666069e6,292.73370361328125,-27.811748504638672,-40.90571975708008,-288.5132141113281
8.771606660666069e6,2090.7724609375,-8.08720874786377,-6.669624328613281,2090.74462890625
8.771606660666069e6,120.78821563720703,34.24961853027344,-26.294300079345703,112.77854919433594
8.771606660666069e6,68.09776306152344,35.27043914794922,-27.485286712646484,51.298099517822266
8.771606660666069e6,945.888427734375,1.1161686182022095,-10.480149269104004,945.8263549804688
8.771606660666069e6,70.54820251464844,-17.200828552246094,-19.79388427734375,-65.44476318359375
8.771606660666069e6,43.19667434692383,-11.631721496582031,-13.607670783996582,39.23164367675781
8.771606660666069e6,117.36609649658203,26.713396072387695,-18.492921829223633,112.7512435913086
8.771606660666069e6,288.664306640625,-41.731903076171875,15.60397720336914,-285.1941223144531
8.771606660666069e6,39.148738861083984,-27.699495315551758,12.858546257019043,24.365022659301758
8.771606660666069e6,270.354248046875,-5.570850849151611,-33.60955810546875,-268.1872863769531
8.771606660666069e6,40.632286071777344,12.319336891174316,0.07552684098482132,-38.63736343383789
8.771606660666069e6,134.1823272705078,-2.2977278232574463,-28.78711700439453,131.01356506347656
8.771606660666069e6,882.1231079101562,108.37810516357422,-33.36148452758789,-874.800537109375
8.771606660666069e6,50.21415710449219,-36.1011848449707,-16.528850555419922,30.63654136657715
8.771606660666069e6,206.4921112060547,-11.266130447387695,27.264650344848633,-204.35836791992188
8.771606660666069e6,223.40982055664062,23.399295806884766,-38.407371520996094,-218.82168579101562
8.771606660666069e6,691.9513549804688,-38.36430740356445,2.5140647888183594,690.8778076171875
8.771606660666069e6,1197.3594970703125,11.86457633972168,-31.790861129760742,1196.8758544921875
8.771606660666069e6,30.844806671142578,-15.119322776794434,3.43249773979187,26.54545021057129
8.771606660666069e6,559.8977661132812,41.35734939575195,3.7711613178253174,-558.3497924804688
8.771606660666069e6,673.180908203125,-10.511274337768555,30.08034896850586,672.421630859375
8.771606660666069e6,32.27128982543945,-14.746978759765625,1.968632459640503,-28.525814056396484
8.771606660666069e6,322.1739807128906,-12.790772438049316,-30.729217529296875,320.4400329589844
8.771606660666069e6,40.146297454833984,-17.281667709350586,33.646358489990234,13.214627265930176
8.771606660666069e6,1130.16943359375,5.8983612060546875,-14.251751899719238,1130.061279296875
8.771606660666069e6,774.1998291015625,54.5692253112793,-1.4648432731628418,-772.2687377929688
8.771606660666069e6,273.076416015625,-20.519161224365234,16.158666610717773,-271.8128356933594
8.771606660666069e6,1405.8555908203125,27.854888916015625,-24.598339080810547,-1405.3621826171875
8.771606660666069e6,14.647625923156738,-2.3330390453338623,9.551115036010742,10.560343742370605
8.771606660666069e6,236.58949279785156,0.75011146068573,-29.139162063598633,-234.7734375
8.771606660666069e6,176.39161682128906,-43.80131912231445,12.434466361999512,170.39503479003906
8.771606660666069e6,63.16067123413086,-30.35978889465332,-45.01664352416992,32.16659927368164
8.771606660666069e6,178.19851684570312,-27.853240966796875,24.94153594970703,-174.21385192871094
8.771606660666069e6,143.1118927001953,-12.382487297058105,11.089730262756348,142.12086486816406
8.771606660666069e6,76.83058166503906,-2.9153635501861572,-27.755186080932617,-71.53826904296875
8.771606660666069e6,46.397396087646484,-30.327194213867188,-6.071585178375244,34.49275588989258
8.771606660666069e6,238.79566955566406,40.346649169921875,-25.924663543701172,233.9167938232422
8.771606660666069e6,27.989999771118164,-18.8790283203125,20.456607818603516,-1.4779430627822876
8.771606660666069e6,45.49473571777344,14.990179061889648,-22.490962982177734,36.50831604003906
8.771606660666069e6,37.3228645324707,-18.972387313842773,-9.008573532104492,-30.749391555786133
8.771606660666069e6,1295.0452880859375,42.64570617675781,2.5144665241241455,1294.338134765625
8.771606660666069e6,175.10498046875,-24.83589744567871,29.404909133911133,170.80374145507812
8.771606660666069e6,547.5700073242188,28.958675384521484,17.49058723449707,546.51806640625
8.771606660666069e6,71.2306137084961,3.536797285079956,-34.752410888671875,-62.0257682800293
8.771606660666069e6,120.11863708496094,-26.817670822143555,-7.642099857330322,-116.809814453125
8.771606660666069e6,78.07683563232422,-22.35284423828125,-20.315956115722656,71.95303344726562
8.771606660666069e6,23.8869571685791,23.45264434814453,-0.6171843409538269,-3.7167258262634277
8.771606660666069e6,50.082889556884766,-6.619706630706787,-42.05228805541992,26.26242446899414
8.771606660666069e6,31.320533752441406,3.175037145614624,27.21879768371582,14.955493927001953
8.771606660666069e6,33.07783508300781,21.103595733642578,1.6687695980072021,25.290935516357422
8.771606660666069e6,43.63970184326172,-36.691043853759766,15.588740348815918,-17.573184967041016
8.771606660666069e6,698.7922973632812,13.359384536743164,7.781583786010742,698.61669921875
8.771606660666069e6,33.125274658203125,-11.790301322937012,-27.714807510375977,-13.557170867919922
8.771606660666069e6,120.18925476074219,-9.6830415725708,37.725101470947266,113.67562103271484
8.771606660666069e6,750.18017578125,-15.279525756835938,-1.7350202798843384,-750.018310546875
8.771606660666069e6,87.59656524658203,21.784015655517578,-14.759404182434082,-83.51293182373047
8.771606660666069e6,548.9677124023438,3.356639862060547,-7.58687162399292,548.8992309570312
8.771606660666069e6,66.55770874023438,-9.66994571685791,-13.196725845336914,-64.4662857055664
8.771606660666069e6,62.389469146728516,-9.293181419372559,-18.693994522094727,-58.73884582519531
8.771606660666069e6,57.06110382080078,-12.971695899963379,52.22760009765625,-18.804706573486328
8.771606660666069e6,50.13494110107422,21.027938842773438,-4.85568904876709,45.181800842285156
8.771606660666069e6,64.88481903076172,26.849153518676758,-11.244159698486328,-57.93415832519531
8.771606660666069e6,47.81064987182617,38.12767028808594,10.609845161437988,-26.70589256286621
8.771606660666069e6,72.5810775756836,19.486892700195312,29.42975425720215,-63.37032699584961
8.771606660666069e6,116.21261596679688,22.869644165039062,-32.85498046875,109.07124328613281
8.771606660666069e6,1333.7855224609375,0.41849005222320557,34.469181060791016,-1333.337646484375
8.771606660666069e6,45.03530502319336,24.99977684020996,-18.944761276245117,32.216773986816406
8.771606660666069e6,65.4012222290039,37.328426361083984,41.96481704711914,-33.41403579711914
8.771606660666069e6,47.0296745300293,-16.068960189819336,31.922508239746094,-30.465831756591797
8.771606660666069e6,417.2774658203125,14.704381942749023,41.955482482910156,414.89471435546875
8.771606660666069e6,51.48876190185547,16.45305061340332,-6.006369113922119,-48.352333068847656
8.771606660666069e6,277.0122985839844,-18.300264358520508,-34.90393829345703,-274.1828918457031
8.771606660666069e6,393.4572448730469,-1.9978107213974,-27.581283569335938,-392.4761657714844
8.771606660666069e6,607.2728881835938,21.003164291381836,-22.533443450927734,-606.4859008789062
8.771606660666069e6,118.89399719238281,24.259733200073242,12.602362632751465,115.68087005615234
8.771606660666069e6,1105.372314453125,-36.99384307861328,-8.843482971191406,-1104.7147216796875
8.771606660666069e6,248.71078491210938,25.48248863220215,-25.213274002075195,246.100830078125
8.771606660666069e6,533.8883056640625,20.131877899169922,-27.51647186279297,-532.7925415039062
8.771606660666069e6,129.6685333251953,-29.036745071411133,-21.466697692871094,-124.51350402832031
8.771606660666069e6,54.89427947998047,43.36724853515625,-33.084716796875,-5.630279064178467
8.771606660666069e6,22.87299346923828,18.53036117553711,12.360749244689941,4.543809413909912
8.771606660666069e6,551.1602783203125,27.728553771972656,-0.3268516957759857,550.4564819335938
8.771606660666069e6,29.823942184448242,-19.33829116821289,21.853872299194336,-5.616144180297852
8.771606660666069e6,27.84769630432129,-23.678165435791016,11.44448471069336,-8.80324649810791
8.771606660666069e6,349.14990234375,28.762216567993164,16.31158447265625,-347.5715026855469
8.771606660666069e6,122.79865264892578,-68.83295440673828,39.29182434082031,93.76203918457031
8.771606660666069e6,178.88287353515625,-14.916422843933105,32.9320182800293,-175.17335510253906
8.771606660666069e6,51.823184967041016,-12.951627731323242,44.07255172729492,-23.856708526611328
8.771606660666069e6,48.97597122192383,-5.124083042144775,21.012638092041016,-43.869049072265625
8.771606660666069e6,960.448974609375,49.74003601074219,-32.10426330566406,-958.6193237304688
8.771606660666069e6,48.153968811035156,-26.780073165893555,18.207183837890625,35.54948043823242
8.771606660666069e6,59.433406829833984,33.008121490478516,30.18097686767578,39.058128356933594
8.771606660666069e6,48.51519775390625,9.988548278808594,36.25636291503906,30.54610252380371
8.771606660666069e6,392.2742614746094,-5.0455522537231445,-30.87725830078125,-391.0164489746094
8.771606660666069e6,72.07652282714844,18.06338882446289,-16.637617111206055,67.71678924560547
8.771606660666069e6,1013.2609252929688,-17.0744686126709,-29.08474349975586,-1012.6962890625
8.771606660666069e6,1049.8387451171875,-9.752687454223633,-39.62348175048828,1049.04248046875
8.771606660666069e6,2459.284912109375,27.573612213134766,-30.812602996826172,-2458.93603515625
8.771606660666069e6,39.3314323425293,6.9964518547058105,38.59313201904297,-1.4886329174041748
8.771606660666069e6,98.59275817871094,-0.6952373385429382,-30.40182876586914,-93.75186920166016
8.771606660666069e6,158.15045166015625,25.853626251220703,0.1923852264881134,-156.00241088867188
8.771606660666069e6,23.615718841552734,-14.067729949951172,8.002086639404297,-17.0118350982666
8.771606660666069e6,158.6931915283203,-17.28925895690918,25.020383834838867,-155.73126220703125
8.771606660666069e6,37.91326904296875,-6.253950595855713,28.100969314575195,24.541276931762695
8.771606660666069e6,379.42181396484375,11.452855110168457,-26.554683685302734,-378.3096923828125
8.771606660666069e6,669.4647216796875,15.935816764831543,-12.497661590576172,669.153564453125
8.771606660666069e6,59.774452209472656,-14.90523624420166,34.11406707763672,-46.69779586791992
8.771606660666069e6,50.75221252441406,0.9667721390724182,-12.600343704223633,-49.08888244628906
8.771606660666069e6,289.0503234863281,23.457670211791992,10.073800086975098,-287.90966796875
8.771606660666069e6,50.58247756958008,-24.29544448852539,-0.09490359574556351,-44.29383850097656
8.771606660666069e6,52.891536712646484,-15.643010139465332,16.325817108154297,-47.74843978881836
8.771606660666069e6,416.4186096191406,-40.45045471191406,-7.823361873626709,414.3677673339844
8.771606660666069e6,526.8580932617188,-5.480759620666504,37.01935577392578,525.521240234375
8.771606660666069e6,52.16975021362305,15.389788627624512,19.814788818359375,-45.67106628417969
8.771606660666069e6,176.3071746826172,-2.78432035446167,13.379462242126465,-175.7586212158203
8.771606660666069e6,41.07484817504883,-24.033092498779297,9.490434646606445,-31.829545974731445
8.771606660666069e6,105.60504150390625,-24.288015365600586,-1.59828519821167,-102.73070526123047
8.771606660666069e6,95.86752319335938,-14.004717826843262,11.869988441467285,94.05949401855469
8.771606660666069e6,24.761674880981445,-7.203052043914795,-20.49304962158203,-11.615776062011719
8.771606660666069e6,1190.3856201171875,18.609966278076172,-3.1907341480255127,-1190.2332763671875
8.771606660666069e6,69.27960205078125,-28.86338996887207,-27.701032638549805,-56.50535583496094
8.771606660666069e6,15.655532836914062,-1.200181007385254,6.336369514465332,14.040672302246094
8.771606660666069e6,42.34950256347656,6.921926975250244,-27.6160945892334,-31.249853134155273
8.771606660666069e6,1233.6514892578125,9.63900375366211,-14.551371574401855,1233.5255126953125
8.771606660666069e6,87.92034912109375,12.066183090209961,31.801984786987305,-81.03495788574219
8.771606660666069e6,56.40273666381836,-35.209720611572266,-22.1503963470459,-38.0070915222168
8.771606660666069e6,525.8604125976562,-15.01093864440918,55.404544830322266,522.7119750976562
8.771606660666069e6,73.43362426757812,-7.088500499725342,-44.1723518371582,58.178077697753906
8.771606660666069e6,79.51829528808594,21.996841430664062,26.551166534423828,-71.60983276367188
8.771606660666069e6,248.967041015625,9.48291015625,25.555627822875977,-247.45748901367188
8.771606660666069e6,550.9854736328125,18.409473419189453,31.024770736694336,-549.7974243164062
8.771606660666069e6,80.7115249633789,-28.886045455932617,-2.3886489868164062,75.2853012084961
8.771606660666069e6,39.427860260009766,27.16967010498047,16.448625564575195,-23.22590446472168
8.771606660666069e6,126.88044738769531,5.174986362457275,35.398155212402344,-121.70650482177734
8.771606660666069e6,39.367706298828125,13.950355529785156,6.830951690673828,-36.08568572998047
8.771606660666069e6,46.77931594848633,9.703753471374512,-13.174856185913086,-43.75156784057617
8.771606660666069e6,120.66095733642578,33.127201080322266,-24.874340057373047,-113.29853057861328
8.771606660666069e6,338.0391540527344,30.44797706604004,-7.28739070892334,-336.5767822265625
8.771606660666069e6,804.0147705078125,-26.215534210205078,-32.82155227661133,802.9127807617188
8.771606660666069e6,41.23511505126953,28.743253707885742,-11.821978569030762,26.982135772705078
8.771606660666069e6,68.61042785644531,28.899227142333984,-21.232099533081055,-58.43850326538086
8.771606660666069e6,31.313508987426758,-5.5382466316223145,23.667936325073242,19.578744888305664
8.771606660666069e6,266.22637939453125,52.03679275512695,-3.528641700744629,261.05523681640625
8.771606660666069e6,37.9925651550293,-25.158672332763672,-26.921749114990234,-8.906758308410645
8.771606660666069e6,231.9283905029297,-39.0113410949707,7.022998332977295,-228.50209045410156
8.771606660666069e6,164.95794677734375,40.36549377441406,-10.814937591552734,-159.55694580078125
8.771606660666069e6,47.67044448852539,-17.936893463134766,6.722923278808594,43.57954025268555
8.771606660666069e6,1278.1759033203125,-19.82071304321289,-5.207677841186523,-1278.0091552734375
8.771606660666069e6,8.495758056640625,-0.4021577537059784,6.219070911407471,5.19365930557251
8.771606660666069e6,52.694332122802734,48.811832427978516,-3.650902032852173,-19.34950828552246
8.771606660666069e6,22.76431655883789,21.887205123901367,0.613574206829071,5.694092273712158
8.771606660666069e6,773.7069091796875,21.636882781982422,15.682497024536133,773.2411499023438
8.771606660666069e6,54.61320877075195,39.46227264404297,24.723806381225586,28.42005729675293
8.771606660666069e6,127.41221618652344,-21.225051879882812,91.10381317138672,-86.47022247314453
8.771606660666069e6,360.5722961425781,-2.628664255142212,-10.040762901306152,360.4140625
8.771606660666069e6,189.6082305908203,30.884201049804688,-0.08416012674570084,-187.0590057373047
8.771606660666069e6,99.67130279541016,19.326505661010742,-20.56450080871582,95.55935668945312
8.771606660666069e6,33.78831100463867,-3.800121784210205,-19.913490295410156,-26.912763595581055
8.771606660666069e6,1180.9669189453125,-14.320180892944336,49.33406066894531,1179.8463134765625
8.771606660666069e6,24.229740142822266,8.667176246643066,-16.90331268310547,14.828119277954102
8.771606660666069e6,72.13636779785156,36.47895431518555,-59.71025848388672,-17.356889724731445
8.771606660666069e6,629.1477661132812,-26.838716506958008,29.403573989868164,-627.8818969726562
8.771606660666069e6,57.0982780456543,19.080419540405273,35.937015533447266,39.97895050048828
8.771606660666069e6,42.45229721069336,23.05183219909668,-15.112345695495605,32.18792724609375
8.771606660666069e6,27.56313705444336,6.987715721130371,-26.4293155670166,-2.454465389251709
8.771606660666069e6,1474.9478759765625,-28.431169509887695,-3.478013753890991,1474.6676025390625
8.771606660666069e6,88.94152069091797,-0.3058832883834839,-24.560283660888672,-85.44546508789062
8.771606660666069e6,177.6078338623047,-2.481360673904419,62.718746185302734,-166.12759399414062
8.771606660666069e6,159.67608642578125,2.290405035018921,-42.22655487060547,-153.95375061035156
8.771606660666069e6,35.70089340209961,23.843048095703125,24.49721908569336,-9.979168891906738
8.771606660666069e6,230.46194458007812,-10.085949897766113,-42.19164276123047,226.32826232910156
8.771606660666069e6,422.0484313964844,-21.399333953857422,-30.098413467407227,-420.4219970703125
8.771606660666069e6,17.228641510009766,-1.7650811672210693,-11.496456146240234,-12.457000732421875
8.771606660666069e6,45.410003662109375,20.392169952392578,23.841381072998047,32.733028411865234
8.771606660666069e6,435.40447998046875,6.785518646240234,-31.239221572875977,434.2220153808594
8.771606660666069e6,637.9619750976562,9.250701904296875,54.408409118652344,635.5653076171875
8.771606660666069e6,27.4896297454834,-18.99422264099121,18.929113388061523,-5.49751091003418
8.771606660666069e6,72.45187377929688,-39.13645935058594,12.52977466583252,-59.61754608154297
8.771606660666069e6,253.06857299804688,-29.18103790283203,32.401912689208984,-249.27078247070312
8.771606660666069e6,3334.064453125,15.969866752624512,39.042442321777344,3333.796630859375
8.771606660666069e6,291.181640625,42.83256149291992,-19.392162322998047,287.3494567871094
8.771606660666069e6,115.3912353515625,-0.4952141046524048,-23.846046447753906,-112.87113189697266
8.771606660666069e6,1157.5595703125,0.7713158130645752,94.71731567382812,-1153.6749267578125
8.771606660666069e6,20.500953674316406,7.861091136932373,9.385008811950684,-16.249576568603516
8.771606660666069e6,87.23927307128906,-42.88895797729492,61.280853271484375,44.827667236328125
8.771606660666069e6,760.9290771484375,-3.68031644821167,-51.53145217895508,-759.1690673828125
8.771606660666069e6,36.54000473022461,16.64064598083496,-24.768857955932617,-20.937986373901367
8.771606660666069e6,357.324462890625,-10.1940336227417,11.508888244628906,356.9846496582031
8.771606660666069e6,215.72613525390625,-38.37289047241211,15.998290061950684,-211.66714477539062
8.771606660666069e6,51.23048782348633,33.86723709106445,-15.750262260437012,34.97338104248047
8.771606660666069e6,59.65543746948242,-16.25796127319336,-22.724802017211914,52.64663314819336
8.771606660666069e6,416.1578369140625,21.435428619384766,37.38434600830078,-413.9129333496094
8.771606660666069e6,1408.587646484375,17.88166046142578,-9.57647705078125,1408.4393310546875
8.771606660666069e6,83.95282745361328,-12.893352508544922,46.505584716796875,68.64913177490234
8.771606660666069e6,397.9205017089844,14.392017364501953,-30.2930965423584,-396.4966125488281
8.771606660666069e6,289.1242980957031,26.7898006439209,-38.12378692626953,285.33380126953125
8.771606660666069e6,181.18370056152344,1.8261384963989258,24.876659393310547,-179.44076538085938
8.771606660666069e6,834.6575927734375,28.105655670166016,5.826479434967041,834.1600952148438
8.771606660666069e6,44.50297164916992,-18.224563598632812,-27.765701293945312,-29.514070510864258
8.771606660666069e6,660.0547485351562,-22.86509895324707,-33.479610443115234,658.8035888671875
8.771606660666069e6,365.92474365234375,-34.634586334228516,3.5393402576446533,-364.2560729980469
8.771606660666069e6,91.30258178710938,-23.37101936340332,-4.6084747314453125,-88.10421752929688
8.771606660666069e6,111.81039428710938,-28.148807525634766,29.16008186340332,-104.17549896240234
8.771606660666069e6,54.915077209472656,51.34213638305664,-17.145902633666992,8.905251502990723
8.771606660666069e6,56.9807014465332,-45.77872085571289,-1.1825156211853027,33.81339645385742
8.771606660666069e6,704.8532104492188,-28.6904296875,-31.428070068359375,703.5629272460938
8.771606660666069e6,25.555408477783203,-23.635456085205078,-9.167076110839844,2.010868549346924
8.771606660666069e6,114.60023498535156,-30.13029670715332,-2.2852094173431396,110.51602172851562
8.771606660666069e6,894.55029296875,-87.66075897216797,-9.292820930480957,890.1926879882812
8.771606660666069e6,154.26748657226562,-18.986204147338867,-24.621240615844727,151.080810546875
8.771606660666069e6,114.85224914550781,25.70162010192871,11.637397766113281,-111.30441284179688
8.771606660666069e6,42.632503509521484,8.113839149475098,-27.03788948059082,-31.84781265258789
8.771606660666069e6,98.3550033569336,2.5112290382385254,-45.775054931640625,86.98091888427734
8.771606660666069e6,720.2825927734375,36.076690673828125,18.26603889465332,719.1421508789062
8.771606660666069e6,59.566192626953125,-0.8840785026550293,-24.634033203125,54.167781829833984
8.771606660666069e6,1059.358154296875,-1.0187698602676392,35.52501678466797,-1058.7589111328125
8.771606660666069e6,29.7888240814209,20.245323181152344,14.323925971984863,16.308305740356445
8.771606660666069e6,67.5333480834961,20.75678253173828,26.920127868652344,-58.299659729003906
8.771606660666069e6,477.0328674316406,-37.25358963012695,24.561534881591797,474.9346008300781
8.771606660666069e6,231.29141235351562,-48.066349029541016,-41.72389221191406,222.34678649902344
8.771606660666069e6,237.87074279785156,-64.8587417602539,-24.214569091796875,-227.55905151367188
8.771606660666069e6,52.76311492919922,20.384645462036133,1.056364893913269,48.58941650390625
8.771606660666069e6,30.682659149169922,10.628085136413574,-22.62012481689453,17.619138717651367
8.771606660666069e6,266.99371337890625,-25.690959930419922,-30.81982421875,-263.9496154785156
8.771606660666069e6,38.51102066040039,31.322229385375977,2.3185157775878906,22.142173767089844
8.771606660666069e6,51.454124450683594,31.409744262695312,-32.8651123046875,23.96818733215332
8.771606660666069e6,206.8398895263672,-11.841245651245117,-41.357383728027344,-202.30108642578125
8.771606660666069e6,742.6950073242188,-4.352197170257568,12.700854301452637,-742.5693969726562
8.771606660666069e6,533.715087890625,-32.871559143066406,-24.698949813842773,532.1229858398438
8.771606660666069e6,32.88157272338867,-28.73866081237793,-2.1851162910461426,-15.625211715698242
8.771606660666069e6,262.1034240722656,-6.9709625244140625,-36.50452423095703,259.4429931640625
8.771606660666069e6,444.0232238769531,19.976762771606445,13.979975700378418,443.3460998535156
8.771606660666069e6,341.16546630859375,-28.43538475036621,56.90492630004883,-335.1727600097656
8.771606660666069e6,44.50191879272461,-4.988068103790283,39.68272399902344,-19.35087013244629
8.771606660666069e6,278.9112548828125,0.6008960604667664,-67.71691131591797,-270.553466796875
8.771606660666069e6,521.6336059570312,-28.990264892578125,66.45054626464844,-516.5647583007812
8.771606660666069e6,167.3291015625,-32.79930877685547,-12.21509838104248,-163.60824584960938
8.771606660666069e6,69.17137908935547,-29.573144912719727,31.193336486816406,54.13611602783203
8.771606660666069e6,893.6015625,2.461799144744873,-10.146833419799805,-893.5370483398438
8.771606660666069e6,422.18975830078125,28.073806762695312,29.666933059692383,-420.2018127441406
8.771606660666069e6,20.223203659057617,-11.197509765625,-15.154415130615234,6.8972601890563965
8.771606660666069e6,115.79763793945312,38.01602554321289,34.01625442504883,-103.92498779296875
8.771606660666069e6,485.4500427246094,-0.043971698731184006,15.470417022705078,485.1968994140625
8.771606660666069e6,1795.2347412109375,23.001399993896484,27.077417373657227,1794.88134765625
8.771606660666069e6,45.04160690307617,-30.964250564575195,-31.703380584716797,7.6480021476745605
8.771606660666069e6,284.0670471191406,22.206562042236328,-0.25144651532173157,283.1863708496094
8.771606660666069e6,91.90196990966797,3.9427847862243652,3.1523098945617676,-91.72853088378906
8.771606660666069e6,213.75624084472656,29.36597442626953,-26.00153160095215,210.1116943359375
8.771606660666069e6,194.53318786621094,50.28453063964844,16.902179718017578,-187.14320373535156
8.771606660666069e6,1196.3201904296875,0.38457393646240234,-40.044010162353516,-1195.6470947265625
8.771606660666069e6,112.93805694580078,21.605695724487305,20.359580993652344,-108.9372329711914
8.771606660666069e6,47.445735931396484,-15.804405212402344,-29.70057487487793,-33.35909652709961
8.771606660666069e6,1349.270751953125,-2.2462565898895264,-16.257701873779297,-1349.1685791015625
8.771606660666069e6,71.42981719970703,2.412205457687378,36.85884475708008,-61.08567810058594
8.771606660666069e6,2630.5234375,5.97247838973999,-12.203657150268555,-2630.4873046875
8.771606660666069e6,88.90499114990234,-23.00953483581543,-0.05132080987095833,85.83875274658203
8.771606660666069e6,45.30036544799805,7.366079330444336,3.071823835372925,-44.520362854003906
8.771606660666069e6,215.59878540039062,-32.6036262512207,27.116315841674805,-211.3721466064453
8.771606660666069e6,638.8988647460938,1.6252365112304688,23.341623306274414,-638.4652709960938
8.771606660666069e6,127.65873718261719,-39.65863800048828,-9.776236534118652,-120.9214859008789
8.771606660666069e6,480.9490966796875,-0.27301010489463806,5.084186553955078,-480.91552734375
8.771606660666069e6,594.7833251953125,-7.096124172210693,-15.767288208007812,594.526611328125
8.771606660666069e6,15.938100814819336,14.658506393432617,-5.321657180786133,-2.1132874488830566
8.771606660666069e6,47.92937469482422,27.91874122619629,-19.398101806640625,33.69150161743164
8.771606660666069e6,2676.86669921875,-7.079975605010986,-32.36408615112305,2676.66064453125
8.771606660666069e6,65.78921508789062,16.77857780456543,-40.08598327636719,49.32999801635742
8.771606660666069e6,115.60770416259766,-23.580581665039062,-24.88486099243164,-110.3787841796875
8.771606660666069e6,544.9912719726562,-19.411314010620117,-43.17591857910156,-542.9255981445312
8.771606660666069e6,69.25236511230469,-17.45758628845215,32.99941635131836,-58.273460388183594
8.771606660666069e6,155.26502990722656,39.80101776123047,17.187015533447266,149.0682830810547
8.771606660666069e6,95.84172821044922,1.0142332315444946,36.72282791137695,-88.48545837402344
8.771606660666069e6,345.56884765625,-23.354488372802734,-24.755842208862305,343.8796081542969
8.771606660666069e6,125.6615982055664,-11.788379669189453,14.342897415161133,124.2569351196289
8.771606660666069e6,321.6557312011719,-14.526947021484375,29.427370071411133,319.9672546386719
8.771606660666069e6,23.866849899291992,-15.371573448181152,-17.523683547973633,4.460554599761963
8.771606660666069e6,49.8839225769043,25.425724029541016,11.088071823120117,-41.383907318115234
8.771606660666069e6,200.12672424316406,15.499553680419922,-36.24332809448242,196.1900177001953
8.771606660666069e6,74.6801528930664,-21.501794815063477,11.128864288330078,-70.6015625
8.771606660666069e6,276.4503479003906,-14.01752758026123,39.61357498168945,-273.2264709472656
8.771606660666069e6,35.55944061279297,22.915267944335938,16.262563705444336,21.6455078125
8.771606660666069e6,77.70821380615234,58.0841064453125,-32.674835205078125,39.88473892211914
8.771606660666069e6,246.57220458984375,-15.76276683807373,-33.513465881347656,243.7619171142578
8.771606660666069e6,617.432373046875,9.470309257507324,-2.741006851196289,617.3484497070312
8.771606660666069e6,186.48692321777344,20.942121505737305,17.537012100219727,184.45835876464844
8.771606660666069e6,81.75285339355469,0.8739358186721802,-34.282936096191406,-74.16927337646484
8.771606660666069e6,182.5432891845703,22.931140899658203,23.317951202392578,-179.5720672607422
8.771606660666069e6,38.34870910644531,36.83865737915039,4.612316608428955,-9.268128395080566
8.771606660666069e6,386.7159423828125,-7.988077163696289,-11.740274429321289,-386.4468994140625
8.771606660666069e6,68.28276062011719,-62.811973571777344,11.975677490234375,-23.820348739624023
8.771606660666069e6,4818.7197265625,-11.868012428283691,4.811710834503174,-4818.7021484375
8.771606660666069e6,22.496368408203125,21.803829193115234,-2.75834059715271,4.087291717529297
8.771606660666069e6,612.4330444335938,-56.913822174072266,7.918348789215088,-609.7261352539062
8.771606660666069e6,47.43364334106445,-27.879091262817383,12.197107315063477,36.298377990722656
8.771606660666069e6,104.16987609863281,-31.360397338867188,25.79536247253418,95.89642333984375
8.771606660666069e6,415.0903625488281,-34.373870849609375,16.072362899780273,413.3446044921875
8.771606660666069e6,149.9143524169922,-33.49326705932617,34.675724029541016,-141.92864990234375
8.771606660666069e6,120.40269470214844,19.817720413208008,35.22609329223633,-113.387939453125
8.771606660666069e6,34.366973876953125,-9.222661972045898,-32.58401107788086,-5.286613941192627
8.771606660666069e6,37.337989807128906,-0.3510257601737976,35.58731460571289,-11.008183479309082
8.771606660666069e6,506.6833801269531,31.09089469909668,14.2833833694458,505.5205383300781
8.771606660666069e6,20.454591751098633,-6.949734687805176,15.167529106140137,11.561675071716309
8.771606660666069e6,1184.5406494140625,38.35145950317383,-24.350601196289062,-1183.66650390625
8.771606660666069e6,277.9250793457031,37.79380798339844,19.246335983276367,-274.6583251953125
8.771606660666069e6,17.97072982788086,-14.620338439941406,0.607669472694397,10.122169494628906
8.771606660666069e6,217.14608764648438,-33.05736541748047,33.10855484008789,212.0308837890625
8.771606660666069e6,965.6512451171875,-13.887101173400879,6.0894389152526855,-965.5288696289062
8.771606660666069e6,206.20089721679688,7.437192916870117,-25.47507667541504,204.4704132080078
8.771606660666069e6,23.43310546875,-8.079049110412598,-16.586708068847656,14.225163459777832
8.771606660666069e6,326.7872314453125,10.305781364440918,0.17853617668151855,326.6148986816406
8.771606660666069e6,204.48043823242188,-16.983102798461914,-37.5612678527832,-200.26634216308594
8.771606660666069e6,123.99578094482422,5.816059589385986,-6.5831451416015625,-123.65850067138672
8.771606660666069e6,34.720394134521484,32.76878356933594,-5.923043251037598,9.500785827636719
8.771606660666069e6,694.56640625,-29.938724517822266,-18.54827308654785,-693.6683349609375
8.771606660666069e6,201.0548095703125,2.213329553604126,-21.197378158569336,-199.9060821533203
8.771606660666069e6,1409.0550537109375,-9.030282020568848,31.05167007446289,-1408.681640625
8.771606660666069e6,370.9879150390625,-37.32283401489258,-14.021563529968262,-368.8306884765625
8.771606660666069e6,24.93088722229004,19.164405822753906,-12.623697280883789,9.410191535949707
8.771606660666069e6,339.69110107421875,30.39732551574707,19.33195686340332,337.76611328125
8.771606660666069e6,17.052936553955078,-0.7852981090545654,-16.657106399536133,-2.5222091674804688
8.771606660666069e6,56.32236099243164,-9.341878890991211,21.742328643798828,-51.047462463378906
8.771606660666069e6,42.28277587890625,14.164937973022461,23.546621322631836,32.03715133666992
8.771606660666069e6,1689.022705078125,38.09935760498047,-20.9851016998291,1688.460693359375
8.771606660666069e6,68.22553253173828,-13.302617073059082,-5.6949028968811035,-66.62556457519531
8.771606660666069e6,24.66550636291504,-15.252118110656738,4.294807434082031,-18.733646392822266
8.771606660666069e6,2008.03955078125,13.843186378479004,-19.539939880371094,2007.8951416015625
8.771606660666069e6,93.86814880371094,2.6914377212524414,6.768617153167725,-93.55108642578125
8.771606660666069e6,369.5763244628906,37.062442779541016,2.0833210945129395,-367.6986999511719
8.771606660666069e6,233.44940185546875,-1.9175238609313965,15.564708709716797,232.9084014892578
8.771606660666069e6,44.71171188354492,6.505050182342529,-16.18231964111328,41.092445373535156
8.771606660666069e6,50.85076904296875,49.26103973388672,-11.999924659729004,2.9643168449401855
8.771606660666069e6,104.279541015625,30.255767822265625,-32.260765075683594,-94.40174102783203
8.771606660666069e6,69.58012390136719,36.78248596191406,2.9589293003082275,-58.934898376464844
8.771606660666069e6,291.53948974609375,-35.550048828125,-13.518135070800781,289.0369567871094
8.771606660666069e6,34.67837142944336,-25.21428871154785,-4.320441722869873,-23.276548385620117
8.771606660666069e6,781.229736328125,-21.26516342163086,21.801546096801758,780.6318359375
8.771606660666069e6,2141.424072265625,33.31203842163086,-20.184326171875,-2141.068359375
8.771606660666069e6,26.260238647460938,-12.240245819091797,15.143311500549316,17.438217163085938
8.771606660666069e6,42.23710250854492,24.652000427246094,-24.864551544189453,23.487031936645508
8.771606660666069e6,175.33901977539062,40.82486343383789,55.2108268737793,-161.31491088867188
8.771606660666069e6,105.84387969970703,-39.12667465209961,-15.545392036437988,97.07732391357422
8.771606660666069e6,617.7388305664062,-2.3610877990722656,-45.53158950805664,616.048828125
8.771606660666069e6,344.8468933105469,-23.15021514892578,32.55072784423828,342.5164794921875
8.771606660666069e6,1037.4725341796875,44.88808059692383,-9.114988327026367,-1036.4578857421875
8.771606660666069e6,251.34182739257812,20.953163146972656,-51.740779876708984,-245.0514373779297
8.771606660666069e6,465.3481750488281,21.95518684387207,-16.773860931396484,464.5203552246094
8.771606660666069e6,765.7710571289062,11.293475151062012,20.09636878967285,-765.4197998046875
8.771606660666069e6,99.48121643066406,25.16374397277832,25.22893524169922,92.8462905883789
8.771606660666069e6,285.8084716796875,-26.583908081054688,31.637475967407227,282.7940673828125
8.771606660666069e6,506.7567138671875,-30.07634735107422,14.394906044006348,-505.6522521972656
8.771606660666069e6,48.5882568359375,-24.57805061340332,-34.015567779541016,24.35803985595703
8.771606660666069e6,1497.9061279296875,2.863424301147461,31.160173416137695,1497.5771484375
8.771606660666069e6,100.47636413574219,-15.241324424743652,40.9188346862793,90.45709228515625
8.771606660666069e6,49.8156852722168,14.093297004699707,38.284507751464844,-28.476531982421875
8.771606660666069e6,242.35191345214844,-27.94207000732422,-3.058868408203125,-240.7030792236328
8.771606660666069e6,83.35230255126953,-13.686785697937012,21.093061447143555,-79.42919158935547
8.771606660666069e6,21.748247146606445,-18.97736167907715,10.16422176361084,1.7802813053131104
8.771606660666069e6,282.3683776855469,22.94798469543457,28.306007385253906,279.99591064453125
8.771606660666069e6,71.37889099121094,-30.415008544921875,34.774837493896484,-54.352725982666016
8.771606660666069e6,29.607215881347656,-27.141023635864258,1.687249779701233,-11.434161186218262
8.771606660666069e6,139.33779907226562,33.60369110107422,24.87020492553711,-132.89439392089844
8.771606660666069e6,78.29972076416016,31.9227352142334,-68.93589782714844,-18.795263290405273
8.771606660666069e6,75.43883514404297,40.557708740234375,19.587963104248047,-60.46516418457031
8.771606660666069e6,292.2456359863281,39.507572174072266,18.122541427612305,-288.98419189453125
8.771606660666069e6,43.018741607666016,-4.7482218742370605,-37.86261749267578,-19.70085334777832
8.771606660666069e6,214.4849853515625,39.61660385131836,15.510093688964844,-210.2080078125
8.771606660666069e6,110.15399932861328,-40.81990432739258,27.547767639160156,98.500732421875
8.771606660666069e6,33.08138656616211,23.80885124206543,-17.38762092590332,-14.792640686035156
8.771606660666069e6,36.889923095703125,-15.107600212097168,33.12853240966797,5.36302375793457
8.771606660666069e6,276.57568359375,-14.787073135375977,-34.70504379272461,-273.9792785644531
8.771606660666069e6,73.62564086914062,22.89983367919922,30.43096160888672,62.95970153808594
8.771606660666069e6,3092.548828125,27.919559478759766,0.46934786438941956,3092.421875
8.771606660666069e6,337.04486083984375,64.83918762207031,-10.997790336608887,330.5567932128906
8.771606660666069e6,31.766098022460938,-9.768796920776367,-26.64852523803711,14.040886878967285
8.771606660666069e6,300.7007141113281,45.42951583862305,-13.827770233154297,-296.9166564941406
8.771606660666069e6,1197.5325927734375,-35.61284255981445,44.582923889160156,-1196.169677734375
8.771606660666069e6,23.822372436523438,-13.89778995513916,-8.213470458984375,17.335817337036133
8.771606660666069e6,13.131081581115723,-4.854007244110107,11.718303680419922,-2.2759714126586914
8.771606660666069e6,100.18608856201172,26.003128051757812,29.58516502380371,-92.08389282226562
8.771606660666069e6,26.186208724975586,-17.995500564575195,-5.277279376983643,18.10150718688965
8.771606660666069e6,580.7452392578125,-39.47407913208008,-12.52534294128418,-579.26123046875
8.771606660666069e6,110.30672454833984,22.648527145385742,-24.69442367553711,-105.06396484375
8.771606660666069e6,160.43833923339844,-21.36689567565918,24.13283920288086,157.14694213867188
8.771606660666069e6,568.089599609375,0.8597277402877808,-36.3491096496582,566.9192504882812
8.771606660666069e6,142.92501831054688,14.536660194396973,-41.22126770019531,-136.0540008544922
8.771606660666069e6,24.623926162719727,15.752257347106934,-11.042835235595703,15.162278175354004
8.771606660666069e6,2211.3203125,6.656839370727539,-1.0950608253479004,2211.30859375
8.771606660666069e6,1494.77685546875,-41.21796417236328,10.269675254821777,1494.1710205078125
8.771606660666069e6,51.9390869140625,-38.842552185058594,-22.276382446289062,-26.19776153564453
8.771606660666069e6,145.50070190429688,29.83098602294922,-10.292197227478027,142.01504516601562
8.771606660666069e6,58.399105072021484,-17.68004608154297,-21.978742599487305,51.072898864746094
8.771606660666069e6,91.40857696533203,-27.837270736694336,8.02692699432373,86.6592025756836
8.771606660666069e6,53.69291687011719,41.68012619018555,14.075460433959961,-30.679187774658203
8.771606660666069e6,116.88441467285156,18.086292266845703,-20.576181411743164,-113.60064697265625
8.771606660666069e6,311.6010437011719,-36.42641830444336,-22.929643630981445,-308.6036071777344
8.771606660666069e6,198.3995361328125,-40.85348129272461,-25.81019401550293,192.4080047607422
8.771606660666069e6,95.23853302001953,-12.14062213897705,38.17439651489258,86.36743927001953
8.771606660666069e6,27.192665100097656,20.246437072753906,17.564895629882812,3.825176477432251
8.771606660666069e6,46.206504821777344,9.734241485595703,34.272300720214844,-29.3143253326416
8.771606660666069e6,345.6130676269531,-27.857194900512695,-11.065485000610352,344.3015441894531
8.771606660666069e6,579.1212768554688,-4.510933876037598,-44.3653678894043,-577.396240234375
8.771606660666069e6,1360.40087890625,-20.775890350341797,-0.8324320316314697,-1360.2396240234375
8.771606660666069e6,1552.7705078125,-16.29117202758789,-21.12445640563965,-1552.539306640625
8.771606660666069e6,159.94277954101562,-8.223210334777832,-36.3206901550293,-155.5265655517578
8.771606660666069e6,549.3662109375,-3.0352094173431396,-22.009044647216797,548.9110107421875
8.771606660666069e6,47.248817443847656,36.327877044677734,-12.096637725830078,-27.568864822387695
8.771606660666069e6,38.27544021606445,-14.260111808776855,32.97145080566406,12.968301773071289
8.771606660666069e6,53.24821472167969,10.72589111328125,-38.15577697753906,-35.46969223022461
8.771606660666069e6,1180.103271484375,-8.584113121032715,-1.0522301197052002,-1180.0689697265625
8.771606660666069e6,82.79706573486328,57.23421096801758,-18.66411590576172,56.78806686401367
8.771606660666069e6,38.930110931396484,23.567907333374023,-4.3701701164245605,30.571943283081055
8.771606660666069e6,400.18304443359375,-19.345949172973633,-35.95078659057617,398.087158203125
8.771606660666069e6,170.0248565673828,-0.027252627536654472,-27.97176170349121,167.68919372558594
8.771606660666069e6,505.2230224609375,38.34834289550781,11.860596656799316,503.6195373535156
8.771606660666069e6,939.5988159179688,12.252128601074219,-11.894183158874512,-939.4402465820312
8.771606660666069e6,1119.8052978515625,-3.9823157787323,-39.11623764038086,1119.112060546875
8.771606660666069e6,119.30359649658203,47.58906936645508,-3.925107955932617,109.30168151855469
8.771606660666069e6,333.5963439941406,-24.68630027770996,-40.0243034362793,-330.2556457519531
8.771606660666069e6,49.9336051940918,-17.859817504882812,-15.218597412109375,44.004783630371094
8.771606660666069e6,201.78358459472656,18.613529205322266,-22.540279388427734,199.63897705078125
8.771606660666069e6,81.14180755615234,38.85542297363281,69.22689056396484,-16.59882354736328
8.771606660666069e6,114.34603881835938,9.538833618164062,-17.037403106689453,-112.63831329345703
8.771606660666069e6,1724.08935546875,-8.351259231567383,-14.341231346130371,-1724.007568359375
8.771606660666069e6,68.06939697265625,-55.71306610107422,-14.229341506958008,-36.340850830078125
8.771606660666069e6,36.527442932128906,17.19046401977539,25.68865203857422,-19.299480438232422
8.771606660666069e6,80.42350769042969,-32.08769607543945,-13.863941192626953,72.38609313964844
8.771606660666069e6,312.4866638183594,3.4202020168304443,24.727270126342773,-311.477783203125
8.771606660666069e6,24.819374084472656,9.529648780822754,-0.9303281903266907,22.75865364074707
8.771606660666069e6,188.08334350585938,-11.177536010742188,28.665916442871094,-185.53250122070312
8.771606660666069e6,455.7586669921875,50.31818389892578,-6.385603427886963,452.92041015625
8.771606660666069e6,240.683349609375,-1.382954716682434,-6.211974620819092,-240.58596801757812
8.771606660666069e6,76.18679809570312,10.164409637451172,21.221561431884766,72.41818237304688
8.771606660666069e6,63.87681198120117,21.43092155456543,20.685270309448242,-56.45101547241211
8.771606660666069e6,44.419219970703125,-42.002742767333984,8.375676155090332,11.503028869628906
8.771606660666069e6,43.10997009277344,17.207263946533203,24.45443344116211,-30.95149803161621
8.771606660666069e6,110.48443603515625,42.78957748413086,0.4738377630710602,101.82962799072266
8.771606660666069e6,817.0552368164062,-0.6786384582519531,-42.708255767822266,-815.93408203125
8.771606660666069e6,90.19483947753906,33.8728141784668,-34.10609817504883,-76.27680206298828
8.771606660666069e6,172.9524383544922,14.33020305633545,-29.371259689331055,169.81800842285156
8.771606660666069e6,39.03990936279297,-15.281231880187988,12.375426292419434,-33.63156509399414
8.771606660666069e6,50.495784759521484,-37.794673919677734,4.832329273223877,-33.04043197631836
8.771606660666069e6,82.52469635009766,3.4957730770111084,48.242156982421875,66.81642150878906
8.771606660666069e6,67.7099380493164,-26.97564125061035,18.78046989440918,-59.14287185668945
8.771606660666069e6,20.61136817932129,-5.940553188323975,-4.417523384094238,19.069833755493164
8.771606660666069e6,101.30266571044922,21.165401458740234,24.714677810668945,-95.90138244628906
8.771606660666069e6,13.750310897827148,-12.916009902954102,3.868175506591797,0.959029495716095
8.771606660666069e6,995.8223876953125,-44.949398040771484,3.3871772289276123,994.7984619140625
8.771606660666069e6,90.04776763916016,9.800125122070312,-49.42395782470703,-74.58863830566406
8.771606660666069e6,18.88100814819336,-10.348854064941406,14.504679679870605,5.713379859924316
8.771606660666069e6,43.5299186706543,4.9439778327941895,30.112548828125,30.939943313598633
8.771606660666069e6,658.5307006835938,-5.343458652496338,-34.26271057128906,-657.6121826171875
8.771606660666069e6,712.6390991210938,-23.8438777923584,19.38307762145996,-711.9718627929688
8.771606660666069e6,1521.273681640625,-21.661787033081055,48.6849250793457,1520.3380126953125
8.771606660666069e6,308.185302734375,-3.880051612854004,38.17517852783203,-305.7767639160156
8.771606660666069e6,633.6410522460938,-20.109878540039062,19.226505279541016,633.02490234375
8.771606660666069e6,1249.6318359375,-29.74042320251465,48.544010162353516,-1248.3319091796875
8.771606660666069e6,66.97224426269531,-41.06675720214844,33.01030731201172,-41.26447677612305
8.771606660666069e6,295.574951171875,33.32147979736328,-16.064163208007812,-293.24017333984375
8.771606660666069e6,79.65911865234375,-17.60506820678711,46.42641830444336,-62.24033737182617
8.771606660666069e6,332.8581848144531,-2.484297752380371,-27.753704071044922,331.68023681640625
8.771606660666069e6,426.0637512207031,42.200157165527344,17.62053108215332,423.5948791503906
8.771606660666069e6,289.23974609375,-18.15212059020996,-28.7692813873291,287.2213439941406
8.771606660666069e6,36.91053009033203,18.425939559936523,30.582796096801758,9.011061668395996
8.771606660666069e6,75.58724975585938,-7.843204498291016,-22.218063354492188,71.77680206298828
8.771606660666069e6,61.682926177978516,-21.47826385498047,-30.22193145751953,49.23146438598633
8.771606660666069e6,115.90608978271484,41.70828628540039,7.664059162139893,107.84033203125
8.771606660666069e6,31.31874656677246,9.583924293518066,18.564424514770508,23.195024490356445
8.771606660666069e6,883.7677612304688,-48.575462341308594,2.2972636222839355,882.4252319335938
8.771606660666069e6,1185.2757568359375,-28.700387954711914,33.75941467285156,1184.444580078125
8.771606660666069e6,972.1651611328125,99.01763153076172,23.55550193786621,-966.8192138671875
8.771606660666069e6,53.8867073059082,12.593271255493164,16.332496643066406,-49.71992874145508
8.771606660666069e6,42.93727493286133,-0.9275522232055664,-42.85280990600586,-0.14466670155525208
8.771606660666069e6,52.97896194458008,6.232046127319336,23.96295738220215,46.76904296875
8.771606660666069e6,168.5598602294922,14.559588432312012,20.96495819091797,166.5969696044922
8.771606660666069e6,51.68589401245117,2.847841739654541,19.0855712890625,-47.88211441040039
8.771606660666069e6,112.04816436767578,-9.397688865661621,-25.402368545532227,-108.69603729248047
8.771606660666069e6,34.259002685546875,-14.480507850646973,30.4952335357666,5.260204792022705
8.771606660666069e6,783.8639526367188,-9.566688537597656,-44.221473693847656,782.5530395507812
8.771606660666069e6,41.904563903808594,31.85873031616211,22.480113983154297,-15.142430305480957
8.771606660666069e6,1572.7939453125,12.242108345031738,110.16504669189453,-1568.881103515625
8.771606660666069e6,140.49574279785156,24.758136749267578,21.129558563232422,136.650146484375
8.771606660666069e6,35.59489440917969,-16.665637969970703,24.805442810058594,19.172317504882812
8.771606660666069e6,12.452140808105469,3.314385414123535,10.272011756896973,-5.6737284660339355
8.771606660666069e6,359.2682800292969,65.57239532470703,-41.235843658447266,-350.809326171875
8.771606660666069e6,177.8553009033203,-28.542083740234375,-15.498147010803223,174.8465118408203
8.771606660666069e6,580.2261962890625,26.983257293701172,16.81939125061035,579.348876953125
8.771606660666069e6,68.04052734375,3.337383985519409,-19.135656356811523,-65.16007995605469
8.771606660666069e6,411.3151550292969,35.731597900390625,17.768836975097656,-409.3669738769531
8.771606660666069e6,289.6583557128906,37.5108757019043,-0.8372969627380371,-287.2069396972656
8.771606660666069e6,153.8800506591797,24.781099319458008,-17.613990783691406,-150.8255615234375
8.771606660666069e6,829.3195190429688,-22.70313262939453,-3.494133710861206,-828.9974975585938
8.771606660666069e6,16.627967834472656,-8.819198608398438,5.886961460113525,-12.55744743347168
8.771606660666069e6,13.712234497070312,13.351888656616211,-0.010366953909397125,1.840409278869629
8.771606660666069e6,72.72164154052734,34.292877197265625,13.094085693359375,-62.72651290893555
8.771606660666069e6,390.3811950683594,-44.28328323364258,7.396347999572754,387.78265380859375
8.771606660666069e6,566.3449096679688,6.933644771575928,-29.670307159423828,565.51904296875
8.771606660666069e6,50.97416687011719,-17.491130828857422,-15.246207237243652,45.31681823730469
8.771606660666069e6,79.96517181396484,-2.608336925506592,-37.77123260498047,-70.38887786865234
8.771606660666069e6,198.32151794433594,-0.4359544813632965,16.68507194519043,-197.60182189941406
8.771606660666069e6,49.30009841918945,-18.02785301208496,-37.716861724853516,26.010944366455078
8.771606660666069e6,66.4873046875,59.49559783935547,26.616525650024414,-12.885311126708984
8.771606660666069e6,14.261024475097656,4.658127784729004,12.002096176147461,-5.591344356536865
8.771606660666069e6,406.2023620605469,-27.983692169189453,33.96509552001953,403.8034973144531
8.771606660666069e6,191.8944854736328,33.2455940246582,10.16058349609375,-188.70245361328125
8.771606660666069e6,46.09456253051758,-10.021817207336426,-13.780613899230957,42.755130767822266
8.771606660666069e6,66.57109832763672,-17.7134952545166,-22.28966522216797,60.122779846191406
8.771606660666069e6,36.31646728515625,8.230537414550781,-34.76865005493164,-5.993314266204834
8.771606660666069e6,56.95686340332031,-29.827367782592773,-23.22686195373535,-42.52716827392578
8.771606660666069e6,365.90948486328125,-29.856069564819336,25.737131118774414,363.7713317871094
8.771606660666069e6,18.783618927001953,-7.5913872718811035,-9.710237503051758,13.94780445098877
8.771606660666069e6,142.77838134765625,30.796354293823242,-19.68722152709961,-137.99746704101562
8.771606660666069e6,144.3071746826172,-20.961336135864258,4.354774475097656,-142.68795776367188
8.771606660666069e6,84.68768310546875,26.557703018188477,12.594308853149414,-79.38330841064453
8.771606660666069e6,298.9399719238281,-18.30173110961914,-24.792770385742188,-297.3367004394531
8.771606660666069e6,842.919189453125,36.5145378112793,21.703414916992188,841.8444213867188
8.771606660666069e6,39.929569244384766,-37.10813903808594,-12.097070693969727,-8.040656089782715
8.771606660666069e6,415.6075134277344,-22.21200180053711,-29.88058090209961,-413.92877197265625
8.771606660666069e6,2256.51123046875,6.125564098358154,29.462900161743164,2256.30908203125
8.771606660666069e6,2092.25146484375,-16.754587173461914,23.644132614135742,-2092.04931640625
8.771606660666069e6,181.0785675048828,-54.30715560913086,3.148287534713745,-172.69598388671875
8.771606660666069e6,121.24629211425781,-55.14394760131836,4.585657596588135,-107.85366821289062
8.771606660666069e6,46.19651412963867,-37.842838287353516,16.91000747680664,-20.241636276245117
8.771606660666069e6,27.7604923248291,-23.09220314025879,-2.906566858291626,14.919175148010254
8.771606660666069e6,46.4528694152832,-42.820281982421875,-0.5091161131858826,17.823246002197266
8.771606660666069e6,172.1631317138672,38.345794677734375,21.521486282348633,-166.43377685546875
8.771606660666069e6,192.36195373535156,27.712121963500977,21.94654083251953,189.06915283203125
8.771606660666069e6,422.5870666503906,-2.2335519790649414,22.05449867248535,-421.9977111816406
8.771606660666069e6,67.47376251220703,-3.687119483947754,-23.8614444732666,62.955387115478516
8.771606660666069e6,231.78590393066406,-18.369220733642578,46.8961181640625,226.23365783691406
8.771606660666069e6,53.8326301574707,19.660316467285156,-32.621437072753906,37.959197998046875
8.771606660666069e6,84.92998504638672,-30.536651611328125,10.451560020446777,78.51761627197266
8.771606660666069e6,111.83013153076172,-18.092350006103516,27.21837615966797,-106.91790771484375
8.771606660666069e6,78.2988052368164,28.984851837158203,10.357990264892578,71.95086669921875
8.771606660666069e6,71.18646240234375,-10.041476249694824,-25.462709426879883,-65.66556549072266
8.771606660666069e6,220.6071014404297,18.129779815673828,11.905142784118652,219.52381896972656
8.771606660666069e6,32.928009033203125,-5.778924942016602,8.125307083129883,31.280534744262695
8.771606660666069e6,841.2913208007812,26.901790618896484,-32.54795455932617,840.2271118164062
8.771606660666069e6,741.4651489257812,-21.038354873657227,14.589123725891113,741.0186767578125
8.771606660666069e6,1053.968994140625,34.350486755371094,-4.799899578094482,1053.3951416015625
8.771606660666069e6,78.5096664428711,-24.391183853149414,-1.9260063171386719,-74.55711364746094
8.771606660666069e6,44.90922546386719,-31.236988067626953,-31.679227828979492,-5.581267356872559
8.771606660666069e6,966.3472290039062,-38.64505386352539,-21.146831512451172,965.33935546875
8.771606660666069e6,44.12592697143555,-0.30191582441329956,18.08277702331543,-40.17031478881836
8.771606660666069e6,225.2709197998047,19.466047286987305,24.182464599609375,223.1073760986328
8.771606660666069e6,41.74347686767578,-8.643999099731445,39.888267517089844,8.388087272644043
8.771606660666069e6,115.693359375,23.098064422607422,-25.49502182006836,110.4312973022461
8.771606660666069e6,627.044921875,32.428138732910156,-21.605594635009766,-625.827880859375
8.771606660666069e6,28.526586532592773,20.14515495300293,-19.96937370300293,1.6726250648498535
8.771606660666069e6,69.58909606933594,23.97046661376953,4.750702381134033,65.10855865478516
8.771606660666069e6,39.69174575805664,-24.516944885253906,-30.961511611938477,3.061685085296631
8.771606660666069e6,288.50048828125,31.310155868530273,-10.641016006469727,286.587890625
8.771606660666069e6,45.95759201049805,43.999053955078125,-2.765761137008667,-12.7345552444458
8.771606660666069e6,965.4501953125,7.627988815307617,12.342822074890137,-965.337890625
8.771606660666069e6,1251.7333984375,44.05890655517578,9.842371940612793,1250.91650390625
8.771606660666069e6,25.884679794311523,-8.83608627319336,23.783096313476562,-4.465351104736328
8.771606660666069e6,721.7504272460938,-17.743064880371094,43.497352600097656,720.215576171875
8.771606660666069e6,2401.91357421875,10.315997123718262,27.533397674560547,2401.732177734375
8.771606660666069e6,79.83133697509766,32.97451400756836,22.789297103881836,68.9927978515625
8.771606660666069e6,32.327354431152344,-24.78223991394043,17.375503540039062,11.073614120483398
8.771606660666069e6,1053.7608642578125,40.923152923583984,5.778646945953369,1052.947021484375
8.771606660666069e6,131.4940643310547,-2.6137688159942627,-27.63066291809082,-128.5069580078125
8.771606660666069e6,1014.315673828125,-12.388897895812988,-19.664234161376953,1014.0462646484375
8.771606660666069e6,46.47756576538086,41.94966125488281,-18.459375381469727,-7.299045085906982
8.771606660666069e6,1616.05615234375,14.899922370910645,45.108612060546875,1615.3558349609375
8.771606660666069e6,297.9789123535156,57.25926971435547,23.944337844848633,291.432861328125
8.771606660666069e6,1528.7086181640625,-1.658236026763916,13.45480728149414,1528.646484375
8.771606660666069e6,90.09272766113281,-32.192256927490234,-83.28180694580078,11.753026962280273
8.771606660666069e6,19.83293914794922,10.172967910766602,0.24047228693962097,16.835474014282227
8.771606660666069e6,245.62814331054688,-29.380979537963867,21.83098030090332,-242.87237548828125
8.771606660666069e6,229.04400634765625,17.1538028717041,36.242774963378906,-225.4927978515625
8.771606660666069e6,120.08358001708984,-2.154587745666504,-42.50584030151367,-112.26002502441406
8.771606660666069e6,2285.145263671875,-7.906121730804443,-21.3670597076416,2285.0302734375
8.771606660666069e6,184.43142700195312,35.10933303833008,-1.2852592468261719,181.03665161132812
8.771606660666069e6,155.0617218017578,-16.00658416748047,23.973346710205078,152.33792114257812
8.771606660666069e6,122.847412109375,16.697635650634766,-26.77919578552246,118.69786834716797
8.771606660666069e6,41.734893798828125,-32.48508071899414,19.787315368652344,-16.988754272460938
8.771606660666069e6,57.864532470703125,37.17766189575195,28.464149475097656,33.905052185058594
8.771606660666069e6,195.18991088867188,-34.52271270751953,1.6828886270523071,192.0887451171875
8.771606660666069e6,261.5451354980469,2.9968903064727783,38.92292404174805,258.6029968261719
8.771606660666069e6,238.55645751953125,-21.312641143798828,-16.08132553100586,237.04425048828125
8.771606660666069e6,293.4684143066406,-31.126781463623047,-5.724871635437012,291.7459411621094
8.771606660666069e6,142.9507598876953,69.33692932128906,4.33052921295166,-124.90872955322266
8.771606660666069e6,48.50276184082031,-40.58551025390625,-19.732261657714844,17.59564971923828
8.771606660666069e6,8.475844383239746,4.482182025909424,6.705216884613037,0.6517847180366516
8.771606660666069e6,76.58301544189453,-18.61328125,-2.4913973808288574,74.20196533203125
8.771606660666069e6,25.21614646911621,7.666403770446777,-20.51481056213379,-12.241634368896484
8.771606660666069e6,27.559030532836914,-23.045886993408203,-14.862378120422363,-1.0638357400894165
8.771606660666069e6,68.65299224853516,-29.068607330322266,-12.77402114868164,-60.817012786865234
8.771606660666069e6,859.1239624023438,45.43522262573242,1.9848419427871704,-857.9156494140625
8.771606660666069e6,211.4987335205078,12.725051879882812,-28.394550323486328,-209.18215942382812
8.771606660666069e6,102.00940704345703,-27.21839714050293,-8.22640609741211,-97.93385314941406
8.771606660666069e6,40.034080505371094,21.7624568939209,-30.585800170898438,-13.684534072875977
8.771606660666069e6,599.6038208007812,-18.916250228881836,1.8127294778823853,599.2973022460938
8.771606660666069e6,198.86825561523438,6.192728519439697,42.38212585449219,194.18450927734375
8.771606660666069e6,127.8252182006836,20.159940719604492,36.827125549316406,-120.70733642578125
8.771606660666069e6,321.7069396972656,-12.576725006103516,19.4710636138916,320.8608703613281
8.771606660666069e6,27.356731414794922,25.817787170410156,-3.524465560913086,-7.940123558044434
8.771606660666069e6,93.63373565673828,9.93853759765625,-28.278059005737305,-88.67066955566406
8.771606660666069e6,294.19561767578125,-45.160888671875,12.466155052185059,290.43035888671875
8.771606660666069e6,48.22186279296875,-33.978797912597656,-15.926253318786621,-30.179109573364258
8.771606660666069e6,902.3619384765625,-43.52095413208008,-9.215815544128418,901.2611694335938
8.771606660666069e6,663.0865478515625,-43.94459915161133,-12.867310523986816,661.4988403320312
8.771606660666069e6,68.11992645263672,-15.995584487915039,-3.4717178344726562,-66.0760726928711
8.771606660666069e6,507.20123291015625,11.565842628479004,-37.5649528503418,-505.669677734375
8.771606660666069e6,73.8262710571289,39.17550277709961,-7.518191337585449,62.07019805908203
8.771606660666069e6,768.1127319335938,38.159786224365234,-13.944101333618164,-767.0333862304688
8.771606660666069e6,7.332294464111328,4.951340675354004,-0.44373711943626404,4.762839317321777
8.771606660666069e6,54.150733947753906,-30.241806030273438,19.71689224243164,-40.28168487548828
8.771606660666069e6,30.9572696685791,-11.031765937805176,-28.30609130859375,-5.390044689178467
8.771606660666069e6,635.7991333007812,-41.04828643798828,-10.478453636169434,-634.381103515625
8.771606660666069e6,59.483306884765625,12.880722045898438,-52.59679412841797,-24.485971450805664
8.771606660666069e6,72.87639617919922,31.87142562866211,-14.508822441101074,-63.86164474487305
8.771606660666069e6,302.59478759765625,-21.245447158813477,29.085800170898438,300.4328308105469
8.771606660666069e6,243.56922912597656,34.18645477294922,-6.742986679077148,241.05067443847656
8.771606660666069e6,437.98638916015625,-38.95177459716797,7.096956253051758,-436.18585205078125
8.771606660666069e6,36.07162094116211,-15.25712776184082,-0.9681041836738586,-32.574214935302734
8.771606660666069e6,95.6865005493164,-68.33233642578125,46.74753952026367,-47.905128479003906
8.771606660666069e6,307.1441650390625,-22.556964874267578,33.54689407348633,-304.4617614746094
8.771606660666069e6,7.611330986022949,-6.744482517242432,2.4653894901275635,0.030717268586158752
8.771606660666069e6,32.58498764038086,28.500017166137695,4.794276237487793,14.838471412658691
8.771606660666069e6,276.3691711425781,-7.038195610046387,-26.701065063476562,-274.97467041015625
8.771606660666069e6,876.5498657226562,-9.087919235229492,-28.846694946289062,-876.0242919921875
8.771606660666069e6,17.84771728515625,-12.814698219299316,11.388503074645996,4.273322105407715
8.771606660666069e6,94.6947250366211,-5.236887454986572,32.69196701049805,88.68221282958984
8.771606660666069e6,102.2625732421875,-28.543615341186523,-23.432147979736328,-95.32820129394531
8.771606660666069e6,44.46263122558594,10.4871187210083,-33.033329010009766,-27.737699508666992
8.771606660666069e6,155.7017364501953,-18.846494674682617,25.9533634185791,152.3413848876953
8.771606660666069e6,357.58111572265625,-20.38334846496582,34.415767669677734,-355.32794189453125
8.771606660666069e6,38.39166259765625,37.11244583129883,3.7047646045684814,8.746173858642578
8.771606660666069e6,567.99169921875,60.043495178222656,9.854044914245605,-564.717529296875
8.771606660666069e6,1021.8157958984375,1.9738655090332031,-17.623117446899414,1021.6588134765625
8.771606660666069e6,54.1156005859375,3.8246982097625732,21.320383071899414,49.527225494384766
8.771606660666069e6,142.50738525390625,8.405484199523926,-31.226945877075195,138.7667694091797
8.771606660666069e6,787.86962890625,-12.566431999206543,14.460914611816406,-787.6326293945312
8.771606660666069e6,102.31375885009766,5.360133647918701,2.8205626010894775,-102.1031494140625
8.771606660666069e6,163.34454345703125,-32.96019744873047,8.442477226257324,159.7417449951172
8.771606660666069e6,54.02406692504883,1.7368345260620117,-31.974529266357422,-43.4378547668457
8.771606660666069e6,114.56013488769531,-36.36199188232422,17.36075782775879,-107.21039581298828
8.771606660666069e6,78.69794464111328,9.857915878295898,-8.460485458374023,-77.57733917236328
8.771606660666069e6,2679.384521484375,14.057501792907715,-0.7139914631843567,2679.34619140625
8.771606660666069e6,10.694682121276855,-5.476404190063477,-8.737257957458496,1.2962700128555298
8.771606660666069e6,223.3791046142578,23.836240768432617,-35.96897888183594,219.1573028564453
8.771606660666069e6,33.86883544921875,32.747840881347656,-5.442390441894531,6.220297336578369
8.771606660666069e6,58.84142303466797,15.016777992248535,22.39735984802246,-52.23794174194336
8.771606660666069e6,368.452880859375,-1.3805980682373047,25.99668312072754,-367.52337646484375
8.771606660666069e6,1149.7076416015625,14.586393356323242,15.947929382324219,1149.501708984375
8.771606660666069e6,7.095189094543457,1.6444590091705322,-3.5275354385375977,5.369239330291748
8.771606660666069e6,26.651531219482422,-24.709726333618164,7.004289150238037,-6.656444072723389
8.771606660666069e6,34.28703308105469,-13.06032943725586,30.619876861572266,7.815771579742432
8.771606660666069e6,67.9068832397461,39.24658966064453,-13.205855369567871,53.761417388916016
8.771606660666069e6,4817.634765625,8.270383834838867,-24.64158058166504,4817.56396484375
8.771606660666069e6,17.952131271362305,-2.888345956802368,13.309868812561035,-11.420097351074219
8.771606660666069e6,72.94921112060547,16.441936492919922,29.570615768432617,64.5791244506836
8.771606660666069e6,57.154212951660156,17.00956916809082,-26.47936248779297,-47.641963958740234
8.771606660666069e6,297.26416015625,-40.46211242675781,-19.576457977294922,293.8353271484375
8.771606660666069e6,368.1656494140625,-0.20840637385845184,31.406089782714844,366.81494140625
8.771606660666069e6,866.9168090820312,-51.12729263305664,41.65750503540039,-864.4010009765625
8.771606660666069e6,653.8789672851562,-11.414738655090332,8.270644187927246,653.7221069335938
8.771606660666069e6,180.89637756347656,18.32565689086914,-28.18680763244629,-177.72677612304688
8.771606660666069e6,932.9674682617188,27.479578018188477,-24.091304779052734,-932.248046875
8.771606660666069e6,127.36322784423828,9.774393081665039,42.097599029541016,119.7801284790039
8.771606660666069e6,44.37593078613281,-9.244068145751953,24.09925079345703,36.008766174316406
8.771606660666069e6,108.40034484863281,-41.176090240478516,-41.18758010864258,-91.39137268066406
8.771606660666069e6,446.42828369140625,-24.734375,-30.08490753173828,444.7189636230469
8.771606660666069e6,46.40138244628906,28.29962921142578,-31.375398635864258,-19.01152992248535
8.771606660666069e6,114.56028747558594,26.6877498626709,-7.828324794769287,111.1043472290039
8.771606660666069e6,65.04621124267578,-38.73627853393555,-4.1415510177612305,52.02876663208008
8.771606660666069e6,87.6744155883789,20.411422729492188,24.372623443603516,81.66876220703125
8.771606660666069e6,661.839599609375,16.31895637512207,33.09052658081055,660.8056030273438
8.771606660666069e6,644.73095703125,-9.899447441101074,-36.897117614746094,-643.5932006835938
8.771606660666069e6,41.180572509765625,-28.66999626159668,22.09947395324707,19.470977783203125
8.771606660666069e6,426.5195007324219,1.9276227951049805,-48.973182678222656,423.6867370605469
8.771606660666069e6,28.16899299621582,2.557866096496582,25.81394386291504,10.68758487701416
8.771606660666069e6,62.86687469482422,21.52682113647461,20.703845977783203,55.26142883300781
8.771606660666069e6,597.1204833984375,-21.12578582763672,-20.821657180786133,596.3779296875
8.771606660666069e6,55.82096862792969,-18.20099449157715,-0.6485510468482971,52.705963134765625
8.771606660666069e6,747.1673583984375,35.801856994628906,-28.419815063476562,-745.7634887695312
8.771606660666069e6,156.3029022216797,43.50144577026367,-10.444581031799316,149.74234008789062
8.771606660666069e6,43.620601654052734,40.922393798828125,-9.847787857055664,-11.170060157775879
8.771606660666069e6,954.9462890625,-46.61804962158203,5.4237213134765625,953.7890014648438
8.771606660666069e6,322.633544921875,-36.57664108276367,-11.105143547058105,-320.3511657714844
8.771606660666069e6,1095.3853759765625,-34.900177001953125,23.28565216064453,-1094.57861328125
8.771606660666069e6,458.451416015625,8.491135597229004,-21.073030471801758,457.88116455078125
8.771606660666069e6,261.0702819824219,13.92251205444336,-35.62629699707031,-258.2406921386719
8.771606660666069e6,1368.0164794921875,9.344377517700195,21.132062911987305,-1367.8189697265625
8.771606660666069e6,45.628143310546875,40.273807525634766,20.60934829711914,5.370059013366699
8.771606660666069e6,22.77188491821289,19.30574607849121,4.688309192657471,10.83980655670166
8.771606660666069e6,72.56659698486328,-0.9236443638801575,40.46283721923828,60.178497314453125
8.771606660666069e6,112.19756317138672,29.00311851501465,25.2822265625,-105.36392211914062
8.771606660666069e6,47.51023864746094,6.840038776397705,6.680069446563721,46.46986389160156
8.771606660666069e6,79.8902359008789,12.63438606262207,-17.07463836669922,76.97346496582031
8.771606660666069e6,151.2091827392578,18.296796798706055,-10.72380256652832,-149.6932830810547
8.771606660666069e6,58.255104064941406,7.96344518661499,30.219566345214844,49.09840393066406
8.771606660666069e6,42.13750076293945,24.2724666595459,-33.83795166015625,5.919823169708252
8.771606660666069e6,68.04304504394531,-15.658658027648926,20.717914581298828,62.841590881347656
8.771606660666069e6,1350.8221435546875,-13.974599838256836,-36.22699737548828,1350.2615966796875
8.771606660666069e6,319.9769592285156,-0.4969547390937805,34.525978088378906,318.098388671875
8.771606660666069e6,33.67495346069336,-30.6402530670166,-9.819050788879395,-9.61241340637207
8.771606660666069e6,209.5360565185547,51.41558074951172,15.755441665649414,202.50234985351562
8.771606660666069e6,52.8542594909668,-28.55701446533203,-4.179752349853516,-44.20671844482422
8.771606660666069e6,758.2297973632812,13.918248176574707,-21.820158004760742,-757.7837524414062
8.771606660666069e6,74.64448547363281,18.668638229370117,23.89664649963379,68.16059112548828
8.771606660666069e6,880.2369995117188,19.197866439819336,1.881510615348816,-880.02197265625
8.771606660666069e6,16.163854598999023,-5.869217872619629,11.095563888549805,9.866393089294434
8.771606660666069e6,43.71916961669922,23.01620101928711,-8.33033561706543,36.136695861816406
8.771606660666069e6,86.89019012451172,-33.70869827270508,7.453362464904785,79.69761657714844
8.771606660666069e6,163.90524291992188,-18.718177795410156,44.433109283447266,156.63299560546875
8.771606660666069e6,42.19216537475586,11.985129356384277,-31.527999877929688,25.222126007080078
8.771606660666069e6,44.2196159362793,37.838809967041016,-6.937509536743164,21.65882682800293
8.771606660666069e6,1122.0919189453125,28.328102111816406,5.078834056854248,1121.719970703125
8.771606660666069e6,142.93997192382812,-22.583431243896484,-16.102846145629883,140.20042419433594
8.771606660666069e6,178.20848083496094,-3.0105719566345215,-34.258697509765625,174.84042358398438
8.771606660666069e6,1407.2877197265625,-37.612091064453125,7.527703762054443,-1406.7626953125
8.771606660666069e6,85.56258392333984,-35.94771194458008,7.5359063148498535,77.237060546875
8.771606660666069e6,46.14373779296875,3.335953950881958,-16.384456634521484,-42.93367385864258
8.771606660666069e6,26.11947250366211,-16.824718475341797,12.091599464416504,15.702984809875488
8.771606660666069e6,562.8033447265625,-17.524141311645508,25.036869049072266,561.9673461914062
8.771606660666069e6,188.49534606933594,-23.875139236450195,-9.403037071228027,186.72357177734375
8.771606660666069e6,13.234441757202148,12.20333194732666,2.173588991165161,-3.8909409046173096
8.771606660666069e6,893.9769287109375,-26.446430206298828,29.785083770751953,-893.0855712890625
8.771606660666069e6,102.47411346435547,35.364051818847656,-1.3627439737319946,-96.13587188720703
8.771606660666069e6,160.19287109375,-67.31232452392578,-33.95965576171875,141.31942749023438
8.771606660666069e6,494.7677001953125,41.98310089111328,9.609114646911621,-492.8831481933594
8.771606660666069e6,54.5088996887207,-32.408348083496094,-13.000946998596191,41.77953338623047
8.771606660666069e6,233.74502563476562,24.141319274902344,-33.838748931884766,-230.00546264648438
8.771606660666069e6,66.27188873291016,-20.150068283081055,-12.039569854736328,61.924320220947266
8.771606660666069e6,33.28668212890625,-24.901308059692383,-21.934309005737305,-0.6700676083564758
8.771606660666069e6,1104.385498046875,-29.379003524780273,-27.750070571899414,-1103.6429443359375
8.771606660666069e6,142.03758239746094,-8.698372840881348,18.219633102416992,140.57272338867188
8.771606660666069e6,55.8402214050293,-16.984512329101562,-12.370796203613281,51.67451095581055
8.771606660666069e6,16.72333335876465,7.412415504455566,-13.202581405639648,-6.637213230133057
8.771606660666069e6,64.29715728759766,37.64565658569336,-8.478885650634766,51.368011474609375
