56410.176972681395,1174.954616801641,90.68349220649479,0.17402623854055355,1171.4493384003868
56410.176972681395,20.91604334667553,5.728160294431312,-0.06790175494193935,20.08460548238342
56410.176972681395,298.9683457752429,23.25161311388487,0.22580539671202876,298.0605814498459
56410.176972681395,37.310628588991946,12.109632326799497,-0.384839599276358,-35.27064853682542
56410.176972681395,388.7453781250174,16.250163269731775,0.2129082768685161,388.4038913508018
56410.176972681395,299.1437556201115,32.77703400360665,-0.07182473335397076,-297.34050236849515
56410.176972681395,43.36028681321911,20.46621263264217,0.39615394068642357,-38.20757273323417
56410.176972681395,90.99963945905048,17.89953923630104,-0.06296857053510606,89.21470647194005
56410.176972681395,640.5229001076336,10.413754117252804,0.3392290882189638,640.4371562848416
56410.176972681395,74.90739805139798,20.25495892753372,-0.14684503092547155,72.1079766553007
56410.176972681395,17.571181437479552,10.204323295633808,0.3194400479208733,-14.256335446137463
56410.176972681395,48.46312034116763,21.922490026942214,0.042979789623546004,43.20652214734251
56410.176972681395,10.304324154424286,5.792588592244789,-0.33989095357789073,8.440167470502182
56410.176972681395,21.190644014299227,15.773354701813266,-0.3466402743227096,-14.101469952517657
56410.176972681395,102.31294295519814,20.448962921937202,0.3731198582987181,100.24153795833445
56410.176972681395,43.902250049602586,26.44924798903564,0.26575487138328585,35.02143848688487
56410.176972681395,396.3581659222846,31.92797163708045,-0.15238102209142987,395.0684801898946
56410.176972681395,101.06027282843759,40.01194874031066,-0.35112940694503786,-92.79453835981174
56410.176972681395,33.4647152038504,15.446086566450083,0.04729907775443027,-29.665304235146326
56410.176972681395,27.63784594505093,22.644936919633903,-0.19846146456665098,-15.803319668514327
56410.176972681395,29.492255365250408,13.483888648599251,0.20091433598367822,-26.204282970173303
56410.176972681395,51.24406028983681,30.748121784545084,0.13289905351241235,-40.97823811076788
56410.176972681395,116.12938036556778,20.737415422394033,-0.013303628459158208,-114.25725074503258
56410.176972681395,22.38175833628255,12.961688780440172,0.1047597493165488,18.2113616922977
56410.176972681395,17.963223185138432,15.602762103886393,0.1499591834788267,-8.828117199149089
56410.176972681395,50.343340833485314,33.328936661152696,0.045111508422817255,-37.714173083539166
56410.176972681395,86.34004973548787,18.49099437810471,0.0956009437536924,84.32914748060112
56410.176972681395,22.39556665369205,19.62729680137697,-0.166053460828241,-10.725203558383761
56410.176972681395,14.8706243611602,12.651031894612004,0.0961130819993432,7.733340951859657
56410.176972681395,279.0116596804944,23.028066956028333,0.42406641718027976,-278.05711909015474
56410.176972681395,12.904506451907451,12.67106546320121,0.35536484044021915,2.1379994702453695
56410.176972681395,230.05028602314505,14.260782341794044,-0.10117423054045199,-229.6050541456261
56410.176972681395,127.87596665407656,27.088749471503267,0.18075338274047262,124.96862313040526
56410.176972681395,24.39167919051378,23.184058064662164,0.14767829061584642,7.4939038971551355
56410.176972681395,573.476145312777,26.949913593490802,-0.13089302642692013,572.8414276274285
56410.176972681395,154.7268341132218,19.967914100493694,-0.061529132247326104,-153.42880679472043
56410.176972681395,94.68190028925459,24.26956689038728,0.2301685507348184,91.51133441757702
56410.176972681395,30.779105137990218,28.6352078009985,-0.39097234571534834,11.222845763173272
56410.176972681395,34.523680348844536,34.37547386012251,-0.10935013573498702,2.987688634888669
56410.176972681395,24.76406809207365,21.029401384435477,-0.03804895638956679,13.028769599163267
56410.176972681395,35.5670764232714,19.361373410440848,0.07999575245345021,-29.81400148839286
56410.176972681395,83.1612959552351,35.19636577862256,-0.004256114328695539,-75.3375331553078
56410.176972681395,52.12543653287964,8.075402573199044,0.33961375146419626,51.482624337089206
56410.176972681395,87.40373814821226,8.021324261922699,-0.009589212494609364,87.02757405858989
56410.176972681395,151.42334626351973,15.27852736865791,0.030965582126356358,-150.64634869564446
56410.176972681395,147.95464492177808,20.787354429799315,-0.07357931536263226,-146.48271015697958
56410.176972681395,13.3927067493442,9.479898405657615,-0.2118606829974359,-9.390323447748736
56410.176972681395,38.022880203727304,10.899917374113464,-0.2450874393937562,-36.408763937842615
56410.176972681395,1582.5482821819319,27.40734594020363,0.06680357356238445,-1582.3105337770746
56410.176972681395,26.523573835448733,26.494676046835284,-0.019117356888691237,0.5086096876967143
56410.176972681395,9.97138789349803,1.6303535114452514,0.2647077350199949,9.768694532809272
56410.176972681395,26.79699504656043,24.308892480108007,0.10579773592360048,-11.219288563229226
56410.176972681395,50.87033439987656,27.422158847988328,0.3887798900304991,-42.82980172004147
56410.176972681395,192.1320949697868,21.57904357832054,-0.2949316377910756,190.91287738170823
56410.176972681395,270.1434048237537,19.738736541411203,0.14319422593698392,269.4189078072341
56410.176972681395,46.725637822334086,8.301211191911998,-0.3244259430091869,-45.967345035021495
56410.176972681395,26.009686309983046,21.60735448235841,-0.2698857795998461,-14.43191307462027
56410.176972681395,36.860305519665566,22.02313853618419,-0.14112847048104535,-29.535919045865942
56410.176972681395,53.6390738410238,10.600960849485366,-0.02539802877820914,52.568965803415
56410.176972681395,923.0152011759517,13.462575401241939,0.3324285205073535,922.9162676515336
56410.176972681395,246.9332073083179,27.136999958769977,-0.17238918067135817,245.43489834555072
56410.176972681395,22.091502441530395,18.498619451461458,-0.285127115055311,-12.020033284164198
56410.176972681395,25.741531530477115,25.373409782401733,0.2888813120900307,-4.17851746991596
56410.176972681395,169.28497527350225,29.58176879072937,0.26217353629555146,166.67627309460985
56410.176972681395,21.22987928469641,20.066580117643397,-0.11545122958107398,-6.837671164114904
56410.176972681395,431.46713202616957,20.232764087762547,-0.038659448733197634,-430.9910053827273
56410.176972681395,95.66666426273112,15.169958025290102,0.07262013329356691,-94.4494822118962
56410.176972681395,77.91520144946465,7.56116686605772,-0.005220019780181535,-77.53924351188681
56410.176972681395,473.4166337497677,12.965368201693812,-0.08755553271036781,-473.23770730098715
56410.176972681395,20.162929464325625,15.159922078035038,0.1953056406380022,-13.244216926191271
56410.176972681395,148.69692578300769,21.582025836730548,-0.13822568061274396,147.1179789518304
56410.176972681395,25.75460597619226,18.36150744264123,-0.19783039050353793,-18.023389683112942
56410.176972681395,103.33606686856832,15.868352555716582,-0.266310107723264,102.10383989385136
56410.176972681395,36.214730850734504,35.240758076563324,0.2458362987541885,8.262094432073084
56410.176972681395,42.132964500918476,9.588101813097463,0.10872783182977573,-41.011829008542385
56410.176972681395,177.65158587479354,50.44776624660412,-0.20722146232395325,170.33435602641262
56410.176972681395,152.90476862628927,20.898411756796676,0.13239504344361336,151.46562007718094
56410.176972681395,64.11279855289992,26.73706097415372,0.00867072154499412,-58.26068462245958
56410.176972681395,94.59622542142793,47.283050417606894,0.36447393746109136,-81.9228484920206
56410.176972681395,44.15162600155294,17.31039187172469,-0.1681307134082525,-40.60067835642088
56410.176972681395,28.994395100733502,28.942174079527984,-0.18244896826429374,-1.3111667673170455
56410.176972681395,4.882775636676412,2.8371902116320222,0.04198562599669552,3.8101215122814436
56410.176972681395,1015.3637464349589,25.936478965965797,0.31512329263496164,-1015.0317553011354
56410.176972681395,201.08478851003014,16.100157528420382,-0.3770025965352348,200.4356802214511
56410.176972681395,23.244007458608184,17.656141978132744,0.12144044140702881,15.075036468050172
56410.176972681395,43.65602973828578,42.66198042362253,0.1734460162679759,-9.192454211688057
56410.176972681395,20.140253848305825,19.19938590862001,0.10719698208157244,-5.977361769469333
56410.176972681395,209.2163370853561,19.81898386357001,0.022234443945882615,-208.27244183225105
56410.176972681395,1228.9604374210853,26.821135337490546,0.1524805143121174,-1228.6671995028744
56410.176972681395,1982.1781829672689,22.583884600962705,0.26431444606336113,-1982.049185632066
56410.176972681395,333.5828116376928,27.239194827399732,0.4514835348062587,-332.46660221290074
56410.176972681395,20.252435993080503,20.220913560217735,0.013613254148250379,-0.050717189755400516
56410.176972681395,42.80512253621659,7.562837357107591,-0.07830858427390153,-42.11653847749224
56410.176972681395,36.04781502211182,15.552008995012361,-0.13118958908657688,32.500610955629135
56410.176972681395,103.0225481979245,19.20030085836366,0.24291501945855837,101.21097675423016
56410.176972681395,8.504991007578916,4.709357625062604,-0.45163174427286373,6.977090416199861
56410.176972681395,491.3918319286842,21.053421771576737,-0.09256250681255102,-490.9393081524728
56410.176972681395,46.40996163541627,28.115489080312937,-0.21124196068095047,36.90645104476537
56410.176972681395,44.68921973592506,30.56756795811703,0.06498504101361015,32.58025269678144
56410.176972681395,27.52878594806149,25.757425386431134,-0.17057044498996526,-9.648157237002149
56410.176972681395,20.51188805162375,20.477991859937486,0.31740113794050495,0.12488576505459587
56410.176972681395,39.09743565354355,14.858436318685527,0.42238541046705913,-36.143946581987564
56410.176972681395,60.955288494203586,24.566454487208837,0.3289669498374201,55.77324832924293
56410.176972681395,18.239727638887498,14.99481141232608,-0.27170117823165335,-10.31970991013409
56410.176972681395,37.441746806104,15.375644320203607,-0.02854760167022019,34.12037646004845
56410.176972681395,242.4345067820467,25.120753024949757,-0.03995622876005478,241.12686119286573
56410.176972681395,79.0798884053822,13.954709971391793,0.17344851088510685,77.83053176322332
56410.176972681395,176.36689912952795,17.031634453221272,-0.32469318949452214,-175.5386796402993
56410.176972681395,27.543928605346196,26.445624899327967,-0.06852119139188138,7.617031617157898
56410.176972681395,132.06650989377675,9.544706165898118,-0.0790502054779809,-131.71629477746748
56410.176972681395,22.835815309085216,15.17971541310206,0.2046327911252089,-17.021626401101596
56410.176972681395,343.22556012345194,29.378806744071888,-0.2087983962672186,341.96396619920563
56410.176972681395,36.994167411998795,26.483209240287056,0.0013699036831138272,-25.805716189936117
56410.176972681395,110.38869163829948,22.783449182502114,0.2507789541612983,-108.00574861547906
56410.176972681395,500.925539840679,26.858278207123522,0.2879569272025466,-500.2036319103875
56410.176972681395,25.66765478596243,22.945946699399062,-0.14066163335439105,11.446361242533772
56410.176972681395,21.966794187215445,20.994364932009933,0.1154013081606767,-6.363199636436736
56410.176972681395,84.0848682759124,12.018045569278977,-0.38659121273006647,83.21303467616426
56410.176972681395,18.115723966897587,18.03322464574408,-0.3678371347500025,1.2545511839916428
56410.176972681395,20.34763572184971,19.689025811120146,0.2638947571864369,-5.002583407127598
56410.176972681395,57.208424665793146,14.850778415460962,-0.06379874236609429,-55.23568685213464
56410.176972681395,71.9461290714293,26.064609055139776,-0.30473434091220897,67.04860713882846
56410.176972681395,76.44436298013346,35.745446225781095,0.042698847136408986,67.56277689287678
56410.176972681395,38.327759347295235,27.500353293357556,-0.29586818304680307,-26.671841077303903
56410.176972681395,62.339092909212766,20.418557195386924,-0.16160663283743712,-58.88926769122194
56410.176972681395,638.0452696870166,29.916021190990378,-0.235550158161703,637.342505487678
56410.176972681395,35.76663164109115,13.19576385974015,0.06976911307660585,33.224175331952765
56410.176972681395,8.86936669449345,8.760835982900883,0.2168056468524267,-0.7702940111358045
56410.176972681395,16.922880513337006,14.243939066854534,0.28477430986657026,-9.063108044752454
56410.176972681395,300.36769679479653,27.642949354695318,-0.14325832896805885,299.0908341038652
56410.176972681395,171.00378555217912,27.650545645328986,-0.01087209248183117,-168.7497224282127
56410.176972681395,27.62728687842261,20.82856528888671,-0.17387459591841634,-18.114484673987835
56410.176972681395,20.14000162104566,17.723614257363597,0.013990612996173418,-9.49841599029268
56410.176972681395,22.048549342883078,14.597529355233057,-0.2606449063154914,16.483618176585832
56410.176972681395,194.11805840349217,20.073391864386146,0.11947172684208898,-193.07405885570665
56410.176972681395,695.299956330761,26.765449129182223,-0.3469405932204077,-694.7835969406632
56410.176972681395,551.5787691993717,17.125566348871622,0.3173252716295401,-551.3115995990888
56410.176972681395,35.48497745317646,20.722381298226633,0.4208730804798445,-28.780485457050162
56410.176972681395,12.791975180858573,10.345328485307625,-0.012148250508942146,7.438790162976368
56410.176972681395,308.34307139581233,24.32323282516043,-0.1580421726721152,307.3801099364071
56410.176972681395,76.9611768049576,30.926904786012607,0.11598273279763865,70.46462078714784
56410.176972681395,22.034120473998314,21.30957444537139,0.016007925375897767,-5.489187997889238
56410.176972681395,131.08858404548442,34.39291039766006,-0.3284260370035327,-126.49096274784526
56410.176972681395,33.85695877169094,30.625128908876867,0.1764918078931816,14.390654131567501
56410.176972681395,217.5409039109472,85.11543973060614,0.163273015096604,-200.1951724565057
56410.176972681395,106.55947685277918,15.678297837129062,-0.3306406496608317,-105.39321942107591
56410.176972681395,227.74224416295155,19.7872977463892,-0.15267595644637993,226.87815287822556
56410.176972681395,33.46237702606786,16.43637744495199,0.2752201693543771,-29.124343180407834
56410.176972681395,441.3088125461477,16.754400499122724,0.16517366792656082,440.98918099152434
56410.176972681395,56.92499819389978,17.319669107100538,-0.3204290822161768,54.21354762150611
56410.176972681395,17.073009432256455,7.395259555313518,-0.16567980606200536,-15.345920516388881
56410.176972681395,793.6128192102216,10.509087335616494,-0.21877102933339704,-793.5424027589924
56410.176972681395,1.4770587409623794,0.38796964179071225,0.3936583624013407,-0.7766300824804886
56410.176972681395,54.98673319077906,38.65963664987037,-0.153883943223142,-39.08550344994857
56410.176972681395,111.33471106955031,19.4435345146939,0.257125200967273,109.61764310665133
56410.176972681395,30.302684363916352,30.19836322488917,-0.05417987933187924,-2.244001302913624
56410.176972681395,43.263833047826736,10.415147526450436,-0.04113867357564472,-41.97629329409678
56410.176972681395,94.54913539789048,5.009006154365167,-0.02064468853345869,94.40961484266842
56410.176972681395,265.36870834837794,20.78271434350713,-0.1972409222096797,264.5511636529526
56410.176972681395,35.42272959618087,25.650585475082483,-0.40887074803706197,24.400348371509676
56410.176972681395,30.41567714511185,30.340596771442105,-0.20521313357044688,-1.8017853446640857
56410.176972681395,46.10757099688554,24.23808252778163,-0.09415735030227017,39.20639657138451
56410.176972681395,204.7333252201506,20.68523636989139,-0.28840857815861337,-203.68234879739512
56410.176972681395,95.73169855046957,22.55053472796688,-0.13229545584893995,-93.030860083432
56410.176972681395,404.4487530492614,30.468984472418335,-0.26372909818944995,-403.29777114979794
56410.176972681395,76.65402926765462,29.55910428761574,0.13514713973825682,70.71639294421719
56410.176972681395,71.74497509093953,26.338894051781296,-0.36562303790460937,-66.72478827117197
56410.176972681395,79.26582656568404,11.491902786821903,-0.07849773715602804,-78.42020280957323
56410.176972681395,169.70873608739714,16.98849977716983,-0.35116407820571666,168.85215308844332
56410.176972681395,147.43076215489916,28.266087845917546,-0.18590782742928746,-144.6912239386032
56410.176972681395,350.12128688030197,15.145932561883091,-0.20694336727445264,349.79165279792255
56410.176972681395,17.44342438740037,17.406284604627604,0.04742429283814016,0.13784291097771698
56410.176972681395,28.05685650151107,25.976071382975675,0.14376714636088414,10.542162129779804
56410.176972681395,147.78587981667962,15.540512077252709,0.27068600880314986,146.96194209985617
56410.176972681395,122.42306948946495,15.330068901571936,0.1880779970517395,-121.45405920129816
56410.176972681395,22.776718276624212,19.738440803204643,0.05595993730399775,11.3091404494997
56410.176972681395,46.68097284702328,35.97182382944049,-0.19625576796830044,29.729270746383293
56410.176972681395,21.760053838715173,12.997212996663702,-0.054701507623074845,-17.415405371055904
56410.176972681395,643.9612786629368,9.136138485076664,-0.05324686573318404,-643.8954755972954
56410.176972681395,21.45903371922751,20.60129031314169,0.2855023819834878,5.892571009031568
56410.176972681395,80.20182470751442,53.0633018525085,-0.265512549259414,-60.12715796643499
56410.176972681395,57.73186954654231,41.23166474696405,0.18024941090108695,-40.3932300366387
56410.176972681395,46.558790848303644,29.964352401763286,0.03529816676150593,-35.61719084302481
56410.176972681395,191.66125063282672,58.27286572951173,0.10948820436015713,182.58429030245898
56410.176972681395,159.59124183945463,19.637403487809145,0.006541182928034448,158.37444160103357
56410.176972681395,52.507455510787516,28.235719631684212,0.12011633124911719,-44.254824960395226
56410.176972681395,27.655835911042036,26.015142810646854,0.03311334354883301,-9.315763366284635
56410.176972681395,12.563141084104949,9.97550271062284,-0.40431356690815434,7.542236353966638
56410.176972681395,8.35672570785394,4.151040059787636,-0.014446289457727905,7.1645279951345096
56410.176972681395,20.59111046311653,20.366600465454297,0.3939963491678707,-2.786955609920336
56410.176972681395,66.38182974696531,38.69658564267583,-0.20050665405514945,-53.92409773325672
56410.176972681395,130.4058557922713,21.406617024654963,0.010767160323663873,-128.63191981639963
56410.176972681395,474.95805016360373,18.18989078910813,0.273623188198448,-474.608185093508
56410.176972681395,1096.7768413815124,13.623412586743978,0.1813535642046727,-1096.6916323517262
56410.176972681395,21.642047990820206,13.766427915325748,-0.08007285426419891,16.66085925566609
56410.176972681395,25.57219550652402,15.319712002168819,-0.057227800972568015,-20.444247877662022
56410.176972681395,242.49087706667007,26.593900568952645,0.027701688476453268,241.02555068875586
56410.176972681395,173.50629725811285,29.17481925916184,-0.05018558183681705,-171.0321301099101
56410.176972681395,36.22760545372916,22.991824909290667,0.07919231274506174,-27.973845855355503
56410.176972681395,70.71453075707852,13.836680551511478,-0.09033539126413487,-69.33837256625162
56410.176972681395,29.42561559593436,18.941643727575617,-0.15035467391091245,22.489671377753034
56410.176972681395,22.92594913863755,19.717103277368192,0.11125642913971985,11.642574602465194
56410.176972681395,29.33604099522965,27.573562305094207,-0.18900604197580956,9.94953159234036
56410.176972681395,76.67026376280128,29.184718068571623,-0.3413964947083037,70.88858839234216
56410.176972681395,298.2842396053018,15.625116464214491,-0.12158103903533368,297.8725490701582
56410.176972681395,1068.4008961776624,6.935198566462122,-0.16133081906971683,1068.3777791051034
56410.176972681395,538.8389484223773,35.293975998350454,0.08835204806986202,-537.6806363708728
56410.176972681395,246.22503837810677,28.96662695907623,0.08711432428367602,-244.51262420807313
56410.176972681395,265.83241013916415,16.47384664360332,-0.3465023777570463,-265.31884503813905
56410.176972681395,13.099331995182546,12.8567122621046,-0.053304569714754016,-2.2408806889947943
56410.176972681395,16.042810715925594,3.837535671602305,0.31228730921055387,-15.533013596295568
56410.176972681395,129.90923937499895,4.3780609825983055,0.08870212603654264,-129.83051308558504
56410.176972681395,15.519432943063855,13.470947408143731,0.08264471240695158,-7.622760901588906
56410.176972681395,203.42078533484147,28.02782036795914,-0.4034855877860219,-201.47709877342265
56410.176972681395,90.73271928457902,48.05775999180953,-0.010462643431228621,76.95196477665102
56410.176972681395,396.63351574785764,9.311015486331344,0.07873459579477972,-396.5225990345226
56410.176972681395,54.60257996980152,38.45653230402961,0.09550883503244614,-38.74602792132541
56410.176972681395,96.4748668496034,25.132866955982205,0.008499900091821565,-93.13681226605999
56410.176972681395,51.495228165634046,31.580982801513738,-0.3815687851939597,40.65687387752985
56410.176972681395,727.7201614154937,23.21435249003743,-0.3596858344782404,727.3488329091284
56410.176972681395,285.27088304880823,16.934870948000544,0.19925281467164815,-284.76547209738624
56410.176972681395,27.582923621192162,25.7859719289043,0.23890789949513014,-9.724771940762354
56410.176972681395,15.472892867607472,15.400377634680815,-0.20452542280327926,-0.9611924173173245
56410.176972681395,21.194805052369425,20.007719967909033,0.16158377016599618,-6.900125556024158
56410.176972681395,4.08701736846438,0.023823071562774738,-0.17088340078143008,-3.924395673823957
56410.176972681395,225.5205264070772,17.805196497266973,-0.08762124985217255,-224.81370525447397
56410.176972681395,713.5907615791039,17.536185409616774,-0.28293903080168753,-713.3743085484224
56410.176972681395,67.87435225969924,12.75720836340349,-0.27576327230426967,-66.65457391037837
56410.176972681395,36.02358690599471,27.656172837725503,0.2156608834258883,23.054616610062464
56410.176972681395,36.509685797216825,29.908685701149487,0.041657972643888735,20.90820127042657
56410.176972681395,21.38757990857229,7.577280525090944,-0.10599768893749568,19.968202167185268
56410.176972681395,89.629099099708,12.618040984553,-0.22587659955081119,-88.72900521255265
56410.176972681395,15.475068405511301,4.613158782988988,-0.05785128553807361,-14.728207648486876
56410.176972681395,26.339273888129835,26.03477642192172,0.28610360843867433,3.820058828042492
56410.176972681395,536.7821741411366,18.102516784966856,-0.029699574422648596,536.4756540783383
56410.176972681395,71.99240296021111,31.060041932541804,-0.20980176824213626,-64.93737599766563
56410.176972681395,564.7775293787008,6.65003216016908,-0.02063119904441542,-564.7372497691662
56410.176972681395,291.88380980977047,33.0208636323872,-0.23042548456538894,-290.0076806521572
56410.176972681395,450.4421343159147,37.14403480316976,0.30913607855794867,-448.90652525844655
56410.176972681395,45.79352800142044,23.033928676033934,0.31344586596993423,-39.56152205569656
56410.176972681395,26.294464053053687,26.14342115262847,-0.21419000569643273,-2.569325208121919
56410.176972681395,47.53022536570032,13.541641479217692,0.3677566207235231,45.54490052179834
56410.176972681395,304.12100057635195,2.1927311582062723,0.021599249048917673,-304.11100176450657
56410.176972681395,13.555159998884083,9.717524065830625,-0.14703193824285818,-9.381759394936871
56410.176972681395,147.64112058777698,10.705743767379085,0.12451103418991576,-147.24808648982196
56410.176972681395,45.94900314400667,11.846813467378212,0.013890619660821786,-44.38119699554944
56410.176972681395,352.0290170825643,30.587067392146153,-0.29634211688165885,-350.695736068924
56410.176972681395,62.17102555555144,16.873176002493032,-0.08333242592750315,59.82685304305009
56410.176972681395,117.72430444021693,33.05153013002854,-0.05294949615205314,112.98377028342411
56410.176972681395,15.651866155717817,12.553344537638147,0.06735049787384478,-9.279916922919709
56410.176972681395,1567.9385112757764,27.73330757415365,-0.2825574013736578,-1567.6927906618444
56410.176972681395,1247.2417619327357,22.41424430528289,0.3757078132147588,1247.039774884525
56410.176972681395,58.12740657568876,32.08508077100372,0.2620790922450498,-48.456178561593156
56410.176972681395,27.61106349678538,23.22624911797897,0.25754602645057884,-14.885321242329796
56410.176972681395,232.23905561671418,29.88311150043352,0.008685690778019003,230.30567831572176
56410.176972681395,124.38187025903704,29.018935949135106,-0.20627099327667506,-120.94393493227864
56410.176972681395,48.747962105550656,11.334690446169553,-0.025984631325680345,-47.398469024248556
56410.176972681395,1083.595900145069,18.503838784908297,-0.30564143822037493,-1083.4372691964431
56410.176972681395,133.32652113218734,21.135696925137893,0.14407556626974707,-131.63567044703925
56410.176972681395,205.21028888793126,19.187422826059716,0.024956045919832043,204.30817846348683
56410.176972681395,273.9920852036398,18.407785631901767,0.034203690957468946,-273.37070426727524
56410.176972681395,32.56758150336522,22.00987713298122,-0.20714148069261945,23.977003671985017
56410.176972681395,16.692477985303416,10.996496511160183,-0.06499667090811444,-12.507541737393968
56410.176972681395,30.0837897933693,15.642602763181102,-0.3807450145436608,-25.669541473677516
56410.176972681395,69.17864975978353,68.66699493113897,-0.12789671627853258,-8.321055897762998
56410.176972681395,333.4697778580199,32.77793687055879,-0.39101107300102494,-331.8527891228844
56410.176972681395,24.983303971342075,24.953347378495316,-0.2600607067154949,0.3940044053564305
56410.176972681395,412.6873002490674,26.65816155780452,-0.10612838766867602,-411.82382869996394
56410.176972681395,41.893612646222195,27.545491739741223,0.29548914227358475,31.54299114929265
56410.176972681395,21.05534979735409,20.814600979114104,-0.008852019151629724,2.9676593337103125
56410.176972681395,5.173047758244273,4.369484220343832,0.050632110822856215,2.5283208373535153
56410.176972681395,271.3973521690774,22.735408543781947,-0.15364611993694874,270.44098671376236
56410.176972681395,53.48357281842308,22.224866936613555,0.30390537284583397,48.63314128973923
56410.176972681395,257.21566240731516,34.32860343443744,-0.021801121471891262,-254.91208374201517
56410.176972681395,45.80766733269863,34.59073953766993,0.21423983307923075,-30.008401575295295
56410.176972681395,38.81509785487418,36.50963227057019,0.1831548304515703,-13.128288782978569
56410.176972681395,32.67619504476164,24.907760512602582,-0.2663663142143692,-21.118550540858443
56410.176972681395,130.01689268570036,19.40898878954695,0.040235925325098364,-128.55508102752097
56410.176972681395,19.29163893768522,14.025507979657233,0.03413924110229221,-13.19766011218659
56410.176972681395,55.86614104354035,31.145230580700048,-0.11297817692264633,46.36501377346188
56410.176972681395,329.7381323620724,30.39695441262642,-0.06581256570188793,328.3321240815167
56410.176972681395,1291.6813425850955,23.220421583351776,0.18421974366628469,1291.4721041532887
56410.176972681395,30.008463510781887,20.581433209671545,0.31690703577114704,21.80685668211803
56410.176972681395,240.43503100236367,19.079613243294197,0.2737080408840316,-239.67399632545087
56410.176972681395,11.63690358928442,4.64721894860346,0.2862733024807599,-10.60499259294076
56410.176972681395,45.01247761109063,9.69734783813129,0.013007666704291107,43.94099857201509
56410.176972681395,94.99843079603522,34.31929047137582,0.24553538055940835,-88.57513650419806
56410.176972681395,66.67288553608218,19.937348030217926,-0.3274726604838995,-63.611284533454565
56410.176972681395,513.1898824089475,25.038063485258842,0.3829910608837957,-512.5773415210381
56410.176972681395,139.91020473216048,44.93039314964047,-0.03859916883432335,-132.49471917336163
56410.176972681395,36.64687805167141,19.93827811578574,0.16412254594290124,-30.72716615003031
56410.176972681395,17.101149351285894,8.78651077884481,-0.3589631211353296,14.623427165199498
56410.176972681395,27.133873131370347,14.492057480586176,-0.10566322747092449,22.911637119181336
56410.176972681395,667.2973036294957,25.7469673197148,0.42842137467934155,666.7993165107989
56410.176972681395,57.251467790108165,12.07391296654874,0.0844355572038889,55.95239940828881
56410.176972681395,51.9959032071896,16.920224294697682,-0.22074923335327545,49.1523973884746
56410.176972681395,106.27792675082355,18.114406998747377,-0.19734573494445515,-104.71654103964684
56410.176972681395,157.92396061419308,21.975910297138604,-0.27591821078250933,156.3831433081465
56410.176972681395,415.49438384915516,35.128374686188366,0.377829762237018,414.0050295417637
56410.176972681395,14.698016099566797,11.440138392604547,0.10185663854561099,9.158137100762598
56410.176972681395,188.6884007048586,12.2513892679388,0.0067293000880029935,188.28686336382907
56410.176972681395,107.24048791123565,17.668352851664885,-0.20854938222974026,105.76878084394332
56410.176972681395,197.21376683801685,15.553807443833565,-0.31842471555613083,196.59596753049226
56410.176972681395,28.953510962522913,12.998760596966225,-0.4253641831835718,25.843452254320773
56410.176972681395,184.7452580166894,14.746821585452098,0.10992916130030078,184.15226435607434
56410.176972681395,20.78315295570814,3.978025028030855,-0.15807172110750423,20.367049764207533
56410.176972681395,43.91945783861006,31.363159307949378,-0.04701302311980483,30.724513730037973
56410.176972681395,250.5624201922583,10.105209893525018,-0.17945340092403694,250.35595834969956
56410.176972681395,40.397051306657346,34.09011345482221,-0.10904356414961593,21.644883171806978
56410.176972681395,80.12735955998713,6.882820682786674,-0.2695419714958363,79.82277128576573
56410.176972681395,204.5885940707362,20.445588699243476,-0.09571294273555549,-203.561264745345
56410.176972681395,27.711615079553603,11.458805626272023,0.19889344644313608,25.205490759824958
56410.176972681395,72.81610535275698,14.871677375696148,0.1584318138607084,-71.2721561989489
56410.176972681395,23.997841296720207,22.291889554930677,0.16878400091464266,-8.812859810775258
56410.176972681395,17.495091640248777,17.258349957744255,-0.04688363410094521,2.636726999820972
56410.176972681395,5.896764584410746,3.7429353373935523,0.24290588033739957,4.40797044764923
56410.176972681395,594.6162058770162,29.57423124494057,-0.04321659690220339,593.8792151686102
56410.176972681395,465.8772645609979,29.50630695629959,-0.3917673381751535,464.94040149475234
56410.176972681395,76.66387563853279,23.691638534741514,-0.05454030230000814,-72.90253806229929
56410.176972681395,98.08108773517351,22.215160657575417,-0.2629348352946653,95.52509729204836
56410.176972681395,126.64895569787022,20.268834100308872,0.41350421409187155,125.01075272531631
56410.176972681395,3.345050270220389,1.533915010251651,-0.12876980258651083,2.747148248560316
56410.176972681395,36.78586209015767,8.102547455735754,0.11505822098371564,-35.86449602544881
56410.176972681395,26.827155790101653,26.27993360304192,-0.26537307994093,-5.26477861306013
56410.176972681395,388.7359843071433,75.0095935576251,-0.26542059638518417,-381.4287389022758
56410.176972681395,18.53644533377383,17.023028257762487,-0.18667972161317564,7.24626830437184
56410.176972681395,12.526747781854564,9.80358380822801,-0.12379139516912997,-7.71497046693828
56410.176972681395,98.60603932744709,1.7376104854833374,-0.05187882814893083,98.58425812138553
56410.176972681395,275.55068961364515,20.76582017180606,-0.010950306144821202,-274.76479046331315
56410.176972681395,14.512161680948457,13.233369753503744,0.07969714584639669,5.848191951020842
56410.176972681395,3.2080807259293933,2.9822767432992943,-0.35209686543894636,-0.02782584776579841
56410.176972681395,21.271929302777092,17.88903344634885,-0.24042713519320838,-11.451925275708955
56410.176972681395,97.9627744148953,26.861686717142923,-0.3595186322129119,-94.20059789214092
56410.176972681395,234.6218206750241,26.138362995514562,-0.009932595727759001,-233.1585545443946
56410.176972681395,144.47647796271366,28.580674754730822,0.09457432727543774,-141.61679176524723
56410.176972681395,24.735287848243647,10.54977656336586,0.1445637421833086,22.34374005919717
56410.176972681395,63.02218965496227,24.262645019331565,-0.09323096755028368,58.153578502690856
56410.176972681395,562.3311222564256,15.01231294209045,-0.44194849424258187,562.1293918120082
56410.176972681395,77.22607192688616,30.579895847559772,0.3983849019856931,-70.90348640080303
56410.176972681395,169.7772491010286,41.49071680074602,0.06424607041682666,164.62550696421692
56410.176972681395,21.508062016260638,14.860583123334099,0.3223332103267914,-15.504284612368014
56410.176972681395,719.9235642173143,37.89654834779145,0.2579027964353937,718.9245095028703
56410.176972681395,8.095333767251377,4.5369294032931045,0.3960304600606477,6.59702958743092
56410.176972681395,31.614799629564068,14.773149191677563,0.12618223832714892,-27.92777534517656
56410.176972681395,20.393115539193925,5.2533105535989195,0.2475913854999341,19.67098185750232
56410.176972681395,293.17059657747944,26.762332833133442,0.3703252418794255,-291.94411457888475
56410.176972681395,21.670780268704192,21.129486693220375,-0.2841295583330644,-4.670515928627506
56410.176972681395,22.592072905900743,22.518484793093,-0.30216482289991453,-1.3982976573589163
56410.176972681395,36.75125663638768,26.151053630596724,0.3052188762963777,25.79556238795418
56410.176972681395,38.388836008913486,20.35617534312069,-0.003286249405507214,32.52776942598345
56410.176972681395,214.80612770980937,18.739077414522345,-0.3976638821273793,-213.9838505165339
56410.176972681395,885.8456450524482,21.49755602476834,-0.049540169661476875,885.5840369091075
56410.176972681395,23.97421593024354,15.376204410540012,-0.030465920591761193,-18.359231419994565
56410.176972681395,253.9360457767736,28.81738930780417,-0.23298402923361808,252.29297666756057
56410.176972681395,920.6471201953038,30.58892287546732,0.1012400404523865,-920.1381170296062
56410.176972681395,18.602907597263652,14.213729052512665,-0.22482581078140362,11.946316166873096
56410.176972681395,18.828076088485737,12.270617458406155,-0.08799929164583967,-14.2354343670271
56410.176972681395,35.5506450174081,29.598322584852905,-0.23459638115460826,19.65857484571807
56410.176972681395,19.631740464951882,16.286626317258445,0.281451255598764,10.899484445877968
56410.176972681395,7.93820945930656,7.014294516085871,-0.1150663233829566,-3.539567870892565
56410.176972681395,65.81321644444417,20.471926745397933,0.322396077922595,62.53721031492577
56410.176972681395,318.6686721982745,19.081077611976234,0.09358245812503051,318.09488096983046
56410.176972681395,39.260497413321865,37.709702577032914,0.1090675101738839,-10.866463641930334
56410.176972681395,416.02895167444524,21.169755060288345,0.0814331096090027,-415.48844798596264
56410.176972681395,138.8943001780697,20.935615167609516,-0.2303957272436061,-137.30258736246873
56410.176972681395,12.377872768988464,12.147491890300492,-0.031019232600529783,2.0919254235174827
56410.176972681395,10.063202288482524,9.457546160646393,-0.06400085112180456,-3.2474149595052095
56410.176972681395,191.47872462463567,16.874493711921332,-0.06725647327498252,-190.73037477423514
56410.176972681395,50.39360210882006,16.16845666853916,0.22641071600828275,-47.71553017370048
56410.176972681395,258.0237901930124,18.43020155521751,-0.3686965385205452,-257.3619921009593
56410.176972681395,189.83037628009208,32.67148831988661,-0.15622378864160608,-186.9942462827205
56410.176972681395,50.9088706691972,12.546514059573216,0.32726655399869936,49.32461792531811
56410.176972681395,49.39375751553665,16.45087142335567,-0.1904840040196581,-46.5596688762932
56410.176972681395,230.2603527784176,31.4276411985054,-0.31257190554474906,228.1025266590732
56410.176972681395,100.75128379474964,25.68664323522073,0.21031677011152183,-97.41509252453072
56410.176972681395,71.12786070088998,39.206174338742755,-0.1807414379536248,-59.335846949781754
56410.176972681395,121.76978867310432,38.22500175326606,-0.16241933741522332,115.60895827540408
56410.176972681395,46.251403573257264,15.396854535833006,-0.07251622576155257,43.59874864495211
56410.176972681395,18.2654453571481,15.39093130249455,0.22218076096125597,-9.768485172037426
56410.176972681395,15.249717378238635,14.5205619217627,0.09848412752852259,4.519336409146091
56410.176972681395,102.87291497825487,34.171181489047626,0.1368714657931152,97.02512662747561
56410.176972681395,63.23562052738635,19.654208020196187,-0.06047817349029796,-60.09308689094771
56410.176972681395,36.8209189210566,22.344002011610527,-0.2240424732470408,-29.243843597864327
56410.176972681395,18.189615226883124,16.264766639534855,0.32195032039638843,8.058706804737914
56410.176972681395,4.523136537055131,3.262498654923514,0.3967085793686149,2.8955876903524578
56410.176972681395,189.12265570012642,17.504183574827636,-0.08509444534798496,188.30746707046075
56410.176972681395,336.8547097187118,19.993082692924673,-0.14252452371006794,336.2589459478835
56410.176972681395,24.81740423308621,20.609489471792102,-0.0777529885628399,13.779455365262644
56410.176972681395,177.92344673912132,23.10115368263179,-0.347966152500068,176.41342198576353
56410.176972681395,345.7890549283261,32.26377713769612,-0.2258586737149176,344.27865911206794
56410.176972681395,1435.8595559857977,30.7125718086496,0.22741539302576488,-1435.5305909906551
56410.176972681395,40.43916666205368,30.493371984142787,-0.09949340069688305,-26.536719946731672
56410.176972681395,105.13385917570479,23.230667926120738,-0.19662150831926622,-102.52878957627316
56410.176972681395,18.226539609269157,5.728627041624383,-0.2635873878528194,17.264038900129723
56410.176972681395,563.1730945306648,21.22097620069014,0.08783860585192259,-562.7719998328134
56410.176972681395,27.627027875275488,21.693958926267822,0.007943978393365834,-17.06902725201002
56410.176972681395,325.6353783242143,24.75507299082756,0.05513416424837762,324.6910991648938
56410.176972681395,42.924610850884136,16.21726631432286,-0.09934872786176634,-39.72706330614484
56410.176972681395,66.65531646705696,23.167553117835038,-0.335827935498405,-62.4884777744149
56410.176972681395,6.165942058358567,2.627100107524414,-0.041805410430349244,-5.462817762816094
56410.176972681395,48.66940874850232,21.788668706639648,-0.0816873872016564,-43.505005806250246
56410.176972681395,5.545480426907582,3.0211295962697022,-0.2033956152871819,4.506739227139763
56410.176972681395,739.415806734003,26.957443616740147,-0.2504575213479401,-738.9233354630821
56410.176972681395,395.78957288731556,36.23786199802153,-0.03894850133508219,-394.12552414968036
56410.176972681395,279.75728574772194,21.606533369868245,-0.14874597015092042,278.9193457944709
56410.176972681395,106.9903607504852,32.03683029629021,0.18566660500159157,102.07483169277066
56410.176972681395,375.4759527017372,25.892421598908314,-0.0834895091199633,374.58042331338333
56410.176972681395,489.0860826084722,14.631055826870153,0.17091241748446614,-488.86585699427593
56410.176972681395,182.39583769165213,11.553424850462951,-0.04668103510382979,182.02605511699466
56410.176972681395,181.0164399701688,7.022875297753259,0.1659922644591214,-180.87656052596773
56410.176972681395,38.61840710240201,14.72778197914921,0.0031185649561391105,-35.68193849114779
56410.176972681395,63.95033239083534,12.915595733328221,0.10884330736623286,-62.62226035521234
56410.176972681395,99.98733650656608,13.673837966922807,0.06053361865098193,-99.04149075878573
56410.176972681395,95.35909491443236,23.260553531831402,-0.10633924595115407,-92.47172142534872
56410.176972681395,92.74218937015027,9.214803588919889,-0.23056199601538227,92.2760795887127
56410.176972681395,656.4378478348231,21.854818906751586,0.13413003169193413,-656.072956239481
56410.176972681395,864.9512076881306,9.967739164124216,-0.10474749233458441,864.8930291222056
56410.176972681395,160.44982048926548,42.01506370779953,-0.3495402821041952,154.84664696843856
56410.176972681395,108.04230230952504,9.788604898805735,-0.2508720049662099,-107.59175760635662
56410.176972681395,37.475913538987946,30.413918044286373,0.36584178557471386,-21.863915104003205
56410.176972681395,242.7198158749715,24.37664308627852,-0.10181125714432057,-241.48996845376854
56410.176972681395,102.13836219654024,24.32494895116657,-0.20028583704814235,-99.19288641534862
56410.176972681395,394.3390370339503,49.53521655190293,0.12221366452135463,391.2138167970931
56410.176972681395,46.76782790600921,14.44489450563805,0.15563319917744295,44.466588211649366
56410.176972681395,25.410833242142928,12.82299637837831,0.1522410020890317,-21.90855932569223
56410.176972681395,35.65817784608586,11.335049417786704,0.35304645467364987,33.78793570655455
56410.176972681395,56.835668320266144,28.51183679928087,-0.05483690066964412,-49.15376168480701
56410.176972681395,49.08745062987961,18.08017032549281,-0.2628258707338943,-45.62173946720697
56410.176972681395,517.4307359427618,26.801561217237946,-0.10473211638611578,-516.7349018451149
56410.176972681395,59.87847718477536,28.300173709952624,-0.02361787099122463,-52.75659749510331
56410.176972681395,578.8332523726917,20.2569663931031,-0.23231678997645158,-578.4775383132139
56410.176972681395,130.61166368376158,22.94179408400308,0.4433035295022733,-128.5753133207848
56410.176972681395,126.58652429376814,0.38385834031651656,0.22365145217004687,126.58071616438764
56410.176972681395,202.96984147158153,15.74356853919165,0.05732359355795109,202.35518340227
56410.176972681395,84.61528993915975,28.462719157239775,-0.08464117010867551,-79.67647510179205
56410.176972681395,108.43769064729392,34.196201597075394,0.2137736898711315,-102.89817194279942
56410.176972681395,2588.41044904757,18.48548076504721,-0.22916253321868332,-2588.344183867975
56410.176972681395,796.6534885068488,27.207123717746384,-0.062214512173726776,796.187965393602
56410.176972681395,9.060121747909214,4.07976193024737,-0.1913040721337559,-8.008226429205584
56410.176972681395,2005.7983570261588,37.243903216960504,-0.2104591630169091,-2005.4522241549548
56410.176972681395,148.02286599141806,25.898873911169755,-0.15584555624517843,145.73510159779366
56410.176972681395,24.542790683270226,11.55287589537269,0.13072622314195553,-21.62381748983087
56410.176972681395,313.4393028746555,28.97984878747799,-0.13172585276990625,312.09465637561726
56410.176972681395,304.62920304005826,29.0804990052766,0.29083056937443247,303.23574703374777
56410.176972681395,14.463179815255721,9.710741073275543,-0.1868687463605075,10.657255620367446
56410.176972681395,12.038219225316842,11.955880375520318,0.26256956955161886,0.7960168931509876
56410.176972681395,135.89390768515017,14.493079091053902,-0.04280995919998373,135.1141366061226
56410.176972681395,951.2536409816958,20.116539745690886,-0.0024517973519610882,951.040241652629
56410.176972681395,10.268246994366642,8.639388641279744,0.21299703748635565,5.429496442053185
56410.176972681395,95.96013213612065,11.6698156742039,-0.02296114067530596,95.24121362943598
56410.176972681395,253.9430855671698,17.47582635325997,-0.19266759092738006,253.33846138901816
56410.176972681395,102.3843698856414,27.01358325017884,0.001901944443793283,98.74994912585068
56410.176972681395,158.7806978277567,15.058083982901556,0.04646951845552071,158.06102900186093
56410.176972681395,47.50108991978625,29.755104524542467,-0.24002276444801615,-37.008872267116146
56410.176972681395,29.170905206669836,23.146603928272267,0.11563114135460191,-17.71694120646556
56410.176972681395,35.340892006921436,15.7031234944006,0.19928154585838115,-31.639813310763504
56410.176972681395,231.64917411557516,38.21366448313208,0.07927636093681144,228.47270377348636
56410.176972681395,111.31835995616039,12.306441187162791,0.2836273689438524,-110.62990221120954
56410.176972681395,112.57486269152305,19.036907451035056,-0.24067520217708155,-110.94757716720565
56410.176972681395,139.27732641857762,23.54633801252447,-0.16350718035844564,-137.26778145296487
56410.176972681395,112.2123377941068,18.35466413506925,-0.26688851287201076,-110.69494463316391
56410.176972681395,156.13339566164515,23.28978680159976,0.16743079993599339,-154.38238881948004
56410.176972681395,68.26971458831453,13.31876116731378,0.10457557956562552,66.94834227967215
56410.176972681395,402.10355826089665,21.649711057367192,-0.14367053897706947,401.5187017750145
56410.176972681395,412.60421768384873,29.611459287070332,-0.07882150148488541,411.5387255844483
56410.176972681395,419.42049848888087,25.870676066338728,-0.23822635130877812,-418.62027287250135
56410.176972681395,659.5692556511715,18.091941673843298,-0.14845822316860952,659.3200964220464
56410.176972681395,34.54441492172873,12.912773308650673,0.01126088309867154,32.020363834073855
56410.176972681395,52.61538815085322,44.28526227008509,0.15494685006651032,-28.38833469082641
56410.176972681395,12.920503939137847,11.723426478065651,-0.38133660292448707,5.299265530234901
56410.176972681395,26.356636082103368,5.6979565663941765,-0.025999154013861048,25.70859427673767
56410.176972681395,239.04032311399533,6.688042490678027,-0.0713941378349432,238.9440687777649
56410.176972681395,45.128711962704195,10.138015197039545,0.24955601142029638,43.960049501615444
56410.176972681395,404.5866932864326,20.735794790154827,-0.43752239871788096,404.05315827515955
56410.176972681395,522.9659771044874,10.807751900147164,0.2834665339825592,-522.8529930042959
56410.176972681395,37.90578671313706,35.835071686411375,-0.24815099388364073,12.30291281631427
56410.176972681395,1245.8459692632946,16.65231772034483,-0.04005034553555118,1245.734162965445
56410.176972681395,204.96244243047218,38.66284040054223,-0.30837874726731024,-201.27945603286258
56410.176972681395,363.4908499408421,3.3090647821576424,0.11667797235334994,363.47401751204177
56410.176972681395,189.23720188325404,22.308620033998864,0.029063202024517194,-187.91426274560004
56410.176972681395,31.681515000171878,24.45859668240908,0.22747921656207015,-20.103995457356124
56410.176972681395,144.83096180705994,23.66822803301203,-0.3365723193329802,142.87909622446261
56410.176972681395,62.75702469210517,27.905222093265575,0.023332803414856388,-56.20025909923642
56410.176972681395,15.417928722700763,15.373993989177874,0.26168923494878177,-0.10626746122700143
56410.176972681395,52.69388998819683,33.49679650972494,0.2748930264659529,-40.66032511685402
56410.176972681395,22.931382898344804,19.7142077439441,-0.20101353796037758,-11.656966471885868
56410.176972681395,1190.984114784865,38.80736967654563,0.4334256014452796,-1190.3510779639905
56410.176972681395,502.54609141275984,38.381429788003445,-0.22664785146680186,-501.07695557821455
56410.176972681395,20.73002225344116,18.20846690150714,0.1669177884319904,9.842999201807832
56410.176972681395,85.83187396731597,34.47299200696447,0.31617555838461314,78.59612193330693
56410.176972681395,302.7533132250062,50.421237166039475,-0.23400035228801125,298.5229299305329
56410.176972681395,18.26676285630804,18.127150683628102,-0.4680570992761891,-1.8944379122720185
56410.176972681395,17.014818354042,9.725222463805707,-0.352635432186445,-13.911386667492929
56410.176972681395,9.532476131986934,9.248458696721228,-0.07150991656516567,-2.0139360426227286
56410.176972681395,36.50816919564745,23.570973332745936,-0.2749646638906276,-27.855106672002044
56410.176972681395,62.98701553915507,27.927372699756685,0.4030777952772775,-56.4445785529452
56410.176972681395,90.41853352361136,24.591893541693786,-0.12040186235685126,-87.00265754042212
56410.176972681395,119.99717986459014,10.84645657924927,0.09613105683243019,119.50060775184018
56410.176972681395,33.61999413774139,20.71162463709512,-0.4308454478148178,-26.455130353561604
56410.176972681395,48.83106885294915,28.858005381320716,0.18153524903303095,39.37490056871871
56410.176972681395,7.088587262331191,6.763564417632856,-0.0170511572257458,-1.79691794811338
56410.176972681395,148.4224995293975,20.556352462038458,0.09726164646596216,146.98772812480829
56410.176972681395,2514.3704654692747,29.40152650725049,-0.07561727961172879,-2514.1983034526843
56410.176972681395,154.97423922516293,15.424829566044178,-0.18674528766076534,154.20045888901907
56410.176972681395,253.6762459377818,25.46349726016296,0.25918636958950675,252.39236878698102
56410.176972681395,238.69552124237558,22.534214282315965,-0.3017231100328063,-237.62659142049506
56410.176972681395,62.05886643972522,29.056812416542797,0.34723160974188344,54.82345232920572
56410.176972681395,164.79192378970157,33.28512475520172,-0.08698065826924448,-161.39144335997668
56410.176972681395,54.35990674638156,19.562403166972402,0.03860546973278917,-50.70539707502382
56410.176972681395,31.371430190525743,10.835809150087028,0.36328338138762,29.416778147117455
56410.176972681395,83.53581649913569,13.151385209307788,0.19064858990785147,82.48614609423112
56410.176972681395,19.3166871458912,19.130582451969044,-0.3129928732454424,2.405034700778815
56410.176972681395,54.907561113540346,35.753753324381265,0.056765278622283366,-41.656129290533066
56410.176972681395,41.09902077204775,9.704753351512709,-0.3036505222660097,39.91969446623862
56410.176972681395,202.1505353832837,24.369745706085517,-0.23329754040888054,200.67293529855144
56410.176972681395,28.32175330908163,9.631941283328196,-0.014758900948528544,-26.609662510070237
56410.176972681395,118.4871889027277,7.461998891213781,0.27693883556883264,118.24628007091621
56410.176972681395,4.306779588195993,4.115227186235231,-0.08868207399578056,-0.5764808988370014
56410.176972681395,625.9812226066396,24.46235368351236,-0.32817369352024667,-625.501961267511
56410.176972681395,31.688738296944425,30.963682289171043,0.07576731121176078,-6.644374490654418
56410.176972681395,602.5059287049351,29.602956684718748,-0.26409307644004654,601.7771317307396
56410.176972681395,27.20146139718945,18.956775274802155,0.07579083375346264,-19.475147449581904
56410.176972681395,635.8504779870568,17.58374643024016,-0.1456912024783869,-635.606283740988
56410.176972681395,71.07413767351478,20.152259918231316,0.04417109201188075,-68.14796001529619
56410.176972681395,40.51784736965748,22.763268988328655,-0.4100017386306629,33.49758764627946
56410.176972681395,8.597991405965711,0.17081963498036118,-0.23497607386973793,-8.518685475123155
56410.176972681395,315.9558741209697,33.87910852202934,0.3421266592158426,-314.1320268386489
56410.176972681395,48.268794879433045,39.70686624436297,0.12764927939621268,27.42174277715622
56410.176972681395,33.898621781309174,29.56306345982397,-0.18979730716534504,16.547892724901935
56410.176972681395,31.701713817442556,18.452339173047488,-0.06375350840747306,25.753304887062768
56410.176972681395,133.14514792598487,9.641613886055913,0.1509936928008237,132.79071442657178
56410.176972681395,30.760319806267866,17.158377382771516,0.11411662210924098,25.504926517848048
56410.176972681395,48.57366637448352,42.68059170712237,0.1522635265664015,-23.161863299787157
56410.176972681395,62.41469713299907,13.923582793858484,-0.28065955816421606,60.83071945743352
56410.176972681395,74.5931043726013,15.291961033671216,-0.3780581208762172,72.99911752106127
56410.176972681395,8.756579689863717,4.673759262117323,-0.21803651222745615,7.315262224557774
56410.176972681395,38.92311350392628,38.698666375591586,0.13293562869724895,4.016373092580974
56410.176972681395,59.04629010716359,17.589620657555912,-0.1355680314857692,56.354043164279226
56410.176972681395,146.31482900086675,26.654681563893412,0.5068726841176276,-143.86113844771424
56410.176972681395,50.67274849629718,34.46880587340703,-0.3339173425133596,37.12471279550507
56410.176972681395,286.3088425227894,18.66567697941893,0.023399792422188197,285.69751871726
56410.176972681395,20.098776454173734,15.590281605001154,0.07398892378551443,12.634294566012317
56410.176972681395,108.26951522109125,35.86900238288366,-0.15175301390543533,-102.14894274734108
56410.176972681395,69.23158528208666,30.699259126132805,-0.1407404498402792,-62.04252590774465
56410.176972681395,13.141954357947291,12.974744829836078,-0.06844961204425042,1.7576162003186961
56410.176972681395,111.92484060436178,19.58819886632719,-0.3090393551532579,-110.19121490968313
56410.176972681395,85.19613334882315,24.291796013656285,-0.29342953410579103,-81.65127446794621
56410.176972681395,74.3162457268521,15.184076675926049,0.4328270127951639,-72.7384890846686
56410.176972681395,58.25567358281789,17.84879554504242,0.28200083432294076,55.441784033511595
56410.176972681395,53.358211440751525,29.279228775495344,-0.16597808536161043,-44.59287926175356
56410.176972681395,20.67733124246313,15.285003505930783,0.34876418874612886,-13.875373789014612
56410.176972681395,107.16249426495811,12.226410538263956,-0.027734572571747718,106.4567575701068
56410.176972681395,13.727665364573179,11.351538115215202,-0.06664932796670864,-7.6363522546828655
56410.176972681395,43.54873218324578,23.5519412070701,-0.144881203971926,-36.61289511488427
56410.176972681395,244.27150788174083,43.933418151561916,-0.11826249945320551,240.28553282590815
56410.176972681395,31.43669355857568,23.9024044794872,0.06249245019898642,20.387834504881873
56410.176972681395,75.00470813731214,9.9762204575969,-0.3543375882291109,-74.32888168221268
56410.176972681395,55.528666518892386,6.2316395326063,-0.2791633391022573,-55.165645840886526
56410.176972681395,79.4929647001712,8.926944378756478,0.015581975112047125,-78.98207263166307
56410.176972681395,11.90449563717333,5.64694421076968,-0.063150035477993,-10.418828563660732
56410.176972681395,58.74306631417989,16.434316530335014,-0.29737967283295497,-56.38527808402722
56410.176972681395,75.78810627353648,26.848298528550984,-0.17088140702742116,-70.86397997082439
56410.176972681395,141.89702455799082,10.874891916603623,0.07096267773959564,-141.47517170027257
56410.176972681395,120.74200891976824,20.578717665004127,-0.027608400608980177,-118.97006041072541
56410.176972681395,53.92792082307167,24.688566578743604,0.12021095689203862,47.93128219672695
56410.176972681395,5.180668604517684,4.962960432752307,0.05122726679163625,0.9657462450909682
56410.176972681395,25.845676746444774,13.146448951329003,0.07453035295041277,-22.223664657034078
56410.176972681395,82.00069188396775,9.139941197075585,0.10948874334709115,81.48183782714094
56410.176972681395,29.64384454766287,14.26317128505874,-0.31616946165773724,25.96047843242864
56410.176972681395,449.6049055113428,28.530724485398135,-0.013114762427795282,-448.697331825491
56410.176972681395,1420.0113071003038,15.859073295832351,0.03829649493812293,1419.9222963104003
56410.176972681395,347.3038344615902,20.64979546673558,-0.12685102091397416,346.6875397628737
56410.176972681395,69.42596752237395,16.842698655955104,-0.27360166827478494,67.34196722430619
56410.176972681395,150.07931913672442,29.095000887625183,-0.09448815836607298,-147.22771806623166
56410.176972681395,306.8705746371991,14.566954833084894,0.20539891394091844,-306.52249208737004
56410.176972681395,22.128433113651543,22.009254857617204,-0.3063643101330761,-1.9731529837497401
56410.176972681395,102.02308951785733,31.349748938023765,0.09829477750861618,97.08048884064357
56410.176972681395,121.73004438081458,38.24051572888635,0.03948373863464,115.56207008308681
56410.176972681395,130.1745366261898,30.29553285774021,0.029280840616024883,126.59508978017742
56410.176972681395,67.13828210954608,29.07777795002022,-0.020525893990531608,-60.504200448464644
56410.176972681395,66.48684722429589,20.29819696878622,-0.1407011923016348,-63.30237907004524
56410.176972681395,239.7078526687698,15.627297696173018,-0.14861048810874591,-239.1952070000999
56410.176972681395,169.65734171347304,21.253806743780185,-0.04104720100684013,168.31700612361635
56410.176972681395,41.59937127640844,28.922867423432468,-0.33582923602169196,-29.876237856083186
56410.176972681395,66.94853848665308,20.415263354560537,-0.03892231920818292,-63.74989609266726
56410.176972681395,54.73347494415877,33.312550882275765,0.39515976051780605,43.41195712073244
56410.176972681395,32.09095487871875,27.003871648201862,0.10978495647102586,17.301305945180417
56410.176972681395,174.50823876499402,21.612787982375465,-0.1216718939145494,-173.1609798065063
56410.176972681395,31.842469791284266,31.806517176195815,0.17470024943207083,-0.9923540003750106
56410.176972681395,19.299467805922635,19.195718174968842,0.22506936662849006,-1.6340575966656095
56410.176972681395,125.0895548859986,11.09015608307597,0.3207077657353798,-124.59144940672802
56410.176972681395,33.61027583845355,20.340666966541054,-0.06940137316483315,-26.732565006983585
56410.176972681395,44.4333378755316,43.24811862843293,-0.18995452052391937,10.129788065516248
56410.176972681395,15.009057115588243,14.95582701129251,-0.08991731488235748,-0.5602569890397017
56410.176972681395,960.2561266616237,23.200317702648295,-0.36616894128355715,-959.9750866085521
56410.176972681395,31.421133466175178,21.81586508820022,-0.1549909778427359,-22.584476430934313
56410.176972681395,38.59643231336818,8.832669992271546,-0.10099551325492838,-37.55509642038401
56410.176972681395,476.905027429265,13.426623731817966,-0.24376323264184915,476.714588072432
56410.176972681395,209.28096060417153,16.67715998290581,-0.21213152097169288,208.61225933687876
56410.176972681395,157.90411800874747,19.22372149296587,-0.2391496776896579,-156.7253290397662
56410.176972681395,42.337069974046955,13.616222295609237,-0.0415692610782742,-40.07182545742626
56410.176972681395,99.39595204204078,23.14528445164984,0.4013155224861607,96.65617918662677
56410.176972681395,209.26631629496447,29.625886415365,0.035327800051398,-207.15555430840988
56410.176972681395,219.21717144497424,24.800663367807843,0.22412293636539718,-217.80673098155464
56410.176972681395,47.34625772028105,12.117503437129095,-0.24066813276945018,45.75481667022945
56410.176972681395,27.627896732966565,27.535005498233062,-0.06470707100407146,-1.961352136843811
56410.176972681395,19.47753393396452,7.4835934006080285,0.36633023070549725,-17.943324642751875
56410.176972681395,26.418851065493477,10.692310926132688,0.3064889027557862,24.13013017665087
56410.176972681395,24.462699133879948,8.051587446242012,-0.12283140500758391,23.0717888354196
56410.176972681395,24.848216078394483,13.463645812150133,0.08054364823241589,20.85388538268789
56410.176972681395,53.2958458710461,11.175887393736671,-0.280945813530936,-52.09793409179177
56410.176972681395,12.966658443022837,12.326572517018793,-0.184526823199657,-3.857814163773608
56410.176972681395,27.719513769977528,16.955445750549266,0.12132979861126938,-21.899692263457123
56410.176972681395,48.11076690570544,32.87782704834095,-0.38206574354452444,-35.10377964994812
56410.176972681395,28.275366776980803,10.30404529933106,-0.08667971099190742,-26.306699575960216
56410.176972681395,80.31823451245265,45.85288595720198,0.39468180819434767,-65.93256259219301
56410.176972681395,29.627974275276383,20.012989879291787,0.1643770016514016,-21.817355821893994
56410.176972681395,98.30807676341685,28.881767507389938,-0.0038543091891126845,93.96301605858145
56410.176972681395,811.3575363653307,28.026054668729387,0.10674932019199837,810.8725594199235
56410.176972681395,185.60264640374544,18.868477417572,-0.22585346660609196,184.63747951414945
56410.176972681395,250.29332150024365,15.636129891509293,-0.10731516949618361,249.80186879245838
56410.176972681395,101.83864810541029,21.249105274597852,0.26038779146222646,99.59038563172001
56410.176972681395,14.094187679465936,11.143199806406018,-0.3513620200541679,8.548608556916486
56410.176972681395,14.80472339272751,14.663767910226836,0.14152281105319292,1.6913473369259138
56410.176972681395,24.911673915432907,24.773891718317774,-0.23795674405750344,-2.3486383493173086
56410.176972681395,137.0829015790041,19.873364549803387,-0.12309510917748219,-135.62994902857423
56410.176972681395,22.654264092522183,4.934996500789703,-0.3471661945647833,22.078675364574856
56410.176972681395,98.75963878392841,33.95905053818835,-0.1519512692677763,92.73053967921545
56410.176972681395,88.02836294168421,16.00493166030176,0.0939055925359706,-86.55375766303645
56410.176972681395,25.99829220720488,25.896699876451457,-0.1573247534693526,-1.9935699717228614
56410.176972681395,8.57662369102251,8.282504421070348,0.06810904397868452,-1.9185657977997657
56410.176972681395,14.223954924733478,6.962799717037658,-0.08693600842312711,-12.35150578033745
56410.176972681395,90.89736577306205,16.63351112057209,0.41706236602434393,89.35440901475695
56410.176972681395,10.68281168346729,10.00231213099125,0.10954473502330214,-3.5764726420985338
56410.176972681395,372.8994387848125,14.988328986500976,-0.24457285865297265,372.59630776947773
56410.176972681395,70.106978505424,25.815453384014695,0.10155528460817882,-65.17106280683102
56410.176972681395,213.96025591059671,15.187790257169437,0.3021638357790546,-213.4173324089649
56410.176972681395,23.627531715135287,22.813225688623348,0.2137596900619039,6.041376874071362
56410.176972681395,1044.1526995756328,17.753470371651417,-0.3153764020336607,-1044.0011023929424
56410.176972681395,391.1990010287097,27.745757007200368,-0.2706812268960684,-390.2121026374518
56410.176972681395,280.82446519601,24.765751744183916,0.04134482066076996,279.72801615656283
56410.176972681395,1277.9034890365124,18.948784698991094,0.08193788988728483,1277.7624940009061
56410.176972681395,669.771267538131,38.81545291976103,0.34756733692329,668.6445375312095
56410.176972681395,35.43148215309227,23.73234858208408,0.29041721617565214,26.28322954459548
56410.176972681395,416.13477761597693,27.157181607795412,-0.08567370220271227,415.2461441455496
56410.176972681395,44.91452984114569,3.628330540980905,-0.14182511694389252,44.7532907514381
56410.176972681395,84.52651044295067,21.89871897874323,0.14361614830558037,81.63261228372043
56410.176972681395,76.85474548854248,8.717135267935973,-0.2254592070400812,76.35011174900211
56410.176972681395,38.13569252415236,3.0209411328606826,0.03242117619168444,37.999090080498185
56410.176972681395,45.35399143614194,7.6597674394374735,-0.08190844751485189,-44.688172172059076
56410.176972681395,31.074962371035316,17.2516518925125,-0.4512178053382075,-25.817767814878508
56410.176972681395,313.03133680687756,25.25278010840336,0.3611043148000908,312.008832347229
56410.176972681395,6.376949503791266,5.369624457316301,-0.15545806203951057,3.2458265607147294
56410.176972681395,3.7252702511355587,3.416527623173593,-0.11859974159914631,0.9580452261662832
56410.176972681395,26.712804731079654,22.21188409375319,-0.13963852286599643,14.795728498434853
56410.176972681395,191.97398831272852,17.115441641051206,0.24006638803538802,191.20602279574442
56410.176972681395,28.08245258855963,26.07228347984773,0.08928530336583518,10.37203667462478
56410.176972681395,83.37318630462744,26.66411733300979,-0.19532360773599566,78.98608630154973
56410.176972681395,28.14840653639059,26.200023129356538,-0.11723873951969443,10.22764746884907
56410.176972681395,115.82282715576164,33.80114111313424,-0.31721933011755465,110.7747103846813
56410.176972681395,11.9570806570368,11.102332492808625,0.05729504426487867,-4.293442377150542
56410.176972681395,456.7818250904758,19.22250192565841,-0.2986855632292847,-456.37568830816184
56410.176972681395,312.17372417398275,33.42873666172644,0.3360222588971841,-310.3764934043917
56410.176972681395,21.747718393291162,21.49357133092719,0.06883183031762237,-3.116383809060569
56410.176972681395,332.34649978612435,6.541625935925548,0.08050926811047811,332.28018825619216
56410.176972681395,8.218224133556713,8.13449382128634,-0.26539324323722346,0.16038615050054758
56410.176972681395,17.4186600410618,16.298818555300183,-0.25224887000992674,-6.035026176004876
56410.176972681395,114.06240235054086,35.356616014632365,-0.18882744205668672,108.4381511151755
56410.176972681395,74.56917801705517,24.953484029993895,-0.20271134188041637,-70.26074147150725
56410.176972681395,370.996193258317,8.950477762562992,-0.04294642170043871,-370.88649133488155
56410.176972681395,150.98370065306565,19.945910606152534,-0.07468673436250382,-149.65613877815912
56410.176972681395,54.91202061171718,12.872687731269357,0.307835658679649,53.369055589846496
56410.176972681395,31.205150752329153,30.768914510911205,0.12425694016721067,-5.074133681590065
56410.176972681395,108.3709707984242,20.554433199488102,0.22056499423652404,106.3976544752468
56410.176972681395,165.45907563069198,29.542533973095967,0.190870128172075,162.79629879919167
56410.176972681395,71.51997653384326,16.621568370941112,-0.19926704842505302,69.55226624665102
56410.176972681395,7.855977314184906,7.7192865859665085,-0.3945540091023269,-0.8368156359716793
56410.176972681395,705.5819810225181,8.819941497266148,-0.1598243078490087,-705.5259328833679
56410.176972681395,639.7727298924443,62.71520169163354,-0.2006092257449804,-636.6903769383175
56410.176972681395,103.14265426740238,18.226693924316766,0.2655587143823868,101.51281286415713
56410.176972681395,27.443274714193624,26.29691504591967,-0.11100784779388066,7.766608170502164
56410.176972681395,28.04538446336112,25.825773361576655,-0.4530075206081962,-10.867140528698775
56410.176972681395,313.3453013384971,32.09692872699436,0.2679660230413148,311.6949152144262
56410.176972681395,88.53012374679014,10.060500942943786,0.3024111754765791,87.94887502401582
56410.176972681395,9.068247512517754,8.973656404187679,-0.07406148384579936,-0.6542611821562235
56410.176972681395,31.201175808795078,29.829610424392605,0.16290850409903979,-9.077891479280822
56410.176972681395,317.06567633937937,28.7119139978566,-0.4892825707188503,315.7606002160557
56410.176972681395,1429.2447438799395,19.35441454537878,-0.034891084009584815,-1429.1132461312372
56410.176972681395,78.35643147739394,24.056044196298092,-0.30200762689300414,74.56321359759504
56410.176972681395,35.19572428074199,18.101869480216426,0.2701783945188634,-30.16148656337011
56410.176972681395,24.434393936342026,23.714339216867653,-0.2859301860405912,5.77190658122529
56410.176972681395,60.861669290770585,16.572704338856507,-0.3737764624190291,58.54976934217687
56410.176972681395,697.3118074251256,15.004368946477813,0.16966232750812185,-697.1494271967939
56410.176972681395,55.525919434736494,19.14420917946349,0.009657982841239884,-52.10905708031149
56410.176972681395,60.08531542298188,38.95943619596734,0.3021860811600468,45.727924547850705
56410.176972681395,124.9739655024363,11.296863375193897,0.036543438207262614,-124.45721568062442
56410.176972681395,73.42599534958721,23.95213580620357,0.04485846972437748,69.4002659233124
56410.176972681395,520.2570028625662,13.661025908744806,0.19768457117462296,520.0763532968801
56410.176972681395,88.14446347428296,27.023162505961057,-0.03372090143955627,83.8923174751802
56410.176972681395,139.5346768890766,16.52383593558579,0.013771817531696026,-138.54824304176464
56410.176972681395,121.54852810553109,23.51854348776545,0.03800586585619385,-119.24616677905973
56410.176972681395,5.459693700207819,5.22586284685781,0.08316508539564442,-1.1039182417603617
56410.176972681395,157.7425016307418,27.79233029081139,0.0660556269926063,155.27074989673736
56410.176972681395,715.0257324675675,30.979338508728468,-0.08064300488108726,714.3534133131576
56410.176972681395,530.506387136111,24.611644455283876,-0.10929718424034292,-529.9339663983161
56410.176972681395,61.236888922547635,2.721551834046014,-0.3882160896086458,61.16474432142105
56410.176972681395,189.78724177345032,22.927987487405954,-0.19791818698393845,188.39371618303173
56410.176972681395,49.13836526219745,16.92180435818121,0.2705366986800176,-46.1181659100754
56410.176972681395,61.42395059325979,20.674020687138697,-0.13446664570888553,57.82901895192563
56410.176972681395,143.89713884525204,23.12895345163283,0.04439433348566292,-142.0216992164757
56410.176972681395,16.44310104161292,15.878160155148286,0.19927467925108264,-4.1166528472003225
56410.176972681395,64.41303539618191,26.219415596787393,-0.4337359616939888,-58.82278629016361
56410.176972681395,28.891759814139988,18.934358279519603,0.12042690220255677,-21.793033248539942
56410.176972681395,339.4307589290585,18.449348780453878,-0.13023494460922455,338.92708893610575
56410.176972681395,18.70670113457497,18.205843885440547,0.0475936631171619,4.148805817401764
56410.176972681395,977.7480724398225,14.408178519045734,0.1857975684150634,-977.6412378628088
56410.176972681395,47.31075445289312,24.78359882632116,0.13730364509393897,-40.28385288098647
56410.176972681395,71.54821738831991,33.323978741295115,-0.06234068448136642,63.30389328505045
56410.176972681395,50.09792243447937,30.411207590690857,-0.17480134680030618,-39.79518398909816
56410.176972681395,45.28626599116594,7.71080117287351,-0.04515247643637612,-44.61069751818411
56410.176972681395,811.4809264129256,13.005569180505063,0.11365231650644134,-811.3759074094648
56410.176972681395,118.00133784229125,4.955382031389722,0.2914831587843987,117.89148356930487
56410.176972681395,17.152870164754304,15.902626119175501,-0.43480001152146264,-6.313899386481893
56410.176972681395,170.88265688315695,16.901401186229975,-0.031938281527481134,-170.04102734471184
56410.176972681395,82.07790349165535,24.44981089456554,0.19096300198176225,-78.34334343801869
56410.176972681395,223.96122751352414,30.057055866899063,0.27621332918015407,-221.93209652343077
56410.176972681395,463.58540524256944,31.97551410825024,0.255467929943783,-462.47989807847546
56410.176972681395,1081.4014634524503,25.31974206587063,0.30101539778125813,-1081.1043761578526
56410.176972681395,133.65678783719343,38.576088381103794,0.40269295649666487,127.96322564574012
56410.176972681395,31.4212897049844,21.108984290257176,0.24447517862855433,-23.245975994895737
56410.176972681395,26.321386824036622,14.552558238838824,0.09060744308193065,-21.90336007207641
56410.176972681395,174.38325528529978,13.038867177666267,0.22072771813072828,173.89130479988262
56410.176972681395,48.08766402786961,39.54895231663889,-0.03418410145290012,-27.331841739456497
56410.176972681395,128.36017742816625,27.254003964976878,-0.07959157017517669,125.42836609618777
56410.176972681395,336.8140044414354,94.73234416779225,0.33053705088746826,323.21521350443606
56410.176972681395,27.240360870223817,24.224870962262145,0.10132343713504159,12.406029174270712
56410.176972681395,15.50735175152347,13.3862782764399,-0.3272971990744724,-7.739853222424134
56410.176972681395,62.009675728179126,14.820133939875086,0.16642845584182447,-60.201850092810076
56410.176972681395,322.0468698086195,17.68298380184445,0.08402718557676356,-321.5590432812233
56410.176972681395,32.695179186882996,15.695928974233325,0.23536292230416667,-28.658054698513904
56410.176972681395,169.18290816025015,35.18248888389189,0.23182247493579386,165.48027703307895
56410.176972681395,72.9839182599259,15.262152490397652,-0.039345472402655055,-71.36136501619903
56410.176972681395,23.309823621610526,18.702319540268487,0.3175843916405688,13.863520488983673
56410.176972681395,176.1178432471698,32.16314491638786,-0.10178798984375693,173.15237046438963
56410.176972681395,42.79930036061051,18.775556958663927,0.276591275217321,38.44358215133177
56410.176972681395,38.09798505936328,25.42374349887534,0.08071750604078214,-28.351545916952766
56410.176972681395,33.602797610712635,16.278799734494896,0.28773397236074166,29.373335437806055
56410.176972681395,17.388346212709312,10.733895314862428,-0.07801915127976783,-13.633008747325379
56410.176972681395,25.35436592474473,11.995430836720613,-0.28558794651031877,-22.306924689927946
56410.176972681395,399.18020704642146,6.038597593451863,-0.10033802693972795,399.13292260613946
56410.176972681395,23.311415323519014,21.010618232462274,-0.019699656739913883,-10.035066362951744
56410.176972681395,52.67767781382311,20.414989552720794,-0.19149845864513476,-48.54746346483603
56410.176972681395,245.033053133532,32.11159314071814,0.13079501744676367,-242.9171721918372
56410.176972681395,460.258067579241,23.179987019210735,-0.2028281179058937,-459.6725603877517
56410.176972681395,169.61004802478607,21.67144192515738,-0.134267788963402,-168.21600966354427
56410.176972681395,177.94235368535547,38.57001062585029,0.03538829134829848,-173.70826463408343
56410.176972681395,60.075738311329474,28.8865600762946,-0.07298711199462751,-52.66291477502404
56410.176972681395,5.339788450829928,5.104235378909982,0.28693948187052476,-1.0510598175385741
56410.176972681395,52.75681606058045,13.800891562473144,-0.21864075753335657,-50.90673990995615
56410.176972681395,47.33486443164348,41.99312883948134,0.22137701528385706,-21.81385918080273
56410.176972681395,21.850630028941136,20.449997403949986,-0.25692601166347206,-7.609767866014953
56410.176972681395,132.53369151922738,14.702950444444507,0.03540447317257512,-131.71077526753538
56410.176972681395,5.12717001435979,1.4361299046979574,0.3083286271900891,4.78092834297247
56410.176972681395,7.761783818914854,6.821664286120783,-0.21927772020471656,-3.5198069280081943
56410.176972681395,29.617853086187644,29.592558914677433,0.3347744122012663,-0.3354750650575701
56410.176972681395,59.29116884344945,27.910434132300768,-0.297921009126139,52.2980740711477
56410.176972681395,22.9142686790431,18.13008733318249,-0.2560819454620654,13.965135285193618
56410.176972681395,320.1468852283849,8.815889287140678,0.24560065861627764,320.02339732735163
56410.176972681395,9.855655119655609,6.648212052003703,-0.033067586625643526,7.187562868866003
56410.176972681395,62.83811120663694,25.49824510682296,-0.32489125461106966,57.42028475436818
56410.176972681395,16.96015166287653,16.66670998113068,-0.23089459257227216,-2.922524530226096
56410.176972681395,81.75124788978476,19.666764910722016,0.1709446454620831,-79.34218680198839
56410.176972681395,27.373407516549452,17.51750706499171,-0.024826557972539246,21.003968864171142
56410.176972681395,152.84062930646638,15.499789783755629,0.05720586747366236,-152.04847302769863
56410.176972681395,37.01553835013084,27.290905039432168,-0.061649201291413935,24.981587618978153
56410.176972681395,70.92847737903308,13.941969922559533,0.12080083886676464,69.53547816944801
56410.176972681395,21.304776487786476,9.172237640024905,-0.23291751937915026,19.194693183497776
56410.176972681395,99.75419279218784,33.725781564424366,-0.2591723623500538,93.87294821345662
56410.176972681395,102.37027199429153,30.9481066583656,0.06288197267487972,-97.57361460669154
56410.176972681395,49.40351844772694,36.81086557246971,0.03383774524404356,32.930132173094265
56410.176972681395,26.376217582848152,23.14925074918088,0.3302235764081312,12.587093994599417
56410.176972681395,57.81831302303767,7.991074030450938,0.21163003862210866,-57.25191881942974
56410.176972681395,26.72371443871574,11.095475253724294,-0.21345946408071373,-24.284330677686185
56410.176972681395,89.44106930975975,18.634109126367406,0.3789224123558041,-87.47032761602813
56410.176972681395,99.7129193272238,34.72578881848823,-0.12876928560057865,93.46387660092155
56410.176972681395,90.39391842197797,30.059629532760297,0.02762906475855549,85.2420397208865
56410.176972681395,100.6468083429733,26.122976536536445,-0.40565492274577253,97.19018731174674
56410.176972681395,194.19783390539044,17.40112294466189,0.06150509357094391,-193.4133469283954
56410.176972681395,133.92744221670822,28.498119654391516,-0.01758240552679676,-130.85543009307145
56410.176972681395,21.354009060517225,14.059299759505505,-0.01364976849295658,16.032983066879357
56410.176972681395,255.65926917979033,26.94235723512231,0.23045723472343768,254.2330527935589
56410.176972681395,259.8258012506915,36.08524953229106,0.4791179770412596,257.304875870688
56410.176972681395,31.83428182154477,30.790210726581908,0.4049593065902375,7.996709921975531
56410.176972681395,279.71455421987525,47.09718389309961,0.1347551263980795,275.71868977624456
56410.176972681395,60.677519781300745,48.36691588455465,0.26100741050277904,36.620508855943264
56410.176972681395,53.18603205909122,12.267929030975358,0.1923889996075148,-51.7391713217796
56410.176972681395,127.44231942217502,26.432645120116156,0.41959611166982735,-124.66519534284922
56410.176972681395,176.32449234303422,41.691392543787984,-0.08957035106139087,-171.3209657457333
56410.176972681395,238.29565973597587,24.944632277483695,-0.46583568213831233,236.98332579692683
56410.176972681395,406.4458108163275,34.66970124062301,-0.10971018156396568,404.9628672468797
56410.176972681395,876.6820360972166,29.01680032493946,0.11978761967397411,-876.2009645649222
56410.176972681395,236.00002476687433,25.01179986045593,0.09508319509033973,-234.66814751048298
56410.176972681395,66.4321365045915,11.194886101245228,-0.15789889211987443,-65.47217189611699
56410.176972681395,1183.0177194328835,28.3770535968301,-0.04257761659618021,-1182.6767912018904
56410.176972681395,496.32301519787404,30.063966208961986,-0.21768610286975704,-495.41030762668447
56410.176972681395,26.251264313936524,24.651186143710703,-0.27342095292601654,-8.949864796787939
56410.176972681395,13.12426419570644,7.245373718813679,0.012414659949089945,-10.884744155911266
56410.176972681395,27.282637384080765,26.255931784787958,0.4209950007621449,-7.31560326037001
56410.176972681395,27.8629590872179,27.604176844602645,0.1045187962976688,3.6152350904335613
56410.176972681395,29.700896432290286,23.207279564455153,-0.4083571372654917,-18.496637739256844
56410.176972681395,1.477760969468214,0.8484477854022106,-0.3498879814703394,-0.2615938622222055
56410.176972681395,26.173233580955728,19.97450685438053,-0.022210011352624577,-16.875534890277393
56410.176972681395,64.55513041281233,17.85564139529924,0.21088989496012828,62.02598969415876
56410.176972681395,366.33771263583725,1.9084366676381912,-0.012396580895451544,366.3310038123687
56410.176972681395,277.9983665987386,46.71300429297335,-0.09501765285319033,274.0432538345853
56410.176972681395,123.37959118957437,45.81266139030356,-0.006684869706266909,114.55326478484325
56410.176972681395,11.457036401245825,10.389357781959427,0.14915696972479336,4.693572124330627
56410.176972681395,335.2568072690306,18.682116300411256,-0.0872253728050376,334.7339610520662
56410.176972681395,32.71879418812759,12.340742386402383,-0.0351393764840462,-30.281203325028592
56410.176972681395,18.170712759559503,10.10559222814093,0.27262966251126564,15.056706814110283
56410.176972681395,315.39079481493394,15.505838328539767,0.11006248412518418,315.0073606395326
56410.176972681395,211.6948103066145,26.115714077253145,0.15265440757785786,-210.0746672607874
56410.176972681395,85.67652977879627,29.205043766585806,-0.11985949878053477,80.53723205039593
56410.176972681395,14.26722149258102,12.708742337810547,-0.025824925008882435,-6.384962763615443
56410.176972681395,71.40153923616678,25.967202418024026,-0.06321114081958737,66.50268526410726
56410.176972681395,22.324244617720385,21.631191533114475,-0.4225083492248312,5.386267391651613
56410.176972681395,31.34160262873481,13.614058437192371,-0.05072044761499994,-28.207761959298043
56410.176972681395,26.32672682364572,25.92445250265741,-0.330754442524973,-4.431348360609553
56410.176972681395,218.74462555448213,59.63043266234421,0.24180091793863412,-210.45686299310438
56410.176972681395,34.92068088526877,29.15944901887776,-0.28703285737052325,19.178765279731504
56410.176972681395,237.88517214621015,75.21096544411049,0.1063225999477716,-225.67982062783457
56410.176972681395,13.202864442323005,13.080416345239458,0.24132173091164547,-1.373695981554623
56410.176972681395,18.110843431730412,13.388423306372214,-0.1596495553079499,-12.143073017466872
56410.176972681395,140.28321232178283,19.44166304225939,0.2854506712477395,138.9246085274093
56410.176972681395,40.83760274805301,15.457139285397067,0.18351159621350566,-37.782005054306964
56410.176972681395,593.7765272196045,27.443989020313886,0.07362305934223663,-593.1408882064881
56410.176972681395,22.719030020136742,22.68001568392006,0.12014231037106728,0.6954987909934306
56410.176972681395,609.0816437046395,27.974982073536086,-0.3933763408284088,-608.4376888968131
56410.176972681395,15.820291645508208,6.200641760885407,-0.07924124807954239,-14.510490323786563
56410.176972681395,78.8934273286434,13.754174268123787,-0.17912769251728064,-77.67683321455497
56410.176972681395,17.670906554101634,17.608088385473124,-0.2026369101937293,0.9497574668228286
56410.176972681395,4.376500408052056,0.8269021144450461,0.23656399717107776,-4.140164888026632
56410.176972681395,98.43176980654647,35.994929886272665,0.2271243561861986,91.60706131826353
56410.176972681395,542.507402557023,9.818912653970564,0.16228265609878376,542.4173406030741
56410.176972681395,83.69397234231334,69.01072489713535,-0.35163479311843054,-47.337132863008094
56410.176972681395,20.96610424388076,18.612671204419193,0.21650109599792175,-9.582591725983692
56410.176972681395,60.3053337414429,28.796607875054136,-0.21675044373641228,52.973282047767455
56410.176972681395,370.1443921518925,25.24484943087035,0.28611663387496283,369.2806706220737
56410.176972681395,739.4230520090083,53.21762547502592,-0.055098379419603535,737.5046156359938
56410.176972681395,493.2124526393534,36.48699259495935,-0.08998855391292253,-491.85967678909395
56410.176972681395,43.765745555833774,22.59515054922996,-0.11589857595690746,37.46482566816116
56410.176972681395,38.3241759463428,27.918389325978,0.14423700440423523,-26.229985402319947
56410.176972681395,72.7935351758046,13.478852434902691,-0.3222461362422708,-71.52511724539077
56410.176972681395,43.8932505924829,12.869685410636434,-0.349808792046995,-41.94750550300648
56410.176972681395,489.50883930661263,32.09470979162841,-0.2999662145289989,-488.4541639929773
56410.176972681395,53.10538985844135,38.93505741537122,-0.0545115411218155,36.096643939300996
56410.176972681395,130.17428961862527,32.54880415745231,0.10408772179984419,-126.03426966698274
56410.176972681395,171.4951755415469,31.17838106535107,0.163435345835775,168.63334194686257
56410.176972681395,9.068132845632832,5.118588570843832,0.22131486991542956,7.396556170734203
56410.176972681395,30.568306012794043,30.320335283238485,0.33714636034774065,-3.702954529227711
56410.176972681395,51.7569296956014,25.418882180341,-0.2376670705327936,-45.07028570678195
56410.176972681395,19.7421531325647,19.629079288457614,-0.024958504725224716,-1.7827430493821586
56410.176972681395,240.11439669165915,16.06848366996636,0.14067026980089262,-239.5734427730517
56410.176972681395,18.500681344070607,18.400052827521254,0.3840402189887257,1.5141724999048933
56410.176972681395,10.239420788766374,9.790270339822403,-0.0427503939352724,-2.7787508482109518
56410.176972681395,320.6269738038485,26.55482593312628,-0.2827297556017024,-319.5233083098484
56410.176972681395,792.5796478066762,16.27420670449919,0.08261641430293758,-792.4117417271984
56410.176972681395,87.68449350459294,16.53243455311651,0.07507169468109562,-86.10441517282712
56410.176972681395,1611.2875648646973,35.922173902630774,-0.03033919620892509,1610.8866937585517
56410.176972681395,48.65538201579779,31.1541698478169,-0.2859524054853046,37.35517461515062
56410.176972681395,17.15750955531398,13.772693207336667,0.13431186110227025,10.168675203350736
56410.176972681395,859.6126755355974,16.45717354111676,0.048806624928562525,859.4543838607892
56410.176972681395,120.82701697954263,24.264741828745894,0.18730094602659805,118.35996871250266
56410.176972681395,31.086971134760077,23.31773367189034,0.2547644830806777,-20.52669249802213
56410.176972681395,99.97190699537585,64.56461648008366,0.2572284411761459,-76.3181057135909
56410.176972681395,395.1404265594834,23.16392093761249,-0.29319706084748925,-394.45916194582173
56410.176972681395,24.217516324404453,22.07473914354773,0.18466075913809124,9.893777245377622
56410.176972681395,40.522333721980736,6.786690879324594,-0.2998709269132203,-39.9329109096903
56410.176972681395,23.378707466107176,22.669216226289837,0.1596867130032994,-5.601074694665599
56410.176972681395,116.02110272365302,23.31354129533891,-0.03571997771785469,-113.64902433666632
56410.176972681395,23.810321240522693,23.782952769163717,0.10487351564123397,0.1359993100377059
56410.176972681395,180.08541516891125,30.145542961532215,-0.0016341191774308756,177.54078385698648
56410.176972681395,130.06639159916494,17.623850578189803,0.16449589263774667,128.86180968245117
56410.176972681395,279.34796668348065,24.959991080612593,0.28951195460482404,-278.2281949360792
56410.176972681395,12.726137750850015,8.174528179479896,-0.06932664374367466,-9.687817299214831
56410.176972681395,46.56093931997735,6.4994070243267945,0.05167203680893274,46.091246975986195
56410.176972681395,26.89174910651962,24.18655033170574,-0.0977604283091718,-11.700185257871789
56410.176972681395,258.9807412227798,30.450723657625225,-0.06732468695791076,257.181842592987
56410.176972681395,473.72555104045284,14.980121105471419,0.10560635903468017,473.4872854329386
56410.176972681395,158.14379079433488,29.026476916402835,-0.27963380503225466,-155.45279331253258
56410.176972681395,77.91645039073575,33.34341032862336,-0.47975829723344404,-70.4108443369008
56410.176972681395,781.9100347477374,20.11758898856989,0.02252448359805385,-781.6503767569312
56410.176972681395,162.2629395441882,13.481254183419779,0.13216717184246704,161.69794929470066
56410.176972681395,29.194284459109724,16.203235929097854,0.2886488495431429,-24.257061063885402
56410.176972681395,205.0117937870589,15.1084266103602,-0.22922856571897676,-204.45108322168798
56410.176972681395,218.22047411462603,25.905603239335605,0.4442457602328501,-216.67395927621945
56410.176972681395,43.92398755329487,19.85379533482592,0.3734114558471396,-39.162877784701806
56410.176972681395,22.18091415971189,21.07260826130203,-0.23070953644839132,6.827286887630003
56410.176972681395,61.8192528126103,20.755798251015452,0.2503008886810852,58.21925064656617
56410.176972681395,27.084143469134318,16.272379126652943,-0.15862503551278703,-21.620876074369168
56410.176972681395,28.815438681296975,27.48283475280651,0.2044013839535764,8.585363098305988
56410.176972681395,10.105903616733732,9.870540550053361,0.29395826104605477,-1.8281807381183544
56410.176972681395,6.4569673415646065,6.306225958823071,-0.27919885840085057,0.7569204144199144
56410.176972681395,330.74856847536745,23.302244972541803,0.050159065361712094,-329.924757105196
56410.176972681395,27.278216186917344,25.54535572872604,0.3476125879159191,9.494313225914008
56410.176972681395,19.257434300619153,6.770247217640626,-0.18828008996996975,-17.991776404024506
56410.176972681395,70.47287118829246,19.331286844452848,-0.09616955906253043,-67.76019932810894
56410.176972681395,712.1438821497923,28.28361735351615,0.19733416353825742,-711.5810803212204
56410.176972681395,271.4498233553752,29.658187620092804,0.23033124468572927,-269.8222978061367
56410.176972681395,180.87699571982907,21.949680820493228,0.28789123113274073,-179.53646746624642
56410.176972681395,228.15311949997874,23.573883911564423,0.18130269653813966,-226.92909025362505
56410.176972681395,35.49349534805025,21.317404901615802,-0.2563922836243803,-28.35520520803066
56410.176972681395,17.63852260223793,6.379851955897806,0.035482522112925026,-16.40550665816541
56410.176972681395,33.63867464403983,18.048079834725126,0.09123735014865064,-28.364517639877022
56410.176972681395,65.6865075315014,24.07463125077286,-0.15030864269858854,61.10510410961781
56410.176972681395,57.83095978376731,27.441674590663375,-0.3343393777893109,50.891940044198655
56410.176972681395,8.719171066453113,8.437219356199591,-0.09457043599893374,-1.8855421406266766
56410.176972681395,159.91712569471957,29.22870650272563,-0.3564726392638611,157.21885915183879
56410.176972681395,427.21258757853525,14.697917800575159,-0.10038262994335176,-426.9581748371999
56410.176972681395,19.608463946076075,17.019177598047914,-0.2779358740159425,-9.668978382983601
56410.176972681395,416.9544923441513,51.637302317152106,0.23363374273793983,-413.74304834010223
56410.176972681395,57.90946409092241,22.57783717713437,0.16022172668490622,-53.31461870640116
56410.176972681395,43.636157548974836,5.157344247664163,0.06494739864289922,43.315571875428915
56410.176972681395,56.21807684925091,27.508339123690355,-0.4022122143526276,49.01355534675029
56410.176972681395,69.27631606617219,39.41316548532513,0.12832905273523385,56.96069543896727
56410.176972681395,66.79087911011482,21.764603178483796,-0.0465060571886538,63.13515943657503
56410.176972681395,37.088261125996816,7.617975851692334,-0.3359084048966178,-36.27836355083672
56410.176972681395,61.348094888444784,32.89418193543004,0.015939697671474483,51.77150013546539
56410.176972681395,2604.931748141152,33.63964659791455,-0.021440576686509068,2604.714286275924
56410.176972681395,19.90407771483775,15.518967517597853,-0.034384989066823975,-12.412079344274684
56410.176972681395,63.36532602720067,33.53506729814125,0.39925589119491883,-53.75064034675231
56410.176972681395,27.689390810488312,19.257542299510696,-0.01601023569123368,-19.863939962174275
56410.176972681395,22.06540049756089,16.190923511204875,0.23664752045565987,-14.946800059983937
56410.176972681395,198.4832403925337,22.98530006758024,-0.4290935037170547,-197.1441490772645
56410.176972681395,22.528000117499793,13.51405934669596,0.008526292689488034,17.989103804258377
56410.176972681395,29.665103225004486,13.137441577330627,-0.35284481300989756,-26.571195264803727
56410.176972681395,104.27709484103815,87.32063472315609,0.21450274373162823,56.98684223322909
56410.176972681395,149.07112481622468,28.908241021824093,-0.04550859149791635,-146.23692667406775
56410.176972681395,114.89952320994668,20.283058931716436,-0.19178456828225782,113.08929264981263
56410.176972681395,796.3527568966356,23.499662343541328,-0.15278776417166545,-796.0051399844226
56410.176972681395,644.4032986687886,17.432892873795076,-0.20406021089456564,644.1664310407731
56410.176972681395,41.83097158720616,12.4222189080014,0.29976110257312705,-39.92687996478971
56410.176972681395,47.348140456150794,30.481546959405893,-0.1670812325131287,-36.21354335864773
56410.176972681395,87.5605066048897,21.192008533084536,0.26906337803747765,84.94937101148663
56410.176972681395,553.4370732263792,28.41275129331727,-0.29913228497268723,552.706022261664
56410.176972681395,17.224001753016758,15.210760826902085,-0.18132776416455793,-7.999565663625035
56410.176972681395,38.623860713076525,33.35226408198287,0.07784024676306844,19.446078704839074
56410.176972681395,598.9343942930641,114.55448035807574,0.1329337339765652,587.8761680531225
56410.176972681395,115.77950845289757,30.42969701625446,-0.0023278006246011257,111.70342452577219
56410.176972681395,861.6137650859345,13.387467556005564,0.06373608419571035,861.5090125905929
56410.176972681395,50.6812713684428,13.251890143690467,0.16937113690232244,48.90477407850162
56410.176972681395,25.24902537962098,4.906743104747065,-0.03394250089780434,24.741926799289384
56410.176972681395,51.67542118106095,37.49569086718571,0.05370028517745012,-35.54077061660115
56410.176972681395,74.54399701599907,34.30149969061242,0.017961126832803233,-66.1735689426233
56410.176972681395,119.37314995798343,33.99654934792946,-0.03656229281768328,114.42425077593356
56410.176972681395,25.872781883209985,16.428949453564908,0.05896756881656044,-19.95529814771496
56410.176972681395,33.59779971479501,15.306178027904892,-0.07346132832407691,29.887365263549114
56410.176972681395,17.709177782735797,17.66710902760931,-0.1092554030685175,0.45082004614831905
56410.176972681395,284.9428982248503,81.56427815197262,-0.35427816837454185,-273.01707859475465
56410.176972681395,47.325820898759204,18.395112367566107,0.20406938781363582,-43.589430594136076
56410.176972681395,30.435785879825975,27.416300476547562,0.25189690533412623,13.166131450101636
56410.176972681395,12.650991437160478,10.576003725323075,0.0868420828190778,-6.849461811537596
56410.176972681395,19.25471007671625,11.943274983741802,-0.029169741956474083,-15.060814421447457
56410.176972681395,127.41284603150449,38.60043159311406,-0.14599899778667355,-121.41970860645249
56410.176972681395,224.26531190786798,21.9508410055386,0.2817766503304538,-223.1854346621038
56410.176972681395,25.452992056071725,25.012007298465235,0.36666172249408824,-4.565828927941735
56410.176972681395,24.054041111130466,14.18495462952325,0.046803774176653386,19.393522229111554
56410.176972681395,121.10241459603913,34.93016753969086,-0.24438616177515227,115.94975390725936
56410.176972681395,922.5345810219928,31.106394117959784,-0.014905319558363677,-922.0093123951317
56410.176972681395,26.733755065551822,25.742065665345425,-0.37727992150448425,7.115076539067708
56410.176972681395,39.621261588662975,18.963898602551012,-0.27966295914226896,34.768716505052474
56410.176972681395,200.19776244191618,21.448493574924292,0.17665925200495186,-199.04221145459326
56410.176972681395,41.04216563718923,4.941933841294702,-0.046396302861460945,-40.727895067040045
56410.176972681395,278.5376208905694,25.879667366466833,0.05183085096112063,-277.33044066790154
56410.176972681395,53.46346193321182,20.010158555902667,-0.3508617723990039,-49.56348607168682
56410.176972681395,82.99279876585508,21.108643173376628,-0.1989381018248103,80.25532501404766
56410.176972681395,31.749605843401195,20.583652286789803,-0.08416449416545753,24.146854561118094
56410.176972681395,78.13744717997209,23.450594986171378,0.15422841901804898,-74.52672942845572
56410.176972681395,27.11852494559304,20.529365197602036,-0.3772346710936024,-17.678919450044557
56410.176972681395,18.852056361412288,18.495111989883537,0.29057819006192886,-3.460255042766673
56410.176972681395,1531.5349457454165,33.50583277446287,-0.10590488748910255,-1531.1679741075995
56410.176972681395,421.4754470538,14.774287637454206,0.4315334792442972,421.2146882671266
56410.176972681395,80.13372293802409,17.622241917756554,0.18619136807497214,78.16368986674391
56410.176972681395,45.53342092491667,28.756649615680942,0.19121550742147816,35.28509458321342
56410.176972681395,191.2524296885606,43.52593389310002,0.3603362130755337,186.22991713855978
56410.176972681395,405.31859223516676,9.20436766167729,-0.2249190349547459,405.21243462902737
56410.176972681395,85.36609778299768,10.262362781226184,-0.37902742965980984,84.73864430211513
56410.176972681395,59.79705515010396,8.587457209015819,0.18598472653352408,-59.16617050392389
56410.176972681395,123.86459815554353,21.05971449038111,0.04978126519511497,-122.05593620448596
56410.176972681395,1056.1304452318602,19.073365861077583,-0.24673549697386365,1055.9575702276495
56410.176972681395,35.54898288266861,9.100848216717596,-0.26843798080135606,34.344717583479955
56410.176972681395,10.309908714660647,5.57104506722677,-0.22975896626452466,8.598361732968954
56410.176972681395,70.3806867552121,20.9370749791139,-0.007823862874815957,-67.18487059860588
56410.176972681395,449.33113632158387,43.90638530757533,-0.2923382303945785,-447.17931624208376
56410.176972681395,166.5621337567013,23.146525579216455,-0.37570941408147296,-164.94171254337726
56410.176972681395,1509.0272380780732,41.44331917823124,-0.02119436896440681,-1508.4576172524496
56410.176972681395,36.46481392092091,15.605562737177133,0.3550006691247705,32.93554280072422
56410.176972681395,22.66486593073165,13.61629614516424,0.15898899247115414,18.08298339753424
56410.176972681395,155.06300371053894,15.34994257377291,0.35027241488747546,-154.29685230445196
56410.176972681395,3.2327586371412007,1.79510956133796,-0.24671505208837433,2.4278346034845746
56410.176972681395,125.50697743233853,15.775590975696957,-0.33886713704682836,124.50600074591776
56410.176972681395,42.226640302535216,13.571316572516944,0.0284611570296425,39.97042214939391
56410.176972681395,323.9714237146452,14.676740696108453,-0.19314848148177102,323.63678143716527
56410.176972681395,489.33703768868475,26.126443433433653,0.4082934516653723,488.6376015443595
56410.176972681395,77.27623613729574,19.350149643786136,-0.16125727355605132,-74.80567702729454
56410.176972681395,24.302714207316978,10.263457712005556,0.39420409797315265,21.99670193177926
56410.176972681395,24.60031402096065,22.430539976268044,-0.20844359142792251,10.036424496906594
56410.176972681395,3001.0234661280147,28.399305941239604,0.15205222215513667,-3000.8888728995435
56410.176972681395,576.8524090457646,23.459887049697628,-0.15181389981865398,-576.3740447080937
56410.176972681395,64.40650413844965,20.667250917382383,-0.06592480833617534,60.99004105494385
56410.176972681395,202.07025729430546,10.483723430894681,-0.123750143395305,201.79492573160337
56410.176972681395,33.86124492306489,27.384363714297745,-0.24149932827396087,19.883388767694605
56410.176972681395,365.3086614229891,22.557940104921123,-0.09312464098145576,-364.6097581192667
56410.176972681395,639.6935403709238,31.617266417182048,0.4399026689302368,638.9105629752443
56410.176972681395,31.497455786246526,28.237626819662964,0.08182065142840055,-13.908500893015251
56410.176972681395,25.80518563874689,9.936126740626296,0.2121582219333877,-23.787873365294047
56410.176972681395,196.94149185306964,28.961927523253937,0.26100428981997625,-194.79686030149756
56410.176972681395,7.268019433451586,6.701740316126499,-0.39169064613214555,2.5464290227625015
56410.176972681395,138.22634515861168,20.774970922390384,0.09109889432272456,136.65153390717182
56410.176972681395,38.136894198922356,30.706254997972174,-0.14736066559286948,-22.588798708287754
56410.176972681395,1018.1160013702585,14.956998850463323,0.1774824373555707,1018.0054891161667
56410.176972681395,593.8293335403507,17.96925634579003,0.13864117522572136,-593.5563081267783
56410.176972681395,110.6919892994246,19.77709721001967,-0.4197048334365445,-108.9042410008543
56410.176972681395,42.05140404865054,19.89399231108495,-0.11298836985025346,-37.03057959481103
56410.176972681395,126.51165535839816,30.054665373955796,-0.008635979688972726,-122.8846731505256
56410.176972681395,34.67645610832751,34.449737450305044,0.09539336992011242,3.7934202315047547
56410.176972681395,21.590356560913577,10.273598025551882,-0.38859350910985196,18.95184988942868
56410.176972681395,162.51709559424614,13.913261029698162,0.1681800306240169,-161.91641727291315
56410.176972681395,204.46342797982726,38.463346486819425,0.020355160485955277,-200.80983761527807
56410.176972681395,308.83551339304216,18.309516830350123,-0.11958771996501874,-308.2902018619312
56410.176972681395,16.63890866768238,15.974023032200234,0.034849814105401715,-4.517697911400138
56410.176972681395,242.92380187811833,36.10324167368417,0.11896694496556233,-240.22331744763426
56410.176972681395,58.39110528432378,15.616654948833878,-0.27004582058073623,-56.252069107712245
56410.176972681395,42.443467718665936,5.749235131622311,-0.04155521610429362,-42.037120021009656
56410.176972681395,27.40685021347293,13.884482483665382,-0.240064588020119,-23.601395994476874
56410.176972681395,20.798202719295226,20.67754248425605,-0.2517524119611866,-1.9152109538526425
56410.176972681395,118.13066904166983,25.078556930926506,0.32130080754462076,-115.43199147288365
56410.176972681395,45.7968128340117,45.64533643531513,-0.09967551474962229,3.545184249394037
56410.176972681395,494.36918768459094,9.725093010856778,-0.03249744056450711,494.2722348876971
56410.176972681395,47.26778870980884,20.93000246072156,-0.21269490033050736,42.365794534018775
56410.176972681395,119.39855817258557,21.235975748952672,0.14823389551267968,-117.48937821566857
56410.176972681395,42.30981635741597,22.001110692212894,0.40092200486553176,36.11977144395123
56410.176972681395,664.9733176778547,22.17654663211399,-0.02501283277024463,664.6024678831963
56410.176972681395,21.230322703748143,21.005752505626145,0.05949313395668738,2.8650241630179467
56410.176972681395,660.229209355191,18.0421725091169,0.43798957209153594,-659.9815330758706
56410.176972681395,39.219098324797365,23.240804143145738,-0.2516922251438013,-31.57002195634121
56410.176972681395,62.070981493589656,22.19298991135541,-0.36771755341746426,-57.95575610138251
56410.176972681395,970.9148540259447,46.7858826743043,0.28742757774974803,-969.7862544267705
56410.176972681395,180.73390925260986,29.25238501090581,0.07580488320426076,178.34731598102067
56410.176972681395,56.26274002585375,14.781518813772832,0.3728055601401309,-54.27329520030284
