8.77719201920192e6,709.5626220703125,2.720674514770508,26.21610450744629,709.0714721679688
8.77719201920192e6,163.78050231933594,13.879179000854492,0.1765870600938797,163.18495178222656
8.77719201920192e6,142.92742919921875,49.65513229370117,11.504911422729492,-133.5222625732422
8.77719201920192e6,32.378700256347656,26.626630783081055,-2.2067041397094727,18.233760833740234
8.77719201920192e6,103.34403228759766,32.883689880371094,6.216705322265625,-97.76472473144531
8.77719201920192e6,39.475677490234375,15.4981689453125,33.47850799560547,13.973626136779785
8.77719201920192e6,129.68199157714844,-11.957674980163574,-37.80580520629883,123.4629135131836
8.77719201920192e6,19.942989349365234,4.937477111816406,7.869126319885254,17.58856964111328
8.77719201920192e6,1117.022705078125,-21.685413360595703,30.793529510498047,-1116.38671875
8.77719201920192e6,210.26107788085938,31.052762985229492,-18.069433212280273,207.1638946533203
8.77719201920192e6,34.954978942871094,-20.497499465942383,20.949016571044922,-18.994171142578125
8.77719201920192e6,97.17860412597656,-16.983442306518555,32.0163688659668,90.1561508178711
8.77719201920192e6,72.16734313964844,19.54469871520996,-22.329864501953125,65.76810455322266
8.77719201920192e6,55.58492660522461,-15.713171005249023,30.148536682128906,43.95205307006836
8.77719201920192e6,147.2989044189453,18.4422550201416,17.580644607543945,145.07139587402344
8.77719201920192e6,108.11213684082031,-5.826405048370361,-14.144881248474121,107.01470184326172
8.77719201920192e6,37.5980339050293,32.9913215637207,15.980663299560547,-8.230437278747559
8.77719201920192e6,138.81051635742188,-38.36246109008789,-20.10080909729004,-131.8733367919922
8.77719201920192e6,288.69622802734375,30.082958221435547,-27.288862228393555,-285.8212585449219
8.77719201920192e6,33.864864349365234,-29.240924835205078,-1.3386356830596924,-16.96885871887207
8.77719201920192e6,298.23974609375,-49.09463119506836,-14.509858131408691,293.8095703125
8.77719201920192e6,16.765405654907227,-10.195734977722168,-9.130509376525879,-9.575823783874512
8.77719201920192e6,86.10795593261719,3.5975594520568848,-35.140380859375,-78.51577758789062
8.77719201920192e6,53.940208435058594,30.045143127441406,-30.889514923095703,-32.413116455078125
8.77719201920192e6,726.1771850585938,31.08492088317871,-12.800973892211914,725.397216796875
8.77719201920192e6,440.6944885253906,49.45009994506836,13.073070526123047,437.71380615234375
8.77719201920192e6,169.69081115722656,-22.028793334960938,-33.56877517700195,164.86593627929688
8.77719201920192e6,48.978458404541016,45.60800552368164,-14.276490211486816,10.62627124786377
8.77719201920192e6,31.62853240966797,-30.024160385131836,7.098153114318848,6.816659450531006
8.77719201920192e6,57.44679260253906,-30.559162139892578,4.367824077606201,48.42654800415039
8.77719201920192e6,1202.36279296875,-16.43023681640625,3.937234878540039,1202.2431640625
8.77719201920192e6,38.448150634765625,5.249921798706055,13.36255168914795,-35.638145446777344
8.77719201920192e6,1237.603271484375,-47.1182746887207,-12.574211120605469,-1236.6412353515625
8.77719201920192e6,33.31083679199219,10.874567031860352,31.295997619628906,3.138972520828247
8.77719201920192e6,58.59156036376953,-40.66000747680664,26.441665649414062,32.840675354003906
8.77719201920192e6,50.48332977294922,-1.741617202758789,38.12712478637695,-33.01200485229492
8.77719201920192e6,67.91337585449219,22.33370590209961,31.856000900268555,-55.64678192138672
8.77719201920192e6,40.90481948852539,31.5672664642334,-22.071012496948242,13.693761825561523
8.77719201920192e6,152.63259887695312,17.206348419189453,-42.01755142211914,-145.7158660888672
8.77719201920192e6,136.62864685058594,-28.225143432617188,15.85177230834961,-132.73049926757812
8.77719201920192e6,525.7319946289062,-26.063220977783203,34.32139205932617,-523.960693359375
8.77719201920192e6,33.28927230834961,-29.955835342407227,14.4426908493042,-0.4112640619277954
8.77719201920192e6,1479.9429931640625,-25.89810562133789,-3.025392532348633,1479.712646484375
8.77719201920192e6,46.57304000854492,27.92014503479004,-16.699739456176758,-33.29518127441406
8.77719201920192e6,163.61239624023438,32.49774169921875,28.357099533081055,-157.8186492919922
8.77719201920192e6,255.29811096191406,-27.334365844726562,-2.362812042236328,-253.8155059814453
8.77719201920192e6,967.1575927734375,25.693941116333008,16.822275161743164,966.6688232421875
8.77719201920192e6,129.8083953857422,-41.50051498413086,-15.224247932434082,-122.04132080078125
8.77719201920192e6,437.798095703125,59.044410705566406,60.640342712402344,-429.5364990234375
8.77719201920192e6,73.89221954345703,-37.908592224121094,-12.988945007324219,62.066280364990234
8.77719201920192e6,197.67434692382812,-24.010173797607422,25.47172737121582,194.5450897216797
8.77719201920192e6,675.9392700195312,-31.69552993774414,-16.338607788085938,-674.9964599609375
8.77719201920192e6,45.37474060058594,-26.871492385864258,4.1306586265563965,36.29964828491211
8.77719201920192e6,39.237586975097656,-14.148660659790039,-9.934087753295898,-35.194522857666016
8.77719201920192e6,105.98419189453125,13.69556999206543,1.1386218070983887,-105.07958984375
8.77719201920192e6,111.24980163574219,-10.080928802490234,48.11814880371094,-99.78713989257812
8.77719201920192e6,130.54086303710938,24.96139144897461,-7.04947566986084,-127.93001556396484
8.77719201920192e6,730.0991821289062,-12.929615020751953,-13.26887321472168,729.8626708984375
8.77719201920192e6,337.5939025878906,-4.93203067779541,31.90099334716797,-336.0440368652344
8.77719201920192e6,86.2989730834961,6.7018141746521,25.99715805053711,82.00415802001953
8.77719201920192e6,364.4354248046875,8.082392692565918,-36.43893814086914,-362.5162048339844
8.77719201920192e6,420.59735107421875,-25.14928436279297,-32.15538024902344,-418.6091613769531
8.77719201920192e6,325.2547302246094,-38.64045333862305,3.3563425540924072,-322.9306945800781
8.77719201920192e6,58.07026290893555,-38.60181427001953,-10.262434959411621,-42.126888275146484
8.77719201920192e6,210.9419403076172,13.860756874084473,-7.393220901489258,210.3512725830078
8.77719201920192e6,24.695758819580078,5.865258693695068,-17.323223114013672,16.532451629638672
8.77719201920192e6,427.41619873046875,-40.65363311767578,-17.58830451965332,425.1123046875
8.77719201920192e6,42.03703308105469,-7.27098274230957,-41.05691146850586,5.148948669433594
8.77719201920192e6,78.43736267089844,-14.547649383544922,32.16266632080078,70.03060150146484
8.77719201920192e6,58.461647033691406,42.516258239746094,-2.0054168701171875,40.05055618286133
8.77719201920192e6,22.319355010986328,14.831343650817871,11.751893997192383,11.747964859008789
8.77719201920192e6,18.964401245117188,11.350716590881348,14.976285934448242,2.1112608909606934
8.77719201920192e6,1240.18798828125,-17.11577796936035,-24.072498321533203,1239.8353271484375
8.77719201920192e6,90.27531433105469,-33.84792709350586,14.339204788208008,-82.43952178955078
8.77719201920192e6,347.9195861816406,-20.716358184814453,84.34986114501953,-336.90045166015625
8.77719201920192e6,41.138832092285156,-10.713140487670898,34.58407974243164,19.48102378845215
8.77719201920192e6,83.46654510498047,25.24834632873535,-27.727128982543945,-74.55419921875
8.77719201920192e6,55.7287712097168,25.574792861938477,26.771011352539062,-41.62782287597656
8.77719201920192e6,27.10796356201172,9.092262268066406,-7.9025797843933105,-24.241668701171875
8.77719201920192e6,25.644437789916992,-7.845275402069092,14.696459770202637,-19.4432430267334
8.77719201920192e6,66.15628814697266,28.450895309448242,-10.379321098327637,-58.799720764160156
8.77719201920192e6,759.8865356445312,-39.736026763916016,-20.395139694213867,-758.5713500976562
8.77719201920192e6,78.9766616821289,-31.964855194091797,-2.138715982437134,-72.1728744506836
8.77719201920192e6,637.4276123046875,29.028430938720703,32.11476516723633,-635.954345703125
8.77719201920192e6,1243.3138427734375,48.52796173095703,31.851722717285156,1241.9571533203125
8.77719201920192e6,63.36459732055664,7.299168109893799,-38.52412414550781,49.75563049316406
8.77719201920192e6,444.1252746582031,-0.7232940793037415,34.40199661254883,-442.7879638671875
8.77719201920192e6,601.9550170898438,13.874443054199219,5.446026802062988,601.7687377929688
8.77719201920192e6,435.8544616699219,32.51066970825195,27.581295013427734,433.76190185546875
8.77719201920192e6,1237.3985595703125,21.502038955688477,-34.1841926574707,1236.7386474609375
8.77719201920192e6,41.395599365234375,24.059921264648438,-30.74434471130371,-13.690796852111816
8.77719201920192e6,95.12422180175781,-14.617246627807617,35.4107666015625,-87.05726623535156
8.77719201920192e6,171.650634765625,-39.855525970458984,-7.38332986831665,166.7899932861328
8.77719201920192e6,29.71635627746582,-17.306703567504883,-15.84896183013916,18.173799514770508
8.77719201920192e6,1621.09521484375,-25.97016143798828,-27.564090728759766,1620.6522216796875
8.77719201920192e6,221.62322998046875,40.97441101074219,-13.890621185302734,-217.3544158935547
8.77719201920192e6,121.35584259033203,73.13349151611328,86.82640075683594,42.87010192871094
8.77719201920192e6,116.94619750976562,25.41584587097168,-7.539058208465576,113.8927001953125
8.77719201920192e6,41.834495544433594,-12.543831825256348,29.04203224182129,27.33632469177246
8.77719201920192e6,39.13912582397461,34.2081413269043,-18.218502044677734,5.26282262802124
8.77719201920192e6,372.39202880859375,-28.358840942382812,31.654048919677734,-369.9561462402344
8.77719201920192e6,81.21559143066406,36.10428237915039,-28.38139533996582,66.96929931640625
8.77719201920192e6,49.31217575073242,32.112449645996094,-15.918008804321289,-33.8383674621582
8.77719201920192e6,42.02057647705078,37.91098403930664,-13.42153263092041,12.094856262207031
8.77719201920192e6,515.8358154296875,-2.760671377182007,44.885311126708984,513.869873046875
8.77719201920192e6,78.28337097167969,-26.998802185058594,9.548483848571777,-72.84307861328125
8.77719201920192e6,78.9144287109375,10.17478084564209,-13.537405967712402,-77.06254577636719
8.77719201920192e6,33.775657653808594,31.264707565307617,2.791412830352783,-12.387818336486816
8.77719201920192e6,99.6990737915039,42.577911376953125,2.557311534881592,-90.10230255126953
8.77719201920192e6,33.70075988769531,-26.014514923095703,20.89267921447754,4.51875114440918
8.77719201920192e6,110.76695251464844,31.375411987304688,17.49160385131836,-104.77062225341797
8.77719201920192e6,2306.381591796875,25.1490421295166,35.217586517333984,2305.97509765625
8.77719201920192e6,89.18302154541016,-17.93343734741211,-28.578798294067383,-82.54206085205078
8.77719201920192e6,197.71609497070312,-23.453533172607422,30.004180908203125,194.0084228515625
8.77719201920192e6,48.14806365966797,-13.925341606140137,40.425010681152344,22.09244155883789
8.77719201920192e6,63.6617546081543,-12.97803783416748,-10.849730491638184,-61.356414794921875
8.77719201920192e6,1643.9974365234375,-1.2495287656784058,-11.338637351989746,-1643.957275390625
8.77719201920192e6,205.9794158935547,-5.157675266265869,34.1088752746582,-203.0651092529297
8.77719201920192e6,167.8686065673828,14.643259048461914,38.05105972290039,162.83580017089844
8.77719201920192e6,171.15969848632812,11.96136474609375,29.422428131103516,-168.18092346191406
8.77719201920192e6,99.0502700805664,0.3298947811126709,-4.110821723937988,-98.9539566040039
8.77719201920192e6,60.3882942199707,10.097772598266602,-21.720613479614258,55.41600036621094
8.77719201920192e6,47.115936279296875,22.305030822753906,21.18706512451172,-35.65728759765625
8.77719201920192e6,968.0713500976562,30.656902313232422,36.36958312988281,-966.9010009765625
8.77719201920192e6,107.49471282958984,-34.06855773925781,-3.2591793537139893,-101.89093017578125
8.77719201920192e6,562.6483154296875,-18.003347396850586,33.5054931640625,561.359375
8.77719201920192e6,812.838134765625,-19.787277221679688,6.593665599822998,-812.5692138671875
8.77719201920192e6,320.5063171386719,12.304123878479004,-37.9879264831543,318.00592041015625
8.77719201920192e6,25.896530151367188,3.387671709060669,-13.139392852783203,-22.010160446166992
8.77719201920192e6,921.8466186523438,-6.161604881286621,31.12541961669922,921.2992553710938
8.77719201920192e6,41.07664108276367,29.38842010498047,-21.673555374145508,18.756465911865234
8.77719201920192e6,243.19366455078125,-14.095779418945312,16.089269638061523,-242.24685668945312
8.77719201920192e6,25.840394973754883,14.948390007019043,-12.33333683013916,17.032241821289062
8.77719201920192e6,101.09101104736328,32.238433837890625,5.991596221923828,-95.61439514160156
8.77719201920192e6,193.5031280517578,40.59852600097656,-4.5180792808532715,189.1368408203125
8.77719201920192e6,864.9746704101562,-43.85947036743164,-7.754991054534912,863.8259887695312
8.77719201920192e6,54.93682098388672,31.457294464111328,13.697431564331055,-42.881351470947266
8.77719201920192e6,74.53067779541016,33.92998504638672,-29.56857681274414,59.39035415649414
8.77719201920192e6,53.733829498291016,1.2638013362884521,-16.548259735107422,-51.086387634277344
8.77719201920192e6,135.55067443847656,-12.269590377807617,7.015782833099365,134.8041534423828
8.77719201920192e6,73.2965087890625,36.071781158447266,-29.02460289001465,56.80417251586914
8.77719201920192e6,851.1641235351562,-18.267803192138672,15.465042114257812,-850.8262939453125
8.77719201920192e6,32.11428451538086,13.779380798339844,19.909286499023438,21.04787826538086
8.77719201920192e6,508.14306640625,-6.508448600769043,32.66396713256836,-507.04833984375
8.77719201920192e6,30.094972610473633,14.220402717590332,3.5405147075653076,-26.24669647216797
8.77719201920192e6,39.2430419921875,-26.699079513549805,-27.39188575744629,-8.648521423339844
8.77719201920192e6,498.2266845703125,21.52347755432129,37.032840728759766,-496.3799743652344
8.77719201920192e6,76.3733901977539,40.397830963134766,40.546287536621094,-50.54547119140625
8.77719201920192e6,108.15667724609375,46.06946563720703,-1.6898659467697144,-97.8292007446289
8.77719201920192e6,119.01717376708984,49.132450103759766,-20.47101593017578,-106.44230651855469
8.77719201920192e6,430.40240478515625,-5.811758041381836,28.235572814941406,-429.4335021972656
8.77719201920192e6,95.26923370361328,-5.047574520111084,-38.714996337890625,-86.88978576660156
8.77719201920192e6,169.92703247070312,-13.912309646606445,-30.802875518798828,166.5255584716797
8.77719201920192e6,258.81524658203125,-14.78284740447998,-16.26251983642578,257.87646484375
8.77719201920192e6,1881.2784423828125,17.21749496459961,-54.90670394897461,-1880.397705078125
8.77719201920192e6,1014.45263671875,21.631824493408203,26.361553192138672,-1013.8782958984375
8.77719201920192e6,276.2214050292969,23.328540802001953,-31.115131378173828,273.4663391113281
8.77719201920192e6,32.77903747558594,23.53710174560547,-16.53249740600586,-15.655143737792969
8.77719201920192e6,42.8928337097168,-0.4126605689525604,-12.02530288696289,41.14552307128906
8.77719201920192e6,75.35252380371094,24.95920753479004,28.673391342163086,65.04470825195312
8.77719201920192e6,502.6772766113281,9.088968276977539,-12.149247169494629,502.4461975097656
8.77719201920192e6,566.3031005859375,-12.674637794494629,34.620094299316406,565.0999755859375
8.77719201920192e6,429.4395446777344,-26.86525535583496,-5.045304775238037,428.5662841796875
8.77719201920192e6,51.4445915222168,-3.539661407470703,-23.627376556396484,-45.53790283203125
8.77719201920192e6,4214.197265625,2.76711106300354,-10.079225540161133,4214.18408203125
8.77719201920192e6,55.556034088134766,-8.404967308044434,17.934457778930664,51.885658264160156
8.77719201920192e6,136.7579803466797,7.825403690338135,49.52454376220703,-127.22721862792969
8.77719201920192e6,40.219905853271484,-8.252718925476074,22.090251922607422,32.549827575683594
8.77719201920192e6,75.02229309082031,-37.00615310668945,17.31209945678711,62.90562438964844
8.77719201920192e6,82.77790069580078,34.6472282409668,-9.018145561218262,-74.62144470214844
8.77719201920192e6,32.189979553222656,-12.194626808166504,29.674856185913086,2.196719169616699
8.77719201920192e6,315.3735046386719,8.024675369262695,-36.91997146606445,-313.098876953125
8.77719201920192e6,544.6687622070312,20.343271255493164,-13.942520141601562,-544.1082153320312
8.77719201920192e6,1105.6094970703125,-35.74713897705078,20.165468215942383,1104.8465576171875
8.77719201920192e6,38.09930419921875,-30.033329010009766,19.853696823120117,-12.382390975952148
8.77719201920192e6,65.1824951171875,-3.69594407081604,-14.262763023376465,63.47919464111328
8.77719201920192e6,32.60649871826172,-2.675650119781494,32.4127082824707,1.8378909826278687
8.77719201920192e6,167.42630004882812,52.23520278930664,-2.8130691051483154,-159.0379638671875
8.77719201920192e6,712.9512329101562,-55.599552154541016,-24.10980987548828,710.3694458007812
8.77719201920192e6,208.98001098632812,9.686542510986328,-29.432588577270508,-206.66513061523438
8.77719201920192e6,26.437639236450195,-2.3741230964660645,-22.631759643554688,-13.381054878234863
8.77719201920192e6,755.5604248046875,-9.061750411987305,-21.765644073486328,755.1911010742188
8.77719201920192e6,30.685035705566406,16.681177139282227,25.569461822509766,-2.7293100357055664
8.77719201920192e6,45.922611236572266,8.637911796569824,-37.61065673828125,-24.85253143310547
8.77719201920192e6,1925.4332275390625,26.4083194732666,34.20499801635742,1924.94775390625
8.77719201920192e6,57.22050857543945,-34.56447982788086,40.57012176513672,-20.7722225189209
8.77719201920192e6,215.8882598876953,44.555667877197266,-25.558013916015625,-209.6837158203125
8.77719201920192e6,46.47433090209961,-35.11952209472656,-14.213525772094727,26.87740707397461
8.77719201920192e6,184.90211486816406,32.553375244140625,-19.324644088745117,-180.97946166992188
8.77719201920192e6,122.48670196533203,-26.013811111450195,20.02003288269043,117.99748992919922
8.77719201920192e6,6.2709221839904785,0.18732357025146484,1.926087737083435,5.789332866668701
8.77719201920192e6,259.10565185546875,-24.837087631225586,-16.862638473510742,257.35662841796875
8.77719201920192e6,131.7665557861328,4.6503682136535645,-9.241096496582031,-131.3519744873047
8.77719201920192e6,1588.0423583984375,12.6220703125,-28.017742156982422,1587.744384765625
8.77719201920192e6,231.3428192138672,31.97649574279785,-197.87283325195312,-115.50448608398438
8.77719201920192e6,1228.1190185546875,43.687503814697266,14.826003074645996,-1227.2513427734375
8.77719201920192e6,193.24783325195312,33.29020690917969,17.513442993164062,189.54603576660156
8.77719201920192e6,84.93112182617188,23.903356552124023,3.281230926513672,-81.41925811767578
8.77719201920192e6,57.074806213378906,-35.59343719482422,1.081491470336914,-44.58035659790039
8.77719201920192e6,1585.9254150390625,22.003084182739258,27.308706283569336,-1585.5369873046875
8.77719201920192e6,651.312255859375,5.013399124145508,-35.109092712402344,650.3443603515625
8.77719201920192e6,96.0831298828125,25.746471405029297,-10.126559257507324,92.00259399414062
8.77719201920192e6,42.9039421081543,-39.68575668334961,-3.110494375228882,-15.93896484375
8.77719201920192e6,1275.69140625,-28.099693298339844,-4.415030002593994,1275.3734130859375
8.77719201920192e6,543.4310302734375,-26.516437530517578,-8.880111694335938,542.7091674804688
8.77719201920192e6,1971.461181640625,-1.7513483762741089,31.292062759399414,1971.2115478515625
8.77719201920192e6,29.6713809967041,12.143336296081543,0.8028401136398315,-27.022628784179688
8.77719201920192e6,98.5001220703125,-4.417305946350098,14.37347412109375,97.33499908447266
8.77719201920192e6,1028.095458984375,33.34609603881836,-24.842851638793945,1027.253173828125
8.77719201920192e6,231.86166381835938,-36.969486236572266,16.176698684692383,-228.31851196289062
8.77719201920192e6,369.1050720214844,-15.226421356201172,38.35927963256836,-366.7877197265625
8.77719201920192e6,463.392333984375,16.695877075195312,-39.87531280517578,-461.3692626953125
8.77719201920192e6,153.01234436035156,-30.12726593017578,4.176252365112305,-149.95205688476562
8.77719201920192e6,15.468045234680176,-0.889708936214447,-15.29652214050293,-1.5562936067581177
8.77719201920192e6,1136.685546875,-6.695693016052246,27.6524600982666,1136.3284912109375
8.77719201920192e6,2591.46240234375,1.2809932231903076,-42.241329193115234,-2591.117431640625
8.77719201920192e6,1750.6820068359375,-29.627531051635742,2.706399440765381,-1750.4285888671875
8.77719201920192e6,239.5424346923828,-25.551559448242188,-10.087394714355469,237.9577178955078
8.77719201920192e6,43.64584732055664,-33.77922058105469,-12.996740341186523,24.35047721862793
8.77719201920192e6,44.12814712524414,-20.498754501342773,-24.22868537902832,-30.626821517944336
8.77719201920192e6,33.49789810180664,11.796013832092285,20.475759506225586,-23.69901466369629
8.77719201920192e6,37.77497863769531,24.69687271118164,-14.569023132324219,-24.54982566833496
8.77719201920192e6,135.87820434570312,-26.683046340942383,0.47234100103378296,133.2239227294922
8.77719201920192e6,65.49918365478516,20.521272659301758,-59.71809005737305,17.340890884399414
8.77719201920192e6,207.56417846679688,-3.065692186355591,38.0421257019043,-204.02015686035156
8.77719201920192e6,43.1983528137207,25.08262825012207,4.360620498657227,34.86948776245117
8.77719201920192e6,262.9528503417969,18.893125534057617,-15.28170108795166,-261.8236999511719
8.77719201920192e6,50.31370544433594,-13.6154146194458,-16.466772079467773,45.52880096435547
8.77719201920192e6,648.63427734375,30.76634407043457,-16.351511001586914,647.6962890625
8.77719201920192e6,230.5181884765625,-14.025151252746582,20.979827880859375,-229.12815856933594
8.77719201920192e6,417.2972412109375,23.864744186401367,17.983652114868164,416.2234802246094
8.77719201920192e6,1665.5511474609375,-19.4619083404541,-26.421663284301758,1665.2271728515625
8.77719201920192e6,47.77899169921875,37.32232666015625,26.715038299560547,-13.195429801940918
8.77719201920192e6,73.82758331298828,33.917396545410156,50.028236389160156,-42.37020492553711
8.77719201920192e6,251.22315979003906,-4.0940752029418945,44.333946228027344,247.24229431152344
8.77719201920192e6,121.25553131103516,-16.40679168701172,-2.084394693374634,-120.1137466430664
8.77719201920192e6,930.7987060546875,-32.808406829833984,-19.12798309326172,-930.0225219726562
8.77719201920192e6,48.55751037597656,29.053979873657227,-30.588226318359375,23.99990463256836
8.77719201920192e6,1551.15283203125,-4.653016090393066,-8.881329536437988,1551.1197509765625
8.77719201920192e6,1577.589599609375,6.47361421585083,-29.393617630004883,-1577.3018798828125
8.77719201920192e6,714.2105712890625,-35.857601165771484,-9.9011812210083,713.2396850585938
8.77719201920192e6,251.7873992919922,-30.773658752441406,-28.067779541015625,-248.31434631347656
8.77719201920192e6,122.59127044677734,-17.646377563476562,2.71382212638855,-121.27571105957031
8.77719201920192e6,101.4677963256836,-20.00075912475586,-9.188846588134766,-99.04132843017578
8.77719201920192e6,38.90060806274414,-2.0355188846588135,-24.134994506835938,30.406461715698242
8.77719201920192e6,443.8131408691406,-61.29887390136719,-7.586596488952637,-439.4916687011719
8.77719201920192e6,35.157833099365234,-2.7455968856811523,-18.225799560546875,29.904714584350586
8.77719201920192e6,741.8833618164062,-33.560855865478516,7.954566478729248,-741.0797729492188
8.77719201920192e6,40.591732025146484,-0.44180211424827576,2.3487021923065186,-40.495853424072266
8.77719201920192e6,274.0062561035156,40.229862213134766,24.518753051757812,-269.9217529296875
8.77719201920192e6,40.76156234741211,18.328601837158203,-20.08092498779297,30.335798263549805
8.77719201920192e6,47.43226623535156,-14.476998329162598,-40.322357177734375,20.304697036743164
8.77719201920192e6,70.28889465332031,67.53463745117188,16.32971954345703,-10.529850959777832
8.77719201920192e6,119.52281188964844,21.99147605895996,72.2491683959961,92.62866973876953
8.77719201920192e6,49.6963996887207,-45.046180725097656,20.91069221496582,-1.119769811630249
8.77719201920192e6,112.1668701171875,2.221781015396118,24.178768157958984,109.4979248046875
8.77719201920192e6,37.169803619384766,-14.01909351348877,28.295774459838867,19.553653717041016
8.77719201920192e6,3192.33740234375,20.793743133544922,28.49026870727539,3192.14208984375
8.77719201920192e6,1695.1629638671875,-28.92003631591797,-13.533146858215332,-1694.8616943359375
8.77719201920192e6,40.18418884277344,20.789457321166992,-33.162940979003906,-8.984630584716797
8.77719201920192e6,770.5396728515625,-22.13779640197754,32.84929275512695,769.5194091796875
8.77719201920192e6,733.0358276367188,20.5549373626709,-19.814964294433594,732.4781494140625
8.77719201920192e6,105.04798889160156,-15.162175178527832,28.985679626464844,-99.81460571289062
8.77719201920192e6,108.81004333496094,2.2284812927246094,22.940515518188477,106.33122253417969
8.77719201920192e6,555.898193359375,25.834537506103516,31.875879287719727,554.3800659179688
8.77719201920192e6,42.70146179199219,0.4547816514968872,-27.47829818725586,32.651004791259766
8.77719201920192e6,94.7140121459961,-9.215180397033691,26.87226104736328,-90.34181213378906
8.77719201920192e6,403.234375,-26.66180992126465,-66.32054138183594,396.8458557128906
8.77719201920192e6,275.1818542480469,-25.902742385864258,-26.704469680786133,272.651611328125
8.77719201920192e6,600.7142944335938,-25.456974029541016,-19.055025100708008,599.8703002929688
8.77719201920192e6,54.150543212890625,49.672298431396484,-20.238630294799805,7.299232006072998
8.77719201920192e6,504.04168701171875,35.868900299072266,25.157995223999023,502.1319274902344
8.77719201920192e6,523.8035888671875,-23.32448959350586,-26.931873321533203,-522.5885009765625
8.77719201920192e6,2546.4619140625,1.3049424886703491,-31.57343292236328,2546.265625
8.77719201920192e6,177.33511352539062,-9.171075820922852,-31.562801361083984,-174.256591796875
8.77719201920192e6,274.3936767578125,-20.271814346313477,10.645038604736328,-273.43292236328125
8.77719201920192e6,716.0650634765625,-15.022520065307617,-23.612960815429688,-715.5165405273438
8.77719201920192e6,406.8092346191406,-30.762216567993164,-22.608463287353516,-405.0113830566406
8.77719201920192e6,170.42996215820312,23.71170425415039,-30.85491371154785,-165.92178344726562
8.77719201920192e6,633.937255859375,6.925714492797852,-44.84821319580078,-632.309326171875
8.77719201920192e6,1019.5929565429688,43.369354248046875,30.780214309692383,-1018.2039794921875
8.77719201920192e6,122.28105926513672,-11.194552421569824,-38.09722900390625,-115.6454849243164
8.77719201920192e6,155.43292236328125,21.036890029907227,26.474023818969727,151.70333862304688
8.77719201920192e6,649.3197631835938,-1.200499415397644,39.9062614440918,648.089599609375
8.77719201920192e6,1266.3966064453125,-29.670204162597656,-19.056058883666992,1265.90478515625
8.77719201920192e6,183.79881286621094,10.506704330444336,-28.271343231201172,-181.3016357421875
8.77719201920192e6,963.1788940429688,-17.220684051513672,17.880905151367188,-962.8578491210938
8.77719201920192e6,876.89111328125,-16.63776206970215,26.385717391967773,876.3349609375
8.77719201920192e6,39.132965087890625,-20.7149715423584,17.93992042541504,-27.89937400817871
8.77719201920192e6,51.933433532714844,17.846115112304688,-46.876773834228516,13.38293170928955
8.77719201920192e6,135.67474365234375,17.87094497680664,33.91048812866211,130.13946533203125
8.77719201920192e6,129.91921997070312,7.650449752807617,-10.296568870544434,-129.2764129638672
8.77719201920192e6,39.6456298828125,16.711585998535156,-10.807765007019043,34.25825500488281
8.77719201920192e6,596.5859375,-25.634109497070312,32.39380645751953,595.1522827148438
8.77719201920192e6,57.573768615722656,26.660619735717773,-12.739461898803711,-49.39223861694336
8.77719201920192e6,75.3965835571289,19.21592140197754,-6.039521217346191,72.64195251464844
8.77719201920192e6,187.47413635253906,-13.544264793395996,34.958885192871094,183.6815643310547
8.77719201920192e6,50.29104232788086,-25.240324020385742,10.971014022827148,42.06766891479492
8.77719201920192e6,3209.777587890625,41.81074142456055,-7.433775901794434,3209.496337890625
8.77719201920192e6,547.8948364257812,23.47870445251465,58.39989471435547,-544.2655029296875
8.77719201920192e6,299.171142578125,-21.544294357299805,26.076351165771484,-297.2493591308594
8.77719201920192e6,205.23580932617188,-49.14552688598633,-17.228891372680664,-198.51336669921875
8.77719201920192e6,61.620121002197266,32.26841735839844,18.63084602355957,-49.057281494140625
8.77719201920192e6,452.8998718261719,31.388334274291992,55.682003021240234,448.3642578125
8.77719201920192e6,1039.043212890625,11.618169784545898,66.43396759033203,-1036.85107421875
8.77719201920192e6,830.9166870117188,-0.01890060491859913,-50.79336166381836,829.3615112304688
8.77719201920192e6,348.8525390625,-35.827884674072266,4.966874599456787,-346.9693298339844
8.77719201920192e6,43.59560012817383,-41.786190032958984,-7.9929280281066895,9.409602165222168
8.77719201920192e6,35.390357971191406,-15.434563636779785,-23.596620559692383,21.339820861816406
8.77719201920192e6,38.62412643432617,8.010000228881836,36.802574157714844,-8.436257362365723
8.77719201920192e6,362.7386779785156,-45.423648834228516,-12.166450500488281,-359.6748046875
8.77719201920192e6,1796.7979736328125,-17.576358795166016,14.226897239685059,-1796.6551513671875
8.77719201920192e6,77.97913360595703,-11.517926216125488,27.729747772216797,-71.95193481445312
8.77719201920192e6,69.33765411376953,10.626913070678711,36.80448532104492,-57.77669143676758
8.77719201920192e6,93.50485229492188,-22.94520378112793,11.056143760681152,89.9576187133789
8.77719201920192e6,338.83343505859375,-9.744141578674316,21.373659133911133,-338.0151672363281
8.77719201920192e6,2544.546142578125,7.035496234893799,-7.311185836791992,2544.525390625
8.77719201920192e6,890.2575073242188,-34.832279205322266,-25.622583389282227,889.20556640625
8.77719201920192e6,1462.997314453125,14.323705673217773,12.04446029663086,-1462.8768310546875
8.77719201920192e6,25.790916442871094,1.3955178260803223,-7.771104335784912,-24.510622024536133
8.77719201920192e6,38.59506607055664,10.277715682983398,-23.01141929626465,-29.195188522338867
8.77719201920192e6,26.256771087646484,-11.672614097595215,15.750393867492676,17.40775489807129
8.77719201920192e6,788.4759521484375,-13.168374061584473,31.849885940551758,-787.7210693359375
8.77719201920192e6,431.9924621582031,38.940032958984375,-22.456329345703125,-429.6449890136719
8.77719201920192e6,80.37744903564453,-26.335872650146484,19.265932083129883,-73.44193267822266
8.77719201920192e6,147.02264404296875,36.38296127319336,12.618191719055176,141.88255310058594
8.77719201920192e6,359.0754089355469,-22.000394821166992,30.032426834106445,357.1374206542969
8.77719201920192e6,2515.71728515625,-15.212483406066895,27.644678115844727,-2515.51904296875
8.77719201920192e6,610.7901000976562,42.55417251586914,10.526954650878906,-609.2132568359375
8.77719201920192e6,27.906145095825195,-11.482357025146484,8.658163070678711,-23.872190475463867
8.77719201920192e6,36.51296615600586,-33.589839935302734,1.9846807718276978,-14.103799819946289
8.77719201920192e6,482.851318359375,-37.4393424987793,-0.27146512269973755,-481.39544677734375
8.77719201920192e6,2271.708251953125,-12.181315422058105,-10.68008804321289,2271.64990234375
8.77719201920192e6,51.66451644897461,-24.096227645874023,-31.440502166748047,33.136470794677734
8.77719201920192e6,153.082763671875,25.69245719909668,-7.237888813018799,150.73081970214844
8.77719201920192e6,16.582380294799805,-9.315362930297852,2.824188232421875,-13.347662925720215
8.77719201920192e6,30.389686584472656,-13.059432983398438,19.836606979370117,18.905820846557617
8.77719201920192e6,129.9568634033203,-5.209628582000732,21.61866569519043,-128.03208923339844
8.77719201920192e6,290.8659362792969,16.151138305664062,34.944297790527344,-288.3035888671875
8.77719201920192e6,41.454708099365234,-5.727312088012695,-15.033174514770508,38.17893600463867
8.77719201920192e6,53.952354431152344,33.17163848876953,37.587890625,-19.88935661315918
8.77719201920192e6,1257.3673095703125,-41.03693389892578,-4.222616195678711,1256.6895751953125
8.77719201920192e6,1122.9761962890625,10.004719734191895,9.465431213378906,1122.890869140625
8.77719201920192e6,102.83773803710938,-34.78300094604492,2.8279104232788086,-96.72478485107422
8.77719201920192e6,45.9263801574707,-31.700796127319336,33.056312561035156,-3.0836658477783203
8.77719201920192e6,57.896812438964844,29.9595947265625,9.84000015258789,48.534263610839844
8.77719201920192e6,33.92425537109375,-15.8859224319458,29.460777282714844,5.337792873382568
8.77719201920192e6,52.6512565612793,3.8561813831329346,-16.810901641845703,49.725399017333984
8.77719201920192e6,393.0024719238281,-1.5071405172348022,5.1242899894714355,-392.96356201171875
8.77719201920192e6,396.8489990234375,27.052274703979492,34.349090576171875,394.4304504394531
8.77719201920192e6,14.975215911865234,9.21043872833252,3.969691038131714,-11.027386665344238
8.77719201920192e6,17.510944366455078,-17.45160484313965,0.09488310664892197,-0.04971965029835701
8.77719201920192e6,127.2823715209961,31.29075813293457,-23.92909049987793,121.02490234375
8.77719201920192e6,529.2709350585938,20.33568000793457,-34.54669189453125,527.7486572265625
8.77719201920192e6,26.877164840698242,-11.018345832824707,-2.5338170528411865,24.34121322631836
8.77719201920192e6,584.3232421875,29.86137580871582,-3.778846502304077,-583.5457153320312
8.77719201920192e6,39.15523910522461,7.337143421173096,23.362546920776367,-30.51929473876953
8.77719201920192e6,71.51398468017578,27.544477462768555,-45.514434814453125,47.769493103027344
8.77719201920192e6,370.2939147949219,-105.02047729492188,-91.6009292602539,343.0677795410156
8.77719201920192e6,879.196533203125,32.85433578491211,19.743745803833008,878.3594360351562
8.77719201920192e6,152.94146728515625,-36.14824295043945,-29.14122200012207,-145.7158966064453
8.77719201920192e6,286.1199035644531,13.51754379272461,10.483668327331543,-285.6044616699219
8.77719201920192e6,40.821800231933594,26.81067657470703,27.163320541381836,-14.411725997924805
8.77719201920192e6,83.29566192626953,31.09764289855957,36.792503356933594,67.93638610839844
8.77719201920192e6,73.03437805175781,19.190420150756836,-0.4017418622970581,70.45227813720703
8.77719201920192e6,186.45790100097656,-17.149751663208008,24.061992645263672,184.0961456298828
8.77719201920192e6,115.65947723388672,4.126685619354248,-5.786731719970703,115.43195343017578
8.77719201920192e6,20.344301223754883,-2.5405545234680176,-12.990456581115723,-15.382491111755371
8.77719201920192e6,899.5191040039062,-1.7063332796096802,-38.206016540527344,898.70458984375
8.77719201920192e6,29.623559951782227,-3.6054797172546387,-20.071256637573242,21.439151763916016
8.77719201920192e6,341.875244140625,37.407936096191406,-19.463525772094727,-339.2616271972656
8.77719201920192e6,54.368736267089844,41.2003288269043,-1.5923060178756714,-35.410362243652344
8.77719201920192e6,531.0889282226562,-24.05488395690918,19.78788185119629,530.1727905273438
8.77719201920192e6,268.1901550292969,-35.32112121582031,-20.146892547607422,-265.0856628417969
8.77719201920192e6,24.168760299682617,8.838395118713379,13.877511978149414,-17.645488739013672
8.77719201920192e6,430.8284606933594,-29.11969566345215,-32.262672424316406,428.62835693359375
8.77719201920192e6,485.08251953125,-1.8910884857177734,-16.70919418334961,484.7888488769531
8.77719201920192e6,795.9090576171875,31.42928123474121,-22.627538681030273,-794.9650268554688
8.77719201920192e6,108.00639343261719,-6.985565662384033,-97.0836410522461,46.78980255126953
8.77719201920192e6,20.448699951171875,2.1127352714538574,11.071415901184082,17.001358032226562
8.77719201920192e6,774.0111083984375,-2.0822441577911377,30.766592025756836,-773.395263671875
8.77719201920192e6,38.57777404785156,-10.952025413513184,-3.8291280269622803,-36.763736724853516
8.77719201920192e6,126.86782836914062,4.262967109680176,-19.161792755126953,-125.33169555664062
8.77719201920192e6,198.5850830078125,30.813322067260742,6.567020893096924,196.0647430419922
8.77719201920192e6,65.17157745361328,4.7036237716674805,-39.74441909790039,-51.415252685546875
8.77719201920192e6,69.85755157470703,24.61429786682129,14.759997367858887,63.67333221435547
8.77719201920192e6,227.4877166748047,26.415769577026367,35.16371536254883,-223.19122314453125
8.77719201920192e6,191.5805206298828,-11.629615783691406,9.25695514678955,-190.99761962890625
8.77719201920192e6,48.683433532714844,-48.345340728759766,5.535466194152832,0.3162649869918823
8.77719201920192e6,32.75480651855469,-27.767263412475586,17.305418014526367,0.5619382858276367
8.77719201920192e6,78.63104248046875,24.566089630126953,42.19986343383789,-61.61539077758789
8.77719201920192e6,288.49383544921875,-25.947744369506836,21.7492618560791,286.49664306640625
8.77719201920192e6,47.42941665649414,11.181666374206543,46.06951904296875,0.23686330020427704
8.77719201920192e6,539.076171875,46.13785934448242,67.81817626953125,532.7974243164062
8.77719201920192e6,988.6592407226562,-2.672499418258667,-25.116722106933594,988.3355102539062
8.77719201920192e6,53.37491989135742,30.767078399658203,-28.714271545410156,-32.79780960083008
8.77719201920192e6,56.27376937866211,27.278642654418945,-22.29037094116211,-43.85987854003906
8.77719201920192e6,421.4856262207031,10.217015266418457,14.3356351852417,-421.1153869628906
8.77719201920192e6,49.7948112487793,-28.46947479248047,39.55913162231445,-10.100690841674805
8.77719201920192e6,54.60295867919922,-34.21683120727539,4.677325248718262,-42.26997756958008
8.77719201920192e6,41.099212646484375,11.635276794433594,38.938289642333984,5.959183692932129
8.77719201920192e6,115.06098937988281,-19.92517852783203,34.51852798461914,107.9278793334961
8.77719201920192e6,234.009765625,35.56654739379883,-26.35312271118164,229.78041076660156
8.77719201920192e6,68.2906723022461,-48.811431884765625,14.7942476272583,45.38862609863281
8.77719201920192e6,965.0403442382812,12.03342056274414,-1.0052059888839722,-964.9637451171875
8.77719201920192e6,39.080543518066406,6.637188911437988,36.698123931884766,-11.594016075134277
8.77719201920192e6,202.45301818847656,-18.41680908203125,-35.92938232421875,198.381103515625
8.77719201920192e6,661.9359130859375,-28.52182960510254,12.535861015319824,-661.2007446289062
8.77719201920192e6,9.914694786071777,-1.266459345817566,9.711481094360352,-0.566752552986145
8.77719201920192e6,334.63623046875,-8.812345504760742,-25.085613250732422,333.5751953125
8.77719201920192e6,62.658512115478516,-1.2065540552139282,-31.79583740234375,-53.959197998046875
8.77719201920192e6,106.26837921142578,18.030725479125977,-34.32817459106445,98.93115997314453
8.77719201920192e6,40.788612365722656,34.092864990234375,12.672414779663086,-18.40473747253418
8.77719201920192e6,50.857791900634766,-17.119171142578125,27.062679290771484,-39.48413848876953
8.77719201920192e6,809.613525390625,-30.218799591064453,-9.193717002868652,808.995849609375
8.77719201920192e6,51.65298843383789,-39.38663864135742,12.966165542602539,30.76587677001953
8.77719201920192e6,11.098228454589844,-5.999241352081299,-5.237990379333496,-7.594738006591797
8.77719201920192e6,36.81764602661133,-21.255014419555664,29.77752113342285,-3.8729047775268555
8.77719201920192e6,146.2974395751953,12.494236946105957,-16.545312881469727,144.81375122070312
8.77719201920192e6,42.173912048339844,19.27045249938965,19.72295379638672,31.878368377685547
8.77719201920192e6,163.3268280029297,6.40502405166626,-31.55365753173828,-160.11537170410156
8.77719201920192e6,94.67359161376953,12.946423530578613,30.596160888671875,-88.641357421875
8.77719201920192e6,24.036462783813477,17.4688777923584,-14.60124397277832,-7.571680545806885
8.77719201920192e6,477.9440002441406,-5.346961498260498,-26.363292694091797,-477.1842041015625
8.77719201920192e6,367.43487548828125,-35.85847473144531,-9.185562133789062,-365.562744140625
8.77719201920192e6,27.140052795410156,-21.234031677246094,0.7963025569915771,-16.8226375579834
8.77719201920192e6,126.38726043701172,8.966644287109375,-35.05900573730469,-121.08732604980469
8.77719201920192e6,65.56224060058594,10.382184028625488,-12.490498542785645,63.502296447753906
8.77719201920192e6,35.19380569458008,-28.833436965942383,2.5288779735565186,-19.969440460205078
8.77719201920192e6,144.1818084716797,-7.971673488616943,-5.915517330169678,143.83250427246094
8.77719201920192e6,445.3748474121094,1.8026750087738037,30.355653762817383,444.33319091796875
8.77719201920192e6,46.10933303833008,-33.44792556762695,8.013667106628418,-30.67612648010254
8.77719201920192e6,27.65667724609375,-26.706478118896484,2.325124502182007,-6.647292613983154
8.77719201920192e6,301.5732421875,13.914155960083008,34.71413040161133,299.2418518066406
8.77719201920192e6,52.02915573120117,-20.865482330322266,-25.505136489868164,-40.237911224365234
8.77719201920192e6,61.405113220214844,-2.35908842086792,-35.229766845703125,50.21775436401367
8.77719201920192e6,85.32316589355469,39.216148376464844,0.01271454431116581,-75.76327514648438
8.77719201920192e6,185.34542846679688,28.1873722076416,-19.45242691040039,182.14813232421875
8.77719201920192e6,1045.3770751953125,-49.26890182495117,10.468539237976074,1044.1619873046875
8.77719201920192e6,357.3545837402344,19.568607330322266,26.646347045898438,-355.81915283203125
8.77719201920192e6,225.7454071044922,-15.056069374084473,-22.36669158935547,-224.12490844726562
8.77719201920192e6,247.96070861816406,24.23574447631836,30.961322784423828,244.81927490234375
8.77719201920192e6,355.9936218261719,4.419980525970459,-27.83179473876953,354.8735656738281
8.77719201920192e6,115.91423797607422,-13.196283340454102,43.42637252807617,-106.64921569824219
8.77719201920192e6,223.16473388671875,-3.712038993835449,-40.90946578979492,-219.346923828125
8.77719201920192e6,41.88317108154297,8.135984420776367,30.48972511291504,-27.501258850097656
8.77719201920192e6,64.71846008300781,-39.298038482666016,-8.105571746826172,-50.758052825927734
8.77719201920192e6,176.79281616210938,-67.66694641113281,-13.477278709411621,162.76727294921875
8.77719201920192e6,33.55790328979492,22.119752883911133,13.552005767822266,-21.239809036254883
8.77719201920192e6,73.54057312011719,24.966838836669922,-46.96665954589844,-50.76359939575195
8.77719201920192e6,146.09437561035156,15.386079788208008,21.95088768005371,-143.60687255859375
8.77719201920192e6,69.78958129882812,-25.749465942382812,-10.72521686553955,63.95668411254883
8.77719201920192e6,42.12943649291992,-26.626365661621094,-22.393409729003906,-23.714935302734375
8.77719201920192e6,260.6074523925781,83.5059814453125,-59.205379486083984,-239.65736389160156
8.77719201920192e6,594.4678344726562,-21.302248001098633,-6.185822010040283,594.0521240234375
8.77719201920192e6,33.740779876708984,24.313257217407227,-18.227985382080078,14.593939781188965
8.77719201920192e6,227.0811309814453,14.464987754821777,-27.913089752197266,224.88975524902344
8.77719201920192e6,236.46600341796875,41.59638595581055,-1.6766091585159302,232.76820373535156
8.77719201920192e6,450.4012451171875,44.863155364990234,-16.396705627441406,447.8589782714844
8.77719201920192e6,1901.677001953125,-28.874177932739258,-24.344106674194336,-1901.3013916015625
8.77719201920192e6,128.2563018798828,-34.60826873779297,2.5077476501464844,123.46495819091797
8.77719201920192e6,250.59664916992188,-45.34321594238281,8.986393928527832,-246.29222106933594
8.77719201920192e6,1998.1307373046875,-43.25311279296875,-30.286666870117188,-1997.432373046875
8.77719201920192e6,48.72177505493164,39.878177642822266,-16.821033477783203,22.327831268310547
8.77719201920192e6,2068.7509765625,6.764313697814941,33.094085693359375,-2068.474853515625
8.77719201920192e6,332.22955322265625,-21.03194808959961,32.64271926879883,-329.94927978515625
8.77719201920192e6,24.72723960876465,6.987776279449463,6.058122158050537,22.887622833251953
8.77719201920192e6,73.69955444335938,35.619110107421875,13.37688159942627,-63.102291107177734
8.77719201920192e6,225.47628784179688,19.227327346801758,-28.88804817199707,222.7852783203125
8.77719201920192e6,185.60687255859375,6.381275653839111,-0.21061216294765472,185.49147033691406
8.77719201920192e6,47.43584060668945,6.626354217529297,45.310218811035156,-12.295174598693848
8.77719201920192e6,31.664993286132812,15.262308120727539,26.521617889404297,8.017128944396973
8.77719201920192e6,215.611328125,-14.288232803344727,34.83460998535156,-212.29360961914062
8.77719201920192e6,159.9191436767578,17.000953674316406,-13.910499572753906,-158.39675903320312
8.77719201920192e6,144.50531005859375,-27.625539779663086,12.145464897155762,141.3118438720703
8.77719201920192e6,71.76738739013672,-12.289566993713379,6.2975850105285645,-70.41165924072266
8.77719201920192e6,138.3738250732422,31.09143829345703,49.89323043823242,-125.2566909790039
8.77719201920192e6,1551.1806640625,16.884780883789062,69.47738647460938,-1549.53125
8.77719201920192e6,552.6177978515625,-2.992525100708008,37.875885009765625,-551.3082885742188
8.77719201920192e6,35.53898620605469,-19.948976516723633,-1.9994635581970215,29.308645248413086
8.77719201920192e6,29.50497817993164,24.600799560546875,-5.4118876457214355,-15.296817779541016
8.77719201920192e6,35.99124526977539,-29.224380493164062,20.827320098876953,-2.3377013206481934
8.77719201920192e6,80.94377899169922,23.099769592285156,-53.788516998291016,55.884056091308594
8.77719201920192e6,281.18084716796875,85.24391174316406,57.64029312133789,261.6709289550781
8.77719201920192e6,1076.3436279296875,-6.166967868804932,6.464127540588379,1076.3055419921875
8.77719201920192e6,746.4794921875,-20.3739070892334,32.228363037109375,-745.5037231445312
8.77719201920192e6,781.359375,-24.182018280029297,-26.117918014526367,-780.5469360351562
8.77719201920192e6,60.28960418701172,-36.21019744873047,-6.318487167358398,47.766841888427734
8.77719201920192e6,1087.5897216796875,3.05747652053833,-24.09978675842285,-1087.3175048828125
8.77719201920192e6,228.84840393066406,-29.669588088989258,18.391677856445312,226.1658477783203
8.77719201920192e6,43.75944137573242,-16.475400924682617,-28.25644302368164,-29.03377342224121
8.77719201920192e6,36.18800735473633,20.3793888092041,-7.063584804534912,-29.02231788635254
8.77719201920192e6,763.8396606445312,-13.86294937133789,20.05253028869629,763.44921875
8.77719201920192e6,49.37710189819336,-10.933165550231934,-32.26934051513672,-35.709808349609375
8.77719201920192e6,132.47727966308594,7.630987644195557,-2.7089157104492188,-132.22177124023438
8.77719201920192e6,91.91329956054688,34.88002395629883,4.207328796386719,-84.92157745361328
8.77719201920192e6,7.422640800476074,-1.9582030773162842,-0.2590290606021881,7.00933313369751
8.77719201920192e6,37.80160140991211,-25.008886337280273,-26.207815170288086,10.705320358276367
8.77719201920192e6,1049.718505859375,-7.632819175720215,22.338424682617188,-1049.4520263671875
8.77719201920192e6,60.70317077636719,20.10234260559082,-31.113798141479492,-48.06910705566406
8.77719201920192e6,31.861919403076172,-27.005826950073242,4.371796131134033,16.269338607788086
8.77719201920192e6,35.90525817871094,-8.021592140197754,-15.622936248779297,31.28421974182129
8.77719201920192e6,79.94232177734375,-33.76961135864258,-13.904529571533203,-71.09844207763672
8.77719201920192e6,502.7784423828125,-4.115201473236084,37.22589111328125,501.3794860839844
8.77719201920192e6,2871.96923828125,-37.833038330078125,-5.602052211761475,-2871.71435546875
8.77719201920192e6,43.968421936035156,25.59349822998047,-3.454089403152466,-35.55560302734375
8.77719201920192e6,1939.8514404296875,-19.943777084350586,8.52334976196289,-1939.729736328125
8.77719201920192e6,46.40034866333008,3.9654502868652344,14.42075252532959,-43.900413513183594
8.77719201920192e6,351.3751220703125,13.981917381286621,-13.027077674865723,350.85211181640625
8.77719201920192e6,43.150177001953125,-13.547158241271973,-40.89329147338867,-2.021784543991089
8.77719201920192e6,34.77390670776367,-14.006871223449707,-27.94554901123047,-15.166257858276367
8.77719201920192e6,35.230953216552734,-6.683155536651611,22.815223693847656,-25.960697174072266
8.77719201920192e6,1052.925048828125,30.32805061340332,-26.394466400146484,1052.15625
8.77719201920192e6,140.7247772216797,-20.05742645263672,-64.50096893310547,-123.44523620605469
8.77719201920192e6,39.82895278930664,33.38679122924805,20.909812927246094,5.690725326538086
8.77719201920192e6,73.27498626708984,60.824012756347656,-13.430241584777832,38.56459426879883
8.77719201920192e6,254.4269256591797,-25.57535171508789,-19.39301300048828,252.3901824951172
8.77719201920192e6,269.2372131347656,12.170245170593262,37.57370376586914,-266.3206787109375
8.77719201920192e6,87.35179138183594,-19.53102684020996,10.927130699157715,84.42398071289062
8.77719201920192e6,79.69010162353516,29.32195472717285,5.417149543762207,73.88726043701172
8.77719201920192e6,80.05158233642578,-33.39933395385742,23.950716018676758,-68.68070983886719
8.77719201920192e6,34.46437454223633,-5.403428077697754,33.38636779785156,6.471734046936035
8.77719201920192e6,30.339601516723633,-29.297700881958008,0.41105327010154724,7.739769458770752
8.77719201920192e6,67.81188201904297,-3.793879985809326,-26.34393310546875,-62.353763580322266
8.77719201920192e6,442.9757385253906,4.180243968963623,35.96139144897461,441.4914855957031
8.77719201920192e6,101.4994125366211,11.467845916748047,48.33207321166992,88.50179290771484
8.77719201920192e6,1130.903076171875,25.110450744628906,26.698623657226562,-1130.30810546875
8.77719201920192e6,110.45726776123047,5.650766372680664,-32.37286376953125,-105.4457778930664
8.77719201920192e6,233.2855987548828,22.979251861572266,-10.862236976623535,-231.89236450195312
8.77719201920192e6,40.67692947387695,-2.7234227657318115,14.886998176574707,37.729427337646484
8.77719201920192e6,425.78466796875,-37.479339599609375,2.2756667137145996,-424.12335205078125
8.77719201920192e6,38.107421875,-11.819421768188477,-12.26310920715332,34.05921173095703
8.77719201920192e6,137.0813446044922,-44.58531188964844,-1.028452754020691,129.61607360839844
8.77719201920192e6,2039.0072021484375,18.028650283813477,27.153823852539062,2038.74609375
8.77719201920192e6,276.12127685546875,38.9238395690918,-30.672780990600586,-271.63397216796875
8.77719201920192e6,98.53860473632812,28.201990127563477,-18.01101303100586,-92.67169952392578
8.77719201920192e6,114.21585845947266,-27.61419677734375,-46.36213302612305,100.65390014648438
8.77719201920192e6,157.26780700683594,55.20358657836914,-11.834939956665039,-146.7773895263672
8.77719201920192e6,128.723388671875,13.288999557495117,8.868476867675781,-127.72000122070312
8.77719201920192e6,106.05486297607422,11.032774925231934,-23.55568504333496,-102.80553436279297
8.77719201920192e6,23.59125518798828,-11.936410903930664,-16.489065170288086,11.8371000289917
8.77719201920192e6,471.9512023925781,9.548742294311523,9.11345100402832,-471.7643737792969
8.77719201920192e6,76.69740295410156,-24.495607376098633,7.18019437789917,72.31070709228516
8.77719201920192e6,40.970420837402344,-28.841413497924805,-24.955575942993164,-14.89645004272461
8.77719201920192e6,686.496337890625,12.568339347839355,-14.970807075500488,-686.2164916992188
8.77719201920192e6,912.7757568359375,-2.9414916038513184,-20.3558292388916,912.5429077148438
8.77719201920192e6,122.69264221191406,34.77561950683594,4.064713478088379,-117.58212280273438
8.77719201920192e6,314.0850524902344,49.261837005615234,-51.03493881225586,305.9674377441406
8.77719201920192e6,43.683311462402344,-0.9732201099395752,-40.552978515625,-16.1455078125
8.77719201920192e6,49.408321380615234,-30.786060333251953,15.42884349822998,-35.40181350708008
8.77719201920192e6,309.6568298339844,5.255195617675781,26.227638244628906,308.4960021972656
8.77719201920192e6,572.612060546875,21.425460815429688,-0.5348951816558838,572.208984375
8.77719201920192e6,149.4362335205078,-1.3611961603164673,-19.717117309570312,-148.1165313720703
8.77719201920192e6,124.53382873535156,-18.214384078979492,-31.147228240966797,-119.18346405029297
8.77719201920192e6,21.192712783813477,-12.317668914794922,6.108129501342773,-16.06342887878418
8.77719201920192e6,46.49034881591797,19.106143951416016,-26.181360244750977,33.298362731933594
8.77719201920192e6,68.21913146972656,26.618680953979492,-30.128292083740234,55.095542907714844
8.77719201920192e6,103.04566192626953,-4.725761413574219,30.147626876831055,98.41307067871094
8.77719201920192e6,616.0839233398438,-27.61597442626953,28.666467666625977,-614.7950439453125
8.77719201920192e6,1194.0926513671875,-27.609676361083984,-9.483942031860352,1193.73486328125
8.77719201920192e6,30.195837020874023,-9.24831771850586,26.664209365844727,10.640205383300781
8.77719201920192e6,687.3177490234375,-31.780765533447266,-52.556522369384766,-684.5665893554688
8.77719201920192e6,364.3727111816406,9.515604972839355,-9.597832679748535,364.119140625
8.77719201920192e6,42.20260238647461,-9.730823516845703,-38.40337371826172,-14.473713874816895
8.77719201920192e6,38.456275939941406,24.9314022064209,25.02903938293457,15.125945091247559
8.77719201920192e6,519.1520385742188,-27.079790115356445,24.073665618896484,-517.8840942382812
8.77719201920192e6,330.4512939453125,25.664472579956055,-8.704050064086914,-329.33502197265625
8.77719201920192e6,81.82254028320312,20.444761276245117,40.93650817871094,67.81651306152344
8.77719201920192e6,60.18224334716797,-1.7625269889831543,-15.105979919433594,-58.211185455322266
8.77719201920192e6,247.98696899414062,32.829288482666016,75.96614837646484,-233.76666259765625
8.77719201920192e6,686.193115234375,2.2829842567443848,-11.904786109924316,686.0845336914062
8.77719201920192e6,224.00784301757812,2.4921679496765137,42.26668930053711,219.9653778076172
8.77719201920192e6,23.217130661010742,-16.024797439575195,-9.760638236999512,13.5980806350708
8.77719201920192e6,21.535511016845703,-2.6428446769714355,-18.04913902282715,11.356014251708984
8.77719201920192e6,38.38978576660156,-2.9357426166534424,-13.827095031738281,35.66378402709961
8.77719201920192e6,902.4746704101562,-13.910806655883789,-33.76968002319336,-901.7341918945312
8.77719201920192e6,36.924888610839844,-26.4510498046875,25.687097549438477,-1.3780958652496338
8.77719201920192e6,120.16249084472656,-20.909242630004883,29.422666549682617,-114.60397338867188
8.77719201920192e6,129.6570281982422,-45.097164154052734,-3.9236395359039307,-121.48963165283203
8.77719201920192e6,127.99327087402344,35.173831939697266,-23.945711135864258,-120.70468139648438
8.77719201920192e6,14.03300666809082,-10.896634101867676,-5.605350494384766,-6.686217308044434
8.77719201920192e6,863.181884765625,-15.370473861694336,-20.329648971557617,862.8043823242188
8.77719201920192e6,465.26947021484375,15.881003379821777,-16.42070770263672,464.70611572265625
8.77719201920192e6,211.42469787597656,-4.222926616668701,-3.4619133472442627,-211.3492889404297
8.77719201920192e6,312.0343933105469,8.085314750671387,24.310989379882812,310.9775085449219
8.77719201920192e6,494.1805725097656,38.231170654296875,15.178049087524414,492.46356201171875
8.77719201920192e6,427.3697204589844,-42.47990417480469,10.841703414916992,-425.11260986328125
8.77719201920192e6,293.5045471191406,-18.951536178588867,19.15581512451172,292.26141357421875
8.77719201920192e6,84.60484313964844,-27.4298038482666,29.10631561279297,-74.5408935546875
8.77719201920192e6,41.61763381958008,-31.826261520385742,15.363752365112305,-21.931909561157227
8.77719201920192e6,104.44882202148438,-25.86087417602539,-31.2300968170166,-96.24650573730469
8.77719201920192e6,35.95629119873047,6.404406547546387,-21.653345108032227,-27.94472885131836
8.77719201920192e6,36.0267333984375,22.82723617553711,27.342802047729492,5.210625648498535
8.77719201920192e6,287.7714538574219,-10.458765983581543,14.34353256225586,287.2198181152344
8.77719201920192e6,23.53265380859375,16.080095291137695,-3.75710129737854,16.704408645629883
8.77719201920192e6,182.91043090820312,42.20036697387695,2.090320110321045,-177.9576416015625
8.77719201920192e6,43.059532165527344,24.2133731842041,-0.39757055044174194,-35.575477600097656
8.77719201920192e6,146.02902221679688,18.641572952270508,-1.9300791025161743,-144.8142852783203
8.77719201920192e6,39.36336135864258,6.815718650817871,-38.548954010009766,3.8645968437194824
8.77719201920192e6,1796.9246826171875,7.263664245605469,-32.56155014038086,1796.6143798828125
8.77719201920192e6,255.55982971191406,42.08223342895508,-9.154742240905762,-251.90086364746094
8.77719201920192e6,208.43975830078125,29.791597366333008,-24.324892044067383,204.8556365966797
8.77719201920192e6,581.5217895507812,-19.07093620300293,-68.70800018310547,-577.1317749023438
8.77719201920192e6,117.94920349121094,-3.535001039505005,40.730037689208984,-110.62783813476562
8.77719201920192e6,38.45814895629883,-0.022179633378982544,31.10767364501953,22.567195892333984
8.77719201920192e6,29.262046813964844,0.478691965341568,27.211639404296875,-10.653717041015625
8.77719201920192e6,337.7946472167969,50.643402099609375,30.056838989257812,-332.6183776855469
8.77719201920192e6,97.87391662597656,11.729181289672852,22.634532928466797,-94.48462677001953
8.77719201920192e6,337.67791748046875,-30.94645118713379,-21.605175018310547,-335.5589904785156
8.77719201920192e6,730.5352172851562,-15.45845890045166,-2.183317184448242,-730.366943359375
8.77719201920192e6,23.107440948486328,-10.567777633666992,20.449350357055664,1.427162766456604
8.77719201920192e6,65.87553405761719,7.466915130615234,-46.2209587097168,-46.3183708190918
8.77719201920192e6,28.895469665527344,-4.946080207824707,-19.84486961364746,-20.361787796020508
8.77719201920192e6,446.04705810546875,-17.643131256103516,31.02645492553711,444.61444091796875
8.77719201920192e6,115.87919616699219,24.99464988708496,12.346576690673828,112.46668243408203
8.77719201920192e6,208.43031311035156,-29.396991729736328,15.6307373046875,205.7489471435547
8.77719201920192e6,394.8337707519531,-33.77981948852539,8.099613189697266,-393.3000793457031
8.77719201920192e6,151.00851440429688,30.926725387573242,-6.134838581085205,-147.67330932617188
8.77719201920192e6,514.9627075195312,21.76186752319336,16.978271484375,514.220458984375
8.77719201920192e6,219.4208526611328,6.637770175933838,45.46441650390625,-214.5515594482422
8.77719201920192e6,164.616455078125,40.85558319091797,1.482990026473999,-159.45262145996094
8.77719201920192e6,61.4908447265625,14.202499389648438,22.08744239807129,55.583221435546875
8.77719201920192e6,31.431577682495117,11.96104621887207,26.745019912719727,11.29239273071289
8.77719201920192e6,372.26983642578125,2.1327505111694336,-39.133853912353516,-370.1982727050781
8.77719201920192e6,91.40838623046875,-22.118240356445312,-16.708389282226562,87.09215545654297
8.77719201920192e6,34.213134765625,29.097230911254883,12.03000259399414,-13.308104515075684
8.77719201920192e6,29.217235565185547,-19.335237503051758,21.8439998626709,0.756263017654419
8.77719201920192e6,233.81240844726562,19.467723846435547,-17.188127517700195,-232.36126708984375
8.77719201920192e6,123.93930053710938,10.585628509521484,51.665653228759766,112.1494140625
8.77719201920192e6,72.8360595703125,-1.5264818668365479,-15.58568286895752,71.11810302734375
8.77719201920192e6,32.20750427246094,28.447669982910156,-3.5170769691467285,-14.615762710571289
8.77719201920192e6,320.8779602050781,-2.3650660514831543,-8.692498207092285,-320.7482604980469
8.77719201920192e6,1862.0838623046875,-22.99489974975586,5.899214267730713,-1861.9320068359375
8.77719201920192e6,1561.9359130859375,125.19136047363281,-43.63387680053711,1556.2984619140625
8.77719201920192e6,14.000433921813965,-2.705264091491699,-7.831827640533447,-11.193434715270996
8.77719201920192e6,36.933616638183594,22.313119888305664,15.608222961425781,-24.910579681396484
8.77719201920192e6,255.2038116455078,34.32122802734375,-2.2641923427581787,-252.87120056152344
8.77719201920192e6,346.9891662597656,30.464387893676758,4.04342794418335,-345.6225891113281
8.77719201920192e6,177.61949157714844,17.74955940246582,-23.343904495239258,175.17601013183594
8.77719201920192e6,45.347251892089844,-12.31299877166748,18.280698776245117,39.604496002197266
8.77719201920192e6,759.9331665039062,-22.330894470214844,-38.426143646240234,-758.631103515625
8.77719201920192e6,102.65145111083984,-9.845236778259277,32.52941131591797,96.85125732421875
8.77719201920192e6,58.33998107910156,33.828094482421875,34.85981750488281,32.279144287109375
8.77719201920192e6,354.0506591796875,12.962986946105957,18.854930877685547,353.3076171875
8.77719201920192e6,65.90577697753906,-21.393871307373047,37.408935546875,49.84357833862305
8.77719201920192e6,717.2855834960938,37.62777328491211,-13.281137466430664,-716.17333984375
8.77719201920192e6,111.44751739501953,37.49180221557617,9.445418357849121,104.51618957519531
8.77719201920192e6,123.32073974609375,-41.366127014160156,-11.093942642211914,-115.6361083984375
8.77719201920192e6,45.922359466552734,-34.20709991455078,-24.76972198486328,17.975961685180664
8.77719201920192e6,666.8673706054688,1.7174909114837646,27.528139114379883,-666.295166015625
8.77719201920192e6,32.40306091308594,17.222076416015625,5.568909645080566,26.838077545166016
8.77719201920192e6,468.6226501464844,-10.320596694946289,37.10451126098633,-467.0351867675781
8.77719201920192e6,293.82342529296875,-25.040868759155273,-0.38244789838790894,292.75067138671875
8.77719201920192e6,49.70435333251953,18.64427375793457,33.87092971801758,-31.202733993530273
8.77719201920192e6,194.8328857421875,40.633941650390625,1.0866529941558838,-190.5399932861328
8.77719201920192e6,169.14137268066406,-16.326793670654297,5.157148838043213,168.26638793945312
8.77719201920192e6,36.89889144897461,-0.46016061305999756,-14.332956314086914,-33.96792221069336
8.77719201920192e6,280.10595703125,-31.49166488647461,14.697463989257812,-277.9380187988281
8.77719201920192e6,48.026554107666016,17.781814575195312,40.432533264160156,-18.80170440673828
8.77719201920192e6,1139.6529541015625,-16.733999252319336,-9.327396392822266,1139.490966796875
8.77719201920192e6,62.356056213378906,-0.5890036225318909,3.379127264022827,62.24507141113281
8.77719201920192e6,232.56240844726562,49.528316497802734,15.879748344421387,226.66712951660156
8.77719201920192e6,62.502464294433594,-11.047529220581055,12.069779396057129,-60.30561447143555
8.77719201920192e6,26.641551971435547,12.37824535369873,-22.703556060791016,-6.247934818267822
8.77719201920192e6,7.57085657119751,-6.507876873016357,-2.683962821960449,2.3871665000915527
8.77719201920192e6,56.82210922241211,33.33377456665039,8.141824722290039,45.26874542236328
8.77719201920192e6,438.5151062011719,-1.2281185388565063,40.57293701171875,-436.6300048828125
8.77719201920192e6,216.13319396972656,11.547750473022461,17.62110137939453,-215.09913635253906
8.77719201920192e6,696.3672485351562,16.625667572021484,38.69377136230469,-695.0911254882812
8.77719201920192e6,618.1529541015625,-20.185850143432617,-42.92975616455078,616.3283081054688
8.77719201920192e6,33.10688018798828,2.198996067047119,14.907754898071289,-29.443601608276367
8.77719201920192e6,16.57935333251953,0.38445213437080383,-15.107375144958496,-6.665670394897461
8.77719201920192e6,32.52724075317383,0.7123126983642578,25.583614349365234,-20.02322769165039
8.77719201920192e6,44.75876998901367,-5.994215965270996,-41.69805908203125,-15.054091453552246
8.77719201920192e6,945.0259399414062,-38.16184616088867,3.1578354835510254,944.248779296875
8.77719201920192e6,768.6103515625,4.436677932739258,-40.011993408203125,767.5540161132812
8.77719201920192e6,114.06050109863281,-22.37431526184082,-10.491281509399414,111.34207916259766
8.77719201920192e6,146.975830078125,19.648286819458008,31.613727569580078,-142.1771697998047
8.77719201920192e6,39.50843811035156,-18.81782341003418,-19.207962036132812,-28.910160064697266
8.77719201920192e6,294.4139404296875,-18.41498374938965,7.388562202453613,-293.7410583496094
8.77719201920192e6,269.7670593261719,-33.08296585083008,-0.6585246324539185,267.7261657714844
8.77719201920192e6,49.775108337402344,29.81903839111328,-1.198178768157959,39.810646057128906
8.77719201920192e6,259.490478515625,20.41000747680664,-23.512357711791992,-257.61181640625
8.77719201920192e6,60.3404655456543,-19.78541374206543,-24.139822006225586,51.620880126953125
8.77719201920192e6,1282.82666015625,21.97617530822754,-9.942168235778809,1282.59912109375
8.77719201920192e6,339.62872314453125,18.080156326293945,-53.91895294189453,-334.83050537109375
8.77719201920192e6,43.925559997558594,31.57868003845215,-21.35757827758789,-21.772287368774414
8.77719201920192e6,71.23566436767578,-14.585114479064941,34.938209533691406,-60.324562072753906
8.77719201920192e6,16.815732955932617,-12.989461898803711,1.6212891340255737,10.45710277557373
8.77719201920192e6,170.2817840576172,-28.939226150512695,-1.5686558485031128,-167.7911834716797
8.77719201920192e6,1937.5643310546875,14.616107940673828,4.966820240020752,1937.5023193359375
8.77719201920192e6,43.54684066772461,-13.990865707397461,-37.74574661254883,16.54624366760254
8.77719201920192e6,70.59403228759766,21.649921417236328,9.554363250732422,-66.49398040771484
8.77719201920192e6,2436.76171875,-33.428226470947266,-1.8050858974456787,2436.53125
8.77719201920192e6,234.78524780273438,3.2616665363311768,-6.169156551361084,-234.6771240234375
8.77719201920192e6,1816.84423828125,27.305484771728516,-24.003835678100586,-1816.4798583984375
8.77719201920192e6,139.51036071777344,10.953837394714355,32.53083801269531,-135.2140350341797
8.77719201920192e6,37.528316497802734,2.450514316558838,33.302459716796875,-17.06612205505371
8.77719201920192e6,400.64630126953125,5.684837818145752,-2.579801559448242,-400.5950927734375
8.77719201920192e6,73.91107177734375,7.285618305206299,-39.760902404785156,-61.860923767089844
8.77719201920192e6,80.4326171875,-16.77716064453125,-33.760169982910156,71.03604888916016
8.77719201920192e6,153.2985076904297,33.23666000366211,68.82276916503906,132.88009643554688
8.77719201920192e6,206.6540985107422,-2.3535900115966797,-21.602375030517578,205.50341796875
8.77719201920192e6,155.49395751953125,0.9771261215209961,-37.86620330810547,150.80287170410156
8.77719201920192e6,32.08256530761719,11.546586036682129,11.496952056884766,27.599353790283203
8.77719201920192e6,22.992692947387695,11.910289764404297,19.612524032592773,-0.3076389729976654
8.77719201920192e6,347.91632080078125,-62.20309829711914,12.736823081970215,342.0705261230469
8.77719201920192e6,1497.4827880859375,-24.158348083496094,35.56146240234375,1496.8648681640625
8.77719201920192e6,164.65988159179688,-34.56831359863281,7.503432273864746,-160.80902099609375
8.77719201920192e6,81.58314514160156,10.550177574157715,25.185386657714844,-76.8644027709961
8.77719201920192e6,45.22904968261719,-27.32416534423828,-17.532466888427734,31.458011627197266
8.77719201920192e6,463.6153564453125,-0.7562106847763062,26.15557098388672,462.8741149902344
8.77719201920192e6,520.6393432617188,-27.684003829956055,36.4134635925293,-518.6240844726562
8.77719201920192e6,56.18357849121094,-41.05859375,27.230504989624023,-26.967071533203125
8.77719201920192e6,332.2486267089844,35.18505096435547,16.295146942138672,329.9751281738281
8.77719201920192e6,61.02175521850586,-16.24767303466797,3.1945464611053467,58.71455764770508
8.77719201920192e6,101.0859603881836,26.272785186767578,28.960527420043945,-93.20588684082031
8.77719201920192e6,201.30064392089844,32.10980987548828,22.52712059020996,-197.43701171875
8.77719201920192e6,31.20172882080078,9.682612419128418,29.33530044555664,4.143898963928223
8.77719201920192e6,183.2857208251953,-41.790489196777344,5.131046772003174,178.3782958984375
8.77719201920192e6,194.51434326171875,-28.09627342224121,42.37013626098633,187.74754333496094
8.77719201920192e6,102.36672973632812,-26.885271072387695,23.200246810913086,-95.99903869628906
8.77719201920192e6,450.16082763671875,-35.910247802734375,-4.954811096191406,448.6965637207031
8.77719201920192e6,65.68335723876953,18.303686141967773,9.12533950805664,62.40147018432617
8.77719201920192e6,169.47225952148438,3.860300302505493,-24.048147201538086,167.706787109375
8.77719201920192e6,200.46910095214844,-33.30760192871094,-26.436927795410156,-195.9017333984375
8.77719201920192e6,126.12662506103516,-19.390640258789062,-17.194231033325195,-123.427001953125
8.77719201920192e6,11.006482124328613,-3.5029568672180176,-0.7118125557899475,-10.31028938293457
8.77719201920192e6,74.72765350341797,7.888642311096191,-33.97709274291992,-66.07182312011719
8.77719201920192e6,53.817352294921875,-21.559539794921875,-6.7537455558776855,48.8243522644043
8.77719201920192e6,189.7955322265625,30.46143913269043,0.979893684387207,187.32705688476562
8.77719201920192e6,170.54791259765625,-32.51119613647461,15.511374473571777,-166.69418334960938
8.77719201920192e6,729.3419799804688,35.14619064331055,-6.737561225891113,-728.4620971679688
8.77719201920192e6,207.3604278564453,15.563217163085938,-30.269657135009766,-204.54295349121094
8.77719201920192e6,78.63463592529297,19.27853012084961,-3.2551252841949463,-76.15171813964844
8.77719201920192e6,260.6659240722656,-35.77073669433594,-21.403064727783203,-257.3072509765625
8.77719201920192e6,769.4105834960938,24.296566009521484,29.090497970581055,-768.4751586914062
8.77719201920192e6,1340.297119140625,35.19892120361328,29.517759323120117,-1339.5089111328125
8.77719201920192e6,115.1329116821289,8.361682891845703,-16.548715591430664,113.6210708618164
8.77719201920192e6,567.7642211914062,-23.10677719116211,-18.278615951538086,566.9974365234375
8.77719201920192e6,1027.4024658203125,102.64775085449219,82.54135131835938,-1018.9230346679688
8.77719201920192e6,80.85356140136719,33.72486877441406,-9.127903938293457,-72.90096282958984
8.77719201920192e6,28.61760139465332,-5.813924789428711,14.208117485046387,-24.108745574951172
8.77719201920192e6,163.24368286132812,14.603328704833984,-42.12480545043945,-157.03082275390625
8.77719201920192e6,33.44729232788086,-30.81595230102539,12.83163070678711,-1.5441886186599731
8.77719201920192e6,29.695554733276367,13.86961841583252,14.712535858154297,21.701099395751953
8.77719201920192e6,21.534814834594727,13.329256057739258,16.784378051757812,1.5167899131774902
8.77719201920192e6,125.89799499511719,-23.440988540649414,3.8377208709716797,123.62860870361328
8.77719201920192e6,550.7197875976562,2.9989471435546875,4.208230972290039,-550.6936645507812
8.77719201920192e6,281.0653991699219,-33.02906036376953,-32.35569381713867,-277.2325439453125
8.77719201920192e6,195.04563903808594,21.115615844726562,-27.08112907409668,-191.9934539794922
8.77719201920192e6,19.070363998413086,6.291804313659668,3.809997797012329,-17.536041259765625
8.77719201920192e6,112.56497192382812,86.47979736328125,0.605595052242279,-72.03948974609375
8.77719201920192e6,1059.399658203125,28.999807357788086,-2.8853158950805664,1058.9976806640625
8.77719201920192e6,116.54896545410156,-12.149870872497559,-9.240945816040039,-115.53607177734375
8.77719201920192e6,371.2251892089844,-42.0324592590332,7.417001247406006,-368.76055908203125
8.77719201920192e6,995.315673828125,3.916766881942749,28.361480712890625,994.9027709960938
8.77719201920192e6,28.404010772705078,16.307266235351562,9.118644714355469,21.345914840698242
8.77719201920192e6,304.5472106933594,20.105993270874023,27.204837799072266,302.6591796875
8.77719201920192e6,839.1652221679688,2.7507405281066895,-41.937591552734375,838.1109008789062
8.77719201920192e6,125.6866455078125,14.443629264831543,31.58749771118164,120.78361511230469
8.77719201920192e6,264.38616943359375,42.18895721435547,-20.906518936157227,260.15570068359375
8.77719201920192e6,1606.1187744140625,22.605966567993164,-8.485363960266113,-1605.9366455078125
8.77719201920192e6,15.312535285949707,-4.903872966766357,14.353370666503906,-1.5307973623275757
8.77719201920192e6,44.11252975463867,-22.799333572387695,-13.73432445526123,-35.14841079711914
8.77719201920192e6,47.78551483154297,13.812908172607422,32.627906799316406,32.03147888183594
8.77719201920192e6,325.6617736816406,-18.382545471191406,5.534211158752441,325.09228515625
8.77719201920192e6,735.7473754882812,-40.779136657714844,15.958792686462402,734.441650390625
8.77719201920192e6,49.70720672607422,35.96579360961914,8.416574478149414,33.23200225830078
8.77719201920192e6,1197.724609375,-3.663834571838379,22.11618423461914,1197.513916015625
8.77719201920192e6,24.236034393310547,17.97134017944336,0.5084177851676941,16.18933868408203
8.77719201920192e6,228.16204833984375,-36.252933502197266,20.56812286376953,-224.31793212890625
8.77719201920192e6,33.4718017578125,-14.308716773986816,-27.339128494262695,12.889180183410645
8.77719201920192e6,66.06429290771484,16.977149963378906,23.683395385742188,-59.273101806640625
8.77719201920192e6,842.45654296875,6.7375078201293945,29.924776077270508,841.8966674804688
8.77719201920192e6,48.529518127441406,18.840181350708008,27.710752487182617,35.07438659667969
8.77719201920192e6,36.28351593017578,-10.36086654663086,20.520610809326172,-28.03546714782715
8.77719201920192e6,24.907865524291992,14.854667663574219,-16.9158935546875,-10.560774803161621
8.77719201920192e6,232.76370239257812,24.33075523376465,-5.069120407104492,-231.42860412597656
8.77719201920192e6,114.96371459960938,-18.45077133178711,-10.035421371459961,-113.01969146728516
8.77719201920192e6,157.0607452392578,-39.338600158691406,5.8703932762146,-151.9342803955078
8.77719201920192e6,1447.9334716796875,-26.40666961669922,-34.86903762817383,-1447.27197265625
8.77719201920192e6,56.350013732910156,39.723758697509766,31.089054107666016,25.074975967407227
8.77719201920192e6,24.549015045166016,0.39463210105895996,17.647449493408203,-17.00008201599121
8.77719201920192e6,354.744140625,38.247802734375,16.32329559326172,-352.29534912109375
8.77719201920192e6,719.3170776367188,18.476041793823242,-4.401547431945801,719.0648803710938
8.77719201920192e6,46.57920837402344,14.19349193572998,20.12821388244629,39.50897979736328
8.77719201920192e6,1065.607666015625,-32.25299072265625,8.071106910705566,-1065.087890625
8.77719201920192e6,170.00010681152344,-31.085647583007812,-16.293352127075195,-166.33154296875
8.77719201920192e6,33.783260345458984,-4.02597188949585,32.972469329833984,5.987752914428711
8.77719201920192e6,69.55082702636719,-40.24643325805664,-21.08963394165039,52.63750076293945
8.77719201920192e6,544.044921875,-61.98942565917969,-20.14949607849121,540.1242065429688
8.77719201920192e6,11.50856876373291,-8.75047779083252,3.4485294818878174,6.4746246337890625
8.77719201920192e6,39.08029556274414,9.943521499633789,-16.612714767456055,33.91681671142578
8.77719201920192e6,449.99908447265625,-11.385581970214844,28.47795867919922,-448.950439453125
8.77719201920192e6,31.434158325195312,-5.256046295166016,14.964493751525879,27.10131072998047
8.77719201920192e6,32.889793395996094,7.765679836273193,-11.424680709838867,29.81352424621582
8.77719201920192e6,130.56610107421875,-48.86545181274414,-21.04511833190918,119.22547149658203
8.77719201920192e6,1086.353515625,-15.198713302612305,25.04981231689453,-1085.9573974609375
8.77719201920192e6,103.5866470336914,12.950018882751465,-41.614967346191406,-93.96074676513672
8.77719201920192e6,92.84020233154297,-26.437179565429688,-28.876169204711914,-84.16936492919922
8.77719201920192e6,42.50263977050781,-40.44399642944336,-10.27081298828125,-7.950138568878174
8.77719201920192e6,48.62236404418945,-6.459322929382324,-32.074058532714844,-35.938880920410156
8.77719201920192e6,66.01528930664062,-14.553326606750488,44.93058395385742,-46.102046966552734
8.77719201920192e6,113.61664581298828,20.24574851989746,-6.035680294036865,-111.6259765625
8.77719201920192e6,47.30408477783203,-17.842830657958984,9.370155334472656,42.77203369140625
8.77719201920192e6,1416.9857177734375,19.75067138671875,-50.23736572265625,-1415.9564208984375
8.77719201920192e6,791.0595092773438,-30.126779556274414,29.73556900024414,-789.9248046875
8.77719201920192e6,798.22998046875,-4.2079033851623535,9.375077247619629,-798.1625366210938
8.77719201920192e6,333.8023681640625,55.701698303222656,40.4825553894043,-326.6197204589844
8.77719201920192e6,133.0360870361328,25.746097564697266,-14.12824821472168,-129.7461700439453
8.77719201920192e6,71.57317352294922,43.711185455322266,7.373292922973633,56.1749267578125
8.77719201920192e6,20.558570861816406,8.525496482849121,-13.835592269897461,-12.509353637695312
8.77719201920192e6,405.2537536621094,-22.389482498168945,-23.04861831665039,403.97528076171875
8.77719201920192e6,463.16619873046875,31.994646072387695,-27.788501739501953,461.22119140625
8.77719201920192e6,2091.669921875,43.453529357910156,38.877174377441406,2090.856689453125
8.77719201920192e6,1386.079833984375,44.853458404541016,-8.00436019897461,1385.3299560546875
8.77719201920192e6,109.17948913574219,43.7796630859375,-9.674652099609375,-99.53813171386719
8.77719201920192e6,381.619873046875,27.368389129638672,22.37224578857422,379.9764709472656
8.77719201920192e6,120.09761047363281,-2.6913726329803467,-7.370560646057129,-119.83240509033203
8.77719201920192e6,32.68709182739258,31.78260612487793,3.6412932872772217,-6.556645393371582
8.77719201920192e6,34.59492874145508,-15.90025806427002,-29.522254943847656,8.388337135314941
8.77719201920192e6,246.04359436035156,-16.441551208496094,-42.39888000488281,-241.80032348632812
8.77719201920192e6,131.2111053466797,-21.021194458007812,12.335247039794922,128.91952514648438
8.77719201920192e6,71.25006103515625,26.318876266479492,-12.563758850097656,-64.99212646484375
8.77719201920192e6,371.64630126953125,33.782405853271484,-17.415943145751953,369.6949157714844
8.77719201920192e6,300.8541259765625,-50.41301727294922,13.57606029510498,-296.28594970703125
8.77719201920192e6,639.7977905273438,-24.58734893798828,-55.60184097290039,-636.901123046875
8.77719201920192e6,175.279052734375,17.832983016967773,18.366064071655273,-173.39364624023438
8.77719201920192e6,81.34716796875,0.7013002634048462,-38.18055725097656,71.81261444091797
8.77719201920192e6,163.60531616210938,-43.845638275146484,-5.296741485595703,157.52503967285156
8.77719201920192e6,14.430306434631348,1.936801552772522,5.64518928527832,-13.059525489807129
8.77719201920192e6,496.1159973144531,24.72774887084961,-6.801962852478027,495.4505920410156
8.77719201920192e6,48.38898468017578,-20.661197662353516,40.707489013671875,-15.982675552368164
8.77719201920192e6,434.38909912109375,-7.122260093688965,39.860416412353516,432.495361328125
8.77719201920192e6,54.192291259765625,28.277379989624023,-3.492530584335327,46.07529830932617
8.77719201920192e6,143.83700561523438,32.81211471557617,24.28588104248047,137.91513061523438
8.77719201920192e6,184.89271545410156,6.217151641845703,-33.91754913330078,181.64305114746094
8.77719201920192e6,343.6126708984375,5.055039882659912,-28.415863037109375,342.3953857421875
8.77719201920192e6,311.9490051269531,-15.435019493103027,-16.531583786010742,-311.12469482421875
8.77719201920192e6,43.49248504638672,-12.077579498291016,40.088897705078125,11.685262680053711
8.77719201920192e6,34.77842712402344,25.27274513244629,-23.768253326416016,-1.9581114053726196
8.77719201920192e6,184.8022918701172,23.353025436401367,34.850502014160156,-179.97195434570312
8.77719201920192e6,118.99803924560547,-8.126460075378418,2.2274158000946045,118.6906509399414
8.77719201920192e6,59.634483337402344,2.322342872619629,-26.97049331665039,-53.11692428588867
8.77719201920192e6,43.258155822753906,-32.94894790649414,-27.852264404296875,2.7969791889190674
8.77719201920192e6,102.57608032226562,21.206928253173828,40.07263946533203,92.00129699707031
8.77719201920192e6,135.9581756591797,29.126251220703125,17.42308235168457,-131.64596557617188
8.77719201920192e6,42.48701477050781,-9.639700889587402,-37.98655700683594,16.345664978027344
8.77719201920192e6,43.788360595703125,-5.577413082122803,-38.493377685546875,-20.062639236450195
8.77719201920192e6,316.2906494140625,24.821250915527344,-30.81141471862793,-313.80291748046875
8.77719201920192e6,29.786928176879883,-10.021231651306152,-15.12606143951416,23.57912254333496
8.77719201920192e6,1097.0076904296875,-18.758146286010742,29.651952743530273,1096.445556640625
8.77719201920192e6,56.84918975830078,17.893844604492188,25.953798294067383,47.286128997802734
8.77719201920192e6,1696.3118896484375,9.235223770141602,-40.561824798583984,-1695.8011474609375
8.77719201920192e6,31.255884170532227,-14.712262153625488,-18.883277893066406,20.045902252197266
8.77719201920192e6,212.62852478027344,-22.13492202758789,3.453726291656494,211.44017028808594
8.77719201920192e6,15.591716766357422,13.938283920288086,-6.763552665710449,1.0084739923477173
8.77719201920192e6,31.326984405517578,-18.639328002929688,-14.534969329833984,-20.509191513061523
8.77719201920192e6,298.3730163574219,15.435812950134277,-18.135875701904297,-297.4175720214844
8.77719201920192e6,50.46089553833008,5.6056365966796875,-42.40221405029297,-26.737009048461914
8.77719201920192e6,132.80873107910156,13.36799144744873,46.99589538574219,-123.48594665527344
8.77719201920192e6,31.115779876708984,11.944713592529297,16.511144638061523,23.469863891601562
8.77719201920192e6,2628.433349609375,-26.047306060791016,-3.6985113620758057,-2628.301513671875
8.77719201920192e6,36.70174026489258,2.118032455444336,36.610591888427734,0.36471718549728394
8.77719201920192e6,157.72189331054688,31.6444149017334,8.363688468933105,154.28160095214844
8.77719201920192e6,44.16924285888672,13.737283706665039,15.83569049835205,-38.85070037841797
8.77719201920192e6,81.89156341552734,38.35721206665039,-23.115371704101562,68.54611206054688
8.77719201920192e6,100.35533905029297,-11.205263137817383,-44.151161193847656,-89.41056060791016
8.77719201920192e6,19.175750732421875,2.384932279586792,11.650402069091797,-14.97419261932373
8.77719201920192e6,50.32669448852539,-29.706676483154297,-3.2505853176116943,-40.468013763427734
8.77719201920192e6,40.47803497314453,29.599702835083008,27.52713394165039,1.5882941484451294
8.77719201920192e6,81.45639038085938,-2.954619884490967,44.63543701171875,68.05900573730469
8.77719201920192e6,28.864952087402344,6.878782272338867,19.529977798461914,20.059526443481445
8.77719201920192e6,240.9795684814453,-52.989261627197266,21.933208465576172,-234.05162048339844
8.77719201920192e6,186.1352996826172,11.635660171508789,26.718669891357422,-183.83419799804688
8.77719201920192e6,251.18223571777344,28.761667251586914,-12.14765453338623,-249.23011779785156
8.77719201920192e6,68.38155364990234,-16.901073455810547,-14.82497501373291,-64.56428527832031
8.77719201920192e6,42.95624923706055,20.67681312561035,36.74269104003906,-8.10063362121582
8.77719201920192e6,35.692779541015625,-32.857479095458984,-4.584283828735352,-13.087465286254883
8.77719201920192e6,100.03274536132812,62.37245559692383,19.36608123779297,75.75697326660156
8.77719201920192e6,34.85842514038086,-28.931392669677734,-15.573897361755371,11.553131103515625
8.77719201920192e6,64.45469665527344,32.57951354980469,-24.780115127563477,49.76811981201172
8.77719201920192e6,1704.9564208984375,36.14442825317383,1.3676254749298096,1704.5721435546875
8.77719201920192e6,59.160491943359375,-18.15175437927246,-25.94510269165039,49.952640533447266
8.77719201920192e6,33.827392578125,2.8020544052124023,14.189962387084961,-30.545419692993164
8.77719201920192e6,18.348485946655273,7.927796363830566,9.338264465332031,13.584940910339355
8.77719201920192e6,27.961288452148438,-17.488563537597656,-21.283824920654297,4.573775291442871
8.77719201920192e6,114.55328369140625,24.39688491821289,-25.53974151611328,-108.96286010742188
8.77719201920192e6,51.26917266845703,-6.560808181762695,35.701087951660156,36.17807388305664
8.77719201920192e6,95.49517822265625,-14.697345733642578,21.858280181884766,91.77946472167969
8.77719201920192e6,60.31826400756836,22.232820510864258,-31.22956085205078,46.547245025634766
8.77719201920192e6,155.68902587890625,-17.2276554107666,7.802161693572998,-154.5294189453125
8.77719201920192e6,222.17860412597656,-52.329315185546875,59.800315856933594,207.477294921875
8.77719201920192e6,62.12448501586914,-10.004197120666504,17.251161575317383,-58.81922912597656
8.77719201920192e6,277.0861511230469,35.50754165649414,24.719785690307617,-273.6838073730469
8.77719201920192e6,43.616207122802734,9.430965423583984,25.844316482543945,33.81476593017578
8.77719201920192e6,50.81270217895508,-9.383771896362305,37.26087188720703,33.21806335449219
8.77719201920192e6,272.2478942871094,36.8386116027832,14.002753257751465,269.3764953613281
8.77719201920192e6,69.13831329345703,26.170495986938477,14.03520679473877,-62.41923904418945
8.77719201920192e6,14.345903396606445,-13.034846305847168,3.6287965774536133,4.546026229858398
8.77719201920192e6,227.98118591308594,28.90338134765625,24.293731689453125,224.82830810546875
8.77719201920192e6,44.301605224609375,-42.95125961303711,10.004598617553711,-3.9580769538879395
8.77719201920192e6,111.71636199951172,14.42908763885498,0.49322059750556946,110.77021789550781
8.77719201920192e6,53.30593490600586,-22.34281349182129,9.671666145324707,-47.3995475769043
8.77719201920192e6,607.8093872070312,-11.662313461303711,-9.440844535827637,607.6224365234375
8.77719201920192e6,47.49105453491211,-33.411495208740234,-0.4605751037597656,33.71642303466797
8.77719201920192e6,46.51549530029297,-22.720264434814453,0.8173686265945435,40.55551528930664
8.77719201920192e6,297.3605041503906,-2.1666085720062256,-27.211822509765625,-296.10137939453125
8.77719201920192e6,58.3058967590332,8.659181594848633,52.85673522949219,22.99344253540039
8.77719201920192e6,113.2280044555664,20.762195587158203,23.477304458618164,-108.79460144042969
8.77719201920192e6,279.1214904785156,10.9678373336792,52.667354583740234,273.88427734375
8.77719201920192e6,42.127662658691406,40.87096405029297,-0.31372347474098206,-10.106566429138184
8.77719201920192e6,38.38585662841797,-5.219789505004883,33.83543395996094,17.301097869873047
8.77719201920192e6,121.5512466430664,-3.6209611892700195,-45.41452407836914,-112.68119812011719
8.77719201920192e6,386.8504943847656,2.6440560817718506,42.55257034301758,384.4912414550781
8.77719201920192e6,2747.179931640625,-20.44328498840332,-35.841209411621094,2746.86962890625
8.77719201920192e6,57.37662887573242,-36.76997375488281,-27.93938636779785,-34.020198822021484
8.77719201920192e6,197.9646453857422,33.9232177734375,-7.326969146728516,-194.8934783935547
8.77719201920192e6,196.69158935546875,35.855812072753906,4.211482524871826,-193.34463500976562
8.77719201920192e6,15.622780799865723,-1.8702585697174072,-5.979698657989502,-14.239151000976562
8.77719201920192e6,31.552143096923828,-5.958553314208984,5.734367370605469,-30.415246963500977
8.77719201920192e6,323.05792236328125,-11.432978630065918,-27.50201988220215,-321.6788635253906
8.77719201920192e6,24.89305877685547,9.866094589233398,17.07354736328125,15.124658584594727
8.77719201920192e6,139.79476928710938,12.355610847473145,11.995715141296387,-138.7225799560547
8.77719201920192e6,17.760318756103516,-13.873251914978027,10.449132919311523,-3.422605037689209
8.77719201920192e6,39.93700408935547,-2.8392093181610107,-39.41349411010742,-5.605052471160889
8.77719201920192e6,58.239803314208984,-26.43694305419922,-28.221839904785156,-43.52501678466797
8.77719201920192e6,17.234209060668945,12.093239784240723,-12.10983943939209,-1.4353063106536865
8.77719201920192e6,430.8680725097656,21.090694427490234,-31.30318260192871,429.2091979980469
8.77719201920192e6,214.5289764404297,0.2966998517513275,-37.456180572509766,-211.22869873046875
8.77719201920192e6,79.54134368896484,3.082257032394409,-58.49502182006836,-53.79214096069336
8.77719201920192e6,190.8749542236328,22.48332977294922,-5.440590858459473,189.46261596679688
8.77719201920192e6,870.21044921875,21.338043212890625,-29.651317596435547,-869.4421997070312
8.77719201920192e6,33.752113342285156,6.263040065765381,2.705340623855591,-33.02419662475586
8.77719201920192e6,59.86909866333008,14.245176315307617,38.40400695800781,-43.640037536621094
8.77719201920192e6,470.94415283203125,-25.516979217529297,-23.585817337036133,469.6582946777344
8.77719201920192e6,170.9610137939453,8.854557991027832,1.480735421180725,170.71910095214844
8.77719201920192e6,1241.6397705078125,-38.971858978271484,26.51102638244629,1240.7440185546875
8.77719201920192e6,261.0294189453125,-27.027915954589844,7.471402168273926,-259.5148620605469
8.77719201920192e6,1205.9307861328125,44.701271057128906,4.857817649841309,1205.09130859375
8.77719201920192e6,50.58688735961914,-32.79671859741211,11.262884140014648,-36.80343246459961
8.77719201920192e6,19.02509117126465,12.899453163146973,13.339962005615234,-3.942134141921997
8.77719201920192e6,79.35614013671875,-12.536663055419922,-68.71989440917969,37.626346588134766
8.77719201920192e6,2424.114990234375,5.377677917480469,-2.6593739986419678,-2424.107177734375
8.77719201920192e6,6.623547554016113,-4.792600631713867,2.4899466037750244,3.555185556411743
8.77719201920192e6,21.029441833496094,9.405885696411133,-9.646843910217285,16.082347869873047
8.77719201920192e6,1861.14892578125,31.144744873046875,-23.947662353515625,1860.733642578125
8.77719201920192e6,892.7642822265625,-47.8283805847168,-34.73296356201172,890.80419921875
8.77719201920192e6,163.65419006347656,5.87467098236084,13.065710067749023,163.0196533203125
8.77719201920192e6,1144.8536376953125,-20.366634368896484,-0.7426843047142029,-1144.67138671875
8.77719201920192e6,452.024169921875,35.6674919128418,27.55485725402832,449.76922607421875
8.77719201920192e6,40.72177505493164,-10.164191246032715,-32.87574005126953,-21.727279663085938
8.77719201920192e6,46.69258499145508,-6.925004005432129,7.552234649658203,-45.53177261352539
8.77719201920192e6,41.73038101196289,13.128410339355469,-30.553014755249023,25.169816970825195
8.77719201920192e6,24.650766372680664,22.374008178710938,-9.495970726013184,3.8506336212158203
8.77719201920192e6,263.62030029296875,44.7020149230957,-11.933610916137695,-259.5243835449219
8.77719201920192e6,147.5027618408203,4.741766452789307,4.101615905761719,147.36245727539062
8.77719201920192e6,219.84017944335938,37.28854751586914,-24.160831451416016,-215.2985382080078
8.77719201920192e6,209.5992889404297,-28.888484954833984,16.33734703063965,206.95010375976562
8.77719201920192e6,1490.478759765625,-2.1630399227142334,8.202226638793945,1490.453857421875
8.77719201920192e6,197.06915283203125,-28.13559913635254,-20.362226486206055,193.97927856445312
8.77719201920192e6,53.593597412109375,-28.41495704650879,28.06476402282715,35.70951843261719
8.77719201920192e6,42.21622085571289,8.868240356445312,29.2785701751709,-29.056249618530273
8.77719201920192e6,47.27219772338867,-29.0115966796875,5.250553131103516,36.92365646362305
8.77719201920192e6,320.7104797363281,27.37271499633789,-9.524696350097656,319.3949890136719
8.77719201920192e6,645.3208618164062,-3.5040290355682373,48.355010986328125,-643.4954833984375
8.77719201920192e6,209.8001708984375,29.251554489135742,0.5565900206565857,207.7452392578125
8.77719201920192e6,44.375030517578125,27.75855255126953,-20.525136947631836,27.843521118164062
8.77719201920192e6,18.070701599121094,-9.15971851348877,14.740936279296875,-4.826120853424072
8.77719201920192e6,34.71728515625,20.43321418762207,3.324171543121338,-27.83272361755371
8.77719201920192e6,422.5225524902344,36.95386505126953,-22.413917541503906,-420.3038024902344
8.77719201920192e6,18.121549606323242,-8.62889289855957,-10.023845672607422,12.304149627685547
8.77719201920192e6,32.35693359375,-19.100357055664062,-21.564973831176758,14.664111137390137
8.77719201920192e6,1271.0614013671875,-26.224884033203125,58.83930969238281,1269.4271240234375
8.77719201920192e6,279.6391906738281,34.43110275268555,-11.50131607055664,277.26922607421875
8.77719201920192e6,214.81105041503906,-35.52259063720703,18.427989959716797,211.04568481445312
8.77719201920192e6,257.8783264160156,4.320763111114502,-11.88533878326416,-257.5640563964844
8.77719201920192e6,537.5929565429688,-21.916879653930664,-36.58539962768555,535.896728515625
8.77719201920192e6,274.7230529785156,-16.807903289794922,-21.840312957763672,273.3334655761719
8.77719201920192e6,76.92316436767578,-11.955459594726562,39.6109619140625,64.83169555664062
8.77719201920192e6,51.88890075683594,-4.685356616973877,-40.93557357788086,31.50748062133789
8.77719201920192e6,19.742321014404297,19.52406120300293,-0.6109383702278137,-2.476661443710327
8.77719201920192e6,87.15801239013672,7.935976028442383,2.2131028175354004,-86.755859375
8.77719201920192e6,338.86468505859375,16.848133087158203,10.13487720489502,338.290771484375
8.77719201920192e6,349.4358215332031,-4.636650085449219,-25.92978286743164,348.4386291503906
8.77719201920192e6,53.55607986450195,-6.251295566558838,8.170377731323242,-52.539100646972656
8.77719201920192e6,248.58251953125,-28.150630950927734,-24.809022903442383,-245.7300567626953
8.77719201920192e6,93.95384216308594,-13.940728187561035,7.302391052246094,-92.61529541015625
8.77719201920192e6,1229.4561767578125,-15.156394004821777,-22.421716690063477,-1229.157470703125
8.77719201920192e6,73.30247497558594,-70.86412048339844,-18.388072967529297,-3.3683528900146484
8.77719201920192e6,264.2110900878906,-43.31278991699219,-34.05733108520508,-258.3980407714844
8.77719201920192e6,748.2055053710938,-6.2855939865112305,40.45777130126953,747.0830688476562
8.77719201920192e6,2711.037841796875,11.781908988952637,-6.0917158126831055,-2711.0048828125
8.77719201920192e6,337.0694580078125,-9.04540729522705,31.71656036376953,-335.4489440917969
8.77719201920192e6,32.55899429321289,9.551253318786621,21.037654876708984,-22.895753860473633
8.77719201920192e6,403.1530456542969,44.41754150390625,3.8791322708129883,400.6773376464844
8.77719201920192e6,1825.955078125,0.4079103171825409,5.197540283203125,1825.9471435546875
8.77719201920192e6,119.3481216430664,19.206689834594727,-37.23345184326172,111.74382781982422
8.77719201920192e6,708.7305908203125,-13.211129188537598,-10.256879806518555,-708.53173828125
8.77719201920192e6,16.818923950195312,3.6123545169830322,-13.278175354003906,9.563156127929688
8.77719201920192e6,152.22802734375,27.517765045166016,4.393520355224609,-149.6488494873047
8.77719201920192e6,752.27490234375,27.320579528808594,-4.717332363128662,-751.762451171875
8.77719201920192e6,35.409523010253906,-16.665084838867188,-28.784910202026367,-12.061309814453125
8.77719201920192e6,27.8365478515625,-2.1503288745880127,16.578815460205078,22.211015701293945
8.77719201920192e6,26.130922317504883,17.43124771118164,12.350105285644531,-14.979599952697754
8.77719201920192e6,41.7645378112793,-34.1852912902832,-10.651371002197266,21.450586318969727
8.77719201920192e6,47.3686408996582,-6.0586981773376465,-38.13408279418945,-27.400888442993164
8.77719201920192e6,46.48511505126953,-28.682695388793945,-14.746864318847656,-33.446014404296875
8.77719201920192e6,108.21119689941406,22.717296600341797,18.937458038330078,-104.0811996459961
8.77719201920192e6,410.623046875,9.442646026611328,-29.921602249145508,-409.4200134277344
8.77719201920192e6,81.54850769042969,5.854322910308838,-33.490013122558594,74.10965728759766
8.77719201920192e6,242.26516723632812,-32.58536911010742,18.51041603088379,-239.34474182128906
8.77719201920192e6,44.95145797729492,-10.230224609375,-41.67950439453125,13.294052124023438
8.77719201920192e6,22.76297950744629,13.696162223815918,2.0609283447265625,18.007158279418945
8.77719201920192e6,20.14618492126465,-0.5913994312286377,-13.328350067138672,15.027005195617676
8.77719201920192e6,432.4194030761719,-55.58423614501953,30.84514617919922,427.7189025878906
8.77719201920192e6,66.41592407226562,-15.83292007446289,-36.26179122924805,-53.32366180419922
8.77719201920192e6,128.91085815429688,-62.519527435302734,-12.991812705993652,111.97530364990234
8.77719201920192e6,107.75296783447266,-15.437600135803223,-33.05717849731445,-101.37821197509766
8.77719201920192e6,425.6786804199219,29.95245361328125,23.968427658081055,423.94415283203125
8.77719201920192e6,182.1395721435547,30.973899841308594,-30.91705322265625,176.79795837402344
8.77719201920192e6,36.9290771484375,-23.354736328125,16.026193618774414,-23.651872634887695
8.77719201920192e6,25.991037368774414,-3.649191379547119,-2.2000105381011963,-25.599103927612305
8.77719201920192e6,771.5172729492188,34.88205337524414,-9.930800437927246,770.6630249023438
8.77719201920192e6,959.1099853515625,26.151710510253906,7.449873447418213,-958.7233276367188
8.77719201920192e6,46.96548080444336,17.524255752563477,4.179364204406738,-43.34889602661133
8.77719201920192e6,233.9420623779297,-18.79111099243164,-21.79776382446289,232.16067504882812
8.77719201920192e6,190.06069946289062,-6.0276594161987305,-25.923398971557617,188.1824951171875
8.77719201920192e6,54.133056640625,21.05889892578125,-34.37405014038086,-36.100860595703125
8.77719201920192e6,98.2099838256836,-0.10515177994966507,-40.665897369384766,89.38350677490234
8.77719201920192e6,308.58514404296875,6.334546089172363,73.0223388671875,299.7504577636719
8.77719201920192e6,137.20169067382812,-3.4472053050994873,25.43625831604004,-134.771484375
8.77719201920192e6,129.54139709472656,5.511890411376953,33.33191680908203,125.050048828125
8.77719201920192e6,422.3453369140625,-56.9735107421875,-16.10795021057129,-418.17230224609375
8.77719201920192e6,437.95703125,-4.614253520965576,17.334857940673828,437.587158203125
8.77719201920192e6,1146.765869140625,-20.698047637939453,-32.88479232788086,-1146.1064453125
8.77719201920192e6,845.1190185546875,-39.44163131713867,-3.5824389457702637,-844.1893310546875
8.77719201920192e6,78.06624603271484,-35.617706298828125,0.7071781158447266,-69.44893646240234
8.77719201920192e6,117.57223510742188,11.836397171020508,37.01698303222656,-110.95408630371094
8.77719201920192e6,1339.475830078125,18.236230850219727,6.44548225402832,-1339.33544921875
8.77719201920192e6,233.76617431640625,-30.643957138061523,40.27490234375,-228.2179718017578
8.77719201920192e6,968.7859497070312,-13.707422256469727,-37.122589111328125,967.976318359375
8.77719201920192e6,364.83233642578125,22.69537925720215,12.980284690856934,363.8914794921875
8.77719201920192e6,323.7711486816406,42.4295539855957,12.902795791625977,320.71630859375
8.77719201920192e6,15.630732536315918,-8.030638694763184,-12.279151916503906,5.194987773895264
8.77719201920192e6,51.687530517578125,-10.117568969726562,10.43889331817627,-49.580257415771484
8.77719201920192e6,34.19536590576172,32.97662353515625,5.674073696136475,6.899771213531494
8.77719201920192e6,57.651241302490234,-7.7707414627075195,26.065832138061523,50.81132125854492
8.77719201920192e6,58.96418762207031,33.568763732910156,-13.948966979980469,-46.403411865234375
8.77719201920192e6,414.19580078125,-19.957599639892578,25.558849334716797,412.9219665527344
8.77719201920192e6,45.04380798339844,-2.455782890319824,-8.159890174865723,-44.20709228515625
8.77719201920192e6,715.0800170898438,-45.8228645324707,24.327726364135742,-713.1940307617188
8.77719201920192e6,452.67791748046875,36.3178596496582,-66.74727630615234,-446.252197265625
8.77719201920192e6,99.37476348876953,-20.3199405670166,24.216676712036133,94.2015609741211
8.77719201920192e6,258.7163391113281,17.121816635131836,-19.07944679260254,257.4391174316406
8.77719201920192e6,48.06053924560547,42.1262321472168,21.767120361328125,7.702301025390625
8.77719201920192e6,324.5361022949219,-6.446012020111084,43.06315994262695,321.5985412597656
8.77719201920192e6,43.25863265991211,30.046058654785156,-27.37390899658203,14.735997200012207
8.77719201920192e6,90.56890869140625,-34.32201385498047,-21.587881088256836,80.9729995727539
8.77719201920192e6,25.039653778076172,-11.329096794128418,-0.7811579704284668,-22.270214080810547
8.77719201920192e6,53.747802734375,-46.24967575073242,-20.44745635986328,18.155771255493164
8.77719201920192e6,54.58039474487305,-19.081266403198242,-14.397988319396973,49.04650115966797
8.77719201920192e6,1174.6634521484375,26.153844833374023,28.7304744720459,-1174.0198974609375
8.77719201920192e6,77.1375961303711,33.26770782470703,-9.125701904296875,68.97917175292969
