239571.42052148218,705.3481902430718,53.853403769121655,-0.3443707507669151,703.2887116233228
239571.42052148218,14.599312902912727,4.24325683924748,-0.32295114937600555,13.93845463238857
239571.42052148218,228.61910095005024,17.530198242098088,-0.5370783826276383,227.94373674651297
239571.42052148218,38.36202620755318,12.085825261289086,0.3414434447663453,-36.39658507645069
239571.42052148218,225.11164361131418,9.722385011450845,0.08591187356405812,224.89991117067416
239571.42052148218,163.84360232673652,17.170297397365825,0.05433388582463789,-162.93911152595422
239571.42052148218,21.887212678872174,10.136269141655234,-0.34063042535859217,-19.3762794158769
239571.42052148218,101.43898729052049,20.088988131534432,0.4292379339363315,99.42518071154925
239571.42052148218,389.2375262089858,6.096256427558774,-0.1581607070044516,389.1887878117787
239571.42052148218,62.94243136112446,16.570600101897384,-0.01027224869253858,60.71585360302919
239571.42052148218,16.022841908763603,9.51770705465389,0.5461019589794384,-12.84899195486267
239571.42052148218,24.77863201814267,10.755873116032687,0.028139350394503722,22.305629619672114
239571.42052148218,8.22554677789513,5.0743207179936825,-0.009169830234824735,6.415676995547584
239571.42052148218,10.927804666795447,8.292993743853195,-0.3367608061439983,-7.0554849663362855
239571.42052148218,147.87752388504546,29.419122107882586,-0.247067157837772,144.91882689610728
239571.42052148218,62.356030353698756,37.68613665342613,-0.34146612882713273,49.67054592859092
239571.42052148218,380.8343670966379,30.343800257092923,0.3341220465584616,379.62245378357574
239571.42052148218,86.96220763523803,33.950076263526576,0.5808297120117067,-80.05454778893782
239571.42052148218,36.27459106888149,16.938129275888652,0.18355072260416186,-32.06496763339699
239571.42052148218,17.63178555166962,14.649207503897218,0.4893465147244948,-9.761722572735726
239571.42052148218,38.72164423592298,17.15038020696736,-0.45298366985661975,-34.70266709109542
239571.42052148218,40.032850321286475,24.371092060717732,0.33261043168457805,-31.74615651170998
239571.42052148218,107.48631826937738,18.501067332140842,0.23241504605232777,-105.87830378446074
239571.42052148218,20.799128986245517,11.574909994426356,-0.11096097818529113,17.25870850380849
239571.42052148218,14.9437837693181,12.867949403468405,-0.5570440700593512,-7.528104658453413
239571.42052148218,64.67630062983828,42.888953914953596,-0.545361696489418,-48.399526673438764
239571.42052148218,103.5755441215446,22.238817654731225,-0.27653017510766664,101.15583011772782
239571.42052148218,10.74949655376923,9.441848764106028,0.1734790043719451,-5.061934359609191
239571.42052148218,27.35872260928019,23.728810198937396,-0.0006434928295706013,13.590194085846033
239571.42052148218,243.1808203899895,20.18105670241549,-0.15595257856985886,-242.34038487438733
239571.42052148218,4.536248496738085,4.409066052704931,0.01749782467842075,0.6224846535289317
239571.42052148218,89.45894327042964,5.543263273866057,0.16945054504910526,-89.28267556587922
239571.42052148218,99.34069354697857,21.611258187839525,-0.4199361134029239,96.95669483818335
239571.42052148218,25.627468750478904,24.42836987018427,-0.20097560667674388,7.696207845326884
239571.42052148218,400.31116609795225,18.49881193272034,-0.4129097780946178,399.88236179112226
239571.42052148218,185.00424796235242,23.805705576535534,0.24272966360314197,-183.4640328096491
239571.42052148218,85.71114112663975,22.357231313562572,-0.12913991438237013,82.73927332564524
239571.42052148218,31.848567257935137,29.562951642440858,-0.22849810636000054,11.813594776189642
239571.42052148218,59.803560703075355,59.54348855112205,-0.24375177438877504,5.498139262696288
239571.42052148218,20.92343251579393,17.390899857795958,0.06100091939437836,11.601422999685525
239571.42052148218,28.84973648481864,15.285757468757179,0.19698323527855272,-24.451262090238473
239571.42052148218,64.61011914306471,27.237579140739527,-0.3510191301373465,-58.58078755149977
239571.42052148218,28.233637177771527,4.5503110167268925,0.4609800859064796,27.84727170923928
239571.42052148218,52.697971277842456,4.656120783950799,0.331259938574453,52.4836840289377
239571.42052148218,158.4526441928253,16.463802612516105,0.1731446503264467,-157.59252451342655
239571.42052148218,106.08369422209738,14.966164510601699,-0.2205041278923538,-105.01888203522904
239571.42052148218,11.649587348281392,7.974914782865639,-0.20734542722495913,-8.445160378333965
239571.42052148218,27.33588306550723,7.638350409686443,-0.6064561906828138,-26.22572064270903
239571.42052148218,1670.8514341978428,29.234307513055533,-0.04504751560969525,-1670.5954383100334
239571.42052148218,24.764113895233137,24.74643204372691,-0.3435400319054862,0.08674513512105168
239571.42052148218,6.920972162749254,1.5859252950377687,-0.2530628718617661,6.6761337741014835
239571.42052148218,40.51189372153368,36.75267631719516,-0.2704253147834964,-17.018557310422928
239571.42052148218,39.19717142250737,20.9037489732472,-0.37589737722520683,-33.14453701443715
239571.42052148218,123.55914303246787,13.53521654585345,-0.264496896064462,122.81221391912692
239571.42052148218,302.45078160077446,22.539254240040098,0.14185951169879923,301.6085000318324
239571.42052148218,29.30895688082705,5.401752835945165,0.05445115253617911,-28.793804214869375
239571.42052148218,20.979286259507095,17.30382248043336,-0.22939672551066242,-11.828172429290225
239571.42052148218,16.780152682495224,10.082653156888403,0.02112233384095264,-13.385189186689036
239571.42052148218,37.53973540328421,7.499573450856777,0.2682091339569445,36.77181396688175
239571.42052148218,1336.7383596058678,19.368368319940213,-0.20042313636802594,1336.597739893094
239571.42052148218,241.02088462517492,26.41589402000541,0.24338557787537426,239.56723114490615
239571.42052148218,8.65439021348034,7.179925372745817,-0.14087943167342218,-4.751568261681655
239571.42052148218,16.83186646790116,16.618976911770936,-0.5011606167599811,-2.4739198827353155
239571.42052148218,101.77326394883173,17.612854664595748,0.5080311362662584,100.23261253742561
239571.42052148218,13.671020951425621,12.84818143278892,0.04932317952280226,-4.590067679143965
239571.42052148218,350.84601674267356,15.919508818598635,0.33426317606995115,-350.4834305322504
239571.42052148218,54.85237419249215,8.420739515543946,0.00551566425658095,-54.195241271653046
239571.42052148218,33.75193391022084,3.1992599892807103,-0.32037763190479274,-33.587277989211664
239571.42052148218,303.5064268131154,8.370085097246461,0.20775258476452332,-303.3896829780869
239571.42052148218,15.042739116589425,11.146670531099621,-0.3129467840850315,-10.059219992719106
239571.42052148218,137.9102000714117,19.188850479268176,0.28849316078811493,136.56565519583606
239571.42052148218,14.64064176138336,10.517722139547907,0.37180369986761774,-10.140896436700999
239571.42052148218,63.35354655359872,10.036550405998028,-0.5251243402518108,62.545294528404284
239571.42052148218,17.448330828411386,17.03459441121319,-0.29014419024682603,3.6650736203690846
239571.42052148218,36.29980808669716,8.055380231714896,0.4033821946978641,-35.38183581457081
239571.42052148218,127.48558434076679,35.769791272642784,0.4454095545247939,122.36072884589147
239571.42052148218,136.47196453440935,18.72523133585191,-0.33467985741951245,135.17803412923143
239571.42052148218,30.9088060862912,13.042573448401752,-0.5045550374968001,-28.00430506346906
239571.42052148218,62.70952822808426,31.69818543404675,-0.33174955173650444,-54.10036986346127
239571.42052148218,68.41529689206614,26.631857875638293,0.22903632959164447,-63.01265463088972
239571.42052148218,24.388474954475246,24.346505747289772,-0.319903724133931,-1.0923078596447464
239571.42052148218,5.1352310345151215,2.631113761921355,0.0863441380796355,4.323249841288215
239571.42052148218,962.4398293853745,24.21194127515344,0.3341701936333768,-962.1347855283426
239571.42052148218,164.28333769959676,12.747478109221293,-0.05139033108768467,163.78572682916928
239571.42052148218,14.05728169564167,10.80835767702566,0.017782630720251946,8.946304439535446
239571.42052148218,24.288724145789935,23.748143339565065,-0.13400571641957332,-5.01995591339421
239571.42052148218,8.837951367460398,8.315269315323185,0.014245255342192413,-2.866284007324473
239571.42052148218,117.1302788650451,10.847990331900347,0.07735202854068977,-116.62361448598912
239571.42052148218,734.0373191597723,15.556737386923864,0.03645894398773811,-733.8719388409913
239571.42052148218,1640.8322800124859,19.207540776305386,0.08593884573804551,-1640.7196238934807
239571.42052148218,332.2726419932493,27.618519972366496,-0.09104635550850057,-331.12168124214077
239571.42052148218,16.445713414831058,16.415645264907173,0.17048635242418633,0.4572975112833296
239571.42052148218,25.516634791438506,4.1074308822283285,-0.25336093610929616,-25.16770901798821
239571.42052148218,13.348903256555259,5.815926596171389,0.2918965220634555,11.98053082095819
239571.42052148218,76.11903433309489,14.229779990129249,0.5632249209367944,74.77000490353424
239571.42052148218,10.705440468632267,6.19639672658317,0.4527735557143774,8.675034621957918
239571.42052148218,661.7491449611848,27.83069505831014,0.05620083082002044,-661.1630889706773
239571.42052148218,49.81673493949867,30.499974318727315,-0.5782395843638589,39.374793865149584
239571.42052148218,32.24230284321292,22.203336847246064,0.20516217084152716,23.362061987665832
239571.42052148218,16.550764838695596,15.482230537520367,-0.3507578774848675,-5.7754159669205425
239571.42052148218,24.20706371591964,24.189178675937423,-0.26242573674715575,0.216351134880652
239571.42052148218,34.43938201359343,13.614578104414475,-0.32089058228966955,-31.620585574937135
239571.42052148218,57.17566189796765,23.157709030069736,0.07812964758769814,52.268736621982825
239571.42052148218,17.16463156766433,13.752006905720812,-0.26220823154503803,-10.23172693696817
239571.42052148218,46.88757305990013,19.561853046639435,0.2284122544403707,42.60253920861855
239571.42052148218,198.22833081202424,21.18697253388554,0.07532704386229876,197.09091243270672
239571.42052148218,99.40189677270243,17.931853929779955,0.289798114214542,97.76682371876325
239571.42052148218,139.6361159501289,13.523544715216474,0.35751448777276035,-138.97654804216114
239571.42052148218,29.817942291546757,28.609109583213414,-0.47897660879594883,8.345610769538052
239571.42052148218,172.14636748588734,11.799097967211472,0.33813782585144275,-171.73901389872873
239571.42052148218,28.58453561333697,18.88772474815872,-0.19603460447382098,-21.436912250892735
239571.42052148218,235.95582258212193,20.22513004154075,-0.19393528847399275,235.08574355043976
239571.42052148218,32.12024708080865,22.84826410918906,0.33193415830642115,-22.556751224283012
239571.42052148218,69.04611200500193,14.229348588022091,0.4872149104677592,-67.55667213347284
239571.42052148218,502.009525584343,26.637642248519388,-0.6342320392751176,-501.30115464551653
239571.42052148218,15.125360303672668,13.638535251223963,-0.04710061752826547,6.481880005027144
239571.42052148218,24.318881600046836,23.08151724524188,-0.11536015827743916,-7.608440202780352
239571.42052148218,97.7556257828153,13.920674519201292,-0.43385171153775975,96.75452998264933
239571.42052148218,12.33762583745367,12.267830009601303,-0.4469284271846766,0.8761960352617387
239571.42052148218,22.357257267110885,21.783715678929287,-0.00012627683482948685,-4.956489691516663
239571.42052148218,34.26413975784661,9.109222814640006,0.32265709107935836,-33.01816669366679
239571.42052148218,59.17196858752323,22.017775263669442,0.039472413772091715,54.91619057473521
239571.42052148218,77.42030614631732,36.55498924611221,-0.48331973564504055,68.23967374914655
239571.42052148218,17.154432566068312,12.488158680380891,0.33893951892702967,-11.724149256582576
239571.42052148218,37.57971305831614,12.211932205066223,-0.15080059694206951,-35.52929651562086
239571.42052148218,417.6434516367621,18.917740343300913,0.1440594327233683,417.21385541302726
239571.42052148218,34.94711508723654,13.243562069468236,-0.018804980203398963,32.328913828895054
239571.42052148218,6.732126990401559,6.675533252289739,0.09125775328773883,0.023832449223461394
239571.42052148218,13.933062224146902,11.630192757480096,0.2954667505478822,-7.617850426191867
239571.42052148218,197.89473110525003,18.19226179895902,-0.3573696140120501,197.05453205437078
239571.42052148218,116.41157049107743,18.57251093088541,0.173455874427413,-114.91708141669609
239571.42052148218,12.923482841432676,9.535561874908302,-0.13831365153633643,-8.678735170928007
239571.42052148218,12.520347974911408,10.938180426953158,-0.2981623268932946,-6.022999911822395
239571.42052148218,8.344948794739643,5.7319890016940755,-0.04161083201653685,6.002570062952006
239571.42052148218,149.63266727960342,16.07895097364813,0.2794380990555306,-148.76348501394762
239571.42052148218,575.8573879739173,21.832042917902392,-0.29280463974441356,-575.4426622678989
239571.42052148218,481.1581140492202,14.621744788798246,-0.04645294977867493,-480.93511333984304
239571.42052148218,19.158117800403307,10.784352045308822,0.23709625936839304,-15.809020220477642
239571.42052148218,15.279276326486515,12.507200586077706,-0.06771895602253804,8.733369284213733
239571.42052148218,408.6263326385121,31.929394985405054,0.27460281882015414,407.37595432365487
239571.42052148218,32.14190697371327,12.97355259301381,0.23578439900121315,29.39359843726239
239571.42052148218,12.459688956571046,11.913976367196161,0.315005591296161,-3.528724110007183
239571.42052148218,76.74787641786062,20.149546754425877,-0.32640678812995444,-74.04982015644455
239571.42052148218,35.81610560204091,32.412680005595014,0.0995870849701123,15.213539499888203
239571.42052148218,164.879323388098,65.10450829171629,-0.003654078438210227,-151.47885784494565
239571.42052148218,134.0369923857477,19.862497410480202,-0.19629146702671055,-132.5541704377736
239571.42052148218,224.54174420924227,19.33867235124672,0.059409795912776946,223.70573801547147
239571.42052148218,18.297212047635703,8.756436947103115,0.23164887101166334,-16.040861132084387
239571.42052148218,263.66472900975054,9.857405915097456,0.03593722567101258,263.478973899772
239571.42052148218,42.4871853426355,12.69321812917124,-0.2475068168018168,40.53679783346337
239571.42052148218,8.648621444102105,3.7564003933507726,-0.06608553390311289,-7.741695422911551
239571.42052148218,1036.1042617224036,13.555083077339129,0.5291813664957383,-1036.015092050075
239571.42052148218,1.1319194068043905,0.13748482544034135,0.04611908883639086,-0.7143660452617714
239571.42052148218,32.1957808445753,22.380414905370976,-0.23434494868651598,-23.127484118491996
239571.42052148218,138.3521784083953,23.926400386711062,-0.08739225393778179,136.26479774258607
239571.42052148218,53.29140324490177,53.10152944659014,0.3296627516243201,-4.398028997692397
239571.42052148218,32.10443765914909,7.696810202256555,0.1018042176079003,-31.1559588581801
239571.42052148218,110.30129058632727,5.291406143571824,-0.16428218486962734,110.17077127690273
239571.42052148218,258.3758599921099,20.23189364097349,-0.5581953640158241,257.58046127501404
239571.42052148218,37.253872937508014,27.249157529900238,0.2181291501089859,25.387733037418876
239571.42052148218,15.984620959665856,15.94575077741058,0.08521239421545976,-0.6956899938010244
239571.42052148218,27.947220766403603,14.738728960486714,-0.4084811779432742,23.725519313038888
239571.42052148218,178.40644481494564,18.376674064422563,0.4389374283689538,-177.45482479246067
239571.42052148218,97.97607716866877,23.22813014772372,-0.3901069319712092,-95.1780625466482
239571.42052148218,246.85057308770763,18.407290530821207,-0.20436840738850606,-246.16170585399433
239571.42052148218,86.11578963222371,33.13362019792069,-0.04232713119559062,79.48170073247061
239571.42052148218,30.249869504720778,11.224078837364136,-0.19468989097406003,-28.076446739256856
239571.42052148218,60.83929564141167,8.517126156127755,-0.45480876015664895,-60.23223150046897
239571.42052148218,264.9030490604056,26.40043905143645,-0.10054277484254344,263.5827805773589
239571.42052148218,151.21220701041904,29.203917955001675,0.2984495882387077,-148.36247422860453
239571.42052148218,490.6898579451423,21.057380655775646,0.08298876393778402,490.2370514652656
239571.42052148218,16.359913908351395,16.33123922338769,-0.1636024609577887,0.40093528483454766
239571.42052148218,9.97854550111784,9.230764272661933,-0.23771852826411652,3.6821131857197122
239571.42052148218,67.16413557287854,7.28046992374146,0.16797707882936802,66.76254754720792
239571.42052148218,136.03509793013845,16.6279503847984,-0.34656351435426574,-135.01181109423078
239571.42052148218,45.05634140933026,39.15705969287637,0.11476389491326068,22.27185472747551
239571.42052148218,24.925561019315943,19.384144388479537,0.2469430175904035,15.643773967652026
239571.42052148218,13.229367825629826,8.243027308772291,-0.46761554201468136,-10.300491051800115
239571.42052148218,881.3550607657168,13.08430958843135,-0.2909525979922984,-881.2574592211238
239571.42052148218,17.241533941912433,16.62049157802734,-0.013537211421270125,4.503296067265802
239571.42052148218,32.690302487652325,21.52631065406185,-0.1451800334585567,-24.58663977585428
239571.42052148218,49.54303438164022,35.1954959980351,-0.47116726069980414,-34.854231091157764
239571.42052148218,48.98214373818955,31.593732925008354,0.058643598519002506,-37.42102500374571
239571.42052148218,196.99314915893683,60.087150376037556,0.0704270612647988,187.603518947866
239571.42052148218,107.69882674372069,13.600397118017844,0.3935354229223313,106.83240012481134
239571.42052148218,41.711003672261285,22.386781035645487,0.5989910823288155,-35.17856134414044
239571.42052148218,44.654589991127,42.07774032421716,0.11925789951348213,-14.9242105448669
239571.42052148218,6.809826369229736,5.284298791776113,0.41742838444394664,4.186380459639888
239571.42052148218,5.426755805956389,3.0010101816743493,-0.01873331893223877,4.437721473958687
239571.42052148218,27.611200924569882,27.391702096965098,-0.29778690703517874,-3.3517908700855337
239571.42052148218,29.788133757402253,17.166142132574805,-0.013935904512717926,-24.32912635452406
239571.42052148218,120.57453767276034,19.11133394462647,0.02484944212302924,-119.04715678550582
239571.42052148218,422.4280800790046,16.57531041702849,0.33345956225514406,-422.1017422789014
239571.42052148218,2052.615913410716,25.0569945400188,-0.08844124904993943,-2052.462783413143
239571.42052148218,16.73104594870285,10.929745168629491,-0.2013438337196516,12.636381447936483
239571.42052148218,21.689699175171963,12.659630725246025,0.30426082251556447,-17.587902999290407
239571.42052148218,110.5985096060026,12.641694924149107,0.2288401168280856,109.86999415247745
239571.42052148218,83.87292350955232,14.19694167549116,-0.2032387897957796,-82.65786680919695
239571.42052148218,28.85271565329928,18.20275992650953,-0.6510904847941645,-22.359895329793353
239571.42052148218,96.27232911351128,18.735877264105195,-0.376310766113317,-94.42688575105414
239571.42052148218,35.88754472897752,22.843274456802696,0.11162999159942597,27.664748758324688
239571.42052148218,22.377044826246586,19.28177467491761,0.0027952425736812725,11.322340706712458
239571.42052148218,31.957664046028707,30.068670484072545,-0.22139485890681684,10.787420324908739
239571.42052148218,37.49275151086115,13.838193130679128,0.25251574177201574,34.833850905176504
239571.42052148218,114.74294685762314,5.730997412303818,-0.17079348346682216,114.59633701898242
239571.42052148218,544.2307700009349,3.3421774677782645,0.37238018796875605,544.2196912138796
239571.42052148218,508.4126466223853,33.888952201966084,-0.03255006914301714,-507.28119146196906
239571.42052148218,242.41907394718604,28.315193116023252,0.506782836609228,-240.75765933760192
239571.42052148218,142.90776838338314,8.577378293519029,-0.2795367781642924,-142.64722503949707
239571.42052148218,12.693107842711873,12.425183122575746,-0.4683242420391604,-2.4001228785616395
239571.42052148218,10.221654839273977,2.473883672129393,0.03276090246042905,-9.87983604641285
239571.42052148218,67.13583736529226,2.1563628211567343,0.07224265381731687,-67.09557098253339
239571.42052148218,18.54948779481455,16.192847244320884,-0.38482277658783626,-8.9987339861442
239571.42052148218,193.4707949169657,26.59302131137673,-0.059165541088388354,-191.63247717734254
239571.42052148218,27.617533523685182,14.423315828374252,-0.030166856777846394,23.53604288656654
239571.42052148218,277.5568746324247,6.933504750164534,-0.09261511410906534,-277.4688932049686
239571.42052148218,40.14190178446812,27.917337347522636,0.005162568248008145,-28.831313428234512
239571.42052148218,66.1267864292115,17.064524640223997,0.14241072454532075,-63.88101210683797
239571.42052148218,42.8574756421439,26.76746811956681,0.08549715672549733,33.45905954254883
239571.42052148218,475.8518113579806,14.783256226560912,0.29901091708910726,475.62123838915466
239571.42052148218,575.8623298774307,34.50648711574515,0.3619419741605047,-574.8267951506365
239571.42052148218,25.014630919226985,23.521873503748726,0.12657832307444744,-8.466835960240527
239571.42052148218,10.277659737957116,10.205080420317714,0.4412921720745923,-0.7362002945139874
239571.42052148218,18.483498100503287,17.431397319595504,0.04692271906839361,-6.085556188783948
239571.42052148218,4.429545341044901,-0.28893294414816517,0.2697535048264496,-4.326052366707586
239571.42052148218,82.99232045785305,6.789146266076803,-0.09660452970695653,-82.70957333871534
239571.42052148218,678.8716998739501,16.683973278105718,-0.4905811395134871,-678.6659261830509
239571.42052148218,49.37894987855605,9.816161577904104,0.20196883711423336,-48.38525579063284
239571.42052148218,31.383407310992684,24.19225200253809,-0.1586810231651038,19.97193341108848
239571.42052148218,15.209999926725558,12.52117403924739,-0.10543301957855548,8.590884045251412
239571.42052148218,12.861201458010022,4.5968475834212175,0.539220302136153,11.968243106437209
239571.42052148218,36.31192000713595,5.19257569669414,-0.15969551180594294,-35.927945890809774
239571.42052148218,11.324902408699305,3.774437291695545,-0.13957121969246122,-10.641318711652184
239571.42052148218,31.07061770584637,30.81776603674486,-0.2397753734616954,3.852427189226859
239571.42052148218,418.10770285000757,14.09594977135728,-0.28974951520945236,417.8690243774031
239571.42052148218,26.724996080758565,11.711592211057765,-0.31952053673325753,-24.004417018035692
239571.42052148218,307.76424233752516,3.68703281242115,-0.13494459936954575,-307.7409081466694
239571.42052148218,161.81206348600352,18.468757169762632,0.07080731275761144,-160.75227522768668
239571.42052148218,286.0338760492628,23.864997211442166,-0.5593683502706742,-285.03469502722345
239571.42052148218,41.162224082298465,20.679133020635426,-0.5182760349474744,-35.5764479005215
239571.42052148218,13.44098057382048,13.365341184116753,-0.2958845381428516,-1.0909502778606168
239571.42052148218,42.161149763510736,11.814240315918955,0.03498590492285434,40.46276260311519
239571.42052148218,254.92109066585934,2.04217064724425,-0.5269689051663828,-254.9108950504911
239571.42052148218,11.068134610988562,7.859408169992529,-0.5861172045492322,-7.722686058467804
239571.42052148218,75.71469937396756,5.414151784671166,-0.13464909380640616,-75.51579065145955
239571.42052148218,39.59197092130602,10.254497584217951,-0.19403630433451777,-38.23064081325494
239571.42052148218,158.98588390744885,14.077084343031181,-0.007086045821193857,-158.35907626142128
239571.42052148218,29.176565431400846,7.632017204135907,0.07889948385519,28.14725856972114
239571.42052148218,114.51680063038265,32.43243528948096,-0.27704778208497366,109.8244422644139
239571.42052148218,10.911448204302175,8.610215929661502,-0.2135116069291261,-6.6429212477781965
239571.42052148218,843.6551708495608,14.786191043772252,-0.261425076708646,-843.5251019494907
239571.42052148218,1301.4565114474647,23.870221673017028,0.042866131327271254,1301.2373004087808
239571.42052148218,37.525574859253275,20.56093065778606,-0.24934175816190268,-31.378413504214578
239571.42052148218,22.409115327179087,18.624141348440467,0.023390185126857792,-12.432190797685916
239571.42052148218,166.28447491242136,20.9789880647366,-0.044478881155837376,164.95349885546284
239571.42052148218,96.01891567500829,22.17955555125694,-0.6045109206181704,-93.41618786832728
239571.42052148218,62.33463913212814,14.187786010478035,0.09070021818794317,-60.692304649557094
239571.42052148218,573.5971073201476,9.721582676041404,0.3860923641415471,-573.5139347874217
239571.42052148218,68.07679350957413,10.691130105677868,-0.3469571010952305,-67.22558500102002
239571.42052148218,151.0545171705664,14.92009273588071,-0.057885217032462286,150.31335518189331
239571.42052148218,197.87871939828608,13.630868466253947,0.3688010280673584,-197.40643633811362
239571.42052148218,48.85988054744156,33.255953084234534,0.037867542027222534,35.78516709433415
239571.42052148218,9.290267393336155,5.913207752013677,0.03633755537672697,-7.112793280700876
239571.42052148218,20.44603715962133,10.78389250637654,-0.21909507060821531,-17.347916348780082
239571.42052148218,54.72892901474995,54.361214483507915,-0.302807032855832,-6.266773111510122
239571.42052148218,333.2819924455408,33.2849306845994,0.3802754260538007,-331.61439259287584
239571.42052148218,18.791517374128784,18.762063058148808,0.362381025927421,0.47423766930030176
239571.42052148218,323.5444363731614,20.712295704198123,0.44540651689292043,-322.8793193037825
239571.42052148218,26.202987606288268,16.899478845701804,-0.2731376215689666,20.00449140641574
239571.42052148218,24.86053598907078,24.605247380349308,0.46539244379304157,3.4149036940536766
239571.42052148218,3.49269939443191,2.86357604853618,0.39773121731716343,1.7580664104607524
239571.42052148218,283.12455430863037,23.545669862011103,-0.1543561529599781,282.1424125574503
239571.42052148218,56.41870905855222,22.945320938515266,0.38523433357446646,51.53333561609449
239571.42052148218,240.313470445115,31.8677857662099,0.14360507088990085,-238.18949975107722
239571.42052148218,37.915428224574676,28.68662621641635,-0.046812608191258695,-24.777108158598857
239571.42052148218,17.471393737162902,16.407464276410966,-0.25148391106711054,-5.935619372100237
239571.42052148218,19.718143722683454,14.871281939657749,0.09181588179449784,-12.918662528844248
239571.42052148218,125.1418903729163,18.083466882160373,-0.2135805526116426,-123.82522134576243
239571.42052148218,17.95597004701092,13.494676219862509,0.39602174293880343,-11.806940635916419
239571.42052148218,35.69415809048134,19.69723180339562,0.0747898757643972,29.75460458310212
239571.42052148218,167.0520622348755,15.989681231883399,0.05449651881664523,166.28279744912763
239571.42052148218,1308.2677819152473,22.91989377237731,0.07608789349281561,1308.0667077729208
239571.42052148218,18.022333539078964,12.22216635830709,-0.4849174191373302,13.20750230554582
239571.42052148218,139.48510103616331,11.367035263986013,0.4132683934975755,-139.01785222035917
239571.42052148218,12.583320503871224,5.33635431752749,0.24431795020114003,-11.360180130212074
239571.42052148218,59.039201256938256,13.226439901302156,-0.06559516651661429,57.53202913351254
239571.42052148218,101.02377228182037,36.635895328009845,-0.1679597489202341,-94.14263452569007
239571.42052148218,29.47978196914353,8.81782477320997,-0.25759360332780695,-28.115605330553223
239571.42052148218,680.8192170320863,33.57823382532085,0.3137029637979551,-679.9900441845868
239571.42052148218,93.0219427605463,29.521211235337162,-0.3259962930343255,-88.20841090798872
239571.42052148218,33.462379107060585,17.828523080429207,-0.39365339460214266,-28.301408509663787
239571.42052148218,15.972201981187524,7.945351056902123,0.6015231400068641,13.815603822242993
239571.42052148218,44.1214766426918,23.804359846095508,0.0429584583797726,37.13900125704448
239571.42052148218,487.19387450845636,18.645210180979987,0.4929559047208134,486.835942178364
239571.42052148218,48.25041821994213,9.742278629960357,0.1284749267690864,47.2485393005904
239571.42052148218,94.30585650183659,30.39821488628717,-0.18455887709975793,89.26790658822291
239571.42052148218,138.76873881270768,23.71989801750329,0.3601611373657431,-136.7232595428245
239571.42052148218,146.0319446151845,20.609819875286874,0.1409121212168271,144.5676119430813
239571.42052148218,286.6567473859775,24.077429750133405,0.14059293814797538,285.6424312641802
239571.42052148218,10.954073471886202,8.673990857218914,-0.20321673649955932,6.630416091398354
239571.42052148218,225.15569152286236,14.58393773708466,-0.003293457302120203,224.6812058911983
239571.42052148218,74.78869855905734,12.651370241696553,-0.406488467380932,73.7046615665634
239571.42052148218,201.5250012053425,15.585203942050853,-0.37188150349073895,200.91923586206488
239571.42052148218,25.179767654911558,11.169956505172001,-0.11659018215828992,22.549706958362552
239571.42052148218,190.9794587211553,15.695675970870163,-0.018217562807844114,190.33141932879613
239571.42052148218,20.212877841411164,3.903854488437889,-0.4954771777642574,19.80719463937113
239571.42052148218,32.738767195887625,23.5838723441788,-0.13522398549164732,22.6905192444875
239571.42052148218,191.37383982622026,7.835393206744497,0.4122914435778339,191.21096544195308
239571.42052148218,45.370033352064745,38.26123205333186,-0.5464156813756196,24.361231175423164
239571.42052148218,71.22505346111652,6.710674590818803,-0.015235007064446951,70.90292632409687
239571.42052148218,327.54423609323135,32.2666442690245,0.25098970104130913,-325.949808062584
239571.42052148218,30.160321520022407,11.821377238749921,0.044636384972433066,27.733520301507568
239571.42052148218,72.09134982815,14.377956241017202,0.18753899616801267,-70.63746902212536
239571.42052148218,17.328426012706707,16.25771245256475,0.3875248728151999,-5.92123844404405
239571.42052148218,17.35959446388572,17.216382008459526,0.25099606226959503,2.0344084685215007
239571.42052148218,3.129974833023843,1.7979929978767433,0.3661351218699311,2.3832782166977755
239571.42052148218,944.6985283574189,46.50827056299384,-0.10196131324081922,943.5526111246545
239571.42052148218,484.6604498593705,30.40013511813427,-0.2730522032431754,483.70523978093473
239571.42052148218,100.99097418150293,31.66474900417559,0.2355505053091579,-95.89429158683902
239571.42052148218,80.95171411236271,17.91399100121663,0.21284177384080108,78.93968424606248
239571.42052148218,93.13419665246835,15.064501055652311,-0.16799856696929774,91.90354333145757
239571.42052148218,4.341214902437368,1.555982237949065,0.3677387123838754,3.9420731467654893
239571.42052148218,34.28984964555651,7.402844700085625,0.4665025920045063,-33.46676202956663
239571.42052148218,23.74413175976344,23.152400113604376,0.4498336808334608,-5.176670553055382
239571.42052148218,296.92630986252874,57.93256209122454,-0.05216136950559325,-291.21864487643495
239571.42052148218,17.018003956783687,15.714441358077515,0.5365585409748131,6.452209137920053
239571.42052148218,15.238682218294048,12.050312544277388,0.43415061924082277,-9.277339215847345
239571.42052148218,108.23796948766952,1.540630464956674,-0.01355308688979368,108.22353911810805
239571.42052148218,117.73854981300545,9.093109791648553,-0.14958520444253973,-117.38359850082932
239571.42052148218,21.19766597858935,19.261601521915253,-0.10485131581788346,8.807432219612684
239571.42052148218,3.0620785012225413,2.90071111671063,0.008869638914107128,0.46068150087689475
239571.42052148218,16.364416377211505,13.720783327995296,-0.21838515429442437,-8.873367033321811
239571.42052148218,60.325216564854664,16.49707987801487,0.09367415569096514,-58.019129953820155
239571.42052148218,314.051270765327,35.5559701667036,0.051159956055916306,-312.03080159469965
239571.42052148218,213.3089390122077,41.68343771193511,-0.2715401456103099,-209.1945765437742
239571.42052148218,17.347750301199444,7.407285779016741,0.254202719995989,15.660844333195847
239571.42052148218,63.34857005396898,25.038368274942826,-0.1438139049193161,58.18376806225606
239571.42052148218,457.12130366034046,12.389672277333036,0.3653285134079825,456.95240334461255
239571.42052148218,52.57591650649149,21.20685387021281,-0.033809760629018325,-48.10140651452715
239571.42052148218,219.2623317330342,53.1801423429626,0.5478967830936112,212.71293447474028
239571.42052148218,16.396054682707966,11.427099691979333,0.20302223897422972,-11.724371629605637
239571.42052148218,539.1834192789148,28.193985954887687,-0.1988064767435349,538.4450476730314
239571.42052148218,6.374110700462181,3.4293746082942302,-0.0903936179792129,5.30194420588013
239571.42052148218,47.93468769438829,22.55733969024636,-0.26848043528625887,-42.285680023666984
239571.42052148218,20.08117911301362,5.260385924307459,0.281969555416557,19.35853026489368
239571.42052148218,288.15854866103984,26.764468212725472,0.4271025223449671,-286.9112756541872
239571.42052148218,14.740569284985503,14.316789049833112,-0.22772474900294412,-3.3929606448398912
239571.42052148218,30.16298565806184,30.11196810721073,0.31264314213860256,-1.4924614350613652
239571.42052148218,52.11548412651809,37.416125134413576,0.40972601108025863,36.26485208316467
239571.42052148218,56.40582868445284,29.739894271521862,-0.38231333644608106,47.919308646536464
239571.42052148218,137.06788875611196,11.952895243968392,0.2774632764549671,-136.54269494859665
239571.42052148218,588.9877494303305,13.888032749393583,0.23233656751613893,588.8233076665932
239571.42052148218,17.52949205561254,10.574162504141324,-0.17655116594379838,-13.95310413851709
239571.42052148218,102.71730009795304,11.355637474439867,-0.09319080045379151,102.08395887105601
239571.42052148218,386.3654790261886,12.992691371149693,0.10218885858106697,-386.1459737170104
239571.42052148218,14.167241627150256,10.75490138917843,0.35866735644030695,9.174110066335311
239571.42052148218,22.224201468230962,14.630044347605887,-0.4882252995543045,-16.699960350108125
239571.42052148218,28.216144668788566,23.643206861771205,-0.06721685050035912,15.375148048302266
239571.42052148218,18.267456955305857,15.225417459050846,0.11972822439684234,10.055964315497983
239571.42052148218,7.945800429827182,6.981211552704556,0.35634702640936616,-3.6771664192009967
239571.42052148218,78.03478503903463,24.18241542903879,-0.23697576984457105,74.18781846732615
239571.42052148218,382.0006765408201,22.511886335625483,-0.5672960835815557,381.3353643877793
239571.42052148218,27.87679039470428,26.75982416793591,-0.3823804448963559,-7.75442742937829
239571.42052148218,268.3640343558434,13.615061558538205,0.34728917460739567,-268.01681762732994
239571.42052148218,136.92628076461088,20.569168892564146,-0.30460744703224835,-135.3693945312312
239571.42052148218,7.384374972908999,7.154318341926476,0.44164135683237404,1.5491229988410844
239571.42052148218,7.387839640568619,6.925367972477335,-0.29319783345048855,-2.4049104727008412
239571.42052148218,209.60563645340383,18.884380043412605,-0.42625418615277183,-208.7509794878384
239571.42052148218,34.867391731613466,10.914009735737721,0.03932716210873936,-33.10389640781026
239571.42052148218,119.23828388786436,8.329891153289427,0.021019783444184984,-118.94381414103341
239571.42052148218,107.33054509110497,18.562900530697195,-0.18111347039290762,-105.70942218034637
239571.42052148218,37.4376131127257,8.863517802660386,0.18745804172802052,36.36245169915457
239571.42052148218,28.49526380380279,9.54625211941778,-0.1307073324916465,-26.83434649222451
239571.42052148218,94.94208510666547,12.65317749602655,-0.3221812944310716,94.09061020749935
239571.42052148218,61.077817239550306,15.682739803361955,0.09765648111420382,-59.02365627924415
239571.42052148218,53.856316345412566,29.71074174320354,-0.14930805515182288,-44.91105040879346
239571.42052148218,45.702011992689634,14.584945398196774,0.24224140783048834,43.30294093202681
239571.42052148218,58.351679274035945,19.02546140657312,0.10508112582998043,55.15604551338548
239571.42052148218,19.650058337764825,16.754740483978544,0.0965252372637574,-10.229577372568553
239571.42052148218,10.328331459843401,9.646873112762863,-0.4466172451774199,3.558498177273384
239571.42052148218,103.35373136581688,34.05305945238593,-0.10140969448844546,97.57880277803311
239571.42052148218,70.33651886071934,22.178412887278423,0.46057698869597863,-66.74115568698161
239571.42052148218,29.685651220163876,18.101706242718684,0.5480777745813268,-23.505655416755573
239571.42052148218,13.78668319600401,12.270141714894791,0.37890881655512476,6.214723670672644
239571.42052148218,4.405593642718371,3.227867057042244,0.3342159639235447,2.851058688800465
239571.42052148218,302.4414465402363,28.48062671807659,0.15411926264094078,301.09617872151705
239571.42052148218,241.2001028727765,14.564541871879177,0.08161258737535332,240.75840004377116
239571.42052148218,36.431119980331275,30.124264244779283,-0.16400576931252323,20.468962240190415
239571.42052148218,281.3509874625931,36.51045834590105,-0.07103122392767593,278.9706250458359
239571.42052148218,252.09239650549,22.98466095642393,0.0470180699456578,251.04089235073084
239571.42052148218,1350.951308286401,28.78719490631469,-0.2684696933278941,-1350.6442584191213
239571.42052148218,19.32390043044356,14.618767120631583,-0.17163229542584088,-12.606562752166377
239571.42052148218,65.40684026747547,14.306319616880607,-0.41987851214947536,-63.815811372891346
239571.42052148218,13.303719432829578,4.4365137097470235,-0.15982776762826986,12.511229287566955
239571.42052148218,516.8056676827088,19.29597662500983,0.5416703169093473,-516.4443049687701
239571.42052148218,21.631883864765783,17.238987324424226,0.34759166691687565,-13.033994090486956
239571.42052148218,281.9742187225005,21.71126970003319,-0.0003100374516492288,281.135787295804
239571.42052148218,43.685550486771454,16.240513048575632,0.06231969788166406,-40.54527444545495
239571.42052148218,27.204789426054145,9.18477886473112,0.2648247932125734,-25.591412213895886
239571.42052148218,3.2035615323625057,1.3785498060760808,0.3558907509471049,-2.7360290656158446
239571.42052148218,54.11331049255173,24.578571668141873,0.32909904619100366,-48.20047704521008
239571.42052148218,5.4613699410041425,3.519898980844966,0.2267195758740322,4.078673483103257
239571.42052148218,942.3971120944327,34.255248795659746,-0.1562206021138497,-941.7739221890508
239571.42052148218,238.89319848828333,21.73749490212507,0.346529188554911,-237.90033968705177
239571.42052148218,361.674166579629,28.113875195329772,-0.35828243438772495,360.57861075307636
239571.42052148218,134.73960793789107,39.89212265065082,0.3205358173233855,128.69548500558423
239571.42052148218,140.65508582492194,9.604519077084252,-0.11813834095670732,140.32406255306745
239571.42052148218,606.2804054982578,17.957244797246133,-0.20173960565191246,-606.01375962754
239571.42052148218,207.49833451304588,12.79347589015782,-0.12043454358637375,207.1017175259714
239571.42052148218,225.34796872180002,8.276982951783904,0.4137849473080816,-225.19386636546147
239571.42052148218,26.165406323933443,9.823656806956022,-0.6197696217612176,-24.227881603688108
239571.42052148218,52.06437667430967,10.506461591175643,-0.35690895360350866,-50.98466735860002
239571.42052148218,91.87386769033832,12.770905328324195,-0.28004068583212416,-90.97737754541926
239571.42052148218,56.453958760881626,14.204035456418705,0.11351446033458336,-54.630870918795736
239571.42052148218,84.27026885771147,7.974257578549011,-0.44682601261160093,83.88647019804262
239571.42052148218,506.7685095804731,17.013570003921267,-0.26564924066293844,-506.48202364444023
239571.42052148218,678.6756335788399,7.863578844821213,0.05290976035971497,678.6295212030634
239571.42052148218,107.00504440332539,27.754259574089897,-0.37320050891943335,103.33872183737574
239571.42052148218,56.167253178423316,5.105988163582566,-0.41877356384471914,-55.92641548977896
239571.42052148218,30.06332254190381,24.02651554226394,-0.10850005410492852,-18.049051145277808
239571.42052148218,288.4462221220848,28.746022327027557,0.4226492939446257,-287.0086422580374
239571.42052148218,94.05522981817946,22.595290219923257,0.1417735691568879,-91.296599732048
239571.42052148218,403.6490483159997,50.98119365553772,0.07431494663342206,400.4156798671953
239571.42052148218,64.03569920664759,19.705138699498,-0.6250924922042341,60.91910740846986
239571.42052148218,39.408765937137204,20.603840974631623,0.01826707311229799,-33.582470761468706
239571.42052148218,34.56110003631159,11.068069699098176,0.047412246666483894,32.729426015214685
239571.42052148218,58.8861404276398,29.17963304148148,0.038019195361899676,-51.140739248858
239571.42052148218,40.99617036520118,14.73066972006888,-0.008162215981392489,-38.24844302634787
239571.42052148218,436.8974832900092,22.308753255660655,0.368423849445672,-436.3265346085885
239571.42052148218,31.85111997724673,15.171309515506035,-0.22798307656936345,-27.991486946162468
239571.42052148218,847.8373809421414,29.01945992585538,-0.0025495564310170226,-847.3401593033885
239571.42052148218,129.73194449817214,23.072122662736042,0.03401098195418782,-127.66089271470844
239571.42052148218,104.03687775993757,0.35564652568874383,-0.5852228315733337,104.03101974975097
239571.42052148218,153.86851637572494,11.81551023570988,-0.3773609755452058,153.4112830093713
239571.42052148218,84.27328281084861,27.77917081644457,0.04852406807906634,-79.55847922273016
239571.42052148218,105.84970925226145,33.441616391863185,0.4226463860253034,-100.4235565904277
239571.42052148218,2109.1251032040873,15.2644782044197,0.18813029269199882,-2109.06967912019
239571.42052148218,736.1271887843768,25.06852185781073,0.2801384232432213,735.6996526492782
239571.42052148218,6.835863969224215,3.2845690312988953,0.44203926486193174,-5.915686783746616
239571.42052148218,1495.4550416661284,28.243138817487942,-0.10147215195341344,-1495.1880639451783
239571.42052148218,175.4728062620034,31.130506297612826,0.09086210609131222,172.6871134901074
239571.42052148218,27.703931600132346,13.103482081292345,0.6401838880779692,-24.38538198163423
239571.42052148218,260.4089199987968,24.256032375178656,-0.0470861694813306,259.2753331838519
239571.42052148218,357.40716495281987,33.994638800979914,-0.09067691884783166,355.78573323905243
239571.42052148218,10.087861680830402,6.373744023310559,-0.44972510663423443,7.758105058327461
239571.42052148218,13.227506462514532,13.192153251232606,-0.05982918976690162,0.42490779071769125
239571.42052148218,65.94683474769568,7.191121659964918,-0.2961749702436071,65.54719802744559
239571.42052148218,627.4848237273516,13.04194607697693,-0.23065299873533474,627.3486339797159
239571.42052148218,18.716310576270292,16.015843977010846,0.2527637632104956,9.642574351394156
239571.42052148218,66.60935490750676,8.695797339515567,-0.17901276387899942,66.03338042691243
239571.42052148218,362.81870401132664,24.89197152497533,-0.26982945422571136,361.96267629753595
239571.42052148218,105.00815381927887,27.525282154228112,0.041355249784716226,101.33271735701891
239571.42052148218,78.29110883588967,7.048312453731308,0.06430080277198061,77.96835887759322
239571.42052148218,38.94207576200178,24.21261719875972,-0.01701777893942206,-30.48744413337588
239571.42052148218,21.861042089664835,17.346775576149227,-0.06934169556990441,-13.275535259897037
239571.42052148218,32.77336563042203,15.048497810019065,-0.2431983506462141,-29.100295004005137
239571.42052148218,104.85653833732619,17.40672407168974,0.13067057549233388,103.39793334845051
239571.42052148218,117.58286082187524,13.698494149416844,0.022384932144527844,-116.77897936855074
239571.42052148218,78.84196611683706,13.58550057449042,-0.27457753622068076,-77.65735321807145
239571.42052148218,81.97283832911464,13.613716281784317,-0.0576358388087394,-80.82981960385062
239571.42052148218,117.53920830851175,18.653991684862515,-0.1807923471026977,-116.04616109329397
239571.42052148218,125.14858520720507,18.344745675048937,0.18144389137299255,-123.79360189423292
239571.42052148218,79.88720367728988,16.505009443589497,-0.11116649015621764,78.15873414408648
239571.42052148218,513.0367926234838,28.04109722432458,-0.059851691949819145,512.2691616484183
239571.42052148218,308.2246960996675,22.672053235777366,0.30149997285298574,307.38835451578757
239571.42052148218,246.99151838249034,15.444424791858719,0.05102737135797519,-246.5066477770828
239571.42052148218,437.70381106425515,12.587295811224049,-0.05199284659407536,437.52192357346894
239571.42052148218,16.808160455690818,6.53652649212691,0.16955533587854027,15.459930034147979
239571.42052148218,36.62013878644125,30.426911006817477,0.059691333244241564,-20.358884906027342
239571.42052148218,11.849918132479942,10.539663779700778,-0.03147013085632867,5.346509435034076
239571.42052148218,32.932614534794205,7.012092288647164,-0.2451601160867867,32.16485138627284
239571.42052148218,227.9201052368673,6.724641398186916,0.26128013106930525,227.81908482015785
239571.42052148218,38.681371096565094,8.827695662238972,0.40667929204458403,37.64843924400047
239571.42052148218,202.45209453567958,10.319448609408772,0.11417714606580237,202.18703378854818
239571.42052148218,393.72241927895544,8.32622584772478,-0.4474528574984068,-393.6331633619013
239571.42052148218,37.868281259300026,35.84119004156477,0.09794168313607936,12.19247045168863
239571.42052148218,672.9666535117763,8.926902239339533,0.06470194662490288,672.9068829156507
239571.42052148218,75.38352139796886,14.061523073695302,0.10471535471921531,-74.05530371452917
239571.42052148218,419.2510562823143,3.6895111885910112,0.05154322489163981,419.2339241410126
239571.42052148218,106.85507917486154,12.494168364735055,-0.6072752386855856,-106.11684609653064
239571.42052148218,32.88454516000829,25.048143270202903,-0.45818847006205465,-21.284360426675267
239571.42052148218,76.88902918429457,12.616743514669494,0.10791810338239782,75.84180280044781
239571.42052148218,44.40447489413477,20.32699329488435,0.13022713329284188,-39.46902432868123
239571.42052148218,8.307317423519493,8.26136715358671,0.079884313626058,0.07113631906156201
239571.42052148218,21.155211531880756,13.39129151925247,-0.1668150104977112,-16.353549018729666
239571.42052148218,32.287555567354346,27.65001554775079,-0.16928508893872687,-16.64885382341683
239571.42052148218,817.0310321474487,26.52792887606354,-0.03377822843969962,-816.5997951547955
239571.42052148218,156.3154510945155,12.147184317441686,0.15618582698547848,-155.8402768105155
239571.42052148218,10.85447143295701,9.53403989006981,-0.4034111923978218,5.099901883761055
239571.42052148218,55.43572249729058,22.364191918064453,0.03523706672272006,50.716970664151674
239571.42052148218,395.3400767302837,66.0371947801953,-0.20286028314414656,389.78465096605
239571.42052148218,15.523283875769904,15.381159164466245,-0.040307802988442325,-1.908079316175363
239571.42052148218,13.506819698063264,7.507811688710135,-0.39739014652582527,-11.187454108286007
239571.42052148218,9.333727738054993,9.091204707750988,-0.14805052641664676,-1.9226694573522518
239571.42052148218,22.88161406366183,14.70098828120385,0.5756665759183383,-17.503368820268516
239571.42052148218,47.53329781767826,21.245910209177453,0.051945474517534715,-42.512034870446364
239571.42052148218,126.4448593811246,34.88466618438167,0.459377868020616,-121.53354107999037
239571.42052148218,105.45022386355454,9.939567467153772,0.09023148276103567,104.9771245370623
239571.42052148218,31.143531143366786,19.43577711384025,0.26012014019089247,-24.317741340888375
239571.42052148218,28.650044772116388,17.21440996582962,0.27620521504789947,22.883683532213606
239571.42052148218,6.455915270449951,6.095701637812019,-0.41048249722004304,-1.8981238084447336
239571.42052148218,138.4083404411169,19.02470088017567,0.05934515300439123,137.09185258281207
239571.42052148218,3075.2487597106856,35.85208937301891,-0.15421000953195685,-3075.039640088453
239571.42052148218,242.5433432506837,23.938049472736413,0.08950127208295826,241.35758790336962
239571.42052148218,291.43788981524193,29.493679120238276,0.18165369437544043,289.9403104437179
239571.42052148218,389.23789646947716,36.847220249442984,-0.3439842646856991,-387.48877943631965
239571.42052148218,31.886656007818953,14.87857874673888,0.22598532351606773,28.18839766326432
239571.42052148218,100.16884044949657,19.86915051242666,0.26397843501408913,-98.17430354551944
239571.42052148218,47.30418511807172,16.874877640073265,0.11485340017178419,-44.18327001665366
239571.42052148218,39.19163616048613,13.743862772364377,0.3449052051952588,36.69089434424396
239571.42052148218,97.85397431724753,16.357395040785196,0.2251272475393714,96.47297725909239
239571.42052148218,33.770170528112246,33.44922035627459,0.2833101933013949,4.55454901612033
239571.42052148218,17.73313470614735,11.40719649622832,-0.08840709343050523,-13.549251829504797
239571.42052148218,53.265984261754575,12.961753407016847,-0.4106149781592076,51.65597283644542
239571.42052148218,152.4352713407744,18.106318011936224,-0.041302617260554245,151.35363093507425
239571.42052148218,16.389868325053513,5.317618101155155,-0.334578711660475,-15.475428423125061
239571.42052148218,100.20407674371137,6.815496006225642,0.4698375718972053,99.96717145771133
239571.42052148218,2.794905256091068,2.510390761726122,-0.10612883535828382,-0.8650298462915088
239571.42052148218,313.89396127192106,11.942801960300027,-0.12435638854741976,-313.6654635852578
239571.42052148218,13.40111744347867,12.984261323876352,-0.00009627250903297836,-3.2014079634799124
239571.42052148218,432.96184251606985,21.16961252510846,-0.13943574044627544,432.4431005860446
239571.42052148218,11.295267547413609,7.981849249079203,-0.12555856912897007,-7.944022465291189
239571.42052148218,539.5863182042117,14.749128973246254,0.0074401556142276865,-539.3840079560222
239571.42052148218,42.1426764768278,12.20728174225873,-0.24621115424627746,-40.325884237223114
239571.42052148218,49.436001869245736,27.65166908526177,0.2821702240266928,40.96918310060165
239571.42052148218,10.721922930036976,0.6252559559602976,0.16625794187499388,-10.667293515913792
239571.42052148218,124.38021029840334,13.213447794585964,0.08945466377281178,-123.67329386520203
239571.42052148218,29.707342223656628,24.80081144816012,0.4199918241591112,16.325429449928897
239571.42052148218,15.94501526613472,13.968652820167138,-0.006554086553983527,7.640046702838876
239571.42052148218,31.033681073222507,18.49240580400822,0.0728886176948517,24.90712914276726
239571.42052148218,180.66038057294952,12.791333568480077,0.0009756616913271154,180.20489726891893
239571.42052148218,15.67741767134055,8.888353152446511,-0.26959489865395325,12.882392169949604
239571.42052148218,50.115571889050514,43.66200214580274,-0.09440281244097888,-24.58538811664796
239571.42052148218,52.10353167820848,11.94529920565088,-0.22772728249306656,50.707850347505996
239571.42052148218,55.283429881438565,11.94790149980919,0.1047442379811524,53.96984717601214
239571.42052148218,6.9685690933789015,3.4075988859758306,0.1525434734528692,6.014653928606606
239571.42052148218,49.36383617219134,49.124845685918054,-0.14001247284961152,4.771620356633252
239571.42052148218,35.66465173420567,11.090903722526717,-0.06864039183725584,33.88516833051202
239571.42052148218,82.31120109733924,15.011056796415247,0.5335598772470396,-80.92445501916902
239571.42052148218,42.34696201889746,28.595771498818685,-0.21990680624837947,31.22096718496343
239571.42052148218,321.0981486924297,20.99830201455172,0.1521328066185323,320.4096118535947
239571.42052148218,35.92815711813188,27.70767224193661,-0.3477718859561007,22.852713928648132
239571.42052148218,55.959138774974846,18.329228646866977,-0.054128925713334435,-52.865033491504285
239571.42052148218,55.58684600194308,24.7638788857642,0.45098729870069404,-49.756351029612794
239571.42052148218,7.7815202570698965,7.569415088412983,-0.1157086655390325,1.5788383659888043
239571.42052148218,101.04018665712456,17.97834231407654,0.27191522178675387,-99.4237129451889
239571.42052148218,89.39999579627424,25.984463669805677,0.2077676030793794,-85.53580440458964
239571.42052148218,87.97169217155596,18.60976503330595,0.06737870111562137,-85.9763969668041
239571.42052148218,87.98662957333205,26.50219660926,-0.4321197898912304,83.89483856231422
239571.42052148218,26.198230875938336,14.288600779112693,-0.2016215303756463,-21.940661884120583
239571.42052148218,11.219009881860034,8.12777377895726,0.06478022958254878,-7.68448996355172
239571.42052148218,134.2718839712797,14.812474195819407,-0.34202829034525106,133.44910099507712
239571.42052148218,22.910431187959485,19.11426619826705,0.31386954249690024,-12.59699476784084
239571.42052148218,61.12989084107677,32.58680359410662,0.25930741072654934,-51.71215187727667
239571.42052148218,175.82777135381673,31.77704332694398,0.5092751694030024,172.9295100374719
239571.42052148218,19.412548784948484,15.13706121687215,0.006953109637739205,12.122973482180036
239571.42052148218,32.89468455937864,4.142254093538954,-0.17735403660559115,-32.62086226913671
239571.42052148218,49.466588933153105,5.375234059428919,-0.4662304359393968,-49.16383848947527
239571.42052148218,43.030300694021186,5.259315271237655,-0.03820776316840559,-42.69888789199486
239571.42052148218,9.377101412018053,4.650266018641071,-0.12651292312820972,-8.095625836099925
239571.42052148218,66.86485931655865,18.575631587334748,0.09165949330470496,-64.22691824650147
239571.42052148218,68.67568112523035,23.756713787881736,-0.038471480375375816,-64.42993368234124
239571.42052148218,67.53064893908768,5.527037114267686,-0.20661207744729101,-67.29820075360091
239571.42052148218,114.55670838896047,19.744044847100792,0.07550406231258854,-112.83907362025036
239571.42052148218,53.76106320107452,25.17357790686181,-0.1673276132777968,47.494894459274526
239571.42052148218,5.5449725256173465,5.33170131961741,0.07020040210762646,1.2509434849301255
239571.42052148218,21.477662653134473,10.477522637707349,-0.4666481586291336,-18.72281651528235
239571.42052148218,77.58805028561709,8.591796121014605,0.23812695225168365,77.1056417419872
239571.42052148218,24.176461596258914,11.197642150049353,-0.49710650772961784,21.403670177460153
239571.42052148218,209.36143709964324,13.048415466084082,-0.06566711329316591,-208.95261662021187
239571.42052148218,1680.9053886925642,19.0119275035714,0.33247939433786255,1680.7976118236552
239571.42052148218,216.0927720874135,12.502487329165524,0.014911969929714207,215.72905192159624
239571.42052148218,57.85730217842031,14.512638217293475,-0.36641176147037124,55.999701750194646
239571.42052148218,78.96986609489655,15.653231101928789,0.1754487397212615,-77.3979032739643
239571.42052148218,264.957278663931,12.785914739777308,0.5617833874667543,-264.6465839700928
239571.42052148218,9.553608100971196,9.449154950746927,0.25925766253960153,-1.0806434559260505
239571.42052148218,77.93132271256142,24.198916390770265,-0.4726207525853382,74.07246614779899
239571.42052148218,109.24297208866929,34.46529331978073,0.40652955076829567,103.65932349394487
239571.42052148218,147.91246199127545,34.68050555353974,0.012658198763184214,143.78667842673087
239571.42052148218,74.02035884432031,31.91796174761789,-0.4435892961393442,-66.77806957532243
239571.42052148218,52.917955851126344,16.132380693911642,0.11968378993025632,-50.39138941078717
239571.42052148218,300.70414455352875,20.205244519420024,0.31919796448707866,-300.0231305492797
239571.42052148218,220.76849457308342,27.493568181004424,-0.14596731599952673,219.04807852303887
239571.42052148218,66.7164661237451,46.61314187808254,-0.2699654829849043,-47.722940828109905
239571.42052148218,34.88655358590871,10.877007992450832,-0.1615671670222659,-33.135876639012956
239571.42052148218,25.967156617671407,15.855819868486488,0.031418129116110076,20.54593191745392
239571.42052148218,28.04421208855823,23.6564765391757,-0.24215296781232148,15.034640591326053
239571.42052148218,149.37295508195004,18.49246405428459,-0.12513795245996412,-148.2212634204648
239571.42052148218,22.310761559262712,22.285786210781463,0.253125053912108,-0.5475841299778572
239571.42052148218,14.713759337347096,14.567350119732184,-0.16390266297169492,-1.8735705469189905
239571.42052148218,77.29800570206226,7.3547062176258144,-0.39141243534189585,-76.94145101715088
239571.42052148218,20.731668128726263,12.585920353216913,-0.20520470164516447,-16.4500659464712
239571.42052148218,23.54025007872079,22.93301980087744,-0.3552573019793401,5.229137135452808
239571.42052148218,16.693275006259725,16.6477718905397,-0.27280512538126617,-0.8323492232479027
239571.42052148218,752.7238439184777,18.248695864097343,0.30618962245876785,-752.502044287545
239571.42052148218,48.624347531692564,33.951097653190104,0.16271731081017854,-34.797611562488484
239571.42052148218,28.558913017184878,6.366164625577277,-0.4357173873521825,-27.823438274092638
239571.42052148218,536.1707573056664,15.205347911860075,-0.2118316996805982,535.9543671044139
239571.42052148218,202.19391601954618,16.391092628334256,-0.2837743257206482,201.5263787603286
239571.42052148218,158.0682415908957,19.289726822354186,-0.24600516180603654,-156.88424084836495
239571.42052148218,29.87379679048805,9.0772467479835,-0.4112851431578594,-28.445180207502972
239571.42052148218,56.298932549020286,13.183177795581067,0.15428782947815994,54.726592539510555
239571.42052148218,179.81733479971663,24.80630877318144,0.27065202257644894,-178.0957545629776
239571.42052148218,193.76190209737857,21.953399373932488,-0.4988803262025533,-192.5116209092157
239571.42052148218,50.68906771980546,12.732876585814559,-0.22559194444041364,49.05562816618238
239571.42052148218,28.98379287663926,28.895634740781723,0.2295118553596055,-2.0736376496886204
239571.42052148218,17.170942397094063,7.000842970929641,0.3323587764799173,-15.65148889068092
239571.42052148218,16.292268322008695,6.829246925121184,-0.01703752717369339,14.766489413040008
239571.42052148218,18.53767233338818,6.070848246932746,-0.34756552721464445,17.49055178254177
239571.42052148218,17.080363001369395,9.399958507095246,-0.022536044205466975,14.234787627528966
239571.42052148218,34.19757022836821,6.832542495873376,0.01635019581792036,-33.496865697973305
239571.42052148218,7.693257639216374,7.3219702787105625,0.5938770807083794,-2.114800393595943
239571.42052148218,32.904175298146825,20.602183334212036,-0.09848660497869015,-25.64127923201249
239571.42052148218,21.75498832787806,14.637991225823658,0.016058855698847786,-16.070425584989266
239571.42052148218,21.00315074931239,7.3609121753341675,-0.4618570814702509,-19.646529152304698
239571.42052148218,30.360845023006917,17.27951870969665,-0.1386855831608572,-24.948547379196548
239571.42052148218,23.464638940732907,15.634994594025189,-0.05036572548360083,-17.47523374115959
239571.42052148218,39.897569312987635,11.888563854757624,-0.28097355697233833,38.07425963517858
239571.42052148218,683.5978112738231,23.659657101301686,-0.2942011106524146,683.1876402250465
239571.42052148218,172.36328603812566,17.475007975965674,-0.048470470060506504,171.47295479773155
239571.42052148218,337.88008210990387,21.480898001267047,0.28414483403670143,337.1953295579856
239571.42052148218,54.77250744646163,11.09824841981734,-0.050583131355875194,53.62932035446882
239571.42052148218,7.176571007326811,5.72960423724861,0.0042765664703670265,4.233780198521147
239571.42052148218,9.857890207985406,9.750396662096048,0.14989777196244244,1.15559564430881
239571.42052148218,25.507547456591254,25.34737906586476,-0.5671126229475103,-2.659669409008201
239571.42052148218,126.64823494393116,18.887235851910503,-0.2508400277614895,-125.22873041725956
239571.42052148218,14.06153129518497,2.684529070934052,0.1850941946602248,13.774462331524347
239571.42052148218,70.1883885389622,24.155023902197794,0.4780206904514643,65.89359838824085
239571.42052148218,46.62601349684992,8.006992892739415,-0.3019369207674886,-45.92419993718599
239571.42052148218,30.88110960840061,30.8012336867904,-0.40452944065212904,-2.0033462756424902
239571.42052148218,7.3412571183111375,7.115821105560989,-0.09741954583943596,-1.5810635197863385
239571.42052148218,14.491582727146856,7.27409134945924,0.5488134800171051,-12.491696245599268
239571.42052148218,35.62589210855633,6.5785410282657715,-0.11067953806356813,35.00235481879008
239571.42052148218,8.571168511696747,8.194656062223157,0.3508959709459792,-2.3322778663892114
239571.42052148218,205.97497000269578,8.250261732313486,0.02345112138206686,205.80784971753474
239571.42052148218,45.58848520647496,16.532173392666326,0.07716309374065902,-42.47636258607214
239571.42052148218,118.04066129996494,8.44959144038602,-0.08346296535826146,-117.73463918876088
239571.42052148218,18.63856573105969,18.008110804421325,0.5659507078479245,4.694026407436066
239571.42052148218,643.8603503420844,10.635241899066017,0.08072907957184877,-643.7719207619625
239571.42052148218,156.19846394786077,11.14120332447722,-0.10163223579759299,-155.79818197075724
239571.42052148218,302.8457857928842,27.28081752752449,-0.37018475229081466,301.61306343913435
239571.42052148218,649.525567566758,9.996348678432966,-0.1836513047223007,649.4480366546408
239571.42052148218,539.4499839544947,31.369673171689183,0.4114838526894687,538.5362657992455
239571.42052148218,38.395991065862574,25.654979812850605,-0.16107659373865357,28.553428890654803
239571.42052148218,325.5959189514556,20.56415514928435,-0.4301966464710462,324.9444306308927
239571.42052148218,40.220556748475786,3.1773342829743374,-0.5642377478718225,40.08153532645896
239571.42052148218,81.90730100621332,20.77219004495477,-0.31880813752375176,79.22417905274165
239571.42052148218,69.18430829557488,7.867421362826189,-0.1767557496584544,68.72984111135835
239571.42052148218,43.56119891089338,4.175684213946446,0.010307489966291723,43.35195165164047
239571.42052148218,45.44610119380719,7.04827883667282,-0.19733472544583575,-44.887426352098984
239571.42052148218,21.478388330886034,12.056589186255433,-0.32036674455622144,-17.75126175757364
239571.42052148218,228.75923457982347,18.159007667064074,-0.34394245711954446,228.03545701498066
239571.42052148218,5.979873035838213,4.837991920576485,-0.23622262229242136,3.398090776392366
239571.42052148218,3.46761963833371,3.2793919365262556,0.4790266890214284,0.5390865094892994
239571.42052148218,29.118473976717787,23.90008777935975,0.25033609589195605,16.60899663018472
239571.42052148218,96.42341425613981,8.68572813736583,0.2740416380584539,96.02712091417833
239571.42052148218,18.21365499427476,16.987172970709103,-0.08055591580266644,6.5128181157478435
239571.42052148218,61.08143419497063,19.471502732378625,0.15750928700244332,57.88805992458817
239571.42052148218,19.936281171645295,18.643153860798797,-0.06087099115253448,7.009602139253104
239571.42052148218,72.73136300402349,21.434000963529094,0.602071245706453,69.49332618089501
239571.42052148218,7.245765389616782,6.825274469341011,0.1605913563090767,-2.267390849966771
239571.42052148218,285.02647564880715,11.876318942009046,-0.09327920035352405,-284.77760845001353
239571.42052148218,358.7737435591935,38.84651535268122,0.3758737136267492,-356.6632250985992
239571.42052148218,20.467194063112103,20.26780819323828,-0.2576415793859964,-2.702907883459976
239571.42052148218,315.4853216640731,6.278102004039379,0.34010666420297964,315.4214768441081
239571.42052148218,4.989511835049632,4.872944899621736,-0.6322311837381394,0.00514182496076919
239571.42052148218,20.114751553073873,18.950033655813737,0.24063641099664812,-6.685181744262552
239571.42052148218,75.70450441224152,23.20763008113831,0.05199983799610494,72.05432184600511
239571.42052148218,80.62337011622996,26.912090873905843,0.2797340047382337,-75.99367755892945
239571.42052148218,274.19180782517566,6.100225765214727,0.3062522937649833,-274.122401565313
239571.42052148218,145.1929091001295,19.712601474126032,-0.32729784237144116,-143.84553235521025
239571.42052148218,43.78084131029231,9.719672925530586,0.186063379723125,42.679099226988555
239571.42052148218,24.002311326739893,23.66880729145728,0.26361135828311066,-3.883185010798845
239571.42052148218,108.91513211345088,20.848855523769565,-0.42213909208194506,106.89669373548034
239571.42052148218,161.47602746166424,28.754692611877438,0.12331984630854584,158.89276256696775
239571.42052148218,108.27914560926828,25.337068443539927,0.009343743989970024,105.26944644865216
239571.42052148218,4.726000186115681,4.622015954537642,0.2009822895801932,-0.426331731336112
239571.42052148218,598.5233020205303,8.292129763861045,-0.4490881995205849,-598.4650633676772
239571.42052148218,680.2643822352597,66.6900042033099,-0.4127969720313139,-676.9868187655449
239571.42052148218,98.75201118685595,17.340232770939668,-0.3943456323034529,97.21301681756174
239571.42052148218,24.397119010654954,23.549314535705385,0.29243054200009355,6.309817085089383
239571.42052148218,20.650485303111715,19.15217863786411,-0.03220596471987625,-7.673699616476732
239571.42052148218,303.9933248087975,31.37267500003533,-0.17281443371959954,302.368842695757
239571.42052148218,72.9111930571313,8.646197371231397,-0.5635212481345229,72.38934931456139
239571.42052148218,8.096403373850714,8.022385747542799,0.4986843785152454,-0.44101559048664163
239571.42052148218,17.20300464465206,16.410828172993504,0.33552897744658966,-5.075984055963997
239571.42052148218,139.58918831445845,12.511116574780868,0.17558741060484473,139.0245759991863
239571.42052148218,928.2927631875182,12.537288432493432,0.5738701892031848,-928.207515248845
239571.42052148218,73.3721235820628,22.43470317037086,0.12875903463845628,69.85260295837624
239571.42052148218,17.00992352378591,8.734729220717725,0.017691579402889904,-14.57023668594671
239571.42052148218,23.90990169687113,23.295009093893015,0.5724836093517234,5.286617003075841
239571.42052148218,61.408794387480505,16.769911742789933,-0.22694648080050545,59.06783126125802
239571.42052148218,358.83576433824044,7.936010556144806,-0.23293204740216278,-358.7468764375154
239571.42052148218,56.18399230397218,19.395850020144096,-0.0825642845663566,-52.722720744461775
239571.42052148218,28.690090548988334,18.90568465668141,-0.10162092489103272,21.562378414952242
239571.42052148218,128.00071771969417,11.83564021721485,-0.6012027388156359,-127.447989466382
239571.42052148218,105.48409715505878,34.334208814261984,0.1962341147393159,99.73599378478892
239571.42052148218,570.1016901617252,14.64923403109952,-0.39128527382215955,569.912654772416
239571.42052148218,48.033425905790914,14.570380698518147,-0.11738265682571461,45.76188739781104
239571.42052148218,196.5927100979422,23.79380135891937,-0.023773271820609707,-195.1455821219842
239571.42052148218,124.04730762022245,23.744103580864103,-0.07990478330534266,-121.75054740962607
239571.42052148218,5.453158859033058,5.269453612556099,-0.23092437003209995,-1.0800835398243436
239571.42052148218,132.28893434237497,23.277457718528403,-0.20881840282359837,130.22184383899912
239571.42052148218,738.9029835261658,31.960396525404867,0.5261579872231991,738.2107594596082
239571.42052148218,432.12521075239636,19.813906879150558,-0.49211024154374744,-431.6695666778563
239571.42052148218,60.45223397843536,2.5945451151227754,0.11985365507287375,60.39020342804913
239571.42052148218,73.07793244820695,8.91096850379958,-0.18695889888799574,72.52719492679847
239571.42052148218,55.463384762091785,18.85577535509726,0.2625089071605851,-52.15197005339594
239571.42052148218,24.741157719303445,7.821882261018651,-0.11123687588875562,23.455932637487606
239571.42052148218,127.52910876858664,20.58311809774926,0.5233550795624363,-125.85302951655754
239571.42052148218,28.021383308249153,27.202823028230767,0.15187127516669416,-6.665687006533168
239571.42052148218,78.36093324638988,31.894773948924136,-0.3753270858817177,-71.57002507978817
239571.42052148218,16.097311851394554,10.784464185243946,-0.12663196541614444,-11.918592692691409
239571.42052148218,250.45433104511315,13.517190871377267,0.012371994945433364,250.08779946947885
239571.42052148218,18.51198804397067,18.093639320186156,-0.4838600550823418,3.7854858722397164
239571.42052148218,691.22974979535,10.213105589545592,-0.5580960481312482,-691.1535271641973
239571.42052148218,40.454409723096205,21.663458481384865,-0.47916699066077106,-34.15075896689881
239571.42052148218,32.78606311159622,15.463600156088514,-0.3128845256703978,28.89559160485367
239571.42052148218,37.494838234612594,23.011703922774448,-0.4662732744604529,-29.586433924935285
239571.42052148218,17.715476566264662,3.0548019139661298,0.14244698282763252,-17.4280265791652
239571.42052148218,559.3223248200733,8.904374716217935,-0.2841276290924839,-559.2506991778248
239571.42052148218,90.11580464992102,4.274118877591035,0.0580226330416885,90.01020439510015
239571.42052148218,9.606224220505188,8.678537438694892,-0.2392423706817328,-4.019378202976945
239571.42052148218,105.04738635188572,10.31243564449727,-0.4230463120357301,-104.53553553031155
239571.42052148218,94.70319646735375,28.12688445725874,0.14978405562093317,-90.42566816424197
239571.42052148218,180.00132455706472,24.009736607899633,0.039608107267729405,-178.39074507346385
239571.42052148218,360.3713999916539,24.348834396394803,0.08250661611112639,-359.5468307390436
239571.42052148218,813.224282076725,18.97945714451334,0.48254381435809596,-813.0021712292792
239571.42052148218,99.97519696794677,29.101392287934267,-0.04721520931360032,95.64202451202209
239571.42052148218,19.51314500216458,13.307493208459833,-0.4690997299414178,-14.237398083089792
239571.42052148218,24.278191417831287,13.880915465955828,0.00929517832690251,-19.8997684483566
239571.42052148218,201.1553022026069,15.012890759055223,0.44693558185437837,200.59192174715105
239571.42052148218,40.9563128895217,33.81405065402676,-0.1460939244166591,-23.09238633808264
239571.42052148218,123.11722513166691,26.580938854338626,0.1691106771614126,120.21034199133217
239571.42052148218,179.08901822064897,50.43310967741644,-0.4246328573235241,171.83843484153596
239571.42052148218,13.826381902514717,12.200593638583255,-0.2291264921384718,6.442977477971858
239571.42052148218,12.649890210370536,10.773414683343685,-0.5812707672315288,-6.547174126370028
239571.42052148218,54.132624480391584,13.177524935018777,0.1718441001520567,-52.49680414728114
239571.42052148218,348.9354053822827,18.436365682863997,0.2655051743892664,-348.4468354900912
239571.42052148218,29.426985061413347,13.496315700934414,-0.43893481697268416,-26.13148206440861
239571.42052148218,204.3824088610557,42.59276055774255,0.004359108881450345,199.89316118183584
239571.42052148218,90.20104789000303,19.113434715930726,-0.2971597584182341,-88.14798611564053
239571.42052148218,8.806012842923476,6.890707749307342,-0.011242164754782687,5.4142394542358945
239571.42052148218,122.62353796224924,21.929006917746996,0.023736816068641302,120.64369134312349
239571.42052148218,39.206011037540755,16.996401610722668,-0.2913687871079741,35.31853400614746
239571.42052148218,17.971982514895114,11.75907046149706,0.16327953143242818,-13.56244312587383
239571.42052148218,19.238772852841944,9.212309738588598,-0.15096473546257555,16.866862368647716
239571.42052148218,11.565255969680479,7.383005250178396,-0.03243046383353229,-8.859764880389758
239571.42052148218,33.188455026134434,16.03779291133926,0.06855998846256707,-29.043211796105304
239571.42052148218,575.014952558178,8.951954361891481,-0.12603753947628274,574.9445994176097
239571.42052148218,23.26771554161646,20.969827350588364,-0.20890885079161448,-10.042877618235794
239571.42052148218,29.401499521805707,10.882192466702884,0.023637912108730775,-27.299736424518663
239571.42052148218,140.42907373190272,18.568178649747175,-0.532534624855034,-139.19236331083425
239571.42052148218,520.147608129678,26.81012105477064,-0.29275444841450154,-519.4554033343356
239571.42052148218,107.59757371316408,13.639399034325299,0.16970989570812206,-106.72593858966165
239571.42052148218,117.91286836346161,25.52194910511771,-0.053019227526605366,-115.1143863072163
239571.42052148218,33.54385266355171,15.932279762907582,0.056420352832234184,-29.505922052445687
239571.42052148218,2.8692420316274436,2.6585263155469936,0.2589353222917477,-0.5897851432304593
239571.42052148218,62.23589840061991,16.35925048113215,0.09691172300532365,-60.041008385073866
239571.42052148218,16.628752727393117,14.69920871511943,-0.06679028521983692,-7.726210314678543
239571.42052148218,13.263627182164077,12.342594150826027,0.16200951989482268,-4.7757758449915135
239571.42052148218,80.16913321699386,9.543357394421635,0.06067373322209462,-79.59435077601452
239571.42052148218,5.845536349066213,1.333527609017171,0.15966978457925898,5.622865037935706
239571.42052148218,13.448251403192407,11.803163398991764,-0.17522693611489043,-6.384371656767134
239571.42052148218,39.700388312061826,39.68892107277236,0.399886951092904,-0.023937100724188476
239571.42052148218,60.549868327346616,28.777970040773717,0.30101192015560224,53.26607262569647
239571.42052148218,9.718365822172466,7.718483841340873,0.16669365967320673,5.839003426875046
239571.42052148218,365.7138794271019,9.753453551141634,-0.09938348936532902,365.5827566758575
239571.42052148218,16.441786234440364,11.457753146180018,-0.21216337196043583,11.758287310426503
239571.42052148218,69.13554453676724,27.784696367438283,-0.614333044993736,63.29776352625045
239571.42052148218,18.121686775894364,17.74520312132847,-0.13817366219852167,-3.568516803406946
239571.42052148218,46.116476698111576,11.434849751237532,0.44828627765877643,-44.665677874382
239571.42052148218,31.605878476739935,20.331425799046187,-0.4537005935556559,24.178687751539428
239571.42052148218,119.3857650316667,12.02077442180834,-0.24217322234775646,-118.77564284388204
239571.42052148218,31.675262160505095,23.628164571138676,-0.42828566856195727,21.07365060146725
239571.42052148218,63.63313806714238,12.801332003682342,0.3154020665031429,62.32537835497393
239571.42052148218,27.934901844029653,12.29650039152855,0.4016231705857064,25.064788535638233
239571.42052148218,109.02543892218301,36.43631186977713,0.39394387362967404,102.75230617401311
239571.42052148218,80.36795948825016,24.63779255162554,0.036022489423306436,-76.49337813967325
239571.42052148218,52.10528764160558,38.699345636150035,-0.5547570659318323,34.874976680949246
239571.42052148218,20.97536696997989,18.402292610902762,-0.03881268649099008,10.028471773610796
239571.42052148218,61.25832672797989,8.622408001427557,0.5807984155953692,-60.63950406558417
239571.42052148218,29.557877366458698,12.07321095455281,-0.1701366007707285,-26.96528975452071
239571.42052148218,74.71967049502891,15.170421039691465,-0.16595569029882404,-73.15811677062048
239571.42052148218,106.10789164857377,36.40067982551709,0.3382603328893519,99.66449149342792
239571.42052148218,52.82029295631766,17.425319303222953,-0.13041502865828913,49.85553824243552
239571.42052148218,57.56380559167955,15.139582189681958,-0.38291855200152847,55.529165715430835
239571.42052148218,190.73048053641662,16.577182477389346,0.1679416923040046,-190.0066712742014
239571.42052148218,107.1727327503858,22.47818710156918,-0.17544489942267724,-104.78523309727585
239571.42052148218,25.399894689952756,16.932689263436657,-0.01059416703541992,18.912659217648798
239571.42052148218,141.53337776217955,14.864289566913817,-0.42283294489572143,140.74736670749536
239571.42052148218,195.04049042617245,26.989946401266486,0.006822297358208783,193.162071221929
239571.42052148218,28.080186596327128,27.213337684730927,0.40288237461515386,6.8570345984457
239571.42052148218,317.9114262422857,53.38943621187704,-0.5720492884201513,313.39458499205836
239571.42052148218,46.486212940544306,37.109854896235625,0.36471406786793237,27.981132091703678
239571.42052148218,22.87759408264923,4.886306389120847,0.03492928821511219,-22.332872792760732
239571.42052148218,111.268938045269,23.125323873423262,-0.26118027984028164,-108.83555421223026
239571.42052148218,104.482684931451,24.508926132231856,0.4627844102602936,-101.56268964176749
239571.42052148218,172.57103448224478,17.556845877337004,-0.35885628029455213,171.67306263252937
239571.42052148218,218.08649967791501,18.316437304411178,0.41533996068426904,217.31384462409795
239571.42052148218,658.9699389543345,21.576394286236734,-0.06482311714592477,-658.616038036881
239571.42052148218,151.18849592011443,15.556997027440573,0.04247170671293561,-150.38347463926843
239571.42052148218,49.78945046765848,8.143363725651515,0.47234160343546955,-49.10908271250369
239571.42052148218,726.4895502885882,17.932600362228847,0.06619179339098502,-726.2676739658466
239571.42052148218,204.33927297532534,11.990172695042428,0.13971157261013822,-203.9853054164803
239571.42052148218,29.92441749431948,28.305134884981438,-0.3189997358017879,-9.666356450938638
239571.42052148218,8.618216160456248,4.83875991697217,0.580551536392731,-7.0550066278174945
239571.42052148218,21.275524548223,20.535461663041847,-0.25779929198587653,-5.488752587203564
239571.42052148218,22.112016652775864,21.947739014545476,0.15156363015508914,2.5426693490805086
239571.42052148218,27.894666420061878,21.350619126085284,-0.044135686122369996,-17.930745550904554
239571.42052148218,1.4296820328921902,0.9166558939753482,-0.6320911217945601,-0.23302328567655112
239571.42052148218,19.252329217923915,14.393620548586755,0.18737128008192813,-12.755032974192282
239571.42052148218,52.71382338404514,14.744471717246089,-0.47154114488831794,50.6001530120514
239571.42052148218,108.98822624340809,0.6919329355117101,-0.07894117445543943,108.9825608211641
239571.42052148218,205.68292102299418,34.8851010145455,-0.02449302556702961,202.70111798951336
239571.42052148218,59.68677836493559,21.777223981121544,0.28230086599771576,55.56468698582555
239571.42052148218,15.909015617459408,14.639741468432668,0.4563907272547789,6.149517176884711
239571.42052148218,445.17451880217845,24.96691796317557,0.530367310976813,444.47269209146845
239571.42052148218,34.23219071473136,12.445397150298803,0.3666174851410564,-31.875863421582274
239571.42052148218,19.667919831222928,10.921673510751297,-0.3860272463652234,16.32927455607668
239571.42052148218,411.2184598219722,20.21712551841418,-0.03944976909604193,410.7202674378197
239571.42052148218,101.14208453742918,12.4750220195986,-0.05887875499763969,-100.3660387273998
239571.42052148218,42.808438285982476,14.58127766779964,-0.011152178671292763,40.239268284089256
239571.42052148218,8.247689826248159,7.267505770839742,0.03199960733197125,-3.802213791548688
239571.42052148218,36.29045971783209,12.648068506945602,-0.162756145584843,34.00363872239238
239571.42052148218,16.597116573440154,16.04379553865562,0.3424335618129962,4.146534561850897
239571.42052148218,18.31177375323847,7.536475256293459,0.28047546346692576,-16.664154300958902
239571.42052148218,16.64017260671923,16.317472979252507,-0.3953464716757346,-3.119170958894508
239571.42052148218,231.99218608323054,63.30100449363185,0.3960602735391469,-223.1870302602369
239571.42052148218,33.5610149675189,28.281368787763668,0.5813655030712084,18.03934659689972
239571.42052148218,143.56270839189165,45.97351917468917,-0.10279455472845841,-135.99972909950972
239571.42052148218,19.24694557962917,19.069644304827737,0.355208698470582,-2.432593957855006
239571.42052148218,16.082815530541115,11.474194182303501,0.2276922352313831,-11.233792140364997
239571.42052148218,101.4248926529945,13.853371594932947,0.08510434960990261,100.47057185427255
239571.42052148218,31.139677298077526,11.667659465770726,-0.6243461836497479,-28.851438837827168
239571.42052148218,401.3748966273148,18.62546407535615,-0.19721099447697557,-400.94153058113045
239571.42052148218,21.41555293016836,21.397084298743167,-0.12259197739617157,-0.16052530985288205
239571.42052148218,571.4117025557406,26.48357795865926,-0.2821264321480419,-570.7969204780144
239571.42052148218,11.577122978189584,4.475471517508561,0.3253487685821666,-10.636925574506053
239571.42052148218,63.22519553186983,11.48691713805409,0.136630131132874,-62.16677185816086
239571.42052148218,18.717673404591398,18.667783517727646,-0.12116547778128231,1.049086027884377
239571.42052148218,2.19942492461551,0.06803811603215719,-0.12102098189261493,-2.0170029961386975
239571.42052148218,100.38844376619483,36.204559823107196,-0.38372954170277956,93.62783959807597
239571.42052148218,385.2715210140032,6.871870847850326,0.3323027514214975,385.20911460754155
239571.42052148218,93.42257384819065,77.05117801774955,0.11497366657118678,-52.821682649309864
239571.42052148218,13.32099812412725,11.634053683374384,0.22847926988935707,-6.426172226862538
239571.42052148218,40.08317242859273,19.02705930079721,-0.1346726117957905,35.268451850663624
239571.42052148218,266.24996883370306,18.857134614350958,0.0455147941372482,265.57993601331845
239571.42052148218,508.473393204452,36.552512994196555,0.14711573149019477,507.1571096356341
239571.42052148218,476.8119361307523,34.44484785010526,-0.22593401199161875,-475.56532038565706
239571.42052148218,38.01301273492581,19.811833150841558,0.016873004901880366,32.43039047007076
239571.42052148218,40.309740601962496,28.991676223573016,-0.08439253567080662,-27.992871974766036
239571.42052148218,56.003858496331716,10.467102528340916,0.026477466892123578,-55.01019302304616
239571.42052148218,52.69276446424936,15.894000560835332,0.30414188089515637,-50.23012818144123
239571.42052148218,672.7180677886399,43.39280354864984,0.08684566324923931,-671.316546715222
239571.42052148218,51.84931344176755,38.06064073448631,0.03441565886444838,35.199259270276514
239571.42052148218,72.18026679501102,17.622144754959507,-0.1017144058729863,-69.99064715634917
239571.42052148218,151.36087277733836,27.05111694469044,0.01532354424611944,148.92145833123575
239571.42052148218,6.651463471592647,4.060789901281475,0.3491154440244202,5.184609575371064
239571.42052148218,22.087466634188544,21.88873491438123,-0.36274558309562527,-2.8032103304941014
239571.42052148218,45.101103250717124,22.22122865570871,0.2949170963704566,-39.23633063526111
239571.42052148218,13.259585605807292,13.193686653699636,-0.012812913740257137,-0.9965867256117509
239571.42052148218,168.41553709527744,11.24924971884255,0.21942973641015018,-168.03704791740236
239571.42052148218,22.42599386200674,22.367828100875467,-0.28961556432565827,1.331050684254444
239571.42052148218,10.908265678858605,10.288078332926936,-0.148956969404485,-3.517616026244732
239571.42052148218,367.9165234238436,30.568796127947742,-0.07199738488116117,-366.64337145829177
239571.42052148218,405.9391928700592,8.10488182134377,0.2285637103430395,-405.8572865720635
239571.42052148218,120.82879124311637,22.206253614181264,0.07813892765444787,-118.76751700003646
239571.42052148218,908.0034125952084,19.873417271799386,0.091951964718208,907.7854846943036
239571.42052148218,32.17468328183004,20.660803036106937,0.3730426368422639,24.64654961107274
239571.42052148218,13.816154661044802,11.002806096204116,-0.3506813741664432,8.303704989446596
239571.42052148218,950.8814991116707,17.921656753460482,-0.279368682970261,950.7121602417628
239571.42052148218,66.51071895307453,13.86062169503417,-0.16419349821845394,65.04446209115626
239571.42052148218,34.17838127803732,25.588386622935225,0.5179906503465895,-22.635768351415393
239571.42052148218,96.33395945995595,62.146275834563255,0.4159774669619554,-73.60128541149604
239571.42052148218,340.7807280748981,19.45340896406076,-0.2583619150989496,-340.22382759355077
239571.42052148218,34.96575905826347,32.17514585327406,0.09930447534231832,13.660327258633155
239571.42052148218,18.737476260333644,3.1728741278984964,-0.08409026063236329,-18.446379632704353
239571.42052148218,37.98723656534403,36.85141066005626,-0.22591459619787863,-9.176205271310714
239571.42052148218,122.32211688832382,23.767217206454415,0.10043924133993677,-119.98774806042273
239571.42052148218,30.73793716425705,30.725001505769313,-0.04659820566443076,-0.20736089848610761
239571.42052148218,114.93914823484755,19.259696120691135,0.3309011128193059,113.31024893227944
239571.42052148218,131.2933505665853,18.281026762086817,-0.3688384495917834,130.01100733427512
239571.42052148218,193.28711002096207,17.002969405061215,-0.46718110607538554,-192.5352896999168
239571.42052148218,9.062675588997655,5.88145560648038,-0.12611340407519006,-6.839208327023752
239571.42052148218,35.133636853788865,4.535655895203655,0.2531038515973288,34.827952982700936
239571.42052148218,17.255259936970184,15.626467889219736,0.3750956150170857,-7.257196871374766
239571.42052148218,210.50336240403885,25.379514329697358,-0.0015826682639870683,208.96601623144534
239571.42052148218,228.50400910549624,7.202610732210754,0.42131536332625796,228.3884348552708
239571.42052148218,153.94346564691816,27.836773052397508,0.07598265742587298,-151.40326619462232
239571.42052148218,60.78915063345926,25.88023071247011,-0.24683156075674165,-54.997487883884645
239571.42052148218,421.92881763186324,10.75750383770184,0.27146098952431613,-421.7906822995095
239571.42052148218,249.25137100036898,20.20566821982399,-0.11034228935708705,248.42949673556046
239571.42052148218,26.301699401565216,14.440808551710399,-0.0550570965939352,-21.96564396620236
239571.42052148218,231.28707534519347,17.023908538745722,0.38927849918538215,-230.65774716752608
239571.42052148218,246.4585115081012,28.970586307198285,-0.560364179508893,-244.74770503958365
239571.42052148218,23.16688431163017,10.440402371858664,-0.002999368014577455,-20.662831954420966
239571.42052148218,22.437357661362924,21.353732808313175,-0.10340733438204128,6.833193049299208
239571.42052148218,42.30383991610802,14.22981982803133,-0.39621673160647497,39.827380254816646
239571.42052148218,29.70126282422483,17.861359236209253,0.5591457276014009,-23.708106672502797
239571.42052148218,16.40144800331009,15.671860662090184,-0.31496809771724926,4.748808423324645
239571.42052148218,6.450873831185379,6.13278058767426,0.046428983173606525,-1.8029770241307985
239571.42052148218,9.505655581215061,9.404017871913888,-0.11630553679926287,1.076343470376945
239571.42052148218,191.25757430858962,13.455820387850538,0.22179437044649952,-190.78155451118306
239571.42052148218,19.856941208553337,18.53415859938934,0.016458278199196166,7.0733948460699265
239571.42052148218,16.802299367186905,5.4954338449614655,-0.16906248398490145,-15.853674498596037
239571.42052148218,58.51745101487473,16.042442174552928,0.056707014379979395,-56.268810303929605
239571.42052148218,512.1414908405206,20.552869088010915,0.3698875876596336,-511.72805229157166
239571.42052148218,138.7855047056243,15.414902410023451,-0.20518343199888017,-137.9239105673641
239571.42052148218,224.28429419115432,27.471421724402347,-0.06612681651609607,-222.5938259315813
239571.42052148218,227.4015482607411,23.061423287310703,-0.4598354830607786,-226.2270398626673
239571.42052148218,27.690762572452336,16.701535806139155,0.2234335796328612,-22.06891971407697
239571.42052148218,24.704380046743314,9.039371056096108,-0.32174110299927156,-22.972652293923
239571.42052148218,30.58744971283195,16.627569111752283,-0.18358418366620852,-25.657989565964375
239571.42052148218,71.37403578817623,26.221276562016786,-0.10915571304939574,66.37722374076144
239571.42052148218,30.10279369297364,13.871294863937095,0.2819268915570311,26.700861231390416
239571.42052148218,6.123859942182699,5.845650057689701,0.3725561623980085,-1.562480160215018
239571.42052148218,52.798310682297796,9.478114937783467,0.05006054544874906,51.93336642682719
239571.42052148218,504.4859806996826,17.258157264002698,-0.10000938036612746,-504.18994519411643
239571.42052148218,16.46215133510594,14.543351486352492,0.19612458682406655,-7.661918533989123
239571.42052148218,297.89872566926033,36.48345270431487,-0.03132667162674014,-295.65496369777316
239571.42052148218,41.73677982412711,15.799028421172403,-0.4918077451434703,-38.61810096997484
239571.42052148218,58.25221695228116,6.734914196395307,0.344448252522263,57.85406789824605
239571.42052148218,29.35775964700281,14.44848160550905,0.24836591672790723,25.540318155977715
239571.42052148218,69.66798372857636,39.86108349700689,-0.5438081454135898,57.12859492672222
239571.42052148218,59.65849745214578,18.613498002737746,-0.3032408602139582,56.673028520462566
239571.42052148218,22.33610320387906,4.312218713651324,-0.4809670722645707,-21.893493397036316
239571.42052148218,78.9710822052524,42.369751984459846,-0.05248232450202093,66.63695141136346
239571.42052148218,2826.219134499118,36.18426060339222,-0.015369600949599983,2825.987357608603
239571.42052148218,16.94776848232289,13.445477250792756,-0.12550842331391698,-10.28009494193574
239571.42052148218,41.231367415421246,22.09342748065935,0.31610254975090535,-34.80023428988736
239571.42052148218,12.080154481861623,8.30663445230508,0.37945720555888246,-8.719866682540115
239571.42052148218,25.298839661713927,18.6168820742458,0.2934631459383379,-17.105758556562616
239571.42052148218,169.61616746182682,19.84961109618378,0.48069320425082873,-168.44778491913397
239571.42052148218,32.3812816334875,19.146184279461288,-0.25774395304262626,26.098940633089274
239571.42052148218,20.741756742930555,9.458905682084298,-0.044632773763888835,-18.439026285206836
239571.42052148218,90.52427330917476,76.32333969486005,0.05544706202168792,48.668664538398716
239571.42052148218,60.64359431924166,11.740457046285266,-0.021883976875494676,-59.48997249741632
239571.42052148218,116.37310832387146,20.08574890289383,0.2431290677095812,114.62309551995426
239571.42052148218,483.48500548925455,14.689053180110864,-0.10654206564258285,-483.2610278149432
239571.42052148218,410.26842670077275,11.020241512377826,0.37253847843970117,410.1193089162823
239571.42052148218,22.147654092219973,6.222221993689843,-0.16175006514538304,-21.237383984780234
239571.42052148218,32.499353700475055,20.62657479653061,0.17179962727652567,-25.099262824841716
239571.42052148218,63.19501160360367,15.28427865086335,-0.49896021335190793,61.3106961529435
239571.42052148218,582.5827826722771,30.543568461897628,0.2372018856659489,581.7808719212098
239571.42052148218,21.24328755098018,18.585988301404548,-0.011456113874032775,-10.251257481004078
239571.42052148218,23.464332693664574,20.092765561061242,0.06965604018907817,12.087221982489465
239571.42052148218,329.4596387681835,62.82689194789695,0.26715052853279336,323.4124517738533
239571.42052148218,124.60222593000472,32.482020016542975,0.08750694529518732,120.29079570458445
239571.42052148218,554.3137396741413,8.855254077240806,-0.24320708502631416,554.2422732194142
239571.42052148218,34.52450335661793,8.687061396829634,-0.29014769489639336,33.40123077035763
239571.42052148218,43.609797231219495,8.688332061440438,0.07402163728792868,42.72671210947717
239571.42052148218,26.774217446308842,19.24172505463402,0.37188183511297096,-18.59372332362496
239571.42052148218,47.79568892804162,21.79306597894984,-0.1806979565379228,-42.528903229950174
239571.42052148218,111.66920484562999,32.0863386276409,-0.07591571337120405,106.95663853862835
239571.42052148218,21.880549877555396,13.513398433593164,-0.19707263627253344,-17.18597668001117
239571.42052148218,44.32492554757005,20.44236872726764,-0.28658620335641527,39.31890843239175
239571.42052148218,19.235853083606976,19.19946361734541,0.09317038474272073,0.8000414304603001
239571.42052148218,240.29852764242534,69.10387608548035,-0.10690422423290583,-230.14620434610163
239571.42052148218,33.920299247671515,12.867683379857748,-0.01810410745980386,-31.372905572791854
239571.42052148218,21.25380883524657,18.80065620052214,0.15045982451098597,9.873559876097667
239571.42052148218,7.946679536261546,6.710917197033238,-0.13085611512607223,-4.164887640073827
239571.42052148218,24.453668440927824,15.127382625504062,0.32302176002876576,-19.190882168719575
239571.42052148218,129.06506863146922,39.17107213318181,0.48057192614131183,-122.97332314675991
239571.42052148218,242.86319484909177,23.624572794030726,0.13746981233527844,-241.70983054275814
239571.42052148218,16.388613522334136,16.101817697533097,0.16056922962213763,-2.922745950821901
239571.42052148218,26.236973609871896,14.895595293954567,-0.010463118499434688,21.581242362702113
239571.42052148218,116.57131121779231,33.802694659476245,0.4585803461905857,111.55845213703172
239571.42052148218,592.9421486663998,20.259594512017813,0.05580948587614635,-592.5952982322655
239571.42052148218,32.00016474262956,30.854688897445023,-0.31708918624883237,8.43494382885761
239571.42052148218,23.747232885088675,11.50143002608064,0.24812466606193168,20.756606600179218
239571.42052148218,349.269769911316,36.89913301179921,0.03128529581426416,-347.31408736828126
239571.42052148218,49.42832690480692,5.934896986542438,-0.055592118031414284,-49.063056511337585
239571.42052148218,320.62360953062216,30.0755534277513,-0.42800875732356586,-319.2084381549361
239571.42052148218,45.831621068825264,16.665849419327326,-0.062447123569760975,-42.68528036262802
239571.42052148218,71.74516054385079,18.78172350777696,0.38404128607042853,69.23667772345551
239571.42052148218,19.860925544376464,12.837549836424582,0.2497930934872919,15.127504336067151
239571.42052148218,106.25215320468706,31.65272036609074,0.5382614721943871,-101.42280677932655
239571.42052148218,24.487041631769948,18.667492661118402,0.08657340299218126,-15.823480559590031
239571.42052148218,10.77465972840625,10.482797710488594,-0.474730781013804,-2.2866966261786064
239571.42052148218,922.2572888832274,19.811561586821178,0.3730115501542489,-922.0439902165547
239571.42052148218,378.10413529386545,13.900754291667226,0.2310447095710044,377.84745980506113
239571.42052148218,106.90774629512967,23.773676130071905,-0.468653885384129,104.22623955152886
239571.42052148218,34.224663879898046,21.586837476946396,-0.1885408348854004,26.543372508786163
239571.42052148218,146.96568971508094,33.497781054156754,-0.26459817675820263,143.0943489870679
239571.42052148218,606.9146212847787,13.379988731819914,0.36350033884283145,606.7663894816828
239571.42052148218,89.2699266113172,10.988788853480632,-0.26609788449722616,88.58637375460263
239571.42052148218,54.10572676627423,7.726883893863559,-0.22627640703167864,-53.543662926025156
239571.42052148218,215.4476887824355,36.32098775873677,-0.30786905831690364,-212.36206764136696
239571.42052148218,1069.42418159181,19.160475409604707,0.24908084551548826,1069.2521425839996
239571.42052148218,23.871114278713485,6.272012015492903,0.06145528647636819,23.016044225352445
239571.42052148218,7.336187359483834,4.41283431740412,-0.2532123865613529,5.7907277693383925
239571.42052148218,69.76882120686726,20.878400517067938,-0.21173125651334743,-66.56565240926004
239571.42052148218,269.9218838019583,26.62959178996357,0.5781327182919037,-268.60306041668355
239571.42052148218,96.83474748574564,13.308724265243779,-0.305860079756677,-95.91143172230379
239571.42052148218,709.1421677259558,19.45263339447601,0.3061724296685797,-708.8747177505217
239571.42052148218,13.101539777634384,5.719595038972028,-0.07730910386526414,11.755028999890481
239571.42052148218,23.284056953840935,14.621974271888687,-0.36240243630772506,18.09596494931387
239571.42052148218,237.64252979688501,23.253272251985905,-0.009256116263278985,-236.5005440131448
239571.42052148218,2.791196586057206,1.2389935832574217,-0.0444018543180594,2.346019630928406
239571.42052148218,124.97694334616367,16.175119183287638,0.17444974705149102,123.92264345628325
239571.42052148218,22.116714528563758,7.035585479447931,0.13899558424072841,20.949472190908068
239571.42052148218,317.14542696555804,14.826479973590857,0.33782858561639956,316.7973063568506
239571.42052148218,540.5641251187611,27.997850833575388,-0.10906656392131339,539.8378755931709
239571.42052148218,98.1050725341688,24.49776480631496,0.1570413545782971,-94.99310617509386
239571.42052148218,16.927681427477317,7.390984152835927,-0.1276424440343309,15.203735248940433
239571.42052148218,32.31075412649746,29.513835782122793,0.25850445268619987,13.118750376751052
239571.42052148218,1758.7362671255137,16.47102026990983,-0.006000697555531029,-1758.658924540002
239571.42052148218,601.506614851977,24.90048502377627,-0.15567595452924987,-600.9903488639508
239571.42052148218,79.41026970291426,25.290145973381982,0.20964737128439323,75.27021725267593
239571.42052148218,215.85266220497965,11.506908488670714,-0.19218268619637727,215.54390738356824
239571.42052148218,33.30784987830108,26.683615733906358,-0.24337408655095874,19.914527116790033
239571.42052148218,199.85931858223518,12.618404101410622,-0.2782589680286187,-199.45850641270306
239571.42052148218,438.79966560862295,21.598571001194276,-0.5743713688001233,438.2665495709513
239571.42052148218,13.136912775821104,11.812680248146274,-0.1924227039291942,-5.679096978244278
239571.42052148218,31.750026554314452,12.565391209983687,-0.35680945651637963,-29.142716470881396
239571.42052148218,152.4829481281068,22.67894455863898,-0.05689809766913804,-150.78448797042176
239571.42052148218,3.3678110308688147,3.1389536722234475,0.10411408832670975,0.8534562616751429
239571.42052148218,131.08106903446804,19.61026619986068,0.5797994733838251,129.60169002644582
239571.42052148218,21.51089634129485,17.269436804581694,-0.07853835025294331,-12.795669264901115
239571.42052148218,1278.8494399078015,18.235937975147465,0.06068362907561872,1278.7191196437598
239571.42052148218,485.5488477651365,14.27002830107535,0.19577303945831434,-485.3382960756403
239571.42052148218,77.781498160354,14.01493331865425,-0.3632821086846103,-76.50268774757552
239571.42052148218,35.079850905094744,16.32169007729122,0.3477822116135886,-31.03751804556091
239571.42052148218,132.07694234457713,31.539917858096736,-0.33161647156792845,-128.25245579505975
239571.42052148218,14.750761485366695,14.647461737509767,0.21270212512487893,1.4972285072880824
239571.42052148218,23.910039968676593,11.75081923329722,0.09536259442860044,20.805029944135434
239571.42052148218,199.29343791306292,17.591000149547266,-0.0804933115139179,-198.5136638524512
239571.42052148218,145.64128731577145,27.566416506552574,0.18962662715550627,-143.00591386399142
239571.42052148218,282.6990532090536,16.970819744491557,-0.06059356564265494,-282.1878672042187
239571.42052148218,19.913763516482575,19.00359847677266,-0.18273804833305124,-5.885400197131174
239571.42052148218,307.4971163105039,45.87832064031714,0.39468628373104814,-304.05386128708835
239571.42052148218,113.43710282169164,30.09663089180634,-0.34288563814598055,-109.36773583343154
239571.42052148218,50.144939095920925,6.809270689346436,0.15257480871206114,-49.67268441398427
239571.42052148218,24.15143063761244,12.434123999624566,0.1446340619487218,-20.68606655563578
239571.42052148218,12.656437244093599,12.555542167119327,-0.31226713471430373,-1.3024439299445572
239571.42052148218,105.94332783706352,22.64143987041591,-0.4822691036562862,-103.49092441682131
239571.42052148218,37.81979104005137,37.638721998732926,-0.3822784972083735,3.573117702584639
239571.42052148218,568.6870767596321,11.989509751945617,-0.446836937489247,568.5598415052066
239571.42052148218,26.052839357620876,11.762163039334265,0.5783880385578689,23.22321107981572
239571.42052148218,112.68088664480527,19.651942234496634,0.018158183880538352,-110.95058881368104
239571.42052148218,20.330464968155024,10.37313077915496,-0.30003826763657954,17.46098642828017
239571.42052148218,495.8845846379727,16.638622867751707,-0.017108820834028576,495.6046078521449
239571.42052148218,32.056938122890074,31.701505787330465,0.34459406269766996,4.668315961169895
239571.42052148218,454.44172318859245,12.244093135904727,-0.24796117214985225,-454.2758529566639
239571.42052148218,22.806759220869832,13.415037111643107,-0.2215701636587349,-18.42243356522829
239571.42052148218,37.01460782433041,13.295659330718179,0.06820168835475378,-34.53334750977491
239571.42052148218,559.8686819133818,26.863732455556992,-0.0876313082847624,-559.2231426658666
239571.42052148218,134.41731705502082,21.206210489891216,0.13200094775668425,132.73109825142302
239571.42052148218,37.187693275375814,10.340845455722985,0.08944979281385405,-35.71041236795725
239571.42052148218,1047.8003435556916,14.057580515812466,-0.06792574691095447,-1047.7056790329575
