2.711578948917841e9,4.1243998437314895,3.2020401717704345,0.16809884639683592,-2.025541100935934
2.711578948917841e9,3.3029684885050528,1.5143484453854121,0.039897426576984425,2.447083770893157
2.711578948917841e9,2.870483486686202,0.6547088582625264,-0.048097398717551504,-2.2764401074676575
2.711578948917841e9,2.0552179732323976,0.48665967324088183,-0.1795650755228552,-1.1525193395301592
2.711578948917841e9,6.617174737430746,0.8907650475654173,-0.09303172061481396,6.3528218453760275
2.711578948917841e9,11.394419279293475,1.9551257010570968,0.09097625045078006,-11.10745059370758
2.711578948917841e9,7.771385632262275,7.158563429429017,0.08892929808971302,2.552441383561095
2.711578948917841e9,10.433079888487207,9.355595634851166,-0.04437219398227164,4.323595558040926
2.711578948917841e9,10.761573410650527,2.5241452400839064,0.09343707194191185,10.334644829783416
2.711578948917841e9,5.467093391498966,1.3374207516855685,-0.01876878383504162,5.047130351148643
2.711578948917841e9,13.471872532618148,1.3760928116359332,-0.18885259059108997,-13.30171094154065
2.711578948917841e9,1.9715937329880409,0.908157805602574,0.18016838149281558,0.6351627876309304
2.711578948917841e9,6.919376221187818,1.2140588486624486,0.04867036849547581,-6.616261842003711
2.711578948917841e9,3.124149347396124,1.2986111007613919,-0.20072223775644227,2.325315054242105
2.711578948917841e9,2.1797356943375727,0.7388639848032794,-0.06132478282688501,-1.2550012528046155
2.711578948917841e9,2.282617526454001,1.4997526233068774,-0.0709777888229819,0.5740280122545593
2.711578948917841e9,3.124327487290516,1.7639091051910587,-0.01973163626259149,2.0057713587030674
2.711578948917841e9,8.906975016530648,2.4341394160203924,0.10686953888734554,-8.412562589041169
2.711578948917841e9,1.9618085632068705,0.9894170752951931,-0.18150675944243694,0.4585446002983982
2.711578948917841e9,2.3395024815924357,0.31007260667481035,-0.05969959027042871,1.6574148434500633
2.711578948917841e9,2.8229746053376674,0.949104513447154,0.07085650575846218,-2.10637764062556
2.711578948917841e9,4.941780631185635,1.8813201534204758,-0.0792159235069772,4.271886736438408
2.711578948917841e9,14.76791633852898,6.912957684951785,0.06697971526877931,-12.948797006285941
2.711578948917841e9,7.837769323895209,2.740431590360643,-0.0819899767153552,-7.161522287982104
2.711578948917841e9,17.110546298214544,2.0250404550305707,0.19539618880684326,16.911690846057727
2.711578948917841e9,2.5390641583159677,0.970499104753286,0.19003904805103264,-1.685919515378389
2.711578948917841e9,6.366754204652715,1.7127945785623717,-0.15578925883011108,-5.911944240716716
2.711578948917841e9,29.712671046778603,4.744377485851979,-0.08786403508635139,-29.286506177445517
2.711578948917841e9,1.8104298852568488,0.7859812517348884,-0.1481676688525462,-0.10675836107390836
2.711578948917841e9,3.9088985129777374,2.5619075620487433,0.10979436896804838,2.465263391449267
2.711578948917841e9,2.787495246595416,2.1487881807394418,0.04594601909590231,-0.7240091379504513
2.711578948917841e9,4.1741504815462935,1.7909489478977516,-0.11095106616676023,3.402526287030498
2.711578948917841e9,3.521015487868398,1.2738754598572475,0.01402199733647619,-2.85447997480685
2.711578948917841e9,1.6876082098132816,0.0779574772312724,0.03420375468437634,0.46285566771771935
2.711578948917841e9,4.354416058290216,1.5917964037605898,-0.1915142480327292,-3.7099739722632847
2.711578948917841e9,2.9987520399348693,2.2119994443294244,-0.17963366611370477,1.2003187766999255
2.711578948917841e9,2.1081495972536777,0.8987925155538719,0.19353491335670667,0.9861400205331898
2.711578948917841e9,5.523153893831466,0.5943849064250674,-0.044886512193933914,5.2462731422775555
2.711578948917841e9,4.568113768192909,1.5873744367636986,0.18336697218106218,3.960775620326894
2.711578948917841e9,4.884432465284566,4.5419165512103445,0.05101467217980838,-0.7742953037373885
2.711578948917841e9,7.8515392637690695,4.09707646948435,-0.010189861630101238,-6.498768386765675
2.711578948917841e9,2.123057611844239,1.3526032034928903,0.17076878841621693,0.14878636501169154
2.711578948917841e9,2.0882482359559678,1.2599507780004169,-0.07656023464067171,0.37537238425478187
2.711578948917841e9,14.720799200887928,3.6227030309020085,-0.025690186480774306,-14.175709966046663
2.711578948917841e9,1.7220494655256613,0.40868248558533965,0.04036397911747424,0.41263167750768825
2.711578948917841e9,10.789731296173617,1.3666621147868854,0.1718575578819484,-10.578017879160234
2.711578948917841e9,17.701652245725512,2.7360670529906064,0.17284962753843996,-17.412811762630362
2.711578948917841e9,2.100562158709484,1.0202257257010816,0.08518855875707719,-0.8588975055714385
2.711578948917841e9,9.57448366345713,0.9788463269128069,0.13905214872479651,-9.384387191203897
2.711578948917841e9,6.9176062505788245,0.6878448184216969,0.17409806146203674,6.687547889414536
2.711578948917841e9,1.948981381541218,0.4297438450248573,0.03198671348044934,0.9931196644001599
2.711578948917841e9,10.284549506824655,1.8651102237125552,-0.0008869926088566953,-9.983325237082799
2.711578948917841e9,14.064406453309477,2.6416074661941633,-0.03852622312576335,-13.718652112105337
2.711578948917841e9,4.4547341254743404,2.0717383667749427,0.17931264879873834,-3.5908027524049704
2.711578948917841e9,3.702077412731224,0.6966308880963531,-0.19667352415987585,-3.2488249052387133
2.711578948917841e9,2.0749021843542437,1.211728801816384,-0.06438685582379249,-0.45414522202019264
2.711578948917841e9,2.3973516727585467,1.714229306547159,0.1655922970821272,0.3933869380141073
2.711578948917841e9,4.989042693208689,1.6955682319801917,-0.1354109437430404,4.401218059364156
2.711578948917841e9,26.85229625538941,6.3196791223963915,-0.13974738169446976,26.047291640607412
2.711578948917841e9,5.082696288389783,0.7637727995697947,0.025314002253635184,4.756392859756067
2.711578948917841e9,4.156432662790055,0.9796119777614738,0.20057331356867747,-3.6945262705275717
2.711578948917841e9,2.5705970093984987,1.9612105806461593,-0.004610806606161041,0.36750775223456317
2.711578948917841e9,4.619983072875852,2.392076963776656,0.07032433201209375,-3.6042651186830734
2.711578948917841e9,12.025884578354546,5.409106784133613,0.11670227213854047,-10.61712321835925
2.711578948917841e9,2.243342724782343,1.319368072194393,0.16014815170370544,-0.7997926011246945
2.711578948917841e9,26.346391288420474,3.918565774236045,0.18483616626310362,-26.002239767981244
2.711578948917841e9,10.132338086489534,1.7642680413607055,0.15060102669194997,-9.843902370113131
2.711578948917841e9,5.1870737673240495,1.7110296154201254,0.19035844858618897,4.616853554994835
2.711578948917841e9,12.389024860094706,3.708392415285151,-0.127638845288786,-11.708669103184766
2.711578948917841e9,2.725200025398719,2.031041476792431,-0.10541294211766068,-0.8148220505215236
2.711578948917841e9,2.3911015479117452,1.5029242366660605,0.1070439011597813,0.9058631899421561
2.711578948917841e9,7.526847895575269,0.622490596284747,-0.04370799001666916,7.323762385322973
2.711578948917841e9,20.92577984379857,3.90226207328705,0.012508407648478867,20.494729017155848
2.711578948917841e9,3.850694011787858,1.607780587887363,-0.0727463580345858,-3.100170170397769
2.711578948917841e9,8.559210610066124,0.9303707367140687,0.1493536181209454,8.351386185591513
2.711578948917841e9,5.8517207720756454,2.105091702933524,-0.13746039903426954,5.212081227271823
2.711578948917841e9,5.824754892267677,1.6710652915143376,-0.03648169964785569,-5.33923595624722
2.711578948917841e9,7.3643466598292004,3.0688349507417287,-0.17219572971320923,-6.493047325124934
2.711578948917841e9,30.69385987230958,4.015262786361199,-0.1084244538574246,30.3867142665943
2.711578948917841e9,10.864345365460258,1.2959304414361474,-0.07290319696097858,-10.664085089646921
2.711578948917841e9,10.472518308304021,1.3148263801376492,0.006851731288656409,10.262469757618552
2.711578948917841e9,5.661849833153169,3.138767493290736,-0.010322978070799783,4.424707533471756
2.711578948917841e9,3.588718604665849,1.2780633505822045,0.10321529605903554,-2.933984161926037
2.711578948917841e9,2.5725108019415375,0.9826164020206536,0.15183704440847223,-1.7328252967137743
2.711578948917841e9,2.0762434149857207,1.1787971339929082,-0.02860564137126038,0.5420949334234839
2.711578948917841e9,9.854377479736632,2.6548997830612957,0.1835204554850832,9.348799070568376
2.711578948917841e9,17.01970644774641,2.0536242471565935,0.030510486815178633,-16.81741850860427
2.711578948917841e9,8.887838646396261,1.6818335675113487,-0.13139556726564536,-8.574456718933853
2.711578948917841e9,5.797426042208032,2.6644822665799768,0.059994290280467946,-4.8867724333640155
2.711578948917841e9,13.538990282255153,2.786030146404965,-0.1339962373762671,-13.149060805209288
2.711578948917841e9,10.627766398128,6.262695996838255,0.0268748591436987,8.432128816064818
2.711578948917841e9,1.874688770037734,0.9344218112846797,0.08141138254294918,-0.09026192050635769
2.711578948917841e9,3.5227636671217315,1.7634100554160819,-0.06119983477916229,-2.5826274558041478
2.711578948917841e9,50.01618548231467,5.5647439953179765,-0.10345715755491626,-49.67912229748859
2.711578948917841e9,13.162748648125344,2.528870389035007,-0.20758828297561904,-12.813786903111772
2.711578948917841e9,1.942975030294219,0.9055391706257294,0.13844679882481511,0.5562772933568731
2.711578948917841e9,1.6740388095347967,0.3798195396773851,0.12033664561322255,0.13085606302535904
2.711578948917841e9,6.923417790189796,1.055578873705431,-0.20118504940921836,6.644731211960161
2.711578948917841e9,6.316404689151888,1.5322152626714491,0.05733166184295322,5.909268891405005
2.711578948917841e9,2.2885429893770564,0.6669739296189126,0.19459205989264639,1.4588248304927898
2.711578948917841e9,3.3850500373421535,0.9379727690814907,0.18336427167183053,-2.814002407256606
2.711578948917841e9,9.504155214499349,1.0162418701466651,-0.07293641461109338,9.309369487053333
2.711578948917841e9,3.3287602699157155,0.8588680629697488,0.06632447756418093,-2.7770583020627737
2.711578948917841e9,18.691485145864245,2.2458439856733543,-0.13686938613068084,-18.484656601777026
2.711578948917841e9,3.2382060235979764,2.117239492833727,0.07081466010126845,1.8362248308870406
2.711578948917841e9,2.0259085905790135,0.8362653011344197,0.12577076398680573,-0.8732747808259319
2.711578948917841e9,10.563263451771032,2.6076233503244355,-0.18750295378445017,-10.105500433975871
2.711578948917841e9,2.8535389667045896,1.2982991713047305,-0.1757363028015421,1.949277253899144
2.711578948917841e9,4.576291575335304,4.193871228218121,0.029397491672498603,0.8523412787683474
2.711578948917841e9,2.7037182319261905,0.5478704795797014,-0.1327052284159798,-2.0894450703491247
2.711578948917841e9,3.941022411808153,1.4482844526319212,-0.20534509439192036,-3.2810706105245564
2.711578948917841e9,30.15739902387421,5.1066738111510075,0.03886261962663413,-29.677643931634282
2.711578948917841e9,2.246895155128827,1.047246698931841,-0.20948680341797582,1.1319843785633603
2.711578948917841e9,3.7019013538316923,0.9841511927491688,-0.18184876420488816,-3.1742577486191106
2.711578948917841e9,6.166628015138907,3.9870852123396325,0.08959119311270271,-4.415414722215265
2.711578948917841e9,7.835019009830382,1.6549541628026418,0.12117384624932143,-7.483811038956745
2.711578948917841e9,5.308956775310901,2.108980986235627,0.05934977156430468,-4.59425293283156
2.711578948917841e9,3.0871549803044456,1.9050102854446769,0.16561613529753447,-1.8020805045551214
2.711578948917841e9,5.415192322128062,2.192843252062913,0.05149924962667368,4.678306889164579
2.711578948917841e9,5.85800753817408,2.4661067327814767,-0.08266594144156918,-5.059762583991446
2.711578948917841e9,5.973996457123665,2.2640435579051617,-0.08839035269567781,5.284731662779537
2.711578948917841e9,4.465485469834801,3.5749534963280047,-0.19324615401556006,-2.1204681249092396
2.711578948917841e9,4.990594859828446,1.4066261072418655,0.08898269100460421,4.504773389913558
2.711578948917841e9,4.338344098092694,1.4248202212816001,-0.13849429602412,3.761036738035345
2.711578948917841e9,4.802632132139298,1.0658234525275616,-0.03670916170864475,4.393336928411676
2.711578948917841e9,2.262781290971766,1.4603422534185777,-0.024435949282249556,-0.6003696548251579
2.711578948917841e9,7.944115492667586,0.9169498772455794,0.20795784916643684,7.719999260416448
2.711578948917841e9,8.221670819363592,1.5145424522638178,0.20970742597520228,7.914007593005983
2.711578948917841e9,2.7697785219632673,0.46769494629474445,0.15534891642883683,2.191406483631863
2.711578948917841e9,7.20273578602097,6.588466606484481,-0.15248625954328696,2.4128240059143318
2.711578948917841e9,45.514803055278975,6.183386780131789,-0.12310448015659578,-45.06352551165398
2.711578948917841e9,8.162228427645307,1.87703338186212,0.08309853206336767,-7.775942025684432
2.711578948917841e9,6.797438866879802,1.401545693896542,0.15982682587890995,6.448934901750651
2.711578948917841e9,59.45853036659673,6.408360305775392,0.03649656348459083,-59.08994737442335
2.711578948917841e9,14.128943890331497,6.685482356244542,0.11582466508042948,12.340641269068541
2.711578948917841e9,6.638352825348889,2.2618717881425248,0.1654412683226432,-6.024761787735538
2.711578948917841e9,4.605397791543111,1.0069660985047844,0.04296770138841104,4.191339050452684
2.711578948917841e9,2.0971341969835278,1.1177787817171478,-0.09802763784906855,-0.7158171427944486
2.711578948917841e9,3.075794607297278,1.7187004962360308,0.10737920996132436,-1.9668533092696876
2.711578948917841e9,2.196543729719406,1.0871153073797017,-0.12714786754630886,1.0001396148582467
2.711578948917841e9,3.7713187461256665,1.1600522934047044,-0.048393033264436475,3.201287715931953
2.711578948917841e9,11.584911310431814,1.566849217946,0.09145595127964863,-11.363109194765684
2.711578948917841e9,3.4664967370795097,2.2997645016178603,-0.09942802480249235,-2.0226858623041584
2.711578948917841e9,3.246081501418444,1.7075082817842895,-0.1750936452163722,-2.2280628270526672
2.711578948917841e9,6.626128207772284,6.298952729621033,0.048438943810322085,1.264865356058827
2.711578948917841e9,15.905472645494928,3.2520712498150868,-0.1431742488105745,-15.484219546415346
2.711578948917841e9,4.049892001305341,2.9550426236759746,-0.035485420121492584,2.2453396767202034
2.711578948917841e9,15.983550881495626,1.9409187239933139,-0.20432596108979795,-15.780951978706371
2.711578948917841e9,2.572169056568112,1.8166609502250979,0.017063630362433895,-0.8300401462655836
2.711578948917841e9,5.494662422259939,4.931128631741363,-0.07134379633019239,-1.8010154854806812
2.711578948917841e9,12.106065831226626,3.145080521126739,0.06773658411287112,11.57731278601363
2.711578948917841e9,10.120269726429422,1.0072117452666933,-0.07915421686078387,-9.938439495727376
2.711578948917841e9,10.996611274725474,1.7993964260184367,-0.1371135683403457,10.725777037736169
2.711578948917841e9,4.033369097044972,2.4149670397425123,0.026154395732154504,-2.7944190061511067
2.711578948917841e9,18.979140234353746,3.1779621597658365,-0.0950345241940875,18.640620970074277
2.711578948917841e9,3.107285131185683,0.5062778842820858,0.06724842750818548,-2.601507717415452
2.711578948917841e9,38.860190558871984,5.078182599957324,0.08583539698973644,38.492759906277946
2.711578948917841e9,24.33126740610887,3.228917740112209,-0.0842134682900204,-24.061401311464035
2.711578948917841e9,2.495515445332701,1.1764006084227145,-0.013291251518914055,1.4889470955778776
2.711578948917841e9,7.319351515131968,2.203511323341149,0.12694739234000835,-6.787841333881489
2.711578948917841e9,2.2126039574924534,1.126276437754433,0.08716627982456358,0.9964842510205563
2.711578948917841e9,3.9529409373455056,2.0997872995547153,-0.16773285584936534,2.926083082251647
2.711578948917841e9,9.716559056472226,1.19983601308672,-0.015207307250781907,9.505006225238295
2.711578948917841e9,3.7667081847942,3.02515109970439,-0.20344476251560437,1.539033062139311
2.711578948917841e9,6.214530186235778,2.1123333637895665,0.06489393493410163,5.614951748453936
2.711578948917841e9,13.924233059101113,1.2043581632266838,-0.06655076637714444,13.776894419960119
2.711578948917841e9,2.6810830785256807,2.0853377978319037,0.05049633221774449,-0.45878538307457417
2.711578948917841e9,3.5912339310933206,1.6825587100590351,-0.2096255557758423,2.7194623780825014
2.711578948917841e9,2.3304667558024317,0.9217457021198951,0.05977762669034745,-1.3969065681967
2.711578948917841e9,2.493072846285199,1.369900975576624,-0.1378357049311401,1.3012478691029379
2.711578948917841e9,6.839636666794772,2.2414610749305153,0.04270036277903295,6.255247383337719
2.711578948917841e9,4.5024591287098605,0.7676615507203187,0.13992633538638802,-4.12755566095889
2.711578948917841e9,4.982263112636572,4.215356658010087,0.20094278472220153,-2.0944682215247785
2.711578948917841e9,10.81182047022941,1.4957592660989403,-0.051273367804340456,-10.584375196699375
2.711578948917841e9,11.75932280858304,2.9095086417542877,-0.06320074149537819,-11.27767259724687
2.711578948917841e9,5.264258820326857,3.318000574787394,0.04338021099650142,3.751649295282481
2.711578948917841e9,3.004459377210546,1.8795252281259902,-0.11597163550508775,-1.6894297293183298
2.711578948917841e9,2.0351184963987143,0.9346313586623847,0.013240811485453889,-0.800910333995184
2.711578948917841e9,19.16652430719447,3.3818566986620273,0.06548559803116441,18.795953609456525
2.711578948917841e9,2.020047146057036,0.7656227824607992,0.04961048898777578,-0.9302753307771597
2.711578948917841e9,2.216451687151657,1.1197180616669957,-0.11063844937217202,1.0100048721539205
2.711578948917841e9,9.43822520353197,2.086576821751692,-0.14596209187405212,9.059715690442525
2.711578948917841e9,21.5269136782482,3.193802995020199,-0.1604128348270051,21.226289450268325
2.711578948917841e9,2.1743950214704726,0.3922899522253674,0.17867675135864233,-1.3840657808437138
2.711578948917841e9,4.276546301358806,0.961528668866788,0.13817941686376012,-3.8364929948806292
2.711578948917841e9,4.9955555826742515,3.26320693677506,-0.051843453611514406,3.4172839343678554
2.711578948917841e9,1.9043097513652514,0.33695764822627455,0.028979841718246607,0.9409976119101418
2.711578948917841e9,9.83853547482483,2.148803610853999,0.05961064941439635,-9.463050832910273
2.711578948917841e9,4.558063484294246,3.10111100965739,-0.11561412037724612,-2.918757915999154
2.711578948917841e9,6.335417674844999,1.9608318675666698,0.053734841191891626,-5.802002174518335
2.711578948917841e9,4.104905443918716,3.2068817971386974,0.08680717169367352,-1.9829481894483596
2.711578948917841e9,5.3906076391715985,3.182536128106384,-0.1362619007008406,-4.035468792050089
2.711578948917841e9,14.290948954099424,4.007003337058544,0.06260580616918794,13.621478919078902
2.711578948917841e9,17.13331094922762,4.545586529976139,-0.07378337030316458,-16.43946484409055
2.711578948917841e9,4.666648985189379,1.5592657469960416,0.07294506631441626,4.088330131351225
2.711578948917841e9,5.261051204636741,1.9028042323497738,-0.0804599478466945,-4.628712908828327
2.711578948917841e9,6.944093394464007,3.9693478679261167,-0.12470519048690135,5.461009096704992
2.711578948917841e9,3.4499929116216896,2.996090648211568,0.14020213753280394,0.5288633499972536
2.711578948917841e9,4.527860745348692,3.9093601074139004,0.015711305180039808,1.6098573847145354
2.711578948917841e9,4.759164497381745,3.1481518284893664,0.08243308739730502,3.1789074740262646
2.711578948917841e9,3.0202665168338463,1.3243946905384216,-0.12779819427413883,-2.173733498458714
2.711578948917841e9,2.7792869384327363,1.8570569873135963,0.09156151157553759,1.2809578002458024
2.711578948917841e9,6.457617357165756,1.1010021834232115,-0.19969930581375786,6.149975404448643
2.711578948917841e9,37.09014724149546,4.015352889886413,-0.16546808428019497,36.836151333207695
2.711578948917841e9,3.715794225251985,1.6150963747024736,-0.12649050962938574,2.9250729461352956
2.711578948917841e9,7.665562946133763,1.7814718384043238,-0.041051445825974905,7.277292718676834
2.711578948917841e9,16.67539979727385,2.8158805099889603,-0.02994142355956629,16.355804475107313
2.711578948917841e9,2.1871968835677977,1.4000823284230715,-0.1219106927740669,0.4268473128806892
2.711578948917841e9,9.807184091565096,2.9383269642456,0.1727017542132519,9.213616538880178
2.711578948917841e9,1.7681065379232397,0.701045334593532,-0.006545697743199731,-0.09030219561340595
2.711578948917841e9,4.042388419714349,1.46024076971824,0.09716180064792426,3.4018556376172424
2.711578948917841e9,14.096364715863432,2.6066019402095426,-0.09119318905597958,-13.757843926088318
2.711578948917841e9,3.580746691365831,0.6381536606444976,0.14382569429108827,-3.12526512590453
2.711578948917841e9,5.822130658693832,2.998551663725952,-0.009329463944560471,4.720091890246579
2.711578948917841e9,9.668136091163616,2.1569442410258337,-0.20443094723711006,-9.281816426248568
2.711578948917841e9,19.855328125261828,2.1182862776437106,-0.20794754443828006,-19.674276027110164
2.711578948917841e9,16.37208842916465,2.6228154417818557,0.06510678698075498,-16.079034204871473
2.711578948917841e9,5.009798686958485,1.4865367879490259,0.006704873748305294,4.50130064214702
2.711578948917841e9,4.682835251229307,2.246551435820495,0.1350994429459969,-3.77321639205657
2.711578948917841e9,3.078693994313102,1.835459074442801,0.11124206054072769,-1.862936677676349
2.711578948917841e9,8.448746269511943,2.066536832408919,0.1971720693755051,8.02778446312228
2.711578948917841e9,10.521787439504484,4.077027926698446,-0.20711555823160174,-9.56119336259725
2.711578948917841e9,2.615115367593387,2.0143738162386264,0.0799349558799032,-0.3849650393267021
2.711578948917841e9,2.9124686874683783,2.24201462695859,-0.13939342536471402,-0.8999305002902194
2.711578948917841e9,2.0726330693333335,1.121680257248835,-0.15129441293959875,-0.6230669350925035
2.711578948917841e9,19.636219243189668,5.863114371452827,-0.12300106164511469,18.6698507743664
2.711578948917841e9,7.256515743307506,2.8074589344653895,-0.03197679807397269,-6.492120894818973
2.711578948917841e9,5.962674411005833,1.318435169258371,0.13230469548330767,-5.583114853563329
2.711578948917841e9,7.3846923015185855,0.8768865889717128,0.12425482165849684,7.1500190350714465
2.711578948917841e9,43.36736691212753,5.594786214800942,0.18116993218599275,42.97403307489116
2.711578948917841e9,4.262266278610092,3.1201249589313464,0.18643579323825507,-2.4021733763053
2.711578948917841e9,13.77273176519406,7.604823826205129,0.17516921054290607,-11.366510975688453
2.711578948917841e9,9.58280131283295,3.2515422274917216,0.09555202378815171,8.866898280640255
2.711578948917841e9,2.084238649341043,0.8936171568037439,0.17767312110473937,-0.942015154288864
2.711578948917841e9,3.356246555353225,2.832267306736176,-0.05086374062667005,0.7832795719302648
2.711578948917841e9,10.319693492912617,2.510328992855441,-0.15075795102669015,-9.876490031377271
2.711578948917841e9,4.16731051727791,1.209647831540924,-0.11633247020378831,3.6418617480403763
2.711578948917841e9,4.454144815881283,2.988713968897946,-0.0761766775816212,-2.8765696812608277
2.711578948917841e9,3.3106772511338804,2.8853021973623236,-0.06355208193176895,0.07097456131369159
2.711578948917841e9,2.350084549664323,1.0955618430366643,0.14884437019470897,-1.2938114841484498
2.711578948917841e9,2.4189845317161778,0.5489101560052658,0.09402181401741047,1.7072799618707193
2.711578948917841e9,2.2066885189702536,1.0614334964957732,-0.09544430190730566,1.0522284456834048
2.711578948917841e9,9.548376702296558,5.595171932595991,-0.18042643960757623,-7.563494969783496
2.711578948917841e9,4.537970552182804,0.6415261917218955,0.09803405361325475,4.188731474628717
2.711578948917841e9,3.323189680226398,1.1982524508238412,-0.14351744754985118,2.6383033604016553
2.711578948917841e9,13.049144443629467,1.9189932170665094,-0.004529324166748701,12.805119147949432
2.711578948917841e9,2.8432223669223973,1.4878255412616446,0.0719631950275935,-1.7996030255305508
2.711578948917841e9,2.905521669450141,1.684028180183068,0.10954840093353918,-1.7226623500403506
2.711578948917841e9,2.0207618824184563,0.6783067747444659,0.17958626327636212,0.9821346359912051
2.711578948917841e9,2.466700903980365,1.8512477933824036,0.15739709471310032,-0.0786274517595978
2.711578948917841e9,2.172444897636615,1.3071358334556773,0.0385577968903061,-0.6187788028548318
2.711578948917841e9,4.54059509388364,1.0608397241881944,-0.10297829388914548,4.105420748421796
2.711578948917841e9,2.404875902476021,0.9244342828604999,0.061471828574958046,1.516090941096115
2.711578948917841e9,5.943253888802977,0.895976546921633,-0.1811158863362389,-5.64447969384732
2.711578948917841e9,11.455130615979888,1.7742155830156325,-0.015796614653931833,-11.200240538734414
2.711578948917841e9,6.031059237638743,1.5806986781065737,0.07795633228791493,-5.589494717020133
2.711578948917841e9,10.265434121022917,2.4560819867626003,0.10185601173241872,-9.83411843962822
2.711578948917841e9,14.067074057746462,2.8917742660264074,-0.05180130179214046,13.67080802037698
2.711578948917841e9,3.112116930785829,0.5087234993051575,-0.0034974502412626145,-2.607665838327513
2.711578948917841e9,2.455091317887139,1.8118162558766042,-0.14228349108425575,0.31306837379552216
2.711578948917841e9,10.588770746937138,1.2869982216588673,0.1306531911462771,10.383741734879669
2.711578948917841e9,5.3387127254534485,2.7949208071939435,-0.021558087504162084,-4.250090311945866
2.711578948917841e9,2.751361911080858,2.109892862393173,-0.1890773487474731,0.6753187362716062
2.711578948917841e9,17.13463122902843,2.0996628990364337,-0.08222998484258562,16.927897165897445
2.711578948917841e9,23.091809442040567,2.5890516735851747,-0.10150039629438244,-22.88867915745625
2.711578948917841e9,12.605342767437875,1.7601750593973662,-0.1781297210711406,-12.374901252605813
2.711578948917841e9,3.999437432768465,1.055815215217778,0.1682222412632692,-3.4965578004501237
2.711578948917841e9,2.2130586513649577,1.088774818765911,-0.09480365790205285,1.0376277845407444
2.711578948917841e9,3.6360202670187527,3.058873327159022,-0.20928677969407092,1.0925189054709763
2.711578948917841e9,5.4228772677832975,2.070508002536772,0.17269533092748154,-4.739644708197849
2.711578948917841e9,6.867311203150824,2.1024426362988793,0.18754580577052724,6.330717641557814
2.711578948917841e9,7.003099108191347,2.1827427904188075,0.1771213147083024,-6.451443267541084
2.711578948917841e9,5.188206774335955,1.105434969107768,0.09215744962928277,-4.8021319464605545
2.711578948917841e9,4.10215185963329,1.0279689934116942,-0.04006096606746534,3.625298044502653
2.711578948917841e9,3.9249226894530143,1.7860252045703628,0.10492598417698264,3.0947671623349904
2.711578948917841e9,34.95392403613869,4.155932043420373,0.031318738134295775,34.66810514977228
2.711578948917841e9,9.357305133340196,1.8733507323830614,-0.04701579366936895,9.023356751866805
2.711578948917841e9,14.901256525098997,6.884456859088547,0.15010556621033108,-13.11497728803015
2.711578948917841e9,10.634886101809427,0.9994483548193014,-0.12315587589789385,-10.462322838602338
2.711578948917841e9,1.7256877082313933,0.42841659827420814,0.20535849604665643,-0.3546072999326569
2.711578948917841e9,4.133020931874153,1.9673251820555053,-0.03339071739034525,3.2532814012550952
2.711578948917841e9,2.293121043484197,0.42469499505195724,0.19174415835186132,-1.553941319157776
2.711578948917841e9,2.0054132084778087,1.1153610449445026,0.14790918497847397,-0.35949396873462414
2.711578948917841e9,93.85355042842075,10.434280752938067,0.15634946449164722,93.25751299063435
2.711578948917841e9,13.777555928590035,4.560371239422261,0.06562571029820799,-12.899349439201366
2.711578948917841e9,7.241707832901408,2.0573123879529414,0.03838574119592721,-6.751428424767147
2.711578948917841e9,2.969436932989673,2.4860106607836516,0.07904630790818283,0.06722751727702614
2.711578948917841e9,3.041646691606938,1.9434166152136845,0.15522593391282172,-1.6805096042914218
2.711578948917841e9,16.224334941213908,2.613619417115809,-0.15746434401388534,15.929428865214659
2.711578948917841e9,2.793622570095749,1.5325148581634624,0.021643502117990744,-1.6818793050848417
2.711578948917841e9,5.415160258504709,0.6172688408714867,-0.2002266210838527,5.1260423591682605
2.711578948917841e9,14.27672668769469,2.0814419985932298,-0.10769719175396472,14.030480626155127
2.711578948917841e9,11.112072721683932,1.754373098760457,0.04053723333558112,10.852287920040235
2.711578948917841e9,2.2198112068840743,1.5109620028855708,-0.016272899595135004,0.1332365459734002
2.711578948917841e9,6.741190389218685,2.259228998254026,-0.18526508104137399,6.138295383189799
2.711578948917841e9,3.283138701197678,0.8862210349078752,-0.054960392633824184,-2.713678781328093
2.711578948917841e9,11.321520676768227,1.6667624067897044,0.038602499973290905,-11.080194245824343
2.711578948917841e9,6.25774446285434,1.014931763617365,-0.08596960896689919,5.957797383959845
2.711578948917841e9,9.858485801623203,1.1296580894053594,0.12219993745628442,9.657750423444012
2.711578948917841e9,2.9852000953592537,0.6943197130302055,0.12256584404517169,-2.4057802317967547
2.711578948917841e9,17.743607294815348,1.8506561053576223,-0.12075151925692847,17.57183974566477
2.711578948917841e9,14.7383173292516,1.5244066696698435,-0.08795261181599916,-14.569142305079556
2.711578948917841e9,2.4350459958278137,1.7224927964988654,0.029789797472452046,-0.5788275219554927
2.711578948917841e9,2.565113397582198,1.1666991772285373,-0.1680634474438455,-1.6011981808455913
2.711578948917841e9,3.198661129507319,0.9595386476912462,0.018527299295585938,-2.585311684998291
2.711578948917841e9,8.190701162508821,1.6908814584961247,0.09463543231797084,-7.8481214775376245
2.711578948917841e9,57.02020405718726,5.963701084371818,0.0008298427472693668,-56.68431353183433
2.711578948917841e9,30.599517429744623,10.292261155321462,-0.11888731731983898,-28.770803850676238
2.711578948917841e9,3.623273759804561,2.7921288914115237,-0.10994375499953572,1.6411893636536705
2.711578948917841e9,4.35049052097005,0.388539971425134,0.1446819303593427,4.016009557643346
2.711578948917841e9,4.075885207339373,1.2848718036087388,0.1833382519088053,3.507391184553866
2.711578948917841e9,2.198035715830109,0.8251712491881434,0.026590597213379554,-1.2341829370550763
2.711578948917841e9,5.647543169221945,1.5640319985033833,0.15417980389735755,-5.176701411937252
2.711578948917841e9,3.2347503880655517,2.060621019990886,0.1319636234171605,1.8903697658279892
2.711578948917841e9,4.242630568540748,1.2465633675417909,0.0387006601698809,-3.717251314495925
2.711578948917841e9,2.7177128566935984,1.1275988278268199,-0.19938938520904886,-1.8569300181717188
2.711578948917841e9,7.347905951910272,2.471561042118044,0.1848732200975588,6.724759545894076
2.711578948917841e9,4.371616984283055,1.28431161322498,-0.171921110880478,-3.847789369682433
2.711578948917841e9,1.7768973968510766,0.7090065005431162,-0.012661456579891017,0.1672572660335326
2.711578948917841e9,5.800333834466738,3.4700473384579675,0.011193243511740286,-4.356142781844975
2.711578948917841e9,3.756983336369682,3.188644385030298,-0.0903672550405065,1.1457598785045047
2.711578948917841e9,4.464172054715486,2.0784439737680547,0.17423262162544217,-3.598889681550614
2.711578948917841e9,2.1671065119009003,0.6242778413187908,-0.2014048785861621,-1.2804393972552286
2.711578948917841e9,13.293998202496756,3.323457252425823,0.07121917085788057,12.769236825017678
2.711578948917841e9,15.584200275037293,1.562611385919691,-0.07536569795641358,-15.420548791954134
2.711578948917841e9,12.410378216085341,3.191124817208625,0.10132227321273761,11.882651422499602
2.711578948917841e9,8.009660930753643,3.3095392452134824,-0.10098191894451225,7.110898819873573
2.711578948917841e9,6.922661249088349,0.8788838991864822,0.12026880704474228,-6.6715664157551675
2.711578948917841e9,2.9585248288066888,2.4698660384770017,0.14451008479089875,0.0721728095427739
2.711578948917841e9,5.457316038850494,0.8397333573170128,0.1053525302303692,-5.1419362350459
2.711578948917841e9,18.47891147726055,1.9849695980776216,-0.10267469196174919,-18.300081534003336
2.711578948917841e9,2.84820709758615,2.322175523477423,0.061611637375787266,0.2990813926715518
2.711578948917841e9,51.30397475625657,6.695289143647856,0.0982879522909147,50.83930300187441
2.711578948917841e9,14.131578880940427,2.7637162909235267,0.07610143257519729,13.763395789843635
2.711578948917841e9,3.184630398610645,2.6559588598589685,0.16581621401887472,0.6585738060840957
2.711578948917841e9,5.758871488394813,2.748535551285525,0.1897804459742297,4.790365089415635
2.711578948917841e9,3.2235429576549004,0.48103400403653807,0.05439545784670636,-2.7441460940286557
2.711578948917841e9,2.8886465057080413,0.4941885586211519,-0.004748625937966446,2.3395501530035485
2.711578948917841e9,10.776244220984173,1.3777007886840338,-0.11971141082906535,10.56354629798495
2.711578948917841e9,1.868540668011017,0.5145976879172429,-0.07761135439988895,-0.7707600727006426
2.711578948917841e9,3.4671574369217013,1.7056112420284737,0.1036572539691595,2.5445603395414156
2.711578948917841e9,3.763316852462246,3.356007441565816,-0.09549827479787937,-0.5139153900126422
2.711578948917841e9,2.511442521905422,1.7761868635628397,-0.11324927760870149,-0.7163375824725233
2.711578948917841e9,14.191457235610407,8.371504411789466,0.06223170927923268,11.343939383314277
2.711578948917841e9,3.937658720385807,1.487639442027847,0.14928493050975908,-3.262400996609118
2.711578948917841e9,4.445805908773735,1.3126878404678266,-0.02881956201556883,-3.9261522396897206
2.711578948917841e9,2.020655771489755,1.1675752992518482,0.19429826694433028,-0.23564170958097408
2.711578948917841e9,10.114291299343343,5.004017561787909,-0.07692921975115463,-8.638648030151424
2.711578948917841e9,5.529004626950464,1.04713638006735,0.06635010500980584,5.180970603501265
2.711578948917841e9,1.905644022733171,0.9450627288858146,0.195684490506912,0.2711168095574497
2.711578948917841e9,5.94921816501134,1.585714489090941,-0.07003281190108025,-5.499751167429775
2.711578948917841e9,1.6985923497384514,0.4068044768490865,0.1564352790916134,0.2621359495778178
2.711578948917841e9,6.560700051882632,1.3969463315724768,-0.051961061455541746,6.201780980490313
2.711578948917841e9,9.010094181184668,4.687466802862809,-0.19322312271594197,7.5196793891179174
2.711578948917841e9,9.152159358378823,1.8557352309582664,0.0722736095212338,8.813994858377676
2.711578948917841e9,3.2474249440828045,1.9404446063093779,-0.13134992254786484,-2.033876067891728
2.711578948917841e9,5.630723637487635,1.394262386875455,0.074074913809426,5.208555956294457
2.711578948917841e9,19.122524291211878,2.1789902144080306,0.18206886323963956,-18.92784322121623
2.711578948917841e9,9.853717856274454,1.3378345851494957,-0.2006553362283377,-9.62492352251606
2.711578948917841e9,2.0536892659820003,0.6801082037286709,0.06497769709389957,-1.0603449890064183
2.711578948917841e9,7.541587103823539,2.153954734131256,-0.07855744263495193,7.042961375762167
2.711578948917841e9,3.202540531002796,1.9940798488075917,-0.12452835183283592,-1.9073188677525734
2.711578948917841e9,3.376136501960293,1.121227288630878,0.09558803409630227,-2.7396114942151453
2.711578948917841e9,14.602104058823922,1.7420529639357993,0.16568437976099845,14.405995427816423
2.711578948917841e9,2.3078114476974134,1.4253409113280981,-0.05567206906831628,0.8153273880738159
2.711578948917841e9,6.281107002411485,6.065811338462628,-0.056517070764595695,-0.16883414060254665
2.711578948917841e9,2.2009523077776976,1.2113905370404916,0.007957279310886882,-0.866095764905181
2.711578948917841e9,2.5872990816997956,1.7631309391878724,-0.1758897805086363,-0.9633326419029512
2.711578948917841e9,4.873517145469307,2.6210959457992034,-0.16309170819394636,-3.771987230786533
2.711578948917841e9,2.695305349056565,1.0002357591080153,0.1663192172888692,-1.8999995876881028
2.711578948917841e9,2.631069356453015,1.4607764626618818,-0.14799703903454248,1.4629477521210836
2.711578948917841e9,4.000664399058757,1.9261428900922235,-0.12190954269401662,-3.1070707151018424
2.711578948917841e9,8.018281632849384,5.054811453053702,0.035999938708799535,6.0094830631743905
2.711578948917841e9,27.66665227223852,3.457063731706628,0.0009140555426169147,-27.40193092898349
2.711578948917841e9,12.899266149955345,6.771318157290609,-0.15815969905632765,10.857659245625861
2.711578948917841e9,5.149798559242838,1.768779036141837,0.148320072156206,-4.554482214553082
2.711578948917841e9,3.095566464881636,2.5961810983985365,-0.06169594220085644,0.46046739073891485
2.711578948917841e9,13.641999356719385,1.526207995694883,0.19110370738581833,13.457777533457467
2.711578948917841e9,2.0045297395846475,0.7214038351106472,-0.04962234829307179,0.9320486953570756
2.711578948917841e9,38.710580482462774,4.1618277881667,0.12430514825338194,-38.45186913721347
2.711578948917841e9,1.817831121713572,0.7420132293621494,0.17929385178867152,0.3086117846628027
2.711578948917841e9,2.0058526747974037,1.1219092498052983,-0.012038437171881888,0.3715922881649604
2.711578948917841e9,17.78083343957627,3.6128447099396976,0.005125435940374022,-17.334325074894632
2.711578948917841e9,5.527518884622454,1.1594404639816804,-0.05882457749650399,5.155498391409134
2.711578948917841e9,2.0203994587617857,1.198911772491073,0.09132132222963388,-0.09872241515208134
2.711578948917841e9,5.844842314775188,2.008984758160079,0.20728712669332675,5.239909840595953
2.711578948917841e9,4.929633666899356,3.5304009923863617,0.04890048661500294,3.034571935148975
2.711578948917841e9,2.8960439147907655,1.9070172351546175,-0.03189836465199992,1.4569829374266505
2.711578948917841e9,2.922819560109847,2.0536171875741998,0.14833955982707991,-1.2949853926785668
2.711578948917841e9,11.687140468231124,1.4777263437594088,0.048047936197570085,11.479404589844902
2.711578948917841e9,2.991359321270902,1.853101485684883,-0.05898064881517872,-1.698301480942689
2.711578948917841e9,31.06234592067514,3.9950037857632736,0.19697594669311183,-30.76107833753955
2.711578948917841e9,4.399049055477536,0.5432623072214852,0.08033276146931027,4.0525925615443885
2.711578948917841e9,9.667534216885297,1.2755277173826685,0.016124610006374454,-9.444969456710208
2.711578948917841e9,4.174586651068074,3.241136260200489,0.162024826206294,2.0662571403826195
2.711578948917841e9,13.368915482585031,2.7985692197875403,0.07990669977114251,12.971622396072558
2.711578948917841e9,5.107869597997179,3.4313469362868636,-0.0991204668175037,-3.417576089926382
2.711578948917841e9,2.4648781643300848,1.024878293510024,-0.114114159027431,1.5445672441148979
2.711578948917841e9,1.7166776907573542,0.3746814302149685,0.02867133433016424,0.42336182962543495
2.711578948917841e9,10.363081519004757,2.8116635213402597,-0.19588740597854085,-9.839872768531178
2.711578948917841e9,7.670530117958582,1.6875050122885553,-0.014686882331893997,-7.304971224029433
2.711578948917841e9,5.317469171812815,0.5534660601589717,-0.16667957875655565,5.031384779149504
2.711578948917841e9,6.019670806800851,1.0639745848357123,0.1657899730393111,-5.696522584376694
2.711578948917841e9,4.465159005425643,3.131505479064839,-0.11754542752323223,-2.736962296998076
2.711578948917841e9,3.633070427573109,2.8536169964148974,-0.16851072403319522,1.5495599600415866
2.711578948917841e9,3.6226058570092685,2.3142415934504,0.17110674616433327,-2.2609163381688995
2.711578948917841e9,1.8175134921054827,0.8033198988015118,0.16919013097219662,0.05355649499927559
2.711578948917841e9,28.69018211139376,3.3891235115988922,0.0774704047290159,-28.443063317949022
2.711578948917841e9,5.473269172177917,1.2110268494749639,0.010922671343218445,-5.085610215167361
2.711578948917841e9,16.787492990760946,2.2789336107505673,0.05080104414567464,-16.552862680846268
2.711578948917841e9,4.138008317036358,0.36896297687629637,-0.15072120031152966,3.7865186435211573
2.711578948917841e9,2.1707975183184196,1.1966347998316262,-0.060742044985833514,0.806348925552874
2.711578948917841e9,3.2522715611196773,0.7184252476192657,-0.07415068448594903,-2.72563723030804
2.711578948917841e9,10.841189856391525,3.306379760616864,0.03205802386460644,-10.196650618140033
2.711578948917841e9,11.006747438493875,2.6080821745101637,0.15993898561191566,10.568551330767866
2.711578948917841e9,6.394693608923276,1.5775818009648823,-0.010535764230877712,-5.981362066899201
2.711578948917841e9,2.9112973321347835,1.5491857678325143,0.19994752124453075,1.8463904695346702
2.711578948917841e9,2.5460194182052778,1.9552759720423807,0.08331549927676755,-0.16009510614733957
2.711578948917841e9,2.48699543197411,1.8039364694605555,-0.14332379429961475,-0.53280291590591
2.711578948917841e9,5.854518050065831,1.9311167037542298,-0.040991853879636574,-5.283744004713281
2.711578948917841e9,2.925109157420546,2.4325616068553577,-0.0985162244442015,-0.05160745682631694
2.711578948917841e9,1.7647237584188675,0.6803283089719288,-0.15354802721424987,-0.035881795914101094
2.711578948917841e9,2.2501297742711754,0.6944866055222466,0.13157369861698648,1.3917334091140028
2.711578948917841e9,9.287987145016805,1.9485387466606483,0.024041387709255978,-8.935479009814559
2.711578948917841e9,6.323171992616764,6.085051685547158,0.03848963140698872,0.5715153061003075
2.711578948917841e9,2.77219376023863,1.8778022497499611,-0.10006597972065882,1.233841529225907
2.711578948917841e9,28.935280856301723,5.882374185269218,0.02178363213397702,28.284644929984722
2.711578948917841e9,2.910933549873635,1.4536049443941954,0.18614494684513141,-1.9233767235195223
2.711578948917841e9,19.80836886014123,2.8608252848019893,0.20612134956496578,-19.532489107712408
2.711578948917841e9,9.159680085553735,1.3924616288232667,-0.09738505512435486,8.90644526157226
2.711578948917841e9,30.38567168480273,7.7236078318278825,-0.2054449808664154,-29.342225193754242
2.711578948917841e9,2.7570975551561423,1.3408835722674233,-0.046975599571627634,-1.7818172273598145
2.711578948917841e9,2.8741889935997107,1.2288304743350233,0.07152461499345819,-2.029601791023381
2.711578948917841e9,4.837668525050115,1.896065910950855,0.10639018368548633,4.1436835198656325
2.711578948917841e9,16.351406756783184,2.0328873855142726,0.1964429509670944,16.142203788052207
2.711578948917841e9,2.6423181942059966,1.955434152281114,0.11462887465861693,0.7200306250564484
2.711578948917841e9,9.430245075403853,1.49462016700884,-0.13024423097755436,-9.167994892191322
2.711578948917841e9,11.034284629188237,1.2459134956272535,-0.15486142638537792,10.84216841514517
2.711578948917841e9,35.84044754708888,5.785727548399829,0.03115455638288127,-35.333207152328164
2.711578948917841e9,5.640195900396394,1.531360999568562,-0.18422839180324713,5.1774766390494
2.711578948917841e9,4.957753071812193,2.070798936693635,-0.1261053270165469,4.2010315275834085
2.711578948917841e9,3.7445164052263165,0.9380082475157532,-0.17377449682394425,3.23802520454289
2.711578948917841e9,2.347446312200521,1.68778965539572,0.08500212749580988,0.1676486520202646
2.711578948917841e9,3.915013985462401,2.1087928742757596,0.17421487625306573,-2.8676536508201456
2.711578948917841e9,10.727286182245063,2.4213749910773443,-0.10356418973229448,10.323485245370197
2.711578948917841e9,15.307768083538999,3.9331074809889603,0.13631044898119685,14.704193615030457
2.711578948917841e9,6.161771762791998,4.479233516592728,-0.08696846382543165,3.9076586354584504
2.711578948917841e9,2.279435532821991,1.560104175545489,0.05123942039956565,-0.3643308879770161
2.711578948917841e9,2.8240957431555387,1.8950729268964532,0.10302397522779885,-1.321764953833172
2.711578948917841e9,22.955533856866424,3.064912528772403,-0.14748031173958884,22.691728813970165
2.711578948917841e9,9.734013226835215,1.796635244174403,-0.04022265716914963,9.428412305464986
2.711578948917841e9,2.88716253892367,1.7701585914210973,-0.19182614254714192,1.5933957395505147
2.711578948917841e9,4.605762856251677,2.1526294180495538,-0.05354822605758569,-3.7349473662236963
2.711578948917841e9,2.9145989086339656,2.391401332012852,-0.12213898306429369,0.3669192018326122
2.711578948917841e9,2.674881926953054,2.0866281328444303,0.15484919190636162,-0.387890771388281
2.711578948917841e9,4.18095523472603,3.7988938297777977,0.15718660885642188,0.6305123942123464
2.711578948917841e9,4.350165363657929,2.912998675212552,0.0701498513254025,2.7940861783663853
2.711578948917841e9,8.933398460649066,1.8535128025275753,-0.13191971220120377,8.586393695931152
2.711578948917841e9,5.667142080560199,1.0423237358256943,-0.0034804717661004645,5.329494313882587
2.711578948917841e9,12.794139237901625,1.3226469030760744,-0.20133235762071022,12.620361740250242
2.711578948917841e9,2.2243388274177596,1.1502078067974817,-0.19667534814788057,-0.979533150113487
2.711578948917841e9,2.2094776876496782,1.2149251843316198,-0.06077426229138695,0.8806339206171244
2.711578948917841e9,6.229073182171377,3.0406626538104935,-0.07543685599060557,-5.188785385784136
2.711578948917841e9,2.6104736226379495,2.042830364535876,-0.031050134099476316,0.1179563045840417
2.711578948917841e9,2.692124322808438,1.8738823855013034,-0.02961083930043143,1.052939949551094
2.711578948917841e9,39.48383938402678,7.849748680244049,-0.1320946280245276,38.66149286220435
2.711578948917841e9,3.2376719074933864,1.0118850872682799,0.19292274933514278,2.6066932937967398
2.711578948917841e9,2.5243398588007984,1.923364647608506,-0.01832302816825212,0.21467553679678314
2.711578948917841e9,4.329801391340936,1.6854385612950715,-0.06581245270726645,-3.6435706154850567
2.711578948917841e9,12.248225977697473,1.4394613483499177,0.13520707690059616,12.054135009950148
2.711578948917841e9,60.1777966082387,10.15219413405907,-0.16112593519505006,-59.292897200966074
2.711578948917841e9,4.543333462781673,2.2300102136914246,-0.026701072929474906,-3.611326850060521
2.711578948917841e9,2.6952401143061984,1.6292778745032914,-0.0017376082127184356,-1.408272355241353
2.711578948917841e9,12.455530329602741,1.889767742198678,-0.051803563105904026,-12.204089119121043
2.711578948917841e9,7.65321705673455,1.206104293134109,-0.13364807767625372,-7.3805584549754455
2.711578948917841e9,3.0494672558449976,1.3356034061288304,0.20715767708612393,-2.201354343860199
2.711578948917841e9,11.870590384243302,1.7885630991239847,0.20511536913835415,-11.620815245097258
2.711578948917841e9,19.42445592355908,4.825344508694523,-0.18351205087663233,-18.74474120360919
2.711578948917841e9,7.613409513248611,1.783021304753182,-0.038707359001424704,-7.221966653757122
2.711578948917841e9,1.7532548275201738,0.47818316866296856,-0.03318334455928679,0.4664797717737574
2.711578948917841e9,12.675179687632914,2.177302659421911,-0.013109728982679118,-12.381147868532317
2.711578948917841e9,5.459597922607432,0.6633588487642555,0.14343992335441305,-5.169144094247484
2.711578948917841e9,3.253581128070875,2.1551203928524685,-0.1199346136689329,-1.8166791412064083
2.711578948917841e9,1.9125721588277111,0.21114239859639058,0.03378811189222994,0.9928094873300783
2.711578948917841e9,8.160142071200438,5.630365835509358,0.06636043940893903,-5.67943277422894
2.711578948917841e9,10.981652546150203,2.7916006423204824,-0.014283760923395788,10.496519215279749
2.711578948917841e9,22.307271331209897,2.6772447980062295,0.13257436021554253,-22.08625363748187
2.711578948917841e9,3.596748098586683,1.285643344733256,-0.08920299690859262,2.9409559780065626
2.711578948917841e9,4.23979674374132,3.4517926137522745,-0.16370724317291172,-1.845986262900532
2.711578948917841e9,7.145536696971183,1.721639105235567,-0.1712477594422568,6.740829982158837
2.711578948917841e9,2.9250011578927593,1.8116649663649653,0.05358835185841039,1.6260661967659598
2.711578948917841e9,2.0393712570585256,0.6278892882028048,-0.014573977946040926,1.0667890744863646
2.711578948917841e9,15.625743021641737,8.849259700998255,0.15459547160756304,-12.775132450477066
2.711578948917841e9,7.619839392890394,0.884543929559723,0.1510050770721548,-7.3912240556772275
2.711578948917841e9,3.2001904043015483,2.3933792710153137,-0.0027065395965307276,-1.3734657359764484
2.711578948917841e9,2.3056211227921395,1.6132068730877351,-0.20179539196461777,-0.21492354610331973
2.711578948917841e9,4.031308210401598,0.6601733613787849,0.00044556807175765014,3.6316770211633997
2.711578948917841e9,2.180361112435466,0.2731531158249827,-0.12455917906815425,1.4273430320864688
2.711578948917841e9,9.763503170469866,2.8244237024790566,0.036510338922977496,9.204387707403537
2.711578948917841e9,6.875866993132209,1.1798401770874518,-0.1782955634268096,-6.574739228306894
2.711578948917841e9,14.291524314858476,13.025252245141784,0.1697685820907076,5.651115906221962
2.711578948917841e9,8.309713726638584,2.426984203751601,-0.20798511521636256,7.777614881804984
2.711578948917841e9,6.134870906149464,3.509340973725785,0.055026941121064696,4.763570107114975
2.711578948917841e9,2.164614284691324,1.3611008590389415,0.025239637395607882,-0.4536337488738318
2.711578948917841e9,3.350515381847375,2.0820812365198123,0.046051850655557426,-2.064517241385789
2.711578948917841e9,3.2687542833617917,0.855786917169381,0.1493229100542201,2.702507567118125
2.711578948917841e9,3.4288009091049414,1.8913621818905753,0.02090480920711112,-2.3563634958437567
2.711578948917841e9,3.395255695157545,1.740551934016753,-0.09546593393881249,-2.4212780964497806
2.711578948917841e9,14.990059109581836,3.3798278057181337,0.086785014279237,-14.513599334353573
2.711578948917841e9,12.042261597412564,1.6587081936743442,-0.06605898724250618,11.816676727547366
2.711578948917841e9,7.442168135942965,0.9173376729485412,0.1357740196721082,-7.204122759740857
2.711578948917841e9,2.1580027860621502,1.1209327276872052,0.14853281522025386,0.8671130329169728
2.711578948917841e9,2.604218086688225,1.1129237438115276,0.026319944183243543,1.7076653678144342
2.711578948917841e9,30.459791946452018,3.770501337695727,-0.10404236429186779,-30.181863451987365
2.711578948917841e9,12.474401150833424,3.006486027570283,0.20082688514177127,11.996034993469431
2.711578948917841e9,11.470017378144266,2.177005596293034,-0.1151322970326315,-11.143704545940738
2.711578948917841e9,5.1025710400653885,0.8554108519467413,-0.1353029431606378,-4.760216147535508
2.711578948917841e9,1.9939753486007712,0.8651998490327438,0.17643116558765848,-0.7547848171967045
2.711578948917841e9,4.616710929202324,1.198418400612873,-0.11013266936484396,-4.1520049494704665
2.711578948917841e9,2.5380021822419288,1.7325775263916172,-0.1272921934616846,0.8926858652354754
2.711578948917841e9,14.855101319392325,2.0614163929348046,-0.12159065810233968,-14.621329438208193
2.711578948917841e9,2.5532819997371994,1.9658586014805248,-0.09439920305274971,0.13856003763724245
2.711578948917841e9,31.53464974628661,3.277913679883707,-0.10817034556559636,31.321736491914777
2.711578948917841e9,2.6386273240693834,2.0081448564988116,0.09337569208873851,-0.5426329654286344
2.711578948917841e9,2.9807134317420694,0.6490847948326889,0.1493751906274666,2.4113253011797466
2.711578948917841e9,2.2116019524196253,1.4955228633547968,0.14472874653504078,0.08431675667247357
2.711578948917841e9,30.755255186028357,4.951327809365636,0.10493694835174797,30.31060084992043
2.711578948917841e9,7.880589580963754,1.178774294576789,0.0796659243395806,7.621108699588174
2.711578948917841e9,3.5158803744782285,3.11779343692453,0.0023699630976335073,0.1193081723370576
2.711578948917841e9,2.6967526578172962,1.1904133281530638,0.18111012029271684,1.7877503445189868
2.711578948917841e9,1.6932657375322755,0.41880089473168564,0.09082200999944688,-0.23867801610605194
2.711578948917841e9,7.413275223117108,3.6776930629154148,-0.2090917212492966,-6.225830473532896
2.711578948917841e9,9.173079519378142,2.0829428556228216,0.11373765843452775,8.784489845090517
2.711578948917841e9,1.8852791514082667,0.36035723339473763,-0.022663198413106975,-0.8929544707948178
2.711578948917841e9,1.9777750584712614,1.0657729493338677,0.04716561079724749,-0.38335202091199894
2.711578948917841e9,2.5045111137650564,0.7624050560388643,0.17473553038102066,1.7419078931796372
2.711578948917841e9,20.534179119510675,2.572730663421318,-0.08743459884736415,-20.30761890032813
2.711578948917841e9,8.103834670940532,2.2168124035482846,-0.17316388514094183,7.622424455164853
2.711578948917841e9,9.241497217786057,1.5493122761922558,0.051909242888148154,8.965247843316446
2.711578948917841e9,19.022443058272533,2.313293850696555,0.021833590223740786,18.811565483082163
2.711578948917841e9,3.1642660571946255,2.62707652679751,-0.04599672172055207,-0.6945459445238429
2.711578948917841e9,4.514270833338161,1.7870915389827782,0.0710197515488632,-3.814886937684223
2.711578948917841e9,13.678735209051425,2.1921848321343425,-0.07925491965548113,13.404077827408107
2.711578948917841e9,6.974700167037555,2.693518450170624,0.08021326886638712,6.225626697334326
2.711578948917841e9,1.653629128236231,0.2142870926458113,-0.02260057194912725,0.24803369574373377
2.711578948917841e9,5.9846988724254,2.1526659138489133,0.0009508181604119079,5.343791754672679
2.711578948917841e9,11.428854302131919,1.2128713325318095,-0.1649726511020531,11.246950652459985
2.711578948917841e9,24.262746277590047,2.638380194445299,0.17954154968865027,-24.063687017508432
2.711578948917841e9,3.742255037167664,2.460045360758209,0.015567228889244276,2.3077843079463642
2.711578948917841e9,11.484993398431847,1.278802201373994,-0.20598745961084367,11.296051018947605
2.711578948917841e9,23.262634470983652,3.5140611985659764,0.049489606674426416,22.938451307064327
2.711578948917841e9,4.205366768348079,1.7129271418968595,-0.18276361216144965,-3.477218556454156
2.711578948917841e9,2.353431345904501,1.643405680488032,-0.19866170505972186,0.41454982881229685
2.711578948917841e9,2.6681841450169146,2.0169282920572726,-0.0021925933771019123,-0.6516619164512074
2.711578948917841e9,3.9857504097252336,3.2004146912183744,0.13533451108934885,1.7316748734582572
2.711578948917841e9,2.5930597004869553,1.5411899029578036,0.0547847726264494,-1.3111644009805488
2.711578948917841e9,4.089815163154706,3.7460504249035007,0.17035738409699763,0.19527879796354458
2.711578948917841e9,39.77444431410338,8.862939705654345,-0.12004827160719986,-38.74033776113122
2.711578948917841e9,4.587659108991134,1.4336289411096017,0.05137686214055218,4.045014924812871
2.711578948917841e9,15.76444311118177,2.6673712732837456,-0.18011451690466723,15.451337062576403
2.711578948917841e9,2.1488959546423203,1.4106562658493416,0.031027217525593696,-0.01735510503404944
2.711578948917841e9,2.424373983333833,1.4728109490540509,-0.14901613160023455,-1.0294039422575392
2.711578948917841e9,3.161831840543163,1.6593949796995402,0.14526491109823447,-2.1438162606026077
2.711578948917841e9,17.4059676135854,3.1204607161469045,0.19721661729381965,-17.045967272479167
2.711578948917841e9,2.4600168798952855,1.342886105967313,0.09394655446235703,1.2700295922041875
2.711578948917841e9,2.1390726826843847,1.0013098169205183,0.07091375314044025,-0.9702798546608623
2.711578948917841e9,4.226634898840822,2.389874945012166,-0.14752584455736698,3.0829592285481
2.711578948917841e9,16.332638533357354,2.388960148581929,-0.04259317680567213,-16.075434608603477
2.711578948917841e9,2.2376166838507956,1.211723997440709,-0.17957301360028005,0.9380128330999812
2.711578948917841e9,5.164896038940873,0.9856354843703584,-0.17537867757680742,-4.800768404002483
2.711578948917841e9,6.950983684930248,1.7778230413809193,0.03535372213835302,-6.521328906015441
2.711578948917841e9,3.8880132309996127,2.9553877564188884,0.08824502122200123,1.9359762587043532
2.711578948917841e9,10.869158413146334,4.698796828538068,-0.030179230214580632,9.66604693515679
2.711578948917841e9,14.491306034823472,2.745677417578284,0.08949144724744632,14.135935008296459
2.711578948917841e9,6.817045270149738,1.6556615613982446,-0.04151012251791785,6.411133213676644
2.711578948917841e9,2.4628038796479883,0.7330735355525203,0.10749010804460572,1.6999744651477184
2.711578948917841e9,5.760528948947379,1.4603444765526212,-0.06954157738935639,5.331014248234311
2.711578948917841e9,2.0325155269272464,1.2043633916056549,-0.11472105214117295,0.2023077674141234
2.711578948917841e9,9.448463958459541,1.2999518387652307,0.16647164182624546,9.215711841635866
2.711578948917841e9,3.256307502776734,2.8093719378260222,-0.00995226511888263,-0.2903962541334112
2.711578948917841e9,1.6828038985110474,0.2627654609113711,-0.08808275333501182,-0.3584492521416904
2.711578948917841e9,12.61603790650682,4.029252914931335,0.01202423011777219,-11.844950400412172
2.711578948917841e9,7.715915306011059,0.978582597682064,0.023402024446829452,-7.480015950430944
2.711578948917841e9,5.062297503308134,2.3004509883755966,0.11134663989491843,-4.206642883852349
2.711578948917841e9,3.9285388008480973,0.7206659369387598,-0.10986560593678014,3.5036336038657536
2.711578948917841e9,6.070372952927248,0.7882502962756243,-0.14787723333475686,5.794797903836969
2.711578948917841e9,4.253108448940445,3.603570395903832,-0.15043939449087437,1.5665379131062582
2.711578948917841e9,16.565322191700382,3.093109923481512,-0.0764069690924623,16.192905652030934
2.711578948917841e9,1.935151431140726,1.0488331313083932,-0.10032541990434606,-0.09031112133534955
2.711578948917841e9,44.40345910852483,5.253744479449405,-0.19521411392240712,44.061328876478726
2.711578948917841e9,20.949601813676058,3.853500660151985,-0.02676648023520063,-20.528251107527968
2.711578948917841e9,1.9045620879329497,0.6755863082085656,0.021102372626396537,-0.7375335526077268
2.711578948917841e9,1.6529861942113455,0.04907991976690857,0.12748414073605838,0.2952346151618598
2.711578948917841e9,9.445433403692611,1.1959965533767674,0.12526445928303398,9.227327587527368
2.711578948917841e9,4.1529706925631675,1.7130035789149514,0.0756470418430263,-3.4176780131214173
2.711578948917841e9,3.7037490118067287,1.1178641710101913,-0.20824071421145723,-3.1302129970619763
2.711578948917841e9,7.464877521720078,1.9283473995595337,-0.06736567308354674,7.026720127583258
2.711578948917841e9,10.427619897215731,2.3307852619983818,-0.05202849502823842,10.033616047236691
2.711578948917841e9,14.387679060995808,1.8380562938127443,-0.0119638411046064,-14.177453080645295
2.711578948917841e9,2.471221753911452,1.2987143725560113,0.035984371606489624,1.3388219541528756
2.711578948917841e9,5.019404763240242,2.2487964269613903,-0.13868218964853257,4.182292101467663
2.711578948917841e9,59.21862875900314,6.342374183017407,0.010103479209716888,-58.855701855498545
2.711578948917841e9,6.401905846355038,0.8098801195278078,-0.08948518032464607,6.139539577565299
2.711578948917841e9,2.6789734897306925,1.2330954987940246,0.024144117130180366,-1.7404748419732372
2.711578948917841e9,2.862892296824044,2.207985313956663,0.04159099684345995,0.8322767027543897
2.711578948917841e9,2.812978693522219,1.4458121576139487,0.14404942593369235,-1.7819055144406064
2.711578948917841e9,1.7837054430276218,0.667879734538485,-0.014644423165336271,0.3298309763338215
2.711578948917841e9,2.066298920536185,1.1292281745104198,0.12907433557686482,0.5926516170536092
2.711578948917841e9,24.701429855738592,3.769673753488017,0.18944616918372775,-24.357499215305726
2.711578948917841e9,4.89116915053886,0.9314603422426933,-0.1409936568175166,4.517687377757494
2.711578948917841e9,12.237348933360746,4.594817585988922,0.16330796334183942,11.224399847734462
2.711578948917841e9,2.756840395659841,1.3667163002089053,0.03472976635446122,-1.76196212490909
2.711578948917841e9,2.33181160337752,1.558656789095084,-0.13288166804111945,-0.6031069508407718
2.711578948917841e9,3.16216968891567,2.494232208731303,0.1680573617409672,-1.0598776901081846
2.711578948917841e9,4.3154161953296635,3.3508482217495508,-0.08873481965117047,-2.1817929392801916
2.711578948917841e9,13.77686708807247,1.188109573068613,-0.1253356483008221,13.628947668270733
2.711578948917841e9,3.2793714428665908,1.220780473881347,-0.14706626362062453,-2.5721206762870996
2.711578948917841e9,5.382631555530441,1.538804576214216,0.17023677126019307,-4.893800521570649
2.711578948917841e9,8.579645015731332,1.9171103222859347,0.14031034682918564,8.202973288943518
2.711578948917841e9,2.623616715419506,1.0064307371564063,-0.00799068862325512,1.8010716682105623
2.711578948917841e9,22.147282273774568,2.3622268861094042,0.06661257259012328,-21.96112520301189
2.711578948917841e9,12.14878780329723,1.9183959531871422,-0.0029152898118916257,11.88638947375628
2.711578948917841e9,4.225698403481051,0.28684305622819134,-0.013212827056046709,-3.8919833817575786
2.711578948917841e9,2.6646818723584524,1.6513421389253249,-0.09087301527483697,-1.3186363716279557
2.711578948917841e9,3.8525755288884636,1.424145479085161,-0.12794802422638932,-3.1892378913602673
2.711578948917841e9,5.321316125661002,1.453466891435375,0.12477174944523482,4.854042900475992
2.711578948917841e9,7.69178067937997,1.700246893214352,-0.19274318520043696,-7.321814102444606
2.711578948917841e9,3.661642458568787,1.215032974884681,0.08189236985450642,3.0492745315068253
2.711578948917841e9,3.5539975216760475,1.773184197555052,0.01682936748675582,-2.619139958538018
2.711578948917841e9,4.711164832297507,3.151853856556669,0.011036398533714428,3.1039057180096568
2.711578948917841e9,9.70834652694634,1.0193418730530353,0.18227682332847386,9.515942977823537
2.711578948917841e9,10.825465820762462,2.589382762258824,-0.13999144615654582,-10.384588133691976
2.711578948917841e9,11.300932521887695,1.5753356395186053,-0.13492712563944953,-11.071795216778902
2.711578948917841e9,3.5710166811686106,2.913477541164456,0.15878838459350852,-1.269667739069154
2.711578948917841e9,9.878586107424224,4.604531209342921,0.1834171462862691,8.586301598408369
2.711578948917841e9,7.820596658914837,1.5583862668840054,0.13188860327496282,-7.489274391110492
2.711578948917841e9,2.697936326932686,1.2646426411094671,-0.0015916406752970766,1.747283046775955
2.711578948917841e9,4.16646073417764,1.3791078369138132,0.17049481018627777,3.577967203274303
2.711578948917841e9,7.882026466785749,2.493643387483583,-0.012525639553023299,-7.29941012355959
2.711578948917841e9,3.4867877004621914,2.8160952377163175,-0.13378090299925038,-1.2581176076180625
2.711578948917841e9,3.127802154731816,1.499264612668936,-0.08049943030635592,2.2141212583018146
2.711578948917841e9,2.4001009043727826,0.8595446925382894,0.20092607533063203,-1.5345217982656796
2.711578948917841e9,2.5514289902865626,1.9302710675956738,-0.1102484002679874,-0.3809855019762772
2.711578948917841e9,3.45768685250611,0.4452433744543006,0.20986824966185064,3.0144275061248407
2.711578948917841e9,3.845350433746609,2.7485594103839994,0.14300572353247717,-2.141296722395509
2.711578948917841e9,3.0423553985925653,1.8795279850079767,-0.004416997300938011,1.7597563977585151
2.711578948917841e9,3.6190164639020126,3.200610810603596,-0.03000968944039621,0.4753221938652864
2.711578948917841e9,2.3564229382774653,1.6874216111117066,-0.11559662084058395,0.25580452701938833
2.711578948917841e9,3.782680026886506,1.630948270858835,-0.0025443407720869725,3.0036861710769167
2.711578948917841e9,11.716760996096568,3.433777861765063,-0.17619276547260568,-11.083053510179274
2.711578948917841e9,3.7440714087539058,2.9585131348242495,-0.016802601622629892,-1.6243305026685781
2.711578948917841e9,2.2477180715205707,0.9095235736417366,0.04399866744626892,1.2635381591756814
2.711578948917841e9,5.168550134806144,3.6118525500470464,0.18297393920384722,3.317892908864823
2.711578948917841e9,7.047880631643944,2.013722514150016,-0.11100351429312587,-6.555812872414966
2.711578948917841e9,4.777757160150996,1.3085518371975233,0.12824997687225426,-4.297867922420763
2.711578948917841e9,6.291456102723052,1.5944585419010804,0.07204507369399472,5.8658667324110105
2.711578948917841e9,3.2509110986139627,1.3620303356687908,-0.1443525350774282,2.4629088180089256
2.711578948917841e9,2.6260827495450303,1.9513751121293454,-0.1933889467716751,0.6515425227003343
2.711578948917841e9,2.1240274068135294,1.3216700637186192,-0.14820746950992608,0.34084656070803
2.711578948917841e9,7.164527575164318,1.1992124583875619,-0.05233525560651356,6.8748139640544865
2.711578948917841e9,10.139068436600489,1.3980996415072418,-0.09520206941596165,-9.910117248795016
2.711578948917841e9,6.806469238589817,1.4615021977736342,0.14488146433777901,-6.445502722632551
2.711578948917841e9,5.092080358368794,1.2717871612115923,0.0042263700234236095,4.6567459770594155
2.711578948917841e9,2.7776038788477075,1.5021735714276758,0.026501813099707325,1.6826516833250076
2.711578948917841e9,57.974025592702915,7.015230174570506,-0.06951533652085112,57.52514943747262
2.711578948917841e9,3.173049837543068,0.8246244949797119,-0.1274781203628857,-2.5972004556907593
2.711578948917841e9,8.77750370376584,1.1463111083756845,0.13357743266373004,8.549044411296535
2.711578948917841e9,3.90225599927998,1.3794861821799154,0.033547775072593246,-3.2706200433983392
2.711578948917841e9,7.998717070554994,1.730295834708065,0.07351279705023624,-7.638953340101617
2.711578948917841e9,29.043723180209497,3.5643085855309056,-0.009146831577903382,-28.77858471112888
2.711578948917841e9,10.791990782702987,2.4251382844695675,0.20798935638283966,-10.388261209036752
2.711578948917841e9,4.444504082439024,3.22568729777558,-0.05582986290773923,-2.5920845253567895
2.711578948917841e9,2.9219926650960923,0.6298155925741843,-0.017445669017847703,2.3483036999626594
2.711578948917841e9,3.7140233316034688,1.62454724983554,-0.06301644089056543,-2.9196413535439945
2.711578948917841e9,2.7502051469664925,1.4561570700710815,-0.17838565453265995,-1.6687943732946686
2.711578948917841e9,3.635267248412058,1.0559405542276803,0.19941557135268678,-3.07145765193284
2.711578948917841e9,2.1369161572289923,0.8687262683521578,0.1355169069648005,1.080195198113726
2.711578948917841e9,2.952340632345857,2.091257920065735,0.07412875306177345,-1.3080220233360653
2.711578948917841e9,3.2718401482486863,2.3120509795052033,0.1313999186312029,1.6478936402707343
2.711578948917841e9,11.843225554583377,7.192365642714761,0.14201289819848079,9.267424750133031
2.711578948917841e9,4.067733193289919,2.569602520605402,-0.048495917876722375,-2.7045712281691268
2.711578948917841e9,2.894667719517262,0.8199236983445172,-0.04550177107913671,2.2534899796841734
2.711578948917841e9,4.438304732150507,3.8550953492756728,0.06884721386310297,-1.4850959460472415
2.711578948917841e9,6.907807550000887,2.845027031318075,-0.06829670142621477,-6.082139678097914
2.711578948917841e9,14.836000658735838,1.2788041160400732,-0.018771491059239975,14.691653561608803
2.711578948917841e9,2.366132088892714,1.7042763693631549,0.171948035204217,-0.19472584961311723
2.711578948917841e9,2.8494740210172207,1.667250898825498,-0.04586174587607732,-1.6465523075453197
2.711578948917841e9,3.0638134584373757,1.6414242696985404,-0.20475701336654387,-2.006044616857715
2.711578948917841e9,1.9599020230560935,1.0202009499232256,0.1875413255746511,0.3724182827907614
2.711578948917841e9,2.4660122585964417,1.7208401094205172,0.10705417675664487,-0.6942091507582295
2.711578948917841e9,6.108087677829611,2.378241404631254,-0.14590745901993168,-5.385617427849276
2.711578948917841e9,6.921264904180637,6.352617079099274,0.059131840782251366,-2.2176854398188484
2.711578948917841e9,2.082647417218884,1.2859034077728553,0.16447558282397226,-0.17401619861772094
2.711578948917841e9,10.023578548469576,1.2184904451987877,-0.08970490558485493,9.81594733821513
2.711578948917841e9,31.95361388938027,5.367198872143851,-0.056328715152223784,-31.457859194463676
2.711578948917841e9,2.6456883145216743,1.730506019862365,-0.06294373921402271,1.1723970414967848
2.711578948917841e9,23.055096983072012,3.8867071870984136,0.140979665923541,-22.666816936632493
2.711578948917841e9,15.582568613962138,1.574918715006177,-0.14602163032444068,-15.417140282745002
2.711578948917841e9,4.746493031515401,1.579513239190027,0.13238182275015073,-4.170164294467669
2.711578948917841e9,5.574392649109985,2.176988870339313,0.13157152755330984,-4.867311677138366
2.711578948917841e9,3.5120089411729802,3.1100463314746176,0.11160038647772125,0.15107990302569446
2.711578948917841e9,46.60077978271698,7.908796925420819,0.015280213048862647,45.89615272797085
2.711578948917841e9,13.56531614635417,3.536886319014489,-0.19928233712968582,-12.993921079928622
2.711578948917841e9,2.585518003079238,0.6946601033381389,0.1901591408499341,-1.881396117416084
2.711578948917841e9,12.25410342653705,1.8596977122648433,-0.10984482675903144,12.002748455487113
2.711578948917841e9,2.480153174406741,1.387573596354258,0.19016135310690296,1.2502396199948629
2.711578948917841e9,14.478273768464494,1.616011776244291,-0.10530960055300666,-14.295848638890877
2.711578948917841e9,3.643164752925905,1.4853944918192508,-0.08564532306988686,2.9038558269430235
2.711578948917841e9,14.398466219801989,5.5236984163131435,0.13112584238307817,13.19700164682334
2.711578948917841e9,9.502993548518472,1.364079056049955,-0.10488423559295632,9.263295049470983
2.711578948917841e9,6.70444749851463,4.3420124829057825,-0.15972362567994275,-4.841951402733109
2.711578948917841e9,2.6729837126997467,2.1165301785855237,-0.07823568060606925,0.18022839447478384
2.711578948917841e9,5.943964949208385,4.434259626880543,0.02663391355640878,3.611206540463137
2.711578948917841e9,5.680839208437195,0.9396461628074837,0.03952744975952539,-5.362918789796654
2.711578948917841e9,9.801734129518607,1.5666891098268152,0.1447217430432951,9.537923985879237
2.711578948917841e9,3.9770134721432635,2.628832425166287,0.07336638014396013,2.504786373459407
2.711578948917841e9,6.267171543269299,1.5697061722393229,0.16660228395175347,5.844584376068185
2.711578948917841e9,4.7094203021069205,2.029998745463879,-0.13679996130617555,-3.925874629977193
2.711578948917841e9,4.479472324105387,1.156472370322851,-0.12575974663874295,-4.010721831495089
2.711578948917841e9,1.7698465157487007,0.6646504452207459,0.08943408781766776,0.23676820587211864
2.711578948917841e9,5.413981990294536,1.432268594655973,-0.13553953700919066,4.961340329215798
2.711578948917841e9,3.3349630514186686,0.6160459457888574,-0.1165887897238256,-2.8464599356947846
2.711578948917841e9,2.0428808861696384,1.1204075239350046,0.17790586544673961,-0.509764615118317
2.711578948917841e9,2.0023118731419234,0.8505552169384153,0.06886032064474869,-0.8090290976872617
2.711578948917841e9,3.6557332477239535,1.0945681971021755,0.051600303841405425,-3.0882202987238934
2.711578948917841e9,12.51884652583579,1.252939651384828,0.15785718146061656,12.349097248061488
2.711578948917841e9,4.325046094928451,2.377013361982335,0.08424473705061003,-3.2283424832090786
2.711578948917841e9,3.097874691362662,1.2600221997417542,0.04339887685501222,-2.319644231650833
2.711578948917841e9,7.922181808963679,1.7945449226780044,0.1755152214822685,7.542097102675997
2.711578948917841e9,2.1803133217534127,1.4526669653701552,0.12962956047482846,-0.013498525429480643
2.711578948917841e9,10.10477769347894,2.545241236314495,0.0626651020176312,9.643537397292706
2.711578948917841e9,3.981596046314345,3.0798875919072,0.02716334282568903,1.9339397132404685
2.711578948917841e9,6.038179762633592,2.115724112574134,-0.1028874462464802,5.4172134592569945
2.711578948917841e9,2.368416115186637,1.7096686856521415,-0.14715095928745447,0.19553935551960852
2.711578948917841e9,12.034703701733392,2.9050462507601136,0.17562158366825306,11.564489512866958
2.711578948917841e9,3.517992701869314,1.0302910197762416,-0.07955495728930756,2.946507294772047
2.711578948917841e9,1.7817706136856675,0.7326975861133432,0.09421048377200646,0.049460249139330045
2.711578948917841e9,8.661899673744507,1.7446766644199276,0.03737639398653944,-8.328065409458329
2.711578948917841e9,17.07955077636438,1.7389430289922467,0.19467609190831947,-16.912205481484897
2.711578948917841e9,4.51089432356887,1.8942298855663704,0.147609309585278,3.756558717118211
2.711578948917841e9,3.845029210321409,1.0635123442969932,0.06935657594000363,-3.3199159554914446
2.711578948917841e9,3.603312024184805,2.952661581633195,-0.01796143129553388,1.2801506471380515
2.711578948917841e9,4.702828167144962,0.9046676544614598,0.2000816487016814,4.316433447062061
2.711578948917841e9,29.57419215412126,3.1562289044509706,-0.03990881123485365,-29.360567588566504
2.711578948917841e9,3.165675840836472,1.5832480233941526,-0.16233949679131926,2.2049798815081627
2.711578948917841e9,43.14247546211601,11.024666122600417,0.16878506613725838,-41.6782305124668
2.711578948917841e9,7.740903531972832,1.4843439884712,-0.12838930398509646,7.42127265138676
2.711578948917841e9,13.489269360924121,3.3207277178558665,-0.055307335780810325,12.97318609973814
2.711578948917841e9,11.013157224176549,2.2711440487601466,-0.18850415973193896,-10.652204659148133
2.711578948917841e9,6.023006168894962,2.412304134741247,-0.12434608025297329,5.274029890774489
2.711578948917841e9,7.417363473920638,3.4521797817906483,-0.11283343713911687,-6.360854143769629
2.711578948917841e9,4.384705098467343,2.224002470602191,0.1900061972615132,3.408344263815361
2.711578948917841e9,6.676549842283348,6.0716671363603885,-0.05554320455831045,2.2542298238117637
2.711578948917841e9,3.6261033951342174,3.189556104656432,-0.02094363512571343,0.5902374234157883
2.711578948917841e9,8.365281787205898,0.8838424190977382,0.010400040554097783,-8.159051106661769
2.711578948917841e9,11.804747506779378,1.8198080194066624,-0.04860865781734135,-11.550387908382223
2.711578948917841e9,5.666886527868997,1.0915646549790707,-0.17821562962295814,-5.316369990651671
2.711578948917841e9,18.38529348789538,2.1118816906702,0.08467670219804642,18.191351334663544
2.711578948917841e9,4.055064425805809,1.5043432525078202,0.1681440326502922,-3.3949503125604195
2.711578948917841e9,22.560457817492928,3.7793878203003892,-0.040274526895760984,-22.182477854503226
2.711578948917841e9,2.0914585963260244,0.0493389326681328,-0.14856727769276498,1.3126894751875466
2.711578948917841e9,3.7973631494734006,2.3488344363765563,0.1899055970769013,-2.4980673946210965
2.711578948917841e9,5.851424187082229,1.7508289173251397,0.1847504706680546,-5.339765120997076
2.711578948917841e9,6.941529515697631,3.18177269058065,0.1646081396265356,-5.950421824336932
2.711578948917841e9,13.017857016116501,4.00747990476807,-0.08796249497519726,12.27886109819683
2.711578948917841e9,1.9689649548493964,1.0538496402062352,0.06605070172483529,0.36786192853288235
2.711578948917841e9,38.04996756889557,11.723141816815817,0.08924566721301616,36.16259772627116
2.711578948917841e9,4.169008146489395,3.4517129669311273,0.13680536528891807,1.679598754418034
2.711578948917841e9,3.9486114537323904,3.590934892920384,-0.09077658782552223,-0.24887704365056573
2.711578948917841e9,23.85929771519074,2.5643650031323872,0.10590597226446623,23.665425512385244
2.711578948917841e9,2.523219592501077,0.6090844765823322,-0.07239127932669867,-1.834086660832899
2.711578948917841e9,2.3591691259306966,1.2499686446873712,0.037176141599770667,-1.1727473943432052
2.711578948917841e9,2.2581253604187546,0.6676330830344075,-0.1567767850674329,1.4150188740325063
2.711578948917841e9,13.290782890180907,1.859572946252952,-0.2097986620484138,13.05819068543925
2.711578948917841e9,14.086734765578584,1.5751561058095807,-0.06787906483994711,13.904094116304293
2.711578948917841e9,13.517314612531719,1.5186760840865035,-0.06851835019596993,13.333423554581682
2.711578948917841e9,16.853116930330646,1.689106616194503,0.08894923720787325,16.68951821665699
2.711578948917841e9,6.855271213435319,1.6684333343500772,0.02618775915814813,6.448554022744533
2.711578948917841e9,8.459328329722691,3.054428005034505,0.12127326498500646,7.719420918158934
2.711578948917841e9,1.7735852332435846,0.6898874307592618,0.2054313059060433,0.030315926735347488
2.711578948917841e9,2.5052574493392927,0.732066614100499,0.005947703170193551,-1.7646016970456675
2.711578948917841e9,2.6126344856882127,1.9474955504732927,0.023558599952646912,0.6372018467191636
2.711578948917841e9,2.993068192503988,1.3437771527570233,0.14079359920798132,-2.122818526282776
2.711578948917841e9,8.441977126357125,1.892439731210032,-0.11479253335229189,8.065105920219596
2.711578948917841e9,6.3659916618540535,6.039624567060068,-0.009644078289402742,1.192540600530544
2.711578948917841e9,18.054499333351,2.243750722853593,0.1597946597855049,-17.840360301932517
2.711578948917841e9,4.35016418349354,3.511370122717617,0.18596636198985164,1.9832009381916782
2.711578948917841e9,4.124115317015106,1.615418009586069,-0.014545816186305087,-3.4310350312952314
2.711578948917841e9,1.8033169578546755,0.4360410292189584,0.17314469890108636,-0.6366336065323329
2.711578948917841e9,2.7037225961099534,1.049120536688313,0.19799207635140587,-1.8824776966318706
2.711578948917841e9,21.99823776282196,5.013921646001852,-0.1893949209508021,-21.356981180066587
2.711578948917841e9,8.961278557856765,2.199195939172878,-0.039283739777961284,8.534633475716344
2.711578948917841e9,7.109418408514875,1.169967155373455,-0.03086651920438525,-6.822573955998552
2.711578948917841e9,2.0409033949246305,0.678940417675533,0.02932762188175579,1.0377512378485592
2.711578948917841e9,12.010737892992923,1.6524935600373132,0.1164470854349994,11.785032499272326
2.711578948917841e9,3.4943984743600316,2.1337848674703257,0.0005810974807826488,-2.243043393180363
2.711578948917841e9,12.842516890687065,1.5361090227262169,0.18706289694601547,12.64551611421487
2.711578948917841e9,26.284368287542364,3.1124196321375077,-0.03920445124967513,-26.049045749970386
2.711578948917841e9,6.7220274811496,0.7452332197948589,0.13312592154046374,6.4796619941829245
2.711578948917841e9,20.680682577560052,2.75940845665123,0.16380110068082052,20.43093064955616
2.711578948917841e9,20.82246383528434,3.8265214617321304,-0.10436614899932892,20.40331596937054
2.711578948917841e9,6.341891321443156,3.6302716359353333,-0.1989392584451998,-4.937063673700055
2.711578948917841e9,2.048224458174618,0.8165517322501806,0.1789487707251172,-0.9326870865836562
2.711578948917841e9,2.504213610587248,1.8047971663808453,-0.02336304251943065,-0.6218587687878414
2.711578948917841e9,4.997523843357548,0.7587471639790413,0.09779987801890726,-4.665130614928208
2.711578948917841e9,6.256171606583022,2.0024352633992275,-0.011607040097844135,-5.701163269713562
2.711578948917841e9,2.102486449847881,0.6835412887436434,-0.19026027505541895,-1.1359941771472524
2.711578948917841e9,10.441216890466114,2.67116144139532,-0.15106674349181404,-9.961653814059618
2.711578948917841e9,3.6066711928523687,1.4024141886085095,0.19112740211664322,2.894519479551107
2.711578948917841e9,4.576053007155568,1.8827352986606083,0.14273868945292023,3.8403978635563423
2.711578948917841e9,5.457906817447821,1.204460227978572,0.0177689878021528,5.070618089999847
2.711578948917841e9,5.552411033183605,1.8854548330229466,-0.16265390142576713,4.96198883783513
2.711578948917841e9,2.453060052459761,0.4631102533435407,-0.08413629001023272,1.780285023058185
2.711578948917841e9,18.08113600009652,5.096630032187208,0.006843381596819998,17.27209471087749
2.711578948917841e9,13.62508246680302,2.3960709257925106,-0.19367589916486153,-13.313063777967772
2.711578948917841e9,5.33766543709502,2.603281099370567,-0.13919456953238926,-4.366656143118145
2.711578948917841e9,50.29834087275898,5.259320185716922,0.19813400304619455,-49.995968335632874
2.711578948917841e9,6.69889641699692,0.8866144255759753,-0.16735204260966144,-6.436969980064312
2.711578948917841e9,17.69374760311229,4.86551858103258,-0.11758750151847304,-16.93384384964487
2.711578948917841e9,11.416505864251073,3.743154030499911,-0.022487307407254634,-10.662943286815183
2.711578948917841e9,2.51288615963361,1.7509486381330208,0.16505697299397162,-0.7713579441247355
2.711578948917841e9,12.117726116183698,2.0416784733084756,-0.032078774454687396,11.833987804417355
2.711578948917841e9,5.133111336258058,0.7964611957040627,-0.10915260308318807,4.803751495216921
2.711578948917841e9,10.266818264320058,1.8410043376487486,0.11556312560881818,9.968869877259607
2.711578948917841e9,4.651212457994587,1.7265027237828283,-0.09797408334250986,-4.002102936903013
2.711578948917841e9,23.778470948534906,8.506969865660109,0.10553108087618919,22.14519064515902
2.711578948917841e9,8.681810391482436,2.626190752102802,0.09925166086410527,8.11421986881289
2.711578948917841e9,2.097254671220746,0.7364158118802231,-0.2066320697813019,1.0894646667551584
2.711578948917841e9,9.59244506678038,1.6320483713388463,0.12562836488668422,-9.311772073625157
2.711578948917841e9,3.1218682787000356,1.6854369178621682,-0.1562910824581648,-2.0626192589532497
2.711578948917841e9,2.5713343041946004,1.7370212986390807,0.08166698115144276,-0.9804635539334154
2.711578948917841e9,20.69952734999019,4.804713932802549,-0.15730323144671024,20.068230450009825
2.711578948917841e9,2.1605564388597807,1.00479465296114,-0.07802714488175222,1.0128004541570674
2.711578948917841e9,7.450500793211779,3.172097132572651,-0.1264056498711484,-6.5425717135736745
2.711578948917841e9,7.588766181926415,0.7787903533476233,-0.15997381174925565,-7.370938019915587
2.711578948917841e9,8.609716665391604,1.5464906897368698,0.14106874565271524,-8.311988232563799
2.711578948917841e9,2.0771091369422763,1.047958841869736,0.15675184518943977,-0.7517011746338008
2.711578948917841e9,13.268000421758895,2.6279258932244978,0.0010503555467412816,12.903770795882409
2.711578948917841e9,5.046686886943468,0.9250310384323288,0.16732186079838365,-4.68602503963465
2.711578948917841e9,4.962236716822928,1.3761836461095873,-0.159352872442447,4.4808458612644175
2.711578948917841e9,2.849628276854587,0.4100059137826417,0.030293392896054597,-2.3075571372469525
2.711578948917841e9,5.475986748242967,4.806260921234759,0.11312479925765434,-2.0608131327553907
2.711578948917841e9,3.3013200259550297,0.687441571955541,0.1930078405369154,-2.7860989100910056
2.711578948917841e9,2.421984236626438,1.3801525138732171,0.03887901851246642,-1.1546152031027033
2.711578948917841e9,4.1612630142056775,1.4065179133208865,-0.1068413222270948,3.563686760809422
2.711578948917841e9,7.798939741206161,2.342105628725415,-0.04188789193154773,7.260145238200618
2.711578948917841e9,5.822895493378357,5.479440494193029,0.001260465526057685,1.1204032189485638
2.711578948917841e9,1.7275701158811014,0.49293228286708296,-0.1978431099062881,0.2753825304108775
2.711578948917841e9,2.1827166518451677,1.4092504067354894,0.07733400885867402,-0.3817667990172582
2.711578948917841e9,4.85008881301131,2.6580834217713343,-0.1270523034994314,3.7168902181228516
2.711578948917841e9,8.65099995360871,0.9983487327437343,-0.15150473022396363,-8.43763044262349
2.711578948917841e9,13.91612533830078,2.564080514393855,0.16252655547900627,-13.580540557362468
2.711578948917841e9,15.3819832918923,3.4856100916825348,-0.11674307697007624,-14.893480603915071
2.711578948917841e9,6.226286134412046,1.0808143231823637,-0.09717122272439375,5.912909465250571
2.711578948917841e9,1.9175825775383697,0.9534242410374099,0.006655711651418238,0.37619413097940646
2.711578948917841e9,1.8770434926305428,0.5753207368410632,-0.03341336255017034,-0.7514273315433864
2.711578948917841e9,3.4512406148396173,2.7534805921835557,0.1817868509883471,-1.2922155838693394
2.711578948917841e9,7.8420849110976905,1.177576120467838,-0.1921544359367481,7.579455657929521
2.711578948917841e9,7.609683675140371,2.9223781915897913,-0.18993887119667482,-6.834059974175437
2.711578948917841e9,2.732066154304423,0.7034235360190524,0.1628050266488241,-2.0775794781832273
2.711578948917841e9,3.1278076320337616,1.7909113550821434,-0.0030566167736350842,-1.9872767604791206
2.711578948917841e9,8.58688399778803,4.225445836691358,0.024364158301690923,-7.297468864260133
2.711578948917841e9,21.0849790207863,9.072302562438866,-0.1818101755181336,18.96338769173487
2.711578948917841e9,3.0121740012280838,1.915148289361735,0.06556635944708498,1.6657014919660968
2.711578948917841e9,2.3232401232348927,1.1026533162282444,-0.0831482189885895,-1.2442459051563564
2.711578948917841e9,13.300839439006639,4.158564152986524,-0.04051378588555721,-12.529584740336896
2.711578948917841e9,3.34678024042786,2.3402067467532035,-0.17811988777564744,-1.751029648563367
2.711578948917841e9,2.461511486614808,1.5445071221615099,0.0681484794848014,1.020957147716261
2.711578948917841e9,19.263638230195134,6.516086890975585,-0.0014981839112892924,-18.055520718410108
2.711578948917841e9,3.237998854966073,1.9192916118361756,-0.18767357762988865,-2.0345014342969865
2.711578948917841e9,2.8167176859919136,1.5099118986930158,-0.16842609909470058,-1.7318078398912027
2.711578948917841e9,5.962500129151412,1.2142993648768055,0.20865672380574304,-5.604177761152927
2.711578948917841e9,12.332825391249324,2.3470290738727453,0.06824741392901391,11.998284882112616
2.711578948917841e9,10.460744718742085,2.3174240509266055,0.025283595214324425,-10.071223746054418
2.711578948917841e9,2.5443838789958266,0.6451826966258608,0.15757896642542893,-1.8456052246915444
2.711578948917841e9,3.205471605879413,1.2530858919103234,0.025011341374053534,2.465290968789916
2.711578948917841e9,23.907251287297623,2.8743915521696097,-0.12534348740025064,-23.67809721015133
2.711578948917841e9,2.451314787029588,1.4328142973689126,0.014681225667344444,1.1529236750011036
2.711578948917841e9,5.547219407286827,1.860628885364345,0.045790587620351,4.968004397141051
2.711578948917841e9,4.107677745626249,3.7440701809408625,-0.03606060777652251,0.47656661556322
2.711578948917841e9,9.554960750800305,1.559254466066087,0.03388934777914794,-9.286458589575167
2.711578948917841e9,6.493481635042327,0.7519684996567865,-0.1470080490397705,-6.24112945852539
2.711578948917841e9,10.050758410649015,1.814239261696137,0.0477538888759363,9.751792720369389
2.711578948917841e9,3.2349135943287193,1.9870196046971844,0.09885909438584091,-1.9697987453491312
2.711578948917841e9,7.923699535273483,1.3460076294376138,0.14642594888458202,7.637100129805958
2.711578948917841e9,2.0527299554359515,1.2022074260802593,0.1318091042077357,-0.3528244592846644
2.711578948917841e9,2.089069014179578,0.5765686431480572,0.01719800455916781,-1.1853030577800867
2.711578948917841e9,3.4343451003333083,3.01668343774464,0.2068232644037098,-0.15821695965342167
2.711578948917841e9,7.153494714988796,3.2989478705493256,-0.013899803953072224,6.13699417831081
2.711578948917841e9,15.165394088853926,4.931974123929712,-0.19274238294737814,14.247846175803174
2.711578948917841e9,2.979363346371588,2.425594473724681,0.1831328740947162,-0.5770796423065049
2.711578948917841e9,7.094220202923633,2.919324473638828,-0.2047884788855598,-6.255959378744315
2.711578948917841e9,4.118264339729874,1.429315413147767,0.10099771979024784,3.5043429122484775
2.711578948917841e9,5.0870052336749065,1.1009598556971607,0.0042999970184629645,-4.69456625451221
2.711578948917841e9,9.084857259412415,1.7352046399318382,0.10610899396065544,8.768460430842927
2.711578948917841e9,15.423201487583029,4.044327306367123,0.13695502892636394,-14.794365996892477
2.711578948917841e9,4.566580348830119,3.009639833160502,-0.08770238268727557,-3.026795931913152
2.711578948917841e9,4.768259125063083,2.695432403724323,0.0004302260435901228,-3.5839085116679272
2.711578948917841e9,4.248424136202764,2.4456288093603242,0.057736276366136756,-3.0721547901576143
2.711578948917841e9,10.01642173557765,2.100624416607615,-0.08540741984920193,-9.658273561167077
2.711578948917841e9,20.682046430295635,6.18675925254531,-0.02555503775756203,19.66834671751529
2.711578948917841e9,3.45311497549717,2.3063076129305187,0.19542263971894472,-1.9849985855981953
2.711578948917841e9,56.799638079699974,6.702983873574544,0.03240978795470085,-56.3794404366126
2.711578948917841e9,1.957956706093407,1.0564681670473488,0.08620946936108682,0.28896118553231354
2.711578948917841e9,4.623460946701558,1.851682959184297,-0.012775943749389302,-3.914199699044784
2.711578948917841e9,3.7887720780124385,2.058833567471996,0.11868629440965146,2.734112822927491
2.711578948917841e9,1.722876114539557,0.5822316622800666,-0.007412879195525738,0.05210193001745081
2.711578948917841e9,61.20798023917126,7.339590271098464,0.15828062337697063,-60.74451142300712
2.711578948917841e9,5.713858553139899,1.4050461730721817,-0.13379211679527403,-5.294297465264739
2.711578948917841e9,3.561658306141958,2.254307970707904,-0.09968079771481402,2.2286835499639137
2.711578948917841e9,9.132315995292148,1.9884196990276228,0.1012718320824243,8.764050873814824
2.711578948917841e9,6.971046481148938,1.089987331907602,-0.02035497365298136,-6.691820641504636
2.711578948917841e9,16.01900079042389,3.590765023360115,-0.15428000180563853,-15.526250407489165
2.711578948917841e9,49.808214416562805,6.434752832309265,-0.027616166438991414,-49.364206444195304
2.711578948917841e9,8.050883229781583,2.117174727505905,-0.13226021281310682,-7.595410479578784
2.711578948917841e9,3.4273673541058938,2.322783918122823,-0.21045308256646694,-1.9185130998090925
2.711578948917841e9,7.046740172107745,4.717044316056442,-0.19543238464225723,4.97406346169706
2.711578948917841e9,5.335334291827281,2.830987759509564,0.059268450029748176,4.221522086438278
2.711578948917841e9,10.948813956538071,3.7154586622745818,-0.028896189968467396,10.170767923732063
2.711578948917841e9,2.4239481986053075,1.798309713340254,0.11360711890420926,-0.04649334750579977
2.711578948917841e9,10.399989436085317,1.2380049308762513,0.08455064738340634,10.197717215839988
2.711578948917841e9,22.76831388005858,2.5216107131822136,-0.06214668932817832,-22.570050848534624
2.711578948917841e9,4.823753967246426,1.6387004027634966,0.07201975360058231,-4.236925494506565
2.711578948917841e9,4.040398737713234,1.193084998526349,0.007672777083916303,-3.5035371325130695
2.711578948917841e9,1.9118812876571185,0.9601919153317853,0.1311452598047686,0.2993052439494837
2.711578948917841e9,10.398712232975724,1.8429677659483872,-0.16193425940764478,-10.103658959898848
2.711578948917841e9,5.1557266303640885,0.8817463789756723,-0.03008826253703835,-4.814207751132707
2.711578948917841e9,17.191896883531157,2.0775052608704976,-0.06646820366743024,-16.988653080433572
2.711578948917841e9,7.7472660974880405,2.188197036963436,-0.1851605936985966,7.250593246876644
2.711578948917841e9,2.7700990511699723,0.5421060114286164,-0.16075779667284498,2.1742097232959448
2.711578948917841e9,19.426734006874,1.7718569419460632,-0.01964939793980161,-19.277748629356925
2.711578948917841e9,3.9949801922353707,0.8226563961721935,-0.15096394880069838,3.554402093285513
2.711578948917841e9,18.65582041994624,1.9967747360286499,-0.13002455917387773,-18.47725848098826
2.711578948917841e9,10.33985359810815,1.1211626653149236,0.07067408634668249,-10.150075519232997
2.711578948917841e9,6.762179790795948,2.3718493537959846,-0.18524156274580564,-6.1188685958907625
2.711578948917841e9,4.539204535354361,0.4456481120482658,-0.07193886784522117,4.215929498663677
2.711578948917841e9,9.115608679018388,3.7645148157051365,0.10229626386842294,-8.14160588766924
2.711578948917841e9,9.306190423553554,2.1076134276626632,-0.15152715102560455,-8.91704247639754
2.711578948917841e9,2.849595215827468,0.6123115527105656,0.0640610302906521,-2.2615536264440137
2.711578948917841e9,9.82078165312424,1.108381529296183,0.02035264377312297,-9.622488742427718
2.711578948917841e9,1.9861845149389001,0.2517587634725573,0.09093017953719584,-1.1165748157858375
2.711578948917841e9,14.27039246957287,2.9528449646085586,0.11832525582104242,13.866660309853373
2.711578948917841e9,7.069619451444948,1.9606362636125687,0.05282496725808896,-6.595915047761781
2.711578948917841e9,3.483155456343807,1.0743281660332618,-0.13605399871041826,2.886718101678817
2.711578948917841e9,2.2507130271052525,1.5567062953320554,0.08451299314178648,0.09323818340708137
2.711578948917841e9,4.34250210967556,3.9142671403029774,-0.15554440800200045,0.9407998875533263
2.711578948917841e9,19.95780344082133,5.000636106467118,-0.13908736409878672,19.25257573891621
2.711578948917841e9,2.9687443258724935,1.8957925730916332,0.17569479670774132,1.6006267194510269
2.711578948917841e9,6.472267571328746,2.697954088946873,0.20160512654285073,5.65191186999233
2.711578948917841e9,5.490950347777832,1.627190817870803,0.19954102771089868,4.983616187735421
2.711578948917841e9,5.58801344495398,1.2678414975337389,-0.06608795661768183,-5.194955798128407
2.711578948917841e9,4.081553999384257,0.4523172203328283,-0.20421458713653032,-3.712983941371234
2.711578948917841e9,7.072899684498855,5.878205395366032,-0.08835071108457718,-3.58305269192689
2.711578948917841e9,10.914801194957036,2.364527288139433,0.16031473560338436,10.530415764775288
2.711578948917841e9,1.6660650872411793,0.024380845834656658,-0.15435100477652383,0.35329220343056533
2.711578948917841e9,8.145474453080592,1.764547647218091,0.01659229463412564,7.78513400826501
2.711578948917841e9,4.502822110701195,1.580022001417094,0.15167549263886593,-3.8896520596308153
2.711578948917841e9,2.5656867830075396,1.4550006766156787,0.012216150806286888,1.356109740989634
2.711578948917841e9,2.80883733452741,1.9647027301168927,0.15630167072650647,-1.174112986996726
2.711578948917841e9,2.935210262900738,0.9330159741061842,0.029232023966298766,2.262199622640616
2.711578948917841e9,3.497399685081045,0.6770690176595957,-0.14026533030964755,-3.021120471620354
2.711578948917841e9,3.3665023803892344,0.7601050604886247,-0.20134721658043822,2.844028663175052
2.711578948917841e9,5.807356314226022,3.308945744283649,0.1388513945974919,-4.486696655267247
2.711578948917841e9,3.420573180994021,3.007067878641382,0.17674979792270154,0.009183306216309778
2.711578948917841e9,3.2470174425767264,2.5400671855997548,-0.15971542559907925,1.1996387423981245
2.711578948917841e9,5.743791336044348,2.2462146714428366,0.07140737662222306,5.031304076755547
2.711578948917841e9,2.2105411690311016,1.3740390813364902,-0.1529001740534643,-0.590416432796195
2.711578948917841e9,1.9327214780321598,1.026874258544797,-0.0966595834349586,0.21227260330780032
2.711578948917841e9,8.661546657034249,4.222684939001666,-0.09378617408002254,7.38620252334453
2.711578948917841e9,3.52941278461974,1.0493207501534367,0.05947754125300218,2.953913362646439
2.711578948917841e9,2.655614078890648,1.8930275777220404,-0.021049180194769583,0.917469793725754
2.711578948917841e9,6.725346838486762,0.9311301483881685,-0.14167221253263004,6.458844857503749
2.711578948917841e9,5.814654402390159,0.9662798041134343,0.13027783235361112,-5.49845414732132
2.711578948917841e9,10.900997607782863,2.198384283272859,0.15582250702644065,-10.55215787877771
2.711578948917841e9,13.661579353578434,4.610655288122385,-0.11636130285782172,-12.756979637038969
2.711578948917841e9,3.4764768520215252,1.8352481634478957,0.06526818828333936,-2.467175856966996
2.711578948917841e9,14.792638098456234,1.9663072993320063,-0.162524314642744,-14.57061510465644
2.711578948917841e9,10.842587003645187,1.8310501127996102,0.10584658012846886,10.562727208534126
2.711578948917841e9,2.1307671020923324,1.1696484869364914,0.1937371522087271,0.7127537727856559
2.711578948917841e9,7.32335096802637,1.1906387716454097,0.027924729106239794,-7.041770380398088
2.711578948917841e9,2.355949885808755,1.2521607409521924,0.06584794716446543,-1.1626343171928863
2.711578948917841e9,2.024376382726034,1.1538046175366743,0.13952502169452072,-0.3476040509130125
2.711578948917841e9,2.233868472712286,0.6181953286651526,-0.13365254440177984,1.4012854993788508
2.711578948917841e9,2.5376817882915867,1.9429247894607673,0.15824067431919855,0.11529602992568096
2.711578948917841e9,75.50628744010784,13.027972496625353,-0.20891971449459884,-74.35590890664072
2.711578948917841e9,4.461288726444655,3.7053883432553527,-0.13632896299759065,1.8783157095167837
2.711578948917841e9,14.547042556888195,6.586364812186347,-0.07829237396691766,-12.868705342080391
2.711578948917841e9,4.3682051265859165,4.055474462616555,0.00979952309483411,0.08779547108800972
2.711578948917841e9,21.064652372799646,4.3593102235624785,-0.10986459948511595,-20.544522016727893
2.711578948917841e9,16.36810279113831,3.7785710155877195,0.014122576958957333,-15.843309369530411
2.711578948917841e9,13.857444074680624,4.669751625261484,0.07714950606203362,-12.945643481858413
2.711578948917841e9,3.088136582260412,1.247380025259844,-0.10166011965488332,-2.311656766855652
2.711578948917841e9,2.083215619254479,0.6648431275701204,-0.16060602170248114,1.1159918468436514
2.711578948917841e9,17.47691365887637,1.6100932107836958,-0.12981596338328155,-17.326474536744588
2.711578948917841e9,8.132977908526899,0.9987434554362526,0.19780437710547938,-7.90456676634512
2.711578948917841e9,3.735739656071053,1.4878264358045468,0.10602055131941467,-3.0173405644641664
2.711578948917841e9,34.25382557437075,8.838859841924677,0.14196352012707697,-33.053780883547645
2.711578948917841e9,3.2013645378741398,1.2664574545456238,0.203685003543453,2.444748249598602
2.711578948917841e9,40.28673885323273,5.219954170435548,0.023132565287771082,-39.914237208494264
2.711578948917841e9,15.15147787382716,5.617422008889054,0.14396232487591176,13.977288283087645
2.711578948917841e9,4.156900406661837,2.1471133536156186,-0.11442827728410417,-3.1670321393046557
2.711578948917841e9,4.1834120787256,1.9902261601322504,0.1969115893785685,3.297669395546024
2.711578948917841e9,4.513749723595075,4.1099872104535065,-0.2073263239731131,0.9013426967313916
2.711578948917841e9,6.5398108241724735,0.8102860167801226,0.0679479436078551,-6.2834231457330265
2.711578948917841e9,1.8848182983318806,0.8097492420977364,0.1729897706644856,0.49028755470058305
2.711578948917841e9,1.8056550636091038,0.7673219859096984,-0.19837315567109065,0.07560710407023986
2.711578948917841e9,1.7777442995880197,0.20463073787879546,0.016728175751878616,-0.7012006762467453
2.711578948917841e9,10.585626321431883,1.6773551655989705,-0.03290902010492218,10.325422142761315
2.711578948917841e9,10.289462925686223,8.157903826489207,0.027907172696856237,6.057584899193415
2.711578948917841e9,4.727128492321866,3.1862907396741087,0.08122068378392987,-3.0919507548009064
2.711578948917841e9,1.9465039479207895,0.9877211432464291,0.04130910419102095,-0.4301619285410126
2.711578948917841e9,1.9626888342571474,0.20163494960193204,-0.198792392174358,-1.0702492963932764
2.711578948917841e9,1.9702593813746927,1.1063554896161374,0.17545529683831268,0.024003410228632227
2.711578948917841e9,22.162573917985302,2.66615726005752,-0.08650841290048471,-21.941678732350965
2.711578948917841e9,6.413990050947764,2.6084009725285,0.16860599512226135,5.628547407900027
2.711578948917841e9,2.7848983041275153,2.0675917323741797,-0.18002168075513597,0.9065188091861878
2.711578948917841e9,17.257144677908876,2.9514593606019255,-0.035908077791021474,-16.92542767115039
2.711578948917841e9,3.7251216968512466,1.7208708582190566,-0.19360507117425374,2.8724751324423905
2.711578948917841e9,13.541519646333283,2.723235416026331,0.03367814145974042,13.165449865010993
2.711578948917841e9,4.493207285775025,1.8302329324159283,-0.15357309993819251,3.766833629644046
2.711578948917841e9,7.590209989302565,4.052301123815058,0.16629253626695495,-6.207733180511028
2.711578948917841e9,2.004468587676722,0.4996776037655136,0.015624746427924278,-1.0683789790972726
2.711578948917841e9,8.27629633309371,2.604722371611979,0.06562277478149835,7.686459339373
2.711578948917841e9,4.727519266102092,0.9253759828140166,0.20701583535840537,4.338631501995569
2.711578948917841e9,11.565093945503994,1.3806080245560852,-0.14562405524613015,11.366511085192245
2.711578948917841e9,20.497474146310388,2.127108397471374,0.1755502453142294,-20.321527981917097
2.711578948917841e9,2.0460253560437347,0.5490476628115203,-0.10310661177602988,-1.1169586440612598
2.711578948917841e9,16.429143525068305,3.533344835217951,-0.05779997260210636,15.96252961063188
2.711578948917841e9,8.404688613547185,1.3014422355726398,-0.06360996156219388,-8.143368697004174
2.711578948917841e9,4.345708823482876,0.6036857736019849,0.11069458803392286,-3.985217251020012
2.711578948917841e9,14.797282237534777,1.9764635341152916,-0.07881756722078462,14.574649308682254
2.711578948917841e9,101.04209517771234,10.270523252235758,0.02032682748850518,-100.50569336118052
2.711578948917841e9,2.007250400184111,0.7792716834791824,0.1308524680215184,-0.8821159835188749
2.711578948917841e9,6.22229390525873,1.7089901663436486,-0.07307394820287204,5.7588553912435305
2.711578948917841e9,1.658629622508087,0.0637581090597692,-0.04006811007322471,0.34473589767473106
