8.768786678667868e6,1149.11328125,-30.187162399291992,5.719219207763672,1148.6983642578125
8.768786678667868e6,1169.575439453125,-17.98392677307129,15.355183601379395,-1169.332275390625
8.768786678667868e6,303.1448059082031,3.461618423461914,44.97330856323242,-299.75433349609375
8.768786678667868e6,223.2610321044922,41.36985778808594,11.188199043273926,-219.08749389648438
8.768786678667868e6,182.1490478515625,13.456365585327148,-31.01698875427246,-178.95706176757812
8.768786678667868e6,109.24337768554688,-40.80889892578125,-14.413995742797852,-100.25700378417969
8.768786678667868e6,533.1055908203125,-2.2926828861236572,30.8149471282959,532.2003784179688
8.768786678667868e6,179.61407470703125,10.420475006103516,-27.623262405395508,-177.14419555664062
8.768786678667868e6,706.4451904296875,20.380687713623047,-20.102794647216797,705.8582153320312
8.768786678667868e6,59.3255500793457,-29.497583389282227,16.874576568603516,48.529823303222656
8.768786678667868e6,173.49685668945312,12.746771812438965,21.836103439331055,-171.6168670654297
8.768786678667868e6,303.1413879394531,20.970003128051758,-26.008535385131836,301.2789306640625
8.768786678667868e6,211.36456298828125,-18.135147094726562,31.41815757751465,208.2053680419922
8.768786678667868e6,126.14088439941406,-33.5368766784668,-21.27714729309082,-119.68527221679688
8.768786678667868e6,37.68148422241211,1.0475437641143799,27.019258499145508,26.06220054626465
8.768786678667868e6,843.4230346679688,33.197940826416016,-14.340937614440918,-842.6417846679688
8.768786678667868e6,80.87353515625,-16.175796508789062,39.06563186645508,-68.87110900878906
8.768786678667868e6,30.892534255981445,14.319883346557617,-18.098417282104492,-20.30316734313965
8.768786678667868e6,178.88662719726562,25.40378189086914,-30.086727142333984,174.4716033935547
8.768786678667868e6,145.1936798095703,-31.46556282043457,-25.235158920288086,-139.444580078125
8.768786678667868e6,48.36473846435547,30.165447235107422,-29.369455337524414,-23.603185653686523
8.768786678667868e6,66.59651184082031,-35.68671417236328,9.965627670288086,-55.251441955566406
8.768786678667868e6,91.2455825805664,17.560983657836914,28.513534545898438,-84.82232666015625
8.768786678667868e6,173.63287353515625,28.740020751953125,-1.8277534246444702,-171.20025634765625
8.768786678667868e6,172.87953186035156,7.235668659210205,-31.671220779418945,-169.77159118652344
8.768786678667868e6,1096.751220703125,42.87592697143555,0.4903533458709717,1095.9083251953125
8.768786678667868e6,619.5905151367188,-32.84954833984375,11.822575569152832,-618.5984497070312
8.768786678667868e6,143.36732482910156,-11.96845817565918,-17.67405128479004,-141.73587036132812
8.768786678667868e6,37.39563751220703,21.93408203125,-29.20408821105957,7.411653995513916
8.768786678667868e6,91.43498229980469,18.687898635864258,24.794490814208984,-85.94668579101562
8.768786678667868e6,35.975250244140625,-32.79841232299805,5.592105865478516,13.330140113830566
8.768786678667868e6,480.9659729003906,23.754798889160156,27.881635665893555,479.5592346191406
8.768786678667868e6,67.55535125732422,35.09613800048828,-28.296356201171875,50.21737289428711
8.768786678667868e6,493.12646484375,2.1174581050872803,-47.459190368652344,490.8231201171875
8.768786678667868e6,69.09848022460938,20.280282974243164,21.760814666748047,-62.29172134399414
8.768786678667868e6,2264.590576171875,22.460227966308594,-6.910741806030273,2264.466552734375
8.768786678667868e6,133.1375274658203,-25.563230514526367,-32.44667434692383,-126.52989959716797
8.768786678667868e6,779.132568359375,-16.72368049621582,35.0187873840332,778.159423828125
8.768786678667868e6,208.10775756835938,-29.79233741760254,11.264704704284668,-205.63279724121094
8.768786678667868e6,1200.530029296875,16.808353424072266,19.709774017333984,1200.24658203125
8.768786678667868e6,45.42770767211914,23.85736656188965,5.311846733093262,38.167640686035156
8.768786678667868e6,124.05709075927734,33.36074447631836,-7.884607315063477,119.18698120117188
8.768786678667868e6,55.18524932861328,20.639324188232422,-31.974987030029297,39.84359359741211
8.768786678667868e6,26.29780387878418,23.763538360595703,-6.408332347869873,8.734054565429688
8.768786678667868e6,70.81857299804688,-4.040017604827881,8.96929931640625,-70.06413269042969
8.768786678667868e6,17.655738830566406,8.156702995300293,-0.328279584646225,-15.348200798034668
8.768786678667868e6,303.15533447265625,-20.11651611328125,26.3795223236084,301.31890869140625
8.768786678667868e6,84.01644134521484,26.166975021362305,25.12892723083496,75.717041015625
8.768786678667868e6,102.37531280517578,-0.07892770320177078,-42.19481658935547,93.2243423461914
8.768786678667868e6,80.30123138427734,5.501306533813477,-27.247543334960938,75.27334594726562
8.768786678667868e6,31.072660446166992,7.400192737579346,20.698989868164062,21.743526458740234
8.768786678667868e6,72.88768768310547,5.692827224731445,6.638535022735596,72.29535675048828
8.768786678667868e6,158.3694305419922,-151.6265106201172,-25.00065040588379,38.1540412902832
8.768786678667868e6,41.1307373046875,13.748321533203125,-38.40840148925781,-4.242343425750732
8.768786678667868e6,584.0177001953125,-24.006589889526367,33.1254997253418,582.574951171875
8.768786678667868e6,33.950164794921875,13.908059120178223,-29.24118995666504,9.726974487304688
8.768786678667868e6,87.8420639038086,-34.72186279296875,-16.098278045654297,79.00599670410156
8.768786678667868e6,404.14862060546875,-4.23946475982666,10.626293182373047,403.9748840332031
8.768786678667868e6,679.2409057617188,-25.88097381591797,-7.193325996398926,-678.7025146484375
8.768786678667868e6,461.4450378417969,-22.145578384399414,-23.960437774658203,460.27978515625
8.768786678667868e6,38.64142608642578,35.05250549316406,-2.206897735595703,15.814325332641602
8.768786678667868e6,597.9737548828125,30.724029541015625,-35.270050048828125,596.133544921875
8.768786678667868e6,605.1868286132812,9.210869789123535,45.77706527709961,603.3748168945312
8.768786678667868e6,40.59986877441406,25.972885131835938,1.5143482685089111,31.01527214050293
8.768786678667868e6,94.08714294433594,-6.119385242462158,20.988895416259766,91.45977783203125
8.768786678667868e6,46.90837478637695,45.85731887817383,-7.1114182472229,6.11646842956543
8.768786678667868e6,21.67551612854004,5.7925496101379395,16.41035270690918,-12.548164367675781
8.768786678667868e6,44.24175262451172,6.216722011566162,6.577121734619141,-43.19615936279297
8.768786678667868e6,138.69482421875,-8.012977600097656,-34.361419677734375,134.0963134765625
8.768786678667868e6,276.286376953125,1.1100451946258545,-24.84379005432129,-275.1475830078125
8.768786678667868e6,37.20893096923828,-34.34831237792969,-8.372455596923828,11.183991432189941
8.768786678667868e6,44.96047592163086,-41.00339889526367,-1.5297765731811523,-18.119251251220703
8.768786678667868e6,46.68059539794922,0.7261365056037903,39.03923034667969,25.396278381347656
8.768786678667868e6,303.0420837402344,-23.27869987487793,23.41455078125,-301.2222595214844
8.768786678667868e6,429.5822448730469,24.635196685791016,-8.22452449798584,-428.78533935546875
8.768786678667868e6,61.96839904785156,19.449493408203125,7.859915733337402,58.228023529052734
8.768786678667868e6,24.142208099365234,-13.805465698242188,19.320302963256836,3.076192617416382
8.768786678667868e6,1058.500244140625,-34.30390548706055,-19.614736557006836,-1057.7579345703125
8.768786678667868e6,551.84716796875,17.414714813232422,22.396085739135742,551.1088256835938
8.768786678667868e6,39.96869659423828,26.562969207763672,29.692262649536133,-0.8698810935020447
8.768786678667868e6,653.7958374023438,-23.32353401184082,-14.473636627197266,653.2120971679688
8.768786678667868e6,1243.8070068359375,0.7303303480148315,51.84697723388672,-1242.721923828125
8.768786678667868e6,140.07623291015625,-31.301279067993164,-8.16827392578125,136.25469970703125
8.768786678667868e6,38.49154281616211,-28.608814239501953,-6.98219633102417,24.594009399414062
8.768786678667868e6,43.24253845214844,29.189865112304688,3.063450336456299,-31.606420516967773
8.768786678667868e6,138.96002197265625,11.888368606567383,14.543999671936035,-137.6499481201172
8.768786678667868e6,2147.459716796875,-128.9253692626953,49.49974060058594,-2143.01220703125
8.768786678667868e6,211.60240173339844,37.3060188293457,24.828866958618164,-206.77969360351562
8.768786678667868e6,259.01702880859375,26.776453018188477,25.858959197998047,256.3096618652344
8.768786678667868e6,763.0855712890625,33.20161819458008,0.6450319290161133,-762.3563842773438
8.768786678667868e6,149.96188354492188,59.66904067993164,-25.738676071166992,135.1154022216797
8.768786678667868e6,119.07640075683594,20.672019958496094,-16.77315902709961,116.02154541015625
8.768786678667868e6,43.77027893066406,-12.532042503356934,-12.072515487670898,40.04399490356445
8.768786678667868e6,295.5145568847656,56.677574157714844,21.263986587524414,-289.2314453125
8.768786678667868e6,746.4301147460938,-14.898857116699219,-19.742921829223633,-746.0137939453125
8.768786678667868e6,138.5232391357422,8.570207595825195,-21.305679321289062,-136.57154846191406
8.768786678667868e6,169.26268005371094,-23.542583465576172,11.499344825744629,-167.1940460205078
8.768786678667868e6,47.5703125,-25.563814163208008,23.00313377380371,-32.7225227355957
8.768786678667868e6,117.96084594726562,-14.90220832824707,40.64228439331055,109.68760681152344
8.768786678667868e6,56.240394592285156,21.812986373901367,18.732704162597656,48.236328125
8.768786678667868e6,183.2250518798828,16.324108123779297,-16.859664916992188,181.68978881835938
8.768786678667868e6,73.68765258789062,-34.92799377441406,-11.641508102416992,63.75627899169922
8.768786678667868e6,200.790771484375,0.09246546775102615,24.892314910888672,199.21792602539062
8.768786678667868e6,562.1134643554688,7.011870384216309,19.19317626953125,-561.7334594726562
8.768786678667868e6,705.9561157226562,25.34264373779297,31.558013916015625,704.7881469726562
8.768786678667868e6,2752.377685546875,-18.916797637939453,-19.960702896118164,2752.238525390625
8.768786678667868e6,168.0687255859375,-15.281329154968262,32.12248611450195,164.232177734375
8.768786678667868e6,94.33950805664062,23.928203582763672,29.10655975341797,-86.43305969238281
8.768786678667868e6,36.49513244628906,15.56098461151123,-31.941627502441406,-7.743678569793701
8.768786678667868e6,1479.8714599609375,-6.286312580108643,39.59086990356445,1479.3251953125
8.768786678667868e6,429.53240966796875,-17.072919845581055,-16.75218963623047,-428.85479736328125
8.768786678667868e6,726.8384399414062,-18.339818954467773,16.322101593017578,-726.4171142578125
8.768786678667868e6,91.41861724853516,-16.71023941040039,35.23828887939453,-82.62490844726562
8.768786678667868e6,52.02253341674805,-28.014713287353516,34.163997650146484,-27.29144287109375
8.768786678667868e6,44.559814453125,1.6864807605743408,-12.544376373291016,42.61282730102539
8.768786678667868e6,77.81426239013672,32.68962097167969,4.7538676261901855,70.38700866699219
8.768786678667868e6,172.5991668701172,19.757707595825195,32.143524169921875,168.39649963378906
8.768786678667868e6,35.96595764160156,-27.432647705078125,20.502689361572266,10.54141902923584
8.768786678667868e6,33.55607223510742,24.89625358581543,21.97534942626953,-3.7084131240844727
8.768786678667868e6,120.46195983886719,38.01266860961914,-10.252605438232422,-113.80459594726562
8.768786678667868e6,65.13796997070312,17.694028854370117,-25.56961441040039,-57.15376663208008
8.768786678667868e6,787.7909545898438,30.905925750732422,19.13374137878418,-786.9458618164062
8.768786678667868e6,180.3463134765625,26.32379913330078,-45.393348693847656,172.51600646972656
8.768786678667868e6,501.4618835449219,-14.967703819274902,-34.594886779785156,500.0336608886719
8.768786678667868e6,174.7554931640625,-32.38483810424805,-0.8736304640769958,171.69863891601562
8.768786678667868e6,187.0265655517578,-36.951446533203125,-3.8261337280273438,-183.27403259277344
8.768786678667868e6,698.7228393554688,6.979687213897705,0.466904878616333,-698.6809692382812
8.768786678667868e6,459.6899719238281,1.0205727815628052,-13.305005073547363,459.48590087890625
8.768786678667868e6,178.97618103027344,45.2050895690918,25.26048469543457,171.29319763183594
8.768786678667868e6,1192.80908203125,-13.534526824951172,24.209156036376953,-1192.4825439453125
8.768786678667868e6,443.0322265625,36.326148986816406,-27.785551071166992,-440.654541015625
8.768786678667868e6,102.88320922851562,29.873201370239258,21.6506404876709,95.99102783203125
8.768786678667868e6,126.59972381591797,11.902135848999023,34.449520111083984,121.20042419433594
8.768786678667868e6,258.65521240234375,-3.6359148025512695,-22.868656158447266,-257.59814453125
8.768786678667868e6,41.539337158203125,29.890132904052734,-7.709115982055664,27.6251277923584
8.768786678667868e6,328.2169189453125,26.092788696289062,-18.5062198638916,326.6397399902344
8.768786678667868e6,18.99556541442871,3.165759801864624,-17.591289520263672,5.642492771148682
8.768786678667868e6,606.759765625,-45.693302154541016,-42.76433181762695,-603.5157470703125
8.768786678667868e6,136.36375427246094,-1.8551714420318604,-42.95634841918945,-129.37103271484375
8.768786678667868e6,27.468358993530273,11.935599327087402,-4.263344764709473,-24.173494338989258
8.768786678667868e6,40.50727462768555,2.069537401199341,-32.94269561767578,23.276960372924805
8.768786678667868e6,85.67424011230469,0.0745989978313446,36.6729736328125,77.366943359375
8.768786678667868e6,1970.4298095703125,9.525457382202148,-41.70241165161133,1969.9630126953125
8.768786678667868e6,887.9115600585938,6.183629989624023,45.96033477783203,-886.6943359375
8.768786678667868e6,70.33724975585938,1.3728973865509033,66.97042083740234,21.234130859375
8.768786678667868e6,50.28074645996094,9.756338119506836,30.03116226196289,39.00741195678711
8.768786678667868e6,98.15930938720703,29.53068733215332,-3.327033042907715,93.50187683105469
8.768786678667868e6,351.37579345703125,-8.470410346984863,-35.97273635864258,349.4132995605469
8.768786678667868e6,625.253173828125,-45.51667022705078,13.619874954223633,-623.4378662109375
8.768786678667868e6,30.076534271240234,19.157798767089844,11.044651985168457,20.151277542114258
8.768786678667868e6,1193.1646728515625,-30.85565185546875,15.715903282165527,-1192.6580810546875
8.768786678667868e6,29.79325294494629,-25.89927101135254,-14.327247619628906,1.4413172006607056
8.768786678667868e6,179.08583068847656,-4.624434947967529,-38.18054962158203,174.8801727294922
8.768786678667868e6,249.36509704589844,60.01997756958008,13.150247573852539,-241.65699768066406
8.768786678667868e6,846.8909301757812,-28.444490432739258,10.991250038146973,846.3361206054688
8.768786678667868e6,372.10870361328125,-32.614200592041016,15.969778060913086,-370.31964111328125
8.768786678667868e6,42.4969482421875,1.8597058057785034,-20.92885398864746,36.810279846191406
8.768786678667868e6,33.52204513549805,-0.8089619278907776,32.02779769897461,9.368821144104004
8.768786678667868e6,166.5442657470703,-96.96853637695312,-72.30560302734375,-114.43983459472656
8.768786678667868e6,71.46162414550781,-4.853951454162598,41.28032302856445,58.048423767089844
8.768786678667868e6,31.137359619140625,-12.604012489318848,-1.4596812725067139,28.267032623291016
8.768786678667868e6,166.85867309570312,16.386707305908203,-46.81467819213867,-159.28640747070312
8.768786678667868e6,305.3282470703125,36.161441802978516,-22.357906341552734,302.3380432128906
8.768786678667868e6,303.88739013671875,22.1181583404541,32.90619659423828,301.2739562988281
8.768786678667868e6,142.77438354492188,43.39768981933594,5.463258743286133,-135.87420654296875
8.768786678667868e6,48.9584846496582,20.474748611450195,39.523311614990234,-20.152109146118164
8.768786678667868e6,44.027442932128906,22.25530242919922,6.729465007781982,37.26007843017578
8.768786678667868e6,868.5514526367188,-26.755870819091797,19.915016174316406,867.9053344726562
8.768786678667868e6,363.0030822753906,-8.185136795043945,-33.0581169128418,361.3888244628906
8.768786678667868e6,127.10945892333984,-11.47382926940918,21.1164493560791,124.77877807617188
8.768786678667868e6,109.91173553466797,32.595462799072266,21.553112030029297,102.684326171875
8.768786678667868e6,952.7918090820312,-9.042961120605469,-42.061336517333984,-951.8150024414062
8.768786678667868e6,242.6460723876953,32.709232330322266,-22.097145080566406,-239.39385986328125
8.768786678667868e6,34.733009338378906,-28.770658493041992,18.900745391845703,-3.445943832397461
8.768786678667868e6,391.4364929199219,-35.17020797729492,-28.3240966796875,-388.8107604980469
8.768786678667868e6,82.13579559326172,18.781082153320312,-49.00217819213867,-63.10965347290039
8.768786678667868e6,144.255126953125,-24.579721450805664,28.750934600830078,139.17343139648438
8.768786678667868e6,36.856605529785156,-16.12824058532715,-29.168291091918945,15.42665958404541
8.768786678667868e6,32.24557876586914,-16.712739944458008,-3.876224994659424,-27.1278133392334
8.768786678667868e6,319.8365478515625,42.86792755126953,23.8229923248291,316.0390930175781
8.768786678667868e6,221.61912536621094,-6.1798882484436035,10.126132011413574,221.27989196777344
8.768786678667868e6,83.75894927978516,36.52899932861328,26.5342960357666,-70.48124694824219
8.768786678667868e6,264.0167541503906,7.502322673797607,38.22854232788086,261.1084289550781
8.768786678667868e6,201.23818969726562,31.008634567260742,11.566554069519043,-198.47410583496094
8.768786678667868e6,34.53444290161133,17.763933181762695,28.429046630859375,7.703348159790039
8.768786678667868e6,134.38064575195312,29.911161422729492,19.282590866088867,-129.54591369628906
8.768786678667868e6,252.913330078125,16.447248458862305,-31.51712417602539,250.38328552246094
8.768786678667868e6,431.28143310546875,-87.70671844482422,-34.805850982666016,-420.8209228515625
8.768786678667868e6,213.06007385253906,-18.65340805053711,-18.967327117919922,211.37022399902344
8.768786678667868e6,24.774290084838867,15.448007583618164,-6.391790390014648,18.020854949951172
8.768786678667868e6,161.63186645507812,2.5525197982788086,-9.235105514526367,161.31813049316406
8.768786678667868e6,27.021190643310547,-3.132598400115967,24.427331924438477,10.68264102935791
8.768786678667868e6,312.8114929199219,-23.18366241455078,-37.99656295776367,-309.6131286621094
8.768786678667868e6,84.35775756835938,-40.796478271484375,0.28495389223098755,-73.77180480957031
8.768786678667868e6,302.7314147949219,-0.3129774034023285,-31.218669891357422,301.1014404296875
8.768786678667868e6,27.421167373657227,1.2569243907928467,13.574350357055664,23.591508865356445
8.768786678667868e6,255.10768127441406,30.45705223083496,4.435855388641357,-253.22540283203125
8.768786678667868e6,243.41021728515625,-56.77165222167969,19.522855758666992,-235.87042236328125
8.768786678667868e6,24.233470916748047,20.103050231933594,10.433818817138672,-8.046468734741211
8.768786678667868e6,22.70150375366211,-14.694096565246582,13.476320266723633,-10.407320976257324
8.768786678667868e6,65.89569854736328,10.031903266906738,-0.764680802822113,-65.04998779296875
8.768786678667868e6,849.2355346679688,-3.1325254440307617,-23.490388870239258,-848.8992309570312
8.768786678667868e6,4.972716331481934,-3.8835225105285645,0.35292476415634155,0.05770791694521904
8.768786678667868e6,35.86637496948242,-3.4644675254821777,-35.15471649169922,5.387195110321045
8.768786678667868e6,131.17198181152344,19.6418399810791,-32.52193832397461,-125.51131439208984
8.768786678667868e6,50.625526428222656,3.4266927242279053,2.981551170349121,-50.32686996459961
8.768786678667868e6,59.2742919921875,-14.653526306152344,38.755516052246094,-42.2753791809082
8.768786678667868e6,803.5450439453125,6.531639099121094,4.134149074554443,-803.501953125
8.768786678667868e6,219.39889526367188,-28.261951446533203,-26.926692962646484,215.87628173828125
8.768786678667868e6,157.9927215576172,-1.6139131784439087,-8.133398056030273,157.74481201171875
8.768786678667868e6,30.684185028076172,-13.23016357421875,23.413599014282227,-14.448776245117188
8.768786678667868e6,562.0797729492188,12.899038314819336,-39.0128059387207,-560.5673828125
8.768786678667868e6,516.825927734375,-11.597053527832031,36.51165771484375,-515.3948974609375
8.768786678667868e6,150.33547973632812,-24.439725875854492,2.8782613277435303,148.27560424804688
8.768786678667868e6,25.447160720825195,-18.20254898071289,-2.9687788486480713,-17.259584426879883
8.768786678667868e6,644.7669067382812,24.552597045898438,18.306489944458008,-644.03173828125
8.768786678667868e6,11.303608894348145,2.3919737339019775,9.265655517578125,5.16520881652832
8.768786678667868e6,295.3463134765625,11.156647682189941,11.778879165649414,-294.8842468261719
8.768786678667868e6,52.573089599609375,-30.95294952392578,5.279554843902588,42.05297088623047
8.768786678667868e6,260.064697265625,-2.1606690883636475,-30.50663185119629,-258.24176025390625
8.768786678667868e6,25.02479362487793,-20.264127731323242,-9.655862808227539,10.623156547546387
8.768786678667868e6,46.49870300292969,-28.74336814880371,-36.375633239746094,-1.8008559942245483
8.768786678667868e6,116.79032897949219,-18.211227416992188,27.421621322631836,-112.01280975341797
8.768786678667868e6,43.96148681640625,-31.953575134277344,-4.662995338439941,29.670175552368164
8.768786678667868e6,57.94718551635742,-31.71126365661621,13.545427322387695,-46.46800231933594
8.768786678667868e6,25.674619674682617,-23.333158493041992,3.4423646926879883,9.663418769836426
8.768786678667868e6,171.90167236328125,-18.384801864624023,25.402090072631836,-168.98934936523438
8.768786678667868e6,65.13691711425781,29.01936149597168,-39.83909606933594,42.473793029785156
8.768786678667868e6,13.009904861450195,-4.810052394866943,11.62427043914795,1.216180443763733
8.768786678667868e6,37.311866760253906,-9.22608470916748,-8.056718826293945,-35.10877227783203
8.768786678667868e6,63.136680603027344,35.76487350463867,33.69889831542969,-39.52189636230469
8.768786678667868e6,147.15721130371094,2.699056386947632,42.83776092529297,-140.72442626953125
8.768786678667868e6,1502.219482421875,31.423917770385742,-8.45020580291748,-1501.8638916015625
8.768786678667868e6,138.73123168945312,36.565555572509766,-8.601662635803223,-133.51333618164062
8.768786678667868e6,64.48079681396484,-1.1746293306350708,-14.82879638671875,-62.6656379699707
8.768786678667868e6,55.57994842529297,-0.41385743021965027,50.9788703918457,-21.92249870300293
8.768786678667868e6,108.8113021850586,-1.5130034685134888,5.753314018249512,-108.60474395751953
8.768786678667868e6,11.326550483703613,5.96256685256958,8.941097259521484,-1.8102630376815796
8.768786678667868e6,43.05662536621094,30.010082244873047,-13.42544174194336,27.63163185119629
8.768786678667868e6,180.5598907470703,46.07135772705078,-8.216191291809082,-174.3625030517578
8.768786678667868e6,1596.0438232421875,-20.35452651977539,32.026519775390625,1595.5897216796875
8.768786678667868e6,510.291748046875,-23.564542770385742,-38.4876594543457,508.282958984375
8.768786678667868e6,457.7476806640625,22.770856857299805,24.577430725097656,456.5094299316406
8.768786678667868e6,66.39815521240234,-32.61306381225586,25.895732879638672,-51.62359619140625
8.768786678667868e6,1366.747314453125,63.26811218261719,-50.22001266479492,-1364.354736328125
8.768786678667868e6,63.301639556884766,-25.114110946655273,-20.923776626586914,-54.120758056640625
8.768786678667868e6,190.48155212402344,39.820716857910156,50.11758041381836,-179.37738037109375
8.768786678667868e6,28.375823974609375,18.51617431640625,-17.847097396850586,11.588852882385254
8.768786678667868e6,205.0242156982422,-15.373156547546387,35.494205474853516,-201.31874084472656
8.768786678667868e6,1738.96630859375,-24.694461822509766,-2.6215617656707764,1738.7862548828125
8.768786678667868e6,381.5875549316406,-27.822738647460938,-1.4894583225250244,-380.55645751953125
8.768786678667868e6,19.23268699645996,-5.084439754486084,-16.514114379882812,7.861963748931885
8.768786678667868e6,543.7470703125,1.8722203969955444,13.545355796813965,-543.5663452148438
8.768786678667868e6,180.2513427734375,47.75294494628906,4.368797779083252,-173.728515625
8.768786678667868e6,123.61646270751953,6.296331405639648,-15.557583808898926,-122.4329605102539
8.768786678667868e6,778.6323852539062,14.102575302124023,20.716197967529297,-778.2228393554688
8.768786678667868e6,234.71957397460938,22.283740997314453,-30.81555938720703,-231.59793090820312
8.768786678667868e6,403.38861083984375,-23.742998123168945,29.94093132019043,401.5627746582031
8.768786678667868e6,117.37198638916016,-11.68337345123291,29.02833366394043,113.0819091796875
8.768786678667868e6,69.18267822265625,16.2392635345459,-27.985280990600586,-61.07237243652344
8.768786678667868e6,148.39059448242188,25.073837280273438,20.01402473449707,-144.84817504882812
8.768786678667868e6,99.59176635742188,32.091278076171875,-28.430702209472656,89.837890625
8.768786678667868e6,77.79851531982422,19.65363883972168,31.179973602294922,-68.44438934326172
8.768786678667868e6,246.8062744140625,-26.25914764404297,23.91692352294922,244.21763610839844
8.768786678667868e6,81.11507415771484,48.9298095703125,34.20105743408203,-54.829715728759766
8.768786678667868e6,28.402484893798828,28.17814826965332,-0.28745612502098083,1.758465051651001
8.768786678667868e6,8.329536437988281,-5.008120536804199,-0.7337471842765808,-5.851773262023926
8.768786678667868e6,56.01991653442383,-5.83445405960083,31.094690322875977,-46.12799835205078
8.768786678667868e6,110.3110122680664,12.296817779541016,-35.86933898925781,103.54312896728516
8.768786678667868e6,137.25807189941406,2.4673476219177246,-2.9323744773864746,-137.16986083984375
8.768786678667868e6,48.540489196777344,-28.584346771240234,36.2784423828125,14.610638618469238
8.768786678667868e6,16.527713775634766,-5.759645462036133,7.299404144287109,13.311358451843262
8.768786678667868e6,1224.516357421875,8.639333724975586,19.48842430114746,1224.326904296875
8.768786678667868e6,244.38609313964844,-0.8770152926445007,26.99692726135254,242.8691864013672
8.768786678667868e6,1984.241455078125,-23.376789093017578,13.638773918151855,1984.0545654296875
8.768786678667868e6,37.534271240234375,35.87191390991211,-3.0988495349884033,10.144275665283203
8.768786678667868e6,264.4101257324219,-14.304157257080078,23.094514846801758,262.9928283691406
8.768786678667868e6,52.007057189941406,43.08378601074219,-8.53717041015625,-27.678865432739258
8.768786678667868e6,718.707275390625,22.835432052612305,16.177852630615234,-718.1555786132812
8.768786678667868e6,19.418569564819336,8.677718162536621,-5.557675361633301,16.167003631591797
8.768786678667868e6,350.4934387207031,-36.246002197265625,11.780413627624512,-348.4014587402344
8.768786678667868e6,8.079805374145508,5.756901264190674,0.0533326081931591,4.756072521209717
8.768786678667868e6,349.4874267578125,14.49599552154541,-16.430177688598633,348.7862548828125
8.768786678667868e6,14.825931549072266,9.197891235351562,6.69325590133667,-8.993836402893066
8.768786678667868e6,58.685752868652344,4.17396879196167,-25.413467407226562,52.64250183105469
8.768786678667868e6,1041.1796875,-7.043486595153809,-21.586729049682617,1040.927490234375
8.768786678667868e6,476.8006286621094,-26.926332473754883,-10.858479499816895,-475.9058532714844
8.768786678667868e6,22.211748123168945,-14.627964973449707,16.21062660217285,2.661146402359009
8.768786678667868e6,78.61677551269531,-14.213218688964844,47.39292907714844,61.01617431640625
8.768786678667868e6,36.74927520751953,-25.93415641784668,-18.222827911376953,18.339550018310547
8.768786678667868e6,176.2008056640625,3.5301010608673096,-35.93925094604492,172.43292236328125
8.768786678667868e6,78.03399658203125,33.80521774291992,-0.930805504322052,70.25758361816406
8.768786678667868e6,172.3466796875,-27.163949966430664,24.472524642944336,168.39559936523438
8.768786678667868e6,84.62704467773438,-32.06366729736328,27.60780143737793,73.22532653808594
8.768786678667868e6,85.66710662841797,-12.587618827819824,38.80824279785156,-75.2649154663086
8.768786678667868e6,49.478721618652344,32.89411544799805,-18.408796310424805,31.90170669555664
8.768786678667868e6,434.32147216796875,-34.480560302734375,-13.897622108459473,432.71649169921875
8.768786678667868e6,8.902299880981445,7.1862030029296875,-4.16556978225708,0.8597585558891296
8.768786678667868e6,92.64664459228516,33.765445709228516,14.546477317810059,-84.98339080810547
8.768786678667868e6,42.683982849121094,-5.783109188079834,1.0425970554351807,-42.16482925415039
8.768786678667868e6,556.43603515625,17.832162857055664,-21.486398696899414,-555.7265014648438
8.768786678667868e6,118.05907440185547,24.8077335357666,-17.908384323120117,-113.9837417602539
8.768786678667868e6,225.08782958984375,65.51708984375,-16.882925033569336,214.65667724609375
8.768786678667868e6,208.84771728515625,44.74103927612305,16.590866088867188,203.29986572265625
8.768786678667868e6,153.1585235595703,-20.820899963378906,16.881275177001953,-150.76315307617188
8.768786678667868e6,549.7564086914062,-23.831451416015625,0.6397532820701599,-549.2305908203125
8.768786678667868e6,21.12192726135254,-0.3433099389076233,-15.447267532348633,14.06704044342041
8.768786678667868e6,57.2489013671875,30.254913330078125,-42.51015090942383,23.354778289794922
8.768786678667868e6,283.2758483886719,-19.170509338378906,13.838497161865234,282.27056884765625
8.768786678667868e6,126.62504577636719,60.1209602355957,-10.335586547851562,-110.91902923583984
8.768786678667868e6,110.92765808105469,-13.900655746459961,-34.71365737915039,-104.38947296142578
8.768786678667868e6,34.860809326171875,-0.36133232712745667,-25.09993553161621,23.992090225219727
8.768786678667868e6,363.96636962890625,32.6734733581543,-27.46021842956543,-361.4421081542969
8.768786678667868e6,93.2369613647461,-20.930564880371094,4.593741416931152,90.6885986328125
8.768786678667868e6,340.5150451660156,-40.67302322387695,-6.85264778137207,337.9936828613281
8.768786678667868e6,1488.46044921875,15.989221572875977,-5.17518949508667,-1488.3623046875
8.768786678667868e6,38.8197021484375,-12.802621841430664,-12.941767692565918,-34.14754104614258
8.768786678667868e6,774.1964111328125,10.233905792236328,-28.741731643676758,773.5888671875
8.768786678667868e6,51.73984909057617,10.243654251098633,35.74471664428711,-35.845176696777344
8.768786678667868e6,1136.4041748046875,-10.70741081237793,-54.217063903808594,1135.055419921875
8.768786678667868e6,68.36325073242188,18.354631423950195,38.33626174926758,53.45515823364258
8.768786678667868e6,41.0335807800293,-34.03836441040039,19.152868270874023,12.19810962677002
8.768786678667868e6,917.020751953125,-7.142714500427246,20.164836883544922,-916.7659912109375
8.768786678667868e6,1994.4759521484375,-21.355335235595703,-10.830011367797852,-1994.329833984375
8.768786678667868e6,90.99059295654297,-42.777347564697266,-25.494138717651367,76.09150695800781
8.768786678667868e6,759.8270874023438,-21.9749755859375,-8.327451705932617,-759.4573364257812
8.768786678667868e6,594.8301391601562,7.508940696716309,46.61115646362305,-592.945556640625
8.768786678667868e6,115.7030258178711,-24.762920379638672,-27.289838790893555,-109.63455200195312
8.768786678667868e6,647.9017944335938,-23.474945068359375,29.309154510498047,-646.8052978515625
8.768786678667868e6,503.4693298339844,34.78294372558594,16.87223243713379,501.9734191894531
8.768786678667868e6,19.683433532714844,-14.375446319580078,3.881551504135132,12.497973442077637
8.768786678667868e6,49.92066192626953,-18.789827346801758,30.71430206298828,34.44021224975586
8.768786678667868e6,275.61370849609375,42.59790802001953,-17.91469955444336,271.6944580078125
8.768786678667868e6,607.3262939453125,-38.96399688720703,0.536800742149353,606.0670166015625
8.768786678667868e6,71.7620849609375,-23.733642578125,6.1303629875183105,-67.37516021728516
8.768786678667868e6,42.45550537109375,10.937592506408691,8.554720878601074,40.00171661376953
8.768786678667868e6,24.511573791503906,23.66604995727539,5.428387641906738,-1.3227230310440063
8.768786678667868e6,220.11184692382812,-4.667336940765381,16.176576614379883,-219.4453125
8.768786678667868e6,174.83554077148438,-5.2811384201049805,-24.574260711669922,172.99179077148438
8.768786678667868e6,1641.1678466796875,38.722164154052734,4.550870418548584,1640.7017822265625
8.768786678667868e6,253.3491973876953,29.780168533325195,19.643634796142578,-250.8058319091797
8.768786678667868e6,108.1379623413086,15.841476440429688,-39.21072769165039,-99.47797393798828
8.768786678667868e6,84.45404815673828,-19.981334686279297,29.500946044921875,-76.507568359375
8.768786678667868e6,45.647789001464844,-10.39964485168457,-35.81644058227539,-26.138710021972656
8.768786678667868e6,207.74270629882812,-21.246919631958008,-25.24793815612793,-205.08200073242188
8.768786678667868e6,272.26971435546875,-20.407114028930664,10.579926490783691,271.28009033203125
8.768786678667868e6,80.15729522705078,-12.349085807800293,25.611461639404297,74.88142395019531
8.768786678667868e6,23.193159103393555,-21.545177459716797,-6.031843662261963,5.275087356567383
8.768786678667868e6,158.37489318847656,40.84782409667969,5.90151309967041,152.87156677246094
8.768786678667868e6,203.8234405517578,-16.71050453186035,-20.536741256713867,202.0729522705078
8.768786678667868e6,62.89860153198242,-37.7650260925293,-24.82530975341797,43.63739776611328
8.768786678667868e6,230.44252014160156,-29.633228302001953,26.529138565063477,226.96324157714844
8.768786678667868e6,39.50307083129883,16.916385650634766,30.972410202026367,17.479129791259766
8.768786678667868e6,391.1047058105469,-9.532869338989258,15.020578384399414,390.6877136230469
8.768786678667868e6,62.444461822509766,-21.147706985473633,55.56932830810547,18.831274032592773
8.768786678667868e6,99.96644592285156,39.00658416748047,-0.5222796201705933,91.98905181884766
8.768786678667868e6,989.9304809570312,34.37588119506836,-22.890132904052734,989.0637817382812
8.768786678667868e6,65.70215606689453,35.17811965942383,30.187028884887695,-46.45964431762695
8.768786678667868e6,125.7247085571289,36.57564926147461,1.6396852731704712,-120.23609161376953
8.768786678667868e6,40.66415786743164,-20.76007080078125,-34.111141204833984,-7.03596830368042
8.768786678667868e6,406.12396240234375,-31.08839225769043,37.37564468383789,403.1919250488281
8.768786678667868e6,331.5157165527344,13.897393226623535,36.27860641479492,-329.2170715332031
8.768786678667868e6,67.11485290527344,27.508949279785156,14.765748023986816,59.330562591552734
8.768786678667868e6,220.17300415039062,-13.754663467407227,-26.912067413330078,-218.06692504882812
8.768786678667868e6,1150.113525390625,12.719789505004883,2.7500760555267334,-1150.0357666015625
8.768786678667868e6,1757.61669921875,39.91291046142578,4.851704120635986,1757.154052734375
8.768786678667868e6,165.57691955566406,-35.68852233886719,15.255451202392578,-160.93414306640625
8.768786678667868e6,179.27297973632812,-38.78517532348633,14.672855377197266,-174.38377380371094
8.768786678667868e6,164.31834411621094,42.77741622924805,2.8226850032806396,158.5973663330078
8.768786678667868e6,1639.8809814453125,-7.213639736175537,-34.11619186401367,1639.50732421875
8.768786678667868e6,1096.3582763671875,17.47244644165039,4.874399185180664,1096.203857421875
8.768786678667868e6,82.91458129882812,-19.37661361694336,5.896549224853516,80.34355926513672
8.768786678667868e6,263.460205078125,2.1483356952667236,1.5331354141235352,263.4289245605469
8.768786678667868e6,14.514599800109863,-0.3778066635131836,12.723787307739258,-6.254424095153809
8.768786678667868e6,227.63528442382812,-5.171839714050293,-12.802495956420898,-227.1951904296875
8.768786678667868e6,1137.864501953125,35.83291244506836,4.054096698760986,1137.2886962890625
8.768786678667868e6,123.96758270263672,-41.2720947265625,5.619480133056641,116.71965789794922
8.768786678667868e6,40.35810852050781,38.56753921508789,3.440859317779541,-10.952813148498535
8.768786678667868e6,28.6143741607666,8.404684066772461,17.76327133178711,-20.569190979003906
8.768786678667868e6,76.33795928955078,-37.87827682495117,-44.53164291381836,-48.991172790527344
8.768786678667868e6,91.36203002929688,-24.882951736450195,-10.639049530029297,87.20752716064453
8.768786678667868e6,118.86248779296875,19.962547302246094,8.594935417175293,116.81778717041016
8.768786678667868e6,665.0504150390625,31.652441024780273,-16.51874542236328,-664.0841674804688
8.768786678667868e6,731.2320556640625,-26.774274826049805,-29.72882080078125,730.1301879882812
8.768786678667868e6,105.32051849365234,54.84791564941406,-47.768924713134766,76.10997772216797
8.768786678667868e6,79.54804992675781,-42.72304153442383,-21.642133712768555,-63.44078826904297
8.768786678667868e6,702.4722900390625,27.516998291015625,44.26853942871094,-700.529052734375
8.768786678667868e6,26.673524856567383,12.36849594116211,21.567455291748047,9.155537605285645
8.768786678667868e6,68.34536743164062,-16.660192489624023,25.758621215820312,-60.99591827392578
8.768786678667868e6,170.6512451171875,11.768840789794922,-16.5772762298584,-169.4078369140625
8.768786678667868e6,82.28592681884766,-35.15190887451172,-2.9737770557403564,-74.27621459960938
8.768786678667868e6,110.20142364501953,-22.620115280151367,26.950475692749023,104.38792419433594
8.768786678667868e6,169.89669799804688,-24.278879165649414,-10.528508186340332,167.794677734375
8.768786678667868e6,69.41532897949219,36.9472770690918,6.277425765991211,58.34777069091797
8.768786678667868e6,558.46630859375,-40.63705825805664,19.691051483154297,556.629150390625
8.768786678667868e6,43.165435791015625,-35.867530822753906,21.898653030395508,9.365133285522461
8.768786678667868e6,1660.1075439453125,-20.213979721069336,-29.218475341796875,-1659.724365234375
8.768786678667868e6,157.3019561767578,42.89746856689453,-3.414489984512329,151.26974487304688
8.768786678667868e6,1754.6092529296875,-23.39775276184082,10.72381591796875,-1754.417724609375
8.768786678667868e6,12.142663955688477,8.633614540100098,-4.166768550872803,6.78415584564209
8.768786678667868e6,15.950034141540527,-11.23773193359375,2.9940171241760254,-10.470651626586914
8.768786678667868e6,169.15243530273438,12.077421188354492,9.59837532043457,168.41921997070312
8.768786678667868e6,98.66790771484375,34.52091598510742,-23.852174758911133,89.2480697631836
8.768786678667868e6,486.87158203125,9.515070915222168,-30.993000030517578,485.7811584472656
8.768786678667868e6,247.7384796142578,-16.530372619628906,-6.805872440338135,247.07339477539062
8.768786678667868e6,114.16976928710938,43.63581848144531,7.515146732330322,-105.18866729736328
8.768786678667868e6,439.8650207519531,24.384870529174805,27.664945602416992,438.3055114746094
8.768786678667868e6,308.6357421875,-31.305801391601562,-24.018644332885742,306.0874938964844
8.768786678667868e6,35.915863037109375,-34.13085174560547,-7.046963691711426,-8.115180969238281
8.768786678667868e6,810.0596313476562,28.208885192871094,-4.547837257385254,-809.5496826171875
8.768786678667868e6,688.6022338867188,-6.913209438323975,-16.375333786010742,688.3658447265625
8.768786678667868e6,327.3353271484375,32.06269454956055,-2.4524223804473877,325.7374267578125
8.768786678667868e6,18.75455665588379,1.2886779308319092,-7.802890300750732,-16.723316192626953
8.768786678667868e6,48.984764099121094,20.7714786529541,-37.80663299560547,23.00419044494629
8.768786678667868e6,182.25453186035156,5.3377275466918945,-5.71416711807251,-182.06057739257812
8.768786678667868e6,77.08651733398438,21.756380081176758,33.57624053955078,-65.81875610351562
8.768786678667868e6,79.5639419555664,-2.969144105911255,-47.47557830810547,63.70366287231445
8.768786678667868e6,172.6879119873047,19.166362762451172,9.63876724243164,171.32232666015625
8.768786678667868e6,894.5084838867188,34.5638427734375,18.363191604614258,893.646484375
8.768786678667868e6,350.432861328125,5.624383449554443,-17.513490676879883,349.9361572265625
8.768786678667868e6,448.7967834472656,-19.21599006652832,40.91851806640625,446.5035705566406
8.768786678667868e6,211.36248779296875,-7.389005184173584,-45.50640869140625,-206.25021362304688
8.768786678667868e6,141.33970642089844,29.000089645385742,-29.126354217529297,-135.19631958007812
8.768786678667868e6,33.303558349609375,30.247955322265625,10.168912887573242,-9.01461410522461
8.768786678667868e6,17.335416793823242,-16.00913429260254,-5.265975475311279,2.641129970550537
8.768786678667868e6,124.86894989013672,4.528651237487793,-26.123037338256836,-121.98284149169922
8.768786678667868e6,423.05438232421875,-42.61265182495117,-29.8979434967041,-419.8282775878906
8.768786678667868e6,36.27692794799805,6.071905136108398,-33.06713104248047,-13.273812294006348
8.768786678667868e6,213.2797088623047,2.7782623767852783,-16.73818588256836,-212.5813446044922
8.768786678667868e6,242.84033203125,-38.777042388916016,-10.787264823913574,239.46165466308594
8.768786678667868e6,142.26303100585938,28.379592895507812,25.768081665039062,-136.9666290283203
8.768786678667868e6,1199.526611328125,-39.32023620605469,3.218263626098633,1198.8736572265625
8.768786678667868e6,38.07834243774414,-13.468035697937012,-33.58273696899414,-11.4566011428833
8.768786678667868e6,64.39060974121094,-17.692974090576172,19.376628875732422,-58.72084045410156
8.768786678667868e6,76.90940856933594,-37.90247344970703,33.18510818481445,-58.031803131103516
8.768786678667868e6,35.355186462402344,-14.69649600982666,7.690378665924072,-31.06995391845703
8.768786678667868e6,270.4556579589844,-31.455841064453125,-10.176155090332031,268.40960693359375
8.768786678667868e6,91.47860717773438,-40.922874450683594,-24.957904815673828,-77.85395812988281
8.768786678667868e6,121.97167205810547,-44.380611419677734,3.4394071102142334,113.5169677734375
8.768786678667868e6,34.81388854980469,-23.771413803100586,-19.290019989013672,-16.288145065307617
8.768786678667868e6,55.12575149536133,18.582571029663086,-37.51268005371094,35.732574462890625
8.768786678667868e6,526.98486328125,-32.360836029052734,13.796842575073242,525.80029296875
8.768786678667868e6,328.8729553222656,-0.3304709792137146,-53.857845306396484,324.4181213378906
8.768786678667868e6,56.828102111816406,14.969441413879395,1.9616996049880981,54.69901657104492
8.768786678667868e6,69.57862854003906,-30.487621307373047,49.10483932495117,-38.61201095581055
8.768786678667868e6,52.94622802734375,24.5775089263916,25.83806037902832,-39.014427185058594
8.768786678667868e6,528.611328125,50.09906005859375,8.68576431274414,526.1511840820312
8.768786678667868e6,75.86911010742188,24.086822509765625,30.323974609375,-65.16812896728516
8.768786678667868e6,888.4279174804688,-28.366952896118164,26.62006378173828,887.5704345703125
8.768786678667868e6,45.04280090332031,34.534976959228516,19.18065071105957,-21.419002532958984
8.768786678667868e6,607.3424682617188,20.347576141357422,-10.818068504333496,-606.8972778320312
8.768786678667868e6,2640.235595703125,-22.869983673095703,-22.2275333404541,-2640.041259765625
8.768786678667868e6,41.89385223388672,10.468998908996582,0.37751591205596924,40.4454460144043
8.768786678667868e6,1041.607177734375,2.1576132774353027,24.277545928955078,-1041.3175048828125
8.768786678667868e6,1036.3917236328125,-12.225434303283691,-1.0660480260849,1036.314453125
8.768786678667868e6,630.2931518554688,-18.00464630126953,23.462434768676758,629.5913696289062
8.768786678667868e6,57.52357864379883,-16.505048751831055,-31.032947540283203,45.431087493896484
8.768786678667868e6,616.1663818359375,40.36888122558594,-9.178213119506836,-614.7662963867188
8.768786678667868e6,218.41412353515625,7.349129676818848,44.749942779541016,213.63201904296875
8.768786678667868e6,589.3016967773438,-16.60498046875,15.806364059448242,-588.8475341796875
8.768786678667868e6,297.4468688964844,42.54262161254883,-9.884489059448242,-294.2066345214844
8.768786678667868e6,1395.5767822265625,-9.829384803771973,-6.76292085647583,-1395.5223388671875
8.768786678667868e6,460.9044189453125,6.326830863952637,3.4630043506622314,-460.837646484375
8.768786678667868e6,37.927093505859375,-16.693689346313477,-27.92584228515625,-19.246152877807617
8.768786678667868e6,71.50720977783203,-30.87723731994629,-15.631295204162598,-62.4981689453125
8.768786678667868e6,27.89310646057129,-27.38405418395996,-0.4082231819629669,4.295822620391846
8.768786678667868e6,233.401611328125,25.847501754760742,25.839492797851562,230.50167846679688
8.768786678667868e6,726.8541259765625,10.446396827697754,-5.275315284729004,726.7533569335938
8.768786678667868e6,315.4534606933594,46.99431228637695,-2.3978826999664307,-311.9089050292969
8.768786678667868e6,139.1365966796875,7.317718029022217,43.345062255859375,-131.97398376464844
8.768786678667868e6,736.63525390625,28.136863708496094,36.388389587402344,735.1912841796875
8.768786678667868e6,33.27091598510742,-27.818920135498047,-9.851043701171875,-15.049920082092285
8.768786678667868e6,393.71759033203125,36.32895278930664,14.741168975830078,391.74853515625
8.768786678667868e6,169.7576141357422,-15.062292098999023,34.94181442260742,-165.40956115722656
8.768786678667868e6,100.2847900390625,-46.38189697265625,-45.78196716308594,-76.15938568115234
8.768786678667868e6,530.8388671875,-1.5264500379562378,-4.120301246643066,-530.8117065429688
8.768786678667868e6,126.02029418945312,24.5510196685791,-37.47460174560547,117.74760437011719
8.768786678667868e6,53.99343490600586,-11.83642578125,35.38444519042969,38.90517807006836
8.768786678667868e6,84.0382080078125,-10.872154235839844,-24.90665626525879,79.46292877197266
8.768786678667868e6,45.942909240722656,-39.44645309448242,7.990300178527832,21.940034866333008
8.768786678667868e6,45.569393157958984,18.644746780395508,9.921456336975098,-40.261512756347656
8.768786678667868e6,23.464216232299805,-21.277606964111328,4.988028526306152,7.96455717086792
8.768786678667868e6,51.40021514892578,16.719446182250977,-16.74359130859375,45.52555465698242
8.768786678667868e6,92.3952407836914,10.459238052368164,66.92035675048828,-62.7664909362793
8.768786678667868e6,77.3816909790039,22.21150016784668,-60.33277130126953,-42.953617095947266
8.768786678667868e6,3233.371826171875,-13.612112998962402,18.18434715270996,3233.290771484375
8.768786678667868e6,250.66241455078125,30.949506759643555,-18.344079971313477,-248.04788208007812
8.768786678667868e6,50.1696891784668,-17.731704711914062,40.970542907714844,22.682165145874023
8.768786678667868e6,474.4680480957031,-37.86030960083008,18.500551223754883,472.5830383300781
8.768786678667868e6,53.37294387817383,35.52102279663086,4.145466327667236,39.49968338012695
8.768786678667868e6,53.68547439575195,-25.091760635375977,24.152597427368164,40.739017486572266
8.768786678667868e6,658.254638671875,31.78977394104004,-26.367870330810547,656.9503784179688
8.768786678667868e6,42.675411224365234,16.163597106933594,-3.5859804153442383,39.21162414550781
8.768786678667868e6,57.04412841796875,20.693876266479492,24.177509307861328,-47.241146087646484
8.768786678667868e6,14.540266036987305,6.620606422424316,0.9467769861221313,12.536835670471191
8.768786678667868e6,1219.4630126953125,-18.991689682006836,8.234153747558594,-1219.283447265625
8.768786678667868e6,124.40579223632812,-16.399927139282227,-59.31945037841797,-108.07186889648438
8.768786678667868e6,21.5157413482666,-18.492990493774414,-8.01958179473877,6.863273620605469
8.768786678667868e6,65.30768585205078,-42.351524353027344,24.642637252807617,43.065818786621094
8.768786678667868e6,278.6971130371094,10.798996925354004,17.685121536254883,-277.9085693359375
8.768786678667868e6,5.1578803062438965,-3.2835917472839355,-2.4226791858673096,0.6588671803474426
8.768786678667868e6,189.78427124023438,-28.677322387695312,-23.622098922729492,-186.08642578125
8.768786678667868e6,67.42787170410156,-1.5307430028915405,37.06252670288086,-56.222999572753906
8.768786678667868e6,45.3865966796875,26.883018493652344,2.0394115447998047,-36.380889892578125
8.768786678667868e6,429.1785888671875,-29.258628845214844,-10.5250883102417,428.03961181640625
8.768786678667868e6,38.778350830078125,14.31241226196289,34.982181549072266,8.102099418640137
8.768786678667868e6,17.460941314697266,-16.564228057861328,0.7665445804595947,4.517184734344482
8.768786678667868e6,11.274886131286621,5.126839637756348,-3.729219436645508,8.798479080200195
8.768786678667868e6,46.8961296081543,-36.6950798034668,9.439574241638184,27.460777282714844
8.768786678667868e6,24.703550338745117,4.815809726715088,-22.312822341918945,-8.927096366882324
8.768786678667868e6,113.77518463134766,-27.30378532409668,2.5129218101501465,110.37872314453125
8.768786678667868e6,39.06376647949219,-32.30799865722656,21.376436233520508,-3.962404727935791
8.768786678667868e6,2246.42333984375,19.696773529052734,3.680755376815796,-2246.331787109375
8.768786678667868e6,496.0689697265625,-32.2647590637207,17.2010555267334,-494.71002197265625
8.768786678667868e6,124.0544204711914,34.50075912475586,-2.2540693283081055,-119.09911346435547
8.768786678667868e6,1880.0819091796875,8.216375350952148,16.119112014770508,-1879.9923095703125
8.768786678667868e6,82.01815795898438,40.980010986328125,-9.503165245056152,70.34051513671875
8.768786678667868e6,91.96343994140625,25.1021728515625,-5.540963172912598,-88.24360656738281
8.768786678667868e6,14.907621383666992,-12.44828987121582,6.12198543548584,4.503363132476807
8.768786678667868e6,49.79148483276367,-37.322349548339844,18.32602310180664,-27.218978881835938
8.768786678667868e6,256.31939697265625,0.20141375064849854,29.022188186645508,254.65228271484375
8.768786678667868e6,48.881744384765625,-9.379416465759277,-35.7605094909668,31.82953643798828
8.768786678667868e6,36.453086853027344,0.010546218603849411,25.689943313598633,-25.67753791809082
8.768786678667868e6,260.537353515625,-14.020750999450684,47.44279098510742,-255.77880859375
8.768786678667868e6,570.7117919921875,-29.41400909423828,20.632888793945312,569.5713500976562
8.768786678667868e6,29.312482833862305,0.8849583864212036,-27.881824493408203,8.457191467285156
8.768786678667868e6,13.229979515075684,-4.736682415008545,-3.011814832687378,11.57613468170166
8.768786678667868e6,262.4538269042969,13.614677429199219,39.82745361328125,-259.0384216308594
8.768786678667868e6,244.58302307128906,18.839691162109375,-30.210105895996094,-241.95816040039062
8.768786678667868e6,57.901607513427734,-18.779369354248047,10.337920188903809,-53.6986083984375
8.768786678667868e6,27.047449111938477,4.528710842132568,-19.19778823852539,18.247791290283203
8.768786678667868e6,276.8125915527344,-15.90298843383789,8.46983814239502,276.2083435058594
8.768786678667868e6,70.42090606689453,-4.0489501953125,-32.93980407714844,-62.03355026245117
8.768786678667868e6,631.1744384765625,-22.529054641723633,21.532480239868164,630.3970336914062
8.768786678667868e6,714.9325561523438,-31.79452896118164,-12.487691879272461,714.109375
8.768786678667868e6,36.99883270263672,-16.562211990356445,27.957284927368164,-17.420644760131836
8.768786678667868e6,156.41848754882812,38.526832580566406,11.828539848327637,-151.10589599609375
8.768786678667868e6,35.808990478515625,-10.172406196594238,-33.651485443115234,-6.071682929992676
8.768786678667868e6,41.29676055908203,9.338385581970215,35.58363723754883,-18.506847381591797
8.768786678667868e6,440.6850280761719,43.46348190307617,7.104515075683594,438.4680480957031
8.768786678667868e6,1445.3677978515625,29.839859008789062,-12.35287094116211,1445.003662109375
8.768786678667868e6,58.22402572631836,-7.815666198730469,11.369068145751953,56.481666564941406
8.768786678667868e6,177.20530700683594,-18.034515380859375,-20.565290451049805,175.05435180664062
8.768786678667868e6,197.5293426513672,-34.53004455566406,24.715309143066406,192.88636779785156
8.768786678667868e6,130.7899169921875,-35.075706481933594,-13.048828125,125.28330993652344
8.768786678667868e6,20.45688819885254,1.032836675643921,19.751750946044922,4.2151594161987305
8.768786678667868e6,31.950439453125,8.058027267456055,28.108972549438477,-12.500646591186523
8.768786678667868e6,130.99871826171875,-25.101959228515625,3.148777484893799,-128.49562072753906
8.768786678667868e6,49.95930862426758,2.1152520179748535,40.64874267578125,-28.803123474121094
8.768786678667868e6,61.20805358886719,26.846406936645508,31.355091094970703,-45.08920669555664
8.768786678667868e6,1663.4986572265625,-25.385486602783203,-38.780914306640625,1662.8499755859375
8.768786678667868e6,38.178768157958984,-9.634263038635254,-36.68598937988281,3.069101572036743
8.768786678667868e6,52.361507415771484,-6.781837463378906,-12.712563514709473,-50.245460510253906
8.768786678667868e6,176.30519104003906,22.549333572387695,32.039894104003906,-171.8690643310547
8.768786678667868e6,300.9754638671875,-16.32209587097168,-11.489623069763184,-300.2969970703125
8.768786678667868e6,38.30793380737305,-12.081799507141113,-21.73674964904785,28.974531173706055
8.768786678667868e6,59.420997619628906,-6.624098777770996,-20.64507484436035,55.23802185058594
8.768786678667868e6,36.450191497802734,1.5694599151611328,8.427515983581543,-35.29322814941406
8.768786678667868e6,8.458639144897461,-6.336324691772461,-2.7043089866638184,3.8168060779571533
8.768786678667868e6,319.65155029296875,-19.21686363220215,44.863250732421875,315.8885803222656
8.768786678667868e6,65.79219055175781,37.441680908203125,-13.967317581176758,-52.17402648925781
8.768786678667868e6,31.648496627807617,-22.063241958618164,2.3036766052246094,22.361026763916016
8.768786678667868e6,26.936710357666016,19.665935516357422,-16.74784278869629,-6.987758636474609
8.768786678667868e6,70.24826049804688,-33.733497619628906,-13.654420852661133,-60.007564544677734
8.768786678667868e6,122.66258239746094,23.476045608520508,-18.57916831970215,118.91291046142578
8.768786678667868e6,25.02118492126465,-4.570546627044678,13.392533302307129,-20.40322494506836
8.768786678667868e6,833.0841674804688,22.265417098999023,28.01780891418457,-832.3094482421875
8.768786678667868e6,134.49420166015625,32.49555587768555,18.07075309753418,129.21556091308594
8.768786678667868e6,102.24201202392578,-5.038034915924072,21.01421546936035,99.88459777832031
8.768786678667868e6,610.9158325195312,15.0255708694458,9.125306129455566,-610.655029296875
8.768786678667868e6,70.34455108642578,-27.695653915405273,-23.543663024902344,-60.14552688598633
8.768786678667868e6,77.20099639892578,34.06847381591797,-1.2343387603759766,-69.19747924804688
8.768786678667868e6,217.15072631835938,17.035015106201172,24.227840423583984,215.099365234375
8.768786678667868e6,532.1110229492188,11.155362129211426,8.230727195739746,-531.9215087890625
8.768786678667868e6,1349.4395751953125,-21.51926040649414,-31.17045783996582,-1348.9044189453125
8.768786678667868e6,161.5305633544922,-20.394968032836914,34.54521560668945,156.43936157226562
8.768786678667868e6,124.0443344116211,8.99201488494873,23.851123809814453,-121.35792541503906
8.768786678667868e6,162.62478637695312,-29.471038818359375,31.25413703918457,156.81817626953125
8.768786678667868e6,1177.7679443359375,-6.858435153961182,-38.591129302978516,-1177.1114501953125
8.768786678667868e6,38.188690185546875,-36.15590286254883,-8.499591827392578,8.32858943939209
8.768786678667868e6,107.34265899658203,-34.179840087890625,-19.59715461730957,99.80290222167969
8.768786678667868e6,50.08949661254883,-24.84477996826172,16.348142623901367,40.18600082397461
8.768786678667868e6,45.203250885009766,-30.738658905029297,-7.0537638664245605,32.23654556274414
8.768786678667868e6,25.94438934326172,-18.89159393310547,-16.8187255859375,4.881721019744873
8.768786678667868e6,43.42680740356445,24.147327423095703,25.585235595703125,25.27195167541504
8.768786678667868e6,114.03646087646484,10.875021934509277,23.88970947265625,-110.93156433105469
8.768786678667868e6,743.1729736328125,-27.115236282348633,-28.636383056640625,-742.1194458007812
8.768786678667868e6,66.28626251220703,-21.51726531982422,-62.21406555175781,7.125120162963867
8.768786678667868e6,51.94265365600586,25.233997344970703,17.802576065063477,41.65134811401367
8.768786678667868e6,81.1340103149414,-28.076038360595703,-3.3350675106048584,-75.98567199707031
8.768786678667868e6,1362.0291748046875,-35.24624252319336,-5.193809986114502,-1361.5596923828125
8.768786678667868e6,255.96673583984375,32.2325325012207,-12.833954811096191,253.5858917236328
8.768786678667868e6,32.22663879394531,-18.76457977294922,-18.327735900878906,-18.466793060302734
8.768786678667868e6,22.336755752563477,17.26076889038086,-13.468733787536621,3.1735613346099854
8.768786678667868e6,26.91864585876465,25.82049560546875,6.952607154846191,0.24190804362297058
8.768786678667868e6,1083.48046875,-46.49983596801758,16.046823501586914,1082.35888671875
8.768786678667868e6,501.6175842285156,-17.149763107299805,-29.73394203186035,-500.4322814941406
8.768786678667868e6,8.424509048461914,-7.637321472167969,0.8219019174575806,-1.5652093887329102
8.768786678667868e6,30.330610275268555,27.30339241027832,12.535658836364746,2.7945876121520996
8.768786678667868e6,29.900619506835938,7.7345099449157715,-5.360041618347168,-28.213048934936523
8.768786678667868e6,24.097511291503906,21.96738052368164,7.8900933265686035,5.133463382720947
8.768786678667868e6,9.661705017089844,8.488037109375,2.833367347717285,-1.9379196166992188
8.768786678667868e6,52.556217193603516,-23.165546417236328,39.10420608520508,26.20793914794922
8.768786678667868e6,47.16645812988281,-36.562931060791016,-12.568015098571777,-26.83940315246582
8.768786678667868e6,165.55345153808594,-45.32583236694336,-17.36695671081543,158.24786376953125
8.768786678667868e6,146.24737548828125,-11.44458293914795,32.087791442871094,-142.1906280517578
8.768786678667868e6,414.16748046875,16.100204467773438,18.731689453125,413.4187927246094
8.768786678667868e6,159.33084106445312,37.380699157714844,21.26598358154297,-153.3859100341797
8.768786678667868e6,39.44388961791992,39.101287841796875,3.746321439743042,1.8321548700332642
8.768786678667868e6,401.48199462890625,25.352846145629883,1.36496901512146,-400.66650390625
8.768786678667868e6,1104.9052734375,126.68069458007812,-48.0660400390625,1096.561767578125
8.768786678667868e6,433.16900634765625,15.392439842224121,-34.252685546875,431.52716064453125
8.768786678667868e6,94.7256088256836,26.06451416015625,26.730812072753906,-87.0030288696289
8.768786678667868e6,379.6644287109375,32.790191650390625,-7.90239953994751,378.150634765625
8.768786678667868e6,682.218994140625,35.4518928527832,4.833365440368652,681.2730712890625
8.768786678667868e6,108.57453918457031,29.149898529052734,34.95668029785156,98.52525329589844
8.768786678667868e6,37.88028335571289,26.898569107055664,-20.878957748413086,-16.307472229003906
8.768786678667868e6,119.61981964111328,-75.78237915039062,36.77486801147461,84.87651062011719
8.768786678667868e6,155.9502716064453,-3.245743751525879,-32.29695510864258,-152.5035858154297
8.768786678667868e6,165.1782989501953,-31.626880645751953,16.712034225463867,161.22901916503906
8.768786678667868e6,905.7109985351562,44.641170501708984,-40.83754348754883,903.6826782226562
8.768786678667868e6,345.3644714355469,-8.316481590270996,11.673666000366211,345.0531311035156
8.768786678667868e6,56.73471450805664,4.340380668640137,-41.94003677368164,-37.83522415161133
8.768786678667868e6,25.08626937866211,-9.39612102508545,13.249305725097656,18.867204666137695
8.768786678667868e6,185.35777282714844,32.11402130126953,23.972318649291992,180.947509765625
8.768786678667868e6,145.88058471679688,-27.667325973510742,20.551912307739258,-141.7172088623047
8.768786678667868e6,23.80197525024414,-23.49836540222168,-2.159783124923706,-0.4217938780784607
8.768786678667868e6,1008.9189453125,17.1241512298584,-18.043676376342773,-1008.6075439453125
8.768786678667868e6,36.15018844604492,19.1389102935791,-11.367680549621582,-28.31599998474121
8.768786678667868e6,54.91580581665039,52.48094177246094,-14.211495399475098,-7.071901321411133
8.768786678667868e6,661.2769165039062,-42.909080505371094,-14.389762878417969,659.7191162109375
8.768786678667868e6,2736.862060546875,-41.04948043823242,10.937777519226074,2736.530517578125
8.768786678667868e6,58.80219650268555,27.11347770690918,-6.955474853515625,-51.6203498840332
8.768786678667868e6,241.7049560546875,20.60460662841797,1.4149565696716309,-240.8011932373047
8.768786678667868e6,186.45297241210938,-45.840797424316406,-17.48276710510254,-179.85595703125
8.768786678667868e6,619.4823608398438,0.022746430709958076,-27.089567184448242,618.882080078125
8.768786678667868e6,18.69944953918457,1.037678837776184,-7.199713230133057,16.948110580444336
8.768786678667868e6,533.461181640625,-13.565007209777832,33.68647003173828,-532.2147216796875
8.768786678667868e6,90.37290954589844,-33.27033233642578,50.573814392089844,67.03073120117188
8.768786678667868e6,257.91839599609375,20.068403244018555,6.058335304260254,257.04656982421875
8.768786678667868e6,1743.6209716796875,-30.102941513061523,1.3052749633789062,-1743.35791015625
8.768786678667868e6,407.62957763671875,-17.472524642944336,102.4751205444336,-394.13946533203125
8.768786678667868e6,1081.51171875,28.24090576171875,12.189573287963867,1081.06982421875
8.768786678667868e6,95.71257781982422,-23.178266525268555,-13.763402938842773,-91.7862548828125
8.768786678667868e6,49.66767501831055,30.78019142150879,-38.474037170410156,-5.4486517906188965
8.768786678667868e6,44.3869743347168,9.452679634094238,15.735784530639648,-40.29537582397461
8.768786678667868e6,84.3172607421875,35.9133186340332,21.074800491333008,73.25276947021484
8.768786678667868e6,482.4927673339844,25.816871643066406,2.9272637367248535,-481.7828063964844
8.768786678667868e6,75.5633773803711,24.888221740722656,11.666872024536133,70.31903076171875
8.768786678667868e6,320.7021179199219,-26.534034729003906,25.286087036132812,-318.5857849121094
8.768786678667868e6,537.896240234375,36.92913818359375,-35.21718215942383,535.4613037109375
8.768786678667868e6,714.6472778320312,37.317989349365234,-23.256393432617188,713.2865600585938
8.768786678667868e6,64.25523376464844,23.06092071533203,2.925992488861084,59.823486328125
8.768786678667868e6,1016.150390625,37.494972229003906,6.673669338226318,1015.4317626953125
8.768786678667868e6,62.1456184387207,24.932504653930664,20.509281158447266,53.01225280761719
8.768786678667868e6,377.3808288574219,-4.582249641418457,-30.476457595825195,376.1076354980469
8.768786678667868e6,51.71388244628906,-21.647661209106445,6.1142072677612305,-46.462913513183594
8.768786678667868e6,62.00441360473633,-27.437828063964844,-25.773448944091797,49.17238998413086
8.768786678667868e6,561.4591064453125,32.480682373046875,2.016927719116211,-560.5066528320312
8.768786678667868e6,126.81912994384766,59.1419563293457,-30.588930130004883,107.88938903808594
8.768786678667868e6,45.338897705078125,-34.285343170166016,24.151208877563477,-16.95085906982422
8.768786678667868e6,944.9042358398438,28.17617416381836,-13.843624114990234,-944.3775634765625
8.768786678667868e6,755.836181640625,-36.58152770996094,-18.65361785888672,754.713623046875
8.768786678667868e6,121.26905059814453,-30.417957305908203,8.693561553955078,117.0291976928711
8.768786678667868e6,13.394935607910156,11.774852752685547,2.284409284591675,-5.102974891662598
8.768786678667868e6,39.53548049926758,29.80010986328125,24.23295783996582,8.846074104309082
8.768786678667868e6,95.57474517822266,-36.47480773925781,26.887786865234375,-84.09310150146484
8.768786678667868e6,2355.78955078125,-26.549551010131836,-3.9934465885162354,2355.634521484375
8.768786678667868e6,360.89544677734375,-17.608041763305664,37.83256530761719,-358.4615173339844
8.768786678667868e6,32.34503173828125,26.350566864013672,4.086401462554932,18.045269012451172
8.768786678667868e6,32.072261810302734,-19.635669708251953,-16.963346481323242,-18.595623016357422
8.768786678667868e6,151.97927856445312,32.10207748413086,-14.54028606414795,147.80465698242188
8.768786678667868e6,53.46486282348633,3.8689403533935547,20.23712730407715,-49.23883819580078
8.768786678667868e6,656.1267700195312,3.7061054706573486,24.831369400024414,655.6390380859375
8.768786678667868e6,36.491851806640625,21.401653289794922,-14.607630729675293,-25.5092830657959
8.768786678667868e6,73.05213928222656,-21.5372314453125,15.40584659576416,68.01400756835938
8.768786678667868e6,852.9369506835938,-14.231992721557617,35.948089599609375,-852.0546264648438
8.768786678667868e6,218.19395446777344,5.456926345825195,24.205965042114258,-216.75648498535156
8.768786678667868e6,62.739009857177734,-19.277883529663086,16.695606231689453,-57.23884201049805
8.768786678667868e6,3115.644287109375,-37.70748519897461,23.467357635498047,-3115.326171875
8.768786678667868e6,43.44458770751953,-24.546518325805664,20.839008331298828,-29.002037048339844
8.768786678667868e6,199.8951416015625,-12.453956604003906,-24.9533748626709,197.9160919189453
8.768786678667868e6,83.85862731933594,15.862483978271484,48.28346252441406,-66.63211822509766
8.768786678667868e6,8.59661865234375,-7.229393005371094,-2.8414957523345947,2.011308193206787
8.768786678667868e6,372.9307861328125,11.560306549072266,10.190286636352539,372.5994873046875
8.768786678667868e6,548.9387817382812,25.895160675048828,-36.128440856933594,-547.12744140625
8.768786678667868e6,8.194028854370117,0.9530153274536133,7.522500038146973,-0.3571931719779968
8.768786678667868e6,685.7135620117188,10.811056137084961,20.054779052734375,685.3280029296875
8.768786678667868e6,233.6427459716797,65.05609893798828,7.046151161193848,-224.27098083496094
8.768786678667868e6,48.028846740722656,33.23312759399414,5.964384078979492,34.0181884765625
8.768786678667868e6,107.49864959716797,-37.67299270629883,-10.893563270568848,100.04257202148438
8.768786678667868e6,282.66558837890625,37.58994674682617,-21.81759262084961,279.2871398925781
8.768786678667868e6,88.61817169189453,18.564083099365234,-26.79231834411621,82.34809875488281
8.768786678667868e6,891.4312133789062,-5.188995361328125,-37.83036804199219,-890.6077270507812
8.768786678667868e6,876.5792236328125,-20.310815811157227,-28.4340877532959,875.8770751953125
8.768786678667868e6,38.32685089111328,-28.786231994628906,-6.154458045959473,-24.349634170532227
8.768786678667868e6,2260.406982421875,-15.8408842086792,22.445375442504883,2260.23779296875
8.768786678667868e6,54.26665115356445,37.251399993896484,-4.635178565979004,39.06660461425781
8.768786678667868e6,332.45849609375,18.20452117919922,27.121877670288086,330.83551025390625
8.768786678667868e6,312.1377868652344,-20.623794555664062,-22.677724838256836,-310.6136779785156
8.768786678667868e6,91.13593292236328,-13.98499870300293,-3.5449206829071045,89.93382263183594
8.768786678667868e6,573.0667724609375,26.361156463623047,-1.8495266437530518,572.4488525390625
8.768786678667868e6,666.4285888671875,16.3912353515625,40.03831100463867,665.0156860351562
8.768786678667868e6,325.1783142089844,-17.17339324951172,34.756710052490234,322.8443298339844
8.768786678667868e6,1279.5946044921875,-18.41059684753418,-24.663728713989258,1279.220703125
8.768786678667868e6,1052.9383544921875,39.39474105834961,-33.30198669433594,1051.66943359375
8.768786678667868e6,402.2041015625,10.633179664611816,-27.482622146606445,-401.11126708984375
8.768786678667868e6,128.89353942871094,14.91048812866211,-54.75130844116211,115.68922424316406
8.768786678667868e6,131.30308532714844,29.45261001586914,-17.063980102539062,126.7767562866211
8.768786678667868e6,357.9886169433594,-26.116500854492188,31.15023422241211,355.6598205566406
8.768786678667868e6,293.86895751953125,-32.46996307373047,-24.444686889648438,291.0285339355469
8.768786678667868e6,157.2325439453125,33.15747833251953,18.70585823059082,152.5228729248047
8.768786678667868e6,2323.69140625,-6.8443403244018555,-24.875364303588867,-2323.546142578125
8.768786678667868e6,838.6580200195312,-0.8554552793502808,47.864044189453125,837.284912109375
8.768786678667868e6,87.60603332519531,17.229894638061523,-17.31817626953125,84.07443237304688
8.768786678667868e6,21.189476013183594,20.91289520263672,0.6525440812110901,1.3040720224380493
8.768786678667868e6,213.09823608398438,17.357126235961914,27.322999954223633,210.60275268554688
8.768786678667868e6,254.72496032714844,9.88280963897705,37.297752380371094,251.76673889160156
8.768786678667868e6,513.4146728515625,-28.559341430664062,30.39190673828125,511.708740234375
8.768786678667868e6,1556.0623779296875,-3.962677478790283,-31.095748901367188,-1555.7435302734375
8.768786678667868e6,16.84385108947754,9.82302474975586,4.2328619956970215,12.640731811523438
8.768786678667868e6,75.10820007324219,28.91277503967285,22.36167335510254,-65.54182434082031
8.768786678667868e6,88.57064056396484,-39.41832733154297,2.0096795558929443,79.23001861572266
8.768786678667868e6,27.038732528686523,26.573413848876953,3.908982038497925,-0.38514092564582825
8.768786678667868e6,49.860557556152344,-48.078369140625,3.1274189949035645,12.459794044494629
8.768786678667868e6,319.2548522949219,45.739444732666016,-13.445472717285156,-315.6600646972656
8.768786678667868e6,151.8192138671875,27.712806701660156,-7.871001720428467,-149.02886962890625
8.768786678667868e6,99.72933197021484,-11.911269187927246,44.84915542602539,88.22185516357422
8.768786678667868e6,306.3398742675781,31.570974349975586,-0.14551015198230743,-304.69305419921875
8.768786678667868e6,51.23403549194336,28.271804809570312,-18.834461212158203,-38.22795104980469
8.768786678667868e6,352.5762939453125,-38.61191940307617,7.445635795593262,-350.36297607421875
8.768786678667868e6,53.46556854248047,13.258172035217285,23.966630935668945,45.81343078613281
8.768786678667868e6,1536.8514404296875,-18.444414138793945,-33.11934280395508,-1536.3807373046875
8.768786678667868e6,311.2226257324219,-30.729934692382812,-17.422637939453125,309.1959533691406
8.768786678667868e6,528.274169921875,-14.795480728149414,55.51798629760742,525.13134765625
8.768786678667868e6,2763.6904296875,-60.918067932128906,-7.321491241455078,-2763.007568359375
8.768786678667868e6,30.150861740112305,-22.51759147644043,-11.383988380432129,-16.214778900146484
8.768786678667868e6,35.883506774902344,25.033849716186523,-24.3973331451416,7.495610237121582
8.768786678667868e6,61.87580871582031,47.01005935668945,-27.942289352416992,28.781599044799805
8.768786678667868e6,92.86432647705078,-77.906005859375,22.185392379760742,-45.307037353515625
8.768786678667868e6,32.54796600341797,17.31429672241211,-20.169401168823242,18.52733612060547
8.768786678667868e6,65.8531494140625,-16.551122665405273,34.35731887817383,-53.59808349609375
8.768786678667868e6,531.63623046875,-18.965791702270508,26.513229370117188,-530.6268920898438
8.768786678667868e6,51.73066329956055,-42.47932434082031,20.210121154785156,-21.297916412353516
8.768786678667868e6,1188.783447265625,-34.54466247558594,-12.203603744506836,1188.21484375
8.768786678667868e6,32.179359436035156,-26.228551864624023,7.806520938873291,16.646743774414062
8.768786678667868e6,915.8751831054688,21.422075271606445,9.906834602355957,915.5658569335938
8.768786678667868e6,41.30137252807617,-15.463440895080566,34.5731315612793,-16.18226432800293
8.768786678667868e6,513.773681640625,17.115413665771484,38.589385986328125,-512.0271606445312
8.768786678667868e6,286.114013671875,6.663885593414307,-11.8629150390625,285.77362060546875
8.768786678667868e6,830.6905517578125,17.332155227661133,32.52843475341797,-829.86669921875
8.768786678667868e6,324.9363098144531,26.309864044189453,-23.861207962036133,322.9744873046875
8.768786678667868e6,58.17747116088867,-24.01966667175293,-11.870867729187012,-51.54840087890625
8.768786678667868e6,79.22547912597656,-24.473697662353516,0.8792712092399597,-75.28229522705078
8.768786678667868e6,178.5273895263672,8.141042709350586,-43.91134262084961,172.8236846923828
8.768786678667868e6,210.37110900878906,48.173370361328125,-22.109466552734375,203.5607452392578
8.768786678667868e6,49.43952941894531,5.740220546722412,-10.92223834991455,47.77555465698242
8.768786678667868e6,59.16935729980469,-12.664460182189941,-44.3898811340332,-36.88691711425781
8.768786678667868e6,101.00057983398438,-4.272535800933838,43.20132827758789,-91.14268493652344
8.768786678667868e6,575.9774780273438,-62.3266716003418,8.247174263000488,572.5276489257812
8.768786678667868e6,393.6375427246094,42.527381896972656,-15.310541152954102,391.0217590332031
8.768786678667868e6,2519.81591796875,-25.314863204956055,30.00410270690918,2519.50830078125
8.768786678667868e6,217.8738250732422,41.96815490722656,-63.021549224853516,204.2705078125
8.768786678667868e6,742.4019775390625,-23.844223022460938,-9.447726249694824,-741.9524536132812
8.768786678667868e6,13.009445190429688,11.629898071289062,-1.3293406963348389,4.76505184173584
8.768786678667868e6,15.421880722045898,1.1692630052566528,-14.211503982543945,-4.998210430145264
8.768786678667868e6,43.23793411254883,-35.441497802734375,3.1250417232513428,24.37488555908203
8.768786678667868e6,21.085586547851562,11.028254508972168,-5.808784484863281,-16.724811553955078
8.768786678667868e6,499.5525207519531,35.93737030029297,-15.505247116088867,-498.00732421875
8.768786678667868e6,54.09410858154297,-41.253517150878906,-34.566192626953125,4.469913005828857
8.768786678667868e6,498.1485290527344,-37.21056365966797,9.213958740234375,-496.6617736816406
8.768786678667868e6,34.66291427612305,-3.2119393348693848,19.883617401123047,-28.04147720336914
8.768786678667868e6,37.848941802978516,-11.991708755493164,-8.53690242767334,34.73247146606445
8.768786678667868e6,109.13285827636719,33.03230285644531,-20.96864891052246,-101.83145141601562
8.768786678667868e6,25.298673629760742,-11.79344367980957,-12.640591621398926,18.21084213256836
8.768786678667868e6,8.005256652832031,1.1972265243530273,6.203503131866455,3.827409029006958
8.768786678667868e6,37.982017517089844,-21.984975814819336,28.168697357177734,-12.502021789550781
8.768786678667868e6,83.09387969970703,-16.775100708007812,54.537906646728516,60.32651138305664
8.768786678667868e6,29.426151275634766,-7.895046234130859,-18.23841667175293,21.480422973632812
8.768786678667868e6,128.9240264892578,36.74293518066406,6.719015121459961,-123.3559799194336
8.768786678667868e6,308.13397216796875,-2.798733949661255,34.60267639160156,-306.1565856933594
8.768786678667868e6,776.3909912109375,29.609630584716797,23.98086166381836,-775.4492797851562
8.768786678667868e6,16.866390228271484,6.366982460021973,-8.770927429199219,12.549470901489258
8.768786678667868e6,829.008056640625,-44.023170471191406,-0.10514601320028305,-827.8325805664062
8.768786678667868e6,1624.1295166015625,-4.264811038970947,-17.6567325592041,1624.0250244140625
8.768786678667868e6,18.06230354309082,-5.613325119018555,-8.318303108215332,-14.69778823852539
8.768786678667868e6,147.64785766601562,16.693641662597656,-31.16558265686035,143.31922912597656
8.768786678667868e6,800.6132202148438,17.529109954833984,-31.031959533691406,799.8135986328125
8.768786678667868e6,201.19802856445312,17.567527770996094,-41.1900634765625,196.12722778320312
8.768786678667868e6,196.1522216796875,12.538912773132324,13.538225173950195,-195.25794982910156
8.768786678667868e6,109.69646453857422,-55.82026290893555,27.730640411376953,90.21588134765625
8.768786678667868e6,1482.4549560546875,12.160027503967285,-39.75050735473633,1481.8687744140625
8.768786678667868e6,55.32181167602539,32.176876068115234,7.487565994262695,-44.267024993896484
8.768786678667868e6,60.07921600341797,-11.429978370666504,26.029956817626953,-52.837398529052734
8.768786678667868e6,57.75080490112305,-8.522289276123047,-39.02091979980469,-41.597782135009766
8.768786678667868e6,136.78172302246094,28.680204391479492,23.101499557495117,-131.69468688964844
8.768786678667868e6,317.00909423828125,-10.706846237182617,43.34035110473633,313.834716796875
8.768786678667868e6,121.77130889892578,35.405494689941406,31.399080276489258,-112.15740203857422
8.768786678667868e6,259.14483642578125,-18.356779098510742,-4.292560577392578,258.4398193359375
8.768786678667868e6,130.4585418701172,36.349918365478516,28.25447654724121,-122.02574157714844
8.768786678667868e6,170.56185913085938,-7.073734283447266,9.999363899230957,170.09352111816406
8.768786678667868e6,25.44575309753418,-3.3275279998779297,15.411543846130371,19.73271369934082
8.768786678667868e6,14.439706802368164,-10.148043632507324,-8.637749671936035,-4.625294208526611
8.768786678667868e6,1097.7196044921875,-4.759815692901611,-55.35185241699219,-1096.30859375
8.768786678667868e6,35.30615234375,-33.299922943115234,-0.970894992351532,-11.277355194091797
8.768786678667868e6,101.42253112792969,-25.009437561035156,23.678478240966797,95.3460464477539
8.768786678667868e6,1299.541748046875,-66.75055694580078,17.69768714904785,-1297.701904296875
8.768786678667868e6,150.0814208984375,-11.053372383117676,27.531625747680664,147.08753967285156
8.768786678667868e6,46.52872085571289,14.917179107666016,-43.92161178588867,-1.9424879550933838
8.768786678667868e6,184.07546997070312,11.646345138549805,40.2766227722168,-179.21054077148438
8.768786678667868e6,346.7426452636719,-91.96553802490234,29.670108795166016,-332.9909362792969
8.768786678667868e6,51.393184661865234,13.86678695678711,36.85598373413086,32.87993621826172
8.768786678667868e6,77.19795227050781,-13.4488525390625,7.357959270477295,75.59757995605469
8.768786678667868e6,38.89055252075195,11.739194869995117,19.12413787841797,-31.61353302001953
8.768786678667868e6,33.93757629394531,6.585304260253906,10.421217918395996,-31.46860122680664
8.768786678667868e6,71.68971252441406,-27.44349479675293,-2.7553164958953857,-66.09961700439453
8.768786678667868e6,45.52647018432617,-27.88193702697754,-33.35523223876953,13.159303665161133
8.768786678667868e6,123.69126892089844,-27.163776397705078,-32.17599105834961,116.26197052001953
8.768786678667868e6,1527.9461669921875,-31.780780792236328,-4.957904815673828,-1527.6044921875
8.768786678667868e6,41.720638275146484,30.225522994995117,24.792055130004883,14.243077278137207
8.768786678667868e6,162.51736450195312,-25.76171875,-18.065855026245117,159.41246032714844
8.768786678667868e6,770.0656127929688,18.11738395690918,-47.50662612915039,768.3790283203125
8.768786678667868e6,1355.5289306640625,-22.959787368774414,-32.99056625366211,1354.929443359375
8.768786678667868e6,107.2975082397461,-15.518049240112305,49.30622863769531,93.97511291503906
8.768786678667868e6,139.0850067138672,-33.336814880371094,12.4661226272583,134.4186553955078
8.768786678667868e6,237.04835510253906,-28.6220760345459,13.66100025177002,234.89691162109375
8.768786678667868e6,184.02133178710938,37.082454681396484,7.433804988861084,-180.06655883789062
8.768786678667868e6,197.93797302246094,2.474083423614502,-31.082250595092773,195.44232177734375
8.768786678667868e6,23.482778549194336,2.048178195953369,-19.3980770111084,12.7059907913208
8.768786678667868e6,185.09300231933594,-30.611318588256836,11.095011711120605,182.1805419921875
8.768786678667868e6,52.5659294128418,-38.40760803222656,-20.169889450073242,29.524394989013672
8.768786678667868e6,72.99374389648438,18.711240768432617,28.06597137451172,-64.6587905883789
8.768786678667868e6,42.627506256103516,-25.655248641967773,-10.617454528808594,32.197265625
8.768786678667868e6,99.00078582763672,-26.604766845703125,-27.267135620117188,-91.32538604736328
8.768786678667868e6,167.05789184570312,16.937347412109375,-58.167327880859375,-155.65509033203125
8.768786678667868e6,4.013734340667725,-1.0942212343215942,-1.1773606538772583,-2.0020716190338135
8.768786678667868e6,90.3803939819336,-66.33366394042969,-19.148439407348633,-58.243282318115234
8.768786678667868e6,1015.8641357421875,-12.753763198852539,-34.0435905456543,1015.208740234375
8.768786678667868e6,9.47325611114502,-0.21907421946525574,-7.520749568939209,-4.859489440917969
8.768786678667868e6,589.8235473632812,78.55306243896484,-3.382628917694092,584.5513305664062
8.768786678667868e6,57.38113021850586,8.597954750061035,10.122635841369629,55.73762893676758
8.768786678667868e6,667.5306396484375,-6.631785869598389,39.53529357910156,-666.3186645507812
8.768786678667868e6,1335.47900390625,14.675500869750977,6.420191287994385,-1335.3792724609375
8.768786678667868e6,88.47798156738281,-23.737926483154297,1.4357925653457642,85.16622161865234
8.768786678667868e6,17.13294219970703,15.939599990844727,5.265438556671143,1.491218090057373
8.768786678667868e6,182.5919647216797,-14.212234497070312,22.05078125,-180.67120361328125
8.768786678667868e6,182.24281311035156,-44.72630310058594,11.79810905456543,176.247802734375
8.768786678667868e6,105.68419647216797,-66.03373718261719,-67.32303619384766,-47.61076354980469
8.768786678667868e6,168.0557861328125,22.08464241027832,-41.837890625,161.22991943359375
8.768786678667868e6,137.69447326660156,-27.676006317138672,10.138813018798828,134.46743774414062
8.768786678667868e6,42.99940872192383,-40.88862991333008,12.81384563446045,-1.8320081233978271
8.768786678667868e6,59.79623794555664,14.962325096130371,-6.163115501403809,57.48231887817383
8.768786678667868e6,90.89144134521484,32.55105209350586,-13.539719581604004,-83.71881866455078
8.768786678667868e6,118.44511413574219,37.48130416870117,-1.8919981718063354,112.30004119873047
8.768786678667868e6,70.03587341308594,-21.090988159179688,2.2380058765411377,66.67583465576172
8.768786678667868e6,510.2383117675781,48.48123550415039,16.38630485534668,507.6560363769531
8.768786678667868e6,34.00501251220703,32.11046600341797,1.9606586694717407,10.578112602233887
8.768786678667868e6,472.1324768066406,-33.24228286743164,-33.89751434326172,-469.7291564941406
8.768786678667868e6,32.20671463012695,-22.985950469970703,18.702539443969727,12.231739044189453
8.768786678667868e6,78.5726318359375,-5.088651180267334,-6.5473246574401855,78.07290649414062
8.768786678667868e6,106.41366577148438,-22.178647994995117,-29.358409881591797,-99.8025131225586
8.768786678667868e6,1183.3072509765625,-6.93225622177124,36.557098388671875,-1182.718017578125
8.768786678667868e6,457.2011413574219,36.24294662475586,1.572293758392334,-455.74920654296875
8.768786678667868e6,601.8538208007812,-4.2458906173706055,-46.724483489990234,-600.014404296875
8.768786678667868e6,577.8245239257812,-22.399961471557617,-21.115442276000977,576.9957275390625
8.768786678667868e6,27.306468963623047,4.5079779624938965,13.489739418029785,23.10476303100586
8.768786678667868e6,89.7892074584961,2.89840030670166,-14.14627742767334,88.56672668457031
8.768786678667868e6,1870.8525390625,33.05376434326172,-19.008821487426758,-1870.46142578125
8.768786678667868e6,273.7430725097656,-32.23060989379883,-17.35879898071289,271.2666931152344
8.768786678667868e6,189.4861297607422,30.864770889282227,-13.161877632141113,-186.46609497070312
8.768786678667868e6,571.2384643554688,-11.294109344482422,41.36100769042969,569.6187744140625
8.768786678667868e6,301.9399108886719,-33.67192077636719,-3.1713197231292725,300.0238952636719
8.768786678667868e6,169.8897247314453,-8.76542854309082,-16.790019989013672,-168.8024444580078
8.768786678667868e6,117.40270233154297,-30.67093276977539,-9.157496452331543,112.91284942626953
8.768786678667868e6,41.95278549194336,-33.43535614013672,24.17075538635254,-6.9548258781433105
8.768786678667868e6,141.81983947753906,32.62394714355469,24.71576690673828,135.75035095214844
8.768786678667868e6,693.964111328125,34.63490676879883,22.718645095825195,692.719970703125
8.768786678667868e6,22.411338806152344,-5.19779634475708,21.249998092651367,-3.7643496990203857
8.768786678667868e6,69.92739868164062,14.487987518310547,-0.5154609084129333,68.33853912353516
8.768786678667868e6,132.62416076660156,35.7755012512207,21.42121696472168,-125.86062622070312
8.768786678667868e6,792.9631958007812,-28.294376373291016,-24.048377990722656,-792.0872802734375
8.768786678667868e6,39.46421432495117,20.87680435180664,16.149463653564453,-29.176355361938477
8.768786678667868e6,54.92972183227539,24.97498321533203,-40.998435974121094,-26.51668357849121
8.768786678667868e6,85.17245483398438,50.48081970214844,-42.93218231201172,53.41669845581055
8.768786678667868e6,72.43848419189453,13.448405265808105,55.071529388427734,44.98980712890625
8.768786678667868e6,31.812959671020508,19.28164291381836,-25.018939971923828,-2.194756031036377
8.768786678667868e6,46.75094223022461,-34.943084716796875,-5.259904861450195,-30.454008102416992
8.768786678667868e6,689.7413330078125,21.592792510986328,-9.110692024230957,-689.336181640625
8.768786678667868e6,96.44788360595703,-12.222583770751953,-21.521602630615234,93.16707611083984
8.768786678667868e6,83.6602783203125,17.81523323059082,17.815980911254883,-79.7165756225586
8.768786678667868e6,112.01732635498047,25.5964412689209,8.043806076049805,108.71284484863281
8.768786678667868e6,94.18220520019531,24.10678482055664,11.752034187316895,90.23037719726562
8.768786678667868e6,680.2393188476562,37.12559127807617,3.4538097381591797,679.2096557617188
8.768786678667868e6,18.32317352294922,-11.94686508178711,10.258769035339355,8.845930099487305
8.768786678667868e6,308.514404296875,39.298606872558594,-19.09786605834961,305.3891296386719
8.768786678667868e6,185.8636016845703,-32.9104118347168,-24.548280715942383,-181.24581909179688
8.768786678667868e6,102.468505859375,14.620499610900879,12.815143585205078,100.55988311767578
8.768786678667868e6,625.70166015625,31.571945190429688,21.5283260345459,-624.5260009765625
8.768786678667868e6,1470.2386474609375,0.8294698596000671,-33.3267936706543,1469.857421875
8.768786678667868e6,161.89334106445312,-32.162654876708984,-28.254255294799805,-156.09996032714844
8.768786678667868e6,30.990127563476562,-9.980902671813965,5.37909460067749,28.676063537597656
8.768786678667868e6,49.32124710083008,9.645545959472656,-37.745121002197266,30.08881187438965
8.768786678667868e6,40.276771545410156,19.24648094177246,32.65537643432617,-13.262710571289062
8.768786678667868e6,296.68365478515625,10.885991096496582,7.277734279632568,-296.37847900390625
8.768786678667868e6,974.8231201171875,-10.903748512268066,39.37841033935547,-973.9615478515625
8.768786678667868e6,58.40308380126953,55.6599235534668,6.578975200653076,16.12737464904785
8.768786678667868e6,42.469024658203125,-41.54787826538086,-0.3061155378818512,8.2328519821167
8.768786678667868e6,120.90654754638672,-31.717805862426758,1.8092299699783325,-116.61724853515625
8.768786678667868e6,26.612581253051758,17.830238342285156,-18.925006866455078,-4.75792932510376
8.768786678667868e6,1308.22900390625,39.45233917236328,-11.464028358459473,1307.580078125
8.768786678667868e6,197.0638885498047,7.483590126037598,49.246376037597656,190.63958740234375
8.768786678667868e6,387.16973876953125,35.90137481689453,-3.447815418243408,-385.4738464355469
8.768786678667868e6,61.39496994018555,-6.661828994750977,23.87371063232422,56.08466720581055
8.768786678667868e6,64.48186492919922,17.93043327331543,30.397390365600586,-53.878482818603516
8.768786678667868e6,248.17855834960938,-6.172809600830078,-29.456335067749023,-246.32762145996094
8.768786678667868e6,311.50518798828125,43.08076858520508,16.544694900512695,308.0523986816406
8.768786678667868e6,77.55815887451172,-32.05458450317383,28.36195182800293,-64.60536193847656
8.768786678667868e6,39.44329833984375,22.649211883544922,32.126155853271484,-1.0856924057006836
8.768786678667868e6,880.9383544921875,22.33345603942871,19.956037521362305,880.4237060546875
8.768786678667868e6,1785.026123046875,-10.0789155960083,18.369625091552734,1784.9005126953125
8.768786678667868e6,67.23310089111328,45.62373352050781,20.899465560913086,-44.636962890625
8.768786678667868e6,149.28407287597656,-9.291572570800781,-38.57601547241211,143.881103515625
8.768786678667868e6,1102.890380859375,-48.6252326965332,10.530755043029785,-1101.7633056640625
8.768786678667868e6,313.0942077636719,1.5632822513580322,38.833152770996094,310.6573791503906
8.768786678667868e6,36.89142608642578,-12.623647689819336,-24.419689178466797,-24.408634185791016
8.768786678667868e6,44.920921325683594,25.4650936126709,-13.128127098083496,34.460880279541016
8.768786678667868e6,49.5543098449707,12.328741073608398,-31.124828338623047,36.40547561645508
8.768786678667868e6,64.96161651611328,-17.450302124023438,32.58747863769531,53.329505920410156
8.768786678667868e6,437.9688720703125,-28.148515701293945,13.162581443786621,-436.8542175292969
8.768786678667868e6,27.650705337524414,12.446493148803711,10.210542678833008,-22.26820182800293
8.768786678667868e6,111.56600952148438,17.624195098876953,52.146331787109375,-96.99280548095703
8.768786678667868e6,76.06047058105469,-46.92237854003906,30.073469161987305,-51.667728424072266
8.768786678667868e6,158.1687774658203,11.61528205871582,28.90851593017578,155.0394287109375
8.768786678667868e6,154.29360961914062,16.43914222717285,38.138389587402344,-148.5672149658203
8.768786678667868e6,27.892759323120117,19.96485137939453,19.052507400512695,-2.6257097721099854
8.768786678667868e6,84.18524169921875,16.42494010925293,30.811532974243164,76.54088592529297
8.768786678667868e6,68.33405303955078,9.832347869873047,36.559791564941406,-56.804325103759766
8.768786678667868e6,40.26816177368164,16.58095932006836,-13.316877365112305,-34.0549430847168
8.768786678667868e6,147.52444458007812,-37.38058090209961,-8.838848114013672,142.40264892578125
8.768786678667868e6,765.6129760742188,-31.884706497192383,0.3415742516517639,-764.9424438476562
8.768786678667868e6,105.32661437988281,-33.314029693603516,9.086080551147461,99.45750427246094
8.768786678667868e6,296.7935485839844,-45.252620697021484,-1.9225971698760986,-293.3008728027344
8.768786678667868e6,264.91729736328125,-14.968256950378418,22.914199829101562,263.4815979003906
8.768786678667868e6,211.8353729248047,11.146467208862305,-32.223323822021484,209.05052185058594
8.768786678667868e6,181.4271240234375,-26.600278854370117,14.051231384277344,-178.8889923095703
8.768786678667868e6,34.21352767944336,19.324310302734375,26.6132869720459,-8.907923698425293
8.768786678667868e6,259.42919921875,9.032387733459473,24.651750564575195,-258.078857421875
8.768786678667868e6,696.6270141601562,-11.542878150939941,-34.840641021728516,695.6526489257812
8.768786678667868e6,50.09141159057617,-31.0255184173584,22.20043182373047,32.31391525268555
8.768786678667868e6,1053.8843994140625,3.179293632507324,-13.755767822265625,1053.7852783203125
8.768786678667868e6,786.5478515625,3.796076774597168,23.13603973388672,-786.1922607421875
8.768786678667868e6,235.07928466796875,23.446434020996094,-13.11329460144043,-233.51885986328125
8.768786678667868e6,103.42706298828125,-25.67906379699707,30.260093688964844,-95.45968627929688
8.768786678667868e6,911.86962890625,26.982580184936523,48.849361419677734,910.1551513671875
8.768786678667868e6,386.2991027832031,-19.173505783081055,35.27632141113281,384.19451904296875
8.768786678667868e6,122.0712890625,-31.09717559814453,-16.40146827697754,116.85820007324219
8.768786678667868e6,1116.2393798828125,25.522768020629883,-23.667993545532227,1115.6922607421875
8.768786678667868e6,61.58795166015625,29.632497787475586,8.354146003723145,53.25111389160156
8.768786678667868e6,703.4365234375,-15.780847549438477,18.746185302734375,-703.0028076171875
8.768786678667868e6,30.58109474182129,-3.091495990753174,-30.08330535888672,3.335038185119629
8.768786678667868e6,248.90257263183594,-9.100631713867188,4.490168571472168,-248.67648315429688
8.768786678667868e6,152.17713928222656,26.778406143188477,12.036700248718262,149.2863006591797
8.768786678667868e6,92.41068267822266,40.95427703857422,-19.790332794189453,80.38224792480469
8.768786678667868e6,46.959598541259766,-2.711225748062134,9.660120010375977,-45.77135467529297
8.768786678667868e6,455.5828552246094,2.3140933513641357,-22.037324905395508,-455.033203125
8.768786678667868e6,72.29310607910156,-5.619050025939941,45.572593688964844,55.75249481201172
8.768786678667868e6,318.3253479003906,-15.583566665649414,18.0748348236084,-317.41448974609375
8.768786678667868e6,48.20060348510742,-10.859682083129883,-24.260318756103516,40.09095001220703
8.768786678667868e6,46.58726501464844,-27.323915481567383,-26.10877799987793,-27.066408157348633
8.768786678667868e6,1101.54345703125,10.645991325378418,-39.29529571533203,1100.7864990234375
8.768786678667868e6,28.935726165771484,-12.871445655822754,24.131519317626953,-8.930485725402832
8.768786678667868e6,960.433349609375,-11.976698875427246,17.395456314086914,-960.1961669921875
8.768786678667868e6,24.8252010345459,6.9136834144592285,20.937637329101562,-10.981287002563477
8.768786678667868e6,208.19772338867188,-11.50045394897461,50.921573638916016,-201.52296447753906
8.768786678667868e6,74.32970428466797,42.84939956665039,-42.130821228027344,-43.638397216796875
8.768786678667868e6,22.44420051574707,-2.2579538822174072,15.756363868713379,15.519744873046875
8.768786678667868e6,34.91682434082031,23.058128356933594,26.01508903503418,1.0972951650619507
8.768786678667868e6,512.9922485351562,7.639623165130615,-34.774349212646484,-511.7459411621094
8.768786678667868e6,44.45103454589844,42.77465057373047,4.810842990875244,-10.656518936157227
8.768786678667868e6,40.19742965698242,21.227920532226562,32.42067337036133,10.22694206237793
8.768786678667868e6,68.68248748779297,16.909774780273438,-24.04669952392578,61.99662399291992
8.768786678667868e6,1032.0968017578125,27.48847198486328,26.947036743164062,1031.3741455078125
8.768786678667868e6,37.81332778930664,8.566065788269043,25.96329116821289,-25.939537048339844
8.768786678667868e6,162.63565063476562,30.215761184692383,30.753437042236328,156.78671264648438
8.768786678667868e6,1801.1627197265625,-1.19720458984375,-22.76643943786621,-1801.0157470703125
8.768786678667868e6,729.0222778320312,2.8595728874206543,-2.5790889263153076,729.0055541992188
8.768786678667868e6,76.633544921875,-43.140464782714844,-23.763080596923828,58.62932586669922
8.768786678667868e6,285.2186279296875,-10.575096130371094,34.60014343261719,282.89776611328125
8.768786678667868e6,2118.032470703125,-14.717398643493652,-50.22439193725586,2117.383544921875
8.768786678667868e6,325.2579650878906,11.077805519104004,-29.616174697875977,323.7026062011719
8.768786678667868e6,123.07079315185547,23.94493293762207,53.045989990234375,-108.39586639404297
8.768786678667868e6,68.6629638671875,-28.932289123535156,7.936470985412598,-61.68484115600586
8.768786678667868e6,98.16631317138672,21.915847778320312,0.0931900292634964,-95.63887023925781
8.768786678667868e6,70.0306167602539,-40.275421142578125,-0.2506347894668579,57.20661163330078
8.768786678667868e6,36.6068000793457,-13.848075866699219,-28.595542907714844,-17.918298721313477
8.768786678667868e6,1539.3988037109375,-34.958587646484375,-26.17794418334961,-1538.7760009765625
8.768786678667868e6,1062.5045166015625,29.755661010742188,-9.096707344055176,1062.0443115234375
8.768786678667868e6,424.9962463378906,20.716398239135742,-22.722198486328125,423.8712463378906
8.768786678667868e6,677.7855224609375,33.49002456665039,6.762659072875977,-676.9168701171875
8.768786678667868e6,90.4757308959961,-3.8148601055145264,6.548120498657227,-90.10498809814453
8.768786678667868e6,431.25616455078125,31.814220428466797,-18.592906951904297,429.6679382324219
8.768786678667868e6,258.35174560546875,45.378807067871094,-5.066324234008789,-254.26602172851562
8.768786678667868e6,285.3732604980469,31.398963928222656,23.423995971679688,-282.6549072265625
8.768786678667868e6,73.37682342529297,-34.447628021240234,3.370081901550293,64.626953125
8.768786678667868e6,811.3087158203125,26.469491958618164,-15.81803035736084,-810.7166137695312
8.768786678667868e6,25.57560920715332,20.111345291137695,9.363728523254395,12.346977233886719
8.768786678667868e6,52.85746383666992,-14.923492431640625,39.19300842285156,32.024845123291016
8.768786678667868e6,68.8539047241211,2.3791041374206543,-8.157947540283203,68.2578125
8.768786678667868e6,141.4521026611328,19.303123474121094,-31.399944305419922,136.53062438964844
8.768786678667868e6,56.80351257324219,38.16204071044922,-14.202960014343262,-39.4848747253418
8.768786678667868e6,173.1888885498047,-28.848052978515625,8.868391036987305,-170.51104736328125
8.768786678667868e6,403.4126281738281,37.6485710144043,8.653254508972168,-401.54693603515625
8.768786678667868e6,2154.127197265625,-20.80655860900879,0.4242202937602997,2154.0244140625
8.768786678667868e6,41.98069763183594,-23.20216178894043,-2.972970962524414,-34.72292709350586
8.768786678667868e6,42.26388168334961,-15.385380744934082,-31.13218116760254,-23.89130973815918
8.768786678667868e6,39.41576385498047,-0.05020720511674881,25.345638275146484,-30.027990341186523
8.768786678667868e6,497.5319519042969,-18.991741180419922,-21.827089309692383,496.6803894042969
8.768786678667868e6,269.7763671875,17.809043884277344,24.49616050720215,-268.0532531738281
8.768786678667868e6,48.03350830078125,31.673227310180664,-23.468172073364258,27.271799087524414
8.768786678667868e6,505.54766845703125,-5.125057697296143,0.548224925994873,505.5119934082031
8.768786678667868e6,49.24734115600586,-41.47004699707031,-12.590896606445312,-23.18376350402832
8.768786678667868e6,74.63506317138672,-2.8762929439544678,6.188754081726074,74.25833892822266
8.768786678667868e6,173.11386108398438,23.92578125,31.36331558227539,168.53126525878906
8.768786678667868e6,114.25343322753906,-8.702970504760742,-25.537885665893555,-110.97929382324219
8.768786678667868e6,31.970458984375,17.11042022705078,-26.72806739807129,2.3315064907073975
8.768786678667868e6,62.2686653137207,43.149620056152344,-11.962653160095215,43.16101837158203
8.768786678667868e6,52.801326751708984,-30.896751403808594,28.53965187072754,31.770122528076172
8.768786678667868e6,621.7946166992188,24.556655883789062,-12.266702651977539,621.1807861328125
8.768786678667868e6,377.2358093261719,-28.22249984741211,-26.588699340820312,-375.2250671386719
8.768786678667868e6,372.31475830078125,6.579287052154541,37.02579879760742,370.3978576660156
8.768786678667868e6,273.7816467285156,-10.891019821166992,-15.850442886352539,273.08795166015625
8.768786678667868e6,291.844482421875,23.61150360107422,-19.095321655273438,290.24395751953125
8.768786678667868e6,45.10873794555664,-11.80588436126709,-18.027978897094727,-39.508140563964844
8.768786678667868e6,772.086669921875,-30.665451049804688,20.422712326049805,-771.200927734375
8.768786678667868e6,330.38470458984375,1.158023715019226,-38.35614776611328,-328.1341247558594
8.768786678667868e6,117.09609985351562,18.482648849487305,-25.10319709777832,-112.82818603515625
8.768786678667868e6,194.7842254638672,31.20842933654785,32.483978271484375,-189.478759765625
8.768786678667868e6,2289.779541015625,-8.308096885681152,-0.6097087264060974,-2289.76220703125
8.768786678667868e6,451.31414794921875,-7.778243064880371,41.42578125,449.33099365234375
8.768786678667868e6,744.1727905273438,47.32948303222656,3.905343770980835,742.6494750976562
8.768786678667868e6,267.3599548339844,-21.89653968811035,28.709440231323242,264.8926696777344
8.768786678667868e6,87.6171875,7.374493598937988,23.20293426513672,84.1100082397461
8.768786678667868e6,100.39566802978516,-10.802557945251465,-9.877592086791992,-99.27491760253906
8.768786678667868e6,49.70365905761719,-1.538429617881775,44.006874084472656,-22.846527099609375
8.768786678667868e6,62.40666580200195,-28.53361701965332,5.12237548828125,55.178504943847656
8.768786678667868e6,43.33488464355469,-29.88178825378418,-30.01656723022461,-8.630087852478027
8.768786678667868e6,3049.125244140625,20.125455856323242,-3.329847812652588,-3049.055419921875
8.768786678667868e6,373.64404296875,-17.364704132080078,1.5290571451187134,373.2244567871094
8.768786678667868e6,134.86744689941406,-12.94797134399414,4.979613780975342,134.11660766601562
8.768786678667868e6,112.31951904296875,5.819014549255371,-14.980903625488281,-111.12095642089844
8.768786678667868e6,1341.751953125,-0.449786514043808,-11.31753158569336,-1341.70068359375
8.768786678667868e6,227.4718017578125,-22.39933967590332,-38.43730926513672,223.05772399902344
8.768786678667868e6,76.3159408569336,-14.37013053894043,-20.042556762695312,-72.15538787841797
8.768786678667868e6,51.75708770751953,35.0671501159668,35.49630355834961,-13.400952339172363
8.768786678667868e6,477.9125061035156,-14.253523826599121,17.976659774780273,477.3515625
8.768786678667868e6,1511.0028076171875,-0.5652999877929688,34.75171661376953,-1510.599853515625
