8.77111911191119e6,101.99339294433594,-27.323083877563477,-13.570484161376953,97.32339477539062
8.77111911191119e6,423.6185607910156,-35.659732818603516,16.045530319213867,-421.8097839355469
8.77111911191119e6,498.1554870605469,17.473529815673828,-36.403377532958984,496.51611328125
8.77111911191119e6,2151.105224609375,28.359458923339844,-18.201379776000977,-2150.84130859375
8.77111911191119e6,58.99711227416992,9.990156173706055,-41.47615051269531,40.749046325683594
8.77111911191119e6,82.65680694580078,-8.40219783782959,-31.599018096923828,75.91411590576172
8.77111911191119e6,31.100547790527344,11.714349746704102,24.12230682373047,-15.749046325683594
8.77111911191119e6,184.37808227539062,10.207435607910156,38.2073860168457,180.0865936279297
8.77111911191119e6,425.7020568847656,-34.46978759765625,9.597161293029785,424.195556640625
8.77111911191119e6,257.6747131347656,-21.841276168823242,-39.7110595703125,-253.65753173828125
8.77111911191119e6,83.88801574707031,-41.6495246887207,-5.20744514465332,72.6312484741211
8.77111911191119e6,81.44358825683594,7.31540060043335,5.856607913970947,80.90205383300781
8.77111911191119e6,37.560882568359375,-30.07088851928711,-9.824786186218262,20.246856689453125
8.77111911191119e6,59.58247375488281,-32.455867767333984,-23.59910011291504,-44.04168701171875
8.77111911191119e6,51.70315170288086,-1.2505712509155273,31.017047882080078,-41.34603500366211
8.77111911191119e6,617.497802734375,-14.702609062194824,-0.21470199525356293,-617.3226318359375
8.77111911191119e6,174.5752410888672,-39.51280975341797,-9.11775016784668,-169.7999267578125
8.77111911191119e6,183.8415069580078,49.00740432739258,-10.815284729003906,176.85842895507812
8.77111911191119e6,81.97991943359375,41.24767303466797,-27.78438377380371,-65.17103576660156
8.77111911191119e6,383.0001525878906,19.043365478515625,-21.918954849243164,-381.8977966308594
8.77111911191119e6,127.97149658203125,39.11405563354492,13.448941230773926,-121.1025161743164
8.77111911191119e6,49.67988586425781,25.2635498046875,-36.987083435058594,21.487194061279297
8.77111911191119e6,41.176246643066406,0.8686484098434448,33.37324905395508,24.100933074951172
8.77111911191119e6,547.8386840820312,3.800281524658203,26.3812198638916,547.1898193359375
8.77111911191119e6,86.00856018066406,-15.352920532226562,13.529271125793457,83.53813171386719
8.77111911191119e6,243.61878967285156,6.755510330200195,-28.424001693725586,241.8603973388672
8.77111911191119e6,24.052400588989258,-9.642146110534668,-21.02667999267578,-6.5822296142578125
8.77111911191119e6,457.1668701171875,-43.95199966430664,30.676389694213867,-454.013916015625
8.77111911191119e6,1191.990234375,38.98031234741211,22.564254760742188,1191.138916015625
8.77111911191119e6,772.7457885742188,-48.87399673461914,4.6893310546875,771.1843872070312
8.77111911191119e6,54.31501388549805,17.23392105102539,9.548869132995605,-50.614540100097656
8.77111911191119e6,142.12539672851562,33.381534576416016,25.342527389526367,135.8048553466797
8.77111911191119e6,97.70038604736328,-18.70346450805664,-26.510459899902344,-92.15552520751953
8.77111911191119e6,179.33619689941406,-21.54605484008789,-32.649208068847656,175.0176239013672
8.77111911191119e6,162.61524963378906,1.3965096473693848,40.8641471862793,157.39056396484375
8.77111911191119e6,52.82900619506836,29.007658004760742,5.193320274353027,-43.84505844116211
8.77111911191119e6,193.7670440673828,-43.99010467529297,-11.565250396728516,188.35255432128906
8.77111911191119e6,196.93038940429688,13.343798637390137,37.3211784362793,-192.90037536621094
8.77111911191119e6,236.8922119140625,38.14559555053711,-3.444288969039917,-233.77525329589844
8.77111911191119e6,243.4010467529297,-9.593530654907227,-25.274654388427734,241.89486694335938
8.77111911191119e6,123.16893768310547,29.550405502319336,-29.52560806274414,115.86845397949219
8.77111911191119e6,71.74751281738281,-4.745491981506348,-35.85497283935547,-61.96375274658203
8.77111911191119e6,220.20791625976562,-24.393325805664062,-9.981101989746094,-218.6247100830078
8.77111911191119e6,54.46708679199219,27.492830276489258,42.85100173950195,-19.35198402404785
8.77111911191119e6,90.59793853759766,15.683493614196777,-22.39118766784668,86.37446594238281
8.77111911191119e6,89.476318359375,-67.24940490722656,-21.987051010131836,-54.77223587036133
8.77111911191119e6,485.49261474609375,29.64537239074707,22.171525955200195,-484.0790710449219
8.77111911191119e6,23.75836944580078,-19.45258903503418,-11.28822135925293,-7.6506853103637695
8.77111911191119e6,327.30230712890625,1.2280769348144531,40.2317008972168,-324.8177795410156
8.77111911191119e6,129.59156799316406,16.806882858276367,12.992568016052246,127.83816528320312
8.77111911191119e6,132.0256805419922,-6.131054878234863,24.724153518676758,-129.54461669921875
8.77111911191119e6,304.8833923339844,-0.9703741669654846,-29.64389419555664,303.4371032714844
8.77111911191119e6,122.30255126953125,-5.923174858093262,-6.8663201332092285,121.96550750732422
8.77111911191119e6,34.696529388427734,-15.142745018005371,-24.982391357421875,18.717010498046875
8.77111911191119e6,48.8689079284668,-1.4946142435073853,-48.8403205871582,0.6777411103248596
8.77111911191119e6,56.131351470947266,-46.10167694091797,27.836889266967773,15.823139190673828
8.77111911191119e6,18.454978942871094,15.582672119140625,-9.305320739746094,3.3283019065856934
8.77111911191119e6,50.99932098388672,-19.590526580810547,2.5310230255126953,47.017398834228516
8.77111911191119e6,240.6898193359375,-28.888023376464844,-3.243253469467163,238.92770385742188
8.77111911191119e6,140.39430236816406,-67.5562744140625,78.28257751464844,94.96550750732422
8.77111911191119e6,62.332481384277344,-1.214442253112793,17.244150161743164,-59.88658142089844
8.77111911191119e6,17.57370376586914,8.757847785949707,1.202857255935669,-15.185134887695312
8.77111911191119e6,74.16031646728516,25.213825225830078,-19.16987419128418,67.05543518066406
8.77111911191119e6,3095.2294921875,8.52740478515625,31.64661979675293,3095.055908203125
8.77111911191119e6,176.02218627929688,29.110828399658203,21.186899185180664,-172.30027770996094
8.77111911191119e6,275.3245849609375,-37.68727493286133,-11.948468208312988,272.4709777832031
8.77111911191119e6,63.588653564453125,30.652626037597656,42.64168167114258,35.85415267944336
8.77111911191119e6,16.383277893066406,3.317060947418213,-15.658073425292969,3.4833343029022217
8.77111911191119e6,105.38906860351562,11.61050033569336,25.167987823486328,101.67853546142578
8.77111911191119e6,378.12689208984375,26.16368293762207,-22.589584350585938,376.54351806640625
8.77111911191119e6,42.59515380859375,18.5428409576416,24.681659698486328,29.346651077270508
8.77111911191119e6,550.7315063476562,12.486612319946289,-31.84157943725586,-549.6683349609375
8.77111911191119e6,2334.148193359375,-8.648786544799805,-22.837400436401367,-2334.0205078125
8.77111911191119e6,94.90924835205078,49.27708053588867,-23.177297592163086,-77.73188781738281
8.77111911191119e6,933.89111328125,26.205787658691406,14.186565399169922,933.41552734375
8.77111911191119e6,272.2547302246094,17.54111671447754,3.3746392726898193,271.66790771484375
8.77111911191119e6,1915.960205078125,38.45315933227539,-35.10905075073242,1915.25244140625
8.77111911191119e6,715.3489379882812,-14.44644546508789,-35.35505294799805,-714.3285522460938
8.77111911191119e6,1660.873291015625,5.251013278961182,-104.72612762451172,-1657.559814453125
8.77111911191119e6,559.7099609375,-1.3716334104537964,-46.0018310546875,-557.8145751953125
8.77111911191119e6,72.59992980957031,22.523622512817383,-34.179832458496094,-59.95895004272461
8.77111911191119e6,825.3088989257812,5.909222602844238,-41.87961959838867,-824.224365234375
8.77111911191119e6,192.72776794433594,-26.63062286376953,18.394926071166992,189.99034118652344
8.77111911191119e6,156.58804321289062,30.09749984741211,21.28317642211914,-152.18699645996094
8.77111911191119e6,99.39901733398438,-9.984489440917969,-32.712039947509766,93.32897186279297
8.77111911191119e6,230.7661590576172,40.21413803100586,24.777984619140625,225.8800506591797
8.77111911191119e6,1383.7696533203125,10.644133567810059,48.59678268432617,-1382.8751220703125
8.77111911191119e6,49.86184310913086,1.6877202987670898,20.342830657958984,-45.49092483520508
8.77111911191119e6,2044.6484375,10.420710563659668,9.869863510131836,-2044.5980224609375
8.77111911191119e6,86.35688018798828,-36.01565933227539,-23.870098114013672,-74.7696533203125
8.77111911191119e6,1159.874755859375,-3.198718547821045,-36.12342834472656,1159.3076171875
8.77111911191119e6,91.75930786132812,43.62306594848633,-2.1639654636383057,-80.69705963134766
8.77111911191119e6,225.81411743164062,-5.75012731552124,30.8493709564209,-223.62283325195312
8.77111911191119e6,184.902587890625,20.305871963500977,9.5159273147583,183.5374298095703
8.77111911191119e6,40.28160095214844,4.481010913848877,-16.71343231201172,36.374290466308594
8.77111911191119e6,463.11199951171875,38.18233108520508,15.178199768066406,461.2855529785156
8.77111911191119e6,32.75384521484375,24.51209259033203,-3.754045248031616,-21.395763397216797
8.77111911191119e6,97.5765380859375,-1.3970973491668701,20.736961364746094,95.33680725097656
8.77111911191119e6,115.90460968017578,45.79745101928711,6.8199005126953125,-106.2537612915039
8.77111911191119e6,40.537010192871094,-14.353538513183594,-36.43975067138672,10.453213691711426
8.77111911191119e6,82.92827606201172,-19.918296813964844,-22.997011184692383,77.14530181884766
8.77111911191119e6,29.98833465576172,6.275132179260254,-29.02261734008789,-4.184570789337158
8.77111911191119e6,35.035587310791016,-15.403122901916504,-30.483922958374023,7.801702499389648
8.77111911191119e6,654.8533325195312,-30.449405670166016,-23.62965202331543,653.718017578125
8.77111911191119e6,397.7323303222656,12.492155075073242,-32.937557220458984,396.16912841796875
8.77111911191119e6,89.93097686767578,7.442258834838867,31.83888053894043,-83.77576446533203
8.77111911191119e6,40.74522018432617,-37.39342498779297,16.143871307373047,-1.0864083766937256
8.77111911191119e6,45.76615905761719,39.1090087890625,-8.601243019104004,-22.15728759765625
8.77111911191119e6,297.159912109375,0.14510029554367065,-1.0323469638824463,-297.1579284667969
8.77111911191119e6,47.547279357910156,13.155899047851562,19.028234481811523,-41.53904342651367
8.77111911191119e6,74.83196258544922,21.769088745117188,-28.503053665161133,-65.676513671875
8.77111911191119e6,8.989385604858398,1.5284709930419922,-2.656856060028076,8.444758415222168
8.77111911191119e6,474.80645751953125,22.303659439086914,48.48466873168945,471.7974853515625
8.77111911191119e6,1165.9105224609375,-20.159637451171875,20.474803924560547,-1165.5562744140625
8.77111911191119e6,23.508790969848633,23.430280685424805,-1.1599419116973877,1.496563196182251
8.77111911191119e6,74.2330093383789,34.740169525146484,-19.33254051208496,-62.68822479248047
8.77111911191119e6,226.21958923339844,16.54293441772461,25.180952072143555,224.20404052734375
8.77111911191119e6,51.03865051269531,10.82334041595459,-45.97216033935547,19.345787048339844
8.77111911191119e6,191.779296875,4.637828350067139,-39.67714309692383,187.57241821289062
8.77111911191119e6,1786.4949951171875,-26.0986385345459,-4.907887935638428,-1786.2974853515625
8.77111911191119e6,592.459228515625,20.05780601501465,9.180809020996094,592.04833984375
8.77111911191119e6,349.9988708496094,-35.03971862792969,37.92427062988281,-346.1691589355469
8.77111911191119e6,36.14619827270508,-20.83347511291504,11.120755195617676,27.3631649017334
8.77111911191119e6,209.20310974121094,5.016697406768799,3.664006233215332,-209.11061096191406
8.77111911191119e6,69.8875961303711,-4.143121719360352,-14.067401885986328,68.33094787597656
8.77111911191119e6,140.48570251464844,21.50469970703125,1.803761601448059,-138.81796264648438
8.77111911191119e6,1059.5950927734375,9.238615989685059,-45.887508392333984,1058.5606689453125
8.77111911191119e6,216.1697540283203,36.89848327636719,-19.45304298400879,-212.10691833496094
8.77111911191119e6,132.14695739746094,35.555442810058594,53.43246078491211,-115.51406860351562
8.77111911191119e6,605.8150634765625,30.575748443603516,27.417102813720703,-604.42138671875
8.77111911191119e6,26.64348793029785,-19.05061149597168,12.275446891784668,-14.005823135375977
8.77111911191119e6,88.17696380615234,16.869985580444336,-33.12703323364258,-79.95673370361328
8.77111911191119e6,212.18199157714844,-14.77755069732666,30.335542678833008,-209.4814453125
8.77111911191119e6,59.14190673828125,3.790717840194702,22.80906867980957,-54.43383026123047
8.77111911191119e6,88.12310791015625,-11.197063446044922,-16.825267791748047,-85.77365112304688
8.77111911191119e6,1705.8006591796875,13.145599365234375,37.33051300048828,1705.3414306640625
8.77111911191119e6,57.2907829284668,11.58146858215332,36.36595153808594,-42.726112365722656
8.77111911191119e6,295.5185241699219,-18.90038299560547,31.80532455444336,293.1932678222656
8.77111911191119e6,58.60687255859375,-16.004207611083984,-21.47058868408203,52.13007354736328
8.77111911191119e6,279.5775146484375,27.516630172729492,4.067662715911865,278.1901550292969
8.77111911191119e6,45.59341049194336,10.895440101623535,-39.624664306640625,-19.744226455688477
8.77111911191119e6,200.2189483642578,24.91301155090332,29.00282859802246,196.53424072265625
8.77111911191119e6,311.0528259277344,-14.52672004699707,-39.1102294921875,-308.2419738769531
8.77111911191119e6,334.27252197265625,6.465233325958252,-13.87569808959961,333.92169189453125
8.77111911191119e6,44.075828552246094,-37.274559020996094,6.4322099685668945,-22.623279571533203
8.77111911191119e6,432.82684326171875,13.179156303405762,-11.013484001159668,-432.48583984375
8.77111911191119e6,167.73641967773438,16.141681671142578,-1.2858574390411377,-166.9526824951172
8.77111911191119e6,26.14759635925293,-19.5485782623291,-15.453520774841309,-7.914450645446777
8.77111911191119e6,849.187255859375,-1.589645504951477,-4.494393825531006,-849.173828125
8.77111911191119e6,99.74605560302734,-26.09282112121582,-30.01261329650879,91.47449493408203
8.77111911191119e6,228.77674865722656,2.3052070140838623,-31.91620635986328,-226.527587890625
8.77111911191119e6,183.85621643066406,-1.7437927722930908,-14.031904220581055,183.31141662597656
8.77111911191119e6,165.3721160888672,-40.98889923095703,-15.757681846618652,-159.43475341796875
8.77111911191119e6,81.83175659179688,4.9239020347595215,-37.620338439941406,-72.50379943847656
8.77111911191119e6,134.18043518066406,89.99662780761719,-59.21730041503906,-79.98880004882812
8.77111911191119e6,4.16546630859375,-2.5142385959625244,-2.001941680908203,2.6309585571289062
8.77111911191119e6,102.19294738769531,25.22344970703125,-3.51233172416687,-98.96837615966797
8.77111911191119e6,133.4920196533203,14.479631423950195,-6.7428789138793945,-132.53262329101562
8.77111911191119e6,248.05471801757812,-14.161321640014648,14.195836067199707,247.2427520751953
8.77111911191119e6,740.5713500976562,16.592754364013672,-1.673406958580017,-740.3834838867188
8.77111911191119e6,1572.25,0.030693313106894493,14.229728698730469,1572.185546875
8.77111911191119e6,31.4144344329834,-19.655296325683594,-4.422735691070557,24.101356506347656
8.77111911191119e6,226.8674774169922,-30.870275497436523,39.522132873535156,-221.2550048828125
8.77111911191119e6,62.71521759033203,8.52531909942627,-39.16350555419922,-48.2352294921875
8.77111911191119e6,37.04452133178711,33.502933502197266,15.524707794189453,2.9552202224731445
8.77111911191119e6,971.8817138671875,-6.143753528594971,28.26073455810547,971.4512329101562
8.77111911191119e6,33.736351013183594,-29.279850006103516,-8.8203763961792,14.24544620513916
8.77111911191119e6,6.407355308532715,0.22280366718769073,-2.063206434249878,-6.053737640380859
8.77111911191119e6,119.04862213134766,-30.252851486206055,35.41046905517578,109.55974578857422
8.77111911191119e6,1429.841552734375,16.146507263183594,0.5752232670783997,-1429.750244140625
8.77111911191119e6,9.798147201538086,-2.8592422008514404,-9.24975299835205,-1.4732602834701538
8.77111911191119e6,133.48294067382812,-5.721850872039795,21.530935287475586,-131.61032104492188
8.77111911191119e6,2487.12158203125,2.4854254722595215,-22.0198974609375,2487.02294921875
8.77111911191119e6,23.83184051513672,-10.973352432250977,-17.226240158081055,-12.2759428024292
8.77111911191119e6,127.43858337402344,24.048181533813477,32.44070053100586,120.87091064453125
8.77111911191119e6,216.56053161621094,-37.36534118652344,-26.75527000427246,-211.6278533935547
8.77111911191119e6,437.7503967285156,-11.074183464050293,-32.13954544067383,436.4283752441406
8.77111911191119e6,131.392333984375,-8.148102760314941,36.48469924926758,125.96157836914062
8.77111911191119e6,577.6926879882812,28.455482482910156,11.836831092834473,-576.8699340820312
8.77111911191119e6,36.810359954833984,25.210899353027344,-23.507986068725586,-12.910765647888184
8.77111911191119e6,96.74959564208984,27.4681453704834,-33.83391189575195,86.3779525756836
8.77111911191119e6,42.257362365722656,-1.3361116647720337,-42.05360794067383,3.9106733798980713
8.77111911191119e6,757.2802124023438,11.305145263671875,51.060325622558594,755.4722290039062
8.77111911191119e6,51.12580108642578,-19.198955535888672,30.576217651367188,36.19727325439453
8.77111911191119e6,324.73638916015625,102.65585327148438,119.3525390625,284.0252990722656
8.77111911191119e6,770.3951416015625,26.322969436645508,-29.362789154052734,-769.3851318359375
8.77111911191119e6,1169.0875244140625,-15.718774795532227,-6.912957191467285,1168.96142578125
8.77111911191119e6,95.89908599853516,-3.047844171524048,35.27129364013672,89.12452697753906
8.77111911191119e6,58.497962951660156,56.89891052246094,13.379180908203125,2.3288052082061768
8.77111911191119e6,69.21428680419922,-18.486520767211914,33.166412353515625,57.868431091308594
8.77111911191119e6,33.73075866699219,-7.6399922370910645,10.127548217773438,-31.25263786315918
8.77111911191119e6,635.88427734375,-53.72998046875,12.525914192199707,-633.486328125
8.77111911191119e6,243.7552947998047,6.380694389343262,35.081703186035156,241.13296508789062
8.77111911191119e6,1978.6024169921875,41.31357192993164,-15.081415176391602,-1978.113525390625
8.77111911191119e6,52.309326171875,1.3642314672470093,-22.68372917175293,47.114253997802734
8.77111911191119e6,70.39080047607422,-36.90769958496094,18.4762020111084,57.019439697265625
8.77111911191119e6,776.1879272460938,4.3832783699035645,-34.748992919921875,775.397216796875
8.77111911191119e6,113.44178009033203,37.29469299316406,-18.074825286865234,105.59992218017578
8.77111911191119e6,669.4552612304688,21.93817901611328,-60.117347717285156,666.3894653320312
8.77111911191119e6,158.1990509033203,-18.5616397857666,19.535369873046875,155.88673400878906
8.77111911191119e6,261.558837890625,19.30345916748047,-4.611030578613281,-260.8045959472656
8.77111911191119e6,45.231231689453125,12.276859283447266,25.34943389892578,-35.389957427978516
8.77111911191119e6,117.7705307006836,-1.9051858186721802,-35.35667419433594,112.32129669189453
8.77111911191119e6,69.45658111572266,41.46961975097656,6.107577800750732,-55.38127136230469
8.77111911191119e6,179.3753204345703,24.60765266418457,-22.412124633789062,-176.2599334716797
8.77111911191119e6,594.3048095703125,33.67220687866211,13.338987350463867,-593.2000732421875
8.77111911191119e6,113.3333511352539,-18.038225173950195,-27.029407501220703,-108.5743179321289
8.77111911191119e6,57.73781967163086,-19.168807983398438,-25.7608699798584,-47.98426818847656
8.77111911191119e6,56.343902587890625,-36.3653450012207,24.017229080200195,-35.71091842651367
8.77111911191119e6,236.97303771972656,12.797308921813965,-11.189302444458008,236.36233520507812
8.77111911191119e6,36.96670150756836,-21.924135208129883,23.64516830444336,18.07415771484375
8.77111911191119e6,35.20365905761719,14.438060760498047,9.36539363861084,30.708786010742188
8.77111911191119e6,190.5181121826172,-21.94162368774414,10.375237464904785,-188.9655303955078
8.77111911191119e6,17.54209327697754,-11.815739631652832,-6.471230983734131,11.231051445007324
8.77111911191119e6,64.20697021484375,8.548222541809082,-31.590539932250977,55.23948287963867
8.77111911191119e6,669.0047607421875,-40.17916488647461,-20.66718101501465,667.4771728515625
8.77111911191119e6,32.83009719848633,-4.8456597328186035,30.366785049438477,-11.493182182312012
8.77111911191119e6,1308.7559814453125,16.87373924255371,34.21360778808594,-1308.1998291015625
8.77111911191119e6,313.3912658691406,19.26044273376465,-20.8339900970459,-312.1040954589844
8.77111911191119e6,543.5546875,-8.776473045349121,-32.326351165771484,542.5215454101562
8.77111911191119e6,131.2733917236328,-30.22099494934082,-19.539461135864258,126.24382781982422
8.77111911191119e6,80.287109375,-15.234840393066406,64.58138275146484,45.20027542114258
8.77111911191119e6,445.30499267578125,24.38144302368164,28.369916915893555,443.73089599609375
8.77111911191119e6,49.23881912231445,-10.55768871307373,-40.994380950927734,25.146711349487305
8.77111911191119e6,160.75743103027344,-14.15065860748291,-28.549922943115234,-157.56748962402344
8.77111911191119e6,895.3348999023438,32.112003326416016,-24.0343074798584,-894.4359741210938
8.77111911191119e6,6.569998741149902,-0.9442861676216125,-6.492961883544922,-0.12103041261434555
8.77111911191119e6,20.473859786987305,5.859139442443848,8.669652938842773,-17.59507179260254
8.77111911191119e6,52.412071228027344,38.19910430908203,-19.452533721923828,30.155471801757812
8.77111911191119e6,147.6019744873047,-49.47316360473633,5.328282833099365,138.9613494873047
8.77111911191119e6,456.44525146484375,0.9581881165504456,38.5284538269043,-454.81512451171875
8.77111911191119e6,67.25980377197266,-24.937318801879883,-25.705718994140625,56.93090057373047
8.77111911191119e6,24.714513778686523,6.718782901763916,9.686039924621582,21.719709396362305
8.77111911191119e6,57.2775993347168,-11.3904390335083,8.554436683654785,-55.47705078125
8.77111911191119e6,436.197509765625,-27.709436416625977,-13.216913223266602,435.1156921386719
8.77111911191119e6,54.70093536376953,2.072180986404419,-43.3577995300293,33.285125732421875
8.77111911191119e6,1175.8988037109375,30.150924682617188,25.472904205322266,-1175.236083984375
8.77111911191119e6,388.8218078613281,29.909561157226562,-21.669641494750977,387.0634765625
8.77111911191119e6,52.097293853759766,5.553476333618164,-51.76054763793945,-2.0080814361572266
8.77111911191119e6,508.7326965332031,0.32741838693618774,28.044397354125977,507.9588928222656
8.77111911191119e6,46.14192581176758,26.494049072265625,-16.264801025390625,34.09543991088867
8.77111911191119e6,97.9521255493164,6.063797950744629,-33.20109939575195,91.95344543457031
8.77111911191119e6,46.54180145263672,14.491191864013672,39.490867614746094,19.91270637512207
8.77111911191119e6,20.649221420288086,10.174626350402832,5.149763107299805,17.211835861206055
8.77111911191119e6,230.2838592529297,-3.8258965015411377,34.78242111206055,-227.6095428466797
8.77111911191119e6,36.52101516723633,10.711519241333008,-22.58034324645996,-26.62847900390625
8.77111911191119e6,153.40167236328125,-4.867175579071045,-35.10667419433594,-149.25082397460938
8.77111911191119e6,41.75843811035156,12.813563346862793,-31.268362045288086,-24.53098487854004
8.77111911191119e6,321.3809509277344,21.688133239746094,3.836522340774536,320.62518310546875
8.77111911191119e6,40.34305191040039,-15.735761642456055,4.777029037475586,36.83785629272461
8.77111911191119e6,484.2752990722656,39.5015754699707,-10.668267250061035,482.5435485839844
8.77111911191119e6,62.08279800415039,-28.98666000366211,-12.571501731872559,53.44066619873047
8.77111911191119e6,79.42170715332031,9.936236381530762,-36.44553756713867,-69.86202239990234
8.77111911191119e6,1038.7977294921875,-54.57724380493164,16.792171478271484,-1037.22705078125
8.77111911191119e6,475.9339904785156,-60.14302062988281,97.3956069946289,461.9631652832031
8.77111911191119e6,23.3262939453125,-19.832365036010742,-8.720805168151855,-8.639491081237793
8.77111911191119e6,471.4039611816406,18.341426849365234,-2.4831504821777344,-471.0403747558594
8.77111911191119e6,1651.8712158203125,-36.761474609375,-10.64689826965332,-1651.427734375
8.77111911191119e6,66.49940490722656,-13.982684135437012,-15.321601867675781,63.180721282958984
8.77111911191119e6,786.3072509765625,-2.668731689453125,-11.306025505065918,786.2213745117188
8.77111911191119e6,48.15410232543945,-7.336599826812744,40.95344924926758,-24.242660522460938
8.77111911191119e6,54.079490661621094,29.40924835205078,41.77961730957031,-17.72147560119629
8.77111911191119e6,1053.6824951171875,-20.827138900756836,-29.31446647644043,1053.068603515625
8.77111911191119e6,113.3031997680664,5.026852607727051,-37.21358108520508,-106.89899444580078
8.77111911191119e6,242.85134887695312,17.088504791259766,-32.98879623413086,239.99249267578125
8.77111911191119e6,292.4313659667969,1.384339690208435,25.27768898010254,291.3333435058594
8.77111911191119e6,441.18194580078125,-40.68360137939453,6.933774471282959,-439.2472839355469
8.77111911191119e6,1424.886962890625,7.702536582946777,-47.492286682128906,1424.074462890625
8.77111911191119e6,130.7754364013672,33.605037689208984,-1.2761679887771606,-126.37715911865234
8.77111911191119e6,169.13687133789062,33.779232025146484,2.617018938064575,165.70846557617188
8.77111911191119e6,142.89625549316406,40.47190856933594,-2.9101791381835938,-137.01385498046875
8.77111911191119e6,101.4927749633789,-36.78974151611328,-3.290405035018921,-94.53238677978516
8.77111911191119e6,56.216922760009766,17.761619567871094,-29.452293395996094,44.46717834472656
8.77111911191119e6,52.64109420776367,-20.085662841796875,-28.516733169555664,39.425209045410156
8.77111911191119e6,590.92041015625,-8.3704195022583,-20.677053451538086,-590.4991455078125
8.77111911191119e6,172.72869873046875,11.057339668273926,3.1332592964172363,-172.34564208984375
8.77111911191119e6,21.47962760925293,-1.8007862567901611,-20.902862548828125,4.593679428100586
8.77111911191119e6,80.19205474853516,-16.562246322631836,-17.760265350341797,-76.42597961425781
8.77111911191119e6,225.35658264160156,53.823490142822266,10.549595832824707,218.58001708984375
8.77111911191119e6,30.97254753112793,-11.32398509979248,-26.451412200927734,11.458137512207031
8.77111911191119e6,157.050537109375,-5.323066711425781,-3.2918312549591064,156.92544555664062
8.77111911191119e6,46.87635040283203,-1.1691778898239136,-36.35293197631836,29.57007598876953
8.77111911191119e6,18.220678329467773,16.063373565673828,4.7750420570373535,7.14563512802124
8.77111911191119e6,1089.3782958984375,-28.579729080200195,25.559268951416016,-1088.703369140625
8.77111911191119e6,405.9211730957031,-10.167437553405762,-34.94205093383789,-404.2864990234375
8.77111911191119e6,23.21429443359375,-19.46823501586914,-0.8083996772766113,-12.614984512329102
8.77111911191119e6,45.227108001708984,-24.06707191467285,20.87833595275879,-32.09770202636719
8.77111911191119e6,202.56668090820312,0.9008768796920776,23.447555541992188,-201.20278930664062
8.77111911191119e6,54.218528747558594,-24.47587776184082,-10.988727569580078,47.113990783691406
8.77111911191119e6,313.11328125,4.198822498321533,-23.00807762145996,-312.2384033203125
8.77111911191119e6,510.73126220703125,12.078203201293945,-51.580902099609375,-507.9762268066406
8.77111911191119e6,642.2633056640625,23.193864822387695,16.355825424194336,-641.6359252929688
8.77111911191119e6,64.98052215576172,-13.699118614196777,55.86614990234375,-30.227060317993164
8.77111911191119e6,100.4428939819336,-17.724891662597656,9.480006217956543,-98.41053009033203
8.77111911191119e6,126.84951782226562,-41.933170318603516,-10.47723388671875,-119.2582778930664
8.77111911191119e6,18.114898681640625,-13.484130859375,-12.092439651489258,-0.026214703917503357
8.77111911191119e6,116.72401428222656,78.45230865478516,-14.873040199279785,85.1376724243164
8.77111911191119e6,39.98857879638672,35.11544418334961,18.955846786499023,2.5628042221069336
8.77111911191119e6,87.55188751220703,-71.8005142211914,-11.168961524963379,48.83824157714844
8.77111911191119e6,663.9746704101562,-22.462379455566406,-27.40102767944336,663.028564453125
8.77111911191119e6,142.32923889160156,-5.592451572418213,13.729324340820312,141.5547332763672
8.77111911191119e6,228.9583282470703,-34.96897506713867,25.86561393737793,224.7886962890625
8.77111911191119e6,37.452476501464844,-32.923728942871094,17.023815155029297,-5.367114543914795
8.77111911191119e6,49.661460876464844,0.9267566800117493,41.05306625366211,27.927541732788086
8.77111911191119e6,37.87891387939453,18.101289749145508,-21.340490341186523,25.527217864990234
8.77111911191119e6,40.21531677246094,39.914554595947266,0.6829854846000671,4.851165294647217
8.77111911191119e6,237.4928741455078,29.3831729888916,6.866274833679199,235.56793212890625
8.77111911191119e6,76.2611312866211,35.00663757324219,17.622148513793945,65.41907501220703
8.77111911191119e6,37.89156723022461,-7.864084243774414,-25.317888259887695,-27.070863723754883
8.77111911191119e6,40.8697395324707,8.482860565185547,6.357874870300293,-39.469661712646484
8.77111911191119e6,1626.264404296875,-45.444576263427734,33.96611785888672,1625.2744140625
8.77111911191119e6,95.53849029541016,-21.098989486694336,-36.150489807128906,85.88060760498047
8.77111911191119e6,27.14112663269043,11.455622673034668,23.36591148376465,-7.7034783363342285
8.77111911191119e6,85.99335479736328,29.41720962524414,-15.933348655700684,-79.2181396484375
8.77111911191119e6,47.328670501708984,14.216035842895508,23.538896560668945,38.519187927246094
8.77111911191119e6,1292.228515625,-9.232889175415039,-34.637237548828125,1291.731201171875
8.77111911191119e6,38.81702423095703,-11.77197265625,27.869386672973633,-24.318294525146484
8.77111911191119e6,274.34295654296875,28.066362380981445,23.467878341674805,271.8924560546875
8.77111911191119e6,67.17919921875,-10.78853702545166,-33.13865280151367,-57.431541442871094
8.77111911191119e6,1249.1817626953125,-41.48872375488281,-8.44001579284668,-1248.4639892578125
8.77111911191119e6,6.8915252685546875,-1.7679921388626099,-0.15901349484920502,6.6514692306518555
8.77111911191119e6,1598.3934326171875,21.20745277404785,10.578104972839355,-1598.2176513671875
8.77111911191119e6,193.22406005859375,42.126258850097656,-1.0715564489364624,188.5727081298828
8.77111911191119e6,2276.287353515625,24.860342025756836,19.23615837097168,-2276.0703125
8.77111911191119e6,50.557193756103516,2.1065025329589844,38.79020690917969,-32.3544807434082
8.77111911191119e6,103.83283233642578,23.041406631469727,51.95191955566406,-86.89791870117188
8.77111911191119e6,30.80010414123535,-12.32695484161377,20.601499557495117,-19.291728973388672
8.77111911191119e6,27.23285675048828,12.21290111541748,-22.301610946655273,-9.747396469116211
8.77111911191119e6,1466.5625,46.86967086791992,-0.19004984200000763,1465.8133544921875
8.77111911191119e6,90.6736068725586,17.67205047607422,-40.08140563964844,-79.39006805419922
8.77111911191119e6,61.04612350463867,-12.306797981262207,15.130962371826172,-57.845706939697266
8.77111911191119e6,78.97621154785156,17.687891006469727,23.336349487304688,73.34640502929688
8.77111911191119e6,179.85922241210938,15.678439140319824,21.583040237426758,177.86961364746094
8.77111911191119e6,57.071475982666016,-0.7445504665374756,-37.88601303100586,-42.674922943115234
8.77111911191119e6,28.968591690063477,-19.63502311706543,-15.33633804321289,14.776397705078125
8.77111911191119e6,53.87162780761719,-47.45071792602539,11.722941398620605,22.65070152282715
8.77111911191119e6,187.0563507080078,31.668598175048828,-24.673933029174805,-182.6972198486328
8.77111911191119e6,184.15570068359375,30.171131134033203,-18.1235294342041,-180.7607879638672
8.77111911191119e6,611.2255249023438,-2.610175609588623,-24.471908569335938,-610.729736328125
8.77111911191119e6,264.1927795410156,3.5268185138702393,-33.794883728027344,261.9984436035156
8.77111911191119e6,518.994873046875,25.44289207458496,-15.592233657836914,518.13623046875
8.77111911191119e6,476.965087890625,2.236138343811035,-10.881049156188965,476.8356018066406
8.77111911191119e6,535.385498046875,-20.796642303466797,-31.689054489135742,-534.0419311523438
8.77111911191119e6,355.93121337890625,-24.507568359375,11.278373718261719,-354.90716552734375
8.77111911191119e6,63.81995391845703,-38.280426025390625,29.291366577148438,-41.82715606689453
8.77111911191119e6,1027.21630859375,-68.02760314941406,-0.30063295364379883,1024.961181640625
8.77111911191119e6,47.42824935913086,27.320283889770508,16.422157287597656,35.117713928222656
8.77111911191119e6,378.9248962402344,20.03982162475586,34.06015396118164,376.85845947265625
8.77111911191119e6,93.92994689941406,-28.4599609375,70.22000122070312,-55.51500701904297
8.77111911191119e6,316.0805969238281,-10.930197715759277,-37.717384338378906,-313.631591796875
8.77111911191119e6,30.733240127563477,6.593412399291992,-28.679616928100586,-8.856548309326172
8.77111911191119e6,318.90203857421875,-11.742676734924316,-9.270177841186523,318.5507507324219
8.77111911191119e6,263.9113464355469,-21.391183853149414,32.0716667175293,261.080322265625
8.77111911191119e6,48.40339660644531,14.08667278289795,0.2964448034763336,46.30622482299805
8.77111911191119e6,46.564605712890625,37.16468811035156,-23.813596725463867,14.827719688415527
8.77111911191119e6,211.02288818359375,-11.790083885192871,-22.993555068969727,209.43458557128906
8.77111911191119e6,96.9375991821289,-4.834084987640381,-19.11752700805664,94.91022491455078
8.77111911191119e6,38.74692916870117,36.672916412353516,9.085972785949707,8.588748931884766
8.77111911191119e6,843.070068359375,-14.187912940979004,-40.79058074951172,841.9630737304688
8.77111911191119e6,885.40185546875,42.827911376953125,-15.040399551391602,884.2374267578125
8.77111911191119e6,242.58770751953125,-25.631343841552734,-17.313600540161133,240.6074981689453
8.77111911191119e6,77.27526092529297,31.237648010253906,25.886154174804688,65.76839447021484
8.77111911191119e6,563.3240966796875,-8.941946983337402,42.311798095703125,-561.6614990234375
8.77111911191119e6,159.86923217773438,-37.00532531738281,-11.245048522949219,-155.1200408935547
8.77111911191119e6,31.299304962158203,2.2215936183929443,-25.376909255981445,-18.183053970336914
8.77111911191119e6,122.61897277832031,-9.831782341003418,29.203617095947266,118.68360137939453
8.77111911191119e6,207.96075439453125,-5.522932052612305,-15.255810737609863,207.32664489746094
8.77111911191119e6,19.05514144897461,18.24382972717285,5.463049411773682,0.5623188614845276
8.77111911191119e6,39.192604064941406,27.71615982055664,26.56615447998047,7.874904632568359
8.77111911191119e6,865.6429443359375,-16.405427932739258,35.76791000366211,-864.748046875
8.77111911191119e6,41.240516662597656,-1.3463315963745117,36.16883087158203,19.76571273803711
8.77111911191119e6,19.79364585876465,-18.114078521728516,-1.6517597436904907,-7.800017356872559
8.77111911191119e6,199.84048461914062,13.821005821228027,-45.46189880371094,194.10902404785156
8.77111911191119e6,59.13850402832031,1.1122355461120605,29.55710792541504,51.20940399169922
8.77111911191119e6,1209.4757080078125,27.065284729003906,10.06074047088623,-1209.1309814453125
8.77111911191119e6,1067.6436767578125,17.403921127319336,-29.496944427490234,-1067.0941162109375
8.77111911191119e6,145.8882598876953,-32.411170959472656,18.081209182739258,-141.08816528320312
8.77111911191119e6,671.530517578125,24.361976623535156,12.677202224731445,670.9686279296875
8.77111911191119e6,78.23246765136719,11.149744033813477,17.704349517822266,-75.382080078125
8.77111911191119e6,1265.47802734375,-59.95363235473633,102.66073608398438,1259.88134765625
8.77111911191119e6,31.820207595825195,30.25051498413086,0.02053741179406643,9.865674018859863
8.77111911191119e6,408.97442626953125,-19.85330581665039,36.5817756652832,406.850830078125
8.77111911191119e6,129.2932586669922,27.407583236694336,27.9112548828125,123.23324584960938
8.77111911191119e6,116.67049407958984,-30.412353515625,-0.9282972812652588,112.63272094726562
8.77111911191119e6,87.61222839355469,-53.819583892822266,-7.216371536254883,-68.75448608398438
8.77111911191119e6,50.33723831176758,-41.09122848510742,-5.236265659332275,28.597728729248047
8.77111911191119e6,53.00401306152344,-22.330015182495117,6.716300010681152,47.598182678222656
8.77111911191119e6,263.0854797363281,12.245645523071289,30.237062454223633,261.0548400878906
8.77111911191119e6,106.8446273803711,-0.42603495717048645,-29.08165168762207,102.80928802490234
8.77111911191119e6,40.50709533691406,37.3114013671875,0.31803134083747864,15.763339042663574
8.77111911191119e6,1156.7904052734375,-9.322869300842285,-23.704410552978516,-1156.5098876953125
8.77111911191119e6,71.37738800048828,-42.194454193115234,23.458120346069336,-52.57353210449219
8.77111911191119e6,1079.7413330078125,-44.20697021484375,-58.32386016845703,1077.25830078125
8.77111911191119e6,26.21415901184082,-19.70497703552246,-13.91370964050293,10.25693416595459
8.77111911191119e6,267.0124816894531,-0.3710414469242096,107.1646957397461,244.56320190429688
8.77111911191119e6,2367.175537109375,-27.92528533935547,22.70860481262207,-2366.90185546875
8.77111911191119e6,123.97696685791016,19.787382125854492,-2.1525626182556152,-122.36835479736328
8.77111911191119e6,30.30877685546875,27.176280975341797,2.036830425262451,13.25982666015625
8.77111911191119e6,85.51638793945312,-85.09219360351562,-5.765103816986084,-6.247782230377197
8.77111911191119e6,64.87249755859375,-11.33144760131836,37.8512077331543,-51.45119857788086
8.77111911191119e6,142.2548828125,49.76869583129883,21.02411651611328,131.5956573486328
8.77111911191119e6,330.6842346191406,-9.516753196716309,29.716670989990234,329.2086181640625
8.77111911191119e6,29.903322219848633,24.68975257873535,-14.427918434143066,8.738420486450195
8.77111911191119e6,34.68794250488281,31.32001495361328,3.7662277221679688,-14.423087120056152
8.77111911191119e6,147.6421661376953,37.96271896362305,17.90663719177246,-141.54962158203125
8.77111911191119e6,58.93779754638672,-33.11321258544922,6.672713279724121,48.29652404785156
8.77111911191119e6,162.84962463378906,5.00464391708374,5.3213791847229,-162.68539428710938
8.77111911191119e6,45.130184173583984,5.253683567047119,44.73525619506836,-2.790947914123535
8.77111911191119e6,83.63031005859375,-24.97821807861328,-31.837757110595703,73.187255859375
8.77111911191119e6,64.07559204101562,-35.07601547241211,-15.148652076721191,51.437076568603516
8.77111911191119e6,50.71855163574219,14.526991844177246,27.853967666625977,-39.817012786865234
8.77111911191119e6,1945.546142578125,9.038183212280273,-4.709557056427002,-1945.5194091796875
8.77111911191119e6,22.142730712890625,19.10666847229004,-10.362794876098633,-4.212857723236084
8.77111911191119e6,90.59606170654297,26.0344295501709,43.836395263671875,74.88742065429688
8.77111911191119e6,420.376953125,23.745315551757812,-102.77167510986328,406.92852783203125
8.77111911191119e6,202.09930419921875,37.84468460083008,-12.857799530029297,198.1072540283203
8.77111911191119e6,80.79206848144531,32.02970886230469,6.94012451171875,-73.8457260131836
8.77111911191119e6,897.1495971679688,-15.400872230529785,23.527509689331055,896.708740234375
8.77111911191119e6,55.735652923583984,17.629413604736328,-16.670316696166992,-50.176361083984375
8.77111911191119e6,153.437744140625,-10.9668550491333,-29.806184768676758,150.11448669433594
8.77111911191119e6,35.383121490478516,-18.82694435119629,-11.0049409866333,27.862211227416992
8.77111911191119e6,1001.4793090820312,11.326099395751953,-2.3049354553222656,1001.4125366210938
8.77111911191119e6,96.02230072021484,3.9030864238739014,27.47154998779297,91.92530822753906
8.77111911191119e6,322.7182312011719,9.28156566619873,41.70011901855469,319.8779602050781
8.77111911191119e6,127.67457580566406,-32.233253479003906,-20.153818130493164,-121.88330078125
8.77111911191119e6,90.75333404541016,24.518516540527344,9.544608116149902,-86.85511016845703
8.77111911191119e6,84.50177764892578,-9.68915843963623,-12.635557174682617,82.9874267578125
8.77111911191119e6,74.64067077636719,-23.34073257446289,26.310466766357422,65.83387756347656
8.77111911191119e6,169.07373046875,27.983234405517578,-26.3109130859375,164.6526641845703
8.77111911191119e6,39.71110153198242,-18.39463996887207,-10.433443069458008,-33.610294342041016
8.77111911191119e6,567.4295043945312,-26.28980827331543,-56.84420394897461,563.9625244140625
8.77111911191119e6,797.19091796875,-20.01538848876953,-15.191263198852539,796.7947387695312
8.77111911191119e6,32.6856689453125,31.516157150268555,-6.120171070098877,-6.126039981842041
8.77111911191119e6,3627.59765625,28.259052276611328,-8.832673072814941,3627.476806640625
8.77111911191119e6,131.1215057373047,-41.00306701660156,-3.5206732749938965,-124.4953842163086
8.77111911191119e6,78.4710464477539,-40.39836120605469,19.610177993774414,64.35075378417969
8.77111911191119e6,891.4891357421875,16.357690811157227,-27.4422607421875,890.9164428710938
8.77111911191119e6,43.73713302612305,3.2523765563964844,-43.04091262817383,-7.052557945251465
8.77111911191119e6,81.53377532958984,-33.99312210083008,0.5290289521217346,-74.10697937011719
8.77111911191119e6,122.56855010986328,-19.403465270996094,43.224979400634766,113.04006958007812
8.77111911191119e6,15.686777114868164,2.4551005363464355,11.209691047668457,-10.690664291381836
8.77111911191119e6,549.5331420898438,-31.587358474731445,12.287400245666504,-548.48681640625
8.77111911191119e6,141.752685546875,6.493255615234375,-25.728227615356445,139.2466278076172
8.77111911191119e6,1507.7491455078125,-13.744268417358398,0.535605788230896,1507.6864013671875
8.77111911191119e6,24.111591339111328,12.910056114196777,-19.44068717956543,6.054665565490723
8.77111911191119e6,203.76979064941406,-18.30525016784668,20.235029220581055,-201.93435668945312
8.77111911191119e6,46.547000885009766,-29.990108489990234,-10.054959297180176,-34.14695358276367
8.77111911191119e6,1321.5623779296875,-0.5636295676231384,28.10431671142578,1321.2633056640625
8.77111911191119e6,80.65287017822266,-0.4542711675167084,36.87942123413086,71.72508239746094
8.77111911191119e6,1053.19091796875,-2.9776017665863037,-24.029502868652344,1052.9124755859375
8.77111911191119e6,13.4597806930542,2.533773899078369,13.074990272521973,1.9210201501846313
8.77111911191119e6,45.32566452026367,32.058570861816406,9.42257308959961,30.62317657470703
8.77111911191119e6,639.3053588867188,-10.065053939819336,27.18483543395996,638.647705078125
8.77111911191119e6,92.7060317993164,31.248790740966797,7.3116865158081055,86.97332763671875
8.77111911191119e6,40.67522430419922,-39.92810821533203,6.228017330169678,4.618650913238525
8.77111911191119e6,66.8951187133789,-14.450977325439453,-37.814476013183594,-53.25496292114258
8.77111911191119e6,891.8856201171875,7.8557305335998535,-19.31697654724121,-891.6417846679688
8.77111911191119e6,84.57798767089844,-77.05614471435547,-8.32056713104248,33.85934066772461
8.77111911191119e6,21.42520523071289,-0.5523638725280762,17.4977970123291,12.347525596618652
8.77111911191119e6,320.8409423828125,22.54473114013672,-15.059492111206055,-319.6932373046875
8.77111911191119e6,36.84724807739258,-24.48316192626953,0.23933058977127075,27.534292221069336
8.77111911191119e6,78.87483215332031,-8.5718994140625,-16.668825149536133,-76.61470031738281
8.77111911191119e6,40.69112777709961,14.238285064697266,9.643264770507812,36.8774528503418
8.77111911191119e6,158.8146514892578,-23.38538932800293,44.294593811035156,150.70867919921875
8.77111911191119e6,83.70552825927734,11.431538581848145,22.50201416015625,79.80911254882812
8.77111911191119e6,370.48712158203125,6.464868545532227,37.81700897216797,368.4951477050781
8.77111911191119e6,92.82381439208984,11.46731185913086,-29.596027374267578,87.22807312011719
8.77111911191119e6,279.24884033203125,-41.73747634887695,-8.185647010803223,-275.9905700683594
8.77111911191119e6,31.11372947692871,-19.494892120361328,-18.004526138305664,16.240392684936523
8.77111911191119e6,27.025634765625,8.355437278747559,-11.827900886535645,22.816055297851562
8.77111911191119e6,1014.52490234375,-22.352750778198242,-15.925985336303711,-1014.1535034179688
8.77111911191119e6,29.782482147216797,-18.714717864990234,-16.581819534301758,-16.177108764648438
8.77111911191119e6,28.101478576660156,-16.622013092041016,-16.66502571105957,15.348569869995117
8.77111911191119e6,42.188472747802734,39.27431869506836,10.294663429260254,11.459281921386719
8.77111911191119e6,43.81978988647461,14.188182830810547,-5.846444606781006,-41.04373550415039
8.77111911191119e6,362.327392578125,11.058836936950684,37.666099548339844,-360.1944274902344
8.77111911191119e6,114.67511749267578,-42.539825439453125,-10.773880004882812,-105.9460678100586
8.77111911191119e6,54.81026077270508,-5.44403600692749,-14.033594131469727,52.70185089111328
8.77111911191119e6,90.12786102294922,-18.30358123779297,-52.6391716003418,70.83097839355469
8.77111911191119e6,100.7847671508789,15.206914901733398,35.45996856689453,93.1064453125
8.77111911191119e6,569.8352661132812,2.007676839828491,-5.048245906829834,-569.8092651367188
8.77111911191119e6,44.04792022705078,12.342906951904297,-14.283171653747559,-39.79651641845703
8.77111911191119e6,1278.739501953125,19.957155227661133,12.337139129638672,-1278.5242919921875
8.77111911191119e6,585.6210327148438,27.666826248168945,-31.57961654663086,-584.114013671875
8.77111911191119e6,144.23779296875,15.106366157531738,-1.0258675813674927,-143.44053649902344
8.77111911191119e6,199.06590270996094,33.028648376464844,28.1097354888916,-194.28350830078125
8.77111911191119e6,299.6456298828125,-35.43478775024414,-17.028593063354492,297.0552062988281
8.77111911191119e6,78.84941864013672,-24.957565307617188,24.205657958984375,70.76960754394531
8.77111911191119e6,725.77783203125,-15.131327629089355,-16.50623321533203,725.4322509765625
8.77111911191119e6,610.6278686523438,-19.15604591369629,38.09812927246094,609.1370239257812
8.77111911191119e6,33.549983978271484,11.07806396484375,-21.428892135620117,23.31481170654297
8.77111911191119e6,76.17889404296875,23.14582633972168,-1.4979230165481567,72.56135559082031
8.77111911191119e6,9.04679012298584,-2.4468343257904053,-0.6645383834838867,-8.678467750549316
8.77111911191119e6,2632.82470703125,12.736862182617188,25.754241943359375,-2632.66796875
8.77111911191119e6,88.95955657958984,-32.420833587646484,-51.90597152709961,64.56285095214844
8.77111911191119e6,15.634780883789062,-0.6004688739776611,-14.683706283569336,5.326778411865234
8.77111911191119e6,1005.1478881835938,-18.799175262451172,0.5840542316436768,-1004.9718627929688
8.77111911191119e6,1670.172607421875,19.82536506652832,35.41218185424805,-1669.679443359375
8.77111911191119e6,51.57928466796875,-4.273411750793457,13.465311050415039,49.60590744018555
8.77111911191119e6,764.623046875,24.406850814819336,-11.132404327392578,764.1522827148438
8.77111911191119e6,38.81682586669922,13.14845085144043,20.87125015258789,29.96923828125
8.77111911191119e6,164.012939453125,-21.780582427978516,-32.02418518066406,-159.37440490722656
8.77111911191119e6,27.562522888183594,-4.748683929443359,-10.86424446105957,24.879928588867188
8.77111911191119e6,45.755859375,-12.758994102478027,-24.484304428100586,36.4859619140625
8.77111911191119e6,18.881284713745117,-3.7305665016174316,-9.808022499084473,15.693580627441406
8.77111911191119e6,297.1683349609375,-27.45309066772461,-1.7168793678283691,295.8923645019531
8.77111911191119e6,1800.73486328125,3.100496530532837,-45.01949691772461,-1800.1693115234375
8.77111911191119e6,425.53656005859375,-3.1677134037017822,-35.14655303955078,-424.0707092285156
8.77111911191119e6,241.6383514404297,-26.314889907836914,-20.248546600341797,-239.3460235595703
8.77111911191119e6,24.232742309570312,-13.754193305969238,-10.169590950012207,-17.16179847717285
8.77111911191119e6,190.2148895263672,-8.027743339538574,41.34757995605469,-185.49269104003906
8.77111911191119e6,1831.019775390625,-38.646461486816406,-0.025656703859567642,-1830.6119384765625
8.77111911191119e6,78.4124755859375,-20.802526473999023,38.6204948425293,-64.99330139160156
8.77111911191119e6,112.2296142578125,35.59233093261719,-21.02290153503418,-104.33891296386719
8.77111911191119e6,251.0469207763672,29.18317413330078,6.062267303466797,249.27102661132812
8.77111911191119e6,55.3245964050293,-23.635250091552734,-8.718733787536621,49.255149841308594
8.77111911191119e6,155.7815399169922,-31.20252799987793,1.0349372625350952,152.62083435058594
8.77111911191119e6,329.725341796875,17.88581085205078,-8.035087585449219,-329.14166259765625
8.77111911191119e6,1480.4227294921875,40.29102325439453,-14.595122337341309,1479.8023681640625
8.77111911191119e6,2125.215087890625,10.068608283996582,19.571535110473633,-2125.10107421875
8.77111911191119e6,21.63532829284668,19.525089263916016,1.1003799438476562,-9.249186515808105
8.77111911191119e6,34.69761657714844,-2.3938636779785156,-9.21464729309082,-33.364418029785156
8.77111911191119e6,240.8567657470703,1.1950253248214722,43.630069732666016,-236.86888122558594
8.77111911191119e6,999.5828247070312,26.342464447021484,-24.602951049804688,998.9326782226562
8.77111911191119e6,31.318479537963867,22.191875457763672,22.027421951293945,1.7494335174560547
8.77111911191119e6,164.40435791015625,17.203065872192383,-17.049768447875977,162.61012268066406
8.77111911191119e6,28.708885192871094,-9.504037857055664,26.11495018005371,7.196023941040039
8.77111911191119e6,996.5376586914062,20.947601318359375,-10.607555389404297,996.2609252929688
8.77111911191119e6,48.907447814941406,-37.41716384887695,13.924646377563477,-28.24709701538086
8.77111911191119e6,47.74629211425781,20.054784774780273,-27.736328125,33.28828430175781
8.77111911191119e6,10.692278861999512,6.799022197723389,-7.137526988983154,4.129630088806152
8.77111911191119e6,16.70132827758789,13.878568649291992,-7.077890872955322,-6.010254859924316
8.77111911191119e6,13.03646469116211,2.814643144607544,-11.597471237182617,5.236971378326416
8.77111911191119e6,80.32579803466797,-8.95687198638916,-26.666500091552734,-75.23833465576172
8.77111911191119e6,616.781982421875,3.0856964588165283,-10.868898391723633,-616.6784057617188
8.77111911191119e6,385.6712341308594,17.94501304626465,-6.395358562469482,-385.2002868652344
8.77111911191119e6,175.3366241455078,9.234445571899414,-8.535622596740723,-174.8848114013672
8.77111911191119e6,35.50904083251953,-16.37973976135254,-31.336448669433594,-3.2439076900482178
8.77111911191119e6,48.534149169921875,14.454018592834473,39.07280731201172,24.897003173828125
8.77111911191119e6,136.10040283203125,-10.698997497558594,31.921689987182617,131.87022399902344
8.77111911191119e6,1216.734375,-15.050280570983887,17.228334426879883,-1216.519287109375
8.77111911191119e6,34.94623947143555,8.895360946655273,24.780485153198242,22.97693634033203
8.77111911191119e6,78.1279296875,-29.811634063720703,23.130138397216797,68.4115219116211
8.77111911191119e6,30.799541473388672,19.837934494018555,-6.999365329742432,-22.493932723999023
8.77111911191119e6,209.66668701171875,-4.780271053314209,21.87020492553711,208.4678955078125
8.77111911191119e6,123.45463562011719,-1.0034112930297852,29.04646873474121,119.98434448242188
8.77111911191119e6,39.38606643676758,-20.866596221923828,28.757089614868164,16.99344253540039
8.77111911191119e6,112.51538848876953,-29.179141998291016,-15.579894065856934,107.54281616210938
8.77111911191119e6,1223.214111328125,6.460568904876709,37.468055725097656,1222.623046875
8.77111911191119e6,885.3131103515625,30.082054138183594,-30.169910430908203,-884.2872924804688
8.77111911191119e6,15.045818328857422,-1.9205968379974365,-10.247934341430664,10.842867851257324
8.77111911191119e6,111.71882629394531,18.313928604125977,-12.228940963745117,-109.52647399902344
8.77111911191119e6,363.052490234375,31.380496978759766,-5.029480934143066,-361.6586608886719
8.77111911191119e6,1068.6248779296875,-51.04066848754883,23.406402587890625,-1067.1484375
8.77111911191119e6,41.09123611450195,-40.754947662353516,-4.000411033630371,3.3794424533843994
8.77111911191119e6,33.8079833984375,21.101192474365234,0.6150351762771606,26.405323028564453
8.77111911191119e6,35.93379592895508,-2.5365750789642334,-12.418962478637695,-33.62250518798828
8.77111911191119e6,113.92350769042969,-15.007857322692871,9.950400352478027,-112.49097442626953
8.77111911191119e6,221.2044219970703,18.142868041992188,27.884695053100586,218.6883087158203
8.77111911191119e6,446.8653869628906,-9.407007217407227,-13.457548141479492,-446.5635070800781
8.77111911191119e6,223.21461486816406,31.604646682739258,-20.39570426940918,220.02232360839844
8.77111911191119e6,1202.5692138671875,90.90042877197266,36.66929626464844,-1198.5679931640625
8.77111911191119e6,1081.1204833984375,22.221254348754883,23.112716674804688,-1080.6448974609375
8.77111911191119e6,375.49066162109375,21.96840476989746,80.33391571044922,366.137939453125
8.77111911191119e6,65.29304504394531,-26.643707275390625,-1.024478554725647,59.599876403808594
8.77111911191119e6,191.11065673828125,-25.237071990966797,27.162521362304688,-187.479248046875
8.77111911191119e6,44.07078170776367,-25.46491813659668,18.766300201416016,30.683835983276367
8.77111911191119e6,332.6533203125,-29.308063507080078,22.09824562072754,-330.62188720703125
8.77111911191119e6,751.52685546875,0.135600283741951,-21.78878402709961,-751.2108154296875
8.77111911191119e6,73.95032501220703,20.58920669555664,-20.671098709106445,67.95101165771484
8.77111911191119e6,155.92820739746094,-2.0507757663726807,-32.234832763671875,152.5457763671875
8.77111911191119e6,111.18213653564453,16.426218032836914,-12.725530624389648,109.22274017333984
8.77111911191119e6,78.80941009521484,23.846843719482422,6.4036641120910645,74.84078979492188
8.77111911191119e6,713.1616821289062,48.1989631652832,8.996240615844727,711.47412109375
8.77111911191119e6,88.6330795288086,21.945823669433594,21.70543670654297,-83.08415985107422
8.77111911191119e6,105.59720611572266,18.70232582092285,-29.47173309326172,-99.66098022460938
8.77111911191119e6,62.231170654296875,6.600134372711182,-12.164750099182129,-60.67186737060547
8.77111911191119e6,272.7759704589844,18.654664993286133,39.13452911376953,269.3086242675781
8.77111911191119e6,118.63434600830078,40.376277923583984,-48.55692672729492,100.42903137207031
8.77111911191119e6,428.48486328125,11.540567398071289,-30.60805892944336,427.2342834472656
8.77111911191119e6,84.880126953125,14.504352569580078,-19.809438705444336,-81.2511215209961
8.77111911191119e6,859.5513305664062,33.241390228271484,0.3062949776649475,-858.908203125
8.77111911191119e6,78.72521209716797,-30.693021774291992,-29.608835220336914,-66.172607421875
8.77111911191119e6,770.8029174804688,-21.0828914642334,25.885995864868164,-770.0795288085938
8.77111911191119e6,67.54660034179688,31.520992279052734,1.3803273439407349,59.72407531738281
8.77111911191119e6,59.91660690307617,-22.146677017211914,7.932651519775391,55.10442352294922
8.77111911191119e6,30.582550048828125,-19.435606002807617,-1.9663774967193604,-23.528343200683594
8.77111911191119e6,142.7223358154297,4.022401332855225,-37.90241622924805,-137.538330078125
8.77111911191119e6,26.25490379333496,-2.7847673892974854,-25.325714111328125,6.330340385437012
8.77111911191119e6,615.277587890625,25.61092185974121,18.60448455810547,-614.462646484375
8.77111911191119e6,26.524412155151367,3.974168062210083,-24.261539459228516,-9.951292037963867
8.77111911191119e6,207.19390869140625,43.4371452331543,-10.553048133850098,202.3142547607422
8.77111911191119e6,113.71935272216797,12.903279304504395,14.554360389709473,112.04314422607422
8.77111911191119e6,175.37771606445312,-24.247224807739258,-28.447389602661133,171.3477783203125
8.77111911191119e6,117.49485778808594,22.401132583618164,11.797136306762695,114.73429870605469
8.77111911191119e6,148.36813354492188,8.097382545471191,36.75950622558594,143.513671875
8.77111911191119e6,57.415836334228516,19.329345703125,-8.568177223205566,-53.38015365600586
8.77111911191119e6,310.5214538574219,-23.390249252319336,23.493459701538086,308.7465515136719
8.77111911191119e6,98.42950439453125,22.245750427246094,27.399883270263672,-91.88384246826172
8.77111911191119e6,236.6432342529297,26.340198516845703,-92.27064514160156,-216.3151397705078
8.77111911191119e6,245.21299743652344,-21.816152572631836,32.25086212158203,242.1017303466797
8.77111911191119e6,126.31024932861328,-15.755548477172852,28.014965057373047,122.15196990966797
8.77111911191119e6,587.109130859375,-44.77803421020508,4.0786662101745605,585.384765625
8.77111911191119e6,25.416048049926758,-3.5724728107452393,2.1767630577087402,-25.067401885986328
8.77111911191119e6,43.599098205566406,36.47340393066406,13.381731986999512,-19.78386878967285
8.77111911191119e6,98.40447998046875,39.40906524658203,6.816793441772461,-89.90995025634766
8.77111911191119e6,245.417724609375,3.592276096343994,-38.663326263427734,242.3262176513672
8.77111911191119e6,122.79193878173828,27.66035270690918,7.078563213348389,-119.42595672607422
8.77111911191119e6,25.904197692871094,2.578248977661133,-5.808441162109375,-25.110597610473633
8.77111911191119e6,43.964717864990234,-5.771101474761963,-10.864014625549316,-42.207393646240234
8.77111911191119e6,46.03330612182617,-5.491458415985107,39.1671257019043,-23.553035736083984
8.77111911191119e6,46.470359802246094,-23.431644439697266,37.71719741821289,-13.702750205993652
8.77111911191119e6,130.10391235351562,4.669252395629883,7.1575164794921875,-129.8225555419922
8.77111911191119e6,20.336156845092773,8.422829627990723,15.360201835632324,10.323728561401367
8.77111911191119e6,108.76248931884766,-65.35990905761719,-26.0394344329834,-82.94100189208984
8.77111911191119e6,335.3048400878906,-17.3230037689209,-17.757705688476562,-334.3857116699219
8.77111911191119e6,82.74673461914062,26.38397789001465,28.8211669921875,-72.93933868408203
8.77111911191119e6,145.95022583007812,33.2902717590332,11.728251457214355,141.61770629882812
8.77111911191119e6,76.57942199707031,2.258701801300049,61.84961700439453,-45.098018646240234
8.77111911191119e6,1276.4832763671875,1.7805860042572021,-31.795072555541992,1276.0859375
8.77111911191119e6,364.90557861328125,-37.47979736328125,-22.468538284301758,362.27947998046875
8.77111911191119e6,194.122802734375,-14.883600234985352,-4.500675678253174,-193.49879455566406
8.77111911191119e6,291.2400817871094,-3.838574171066284,3.6335666179656982,-291.19195556640625
8.77111911191119e6,51.91225814819336,-37.938926696777344,0.6362312436103821,35.42620086669922
8.77111911191119e6,57.208518981933594,45.05302429199219,-29.199018478393555,19.7574520111084
8.77111911191119e6,45.6580696105957,-22.925933837890625,-12.026127815246582,37.60762023925781
8.77111911191119e6,56.80704879760742,35.88603210449219,23.506343841552734,37.236881256103516
8.77111911191119e6,37.448387145996094,34.7802619934082,-0.870295524597168,13.851265907287598
8.77111911191119e6,565.9136352539062,-18.50228500366211,-27.657289505004883,-564.9343872070312
8.77111911191119e6,260.76409912109375,-37.97373962402344,-1.269369125366211,257.98101806640625
8.77111911191119e6,59.36392593383789,-25.84162712097168,-24.088245391845703,-47.70683670043945
8.77111911191119e6,45.86771774291992,-16.89728355407715,-41.71285629272461,-8.846867561340332
8.77111911191119e6,47.882667541503906,26.124650955200195,-34.5177116394043,-20.461666107177734
8.77111911191119e6,173.02423095703125,29.076799392700195,26.525470733642578,-168.48805236816406
8.77111911191119e6,82.90009307861328,-34.444766998291016,-6.674626350402832,-75.10881042480469
8.77111911191119e6,174.739501953125,-38.742984771728516,-6.30178689956665,-170.27349853515625
8.77111911191119e6,149.06224060058594,-9.444683074951172,-33.00315475463867,145.05531311035156
8.77111911191119e6,44.320335388183594,-27.51919937133789,14.932459831237793,31.36729621887207
8.77111911191119e6,44.959991455078125,-16.323558807373047,37.759613037109375,18.139841079711914
8.77111911191119e6,24.92008399963379,15.427979469299316,-2.5008347034454346,-19.40705680847168
8.77111911191119e6,793.7533569335938,-46.283164978027344,12.486327171325684,-792.3043823242188
8.77111911191119e6,27.79041862487793,-24.981876373291016,-10.632234573364258,5.921886920928955
8.77111911191119e6,41.905277252197266,-38.32890319824219,0.0855088084936142,-16.936355590820312
8.77111911191119e6,702.4081420898438,-30.4398136138916,-0.11642159521579742,701.7481689453125
8.77111911191119e6,471.7083740234375,-12.598365783691406,39.484352111816406,-469.88397216796875
8.77111911191119e6,43.50605773925781,37.10169219970703,6.794341087341309,-21.678987503051758
8.77111911191119e6,84.92132568359375,30.947120666503906,24.523731231689453,-75.18240356445312
8.77111911191119e6,67.30303192138672,4.011855125427246,34.319305419921875,-57.75541305541992
8.77111911191119e6,552.0678100585938,4.676501274108887,-49.17962646484375,549.8529663085938
8.77111911191119e6,26.275712966918945,-14.680327415466309,-2.2647721767425537,-21.67191505432129
8.77111911191119e6,51.816307067871094,-37.83773422241211,1.9245355129241943,-35.3473014831543
8.77111911191119e6,590.0455322265625,31.11693000793457,18.063940048217773,-588.9473876953125
8.77111911191119e6,46.85524368286133,-15.452351570129395,-43.31098556518555,8.983165740966797
8.77111911191119e6,126.40391540527344,-18.744274139404297,0.1607968807220459,-125.00590515136719
8.77111911191119e6,353.13446044921875,50.949989318847656,9.563010215759277,-349.30859375
8.77111911191119e6,45.86087417602539,36.66011047363281,-9.892952919006348,-25.715469360351562
8.77111911191119e6,579.5433959960938,14.275501251220703,54.321861267089844,-576.8152465820312
8.77111911191119e6,1081.23876953125,-9.366865158081055,27.135913848876953,1080.8575439453125
8.77111911191119e6,1083.322265625,27.605186462402344,17.893020629882812,1082.8226318359375
8.77111911191119e6,305.8907470703125,-61.31161117553711,-15.235831260681152,-299.2955017089844
8.77111911191119e6,82.33638000488281,-14.782875061035156,-32.20207977294922,-74.3214111328125
8.77111911191119e6,294.497314453125,-6.945878505706787,-46.94147872924805,-290.6489562988281
8.77111911191119e6,428.0945739746094,13.8781099319458,-38.06204605102539,426.1731262207031
8.77111911191119e6,52.66121292114258,22.790706634521484,-1.3321481943130493,47.45431900024414
8.77111911191119e6,178.3574981689453,13.880674362182617,-6.748035907745361,177.6881866455078
8.77111911191119e6,33.25654602050781,-10.392644882202148,31.54058074951172,1.7557063102722168
8.77111911191119e6,187.9634552001953,-10.924737930297852,-20.915328979492188,186.47616577148438
8.77111911191119e6,40.04449462890625,9.926218032836914,-38.45017623901367,5.149358749389648
8.77111911191119e6,229.53546142578125,29.489578247070312,-2.20464825630188,-227.62234497070312
8.77111911191119e6,80.33428192138672,38.18650436401367,17.664417266845703,-68.43431854248047
8.77111911191119e6,45.58186340332031,32.107147216796875,0.09546362608671188,32.35318374633789
8.77111911191119e6,75.73697662353516,-33.561302185058594,8.854680061340332,-67.31436157226562
8.77111911191119e6,40.7738151550293,10.336288452148438,31.570068359375,-23.64097785949707
8.77111911191119e6,39.29823684692383,-24.926305770874023,-24.720138549804688,-17.659147262573242
8.77111911191119e6,43.589656829833984,-29.605165481567383,-13.056734085083008,29.206405639648438
8.77111911191119e6,35.80989456176758,29.195066452026367,-20.72386932373047,-0.6464766263961792
8.77111911191119e6,230.4444122314453,46.774715423583984,-8.548656463623047,-225.4851837158203
8.77111911191119e6,86.31794738769531,-18.29452133178711,25.79618263244629,80.31535339355469
8.77111911191119e6,15.85934829711914,-12.303357124328613,-5.476027011871338,-8.370152473449707
8.77111911191119e6,174.6852264404297,5.284834384918213,35.41365432739258,-170.97593688964844
8.77111911191119e6,143.41444396972656,-5.963649749755859,5.832890033721924,143.17127990722656
8.77111911191119e6,34.94828414916992,-8.22144603729248,7.405101299285889,-33.14897918701172
8.77111911191119e6,112.99454498291016,45.02857971191406,15.963470458984375,-102.39756774902344
8.77111911191119e6,32.80157470703125,-29.425769805908203,-2.9594781398773193,14.18481159210205
8.77111911191119e6,356.39813232421875,16.154836654663086,-42.817176818847656,-353.4476623535156
8.77111911191119e6,256.51116943359375,-41.1812629699707,-18.160070419311523,-252.5315704345703
8.77111911191119e6,132.47076416015625,10.29352855682373,44.87845230102539,-124.21099853515625
8.77111911191119e6,97.86775207519531,0.7830319404602051,-13.116214752197266,96.9811782836914
8.77111911191119e6,99.79054260253906,16.794092178344727,18.12796974182129,-96.68189239501953
8.77111911191119e6,81.0442886352539,-21.70606231689453,34.6956787109375,-69.95093536376953
8.77111911191119e6,40.9185676574707,-27.820064544677734,-29.56910514831543,5.093245983123779
8.77111911191119e6,26.365957260131836,16.193632125854492,10.176603317260742,18.145708084106445
8.77111911191119e6,16.182891845703125,6.623286247253418,-8.89698600769043,11.779716491699219
8.77111911191119e6,222.31602478027344,-23.49574851989746,-25.451501846313477,219.6007537841797
8.77111911191119e6,43.209617614746094,31.24344825744629,21.57639503479004,-20.62224578857422
8.77111911191119e6,38.357295989990234,33.050376892089844,-8.232806205749512,-17.63733673095703
8.77111911191119e6,33.402381896972656,17.135229110717773,-24.095535278320312,-15.53731632232666
8.77111911191119e6,408.45904541015625,-14.414127349853516,-18.702978134155273,407.77581787109375
8.77111911191119e6,59.2565803527832,0.6277932524681091,6.04343318939209,58.94340896606445
8.77111911191119e6,545.6536865234375,-17.510189056396484,14.275206565856934,545.1857299804688
8.77111911191119e6,67.8000259399414,-19.50325584411621,-30.911455154418945,-57.10383605957031
8.77111911191119e6,120.18901824951172,21.817258834838867,30.723434448242188,114.12877655029297
8.77111911191119e6,58.96784210205078,27.375547409057617,43.690670013427734,-28.614877700805664
8.77111911191119e6,461.4606628417969,-29.41762924194336,-17.87714195251465,-460.1748046875
8.77111911191119e6,157.31448364257812,55.73342514038086,12.753862380981445,146.5567169189453
8.77111911191119e6,1870.4212646484375,-2.9415791034698486,-8.654029846191406,1870.3988037109375
8.77111911191119e6,794.8582763671875,23.746368408203125,30.15595245361328,793.930908203125
8.77111911191119e6,214.5446319580078,39.66765213012695,-9.593097686767578,210.6270294189453
8.77111911191119e6,681.0444946289062,2.732297897338867,-17.466169357299805,-680.81494140625
8.77111911191119e6,115.48534393310547,-31.518638610839844,-2.7066168785095215,111.06761169433594
8.77111911191119e6,572.9195556640625,-5.195960998535156,17.680295944213867,-572.623046875
8.77111911191119e6,149.49391174316406,-22.81946563720703,-4.373820781707764,147.6769256591797
8.77111911191119e6,652.7257690429688,-1.7274603843688965,-42.21631622314453,651.3568115234375
8.77111911191119e6,786.5044555664062,-42.41681671142578,-2.362069606781006,785.356201171875
8.77111911191119e6,194.93150329589844,-32.123905181884766,-12.07967472076416,-191.88623046875
8.77111911191119e6,137.78512573242188,38.96236801147461,-6.206313133239746,-132.01536560058594
8.77111911191119e6,243.11831665039062,8.577533721923828,41.222354888916016,239.4442596435547
8.77111911191119e6,2175.929443359375,-47.83871841430664,25.45639991760254,-2175.254638671875
8.77111911191119e6,30.9083194732666,29.31574058532715,7.042550086975098,6.798091888427734
8.77111911191119e6,779.5626220703125,17.958513259887695,-30.595369338989258,778.7549438476562
8.77111911191119e6,147.36021423339844,-18.675716400146484,-3.651557445526123,-146.12603759765625
8.77111911191119e6,77.20490264892578,2.70021390914917,-31.822959899902344,-70.28872680664062
8.77111911191119e6,132.21302795410156,-10.326788902282715,21.07606315612793,-130.11280822753906
8.77111911191119e6,156.8201446533203,64.16059112548828,-43.93083953857422,-136.1835479736328
8.77111911191119e6,334.1335754394531,20.697511672973633,28.96391487121582,-332.23162841796875
8.77111911191119e6,1144.9417724609375,34.414466857910156,1.7517300844192505,-1144.423095703125
8.77111911191119e6,67.82489776611328,33.239952087402344,-1.7126870155334473,59.0955924987793
8.77111911191119e6,31.331787109375,8.600984573364258,24.549331665039062,17.462366104125977
8.77111911191119e6,614.6452026367188,30.326122283935547,20.895692825317383,-613.5408325195312
8.77111911191119e6,105.74512481689453,28.573244094848633,16.196380615234375,-100.51457214355469
8.77111911191119e6,97.85108184814453,19.600263595581055,-28.46673011779785,-91.5434799194336
8.77111911191119e6,87.4767837524414,-7.596895694732666,-21.58382797241211,-84.43052673339844
8.77111911191119e6,97.9331283569336,4.6802802085876465,-8.098986625671387,-97.48486328125
8.77111911191119e6,165.27584838867188,-80.10722351074219,24.88068389892578,142.40711975097656
8.77111911191119e6,482.3258056640625,24.274465560913086,34.72758483886719,-480.4610595703125
8.77111911191119e6,118.78005981445312,2.8957178592681885,1.1036779880523682,-118.73921203613281
8.77111911191119e6,2107.232421875,3.97035551071167,-37.45795822143555,2106.895751953125
8.77111911191119e6,1550.6427001953125,3.399916887283325,-49.14754867553711,1549.85986328125
8.77111911191119e6,2957.508544921875,27.029048919677734,-23.8703670501709,2957.288818359375
8.77111911191119e6,16.53558349609375,-8.987937927246094,-7.070130348205566,11.93967056274414
8.77111911191119e6,451.82122802734375,-37.910186767578125,-23.07849884033203,449.635986328125
8.77111911191119e6,317.44732666015625,8.76560115814209,1.6073631048202515,-317.3220520019531
8.77111911191119e6,50.817832946777344,1.2416337728500366,-18.389726638793945,-47.35639953613281
8.77111911191119e6,114.41064453125,38.89920425415039,-17.284698486328125,-106.1969223022461
8.77111911191119e6,33.05183410644531,-21.342580795288086,-23.721508026123047,8.60860538482666
8.77111911191119e6,834.8622436523438,-19.051820755004883,-5.523049831390381,-834.62646484375
8.77111911191119e6,133.6654052734375,30.327341079711914,-11.515387535095215,129.66876220703125
8.77111911191119e6,88.742431640625,-11.858823776245117,-36.752227783203125,-79.89844512939453
8.77111911191119e6,165.10385131835938,-18.814376831054688,28.014114379882812,161.61810302734375
8.77111911191119e6,322.4757080078125,25.729047775268555,-12.576425552368164,-321.2013854980469
8.77111911191119e6,1100.93359375,35.142066955566406,-8.768062591552734,-1100.337646484375
8.77111911191119e6,306.7930908203125,-26.65052032470703,22.323869705200195,-304.8168029785156
8.77111911191119e6,791.1530151367188,-10.598464012145996,-30.262462615966797,-790.5028686523438
8.77111911191119e6,148.93753051757812,37.22068786621094,67.1346435546875,-127.63169860839844
8.77111911191119e6,337.0834045410156,-36.72311019897461,-10.373595237731934,-334.9162902832031
8.77111911191119e6,20.07853889465332,-3.972149133682251,19.490280151367188,2.7200613021850586
8.77111911191119e6,73.24668884277344,-30.897193908691406,4.6328325271606445,-66.24860382080078
8.77111911191119e6,308.611083984375,-14.766403198242188,14.242409706115723,-307.9282531738281
8.77111911191119e6,160.07150268554688,102.30854797363281,107.24539947509766,60.449729919433594
8.77111911191119e6,66.31016540527344,-29.400644302368164,55.764930725097656,20.56241798400879
8.77111911191119e6,78.21333312988281,38.99013900756836,25.39516830444336,-62.86556625366211
8.77111911191119e6,96.13622283935547,31.00077247619629,30.32282257080078,85.79948425292969
8.77111911191119e6,801.8577270507812,32.47590255737305,26.023622512817383,800.7769775390625
8.77111911191119e6,112.87561798095703,20.870113372802734,32.08403778076172,-106.1878433227539
8.77111911191119e6,114.85415649414062,-31.750226974487305,30.09688949584961,106.19546508789062
8.77111911191119e6,441.4404296875,-26.0234375,24.836326599121094,-439.9721374511719
8.77111911191119e6,1061.2969970703125,-13.083659172058105,-61.27427291870117,-1059.44580078125
8.77111911191119e6,78.30467224121094,-35.80179977416992,-9.805336952209473,68.94641876220703
8.77111911191119e6,263.908447265625,32.604610443115234,-8.699110984802246,261.7419128417969
8.77111911191119e6,83.79490661621094,27.893892288208008,33.23396301269531,71.68627166748047
8.77111911191119e6,60.899593353271484,-19.964679718017578,-7.3336181640625,-57.06391143798828
8.77111911191119e6,21.256839752197266,-13.520353317260742,-4.945342540740967,15.636396408081055
8.77111911191119e6,619.002197265625,25.9962100982666,34.70717239379883,-617.4813842773438
8.77111911191119e6,40.71072006225586,-24.75282096862793,12.626565933227539,-29.751142501831055
8.77111911191119e6,78.32738494873047,-27.553691864013672,27.722532272338867,-67.87734985351562
8.77111911191119e6,578.2352294921875,3.644024133682251,3.8457682132720947,578.2108764648438
8.77111911191119e6,597.6173706054688,-32.586212158203125,-23.828014373779297,596.2522583007812
8.77111911191119e6,114.09136962890625,34.40076446533203,-20.437379837036133,106.84400177001953
8.77111911191119e6,188.05917358398438,-25.26229476928711,22.87793731689453,184.94476318359375
8.77111911191119e6,43.66938400268555,-3.0186660289764404,-40.54428482055664,15.936239242553711
8.77111911191119e6,1324.931396484375,6.533289432525635,-31.60666275024414,1324.5382080078125
8.77111911191119e6,477.1032409667969,12.319196701049805,-28.86297607421875,-476.0699157714844
8.77111911191119e6,218.99862670898438,-47.6746826171875,23.248775482177734,212.47804260253906
8.77111911191119e6,403.6795349121094,-30.8413143157959,48.553157806396484,-399.5603332519531
8.77111911191119e6,35.58855438232422,-20.669904708862305,16.601882934570312,-23.739795684814453
8.77111911191119e6,335.02386474609375,8.01951789855957,41.382938385009766,-332.3612976074219
8.77111911191119e6,808.4420776367188,-21.02677345275879,-37.82403564453125,807.282958984375
8.77111911191119e6,266.8494873046875,54.41376876831055,2.031329870223999,261.23468017578125
8.77111911191119e6,76.7748794555664,6.323661804199219,29.544815063476562,70.57901000976562
8.77111911191119e6,10.041300773620605,-1.7781671285629272,-0.9394193291664124,9.832768440246582
8.77111911191119e6,42.12913131713867,-13.270899772644043,32.64003372192383,-23.092754364013672
8.77111911191119e6,600.5358276367188,28.526880264282227,24.575469970703125,599.3541870117188
8.77111911191119e6,151.9232635498047,27.184568405151367,-31.04875946044922,146.21063232421875
8.77111911191119e6,1012.5333251953125,-33.199642181396484,10.336125373840332,1011.93603515625
8.77111911191119e6,31.208003997802734,12.048917770385742,-8.354179382324219,-27.547609329223633
8.77111911191119e6,486.9052429199219,24.132671356201172,-8.246045112609863,486.23681640625
8.77111911191119e6,567.897216796875,-24.579872131347656,26.97930145263672,-566.7230834960938
8.77111911191119e6,962.9735107421875,-0.4389580488204956,16.29523277282715,962.8355102539062
8.77111911191119e6,41.70302200317383,39.623008728027344,1.4471219778060913,12.921493530273438
8.77111911191119e6,456.7951354980469,-48.51283645629883,11.181694984436035,-454.073974609375
8.77111911191119e6,16.186237335205078,-14.972146987915039,3.5722620487213135,4.996805667877197
8.77111911191119e6,230.962646484375,-7.470022201538086,-37.438716888427734,-227.78538513183594
8.77111911191119e6,54.520816802978516,26.65546226501465,16.622901916503906,-44.55990219116211
8.77111911191119e6,1227.6553955078125,16.177175521850586,-16.145814895629883,1227.442626953125
8.77111911191119e6,559.3527221679688,-24.71562385559082,31.517866134643555,557.916748046875
8.77111911191119e6,24.131235122680664,-15.158239364624023,17.118619918823242,7.706954479217529
8.77111911191119e6,44.65957260131836,34.43812942504883,-9.852479934692383,26.67060661315918
8.77111911191119e6,32.82572937011719,-4.525333404541016,-6.263338088989258,-31.901731491088867
8.77111911191119e6,72.66093444824219,-15.483856201171875,-53.92341613769531,-46.17387008666992
8.77111911191119e6,22.835960388183594,12.924848556518555,-18.554773330688477,-3.170140027999878
8.77111911191119e6,66.98545837402344,-26.970767974853516,-17.536151885986328,-58.75383377075195
8.77111911191119e6,2109.029541015625,20.306907653808594,-27.681365966796875,-2108.75
8.77111911191119e6,31.556690216064453,-23.284530639648438,2.725351333618164,-21.12173843383789
8.77111911191119e6,218.94993591308594,-28.802724838256836,22.046892166137695,-215.92431640625
8.77111911191119e6,255.52574157714844,-1.273207426071167,20.746044158935547,-254.67880249023438
8.77111911191119e6,27.65148162841797,-4.469801902770996,23.861581802368164,-13.234434127807617
8.77111911191119e6,48.747745513916016,-33.61954116821289,3.803262948989868,35.092796325683594
8.77111911191119e6,163.1847686767578,-29.52573013305664,32.347835540771484,157.1973876953125
8.77111911191119e6,25.821704864501953,2.7813222408294678,-17.84849739074707,-18.4487361907959
8.77111911191119e6,233.1103515625,-48.58134460449219,-3.8569037914276123,-227.95901489257812
8.77111911191119e6,111.0784683227539,-17.138151168823242,-21.14945411682129,-107.69081115722656
8.77111911191119e6,594.6168823242188,-24.709070205688477,-18.260347366333008,593.822509765625
8.77111911191119e6,164.0183868408203,11.722116470336914,-19.031085968017578,-162.48797607421875
8.77111911191119e6,1236.2010498046875,20.832372665405273,23.683441162109375,-1235.798583984375
8.77111911191119e6,81.61058807373047,14.63680362701416,8.916187286376953,79.7900619506836
8.77111911191119e6,45.51008987426758,-30.90375328063965,-2.1175765991210938,33.33979797363281
8.77111911191119e6,17.602550506591797,-10.396684646606445,11.594817161560059,-8.198715209960938
8.77111911191119e6,100.92523956298828,-46.563697814941406,3.5301601886749268,89.4715805053711
8.77111911191119e6,79.05757141113281,-5.678602695465088,14.757147789001465,77.45953369140625
8.77111911191119e6,65.42479705810547,1.3268840312957764,27.977222442626953,-59.12544250488281
8.77111911191119e6,58.25662612915039,-3.803325891494751,-38.34809112548828,43.68859100341797
8.77111911191119e6,46.67320251464844,-26.69623565673828,-23.622459411621094,-30.126039505004883
8.77111911191119e6,417.0742492675781,-9.424007415771484,19.20598602294922,-416.52508544921875
8.77111911191119e6,258.8962707519531,-36.631649017333984,-5.605886459350586,-256.2301025390625
8.77111911191119e6,1194.394775390625,-6.664449691772461,-10.047940254211426,-1194.3338623046875
8.77111911191119e6,16.998676300048828,12.025715827941895,9.66089916229248,-7.134716510772705
8.77111911191119e6,2045.41064453125,-5.458184242248535,30.29682731628418,-2045.178955078125
8.77111911191119e6,68.03179931640625,-35.67544174194336,-11.978693008422852,-56.674503326416016
8.77111911191119e6,1192.646728515625,-10.198141098022461,-34.01911544799805,1192.1177978515625
8.77111911191119e6,376.34918212890625,-44.596683502197266,12.030380249023438,-373.5036926269531
8.77111911191119e6,81.32520294189453,10.441654205322266,42.12247085571289,-68.77759552001953
8.77111911191119e6,20.50674819946289,-11.63113784790039,0.697544276714325,-16.871776580810547
8.77111911191119e6,75.449462890625,3.9561853408813477,21.838468551635742,72.11068725585938
8.77111911191119e6,126.99447631835938,-5.434689044952393,-30.17040252685547,-123.2384262084961
8.77111911191119e6,140.6446075439453,-15.242754936218262,-28.431480407714844,-136.89453125
8.77111911191119e6,49.28609848022461,10.98682689666748,-17.07396697998047,44.90867233276367
8.77111911191119e6,161.4784698486328,45.8984489440918,22.708059310913086,-153.143310546875
8.77111911191119e6,324.7576599121094,19.909496307373047,-62.56501388549805,-318.0513610839844
8.77111911191119e6,168.13340759277344,12.775425910949707,33.083431243896484,164.3502960205078
8.77111911191119e6,25.976539611816406,18.608905792236328,-18.092130661010742,-1.0315338373184204
8.77111911191119e6,267.9523010253906,7.49493408203125,-21.175344467163086,267.0089111328125
8.77111911191119e6,136.31211853027344,-29.200876235961914,0.3310178816318512,-133.14688110351562
8.77111911191119e6,28.14584732055664,15.269248008728027,-19.38409996032715,-13.53497314453125
8.77111911191119e6,263.6454772949219,-13.797149658203125,-36.648677825927734,-260.7208251953125
8.77111911191119e6,208.05667114257812,6.469559192657471,-22.720455169677734,-206.71092224121094
8.77111911191119e6,48.39841842651367,-2.296251058578491,19.213577270507812,-44.36071014404297
8.77111911191119e6,59.890647888183594,26.723175048828125,28.16963005065918,45.59751510620117
8.77111911191119e6,306.26934814453125,-29.777225494384766,31.947296142578125,-303.139404296875
8.77111911191119e6,178.3592529296875,2.2493948936462402,-37.75259780883789,-174.30319213867188
8.77111911191119e6,79.57296752929688,-43.706809997558594,-30.143054962158203,59.26945877075195
8.77111911191119e6,24.425825119018555,-21.438478469848633,0.5134995579719543,11.689691543579102
8.77111911191119e6,345.9495849609375,40.52272415161133,0.4819034934043884,-343.5675964355469
8.77111911191119e6,97.13214874267578,-4.52816104888916,9.602778434753418,-96.5496597290039
8.77111911191119e6,120.8305435180664,38.699554443359375,-36.38582229614258,-108.52804565429688
8.77111911191119e6,28.184139251708984,10.688739776611328,25.97016716003418,-2.3552021980285645
8.77111911191119e6,119.31541442871094,-42.07704544067383,-40.0423469543457,-104.22188568115234
8.77111911191119e6,222.6722412109375,20.17121696472168,-15.450481414794922,-221.21762084960938
8.77111911191119e6,23.59995460510254,-23.35777473449707,-1.8259670734405518,2.8174514770507812
8.77111911191119e6,228.5562286376953,14.572615623474121,26.271081924438477,226.57298278808594
8.77111911191119e6,885.36767578125,2.213214874267578,-43.092262268066406,-884.3155517578125
8.77111911191119e6,253.2161102294922,-12.713869094848633,-32.91679000854492,-250.74517822265625
8.77111911191119e6,44.39500427246094,18.015636444091797,-39.462894439697266,-9.43043041229248
8.77111911191119e6,332.95367431640625,-24.380949020385742,-4.668861389160156,-332.0268249511719
8.77111911191119e6,98.2217788696289,22.97821044921875,-15.949918746948242,94.15423583984375
8.77111911191119e6,1030.0452880859375,-35.73115539550781,-6.911152362823486,1029.402099609375
8.77111911191119e6,68.48785400390625,-24.252683639526367,-17.69268226623535,-61.556983947753906
8.77111911191119e6,24.917919158935547,-20.715328216552734,6.076692581176758,12.439920425415039
8.77111911191119e6,36.78105545043945,-13.761804580688477,-16.736825942993164,29.71931266784668
8.77111911191119e6,55.24196243286133,5.428106784820557,-41.817604064941406,-35.68470001220703
8.77111911191119e6,223.74586486816406,-63.59432601928711,53.08201217651367,-207.8465118408203
8.77111911191119e6,525.2778930664062,-49.091148376464844,8.220152854919434,-522.9141845703125
8.77111911191119e6,548.2405395507812,-23.1174373626709,-31.225759506225586,546.862060546875
8.77111911191119e6,637.2247924804688,-44.92747497558594,-2.1769988536834717,635.6351928710938
8.77111911191119e6,26.635950088500977,8.606865882873535,-24.929824829101562,3.714780569076538
8.77111911191119e6,741.9759521484375,-1.4769736528396606,20.56800651550293,-741.6892700195312
8.77111911191119e6,185.8331298828125,-50.664588928222656,-10.464703559875488,-178.48654174804688
8.77111911191119e6,119.78856658935547,-23.22184181213379,-17.3786678314209,116.2236099243164
8.77111911191119e6,240.2427978515625,-41.38896560668945,22.98204803466797,-235.5319061279297
8.77111911191119e6,15.530823707580566,8.65524673461914,-12.73536491394043,2.0009145736694336
8.77111911191119e6,539.8070678710938,33.1580924987793,-22.403911590576172,538.3216552734375
8.77111911191119e6,63.38760757446289,22.115785598754883,-29.511707305908203,-51.55424118041992
8.77111911191119e6,92.14286804199219,24.993494033813477,9.99864387512207,-88.12242126464844
8.77111911191119e6,161.2652130126953,-0.3246958255767822,39.407470703125,156.3755645751953
8.77111911191119e6,618.7471923828125,-9.784109115600586,-42.30152893066406,617.2218627929688
8.77111911191119e6,14.026135444641113,-10.345198631286621,8.098185539245605,-4.901911735534668
8.77111911191119e6,76.1552963256836,-33.60174560546875,-39.609188079833984,55.69169235229492
8.77111911191119e6,541.9048461914062,-37.909576416015625,-4.544562339782715,540.5579833984375
8.77111911191119e6,928.3200073242188,13.856085777282715,-3.457658290863037,928.2100830078125
8.77111911191119e6,37.233768463134766,-8.459065437316895,9.367403030395508,35.027835845947266
8.77111911191119e6,361.9107360839844,7.450995445251465,-31.55765724182129,360.4551086425781
8.77111911191119e6,31.73919105529785,19.623558044433594,-20.569355010986328,-14.110066413879395
8.77111911191119e6,343.5217590332031,15.28062629699707,-36.04093933105469,341.2838439941406
8.77111911191119e6,277.1040344238281,53.52681350708008,-10.32763671875,271.688720703125
8.77111911191119e6,24.6393985748291,21.643444061279297,0.001221215003170073,-11.771204948425293
8.77111911191119e6,56.848453521728516,-36.92409896850586,11.777020454406738,41.58797073364258
8.77111911191119e6,528.8095092773438,18.265844345092773,-2.91154146194458,528.48583984375
8.77111911191119e6,17.222564697265625,-13.982378959655762,-5.016106128692627,8.70910358428955
8.77111911191119e6,145.45509338378906,-20.590103149414062,-78.66596221923828,120.60181427001953
8.77111911191119e6,29.09502410888672,-18.344940185546875,-17.270633697509766,-14.546783447265625
8.77111911191119e6,19.424043655395508,18.51492691040039,-5.503945350646973,-2.02423095703125
8.77111911191119e6,66.68603515625,-53.1069450378418,32.04434585571289,24.489578247070312
8.77111911191119e6,471.06121826171875,-22.676856994628906,-5.588252544403076,470.4817810058594
8.77111911191119e6,36.14607238769531,-6.394974708557129,11.187996864318848,33.769386291503906
8.77111911191119e6,96.40095520019531,3.2325265407562256,-32.14878845214844,90.82428741455078
8.77111911191119e6,152.08233642578125,-32.19942855834961,-19.5343074798584,-147.34498596191406
8.77111911191119e6,437.632080078125,7.285464286804199,4.285266876220703,437.5503234863281
8.77111911191119e6,197.9521026611328,-43.09805679321289,46.60268020629883,187.4984893798828
8.77111911191119e6,79.14588165283203,6.426711559295654,-8.989797592163086,-78.36996459960938
8.77111911191119e6,146.74981689453125,18.611797332763672,25.442899703979492,143.3236541748047
8.77111911191119e6,452.9947204589844,40.15401840209961,32.66120529174805,-450.02777099609375
8.77111911191119e6,56.225799560546875,-21.855560302734375,0.9447382688522339,-51.79461669921875
8.77111911191119e6,122.78482055664062,36.50430679321289,53.51959228515625,104.30293273925781
8.77111911191119e6,98.77537536621094,19.23505401611328,-0.35327935218811035,-96.88324737548828
8.77111911191119e6,170.3686981201172,28.75497055053711,-29.24173927307129,-165.3585968017578
8.77111911191119e6,5.254580497741699,2.295140027999878,0.3165934383869171,-4.705604553222656
8.77111911191119e6,94.18888854980469,9.026545524597168,-37.091583251953125,86.10565185546875
8.77111911191119e6,298.1375427246094,24.76641273498535,17.6602783203125,296.5815734863281
8.77111911191119e6,917.4010620117188,-27.82339096069336,1.3521921634674072,916.97802734375
8.77111911191119e6,117.45105743408203,-5.895162582397461,44.0919075012207,108.70051574707031
8.77111911191119e6,701.2511596679688,34.32597351074219,-29.38624382019043,-699.7937622070312
8.77111911191119e6,1982.311767578125,4.373286247253418,28.197847366333008,1982.1063232421875
8.77111911191119e6,23.845800399780273,1.3492707014083862,23.402273178100586,-4.362936973571777
8.77111911191119e6,468.9515075683594,22.89080047607422,34.04373550415039,467.153564453125
8.77111911191119e6,35.657527923583984,35.24907684326172,-5.027654647827148,-1.8932881355285645
8.77111911191119e6,42.27995300292969,31.769203186035156,-10.331584930419922,-25.91274642944336
8.77111911191119e6,86.64153289794922,-9.23802375793457,42.069149017333984,-75.17646026611328
8.77111911191119e6,178.09722900390625,-22.30731201171875,-23.415019989013672,-175.1360626220703
8.77111911191119e6,97.26512908935547,4.121408939361572,-14.647266387939453,96.06704711914062
8.77111911191119e6,2726.604736328125,-3.936763048171997,21.723161697387695,-2726.51513671875
8.77111911191119e6,1302.2413330078125,7.53501558303833,-26.779565811157227,1301.944091796875
8.77111911191119e6,27.500646591186523,5.614649772644043,-26.279891967773438,5.833404064178467
8.77111911191119e6,444.59136962890625,-15.576531410217285,-16.89137077331543,-443.99713134765625
8.77111911191119e6,146.26637268066406,15.916825294494629,31.704439163208008,141.89866638183594
8.77111911191119e6,150.6783447265625,35.44843673706055,19.454025268554688,-145.1510009765625
8.77111911191119e6,58.17287063598633,-1.8973040580749512,-12.636722564697266,-56.75117874145508
8.77111911191119e6,68.98101043701172,52.48564910888672,-22.447324752807617,-38.725372314453125
8.77111911191119e6,89.41314697265625,-4.736298561096191,-86.21703338623047,23.212093353271484
8.77111911191119e6,45.05336380004883,31.085063934326172,-28.596323013305664,-15.67401123046875
8.77111911191119e6,356.93536376953125,-110.76110076904297,69.14817810058594,-332.1946105957031
8.77111911191119e6,704.0950927734375,66.57269287109375,2.908937931060791,700.9346923828125
8.77111911191119e6,3341.32958984375,-4.261566638946533,4.361192226409912,3341.323974609375
8.77111911191119e6,20.79181480407715,-16.719255447387695,2.4345932006835938,12.113579750061035
8.77111911191119e6,306.6675109863281,-17.19070053100586,-19.487672805786133,-305.5643615722656
8.77111911191119e6,138.1215057373047,-27.24579620361328,4.693139553070068,135.32586669921875
8.77111911191119e6,166.31353759765625,40.5737190246582,-9.650453567504883,160.99917602539062
8.77111911191119e6,24.19969940185547,18.113046646118164,11.393052101135254,11.297847747802734
8.77111911191119e6,27.24195671081543,-11.575810432434082,-10.517845153808594,-22.302461624145508
8.77111911191119e6,862.2478637695312,-9.54163646697998,2.1690022945404053,-862.1923217773438
8.77111911191119e6,223.72427368164062,-17.2301082611084,42.8235969543457,218.91029357910156
8.77111911191119e6,92.0738296508789,18.815492630004883,46.24509811401367,77.36186981201172
8.77111911191119e6,137.024169921875,-4.837472438812256,-14.292247772216797,136.1905059814453
8.77111911191119e6,115.08651733398438,43.98676681518555,21.97028160095215,-104.05419921875
8.77111911191119e6,409.0655822753906,16.214454650878906,-39.54948425292969,406.82611083984375
8.77111911191119e6,703.6853637695312,63.949371337890625,-1.3477330207824707,-700.7721557617188
8.77111911191119e6,58.95580291748047,-34.725425720214844,-13.417986869812012,45.71421432495117
8.77111911191119e6,171.0420684814453,-12.588226318359375,-22.557388305664062,-169.079833984375
8.77111911191119e6,2175.717529296875,35.264930725097656,-0.6235432028770447,2175.431640625
8.77111911191119e6,52.615047454833984,-11.623082160949707,39.18516159057617,-33.131107330322266
8.77111911191119e6,174.6328125,14.952240943908691,28.922208786010742,171.570556640625
8.77111911191119e6,16.9672794342041,-4.212775230407715,-16.30291748046875,2.063002586364746
8.77111911191119e6,200.5055694580078,34.427276611328125,9.496051788330078,-197.2991943359375
8.77111911191119e6,36.786415100097656,-21.50598907470703,16.77118682861328,-24.685218811035156
8.77111911191119e6,256.29931640625,-36.86839294433594,13.592467308044434,253.26902770996094
8.77111911191119e6,38.47269058227539,1.0419528484344482,-23.028095245361328,-30.800474166870117
8.77111911191119e6,2129.3486328125,7.743502140045166,9.46971607208252,-2129.3134765625
8.77111911191119e6,58.88915252685547,36.383209228515625,-18.510746002197266,42.443450927734375
8.77111911191119e6,1217.68896484375,-34.741580963134766,-0.018167072907090187,-1217.1932373046875
8.77111911191119e6,583.150634765625,25.325105667114258,-28.441864013671875,-581.90576171875
8.77111911191119e6,222.95542907714844,-4.4932708740234375,-16.087812423706055,222.32861328125
8.77111911191119e6,162.47499084472656,-90.99144744873047,41.83056640625,127.94053649902344
8.77111911191119e6,1797.6375732421875,10.046969413757324,-34.46823501586914,-1797.2789306640625
8.77111911191119e6,321.897705078125,-16.318092346191406,-17.30616569519043,-321.0175476074219
8.77111911191119e6,76.71683502197266,-39.40469741821289,5.522860527038574,65.5906982421875
8.77111911191119e6,93.73145294189453,-42.91423797607422,10.23245906829834,-82.69915771484375
8.77111911191119e6,136.61630249023438,-27.043561935424805,-17.571510314941406,-132.75466918945312
8.77111911191119e6,20.612268447875977,16.43603515625,7.3382720947265625,10.038533210754395
8.77111911191119e6,353.3035583496094,-22.889636993408203,-23.133594512939453,-351.8013610839844
8.77111911191119e6,25.777645111083984,-4.558669567108154,19.14006805419922,16.65122413635254
8.77111911191119e6,254.11000061035156,-3.6315829753875732,16.799161911010742,253.52789306640625
8.77111911191119e6,21.595109939575195,-16.890506744384766,-12.883977890014648,-3.868169069290161
8.77111911191119e6,41.7556266784668,32.6792106628418,-24.85663414001465,7.592718601226807
8.77111911191119e6,861.0726318359375,40.94701385498047,26.128915786743164,-859.701416015625
8.77111911191119e6,129.4496307373047,-7.7080583572387695,19.87533950805664,-127.68187713623047
8.77111911191119e6,39.05704116821289,-22.258852005004883,4.07873010635376,-31.831741333007812
8.77111911191119e6,28.48737907409668,13.11765193939209,-14.232635498046875,-20.89952278137207
8.77111911191119e6,88.36194610595703,-43.094017028808594,75.82113647460938,14.205428123474121
8.77111911191119e6,207.0117950439453,-43.82084274291992,5.657376289367676,202.2412109375
8.77111911191119e6,54.13980484008789,-46.03706359863281,-1.4870637655258179,28.449886322021484
8.77111911191119e6,1793.5894775390625,18.156139373779297,19.120393753051758,1793.3956298828125
8.77111911191119e6,273.15771484375,-21.83613395690918,30.09337043762207,-270.615234375
8.77111911191119e6,8.036364555358887,2.270498037338257,-7.079287052154541,3.0350775718688965
8.77111911191119e6,85.7979965209961,30.99756622314453,35.82414627075195,-71.53305053710938
8.77111911191119e6,223.1896514892578,75.40040588378906,-41.78123092651367,-205.87042236328125
8.77111911191119e6,605.5712280273438,-20.17817497253418,8.044464111328125,-605.1814575195312
8.77111911191119e6,125.90608215332031,17.299819946289062,-19.929306030273438,123.10881805419922
8.77111911191119e6,891.2860107421875,-29.200319290161133,-40.75480651855469,889.874755859375
8.77111911191119e6,47.32625198364258,-26.62718391418457,30.03207778930664,-25.074716567993164
8.77111911191119e6,59.71824264526367,4.255160331726074,58.61907958984375,-10.576637268066406
8.77111911191119e6,86.6855239868164,15.201656341552734,23.854820251464844,-81.9398422241211
8.77111911191119e6,64.08790588378906,52.515892028808594,-33.89116287231445,-14.164387702941895
8.77111911191119e6,43.594825744628906,-18.75356101989746,-33.26143264770508,21.033071517944336
8.77111911191119e6,24.78322982788086,14.274853706359863,10.435135841369629,-17.362171173095703
8.77111911191119e6,51.03624725341797,8.442176818847656,-16.767196655273438,47.457237243652344
8.77111911191119e6,1455.452880859375,-6.708591461181641,-0.38539740443229675,1455.437255859375
8.77111911191119e6,609.996337890625,-24.901151657104492,7.636771202087402,-609.43994140625
8.77111911191119e6,118.49748229980469,17.72779083251953,-32.11421203613281,112.67633819580078
8.77111911191119e6,2951.514404296875,31.23988151550293,-3.410796642303467,-2951.34716796875
8.77111911191119e6,567.9021606445312,26.064327239990234,0.9960788488388062,567.302734375
8.77111911191119e6,42.27326583862305,2.287205696105957,26.770017623901367,-32.635318756103516
8.77111911191119e6,66.44647979736328,18.96184730529785,34.45481872558594,-53.55696487426758
8.77111911191119e6,45.823326110839844,-28.43571662902832,24.604854583740234,26.185651779174805
8.77111911191119e6,776.7307739257812,-37.09773635864258,-17.82964515686035,775.639404296875
8.77111911191119e6,942.833740234375,4.136148929595947,25.830289840698242,942.4707641601562
8.77111911191119e6,123.1174087524414,-49.8564567565918,8.58577823638916,112.24266052246094
8.77111911191119e6,219.7315216064453,11.749762535095215,7.405817031860352,-219.29190063476562
8.77111911191119e6,143.34291076660156,-32.22932052612305,5.061688423156738,-139.58059692382812
8.77111911191119e6,80.85478210449219,3.3721985816955566,19.230140686035156,-78.46162414550781
8.77111911191119e6,182.5905303955078,-14.62852954864502,23.210161209106445,-180.51730346679688
8.77111911191119e6,43.216941833496094,-1.1141433715820312,-23.29937744140625,36.37996292114258
8.77111911191119e6,51.33685302734375,-33.040470123291016,3.6695666313171387,39.11820983886719
8.77111911191119e6,626.8473510742188,-45.31109619140625,-9.109332084655762,625.14111328125
8.77111911191119e6,195.6627960205078,-93.91339111328125,89.8730697631836,-146.2427215576172
8.77111911191119e6,225.85525512695312,67.1928482055664,-39.51655197143555,211.97654724121094
8.77111911191119e6,124.89228057861328,47.44078063964844,-1.3745559453964233,115.52257537841797
8.77111911191119e6,823.5609741210938,-47.857608795166016,-23.945528030395508,821.8204345703125
8.77111911191119e6,529.3065185546875,32.07810974121094,-12.938483238220215,528.175048828125
8.77111911191119e6,263.329345703125,-59.30750274658203,-21.867849349975586,-255.62994384765625
8.77111911191119e6,958.577392578125,-38.7280387878418,62.46259689331055,-955.7557373046875
8.77111911191119e6,116.45398712158203,24.232940673828125,29.829849243164062,-109.92896270751953
8.77111911191119e6,86.49742889404297,36.9268913269043,-25.285964965820312,-74.01844024658203
8.77111911191119e6,12.429951667785645,-9.475711822509766,7.71283483505249,-2.264233350753784
8.77111911191119e6,233.00790405273438,49.98220443725586,-23.391759872436523,-226.37840270996094
8.77111911191119e6,114.36238098144531,17.876482009887695,-14.378242492675781,-112.03727722167969
8.77111911191119e6,200.83042907714844,7.438924789428711,-27.65835952758789,-198.77735900878906
8.77111911191119e6,196.24424743652344,-40.80792236328125,-31.700536727905273,189.31849670410156
8.77111911191119e6,84.91503143310547,-51.209625244140625,7.974996089935303,67.26393127441406
8.77111911191119e6,100.81356048583984,24.843175888061523,-5.487696647644043,97.54985809326172
8.77111911191119e6,94.8951416015625,-20.051361083984375,29.749483108520508,87.85157775878906
8.77111911191119e6,19.751144409179688,-4.935204029083252,16.969776153564453,8.813522338867188
8.77111911191119e6,265.6401062011719,50.89875793457031,-17.940364837646484,-260.10003662109375
8.77111911191119e6,2991.718994140625,7.135140895843506,19.423316955566406,-2991.6474609375
8.77111911191119e6,59.23134231567383,-33.27952194213867,17.102109909057617,-45.915611267089844
8.77111911191119e6,570.9593505859375,-3.070394515991211,-20.445390701293945,570.5847778320312
8.77111911191119e6,202.33676147460938,38.335758209228516,-3.7079224586486816,198.63706970214844
8.77111911191119e6,28.39687728881836,-26.158916473388672,-10.124613761901855,4.4142913818359375
8.77111911191119e6,379.66259765625,29.721956253051758,-16.556011199951172,378.1350402832031
8.77111911191119e6,1342.853515625,-40.87630081176758,-0.18177002668380737,-1342.231201171875
8.77111911191119e6,38.674354553222656,-16.115554809570312,19.497774124145508,-29.25288963317871
8.77111911191119e6,311.1123352050781,22.634458541870117,-4.014275074005127,-310.2617492675781
8.77111911191119e6,46.524658203125,-35.51191711425781,17.541624069213867,-24.40571403503418
8.77111911191119e6,421.3930358886719,-24.250749588012695,-35.700504302978516,-419.177001953125
8.77111911191119e6,108.9937515258789,20.162269592285156,13.768336296081543,-106.22360229492188
8.77111911191119e6,1034.2645263671875,-6.743743419647217,36.86724853515625,1033.585205078125
8.77111911191119e6,89.26130676269531,35.282875061035156,3.3245482444763184,-81.92403411865234
8.77111911191119e6,61.41963577270508,8.624612808227539,33.635772705078125,50.660858154296875
8.77111911191119e6,298.6030578613281,-38.694637298583984,5.341618537902832,-296.0369567871094
8.77111911191119e6,20.477033615112305,6.701500415802002,-11.538359642028809,-15.529491424560547
